%YAML:1.0
---
opencv_ml_svm:
   format: 3
   svmType: C_SVC
   kernel:
      type: RBF
      gamma: 5.
   C: 5.
   term_criteria: { epsilon:1.1920928955078125e-07, iterations:1000 }
   var_count: 512
   class_count: 2
   class_labels: !!opencv-matrix
      rows: 2
      cols: 1
      dt: i
      data: [ 0, 1 ]
   sv_total: 567
   support_vectors:
      - [ 0., 0., 0., 1.75325840e-03, 9.64292139e-03, 3.33119109e-02,
          4.03249450e-02, 8.32797736e-02, 0., 0., 0., 3.50651680e-03,
          5.69808967e-02, 2.27046967e-01, 7.88966268e-02, 4.55847196e-02,
          0., 0., 0., 1.40260672e-02, 1.20098203e-01, 6.31173015e-01,
          3.54158193e-01, 3.68184261e-02, 0., 0., 8.76629201e-04,
          7.88966287e-03, 1.91105172e-01, 3.04190338e-01, 2.55975723e-01,
          1.84092131e-02, 0., 0., 0., 5.25977509e-03, 1.02565616e-01,
          2.27046967e-01, 9.81824696e-02, 5.25977509e-03, 0., 0., 0.,
          8.76629201e-04, 2.89287642e-02, 1.36754155e-01, 9.64292139e-03,
          0., 0., 0., 0., 0., 1.75325840e-03, 8.76629166e-03,
          2.62988755e-03, 0., 0., 0., 0., 0., 0., 0., 0., 0., 0., 0., 0.,
          1.75325840e-03, 4.38314583e-03, 6.13640435e-03, 3.85716856e-02,
          3.50651667e-02, 0., 0., 0., 8.76629201e-04, 5.25977509e-03, 0.,
          0., 0., 0., 0., 0., 0., 0., 0., 0., 0., 0., 0., 0., 0., 0., 0.,
          0., 0., 0., 0., 0., 0., 0., 0., 0., 0., 0., 0., 0., 0., 0., 0.,
          0., 0., 0., 0., 0., 0., 0., 0., 0., 0., 0., 0., 0., 0., 0., 0.,
          0., 0., 0., 0., 0., 0., 2.62988755e-03, 7.01303361e-03,
          2.80521344e-02, 5.34743816e-02, 0., 0., 0., 8.76629201e-04,
          2.62988755e-03, 0., 0., 3.50651680e-03, 0., 0., 0., 0., 0., 0.,
          0., 0., 0., 0., 0., 0., 0., 0., 0., 0., 0., 0., 0., 0., 0., 0.,
          0., 0., 0., 0., 0., 0., 0., 0., 0., 0., 0., 0., 0., 0., 0., 0.,
          0., 0., 0., 0., 0., 0., 0., 0., 0., 0., 0., 0., 0.,
          1.75325840e-03, 1.13961799e-02, 1.13961799e-02, 1.75325833e-02,
          3.33119109e-02, 0., 0., 0., 7.01303361e-03, 7.88966287e-03,
          1.05195502e-02, 6.13640435e-03, 1.75325840e-03, 0., 0., 0.,
          8.76629201e-04, 1.75325840e-03, 0., 0., 0., 0., 0., 0., 0., 0.,
          0., 0., 0., 0., 0., 0., 0., 0., 0., 0., 0., 0., 0., 0., 0., 0.,
          0., 0., 0., 0., 0., 0., 0., 0., 0., 0., 0., 0., 0., 0., 0., 0.,
          0., 0., 0., 0., 0., 0., 9.64292139e-03, 3.24352793e-02,
          6.57471940e-02, 7.01303361e-03, 2.19157301e-02, 0., 0., 0.,
          7.88966287e-03, 3.33119109e-02, 3.15586515e-02, 3.50651680e-03,
          0., 0., 0., 0., 4.38314583e-03, 7.88966287e-03, 0., 0., 0., 0.,
          0., 0., 0., 0., 0., 0., 0., 0., 0., 0., 0., 0., 0., 0., 0., 0.,
          0., 0., 0., 0., 0., 0., 0., 0., 0., 0., 0., 0., 0., 0., 0., 0.,
          0., 0., 0., 0., 0., 0., 0., 0., 0., 0., 1.75325840e-03,
          1.40260672e-02, 5.78575283e-02, 4.38314583e-03, 1.49026969e-02,
          0., 0., 0., 1.75325840e-03, 2.62988769e-02, 2.28800222e-01,
          4.03249450e-02, 1.75325840e-03, 0., 0., 0., 2.62988755e-03,
          5.34743816e-02, 1.27111241e-01, 7.88966268e-02, 0., 0., 0., 0.,
          8.76629201e-04, 1.84092131e-02, 8.76629166e-03, 2.62988755e-03,
          0., 0., 0., 0., 0., 0., 2.62988755e-03, 0., 0., 0., 0., 0., 0.,
          0., 0., 0., 0., 0., 0., 0., 0., 0., 0., 0., 0., 0., 0., 0., 0.,
          0., 0., 0., 0., 0., 0., 0., 0., 0., 0., 0., 0., 0., 0., 0., 0.,
          0., 0., 0., 0., 0., 0., 0., 0., 0., 0., 0., 0., 0., 0., 0., 0.,
          0., 0., 0., 0., 0., 0., 0., 0., 0., 0., 0., 0., 0., 0., 0., 0.,
          0., 0., 0., 0., 0., 0., 0., 0., 0., 0., 0., 0., 0., 0., 0., 0.,
          0., 0., 0., 0., 0., 0., 0., 0., 0., 0., 0., 0., 0., 0., 0., 0.,
          0., 0., 0., 0., 0., 0., 0., 0., 0., 0., 0., 0., 0., 0., 0., 0.,
          0., 0., 0., 0., 0., 0., 0., 0., 0., 0., 0., 0., 0., 0., 0., 0.,
          0., 0., 0., 0., 0., 0., 0., 0., 0., 0., 0., 0., 0., 0., 0., 0.,
          0., 0., 0., 0. ]
      - [ 0., 0., 1.55242824e-03, 1.00907832e-02, 1.83186531e-01,
          1.66886032e-01, 4.96777035e-02, 1.53690398e-01, 0., 0.,
          3.10485647e-03, 3.57058495e-02, 4.61847395e-01, 5.38692594e-01,
          5.35587743e-02, 8.53835512e-03, 0., 0., 2.32864241e-03,
          6.05446994e-02, 3.41534197e-01, 2.66241431e-01, 2.09577810e-02,
          1.00907832e-02, 0., 0., 7.76214118e-04, 9.31456964e-03,
          9.78029817e-02, 7.99500570e-02, 1.16432114e-02, 1.55242821e-02,
          0., 0., 7.76214118e-04, 1.55242824e-03, 2.32864241e-03,
          3.64820622e-02, 2.87199225e-02, 1.24194259e-02, 0., 0., 0., 0.,
          0., 6.98592700e-03, 1.55242824e-03, 0., 0., 0., 0., 0., 0., 0.,
          0., 0., 0., 0., 0., 0., 0., 0., 0., 0., 0., 0., 0.,
          7.76214118e-04, 3.18247788e-02, 1.70767102e-02, 3.64820622e-02,
          1.39718540e-02, 0., 0., 0., 0., 2.32864241e-03, 0.,
          1.55242824e-03, 0., 0., 0., 0., 0., 0., 0., 0., 0., 0., 0., 0.,
          0., 0., 0., 0., 0., 0., 0., 0., 0., 0., 0., 0., 0., 0., 0., 0.,
          0., 0., 0., 0., 0., 0., 0., 0., 0., 0., 0., 0., 0., 0., 0., 0.,
          0., 0., 0., 0., 0., 0., 0., 0., 1.55242824e-03, 8.53835512e-03,
          6.20971294e-03, 0., 7.76214118e-04, 0., 0., 0., 0.,
          7.76214118e-04, 0., 0., 0., 0., 0., 0., 0., 0., 0., 0., 0., 0.,
          0., 0., 0., 0., 0., 0., 0., 0., 0., 0., 0., 0., 0., 0., 0., 0.,
          0., 0., 0., 0., 0., 0., 0., 0., 0., 0., 0., 0., 0., 0., 0., 0.,
          0., 0., 0., 0., 0., 0., 0., 0., 0., 0., 7.76214118e-04,
          3.88107053e-03, 3.10485647e-03, 7.76214118e-04, 0., 0., 0., 0.,
          0., 2.32864241e-03, 0., 0., 0., 0., 0., 0., 0., 0., 0., 0., 0.,
          0., 0., 0., 0., 0., 0., 0., 0., 0., 0., 0., 0., 0., 0., 0., 0.,
          0., 0., 0., 0., 0., 0., 0., 0., 0., 0., 0., 0., 0., 0., 0., 0.,
          0., 0., 0., 0., 0., 0., 0., 0., 0., 0., 0., 7.76214118e-04,
          6.98592737e-02, 2.25102101e-02, 0., 1.31956404e-02, 0., 0., 0.,
          7.76214118e-04, 1.70767102e-02, 1.31956404e-02, 0., 0., 0., 0.,
          0., 0., 0., 0., 0., 0., 0., 0., 0., 0., 0., 0., 0., 0., 0., 0.,
          0., 0., 0., 0., 0., 0., 0., 0., 0., 0., 0., 0., 0., 0., 0., 0.,
          0., 0., 0., 0., 0., 0., 0., 0., 0., 0., 0., 0., 0., 0., 0., 0.,
          7.76214118e-04, 3.10485647e-03, 1.14879690e-01, 1.38942331e-01,
          6.20971294e-03, 1.86291393e-02, 0., 0., 2.32864241e-03,
          1.94053538e-02, 1.53690398e-01, 3.57058495e-01, 1.55242824e-03,
          0., 0., 0., 0., 8.53835512e-03, 2.40626372e-02, 9.31456964e-03,
          0., 0., 0., 0., 0., 0., 7.76214118e-04, 0., 0., 0., 0., 0., 0.,
          0., 0., 0., 0., 0., 0., 0., 0., 0., 0., 0., 0., 0., 0., 0., 0.,
          0., 0., 0., 0., 0., 0., 0., 0., 0., 0., 0., 0., 0., 0., 0., 0.,
          0., 0., 0., 0., 0., 0., 0., 0., 0., 0., 0., 0., 0., 0., 0., 0.,
          0., 0., 0., 0., 0., 0., 0., 0., 0., 0., 0., 0., 0., 0., 0., 0.,
          0., 0., 0., 0., 0., 0., 0., 0., 0., 0., 0., 0., 0., 0., 0., 0.,
          0., 0., 0., 0., 0., 0., 0., 0., 0., 0., 0., 0., 0., 0., 0., 0.,
          0., 0., 0., 0., 0., 0., 0., 0., 0., 0., 0., 0., 0., 0., 0., 0.,
          0., 0., 0., 0., 0., 0., 0., 0., 0., 0., 0., 0., 0., 0., 0., 0.,
          0., 0., 0., 0., 0., 0., 0., 0., 0., 0., 0., 0., 0., 0., 0., 0.,
          0., 0., 0., 0., 0., 0., 0., 0., 0., 0., 0., 0., 0. ]
      - [ 0., 0., 0., 1.65996309e-02, 1.39632195e-01, 6.54220730e-02,
          8.78803991e-03, 2.83170175e-02, 0., 0., 0., 7.22572207e-02,
          1.93336874e-01, 1.27914801e-01, 6.24927282e-02, 1.95289776e-02,
          0., 0., 9.76448879e-04, 4.39402014e-02, 1.18150316e-01,
          8.39746073e-02, 4.49166484e-02, 4.88224439e-03, 0., 0., 0.,
          2.83170175e-02, 8.39746073e-02, 6.63985237e-02, 2.63641197e-02,
          2.63641197e-02, 0., 0., 0., 9.76448879e-04, 5.85869327e-03,
          4.58930992e-02, 3.41757126e-02, 2.53876708e-02, 0., 0., 0., 0.,
          0., 8.78803991e-03, 1.17173865e-02, 0., 0., 0., 0., 0., 0., 0.,
          0., 0., 0., 0., 0., 0., 0., 0., 0., 0., 0., 0., 0.,
          5.85869327e-03, 9.76448879e-03, 1.26938354e-02, 5.85869327e-03,
          1.75760798e-02, 0., 0., 0., 0., 0., 9.76448879e-04,
          1.95289776e-03, 0., 0., 0., 0., 0., 9.76448879e-04, 0., 0., 0.,
          0., 0., 0., 0., 0., 0., 0., 0., 0., 0., 0., 0., 0., 0., 0., 0.,
          0., 0., 0., 0., 0., 0., 0., 0., 0., 0., 0., 0., 0., 0., 0., 0.,
          0., 0., 0., 0., 0., 0., 0., 0., 0., 0., 0., 1.95289776e-03,
          5.56575879e-02, 1.85525287e-02, 1.56231821e-02, 5.46811372e-02,
          0., 0., 0., 0., 1.56231821e-02, 1.07409377e-02, 0., 0., 0., 0.,
          0., 0., 0., 0., 0., 0., 0., 0., 0., 0., 0., 0., 0., 0., 0., 0.,
          0., 0., 0., 0., 0., 0., 0., 0., 0., 0., 0., 0., 0., 0., 0., 0.,
          0., 0., 0., 0., 0., 0., 0., 0., 0., 0., 0., 0., 0., 0., 0., 0.,
          0., 0., 2.50947356e-01, 1.70878559e-01, 2.92934664e-02,
          5.17517924e-02, 0., 0., 0., 0., 7.51865655e-02, 1.38655737e-01,
          7.81159103e-03, 1.95289776e-03, 0., 0., 0., 0., 0., 0., 0., 0.,
          0., 0., 0., 0., 0., 0., 0., 0., 0., 0., 0., 0., 0., 0., 0., 0.,
          0., 0., 0., 0., 0., 0., 0., 0., 0., 0., 0., 0., 0., 0., 0., 0.,
          0., 0., 0., 0., 0., 0., 0., 0., 0., 0., 0., 2.63641197e-02,
          4.81389314e-01, 3.22228134e-01, 0., 8.78803991e-03, 0., 0., 0.,
          2.63641197e-02, 2.69499898e-01, 4.88224439e-03, 0., 0., 0., 0.,
          0., 0., 0., 0., 0., 0., 0., 0., 0., 0., 0., 0., 0., 0., 0., 0.,
          0., 0., 0., 0., 0., 0., 0., 0., 0., 0., 0., 0., 0., 0., 0., 0.,
          0., 0., 0., 0., 0., 0., 0., 0., 0., 0., 0., 0., 0., 0., 0., 0.,
          0., 1.46467332e-02, 2.12865859e-01, 2.60711849e-01,
          9.76448879e-04, 3.90579551e-03, 0., 0., 0., 1.96266234e-01,
          4.08155650e-01, 6.93278685e-02, 0., 0., 0., 0., 0.,
          3.80815081e-02, 7.71394596e-02, 1.26938354e-02, 0., 0., 0., 0.,
          0., 0., 0., 0., 0., 0., 0., 0., 0., 0., 0., 0., 0., 0., 0., 0.,
          0., 0., 0., 0., 0., 0., 0., 0., 0., 0., 0., 0., 0., 0., 0., 0.,
          0., 0., 0., 0., 0., 0., 0., 0., 0., 0., 0., 0., 0., 0., 0., 0.,
          0., 0., 0., 0., 0., 0., 0., 0., 0., 0., 0., 0., 0., 0., 0., 0.,
          0., 0., 0., 0., 0., 0., 0., 0., 0., 0., 0., 0., 0., 0., 0., 0.,
          0., 0., 0., 0., 0., 0., 0., 0., 0., 0., 0., 0., 0., 0., 0., 0.,
          0., 0., 0., 0., 0., 0., 0., 0., 0., 0., 0., 0., 0., 0., 0., 0.,
          0., 0., 0., 0., 0., 0., 0., 0., 0., 0., 0., 0., 0., 0., 0., 0.,
          0., 0., 0., 0., 0., 0., 0., 0., 0., 0., 0., 0., 0., 0., 0., 0.,
          0., 0., 0., 0., 0., 0., 0., 0., 0., 0., 0., 0., 0., 0., 0., 0.,
          0., 0., 0., 0., 0., 0. ]
      - [ 0., 0., 8.60068132e-04, 1.29010221e-02, 2.92423163e-02,
          3.87030654e-02, 1.37610901e-02, 1.46211581e-02, 0., 0.,
          8.60068132e-04, 2.66621113e-02, 5.07440194e-02, 2.66621113e-02,
          0., 1.72013626e-03, 0., 0., 0., 1.89214982e-02, 4.98839505e-02,
          4.12832685e-02, 0., 0., 0., 0., 0., 8.60068109e-03,
          6.96655139e-02, 4.30034054e-03, 0., 0., 0., 0., 0., 0.,
          3.44027253e-03, 5.16040856e-03, 1.72013626e-03, 0., 0., 0., 0.,
          0., 0., 0., 0., 0., 0., 0., 0., 0., 0., 0., 0., 0., 0., 0., 0.,
          0., 0., 0., 0., 0., 0., 0., 0., 3.44027253e-03, 1.20409532e-02,
          3.44027253e-03, 8.60068132e-04, 6.02047658e-03, 0., 0., 0., 0.,
          1.72013626e-03, 0., 0., 0., 0., 0., 0., 0., 0., 0., 0., 0., 0.,
          0., 0., 0., 0., 0., 0., 0., 0., 0., 0., 0., 0., 0., 0., 0., 0.,
          0., 0., 0., 0., 0., 0., 0., 0., 0., 0., 0., 0., 0., 0., 0., 0.,
          0., 0., 0., 0., 0., 0., 0., 0., 0., 0., 2.58020428e-03,
          8.60068109e-03, 1.72013626e-03, 6.02047658e-03, 2.58020442e-02,
          0., 0., 0., 8.60068132e-04, 8.60068132e-04, 2.58020428e-03,
          1.72013626e-03, 0., 0., 0., 0., 8.60068132e-04, 8.60068132e-04,
          8.60068132e-04, 0., 0., 0., 0., 0., 0., 0., 0., 0., 0., 0., 0.,
          0., 0., 0., 0., 0., 0., 0., 0., 0., 0., 0., 0., 0., 0., 0., 0.,
          0., 0., 0., 0., 0., 0., 0., 0., 0., 0., 0., 0., 0., 0., 0., 0.,
          0., 2.23617703e-02, 1.17829330e-01, 1.19549468e-01,
          4.21433374e-02, 4.30034054e-03, 0., 0., 8.60068132e-04,
          9.46074910e-03, 2.44259343e-01, 4.66156930e-01, 1.02348104e-01,
          2.83822473e-02, 0., 0., 0., 0., 1.72013622e-02, 2.88122833e-01,
          1.13528989e-01, 6.02047658e-03, 0., 0., 0., 0., 0.,
          2.83822473e-02, 8.34266096e-02, 1.72013626e-03, 0., 0., 0., 0.,
          0., 0., 0., 0., 0., 0., 0., 0., 0., 0., 0., 0., 0., 0., 0., 0.,
          0., 0., 0., 0., 0., 0., 0., 0., 0., 0., 0., 0., 0., 0., 0.,
          6.79453835e-02, 3.40586960e-01, 8.42866749e-02, 4.30034054e-03,
          0., 0., 0., 0., 4.73037474e-02, 5.04859984e-01, 1.42771304e-01,
          0., 0., 0., 0., 0., 8.60068132e-04, 2.15017032e-02,
          8.60068132e-04, 0., 0., 0., 0., 0., 0., 0., 0., 0., 0., 0., 0.,
          0., 0., 0., 0., 0., 0., 0., 0., 0., 0., 0., 0., 0., 0., 0., 0.,
          0., 0., 0., 0., 0., 0., 0., 0., 0., 0., 0., 0., 0., 0., 0., 0.,
          8.60068132e-04, 1.97815672e-02, 1.13528989e-01, 1.72013622e-02,
          1.72013626e-03, 2.58020428e-03, 0., 0., 0., 6.53651804e-02,
          2.90703028e-01, 3.35426554e-02, 0., 0., 0., 0., 0.,
          1.46211581e-02, 2.16737166e-01, 4.47235405e-02, 0., 0., 0., 0.,
          0., 0., 3.61228622e-02, 5.16040856e-03, 0., 0., 0., 0., 0., 0.,
          0., 0., 0., 0., 0., 0., 0., 0., 0., 0., 0., 0., 0., 0., 0., 0.,
          0., 0., 0., 0., 0., 0., 0., 0., 0., 0., 0., 0., 0., 0., 0., 0.,
          0., 0., 0., 0., 0., 0., 0., 0., 0., 0., 0., 0., 0., 0., 0., 0.,
          0., 0., 0., 0., 0., 0., 0., 0., 0., 0., 0., 0., 0., 0., 0., 0.,
          0., 0., 0., 0., 0., 0., 0., 0., 0., 0., 0., 0., 0., 0., 0., 0.,
          0., 0., 0., 0., 0., 0., 0., 0., 0., 0., 0., 0., 0., 0., 0., 0.,
          0., 0., 0., 0., 0., 0., 0., 0., 0., 0., 0., 0., 0., 0., 0., 0.,
          0., 0., 0., 0., 0., 0., 0., 0., 0., 0., 0., 0., 0., 0., 0., 0.,
          0., 0., 0., 0., 0., 0., 0., 0., 0., 0., 0., 0., 0., 0., 0., 0.,
          0., 0., 0., 0., 0., 0., 0., 0., 0., 0., 0., 0. ]
      - [ 0., 0., 0., 1.57885684e-03, 2.63142819e-03, 5.78914210e-03,
          8.42056982e-03, 2.94719953e-02, 0., 0., 5.26285614e-04,
          1.05257123e-03, 4.73657064e-03, 2.57879961e-02, 5.21022789e-02,
          1.52622834e-02, 0., 0., 0., 1.05257123e-03, 7.36799883e-03,
          7.26274177e-02, 7.26274177e-02, 1.94725674e-02, 0., 0., 0.,
          1.05257123e-03, 1.47359977e-02, 3.28928530e-01, 4.24712509e-01,
          3.57874222e-02, 0., 0., 0., 5.26285614e-04, 1.31571405e-02,
          3.28402221e-01, 7.55219877e-01, 3.15771368e-03, 0., 0., 0., 0.,
          2.63142819e-03, 6.10491335e-02, 1.01046838e-01, 0., 0., 0., 0.,
          0., 0., 3.68399941e-03, 2.10514246e-03, 0., 0., 0., 0., 0., 0.,
          0., 0., 0., 0., 0., 0., 0., 5.26285614e-04, 2.10514246e-03,
          5.26285637e-03, 7.36799883e-03, 0., 0., 0., 0., 0., 0.,
          5.26285614e-04, 0., 0., 0., 0., 0., 0., 0., 0., 0., 0., 0., 0.,
          0., 0., 0., 0., 0., 0., 0., 0., 0., 0., 0., 0., 0., 0., 0., 0.,
          0., 0., 0., 0., 0., 0., 0., 0., 0., 0., 0., 0., 0., 0., 0., 0.,
          0., 0., 0., 0., 0., 0., 0., 0., 0., 0., 2.10514246e-03,
          2.63142819e-03, 2.94719953e-02, 0., 0., 0., 0., 1.05257123e-03,
          0., 0., 0., 0., 0., 0., 0., 0., 0., 0., 0., 0., 0., 0., 0., 0.,
          0., 0., 0., 0., 0., 0., 0., 0., 0., 0., 0., 0., 0., 0., 0., 0.,
          0., 0., 0., 0., 0., 0., 0., 0., 0., 0., 0., 0., 0., 0., 0., 0.,
          0., 0., 0., 0., 0., 0., 0., 4.73657064e-03, 3.68399941e-03,
          1.57885684e-03, 5.26285637e-03, 0., 0., 0., 0., 2.63142819e-03,
          5.26285614e-04, 0., 0., 0., 0., 0., 0., 0., 0., 0., 0., 0., 0.,
          0., 0., 0., 0., 0., 0., 0., 0., 0., 0., 0., 0., 0., 0., 0., 0.,
          0., 0., 0., 0., 0., 0., 0., 0., 0., 0., 0., 0., 0., 0., 0., 0.,
          0., 0., 0., 0., 0., 0., 0., 0., 5.26285614e-04, 1.05257123e-03,
          2.63142819e-03, 5.26285614e-04, 0., 1.52622834e-02, 0., 0., 0.,
          4.73657064e-03, 4.21028491e-03, 5.26285614e-04, 0.,
          1.05257123e-03, 0., 0., 0., 1.05257123e-03, 1.57885684e-03, 0.,
          0., 0., 0., 0., 0., 0., 1.05257123e-03, 0., 0., 0., 0., 0., 0.,
          0., 0., 0., 0., 0., 0., 0., 0., 0., 0., 0., 0., 0., 0., 0., 0.,
          0., 0., 0., 0., 0., 0., 0., 0., 0., 0., 0., 0., 0., 0., 0.,
          1.05257123e-03, 0., 2.63142819e-03, 2.63142819e-03,
          2.63142819e-03, 5.78914210e-03, 0., 0., 1.05257123e-03,
          5.26285614e-04, 4.73657064e-03, 6.31542737e-03, 3.68399941e-03,
          4.21028491e-03, 0., 0., 0., 5.26285614e-04, 7.89428409e-03,
          1.78937111e-02, 1.57885684e-03, 0., 0., 0., 0., 0., 0.,
          9.47314128e-03, 3.68399941e-03, 0., 0., 0., 0., 0., 0., 0.,
          2.10514246e-03, 0., 0., 0., 0., 0., 0., 0., 0., 0., 0., 0., 0.,
          0., 0., 0., 0., 0., 0., 0., 0., 0., 0., 0., 0., 0., 0., 0., 0.,
          0., 0., 0., 0., 0., 0., 0., 0., 0., 0., 0., 0., 0., 0., 0., 0.,
          0., 0., 0., 0., 0., 0., 0., 0., 0., 0., 0., 0., 0., 0., 0., 0.,
          0., 0., 0., 0., 0., 0., 0., 0., 0., 0., 0., 0., 0., 0., 0., 0.,
          0., 0., 0., 0., 0., 0., 0., 0., 0., 0., 0., 0., 0., 0., 0., 0.,
          0., 0., 0., 0., 0., 0., 0., 0., 0., 0., 0., 0., 0., 0., 0., 0.,
          0., 0., 0., 0., 0., 0., 0., 0., 0., 0., 0., 0., 0., 0., 0., 0.,
          0., 0., 0., 0., 0., 0., 0., 0., 0., 0., 0., 0., 0., 0., 0., 0.,
          0., 0., 0., 0., 0., 0., 0., 0., 0., 0., 0., 0., 0. ]
      - [ 0., 0., 0., 8.48939875e-04, 1.95256174e-02, 3.99001762e-02,
          1.61298588e-02, 2.29213778e-02, 0., 0., 0., 4.24469961e-03,
          9.59302112e-02, 3.54856879e-01, 2.97128968e-02, 6.79151900e-03,
          0., 0., 0., 8.48939922e-03, 2.61473477e-01, 5.47566235e-01,
          6.87641278e-02, 8.48939875e-04, 0., 0., 0., 4.24469961e-03,
          2.88639575e-01, 2.68265009e-01, 2.71660760e-02, 7.64045911e-03,
          0., 0., 0., 3.39575950e-03, 1.06117487e-01, 1.12909004e-01,
          2.03745570e-02, 1.01872785e-02, 0., 0., 0., 0., 2.37703174e-02,
          2.63171364e-02, 4.24469961e-03, 0., 0., 0., 0., 0., 0., 0., 0.,
          0., 0., 0., 0., 0., 0., 0., 0., 0., 0., 0., 0., 8.48939875e-04,
          1.61298588e-02, 2.88639572e-02, 2.20724363e-02, 1.69787984e-02,
          0., 0., 0., 8.48939875e-04, 3.39575950e-03, 6.79151900e-03,
          2.20724363e-02, 0., 0., 0., 0., 0., 3.39575950e-03, 0., 0., 0.,
          0., 0., 0., 0., 0., 0., 0., 0., 0., 0., 0., 0., 0., 0., 0., 0.,
          0., 0., 0., 0., 0., 0., 0., 0., 0., 0., 0., 0., 0., 0., 0., 0.,
          0., 0., 0., 0., 0., 0., 0., 0., 0., 0., 0., 0., 1.78277381e-02,
          9.33833886e-03, 1.86766777e-02, 3.82022969e-02, 0., 0., 0., 0.,
          1.10362181e-02, 1.61298588e-02, 1.61298588e-02, 3.39575950e-03,
          0., 0., 0., 0., 0., 0., 8.48939875e-04, 0., 0., 0., 0., 0., 0.,
          0., 0., 0., 0., 0., 0., 0., 0., 0., 0., 0., 0., 0., 0., 0., 0.,
          0., 0., 0., 0., 0., 0., 0., 0., 0., 0., 0., 0., 0., 0., 0., 0.,
          0., 0., 0., 0., 0., 0., 8.48939875e-04, 2.37703174e-02,
          2.97128968e-02, 9.33833886e-03, 7.98003525e-02, 0., 0., 0., 0.,
          5.94257936e-03, 6.11236729e-02, 2.63171364e-02, 1.69787984e-02,
          0., 0., 0., 0., 8.48939875e-04, 8.48939922e-03, 2.54681963e-03,
          0., 0., 0., 0., 0., 0., 0., 0., 0., 0., 0., 0., 0., 0., 0., 0.,
          0., 0., 0., 0., 0., 0., 0., 0., 0., 0., 0., 0., 0., 0., 0., 0.,
          0., 0., 0., 0., 0., 0., 0., 0., 0., 0., 0., 0., 0.,
          3.31086554e-02, 3.82022969e-02, 0., 2.63171364e-02, 0., 0., 0.,
          8.48939875e-04, 1.52809182e-02, 2.12234966e-02, 0., 0., 0., 0.,
          0., 0., 0., 0., 0., 0., 0., 0., 0., 0., 0., 0., 0., 0., 0., 0.,
          0., 0., 0., 0., 0., 0., 0., 0., 0., 0., 0., 0., 0., 0., 0., 0.,
          0., 0., 0., 0., 0., 0., 0., 0., 0., 0., 0., 0., 0., 0., 0., 0.,
          0., 0., 2.88639572e-02, 5.60300313e-02, 0., 4.24469961e-03, 0.,
          0., 0., 5.94257936e-03, 1.81673139e-01, 3.82022947e-01,
          1.01872785e-02, 0., 0., 0., 5.94257936e-03, 5.94257936e-03,
          2.54681975e-01, 1.85068890e-01, 8.48939875e-04, 0., 0., 0.,
          5.09363925e-03, 0., 4.24469933e-02, 1.44319786e-02, 0., 0., 0.,
          0., 8.48939875e-04, 0., 0., 0., 0., 0., 0., 0., 0., 0., 0., 0.,
          0., 0., 0., 0., 0., 0., 0., 0., 0., 0., 0., 0., 0., 0., 0., 0.,
          0., 0., 0., 0., 0., 0., 0., 0., 0., 0., 0., 0., 0., 0., 0., 0.,
          0., 0., 0., 0., 0., 0., 0., 0., 0., 0., 0., 0., 0., 0., 0., 0.,
          0., 0., 0., 0., 0., 0., 0., 0., 0., 0., 0., 0., 0., 0., 0., 0.,
          0., 0., 0., 0., 0., 0., 0., 0., 0., 0., 0., 0., 0., 0., 0., 0.,
          0., 0., 0., 0., 0., 0., 0., 0., 0., 0., 0., 0., 0., 0., 0., 0.,
          0., 0., 0., 0., 0., 0., 0., 0., 0., 0., 0., 0., 0., 0., 0., 0.,
          0., 0., 0., 0., 0., 0., 0., 0., 0., 0., 0., 0., 0., 0., 0., 0.,
          0., 0., 0., 0., 0., 0., 0., 0., 0., 0., 0., 0., 0., 0., 0., 0.,
          0., 0. ]
      - [ 0., 0., 0., 2.02751998e-02, 1.47719324e-01, 4.77915443e-02,
          1.30340578e-02, 1.59305148e-02, 0., 0., 0., 1.66546293e-02,
          6.58944026e-02, 2.89645717e-02, 1.66546293e-02, 3.62057146e-03,
          0., 0., 0., 3.62057146e-03, 3.98262851e-02, 3.54816020e-02,
          1.59305148e-02, 6.51702890e-03, 0., 0., 0., 2.17234297e-03,
          1.95510872e-02, 3.18610296e-02, 1.81028582e-02, 2.89645721e-03,
          0., 0., 0., 7.24114303e-04, 0., 3.62057146e-03, 2.17234297e-03,
          7.24114303e-04, 0., 0., 0., 0., 0., 0., 0., 0., 0., 0., 0., 0.,
          0., 0., 0., 0., 0., 0., 0., 0., 0., 0., 0., 0., 0., 0., 0.,
          1.44822858e-02, 1.15134172e-01, 7.16873184e-02, 2.09993143e-02,
          1.73787437e-02, 0., 0., 0., 0., 6.51702890e-03, 5.06879995e-03,
          8.68937187e-03, 7.24114303e-04, 0., 0., 0., 0., 0., 0., 0., 0.,
          0., 0., 0., 0., 0., 0., 0., 0., 0., 0., 0., 0., 0., 0., 0., 0.,
          0., 0., 0., 0., 0., 0., 0., 0., 0., 0., 0., 0., 0., 0., 0., 0.,
          0., 0., 0., 0., 0., 0., 0., 0., 0., 0., 0., 7.24114291e-03,
          9.05142874e-02, 5.93773723e-02, 2.89645717e-02, 2.89645717e-02,
          0., 0., 0., 0., 7.24114291e-03, 5.43085746e-02, 1.08617144e-02,
          1.44822858e-02, 0., 0., 0., 0., 7.24114303e-04, 2.89645721e-03,
          0., 1.37581713e-02, 0., 0., 0., 0., 0., 0., 0., 0., 0., 0., 0.,
          0., 0., 0., 0., 0., 0., 0., 0., 0., 0., 0., 0., 0., 0., 0., 0.,
          0., 0., 0., 0., 0., 0., 0., 0., 0., 0., 0., 0., 0., 0., 0., 0.,
          9.41348635e-03, 1.84649155e-01, 3.09196800e-01, 1.08617144e-02,
          2.09993143e-02, 0., 0., 0., 2.89645721e-03, 7.38596618e-02,
          8.02318633e-01, 1.97683200e-01, 4.34468593e-03, 0., 0., 0., 0.,
          2.17234297e-03, 8.11007991e-02, 2.56336451e-01, 1.15858288e-02,
          0., 0., 0., 0., 0., 0., 0., 0., 0., 0., 0., 0., 0., 0., 0., 0.,
          0., 0., 0., 0., 0., 0., 0., 0., 0., 0., 0., 0., 0., 0., 0., 0.,
          0., 0., 0., 0., 0., 0., 0., 0., 0., 0., 0., 8.68937187e-03,
          1.41926408e-01, 7.60320053e-02, 3.62057146e-03, 1.08617144e-02,
          0., 0., 0., 6.51702890e-03, 4.12745140e-02, 3.54816020e-02, 0.,
          0., 0., 0., 0., 0., 0., 0., 0., 0., 0., 0., 0., 0., 0., 0., 0.,
          0., 0., 0., 0., 0., 0., 0., 0., 0., 0., 0., 0., 0., 0., 0., 0.,
          0., 0., 0., 0., 0., 0., 0., 0., 0., 0., 0., 0., 0., 0., 0., 0.,
          0., 0., 0., 0., 8.68937187e-03, 8.03766847e-02, 1.08617144e-02,
          5.06879995e-03, 7.24114303e-04, 0., 0., 0., 1.44822861e-03,
          2.82404572e-02, 7.96525739e-03, 7.24114303e-04, 0., 0., 0., 0.,
          0., 1.30340578e-02, 5.06879995e-03, 2.17234297e-03, 0., 0., 0.,
          0., 0., 2.17234297e-03, 7.24114303e-04, 0., 0., 0., 0., 0., 0.,
          0., 0., 0., 0., 0., 0., 0., 0., 0., 0., 0., 0., 0., 0., 0., 0.,
          0., 0., 0., 0., 0., 0., 0., 0., 0., 0., 0., 0., 0., 0., 0., 0.,
          0., 0., 0., 0., 0., 0., 0., 0., 0., 0., 0., 0., 0., 0., 0., 0.,
          0., 0., 0., 0., 0., 0., 0., 0., 0., 0., 0., 0., 0., 0., 0., 0.,
          0., 0., 0., 0., 0., 0., 0., 0., 0., 0., 0., 0., 0., 0., 0., 0.,
          0., 0., 0., 0., 0., 0., 0., 0., 0., 0., 0., 0., 0., 0., 0., 0.,
          0., 0., 0., 0., 0., 0., 0., 0., 0., 0., 0., 0., 0., 0., 0., 0.,
          0., 0., 0., 0., 0., 0., 0., 0., 0., 0., 0., 0., 0., 0., 0., 0.,
          0., 0., 0., 0., 0., 0., 0., 0., 0., 0., 0., 0., 0., 0., 0., 0.,
          0., 0., 0., 0., 0., 0., 0., 0., 0., 0., 0., 0. ]
      - [ 0., 0., 0., 7.34494766e-03, 8.07944238e-02, 1.25782222e-01,
          6.24320544e-02, 5.96776977e-02, 0., 0., 9.18118458e-04,
          2.29529608e-02, 1.23945989e-01, 3.25932056e-01, 1.08337976e-01,
          4.59059235e-03, 0., 0., 0., 4.59059235e-03, 2.10249126e-01,
          3.34195107e-01, 3.02979089e-02, 0., 0., 0., 0., 2.75435532e-03,
          1.37717769e-01, 2.02904180e-01, 2.47891974e-02, 0., 0., 0., 0.,
          0., 2.20348425e-02, 7.16132373e-02, 3.67247383e-03, 0., 0., 0.,
          0., 0., 0., 0., 0., 0., 0., 0., 0., 0., 0., 0., 0., 0., 0., 0.,
          0., 0., 0., 0., 0., 0., 0., 0., 0., 6.42682891e-03,
          8.26306641e-03, 1.19355395e-02, 2.01986060e-02, 1.56080136e-02,
          0., 0., 0., 1.83623692e-03, 9.18118458e-04, 1.83623692e-03, 0.,
          0., 0., 0., 9.18118458e-04, 0., 0., 0., 0., 0., 0., 0., 0., 0.,
          0., 0., 0., 0., 0., 0., 0., 0., 0., 0., 0., 0., 0., 0., 0., 0.,
          0., 0., 0., 0., 0., 0., 0., 0., 0., 0., 0., 0., 0., 0., 0., 0.,
          0., 0., 0., 0., 0., 0., 0., 9.18118458e-04, 1.19355395e-02,
          2.38710791e-02, 4.77421582e-02, 4.95783947e-02, 0., 0., 0.,
          9.18118458e-04, 7.34494766e-03, 8.26306641e-03, 2.75435532e-03,
          9.18118458e-04, 0., 0., 0., 0., 0., 0., 0., 0., 0., 0., 0., 0.,
          0., 0., 0., 0., 0., 0., 0., 0., 0., 0., 0., 0., 0., 0., 0., 0.,
          0., 0., 0., 0., 0., 0., 0., 0., 0., 0., 0., 0., 0., 0., 0., 0.,
          0., 0., 0., 0., 0., 0., 0., 3.67247383e-03, 6.70226440e-02,
          4.95783947e-02, 1.28536578e-02, 4.68240418e-02, 0., 0., 0.,
          8.26306641e-03, 1.12928569e-01, 1.86378047e-01, 1.56080136e-02,
          1.83623692e-03, 0., 0., 0., 0., 1.10174213e-02, 1.28536578e-02,
          0., 0., 0., 0., 0., 0., 0., 0., 0., 0., 0., 0., 0., 0., 0., 0.,
          0., 0., 0., 0., 0., 0., 0., 0., 0., 0., 0., 0., 0., 0., 0., 0.,
          0., 0., 0., 0., 0., 0., 0., 0., 0., 0., 0., 0., 9.18118458e-04,
          1.56080136e-02, 1.23945989e-01, 1.00074910e-01, 5.50871063e-03,
          3.12160272e-02, 0., 0., 0., 2.11167242e-02, 1.19355395e-01,
          9.27299634e-02, 0., 0., 0., 0., 0., 0., 3.67247383e-03, 0., 0.,
          0., 0., 0., 0., 0., 0., 0., 0., 0., 0., 0., 0., 0., 0., 0., 0.,
          0., 0., 0., 0., 0., 0., 0., 0., 0., 0., 0., 0., 0., 0., 0., 0.,
          0., 0., 0., 0., 0., 0., 0., 0., 0., 0., 0., 0., 3.67247383e-03,
          6.51864111e-02, 1.87296167e-01, 4.59059235e-03, 6.42682891e-03,
          0., 0., 0., 1.92804877e-02, 2.15757832e-01, 6.29829228e-01,
          1.46898953e-02, 0., 0., 0., 0., 8.26306641e-03, 1.12928569e-01,
          5.60052246e-02, 3.67247383e-03, 0., 0., 0., 0., 0.,
          9.18118458e-04, 1.83623692e-03, 0., 0., 0., 0., 0., 0., 0., 0.,
          0., 0., 0., 0., 0., 0., 0., 0., 0., 0., 0., 0., 0., 0., 0., 0.,
          0., 0., 0., 0., 0., 0., 0., 0., 0., 0., 0., 0., 0., 0., 0., 0.,
          0., 0., 0., 0., 0., 0., 0., 0., 0., 0., 0., 0., 0., 0., 0., 0.,
          0., 0., 0., 0., 0., 0., 0., 0., 0., 0., 0., 0., 0., 0., 0., 0.,
          0., 0., 0., 0., 0., 0., 0., 0., 0., 0., 0., 0., 0., 0., 0., 0.,
          0., 0., 0., 0., 0., 0., 0., 0., 0., 0., 0., 0., 0., 0., 0., 0.,
          0., 0., 0., 0., 0., 0., 0., 0., 0., 0., 0., 0., 0., 0., 0., 0.,
          0., 0., 0., 0., 0., 0., 0., 0., 0., 0., 0., 0., 0., 0., 0., 0.,
          0., 0., 0., 0., 0., 0., 0., 0., 0., 0., 0., 0., 0., 0., 0., 0.,
          0., 0., 0., 0., 0., 0., 0., 0., 0., 0. ]
      - [ 0., 0., 0., 1.44321648e-02, 1.75695922e-02, 9.41228122e-03,
          2.19619907e-02, 1.06672524e-02, 0., 0., 6.27485453e-04,
          3.63941565e-02, 5.08263223e-02, 8.15731101e-03, 1.25497086e-02,
          0., 0., 0., 0., 5.01988363e-03, 2.38444470e-02, 2.07070187e-02,
          1.25497086e-02, 0., 0., 0., 0., 0., 7.52982544e-03,
          1.12947375e-02, 3.13742715e-03, 6.27485453e-04, 0., 0., 0., 0.,
          0., 6.27485453e-04, 5.64736873e-03, 6.27485453e-04, 0., 0., 0.,
          0., 0., 0., 0., 0., 0., 0., 0., 0., 0., 0., 0., 0., 0., 0., 0.,
          0., 0., 0., 0., 0., 0., 0., 0., 3.13742715e-03, 1.50596509e-02,
          8.78479611e-03, 1.06672524e-02, 1.88245636e-03, 0., 0., 0.,
          6.27485430e-03, 3.13742715e-03, 0., 0., 0., 0., 0., 0., 0., 0.,
          0., 0., 0., 0., 0., 0., 0., 0., 0., 0., 0., 0., 0., 0., 0., 0.,
          0., 0., 0., 0., 0., 0., 0., 0., 0., 0., 0., 0., 0., 0., 0., 0.,
          0., 0., 0., 0., 0., 0., 0., 0., 0., 0., 0., 0., 0., 0.,
          1.38046797e-02, 5.08263223e-02, 4.01590690e-02, 5.71011752e-02,
          3.32567282e-02, 0., 0., 0., 1.88245636e-03, 2.38444470e-02,
          1.19222235e-02, 1.44321648e-02, 2.50994181e-03, 0., 0., 0., 0.,
          0., 0., 0., 0., 0., 0., 0., 0., 0., 0., 0., 0., 0., 0., 0., 0.,
          0., 0., 0., 0., 0., 0., 0., 0., 0., 0., 0., 0., 0., 0., 0., 0.,
          0., 0., 0., 0., 0., 0., 0., 0., 0., 0., 0., 0., 0., 0.,
          1.88245636e-03, 4.89438660e-02, 1.56243876e-01, 5.08263223e-02,
          5.27087785e-02, 6.96508810e-02, 0., 0., 6.27485453e-04,
          3.32567282e-02, 2.91780740e-01, 7.46707678e-01, 2.25894749e-02,
          1.00397673e-02, 0., 0., 0., 5.64736873e-03, 5.83561473e-02,
          5.28970242e-01, 6.21210597e-02, 0., 0., 0., 0., 6.27485453e-04,
          0., 0., 1.25497091e-03, 0., 0., 0., 0., 0., 0., 0., 0., 0., 0.,
          0., 0., 0., 0., 0., 0., 0., 0., 0., 0., 0., 0., 0., 0., 0., 0.,
          0., 0., 0., 0., 0., 0., 0., 0., 0., 6.27485453e-04,
          6.65134564e-02, 6.58859685e-02, 1.00397673e-02, 5.64736873e-03,
          2.25894749e-02, 0., 0., 0., 2.57269032e-02, 3.89040969e-02,
          3.76491272e-03, 0., 0., 0., 0., 0., 2.50994181e-03,
          6.27485453e-04, 0., 0., 0., 0., 0., 0., 0., 0., 0., 0., 0., 0.,
          0., 0., 0., 0., 0., 0., 0., 0., 0., 0., 0., 0., 0., 0., 0., 0.,
          0., 0., 0., 0., 0., 0., 0., 0., 0., 0., 0., 0., 0., 0., 0., 0.,
          0., 0., 2.94918157e-02, 1.94520485e-02, 3.13742715e-03,
          3.76491272e-03, 1.25497091e-03, 0., 0., 0., 3.20017561e-02,
          2.50994172e-02, 0., 0., 0., 0., 0., 0., 0., 2.50994181e-03, 0.,
          0., 0., 0., 0., 0., 0., 0., 0., 0., 0., 0., 0., 0., 0., 0., 0.,
          0., 0., 0., 0., 0., 0., 0., 0., 0., 0., 0., 0., 0., 0., 0., 0.,
          0., 0., 0., 0., 0., 0., 0., 0., 0., 0., 0., 0., 0., 0., 0., 0.,
          0., 0., 0., 0., 0., 0., 0., 0., 0., 0., 0., 0., 0., 0., 0., 0.,
          0., 0., 0., 0., 0., 0., 0., 0., 0., 0., 0., 0., 0., 0., 0., 0.,
          0., 0., 0., 0., 0., 0., 0., 0., 0., 0., 0., 0., 0., 0., 0., 0.,
          0., 0., 0., 0., 0., 0., 0., 0., 0., 0., 0., 0., 0., 0., 0., 0.,
          0., 0., 0., 0., 0., 0., 0., 0., 0., 0., 0., 0., 0., 0., 0., 0.,
          0., 0., 0., 0., 0., 0., 0., 0., 0., 0., 0., 0., 0., 0., 0., 0.,
          0., 0., 0., 0., 0., 0., 0., 0., 0., 0., 0., 0., 0., 0., 0., 0.,
          0., 0., 0., 0., 0., 0., 0., 0., 0., 0. ]
      - [ 0., 0., 0., 6.75431162e-04, 1.62103474e-02, 4.18767333e-02,
          1.75612103e-02, 0., 0., 0., 0., 9.45603661e-03, 1.22253038e-01,
          2.69497037e-01, 3.84995751e-02, 9.45603661e-03, 0., 0.,
          6.75431162e-04, 3.24206948e-02, 2.70172477e-01, 4.78880703e-01,
          1.75612103e-02, 2.02629343e-03, 0., 0., 8.10517371e-03,
          1.14823300e-02, 1.81690991e-01, 3.30285847e-01, 1.48594854e-02,
          6.75431162e-04, 0., 0., 4.72801831e-03, 2.70172465e-03,
          4.86310422e-02, 4.93064746e-02, 9.45603661e-03, 0., 0., 0.,
          1.35086232e-03, 0., 6.75431162e-04, 6.75431162e-04, 0., 0., 0.,
          0., 0., 0., 0., 0., 0., 0., 0., 0., 0., 0., 0., 0., 0., 0., 0.,
          0., 0., 0., 0., 6.75431162e-04, 0., 0., 0., 0., 0., 0., 0., 0.,
          0., 0., 0., 0., 0., 0., 6.75431162e-04, 0., 0., 0., 0., 0., 0.,
          0., 0., 0., 0., 0., 0., 0., 0., 0., 0., 0., 0., 0., 0., 0., 0.,
          0., 0., 0., 0., 0., 0., 0., 0., 0., 0., 0., 0., 0., 0., 0., 0.,
          0., 0., 0., 0., 0., 0., 0., 0., 0., 0., 0., 0., 0., 0., 0., 0.,
          0., 0., 0., 0., 0., 0., 0., 0., 0., 0., 0., 0., 0., 0., 0., 0.,
          0., 0., 0., 0., 0., 0., 0., 0., 0., 0., 0., 0., 0., 0., 0., 0.,
          0., 0., 0., 0., 0., 0., 0., 0., 0., 0., 0., 0., 0., 0., 0., 0.,
          0., 0., 0., 0., 0., 0., 0., 0., 0., 6.75431162e-04,
          2.02629343e-03, 0., 0., 0., 0., 0., 0., 0., 0., 0., 0., 0., 0.,
          0., 0., 0., 0., 0., 0., 0., 0., 0., 0., 0., 0., 0., 0., 0., 0.,
          0., 0., 0., 0., 0., 0., 0., 0., 0., 0., 0., 0., 0., 0., 0., 0.,
          0., 0., 0., 0., 0., 0., 0., 0., 0., 0., 0., 0., 0., 0., 0., 0.,
          0., 0., 6.75431162e-04, 6.75431173e-03, 2.02629343e-03, 0., 0.,
          0., 0., 1.35086232e-03, 1.35086235e-02, 3.37715587e-03, 0., 0.,
          0., 0., 0., 6.75431162e-04, 0., 0., 0., 0., 0., 0., 0., 0., 0.,
          0., 0., 0., 0., 0., 0., 0., 0., 0., 0., 0., 0., 0., 0., 0., 0.,
          0., 0., 0., 0., 0., 0., 0., 0., 0., 0., 0., 0., 0., 0., 0., 0.,
          0., 0., 0., 0., 0., 0., 0., 1.08068986e-02, 5.26836328e-02,
          7.42974272e-03, 0., 0., 0., 0., 6.75431173e-03, 3.80267739e-01,
          5.21432877e-01, 6.07888028e-03, 0., 0., 0., 0., 6.75431173e-03,
          1.31709084e-01, 1.41165107e-01, 6.75431162e-04, 0., 0., 0., 0.,
          0., 6.07888028e-03, 1.35086235e-02, 0., 0., 0., 0., 0., 0., 0.,
          0., 0., 0., 0., 0., 0., 0., 0., 0., 0., 0., 0., 0., 0., 0., 0.,
          0., 0., 0., 0., 0., 0., 0., 0., 0., 0., 0., 0., 0., 0., 0., 0.,
          0., 0., 0., 0., 0., 0., 0., 0., 0., 0., 0., 0., 0., 0., 0., 0.,
          0., 0., 0., 0., 0., 0., 0., 0., 0., 0., 0., 0., 0., 0., 0., 0.,
          0., 0., 0., 0., 0., 0., 0., 0., 0., 0., 0., 0., 0., 0., 0., 0.,
          0., 0., 0., 0., 0., 0., 0., 0., 0., 0., 0., 0., 0., 0., 0., 0.,
          0., 0., 0., 0., 0., 0., 0., 0., 0., 0., 0., 0., 0., 0., 0., 0.,
          0., 0., 0., 0., 0., 0., 0., 0., 0., 0., 0., 0., 0., 0., 0., 0.,
          0., 0., 0., 0., 0., 0., 0., 0., 0., 0., 0., 0., 0., 0., 0., 0.,
          0., 0., 0., 0., 0., 0., 0., 0., 0., 0., 0. ]
      - [ 0., 0., 0., 3.68998665e-03, 1.25459552e-01, 1.15312085e-01,
          1.75274368e-02, 4.79698256e-02, 0., 0., 0., 1.75274368e-02,
          2.05716759e-01, 4.47410882e-01, 7.47222304e-02, 1.19924564e-02,
          0., 0., 0., 3.22873816e-02, 3.03501397e-01, 1.71584383e-01,
          4.98148203e-02, 1.75274368e-02, 0., 0., 0., 9.22496663e-04,
          1.08854607e-01, 5.62722944e-02, 1.29149528e-02, 1.66049395e-02,
          0., 0., 0., 0., 4.61248308e-03, 1.29149528e-02, 6.45747641e-03,
          1.01474635e-02, 0., 0., 0., 0., 0., 0., 9.22496663e-04,
          9.22496663e-04, 0., 0., 0., 0., 0., 0., 0., 0., 0., 0., 0., 0.,
          0., 0., 0., 0., 0., 0., 0., 1.84499333e-03, 2.95198932e-02,
          2.30624173e-02, 1.47599466e-02, 4.61248308e-03, 0., 0., 0., 0.,
          0., 3.68998665e-03, 3.68998665e-03, 0., 0., 0., 0., 0., 0., 0.,
          0., 0., 0., 0., 0., 0., 0., 0., 0., 0., 0., 0., 0., 0., 0., 0.,
          0., 0., 0., 0., 0., 0., 0., 0., 0., 0., 0., 0., 0., 0., 0., 0.,
          0., 0., 0., 0., 0., 0., 0., 0., 0., 0., 0., 0., 0., 0.,
          4.79698256e-02, 5.99622838e-02, 3.87448594e-02, 2.30624173e-02,
          0., 0., 0., 0., 6.45747641e-03, 1.84499333e-03, 2.95198932e-02,
          1.84499333e-03, 0., 0., 0., 0., 0., 0., 0., 0., 0., 0., 0., 0.,
          0., 0., 0., 0., 0., 0., 0., 0., 0., 0., 0., 0., 0., 0., 0., 0.,
          0., 0., 0., 0., 0., 0., 0., 0., 0., 0., 0., 0., 0., 0., 0., 0.,
          0., 0., 0., 0., 0., 0., 0., 2.76748999e-03, 7.84122124e-02,
          2.35236645e-01, 1.38374502e-02, 5.81172891e-02, 0., 0., 0.,
          9.22496617e-03, 3.22873816e-02, 1.42064482e-01, 0., 0., 0., 0.,
          0., 0., 9.22496663e-04, 3.68998665e-03, 0., 0., 0., 0., 0., 0.,
          0., 0., 0., 0., 0., 0., 0., 0., 0., 0., 0., 0., 0., 0., 0., 0.,
          0., 0., 0., 0., 0., 0., 0., 0., 0., 0., 0., 0., 0., 0., 0., 0.,
          0., 0., 0., 0., 0., 0., 0., 1.29149528e-02, 1.39296994e-01,
          1.67894393e-01, 9.22496617e-03, 2.95198932e-02, 0., 0., 0.,
          1.10699600e-02, 1.08854607e-01, 4.70473282e-02, 0., 0., 0., 0.,
          0., 0., 0., 0., 0., 0., 0., 0., 0., 0., 0., 0., 0., 0., 0., 0.,
          0., 0., 0., 0., 0., 0., 0., 0., 0., 0., 0., 0., 0., 0., 0., 0.,
          0., 0., 0., 0., 0., 0., 0., 0., 0., 0., 0., 0., 0., 0., 0., 0.,
          0., 9.22496617e-03, 1.07932106e-01, 2.08484247e-01,
          7.37997331e-03, 1.47599466e-02, 0., 0., 0., 2.21399199e-02,
          3.63463670e-01, 4.65860814e-01, 0., 0., 0., 0., 0.,
          9.22496663e-04, 1.17157072e-01, 9.22496663e-04, 0., 0., 0., 0.,
          0., 0., 0., 0., 0., 0., 0., 0., 0., 0., 0., 0., 0., 0., 0., 0.,
          0., 0., 0., 0., 0., 0., 0., 0., 0., 0., 0., 0., 0., 0., 0., 0.,
          0., 0., 0., 0., 0., 0., 0., 0., 0., 0., 0., 0., 0., 0., 0., 0.,
          0., 0., 0., 0., 0., 0., 0., 0., 0., 0., 0., 0., 0., 0., 0., 0.,
          0., 0., 0., 0., 0., 0., 0., 0., 0., 0., 0., 0., 0., 0., 0., 0.,
          0., 0., 0., 0., 0., 0., 0., 0., 0., 0., 0., 0., 0., 0., 0., 0.,
          0., 0., 0., 0., 0., 0., 0., 0., 0., 0., 0., 0., 0., 0., 0., 0.,
          0., 0., 0., 0., 0., 0., 0., 0., 0., 0., 0., 0., 0., 0., 0., 0.,
          0., 0., 0., 0., 0., 0., 0., 0., 0., 0., 0., 0., 0., 0., 0., 0.,
          0., 0., 0., 0., 0., 0., 0., 0., 0., 0., 0., 0., 0., 0., 0., 0.,
          0., 0., 0., 0., 0., 0. ]
      - [ 0., 0., 0., 1.54944253e-03, 9.81313549e-03, 1.13625778e-02,
          5.99117763e-02, 5.31975254e-02, 0., 0., 0., 8.26369319e-03,
          5.57799302e-02, 3.07822585e-01, 7.33402744e-02, 5.16480813e-03,
          0., 0., 0., 5.16480813e-03, 2.31383413e-01, 8.57358158e-01,
          6.14612177e-02, 6.19777013e-03, 0., 0., 0., 1.54944253e-03,
          1.29120201e-01, 2.44295433e-01, 3.46042141e-02, 1.03296165e-03,
          0., 0., 0., 0., 4.28679101e-02, 7.48897195e-02, 1.03296165e-03,
          0., 0., 0., 0., 0., 1.03296165e-03, 8.78017396e-03, 0., 0., 0.,
          0., 0., 0., 0., 0., 0., 0., 0., 0., 0., 0., 0., 0., 0., 0., 0.,
          0., 0., 0., 2.06592330e-03, 2.58240406e-03, 5.16480813e-03,
          1.70438681e-02, 0., 0., 0., 5.16480824e-04, 4.13184660e-03,
          5.16480824e-04, 2.06592330e-03, 0., 0., 0., 0., 0., 0., 0., 0.,
          0., 0., 0., 0., 0., 0., 0., 0., 0., 0., 0., 0., 0., 0., 0., 0.,
          0., 0., 0., 0., 0., 0., 0., 0., 0., 0., 0., 0., 0., 0., 0., 0.,
          0., 0., 0., 0., 0., 0., 0., 0., 0., 0., 0., 0., 5.16480824e-04,
          0., 0., 0., 2.06592330e-03, 0., 0., 0., 0., 0., 0., 0., 0., 0.,
          0., 0., 0., 0., 0., 0., 0., 0., 0., 0., 0., 0., 0., 0., 0., 0.,
          0., 0., 0., 0., 0., 0., 0., 0., 0., 0., 0., 0., 0., 0., 0., 0.,
          0., 0., 0., 0., 0., 0., 0., 0., 0., 0., 0., 0., 0., 0., 0., 0.,
          0., 0., 1.03296165e-03, 2.06592330e-03, 3.09888506e-03,
          5.16480824e-04, 2.06592330e-03, 0., 0., 0., 1.03296165e-03,
          2.06592330e-03, 1.03296165e-03, 0., 0., 0., 0., 0.,
          5.16480824e-04, 0., 0., 0., 0., 0., 0., 0., 0., 0., 0., 0., 0.,
          0., 0., 0., 0., 0., 0., 0., 0., 0., 0., 0., 0., 0., 0., 0., 0.,
          0., 0., 0., 0., 0., 0., 0., 0., 0., 0., 0., 0., 0., 0., 0., 0.,
          0., 0., 1.03296165e-03, 4.13184660e-03, 1.54944253e-03,
          5.16480824e-04, 1.54944253e-03, 7.74721242e-03, 0., 0.,
          5.16480824e-04, 3.09888506e-03, 3.09888506e-03, 1.03296165e-03,
          1.03296165e-03, 0., 0., 0., 0., 0., 0., 0., 0., 0., 0., 0., 0.,
          0., 0., 0., 0., 0., 0., 0., 0., 0., 0., 0., 0., 0., 0., 0., 0.,
          0., 0., 0., 0., 0., 0., 0., 0., 0., 0., 0., 0., 0., 0., 0., 0.,
          0., 0., 0., 0., 0., 0., 0., 0., 1.03296165e-03, 4.13184660e-03,
          1.54944253e-03, 8.26369319e-03, 5.68128889e-03, 0., 0., 0.,
          4.13184660e-03, 2.16921940e-02, 1.00713760e-01, 8.26369319e-03,
          0., 0., 0., 0., 1.03296165e-03, 2.01427527e-02, 2.78899651e-02,
          0., 0., 0., 0., 0., 0., 0., 0., 0., 0., 0., 0., 0., 0., 0., 0.,
          0., 0., 0., 0., 0., 0., 0., 0., 0., 0., 0., 0., 0., 0., 0., 0.,
          0., 0., 0., 0., 0., 0., 0., 0., 0., 0., 0., 0., 0., 0., 0., 0.,
          0., 0., 0., 0., 0., 0., 0., 0., 0., 0., 0., 0., 0., 0., 0., 0.,
          0., 0., 0., 0., 0., 0., 0., 0., 0., 0., 0., 0., 0., 0., 0., 0.,
          0., 0., 0., 0., 0., 0., 0., 0., 0., 0., 0., 0., 0., 0., 0., 0.,
          0., 0., 0., 0., 0., 0., 0., 0., 0., 0., 0., 0., 0., 0., 0., 0.,
          0., 0., 0., 0., 0., 0., 0., 0., 0., 0., 0., 0., 0., 0., 0., 0.,
          0., 0., 0., 0., 0., 0., 0., 0., 0., 0., 0., 0., 0., 0., 0., 0.,
          0., 0., 0., 0., 0., 0., 0., 0., 0., 0., 0., 0., 0., 0., 0., 0.,
          0., 0., 0., 0., 0., 0., 0., 0., 0., 0. ]
      - [ 0., 0., 0., 7.73444353e-03, 1.96876749e-02, 1.75782815e-02,
          1.61720179e-02, 1.75782815e-02, 0., 0., 0., 1.68751497e-02,
          6.53912053e-02, 1.01250902e-01, 2.88283806e-02, 2.10939371e-03,
          0., 0., 7.03131256e-04, 1.40626251e-03, 3.58596928e-02,
          2.88283806e-02, 2.10939366e-02, 2.10939371e-03, 0., 0., 0.,
          7.03131256e-04, 4.21878742e-03, 1.05469683e-02, 9.84383747e-03,
          2.81252502e-03, 0., 0., 0., 0., 1.40626251e-03, 7.03131256e-04,
          2.10939371e-03, 3.51565611e-03, 0., 0., 0., 0., 0., 0., 0., 0.,
          0., 0., 0., 0., 0., 0., 0., 0., 0., 0., 0., 0., 0., 0., 0., 0.,
          0., 0., 0., 1.40626251e-03, 1.54688871e-02, 1.12501001e-02,
          1.54688871e-02, 5.62505005e-03, 0., 0., 0., 4.21878742e-03,
          3.51565611e-03, 2.10939371e-03, 0., 0., 0., 0., 0., 0.,
          2.10939371e-03, 0., 0., 0., 0., 0., 0., 0., 0., 0., 0., 0., 0.,
          0., 0., 0., 0., 0., 0., 0., 0., 0., 0., 0., 0., 0., 0., 0., 0.,
          0., 0., 0., 0., 0., 0., 0., 0., 0., 0., 0., 0., 0., 0., 0., 0.,
          0., 0., 7.03131256e-04, 2.32033301e-02, 8.43757484e-03,
          1.96876749e-02, 7.03131256e-04, 0., 0., 0., 0., 0.,
          1.40626251e-03, 0., 0., 0., 0., 0., 0., 0., 0., 0., 0., 0., 0.,
          0., 0., 0., 0., 0., 0., 0., 0., 0., 0., 0., 0., 0., 0., 0., 0.,
          0., 0., 0., 0., 0., 0., 0., 0., 0., 0., 0., 0., 0., 0., 0., 0.,
          0., 0., 0., 0., 0., 0., 0., 0., 0., 5.62505005e-03,
          1.24454230e-01, 2.25705132e-01, 2.81252488e-02, 0., 0., 0., 0.,
          0., 2.06720591e-01, 7.78366268e-01, 8.57820138e-02, 0., 0., 0.,
          0., 0., 1.33594936e-02, 2.42580280e-01, 1.42032504e-01, 0., 0.,
          0., 0., 0., 0., 0., 2.81252502e-03, 0., 0., 0., 0., 0., 0., 0.,
          0., 0., 0., 0., 0., 0., 0., 0., 0., 0., 0., 0., 0., 0., 0., 0.,
          0., 0., 0., 0., 0., 0., 0., 0., 0., 0., 0., 0., 0.,
          4.28910069e-02, 1.65235847e-01, 1.16016656e-01, 3.51565611e-03,
          1.40626251e-03, 0., 0., 0., 2.81252488e-02, 3.12893391e-01,
          1.37110591e-01, 0., 0., 0., 0., 0., 0., 2.81252502e-03,
          1.12501001e-02, 0., 0., 0., 0., 0., 0., 0., 0., 0., 0., 0., 0.,
          0., 0., 0., 0., 0., 0., 0., 0., 0., 0., 0., 0., 0., 0., 0., 0.,
          0., 0., 0., 0., 0., 0., 0., 0., 0., 0., 0., 0., 0., 0., 0., 0.,
          0., 1.05469683e-02, 7.03131258e-02, 2.60158554e-02,
          7.03131256e-04, 1.40626251e-03, 0., 0., 0., 3.58596928e-02,
          8.71882737e-02, 3.16409059e-02, 0., 0., 0., 0., 0.,
          3.51565611e-03, 1.54688871e-02, 7.03131256e-04, 0., 0., 0., 0.,
          0., 0., 0., 0., 0., 0., 0., 0., 0., 0., 0., 0., 0., 0., 0., 0.,
          0., 0., 0., 0., 0., 0., 0., 0., 0., 0., 0., 0., 0., 0., 0., 0.,
          0., 0., 0., 0., 0., 0., 0., 0., 0., 0., 0., 0., 0., 0., 0., 0.,
          0., 0., 0., 0., 0., 0., 0., 0., 0., 0., 0., 0., 0., 0., 0., 0.,
          0., 0., 0., 0., 0., 0., 0., 0., 0., 0., 0., 0., 0., 0., 0., 0.,
          0., 0., 0., 0., 0., 0., 0., 0., 0., 0., 0., 0., 0., 0., 0., 0.,
          0., 0., 0., 0., 0., 0., 0., 0., 0., 0., 0., 0., 0., 0., 0., 0.,
          0., 0., 0., 0., 0., 0., 0., 0., 0., 0., 0., 0., 0., 0., 0., 0.,
          0., 0., 0., 0., 0., 0., 0., 0., 0., 0., 0., 0., 0., 0., 0., 0.,
          0., 0., 0., 0., 0., 0., 0., 0., 0., 0., 0., 0., 0., 0., 0., 0.,
          0., 0., 0., 0., 0., 0. ]
      - [ 0., 0., 0., 2.50649210e-02, 8.85627195e-02, 2.08874345e-02,
          1.67099480e-03, 7.51947658e-03, 0., 0., 1.67099480e-03,
          3.92683782e-02, 1.21982619e-01, 4.92943451e-02, 1.33679584e-02,
          6.68397918e-03, 0., 0., 8.35497398e-04, 3.84328812e-02,
          1.60415500e-01, 4.84588481e-02, 3.67618836e-02, 0., 0., 0., 0.,
          6.68397918e-03, 3.92683782e-02, 2.42294241e-02, 2.67359167e-02,
          8.35497398e-04, 0., 0., 0., 0., 4.17748699e-03, 1.42034553e-02,
          2.08874345e-02, 6.68397918e-03, 0., 0., 0., 0., 0., 0., 0., 0.,
          0., 0., 0., 0., 0., 0., 0., 0., 0., 0., 0., 0., 0., 0., 0., 0.,
          0., 0., 0., 8.35497398e-03, 2.50649219e-03, 1.08614657e-02, 0.,
          0., 0., 0., 0., 2.50649219e-03, 1.67099480e-03, 0., 0., 0., 0.,
          0., 0., 8.35497398e-04, 8.35497398e-04, 0., 0., 0., 0., 0., 0.,
          0., 0., 0., 0., 0., 0., 0., 0., 0., 0., 0., 0., 0., 0., 0., 0.,
          0., 0., 0., 0., 0., 0., 0., 0., 0., 0., 0., 0., 0., 0., 0., 0.,
          0., 0., 0., 0., 0., 0., 0., 0., 0., 3.50908898e-02,
          4.01038751e-02, 0., 0., 0., 0., 0., 0., 0., 0., 0., 0., 0., 0.,
          0., 0., 0., 0., 0., 0., 0., 0., 0., 0., 0., 0., 0., 0., 0., 0.,
          0., 0., 0., 0., 0., 0., 0., 0., 0., 0., 0., 0., 0., 0., 0., 0.,
          0., 0., 0., 0., 0., 0., 0., 0., 0., 0., 0., 0., 0., 0., 0., 0.,
          0., 2.33939271e-02, 2.05532357e-01, 1.72112465e-01,
          8.35497398e-04, 0., 0., 0., 0., 6.68397918e-03, 1.82973921e-01,
          5.40566802e-01, 0., 0., 0., 0., 0., 0., 1.11121148e-01,
          8.60562325e-02, 0., 0., 0., 0., 0., 0., 0., 0., 0., 0., 0., 0.,
          0., 0., 0., 0., 0., 0., 0., 0., 0., 0., 0., 0., 0., 0., 0., 0.,
          0., 0., 0., 0., 0., 0., 0., 0., 0., 0., 0., 0., 0., 0., 0., 0.,
          0., 4.26103659e-02, 3.81822288e-01, 4.09393720e-02, 0., 0., 0.,
          0., 0., 3.34198959e-02, 3.54250878e-01, 1.01095185e-01, 0., 0.,
          0., 0., 0., 0., 1.58744510e-02, 1.67099480e-03, 0., 0., 0., 0.,
          0., 0., 0., 0., 0., 0., 0., 0., 0., 0., 0., 0., 0., 0., 0., 0.,
          0., 0., 0., 0., 0., 0., 0., 0., 0., 0., 0., 0., 0., 0., 0., 0.,
          0., 0., 0., 0., 0., 0., 0., 0., 0., 3.17489021e-02,
          1.65428475e-01, 2.59004179e-02, 0., 0., 0., 0., 0.,
          9.85886902e-02, 4.28610146e-01, 3.42553928e-02, 0., 0., 0., 0.,
          0., 2.42294241e-02, 7.68657625e-02, 0., 0., 0., 0., 0., 0., 0.,
          0., 0., 0., 0., 0., 0., 0., 0., 0., 0., 0., 0., 0., 0., 0., 0.,
          0., 0., 0., 0., 0., 0., 0., 0., 0., 0., 0., 0., 0., 0., 0., 0.,
          0., 0., 0., 0., 0., 0., 0., 0., 0., 0., 0., 0., 0., 0., 0., 0.,
          0., 0., 0., 0., 0., 0., 0., 0., 0., 0., 0., 0., 0., 0., 0., 0.,
          0., 0., 0., 0., 0., 0., 0., 0., 0., 0., 0., 0., 0., 0., 0., 0.,
          0., 0., 0., 0., 0., 0., 0., 0., 0., 0., 0., 0., 0., 0., 0., 0.,
          0., 0., 0., 0., 0., 0., 0., 0., 0., 0., 0., 0., 0., 0., 0., 0.,
          0., 0., 0., 0., 0., 0., 0., 0., 0., 0., 0., 0., 0., 0., 0., 0.,
          0., 0., 0., 0., 0., 0., 0., 0., 0., 0., 0., 0., 0., 0., 0., 0.,
          0., 0., 0., 0., 0., 0., 0., 0., 0., 0., 0., 0., 0., 0., 0., 0.,
          0., 0., 0., 0. ]
      - [ 0., 0., 0., 0., 0., 0., 9.04885528e-04, 1.71928238e-02, 0., 0.,
          0., 0., 4.52442764e-04, 3.16709932e-03, 1.13110691e-02,
          2.85038929e-02, 0., 0., 0., 4.52442764e-04, 2.26221373e-03,
          1.08586261e-02, 2.30745804e-02, 3.03136650e-02, 0., 0., 0.,
          4.52442764e-04, 4.07198491e-03, 1.17635112e-02, 3.03136650e-02,
          4.66016047e-02, 0., 0., 0., 9.04885528e-04, 2.71465653e-03,
          1.58354957e-02, 2.09933445e-01, 7.16216862e-01, 0., 0., 0., 0.,
          8.14396981e-03, 1.71928238e-02, 3.38879615e-01, 5.62386334e-01,
          0., 0., 0., 1.35732826e-03, 7.23908423e-03, 9.04885493e-03,
          3.80051918e-02, 5.97224422e-02, 0., 0., 0., 0., 9.04885528e-04,
          0., 0., 0., 0., 0., 0., 0., 0., 0., 4.52442764e-04, 0., 0., 0.,
          0., 0., 9.04885528e-04, 9.04885528e-04, 4.52442764e-04,
          4.52442764e-04, 0., 0., 0., 0., 0., 0., 0., 0., 0., 0., 0., 0.,
          0., 0., 0., 0., 0., 0., 0., 0., 0., 0., 0., 0., 0., 0., 0., 0.,
          0., 0., 0., 0., 0., 0., 0., 0., 0., 0., 0., 0., 0., 0., 0., 0.,
          0., 0., 0., 0., 0., 0., 0., 0., 0., 0., 0., 0., 0., 0., 0., 0.,
          0., 0., 0., 0., 0., 0., 0., 0., 0., 0., 0., 0., 0., 0., 0., 0.,
          0., 0., 0., 0., 0., 0., 0., 0., 0., 0., 0., 0., 0., 0., 0., 0.,
          0., 0., 0., 0., 0., 0., 0., 0., 0., 0., 0., 0., 0., 0., 0., 0.,
          0., 0., 0., 0., 0., 0., 0., 0., 0., 0., 0., 0., 0., 0., 0., 0.,
          0., 0., 0., 0., 0., 0., 0., 0., 0., 0., 0., 0., 0., 0., 0., 0.,
          0., 0., 0., 0., 0., 0., 0., 0., 0., 0., 0., 0., 0., 0., 0., 0.,
          0., 0., 0., 0., 0., 0., 0., 0., 0., 0., 0., 0., 0., 0., 0., 0.,
          0., 0., 0., 0., 0., 0., 0., 0., 0., 0., 0., 0., 0., 0., 0., 0.,
          0., 0., 0., 0., 0., 0., 0., 0., 0., 0., 0., 0., 0., 0., 0., 0.,
          0., 0., 0., 0., 0., 0., 0., 0., 0., 0., 0., 0., 0., 0., 0., 0.,
          0., 0., 0., 0., 0., 0., 0., 0., 0., 0., 0., 0., 0., 0., 0., 0.,
          0., 0., 0., 0., 0., 0., 0., 0., 0., 0., 0., 0., 0., 0., 0., 0.,
          0., 0., 0., 0., 0., 0., 0., 0., 0., 0., 0., 0., 0., 0., 0., 0.,
          0., 1.80977106e-03, 0., 0., 0., 0., 0., 0., 0., 9.04885528e-04,
          0., 9.04885528e-04, 0., 0., 0., 0., 0., 0., 0., 0., 0., 0., 0.,
          0., 0., 0., 0., 0., 0., 0., 0., 0., 0., 0., 0., 0., 0., 0., 0.,
          0., 0., 0., 0., 0., 0., 0., 0., 0., 0., 0., 0., 0., 0., 0., 0.,
          0., 0., 0., 0., 0., 0., 0., 0., 0., 0., 0., 0., 0., 0., 0., 0.,
          0., 0., 0., 0., 0., 0., 0., 0., 0., 0., 0., 0., 0., 0., 0., 0.,
          0., 0., 0., 0., 0., 0., 0., 0., 0., 0., 0., 0., 0., 0., 0., 0.,
          0., 0., 0., 0., 0., 0., 0., 0., 0., 0., 0., 0., 0., 0., 0., 0.,
          0., 0., 0., 0., 0., 0., 0., 0., 0., 0., 0., 0., 0., 0., 0., 0.,
          0., 0., 0., 0., 0., 0., 0., 0., 0., 0., 0., 0., 0., 0., 0., 0.,
          0., 0., 0., 0., 0., 0., 0., 0., 0., 0., 0., 0., 0. ]
      - [ 0., 8.79875442e-04, 0., 8.79875384e-03, 2.81560142e-02,
          2.99157649e-02, 4.39937692e-03, 2.02371348e-02, 0., 0.,
          1.75975088e-03, 1.49578825e-02, 6.24711551e-02, 9.06271711e-02,
          1.05585046e-02, 6.15912769e-03, 0., 0., 8.79875442e-04,
          1.67176332e-02, 8.71076658e-02, 2.97397882e-01, 1.49578825e-02,
          0., 0., 0., 8.79875442e-04, 1.31981317e-02, 1.61897078e-01,
          5.93915880e-01, 9.32667926e-02, 0., 0., 0., 0., 8.79875384e-03,
          5.27925268e-02, 4.59294975e-01, 3.46670926e-01, 0., 0., 0., 0.,
          5.27925231e-03, 1.67176332e-02, 9.15070400e-02, 1.95332348e-01,
          0., 0., 0., 0., 0., 0., 1.23182554e-02, 0., 0., 0., 0., 0., 0.,
          0., 0., 0., 0., 0., 0., 0., 3.51950177e-03, 2.37566363e-02,
          1.05585046e-02, 8.79875442e-04, 1.75975088e-03, 0., 0., 0.,
          8.79875442e-04, 5.27925231e-03, 2.63962615e-03, 0., 0., 0., 0.,
          0., 1.75975088e-03, 0., 0., 0., 0., 0., 0., 0., 0., 0., 0., 0.,
          0., 0., 0., 0., 0., 0., 0., 0., 0., 0., 0., 0., 0., 0., 0., 0.,
          0., 0., 0., 0., 0., 0., 0., 0., 0., 0., 0., 0., 0., 0., 0., 0.,
          0., 0., 0., 0., 8.79875442e-04, 2.90358886e-02, 4.57535200e-02,
          1.58377569e-02, 5.27925231e-03, 0., 0., 0., 1.75975088e-03,
          7.03900354e-03, 2.19968855e-02, 8.79875384e-03, 0., 0., 0., 0.,
          0., 8.79875442e-04, 0., 0., 0., 0., 0., 0., 0., 0., 0., 0., 0.,
          0., 0., 0., 0., 0., 0., 0., 0., 0., 0., 0., 0., 0., 0., 0., 0.,
          0., 0., 0., 0., 0., 0., 0., 0., 0., 0., 0., 0., 0., 0., 0., 0.,
          0., 1.75975088e-03, 0., 5.27925231e-03, 3.51950154e-02,
          5.54321520e-02, 2.46365108e-02, 1.40780071e-02, 0., 0.,
          8.79875442e-04, 6.15912769e-03, 5.80717772e-02, 8.35881680e-02,
          4.39937711e-02, 8.79875442e-04, 0., 0., 0., 0., 9.67862923e-03,
          1.10864304e-01, 1.75975077e-02, 0., 0., 0., 0., 0., 0.,
          1.84773840e-02, 3.43151428e-02, 0., 0., 0., 0., 0., 0., 0., 0.,
          0., 0., 0., 0., 0., 0., 0., 0., 0., 0., 0., 0., 0., 0., 0., 0.,
          0., 0., 0., 0., 0., 0., 0., 0., 0., 0., 0., 4.39937692e-03,
          5.27925231e-03, 3.43151428e-02, 1.93572585e-02, 2.63962615e-03,
          5.27925231e-03, 0., 0., 0., 4.39937692e-03, 5.54321520e-02,
          1.84773840e-02, 0., 0., 0., 0., 0., 0., 7.03900354e-03, 0., 0.,
          0., 0., 0., 0., 0., 0., 0., 0., 0., 0., 0., 0., 0., 0., 0., 0.,
          0., 0., 0., 0., 0., 0., 0., 0., 0., 0., 0., 0., 0., 0., 0., 0.,
          0., 0., 0., 0., 0., 0., 0., 0., 0., 0., 8.79875442e-04,
          1.75975088e-03, 1.14383800e-02, 2.90358886e-02, 9.67862923e-03,
          0., 1.75975088e-03, 0., 1.75975088e-03, 8.79875442e-04,
          1.40780071e-02, 1.39900193e-01, 1.12624057e-01, 8.79875442e-04,
          0., 0., 8.79875442e-04, 0., 6.15912769e-03, 1.19663060e-01,
          1.68056205e-01, 8.79875442e-04, 0., 0., 0., 0., 2.63962615e-03,
          4.31138948e-02, 2.37566363e-02, 0., 0., 0., 0., 0., 0.,
          4.39937692e-03, 3.51950177e-03, 0., 0., 0., 0., 0., 0., 0., 0.,
          0., 0., 0., 0., 0., 0., 0., 0., 0., 0., 0., 0., 0., 0., 0., 0.,
          0., 0., 0., 0., 0., 0., 0., 0., 0., 0., 0., 0., 0., 0., 0., 0.,
          0., 0., 0., 0., 0., 0., 0., 0., 0., 0., 0., 0., 0., 0., 0., 0.,
          0., 0., 0., 0., 0., 0., 0., 0., 0., 0., 0., 0., 0., 0., 0., 0.,
          0., 0., 0., 0., 0., 0., 0., 0., 0., 0., 0., 0., 0., 0., 0., 0.,
          0., 0., 0., 0., 0., 0., 0., 0., 0., 0., 0., 0., 0., 0., 0., 0.,
          0., 0., 0., 0., 0., 0., 0., 0., 0., 0., 0., 0., 0., 0., 0., 0.,
          0., 0., 0., 0., 0., 0., 0., 0., 0., 0., 0., 0., 0., 0., 0., 0.,
          0., 0., 0., 0., 0., 0., 0., 0., 0., 0., 0., 0., 0., 0., 0., 0.,
          0., 0. ]
      - [ 0., 0., 0., 1.53519108e-03, 3.45418006e-02, 3.36974442e-01,
          1.30491247e-02, 4.60557342e-02, 0., 0., 0., 4.60557314e-03,
          1.57357082e-01, 6.27125561e-01, 1.02090210e-01, 2.30278671e-02,
          0., 0., 0., 3.83797777e-03, 2.00342432e-01, 4.92028743e-01,
          1.73476592e-01, 2.45630573e-02, 0., 0., 0., 0., 1.32794023e-01,
          1.86525717e-01, 5.60344756e-02, 5.83372600e-02, 0., 0., 0., 0.,
          6.37104288e-02, 7.29215741e-02, 1.38167199e-02, 3.22390124e-02,
          0., 0., 0., 0., 0., 3.83797777e-03, 3.83797777e-03,
          1.15139335e-02, 0., 0., 0., 0., 0., 0., 0., 0., 0., 0., 0., 0.,
          0., 0., 0., 0., 0., 0., 0., 0., 6.14076434e-03, 6.21752404e-02,
          2.30278671e-02, 2.76334397e-02, 0., 0., 0., 0., 0.,
          3.07038217e-03, 1.68871023e-02, 3.07038217e-03, 0., 0., 0., 0.,
          0., 0., 0., 0., 0., 0., 0., 0., 0., 0., 0., 0., 0., 0., 0., 0.,
          0., 0., 0., 0., 0., 0., 0., 0., 0., 0., 0., 0., 0., 0., 0., 0.,
          0., 0., 0., 0., 0., 0., 0., 0., 0., 0., 0., 0., 0., 0., 0., 0.,
          4.60557314e-03, 9.21114683e-02, 9.21114627e-03, 3.22390124e-02,
          0., 0., 0., 0., 1.53519108e-03, 2.60982495e-02, 2.30278657e-03,
          0., 0., 0., 0., 0., 0., 0., 0., 0., 0., 0., 0., 0., 0., 0., 0.,
          0., 0., 0., 0., 0., 0., 0., 0., 0., 0., 0., 0., 0., 0., 0., 0.,
          0., 0., 0., 0., 0., 0., 0., 0., 0., 0., 0., 0., 0., 0., 0., 0.,
          0., 0., 0., 0., 7.67595542e-04, 1.45843150e-02, 1.84222925e-02,
          3.83797777e-03, 2.14926749e-02, 0., 0., 0., 0., 1.53519108e-03,
          8.44355114e-03, 2.60982495e-02, 7.67595542e-04, 0., 0., 0., 0.,
          7.67595542e-04, 0., 0., 0., 0., 0., 0., 0., 0., 0., 0., 0., 0.,
          0., 0., 0., 0., 0., 0., 0., 0., 0., 0., 0., 0., 0., 0., 0., 0.,
          0., 0., 0., 0., 0., 0., 0., 0., 0., 0., 0., 0., 0., 0., 0., 0.,
          0., 0., 3.07038217e-03, 1.45843150e-02, 5.14289029e-02,
          3.07038217e-03, 1.84222925e-02, 0., 0., 0., 7.67595542e-04,
          6.14076434e-03, 5.37316874e-03, 0., 0., 0., 0., 0., 0., 0., 0.,
          0., 0., 0., 0., 0., 0., 0., 0., 0., 0., 0., 0., 0., 0., 0., 0.,
          0., 0., 0., 0., 0., 0., 0., 0., 0., 0., 0., 0., 0., 0., 0., 0.,
          0., 0., 0., 0., 0., 0., 0., 0., 0., 0., 0., 0., 0.,
          2.30278657e-03, 3.83797772e-02, 6.44780248e-02, 3.07038217e-03,
          1.30491247e-02, 0., 0., 0., 6.90835994e-03, 8.67382959e-02,
          1.91898882e-01, 5.37316874e-03, 7.67595542e-04, 0., 0., 0., 0.,
          7.67595554e-03, 8.44355114e-03, 0., 0., 0., 0., 0., 0., 0., 0.,
          0., 0., 0., 0., 0., 0., 0., 0., 0., 0., 0., 0., 0., 0., 0., 0.,
          0., 0., 0., 0., 0., 0., 0., 0., 0., 0., 0., 0., 0., 0., 0., 0.,
          0., 0., 0., 0., 0., 0., 0., 0., 0., 0., 0., 0., 0., 0., 0., 0.,
          0., 0., 0., 0., 0., 0., 0., 0., 0., 0., 0., 0., 0., 0., 0., 0.,
          0., 0., 0., 0., 0., 0., 0., 0., 0., 0., 0., 0., 0., 0., 0., 0.,
          0., 0., 0., 0., 0., 0., 0., 0., 0., 0., 0., 0., 0., 0., 0., 0.,
          0., 0., 0., 0., 0., 0., 0., 0., 0., 0., 0., 0., 0., 0., 0., 0.,
          0., 0., 0., 0., 0., 0., 0., 0., 0., 0., 0., 0., 0., 0., 0., 0.,
          0., 0., 0., 0., 0., 0., 0., 0., 0., 0., 0., 0., 0., 0., 0., 0.,
          0., 0., 0., 0., 0., 0., 0., 0., 0., 0., 0., 0., 0., 0., 0., 0.,
          0., 0. ]
      - [ 0., 0., 1.23978569e-03, 3.16145346e-02, 5.02113216e-02,
          2.78951786e-02, 3.65736783e-02, 4.95914277e-03, 0., 0., 0.,
          3.09946425e-02, 4.15328220e-02, 2.91349646e-02, 1.54973213e-02,
          6.19892846e-04, 0., 0., 0., 1.17779644e-02, 2.97548566e-02,
          2.04564650e-02, 3.71935708e-03, 1.23978569e-03, 0., 0., 0., 0.,
          6.19892869e-03, 9.91828553e-03, 1.11580715e-02, 6.19892846e-04,
          0., 0., 0., 0., 0., 3.71935708e-03, 9.29839257e-03,
          6.19892846e-04, 0., 0., 0., 0., 0., 0., 0., 0., 0., 0., 0., 0.,
          0., 0., 0., 0., 0., 0., 0., 0., 0., 0., 0., 0., 0., 0., 0.,
          8.05860758e-03, 1.11580715e-02, 5.57903573e-03, 1.05381785e-02,
          5.57903573e-03, 0., 0., 0., 0., 0., 0., 0., 0., 0., 0., 0., 0.,
          0., 0., 0., 0., 0., 0., 0., 0., 0., 0., 0., 0., 0., 0., 0., 0.,
          0., 0., 0., 0., 0., 0., 0., 0., 0., 0., 0., 0., 0., 0., 0., 0.,
          0., 0., 0., 0., 0., 0., 0., 0., 0., 0., 0., 0., 0., 0.,
          1.23978569e-03, 9.91828553e-03, 2.72752848e-02, 2.29360349e-02,
          2.10763570e-02, 1.05381785e-02, 0., 0., 1.23978569e-03,
          1.85967854e-03, 6.81882119e-03, 3.71935708e-03, 0., 0., 0., 0.,
          0., 0., 1.85967854e-03, 0., 0., 0., 0., 0., 0., 0., 0., 0., 0.,
          0., 0., 0., 0., 0., 0., 0., 0., 0., 0., 0., 0., 0., 0., 0., 0.,
          0., 0., 0., 0., 0., 0., 0., 0., 0., 0., 0., 0., 0., 0., 0., 0.,
          0., 0., 0., 3.09946435e-03, 3.84333581e-02, 2.00845286e-01,
          1.64271608e-01, 2.10763570e-02, 1.54973213e-02, 0., 0.,
          6.19892846e-04, 7.43871415e-03, 2.23781317e-01, 8.74048948e-01,
          7.62468204e-02, 6.19892869e-03, 0., 0., 0., 6.19892846e-04,
          8.05860758e-03, 1.68610856e-01, 1.50633961e-01, 0., 0., 0., 0.,
          0., 0., 9.91828553e-03, 1.85967854e-03, 0., 0., 0., 0., 0., 0.,
          0., 0., 0., 0., 0., 0., 0., 0., 0., 0., 0., 0., 0., 0., 0., 0.,
          0., 0., 0., 0., 0., 0., 0., 0., 0., 0., 0., 0., 0.,
          3.09946435e-03, 6.32290691e-02, 1.66131288e-01, 4.52521779e-02,
          6.81882119e-03, 9.91828553e-03, 0., 0., 2.47957138e-03,
          9.29839257e-03, 6.81882128e-02, 1.79768931e-02, 0., 0., 0., 0.,
          0., 6.19892846e-04, 0., 6.19892846e-04, 0., 0., 0., 0., 0., 0.,
          0., 0., 0., 0., 0., 0., 0., 0., 0., 0., 0., 0., 0., 0., 0., 0.,
          0., 0., 0., 0., 0., 0., 0., 0., 0., 0., 0., 0., 0., 0., 0., 0.,
          0., 0., 0., 0., 0., 0., 0., 2.10763570e-02, 5.08312136e-02,
          1.79768931e-02, 6.81882119e-03, 3.09946435e-03, 0., 0.,
          2.47957138e-03, 1.79768931e-02, 5.45505695e-02, 6.19892869e-03,
          0., 0., 0., 0., 6.19892846e-04, 0., 6.19892869e-03, 0., 0., 0.,
          0., 0., 0., 0., 0., 0., 0., 0., 0., 0., 0., 0., 0., 0., 0., 0.,
          0., 0., 0., 0., 0., 0., 0., 0., 0., 0., 0., 0., 0., 0., 0., 0.,
          0., 0., 0., 0., 0., 0., 0., 0., 0., 0., 0., 0., 0., 0., 0., 0.,
          0., 0., 0., 0., 0., 0., 0., 0., 0., 0., 0., 0., 0., 0., 0., 0.,
          0., 0., 0., 0., 0., 0., 0., 0., 0., 0., 0., 0., 0., 0., 0., 0.,
          0., 0., 0., 0., 0., 0., 0., 0., 0., 0., 0., 0., 0., 0., 0., 0.,
          0., 0., 0., 0., 0., 0., 0., 0., 0., 0., 0., 0., 0., 0., 0., 0.,
          0., 0., 0., 0., 0., 0., 0., 0., 0., 0., 0., 0., 0., 0., 0., 0.,
          0., 0., 0., 0., 0., 0., 0., 0., 0., 0., 0., 0., 0., 0., 0., 0.,
          0., 0., 0., 0., 0., 0., 0., 0., 0., 0., 0., 0., 0., 0., 0., 0.,
          0., 0., 0., 0., 0., 0., 0., 0. ]
      - [ 0., 0., 0., 0., 9.73809138e-02, 1.38989121e-01, 3.27553973e-02,
          3.45259607e-02, 0., 0., 0., 6.19696686e-03, 1.93876535e-01,
          4.10770386e-01, 4.69198935e-02, 7.96752889e-03, 0., 0., 0.,
          2.65584304e-03, 8.49869773e-02, 3.48800719e-01, 4.60346118e-02,
          8.85281013e-04, 0., 0., 0., 3.54112405e-03, 1.50497770e-02,
          1.10660128e-01, 1.32792154e-02, 0., 0., 0., 0., 0.,
          8.85281013e-04, 6.19696686e-03, 0., 0., 0., 0., 0., 0., 0., 0.,
          0., 0., 0., 0., 0., 0., 0., 0., 0., 0., 0., 0., 0., 0., 0., 0.,
          0., 0., 0., 0., 0., 0., 9.73809138e-03, 1.94761828e-02,
          1.59350578e-02, 1.94761828e-02, 0., 0., 0., 8.85281013e-04,
          7.96752889e-03, 3.54112405e-03, 1.77056203e-03, 8.85281013e-04,
          0., 0., 0., 0., 8.85281013e-04, 8.85281013e-04, 0., 0., 0., 0.,
          0., 0., 0., 0., 0., 0., 0., 0., 0., 0., 0., 0., 0., 0., 0., 0.,
          0., 0., 0., 0., 0., 0., 0., 0., 0., 0., 0., 0., 0., 0., 0., 0.,
          0., 0., 0., 0., 0., 0., 0., 0., 0., 8.85281013e-04,
          1.15086529e-02, 2.21320242e-02, 3.54112387e-02, 4.42640483e-02,
          0., 0., 0., 0., 3.54112405e-03, 7.08224811e-03, 2.92142723e-02,
          5.31168617e-02, 0., 0., 0., 0., 0., 0., 0., 1.77056203e-03, 0.,
          0., 0., 0., 0., 0., 0., 0., 0., 0., 0., 0., 0., 0., 0., 0., 0.,
          0., 0., 0., 0., 0., 0., 0., 0., 0., 0., 0., 0., 0., 0., 0., 0.,
          0., 0., 0., 0., 0., 0., 0., 0., 0., 0., 0., 3.09848357e-02,
          5.22315800e-02, 2.03614626e-02, 2.92142723e-02, 0., 0., 0., 0.,
          1.50497770e-02, 1.37218550e-01, 3.80670838e-02, 4.42640483e-02,
          0., 0., 0., 0., 0., 5.31168608e-03, 8.85280967e-03,
          1.77056203e-03, 0., 0., 0., 0., 0., 0., 0., 0., 0., 0., 0., 0.,
          0., 0., 0., 0., 0., 0., 0., 0., 0., 0., 0., 0., 0., 0., 0., 0.,
          0., 0., 0., 0., 0., 0., 0., 0., 0., 0., 0., 0., 0., 0., 0., 0.,
          4.16082069e-02, 2.26631939e-01, 3.09848357e-02, 6.19696686e-03,
          0., 0., 0., 0., 2.83289924e-02, 1.15086533e-01, 4.95757349e-02,
          0., 0., 0., 0., 0., 0., 0., 8.85281013e-04, 0., 0., 0., 0., 0.,
          0., 0., 0., 0., 0., 0., 0., 0., 0., 0., 0., 0., 0., 0., 0., 0.,
          0., 0., 0., 0., 0., 0., 0., 0., 0., 0., 0., 0., 0., 0., 0., 0.,
          0., 0., 0., 0., 0., 0., 0., 8.85281013e-04, 6.55107945e-02,
          3.11618924e-01, 3.45259607e-02, 0., 0., 0., 0., 2.65584304e-03,
          1.77056193e-01, 5.69235682e-01, 1.63776979e-01, 3.54112405e-03,
          0., 0., 0., 1.77056203e-03, 5.13462983e-02, 1.34562716e-01,
          1.59350578e-02, 0., 0., 0., 0., 8.85281013e-04, 3.09848357e-02,
          5.40021397e-02, 2.65584304e-03, 0., 0., 0., 0., 0.,
          8.85281013e-04, 2.65584304e-03, 0., 0., 0., 0., 0., 0., 0., 0.,
          0., 0., 0., 0., 0., 0., 0., 0., 0., 0., 0., 0., 0., 0., 0., 0.,
          0., 0., 0., 0., 0., 0., 0., 0., 0., 0., 0., 0., 0., 0., 0., 0.,
          0., 0., 0., 0., 0., 0., 0., 0., 0., 0., 0., 0., 0., 0., 0., 0.,
          0., 0., 0., 0., 0., 0., 0., 0., 0., 0., 0., 0., 0., 0., 0., 0.,
          0., 0., 0., 0., 0., 0., 0., 0., 0., 0., 0., 0., 0., 0., 0., 0.,
          0., 0., 0., 0., 0., 0., 0., 0., 0., 0., 0., 0., 0., 0., 0., 0.,
          0., 0., 0., 0., 0., 0., 0., 0., 0., 0., 0., 0., 0., 0., 0., 0.,
          0., 0., 0., 0., 0., 0., 0., 0., 0., 0., 0., 0., 0., 0., 0., 0.,
          0., 0., 0., 0., 0., 0., 0., 0., 0., 0., 0., 0., 0., 0., 0., 0.,
          0., 0. ]
      - [ 0., 0., 4.51821042e-03, 2.10849829e-02, 4.81942445e-02,
          6.02428056e-03, 3.76517558e-03, 9.78945661e-03, 0., 0., 0.,
          1.65667720e-02, 4.06638943e-02, 1.80728417e-02, 0., 0., 0., 0.,
          0., 3.76517558e-03, 8.28338601e-03, 1.20485611e-02,
          7.53035070e-04, 0., 0., 0., 0., 0., 3.01214028e-03,
          1.05424915e-02, 0., 0., 0., 0., 0., 0., 7.53035070e-04,
          2.25910521e-03, 3.01214028e-03, 0., 0., 0., 0., 0., 0., 0., 0.,
          0., 0., 0., 0., 0., 0., 0., 0., 0., 0., 0., 0., 0., 0., 0., 0.,
          0., 0., 0., 7.53035070e-04, 9.03642084e-03, 9.78945661e-03,
          6.77731587e-03, 2.25910521e-03, 5.27124573e-03, 0., 0., 0.,
          7.53035070e-04, 3.76517558e-03, 7.53035070e-04, 0., 0., 0., 0.,
          0., 0., 0., 0., 0., 0., 0., 0., 0., 0., 0., 0., 0., 0., 0., 0.,
          0., 0., 0., 0., 0., 0., 0., 0., 0., 0., 0., 0., 0., 0., 0., 0.,
          0., 0., 0., 0., 0., 0., 0., 0., 0., 0., 0., 0., 0., 0., 0., 0.,
          6.02428056e-03, 9.78945661e-03, 1.05424915e-02, 1.50607023e-02,
          2.25910521e-03, 6.02428056e-03, 0., 0., 0., 7.53035117e-03,
          6.77731587e-03, 9.78945661e-03, 7.53035070e-04, 0., 0., 0., 0.,
          0., 7.53035070e-04, 5.27124573e-03, 1.50607014e-03, 0., 0., 0.,
          0., 0., 0., 0., 2.25910521e-03, 0., 0., 0., 0., 0., 0., 0., 0.,
          0., 0., 0., 0., 0., 0., 0., 0., 0., 0., 0., 0., 0., 0., 0., 0.,
          0., 0., 0., 0., 0., 0., 0., 0., 0., 0., 0., 0., 6.09958433e-02,
          6.77731559e-02, 1.50607023e-02, 6.02428056e-03, 4.51821042e-03,
          0., 0., 1.50607014e-03, 1.09943122e-01, 5.04533529e-01,
          2.19886243e-01, 2.93683689e-02, 0., 0., 0., 0., 1.50607014e-03,
          2.39465162e-01, 5.99415958e-01, 5.34654930e-02, 1.50607014e-03,
          0., 0., 0., 0., 3.01214028e-03, 2.36453027e-01, 1.06177948e-01,
          0., 0., 0., 0., 0., 0., 0., 0., 0., 0., 0., 0., 0., 0., 0., 0.,
          0., 0., 0., 0., 0., 0., 0., 0., 0., 0., 0., 0., 0., 0., 0., 0.,
          0., 0., 0., 1.50607014e-03, 1.10696159e-01, 1.28768995e-01,
          7.53035117e-03, 4.51821042e-03, 6.77731587e-03, 0., 0.,
          3.76517558e-03, 2.49254614e-01, 2.69586563e-01, 9.78945661e-03,
          0., 0., 0., 0., 0., 1.88258775e-02, 8.65990371e-02,
          3.01214028e-03, 0., 0., 0., 0., 0., 0., 7.53035070e-04, 0., 0.,
          0., 0., 0., 0., 0., 0., 0., 0., 0., 0., 0., 0., 0., 0., 0., 0.,
          0., 0., 0., 0., 0., 0., 0., 0., 0., 0., 0., 0., 0., 0., 0., 0.,
          0., 0., 0., 4.51821042e-03, 2.93683689e-02, 3.38865779e-02,
          6.02428056e-03, 3.01214028e-03, 6.02428056e-03, 0., 0.,
          3.01214028e-03, 6.62670881e-02, 6.09958433e-02, 0., 0., 0., 0.,
          0., 0., 9.03642084e-03, 1.28015969e-02, 0., 0., 0., 0., 0., 0.,
          1.50607014e-03, 7.53035117e-03, 0., 0., 0., 0., 0., 0., 0., 0.,
          0., 0., 0., 0., 0., 0., 0., 0., 0., 0., 0., 0., 0., 0., 0., 0.,
          0., 0., 0., 0., 0., 0., 0., 0., 0., 0., 0., 0., 0., 0., 0., 0.,
          0., 0., 0., 0., 0., 0., 0., 0., 0., 0., 0., 0., 0., 0., 0., 0.,
          0., 0., 0., 0., 0., 0., 0., 0., 0., 0., 0., 0., 0., 0., 0., 0.,
          0., 0., 0., 0., 0., 0., 0., 0., 0., 0., 0., 0., 0., 0., 0., 0.,
          0., 0., 0., 0., 0., 0., 0., 0., 0., 0., 0., 0., 0., 0., 0., 0.,
          0., 0., 0., 0., 0., 0., 0., 0., 0., 0., 0., 0., 0., 0., 0., 0.,
          0., 0., 0., 0., 0., 0., 0., 0., 0., 0., 0., 0., 0., 0., 0., 0.,
          0., 0., 0., 0., 0., 0., 0., 0., 0., 0., 0., 0., 0., 0., 0., 0.,
          0., 0., 0., 0., 0., 0., 0., 0., 0., 0., 0. ]
      - [ 0., 0., 0., 0., 4.95541748e-03, 3.46879214e-02, 1.62820853e-02,
          7.36233443e-02, 0., 0., 0., 2.12375028e-03, 1.20345848e-02,
          1.99632525e-01, 7.64550120e-02, 4.10591736e-02, 0., 0., 0.,
          7.07916741e-04, 1.06187509e-02, 3.56790036e-01, 5.93942165e-01,
          4.24750037e-02, 0., 0., 0., 1.41583348e-03, 1.34504186e-02,
          2.65468776e-01, 4.75012153e-01, 2.40691695e-02, 0., 0., 0.,
          1.41583348e-03, 1.84058361e-02, 2.73255855e-01, 2.21577942e-01,
          2.40691695e-02, 0., 0., 7.07916741e-04, 2.12375028e-03,
          8.49500112e-03, 1.06187515e-01, 7.92866796e-02, 2.12375019e-02,
          0., 0., 0., 0., 2.83166696e-03, 2.83166696e-03, 9.91083495e-03,
          5.66333393e-03, 0., 0., 0., 0., 0., 0., 0., 0., 0., 0., 0., 0.,
          7.07916741e-04, 7.78708421e-03, 4.24750056e-03, 1.91137530e-02,
          0., 0., 0., 0., 0., 1.41583348e-03, 1.41583355e-02, 0., 0., 0.,
          0., 0., 0., 2.12375028e-03, 1.41583348e-03, 0., 0., 0., 0., 0.,
          0., 0., 0., 0., 0., 0., 0., 0., 0., 0., 0., 0., 0., 0., 0., 0.,
          0., 0., 0., 0., 0., 0., 0., 0., 0., 0., 0., 0., 0., 0., 0., 0.,
          0., 0., 0., 0., 0., 0., 0., 0., 2.83166696e-03, 1.27425017e-02,
          3.53958388e-03, 2.90245879e-02, 0., 0., 0., 0., 7.07916741e-04,
          2.12375028e-03, 0., 7.07916741e-04, 0., 0., 0., 0., 0., 0., 0.,
          0., 0., 0., 0., 0., 0., 0., 0., 0., 0., 0., 0., 0., 0., 0., 0.,
          0., 0., 0., 0., 0., 0., 0., 0., 0., 0., 0., 0., 0., 0., 0., 0.,
          0., 0., 0., 0., 0., 0., 0., 0., 0., 0., 0., 0., 0.,
          7.07916741e-04, 9.20291804e-03, 2.83166696e-03, 7.07916776e-03,
          0., 0., 0., 0., 0., 1.41583348e-03, 7.07916741e-04, 0., 0., 0.,
          0., 0., 1.41583348e-03, 0., 7.07916741e-04, 0., 0., 0., 0., 0.,
          0., 0., 0., 0., 0., 0., 0., 0., 0., 0., 0., 0., 0., 0., 0., 0.,
          0., 0., 0., 0., 0., 0., 0., 0., 0., 0., 0., 0., 0., 0., 0., 0.,
          0., 0., 0., 0., 0., 0., 0., 7.07916741e-04, 7.07916741e-04,
          1.48662515e-02, 7.07916741e-04, 9.20291804e-03, 0., 0., 0.,
          7.07916741e-04, 2.12375028e-03, 1.41583348e-03, 0., 0., 0., 0.,
          0., 7.07916741e-04, 0., 0., 0., 0., 0., 0., 0., 0., 0., 0., 0.,
          0., 0., 0., 0., 0., 0., 0., 0., 0., 0., 0., 0., 0., 0., 0., 0.,
          0., 0., 0., 0., 0., 0., 0., 0., 0., 0., 0., 0., 0., 0., 0., 0.,
          0., 0., 0., 0., 0., 5.66333393e-03, 4.17670906e-02,
          5.66333393e-03, 4.17670906e-02, 0., 0., 0., 1.41583348e-03,
          2.83166696e-03, 1.30964607e-01, 1.13266679e-02, 1.41583348e-03,
          0., 0., 0., 7.07916741e-04, 7.07916741e-04, 2.54850034e-02,
          9.91083495e-03, 7.07916741e-04, 0., 0., 0., 0., 0.,
          4.95541748e-03, 2.83166696e-03, 0., 0., 0., 0., 0., 0., 0., 0.,
          0., 0., 0., 0., 0., 0., 0., 0., 0., 0., 0., 0., 0., 0., 0., 0.,
          0., 0., 0., 0., 0., 0., 0., 0., 0., 0., 0., 0., 0., 0., 0., 0.,
          0., 0., 0., 0., 0., 0., 0., 0., 0., 0., 0., 0., 0., 0., 0., 0.,
          0., 0., 0., 0., 0., 0., 0., 0., 0., 0., 0., 0., 0., 0., 0., 0.,
          0., 0., 0., 0., 0., 0., 0., 0., 0., 0., 0., 0., 0., 0., 0., 0.,
          0., 0., 0., 0., 0., 0., 0., 0., 0., 0., 0., 0., 0., 0., 0., 0.,
          0., 0., 0., 0., 0., 0., 0., 0., 0., 0., 0., 0., 0., 0., 0., 0.,
          0., 0., 0., 0., 0., 0., 0., 0., 0., 0., 0., 0., 0., 0., 0., 0.,
          0., 0., 0., 0., 0., 0., 0., 0., 0., 0., 0., 0., 0., 0., 0., 0.,
          0., 0., 0., 0., 0., 0., 0., 0., 0. ]
      - [ 0., 0., 5.61871915e-04, 2.02273875e-02, 1.96655169e-02,
          3.42741869e-02, 7.30433455e-03, 1.91036444e-02, 0., 0.,
          5.61871915e-04, 2.80935951e-02, 1.23611819e-02, 1.40467975e-02,
          4.49497532e-03, 5.61871915e-04, 0., 0., 5.61871915e-04,
          1.85417719e-02, 1.57324132e-02, 3.93310329e-03, 5.61871915e-04,
          0., 0., 0., 0., 1.68561563e-03, 1.85417719e-02, 3.37123126e-03,
          0., 0., 0., 0., 0., 0., 0., 0., 0., 0., 0., 0., 0., 0., 0., 0.,
          0., 0., 0., 0., 0., 0., 0., 0., 0., 0., 0., 0., 0., 0., 0., 0.,
          0., 0., 0., 0., 5.61871915e-04, 4.49497532e-03, 1.01136938e-02,
          9.55182221e-03, 8.42807814e-03, 5.05684689e-03, 0., 0., 0.,
          1.12374383e-03, 5.61871915e-04, 0., 0., 0., 0., 0., 0., 0., 0.,
          0., 0., 0., 0., 0., 0., 0., 0., 0., 0., 0., 0., 0., 0., 0., 0.,
          0., 0., 0., 0., 0., 0., 0., 0., 0., 0., 0., 0., 0., 0., 0., 0.,
          0., 0., 0., 0., 0., 0., 0., 0., 0., 0., 0., 0., 0.,
          5.61871915e-04, 6.18059095e-03, 4.04547751e-02, 3.76454182e-02,
          1.74180288e-02, 3.93310329e-03, 0., 0., 0., 0., 5.05684689e-03,
          1.12374383e-03, 0., 0., 0., 0., 0., 0., 0., 0., 0., 0., 0., 0.,
          0., 0., 0., 0., 0., 0., 0., 0., 0., 0., 0., 0., 0., 0., 0., 0.,
          0., 0., 0., 0., 0., 0., 0., 0., 0., 0., 0., 0., 0., 0., 0., 0.,
          0., 0., 0., 0., 0., 0., 0., 0., 1.12374383e-03, 3.03410813e-02,
          1.04508169e-01, 3.70835438e-02, 1.12374378e-02, 1.40467975e-02,
          0., 0., 5.05684689e-03, 2.02273875e-02, 3.43865603e-01,
          4.98380363e-01, 1.29230535e-02, 0., 0., 0., 0., 2.24748766e-03,
          6.63008839e-02, 7.63022006e-01, 4.66353670e-02, 0., 0., 0., 0.,
          0., 3.93310329e-03, 9.88894552e-02, 1.34849250e-02, 0., 0., 0.,
          0., 0., 0., 0., 0., 0., 0., 0., 0., 0., 0., 0., 0., 0., 0., 0.,
          0., 0., 0., 0., 0., 0., 0., 0., 0., 0., 0., 0., 0., 0., 0., 0.,
          5.61871915e-04, 2.80935951e-02, 5.95584214e-02, 3.93310329e-03,
          6.18059095e-03, 6.18059095e-03, 0., 0., 0., 2.97792107e-02,
          7.75383189e-02, 1.12374378e-02, 5.61871915e-04, 0., 0., 0., 0.,
          0., 5.61871892e-03, 9.55182221e-03, 0., 0., 0., 0., 0., 0., 0.,
          0., 0., 0., 0., 0., 0., 0., 0., 0., 0., 0., 0., 0., 0., 0., 0.,
          0., 0., 0., 0., 0., 0., 0., 0., 0., 0., 0., 0., 0., 0., 0., 0.,
          0., 0., 0., 0., 0., 0., 7.30433455e-03, 1.40467975e-02,
          3.37123126e-03, 5.61871915e-04, 5.05684689e-03, 0., 0., 0.,
          1.17993094e-02, 1.29230535e-02, 5.05684689e-03, 0., 0., 0., 0.,
          0., 1.12374383e-03, 3.37123126e-03, 0., 0., 0., 0., 0., 0., 0.,
          0., 0., 0., 0., 0., 0., 0., 0., 0., 0., 0., 0., 0., 0., 0., 0.,
          0., 0., 0., 0., 0., 0., 0., 0., 0., 0., 0., 0., 0., 0., 0., 0.,
          0., 0., 0., 0., 0., 0., 0., 0., 0., 0., 0., 0., 0., 0., 0., 0.,
          0., 0., 0., 0., 0., 0., 0., 0., 0., 0., 0., 0., 0., 0., 0., 0.,
          0., 0., 0., 0., 0., 0., 0., 0., 0., 0., 0., 0., 0., 0., 0., 0.,
          0., 0., 0., 0., 0., 0., 0., 0., 0., 0., 0., 0., 0., 0., 0., 0.,
          0., 0., 0., 0., 0., 0., 0., 0., 0., 0., 0., 0., 0., 0., 0., 0.,
          0., 0., 0., 0., 0., 0., 0., 0., 0., 0., 0., 0., 0., 0., 0., 0.,
          0., 0., 0., 0., 0., 0., 0., 0., 0., 0., 0., 0., 0., 0., 0., 0.,
          0., 0., 0., 0., 0., 0., 0., 0., 0., 0., 0., 0., 0., 0., 0., 0.,
          0., 0., 0., 0. ]
      - [ 0., 0., 0., 1.31004155e-02, 8.10588226e-02, 1.05622098e-01,
          4.91265580e-03, 2.70196069e-02, 0., 0., 5.73143177e-03,
          3.93012464e-02, 2.80021369e-01, 3.30785483e-01, 5.73143177e-03,
          8.18775967e-04, 0., 0., 1.63755193e-03, 4.83077802e-02,
          1.29366606e-01, 1.01528220e-01, 1.39191914e-02, 0., 0., 0.,
          8.18775967e-04, 2.12881751e-02, 6.55020773e-02, 3.52073647e-02,
          4.91265580e-03, 0., 0., 0., 8.18775967e-04, 1.63755193e-03,
          9.82531160e-03, 1.71942953e-02, 6.55020773e-03, 0., 0., 0., 0.,
          0., 0., 3.27510387e-03, 3.27510387e-03, 0., 0., 0., 0., 0., 0.,
          0., 0., 0., 0., 0., 0., 0., 0., 0., 0., 0., 0., 0.,
          1.63755193e-03, 4.09387983e-03, 4.09387983e-03, 2.45632790e-02,
          8.18775967e-04, 9.82531160e-03, 0., 0., 0., 0., 0., 0., 0., 0.,
          0., 0., 0., 0., 0., 0., 0., 0., 0., 0., 0., 0., 0., 0., 0., 0.,
          0., 0., 0., 0., 0., 0., 0., 0., 0., 0., 0., 0., 0., 0., 0., 0.,
          0., 0., 0., 0., 0., 0., 0., 0., 0., 0., 0., 0., 0., 0., 0., 0.,
          0., 0., 0., 0., 1.63755193e-03, 1.63755193e-03, 3.27510387e-03,
          7.36898370e-03, 0., 0., 0., 0., 0., 8.18775967e-04, 0., 0., 0.,
          0., 0., 0., 0., 0., 0., 0., 0., 0., 0., 0., 0., 0., 0., 0., 0.,
          0., 0., 0., 0., 0., 0., 0., 0., 0., 0., 0., 0., 0., 0., 0., 0.,
          0., 0., 0., 0., 0., 0., 0., 0., 0., 0., 0., 0., 0., 0., 0., 0.,
          0., 0., 1.06440876e-02, 6.71396255e-02, 6.46833032e-02,
          2.12881751e-02, 9.82531160e-03, 0., 0., 0., 8.18775967e-04,
          3.93012464e-02, 1.88318472e-02, 0., 0., 0., 0., 0., 0., 0., 0.,
          0., 0., 0., 0., 0., 0., 0., 0., 0., 0., 0., 0., 0., 0., 0., 0.,
          0., 0., 0., 0., 0., 0., 0., 0., 0., 0., 0., 0., 0., 0., 0., 0.,
          0., 0., 0., 0., 0., 0., 0., 0., 0., 0., 0., 0., 8.18775967e-04,
          3.52073647e-02, 1.89956024e-01, 1.40010685e-01, 4.09387983e-03,
          3.27510387e-03, 0., 0., 0., 8.18775967e-03, 2.23525837e-01,
          4.99453321e-02, 0., 0., 0., 0., 0., 0., 2.45632790e-03, 0., 0.,
          0., 0., 0., 0., 0., 0., 0., 0., 0., 0., 0., 0., 0., 0., 0., 0.,
          0., 0., 0., 0., 0., 0., 0., 0., 0., 0., 0., 0., 0., 0., 0., 0.,
          0., 0., 0., 0., 0., 0., 0., 0., 0., 0., 0., 0., 2.12881751e-02,
          1.47379667e-01, 1.53111100e-01, 1.63755193e-03, 2.45632790e-03,
          0., 0., 0., 5.89518696e-02, 5.61680317e-01, 4.92084354e-01, 0.,
          0., 0., 0., 0., 3.43885906e-02, 1.42467022e-01, 7.77837187e-02,
          0., 0., 0., 0., 0., 0., 3.27510387e-03, 6.55020773e-03, 0., 0.,
          0., 0., 0., 0., 0., 0., 0., 0., 0., 0., 0., 0., 0., 0., 0., 0.,
          0., 0., 0., 0., 0., 0., 0., 0., 0., 0., 0., 0., 0., 0., 0., 0.,
          0., 0., 0., 0., 0., 0., 0., 0., 0., 0., 0., 0., 0., 0., 0., 0.,
          0., 0., 0., 0., 0., 0., 0., 0., 0., 0., 0., 0., 0., 0., 0., 0.,
          0., 0., 0., 0., 0., 0., 0., 0., 0., 0., 0., 0., 0., 0., 0., 0.,
          0., 0., 0., 0., 0., 0., 0., 0., 0., 0., 0., 0., 0., 0., 0., 0.,
          0., 0., 0., 0., 0., 0., 0., 0., 0., 0., 0., 0., 0., 0., 0., 0.,
          0., 0., 0., 0., 0., 0., 0., 0., 0., 0., 0., 0., 0., 0., 0., 0.,
          0., 0., 0., 0., 0., 0., 0., 0., 0., 0., 0., 0., 0., 0., 0., 0.,
          0., 0., 0., 0., 0., 0., 0., 0., 0., 0., 0., 0., 0., 0., 0., 0. ]
      - [ 0., 0., 1.54762517e-03, 6.19050069e-03, 4.95240055e-02,
          9.59527567e-02, 4.10120673e-02, 9.05360729e-02, 0., 0.,
          4.64287540e-03, 1.00595634e-02, 1.51667267e-01, 5.00656724e-01,
          3.71430032e-02, 5.41668804e-03, 0., 0., 2.32143770e-03,
          2.32143775e-02, 1.92679331e-01, 6.18276238e-01, 3.01786903e-02,
          3.09525034e-03, 0., 0., 1.54762517e-03, 1.23810014e-02,
          8.51193815e-02, 2.36786649e-01, 4.64287549e-02, 0., 0., 0., 0.,
          6.19050069e-03, 1.31548140e-02, 5.64883165e-02, 1.70238763e-02,
          0., 0., 0., 0., 0., 0., 1.54762517e-03, 3.09525034e-03, 0., 0.,
          0., 0., 0., 0., 0., 0., 0., 0., 0., 0., 0., 0., 0., 0., 0., 0.,
          0., 0., 7.73812586e-04, 1.93453133e-02, 1.93453133e-02,
          2.86310650e-02, 1.85715016e-02, 0., 0., 0., 0., 7.73812551e-03,
          0., 0., 0., 0., 0., 0., 0., 0., 0., 0., 0., 0., 0., 0., 0., 0.,
          0., 0., 0., 0., 0., 0., 0., 0., 0., 0., 0., 0., 0., 0., 0., 0.,
          0., 0., 0., 0., 0., 0., 0., 0., 0., 0., 0., 0., 0., 0., 0., 0.,
          0., 0., 0., 0., 0., 0., 3.09525034e-03, 1.16071887e-02,
          9.28575080e-03, 5.02978154e-02, 1.23810014e-02, 0., 0., 0., 0.,
          1.54762517e-03, 7.73812586e-04, 0., 0., 0., 0., 0., 0., 0., 0.,
          0., 0., 0., 0., 0., 0., 0., 0., 0., 0., 0., 0., 0., 0., 0., 0.,
          0., 0., 0., 0., 0., 0., 0., 0., 0., 0., 0., 0., 0., 0., 0., 0.,
          0., 0., 0., 0., 0., 0., 0., 0., 0., 0., 0., 0., 0.,
          9.28575080e-03, 3.86906266e-02, 3.01786903e-02, 4.79763784e-02,
          1.23810014e-02, 0., 0., 0., 7.73812586e-04, 1.54762517e-03,
          5.41668804e-03, 0., 0., 0., 0., 0., 0., 0., 0., 0., 0., 0., 0.,
          0., 0., 0., 0., 0., 0., 0., 0., 0., 0., 0., 0., 0., 0., 0., 0.,
          0., 0., 0., 0., 0., 0., 0., 0., 0., 0., 0., 0., 0., 0., 0., 0.,
          0., 0., 0., 0., 0., 0., 0., 0., 0., 8.51193815e-03,
          4.72025648e-02, 6.03573807e-02, 2.08929386e-02, 1.93453133e-02,
          0., 0., 7.73812586e-04, 6.19050069e-03, 2.08929386e-02,
          1.00595634e-02, 0., 0., 0., 0., 0., 0., 3.86906276e-03, 0., 0.,
          0., 0., 0., 0., 0., 0., 0., 0., 0., 0., 0., 0., 0., 0., 0., 0.,
          0., 0., 0., 0., 0., 0., 0., 0., 0., 0., 0., 0., 0., 0., 0., 0.,
          0., 0., 0., 0., 0., 0., 0., 0., 0., 0., 0., 0., 4.64287540e-03,
          3.86906266e-02, 1.27679080e-01, 2.16667522e-02, 2.70834398e-02,
          0., 0., 7.73812586e-04, 8.51193815e-03, 1.09107569e-01,
          3.48215669e-01, 2.32143770e-03, 0., 0., 0., 0., 6.96431287e-03,
          7.58336335e-02, 1.94226950e-01, 0., 0., 0., 0., 0., 0.,
          2.32143770e-03, 6.19050069e-03, 0., 0., 0., 0., 0., 0., 0., 0.,
          0., 0., 0., 0., 0., 0., 0., 0., 0., 0., 0., 0., 0., 0., 0., 0.,
          0., 0., 0., 0., 0., 0., 0., 0., 0., 0., 0., 0., 0., 0., 0., 0.,
          0., 0., 0., 0., 0., 0., 0., 0., 0., 0., 0., 0., 0., 0., 0., 0.,
          0., 0., 0., 0., 0., 0., 0., 0., 0., 0., 0., 0., 0., 0., 0., 0.,
          0., 0., 0., 0., 0., 0., 0., 0., 0., 0., 0., 0., 0., 0., 0., 0.,
          0., 0., 0., 0., 0., 0., 0., 0., 0., 0., 0., 0., 0., 0., 0., 0.,
          0., 0., 0., 0., 0., 0., 0., 0., 0., 0., 0., 0., 0., 0., 0., 0.,
          0., 0., 0., 0., 0., 0., 0., 0., 0., 0., 0., 0., 0., 0., 0., 0.,
          0., 0., 0., 0., 0., 0., 0., 0., 0., 0., 0., 0., 0., 0., 0., 0.,
          0., 0., 0., 0., 0., 0., 0., 0., 0., 0. ]
      - [ 0., 0., 0., 6.15613582e-03, 2.48297468e-01, 4.20669280e-02,
          1.23122716e-02, 2.46245433e-02, 0., 0., 1.02602260e-03,
          2.35985201e-02, 2.85234272e-01, 1.01576239e-01, 1.76475883e-01,
          2.97546554e-02, 0., 0., 1.02602260e-03, 3.89888585e-02,
          3.71420175e-01, 1.26200780e-01, 6.25873804e-02, 6.46394268e-02,
          0., 0., 0., 3.18066999e-02, 1.80579975e-01, 5.74572645e-02,
          1.84684079e-02, 0., 0., 0., 0., 6.15613582e-03, 1.16966575e-01,
          9.23420340e-02, 0., 0., 0., 0., 0., 0., 3.18066999e-02,
          2.25724969e-02, 1.02602260e-03, 0., 0., 0., 0., 0., 0., 0., 0.,
          0., 0., 0., 0., 0., 0., 0., 0., 0., 0., 0., 0., 1.02602260e-03,
          1.19018622e-01, 3.79628353e-02, 2.05204519e-03, 1.12862485e-02,
          0., 0., 1.02602260e-03, 1.02602260e-03, 0., 2.05204519e-03,
          4.10409039e-03, 2.05204519e-03, 0., 0., 0., 0., 0., 0., 0., 0.,
          0., 0., 0., 0., 0., 0., 0., 0., 0., 0., 0., 0., 0., 0., 0., 0.,
          0., 0., 0., 0., 0., 0., 0., 0., 0., 0., 0., 0., 0., 0., 0., 0.,
          0., 0., 0., 0., 0., 0., 0., 0., 0., 0., 0., 4.10409039e-03,
          9.43940803e-02, 1.49799302e-01, 0., 6.56654462e-02, 0., 0., 0.,
          0., 3.07806791e-03, 1.33382939e-02, 1.02602260e-03, 0., 0., 0.,
          0., 0., 1.02602260e-03, 0., 0., 0., 0., 0., 0., 0., 0., 0., 0.,
          0., 0., 0., 0., 0., 0., 0., 0., 0., 0., 0., 0., 0., 0., 0., 0.,
          0., 0., 0., 0., 0., 0., 0., 0., 0., 0., 0., 0., 0., 0., 0., 0.,
          0., 0., 0., 0., 8.20818078e-03, 1.33382946e-01, 3.29353273e-01,
          2.35985201e-02, 5.84832877e-02, 0., 0., 0., 7.18215806e-03,
          7.69516975e-02, 1.92892253e-01, 1.43643161e-02, 2.05204519e-03,
          0., 0., 0., 0., 5.13011310e-03, 1.02602260e-03, 0., 0., 0., 0.,
          0., 0., 0., 0., 0., 0., 0., 0., 0., 0., 0., 0., 0., 0., 0., 0.,
          0., 0., 0., 0., 0., 0., 0., 0., 0., 0., 0., 0., 0., 0., 0., 0.,
          0., 0., 0., 0., 0., 0., 0., 0., 1.02602260e-03, 1.12862485e-02,
          3.43717575e-01, 1.41591117e-01, 9.23420396e-03, 2.87286323e-02,
          0., 0., 0., 8.20818078e-03, 4.30929512e-02, 2.05204519e-03, 0.,
          1.02602260e-03, 0., 0., 0., 0., 1.02602260e-03, 0., 0., 0., 0.,
          0., 0., 0., 0., 0., 0., 0., 0., 0., 0., 0., 0., 0., 0., 0., 0.,
          0., 0., 0., 0., 0., 0., 0., 0., 0., 0., 0., 0., 0., 0., 0., 0.,
          0., 0., 0., 0., 0., 0., 0., 0., 0., 0., 1.33382939e-02,
          2.93442458e-01, 4.00148816e-02, 1.02602260e-03, 8.20818078e-03,
          0., 0., 2.05204519e-03, 8.20818078e-03, 3.49873722e-01,
          6.77174926e-02, 1.02602260e-03, 0., 0., 0., 0., 3.07806791e-03,
          6.97695389e-02, 2.05204524e-02, 0., 0., 0., 0., 0.,
          1.02602260e-03, 1.12862485e-02, 4.10409039e-03, 0., 0., 0., 0.,
          0., 0., 0., 0., 0., 0., 0., 0., 0., 0., 0., 0., 0., 0., 0., 0.,
          0., 0., 0., 0., 0., 0., 0., 0., 0., 0., 0., 0., 0., 0., 0., 0.,
          0., 0., 0., 0., 0., 0., 0., 0., 0., 0., 0., 0., 0., 0., 0., 0.,
          0., 0., 0., 0., 0., 0., 0., 0., 0., 0., 0., 0., 0., 0., 0., 0.,
          0., 0., 0., 0., 0., 0., 0., 0., 0., 0., 0., 0., 0., 0., 0., 0.,
          0., 0., 0., 0., 0., 0., 0., 0., 0., 0., 0., 0., 0., 0., 0., 0.,
          0., 0., 0., 0., 0., 0., 0., 0., 0., 0., 0., 0., 0., 0., 0., 0.,
          0., 0., 0., 0., 0., 0., 0., 0., 0., 0., 0., 0., 0., 0., 0., 0.,
          0., 0., 0., 0., 0., 0., 0., 0., 0., 0., 0., 0., 0., 0., 0., 0.,
          0., 0., 0., 0., 0., 0., 0., 0., 0., 0., 0., 0., 0., 0. ]
      - [ 0., 0., 0., 1.34826126e-03, 5.25821857e-02, 3.10100075e-02,
          9.43782832e-03, 7.41543667e-03, 0., 0., 0., 7.41543667e-03,
          9.16817635e-02, 3.43806595e-02, 1.21343508e-02, 0., 0., 0., 0.,
          2.02239188e-03, 4.31443602e-02, 4.51667495e-02, 2.69652233e-02,
          0., 0., 0., 0., 0., 4.71891416e-03, 2.15721801e-02,
          1.95497870e-02, 7.41543667e-03, 0., 0., 0., 0., 0.,
          1.34826126e-03, 1.21343508e-02, 1.61791351e-02, 0., 0., 0., 0.,
          0., 0., 6.74130628e-04, 2.89876163e-02, 0., 0., 0., 0., 0., 0.,
          0., 0., 0., 0., 0., 0., 0., 0., 0., 0., 0., 0., 0., 0.,
          2.02239174e-02, 1.95497870e-02, 1.34826126e-03, 0., 0., 0., 0.,
          0., 1.34826126e-03, 0., 0., 0., 0., 0., 0., 0., 0., 0., 0., 0.,
          0., 0., 0., 0., 0., 0., 0., 0., 0., 0., 0., 0., 0., 0., 0., 0.,
          0., 0., 0., 0., 0., 0., 0., 0., 0., 0., 0., 0., 0., 0., 0., 0.,
          0., 0., 0., 0., 0., 0., 0., 0., 0., 0., 0., 1.34826126e-03,
          1.61791351e-02, 6.80871904e-02, 3.77513133e-02, 4.98856641e-02,
          0., 0., 0., 0., 8.76369793e-03, 1.41567430e-02, 4.04478377e-03,
          6.74130628e-04, 0., 0., 0., 0., 6.74130628e-04, 0., 0., 0., 0.,
          0., 0., 0., 0., 0., 0., 0., 0., 0., 0., 0., 0., 0., 0., 0., 0.,
          0., 0., 0., 0., 0., 0., 0., 0., 0., 0., 0., 0., 0., 0., 0., 0.,
          0., 0., 0., 0., 0., 0., 0., 0., 0., 6.74130628e-04,
          6.06717542e-03, 1.57746553e-01, 4.05152500e-01, 2.42687017e-02,
          3.84254456e-02, 0., 0., 0., 1.28084812e-02, 1.61117211e-01,
          8.15023899e-01, 7.75250196e-02, 7.41543667e-03, 0., 0., 0., 0.,
          9.43782832e-03, 1.46960467e-01, 3.10100075e-02, 0., 0., 0., 0.,
          0., 0., 0., 0., 0., 0., 0., 0., 0., 0., 0., 0., 0., 0., 0., 0.,
          0., 0., 0., 0., 0., 0., 0., 0., 0., 0., 0., 0., 0., 0., 0., 0.,
          0., 0., 0., 0., 0., 0., 0., 6.74130628e-04, 6.74130581e-03,
          1.28758952e-01, 1.23365901e-01, 4.71891416e-03, 1.07860900e-02,
          0., 0., 0., 1.28084812e-02, 9.30300206e-02, 3.23582701e-02, 0.,
          0., 0., 0., 0., 1.34826126e-03, 3.37065291e-03, 6.06717542e-03,
          0., 0., 0., 0., 0., 0., 0., 0., 0., 0., 0., 0., 0., 0., 0., 0.,
          0., 0., 0., 0., 0., 0., 0., 0., 0., 0., 0., 0., 0., 0., 0., 0.,
          0., 0., 0., 0., 0., 0., 0., 0., 0., 0., 0., 0., 2.02239188e-03,
          2.69652251e-03, 7.28061050e-02, 2.08980478e-02, 3.37065291e-03,
          6.06717542e-03, 0., 0., 6.74130628e-04, 1.82015263e-02,
          1.03816114e-01, 9.43782832e-03, 0., 0., 0., 0., 0.,
          6.74130628e-04, 2.22463105e-02, 1.34826126e-03, 0., 0., 0., 0.,
          0., 0., 0., 0., 0., 0., 0., 0., 0., 0., 0., 0., 0., 0., 0., 0.,
          0., 0., 0., 0., 0., 0., 0., 0., 0., 0., 0., 0., 0., 0., 0., 0.,
          0., 0., 0., 0., 0., 0., 0., 0., 0., 0., 0., 0., 0., 0., 0., 0.,
          0., 0., 0., 0., 0., 0., 0., 0., 0., 0., 0., 0., 0., 0., 0., 0.,
          0., 0., 0., 0., 0., 0., 0., 0., 0., 0., 0., 0., 0., 0., 0., 0.,
          0., 0., 0., 0., 0., 0., 0., 0., 0., 0., 0., 0., 0., 0., 0., 0.,
          0., 0., 0., 0., 0., 0., 0., 0., 0., 0., 0., 0., 0., 0., 0., 0.,
          0., 0., 0., 0., 0., 0., 0., 0., 0., 0., 0., 0., 0., 0., 0., 0.,
          0., 0., 0., 0., 0., 0., 0., 0., 0., 0., 0., 0., 0., 0., 0., 0.,
          0., 0., 0., 0., 0., 0., 0., 0., 0., 0., 0., 0., 0., 0., 0., 0.,
          0., 0., 0., 0., 0., 0. ]
      - [ 0., 0., 1.77060219e-03, 3.89532484e-02, 1.19515650e-01,
          2.21325271e-02, 1.32795162e-02, 2.03619245e-02, 0., 0., 0.,
          5.75445704e-02, 1.13318540e-01, 2.39031296e-02, 3.01002376e-02,
          0., 0., 0., 0., 2.39031296e-02, 6.37416765e-02, 3.09855379e-02,
          1.15089146e-02, 0., 0., 0., 0., 0., 2.56737322e-02,
          3.27561423e-02, 2.65590334e-03, 0., 0., 0., 0., 0.,
          2.65590334e-03, 9.73831210e-03, 0., 0., 0., 0., 0., 0., 0., 0.,
          0., 0., 0., 0., 0., 0., 0., 0., 0., 0., 0., 0., 0., 0., 0., 0.,
          0., 0., 0., 0., 8.85301095e-04, 8.85301083e-03, 7.34799877e-02,
          2.30178293e-02, 3.45267430e-02, 4.42650542e-03, 0., 0., 0., 0.,
          3.54120438e-03, 7.08240876e-03, 8.85301095e-04, 0., 0., 0., 0.,
          0., 0., 0., 0., 0., 0., 0., 0., 0., 0., 0., 0., 0., 0., 0., 0.,
          0., 0., 0., 0., 0., 0., 0., 0., 0., 0., 0., 0., 0., 0., 0., 0.,
          0., 0., 0., 0., 0., 0., 0., 0., 0., 0., 0., 0., 0., 0., 0., 0.,
          7.96770956e-03, 1.23942152e-01, 3.01002376e-02, 3.62973437e-02,
          5.48886694e-02, 0., 0., 0., 2.65590334e-03, 2.21325271e-02,
          2.74443347e-02, 4.69209589e-02, 8.85301083e-03, 0., 0., 0., 0.,
          0., 8.85301095e-04, 0., 0., 0., 0., 0., 0., 0., 0., 0., 0., 0.,
          0., 0., 0., 0., 0., 0., 0., 0., 0., 0., 0., 0., 0., 0., 0., 0.,
          0., 0., 0., 0., 0., 0., 0., 0., 0., 0., 0., 0., 0., 0., 0., 0.,
          0., 1.77060219e-03, 4.86915596e-02, 4.90456820e-01,
          4.25829828e-01, 6.10857755e-02, 9.82684195e-02, 0., 0.,
          8.85301095e-04, 4.07238491e-02, 3.16937804e-01, 5.11704028e-01,
          7.70211965e-02, 5.31180669e-03, 0., 0., 0., 2.65590334e-03,
          3.71826477e-02, 1.45189375e-01, 2.92149354e-02, 0., 0., 0., 0.,
          0., 0., 3.54120438e-03, 1.06236134e-02, 0., 0., 0., 0., 0., 0.,
          0., 0., 0., 0., 0., 0., 0., 0., 0., 0., 0., 0., 0., 0., 0., 0.,
          0., 0., 0., 0., 0., 0., 0., 0., 0., 0., 0., 0., 0.,
          8.85301095e-04, 4.51503545e-02, 2.36375391e-01, 8.14476982e-02,
          7.96770956e-03, 1.06236134e-02, 0., 0., 0., 4.16091532e-02,
          8.94154087e-02, 2.83296350e-02, 0., 0., 0., 0., 0.,
          8.85301095e-04, 0., 0., 0., 0., 0., 0., 0., 0., 0., 0., 0., 0.,
          0., 0., 0., 0., 0., 0., 0., 0., 0., 0., 0., 0., 0., 0., 0., 0.,
          0., 0., 0., 0., 0., 0., 0., 0., 0., 0., 0., 0., 0., 0., 0., 0.,
          0., 0., 0., 2.92149354e-02, 9.73831192e-02, 4.42650542e-03,
          3.54120438e-03, 3.54120438e-03, 0., 0., 0., 6.02004752e-02,
          6.81681857e-02, 1.77060219e-03, 0., 0., 0., 0., 0.,
          6.19710749e-03, 3.62973437e-02, 1.32795162e-02, 0., 0., 0., 0.,
          0., 0., 0., 8.85301095e-04, 0., 0., 0., 0., 0., 0., 0., 0., 0.,
          0., 0., 0., 0., 0., 0., 0., 0., 0., 0., 0., 0., 0., 0., 0., 0.,
          0., 0., 0., 0., 0., 0., 0., 0., 0., 0., 0., 0., 0., 0., 0., 0.,
          0., 0., 0., 0., 0., 0., 0., 0., 0., 0., 0., 0., 0., 0., 0., 0.,
          0., 0., 0., 0., 0., 0., 0., 0., 0., 0., 0., 0., 0., 0., 0., 0.,
          0., 0., 0., 0., 0., 0., 0., 0., 0., 0., 0., 0., 0., 0., 0., 0.,
          0., 0., 0., 0., 0., 0., 0., 0., 0., 0., 0., 0., 0., 0., 0., 0.,
          0., 0., 0., 0., 0., 0., 0., 0., 0., 0., 0., 0., 0., 0., 0., 0.,
          0., 0., 0., 0., 0., 0., 0., 0., 0., 0., 0., 0., 0., 0., 0., 0.,
          0., 0., 0., 0., 0., 0., 0., 0., 0., 0., 0., 0., 0., 0., 0., 0.,
          0., 0., 0., 0., 0., 0., 0., 0., 0. ]
      - [ 0., 0., 2.41172197e-03, 9.72727910e-02, 4.31698233e-01,
          1.18174382e-01, 5.38617931e-02, 7.95868263e-02, 0., 0.,
          3.21562937e-03, 1.26213461e-01, 1.69624448e-01, 5.38617931e-02,
          2.33133137e-02, 0., 0., 0., 1.60781469e-03, 1.36664249e-02,
          8.28024596e-02, 5.38617931e-02, 8.84298049e-03, 0., 0., 0., 0.,
          0., 2.33133137e-02, 4.82344395e-03, 1.60781469e-03, 0., 0., 0.,
          0., 0., 4.01953654e-03, 5.62735135e-03, 8.03907309e-03, 0., 0.,
          0., 0., 0., 0., 3.21562937e-03, 0., 0., 0., 0., 0., 0., 0., 0.,
          0., 0., 0., 0., 0., 0., 0., 0., 0., 0., 0., 0., 1.60781469e-03,
          2.25094054e-02, 9.24493447e-02, 3.13523859e-02, 2.25094054e-02,
          2.17054989e-02, 0., 0., 0., 0., 3.21562937e-03, 0., 0., 0., 0.,
          0., 0., 0., 0., 0., 0., 0., 0., 0., 0., 0., 0., 0., 0., 0., 0.,
          0., 0., 0., 0., 0., 0., 0., 0., 0., 0., 0., 0., 0., 0., 0., 0.,
          0., 0., 0., 0., 0., 0., 0., 0., 0., 0., 0., 0., 0., 0., 0., 0.,
          0., 8.03907344e-04, 5.62735135e-03, 8.52141827e-02,
          2.81367581e-02, 1.36664249e-02, 8.03907309e-03, 0., 0., 0., 0.,
          4.01953654e-03, 8.03907344e-04, 0., 0., 0., 0., 0., 0., 0., 0.,
          0., 0., 0., 0., 0., 0., 0., 0., 0., 0., 0., 0., 0., 0., 0., 0.,
          0., 0., 0., 0., 0., 0., 0., 0., 0., 0., 0., 0., 0., 0., 0., 0.,
          0., 0., 0., 0., 0., 0., 0., 0., 0., 0., 0., 0., 2.41172197e-03,
          9.64688789e-03, 1.55958027e-01, 5.70774227e-02, 4.01953654e-03,
          5.62735135e-03, 0., 0., 0., 4.82344395e-03, 3.77836451e-02,
          1.84898693e-02, 0., 0., 0., 0., 0., 0., 0., 1.52742397e-02,
          8.03907344e-04, 0., 0., 0., 0., 0., 0., 0., 0., 0., 0., 0., 0.,
          0., 0., 0., 0., 0., 0., 0., 0., 0., 0., 0., 0., 0., 0., 0., 0.,
          0., 0., 0., 0., 0., 0., 0., 0., 0., 0., 0., 0., 0., 0., 0.,
          1.60781469e-03, 9.40571576e-02, 6.11773491e-01, 2.17054989e-02,
          8.84298049e-03, 1.76859610e-02, 0., 0., 1.60781469e-03,
          2.33133137e-02, 1.46311134e-01, 5.62735135e-03, 0., 0., 0., 0.,
          0., 0., 0., 7.23516615e-03, 1.60781469e-03, 0., 0., 0., 0., 0.,
          0., 0., 0., 0., 0., 0., 0., 0., 0., 0., 0., 0., 0., 0., 0., 0.,
          0., 0., 0., 0., 0., 0., 0., 0., 0., 0., 0., 0., 0., 0., 0., 0.,
          0., 0., 0., 0., 0., 0., 0., 1.06919676e-01, 4.38129514e-01,
          5.54696061e-02, 8.03907309e-03, 2.17054989e-02, 0., 0.,
          2.41172197e-03, 9.88806039e-02, 2.23486245e-01, 1.36664249e-02,
          0., 0., 0., 0., 0., 0., 4.82344395e-03, 0., 0., 0., 0., 0., 0.,
          0., 0., 0., 0., 0., 0., 0., 0., 0., 0., 0., 0., 0., 0., 0., 0.,
          0., 0., 0., 0., 0., 0., 0., 0., 0., 0., 0., 0., 0., 0., 0., 0.,
          0., 0., 0., 0., 0., 0., 0., 0., 0., 0., 0., 0., 0., 0., 0., 0.,
          0., 0., 0., 0., 0., 0., 0., 0., 0., 0., 0., 0., 0., 0., 0., 0.,
          0., 0., 0., 0., 0., 0., 0., 0., 0., 0., 0., 0., 0., 0., 0., 0.,
          0., 0., 0., 0., 0., 0., 0., 0., 0., 0., 0., 0., 0., 0., 0., 0.,
          0., 0., 0., 0., 0., 0., 0., 0., 0., 0., 0., 0., 0., 0., 0., 0.,
          0., 0., 0., 0., 0., 0., 0., 0., 0., 0., 0., 0., 0., 0., 0., 0.,
          0., 0., 0., 0., 0., 0., 0., 0., 0., 0., 0., 0., 0., 0., 0., 0.,
          0., 0., 0., 0., 0., 0., 0., 0., 0., 0., 0., 0., 0., 0., 0., 0.,
          0., 0., 0., 0., 0. ]
      - [ 0., 0., 0., 1.09071881e-02, 3.93870696e-02, 1.57548282e-02,
          1.99965108e-02, 4.24168445e-03, 0., 0., 0., 1.33310081e-02,
          5.09002097e-02, 5.33240326e-02, 2.84798797e-02, 3.02977441e-03,
          0., 0., 0., 6.05954905e-04, 2.18143761e-02, 4.96883020e-02,
          2.48441510e-02, 9.08932369e-03, 0., 0., 0., 0., 0.,
          2.18143761e-02, 3.09036989e-02, 1.93905570e-02, 0., 0., 0., 0.,
          0., 1.81786472e-03, 6.66550407e-03, 1.93905570e-02, 0., 0., 0.,
          0., 0., 0., 0., 9.69527848e-03, 0., 0., 0., 0., 0., 0., 0., 0.,
          0., 0., 0., 0., 0., 0., 0., 0., 0., 0., 0., 2.42381962e-03,
          1.33310081e-02, 1.93905570e-02, 3.69632505e-02, 2.42381962e-03,
          0., 0., 0., 0., 0., 0., 1.21190981e-03, 0., 0., 0., 0., 0., 0.,
          0., 0., 0., 0., 0., 0., 0., 0., 0., 0., 0., 0., 0., 0., 0., 0.,
          0., 0., 0., 0., 0., 0., 0., 0., 0., 0., 0., 0., 0., 0., 0., 0.,
          0., 0., 0., 0., 0., 0., 0., 0., 0., 0., 0., 0., 0., 0.,
          3.02977441e-03, 1.99965108e-02, 6.54431283e-02, 3.57513390e-02,
          2.54501048e-02, 0., 0., 0., 0., 1.21190981e-03, 4.84763924e-03,
          0., 0., 0., 0., 0., 0., 0., 0., 0., 0., 0., 0., 0., 0., 0., 0.,
          0., 0., 0., 0., 0., 0., 0., 0., 0., 0., 0., 0., 0., 0., 0., 0.,
          0., 0., 0., 0., 0., 0., 0., 0., 0., 0., 0., 0., 0., 0., 0., 0.,
          0., 0., 0., 0., 0., 2.72679701e-02, 1.48458943e-01,
          1.98753208e-01, 2.66620163e-02, 5.57478517e-02, 0., 0., 0.,
          3.63572943e-03, 1.78756699e-01, 8.93177509e-01, 2.12084219e-01,
          2.42381962e-03, 0., 0., 0., 0., 4.84763924e-03, 9.45289657e-02,
          9.63468254e-02, 0., 0., 0., 0., 0., 0., 0., 0., 0., 0., 0., 0.,
          0., 0., 0., 0., 0., 0., 0., 0., 0., 0., 0., 0., 0., 0., 0., 0.,
          0., 0., 0., 0., 0., 0., 0., 0., 0., 0., 0., 0., 0., 0., 0.,
          1.81786472e-03, 5.02942577e-02, 8.90753716e-02, 1.93905570e-02,
          2.42381962e-03, 1.15131428e-02, 0., 0., 0., 3.39334756e-02,
          4.60525714e-02, 1.33310081e-02, 0., 0., 0., 0., 0., 0., 0.,
          1.21190981e-03, 0., 0., 0., 0., 0., 0., 0., 0., 0., 0., 0., 0.,
          0., 0., 0., 0., 0., 0., 0., 0., 0., 0., 0., 0., 0., 0., 0., 0.,
          0., 0., 0., 0., 0., 0., 0., 0., 0., 0., 0., 0., 0., 0., 0., 0.,
          0., 1.45429177e-02, 4.78704385e-02, 1.09071881e-02,
          1.81786472e-03, 1.21190981e-03, 0., 0., 0., 1.81786474e-02,
          1.45429177e-02, 0., 0., 0., 0., 0., 0., 4.24168445e-03, 0., 0.,
          0., 0., 0., 0., 0., 0., 0., 0., 0., 0., 0., 0., 0., 0., 0., 0.,
          0., 0., 0., 0., 0., 0., 0., 0., 0., 0., 0., 0., 0., 0., 0., 0.,
          0., 0., 0., 0., 0., 0., 0., 0., 0., 0., 0., 0., 0., 0., 0., 0.,
          0., 0., 0., 0., 0., 0., 0., 0., 0., 0., 0., 0., 0., 0., 0., 0.,
          0., 0., 0., 0., 0., 0., 0., 0., 0., 0., 0., 0., 0., 0., 0., 0.,
          0., 0., 0., 0., 0., 0., 0., 0., 0., 0., 0., 0., 0., 0., 0., 0.,
          0., 0., 0., 0., 0., 0., 0., 0., 0., 0., 0., 0., 0., 0., 0., 0.,
          0., 0., 0., 0., 0., 0., 0., 0., 0., 0., 0., 0., 0., 0., 0., 0.,
          0., 0., 0., 0., 0., 0., 0., 0., 0., 0., 0., 0., 0., 0., 0., 0.,
          0., 0., 0., 0., 0., 0., 0., 0., 0., 0., 0., 0., 0., 0., 0., 0.,
          0., 0., 0., 0., 0., 0., 0., 0., 0., 0. ]
      - [ 0., 0., 0., 1.08912028e-02, 9.21563283e-02, 1.88501582e-01,
          5.78071550e-02, 7.70762041e-02, 0., 0., 0., 2.09446214e-02,
          1.25667721e-01, 2.57199943e-01, 3.09980381e-02, 1.75934806e-02,
          0., 0., 0., 1.42423417e-02, 1.70908108e-01, 9.96963978e-02,
          3.35113928e-02, 4.18892410e-03, 0., 0., 0., 1.67556969e-03,
          6.19960763e-02, 4.77537364e-02, 1.67556964e-02, 8.37784843e-04,
          0., 0., 0., 0., 5.02670882e-03, 2.09446214e-02, 0., 0., 0., 0.,
          0., 0., 8.37784843e-04, 6.70227874e-03, 0., 0., 0., 0., 0., 0.,
