%YAML:1.0
---
opencv_ml_svm:
   format: 3
   svmType: C_SVC
   kernel:
      type: RBF
      gamma: 5.
   C: 5.
   term_criteria: { epsilon:1.1920928955078125e-07, iterations:1000 }
   var_count: 514
   class_count: 2
   class_labels: !!opencv-matrix
      rows: 2
      cols: 1
      dt: i
      data: [ 0, 1 ]
   sv_total: 412
   support_vectors:
      - [ 0., 0., 0., 1.08550219e-02, 4.88475971e-02, 4.52292571e-03,
          7.23668141e-03, 3.16604786e-02, 0., 0., 5.42751094e-03,
          3.70879918e-02, 1.35687768e-01, 6.06072061e-02, 9.95043665e-03,
          8.14126618e-03, 0., 0., 1.80917035e-03, 2.26146281e-02,
          1.32974014e-01, 3.12986463e-01, 0., 0., 0., 0., 4.52292571e-03,
          4.52292571e-03, 7.68897384e-02, 4.82143879e-01, 1.17596071e-02,
          0., 0., 0., 9.04585177e-04, 9.04585177e-04, 3.25650647e-02,
          2.65948027e-01, 7.23668141e-03, 0., 0., 0., 0., 0.,
          6.33209618e-03, 9.95043665e-03, 0., 0., 0., 0., 0., 0., 0., 0.,
          0., 0., 0., 0., 0., 0., 0., 0., 0., 0., 0., 0., 0.,
          3.61834071e-03, 6.33209618e-03, 1.80917035e-03, 9.04585177e-04,
          7.23668141e-03, 0., 0., 0., 2.71375547e-03, 5.42751094e-03,
          9.04585177e-04, 0., 0., 0., 0., 0., 0., 9.04585177e-04, 0., 0.,
          0., 0., 0., 0., 0., 0., 0., 0., 0., 0., 0., 0., 0., 0., 0., 0.,
          0., 0., 0., 0., 0., 0., 0., 0., 0., 0., 0., 0., 0., 0., 0., 0.,
          0., 0., 0., 0., 0., 0., 0., 0., 0., 0., 0., 0., 9.04585177e-04,
          3.61834071e-03, 0., 0., 6.33209618e-03, 0., 0., 0., 0.,
          9.04585177e-04, 0., 0., 0., 0., 0., 0., 0., 3.61834071e-03, 0.,
          9.04585142e-03, 0., 0., 0., 0., 0., 0., 0., 3.61834071e-03, 0.,
          0., 0., 0., 0., 0., 0., 0., 0., 0., 0., 0., 0., 0., 0., 0., 0.,
          0., 0., 0., 0., 0., 0., 0., 0., 0., 0., 0., 0., 0., 0., 0., 0.,
          0., 0., 0., 1.26641924e-02, 7.41759837e-02, 3.43742371e-02,
          1.62825324e-02, 0., 0., 0., 0., 8.14126618e-03, 2.08054587e-01,
          3.39219421e-01, 8.41264203e-02, 2.71375547e-03, 0., 0., 0.,
          9.04585177e-04, 8.05080757e-02, 4.28773373e-01, 2.42428824e-01,
          2.35192142e-02, 0., 0., 0., 0., 1.80917035e-03, 6.42255470e-02,
          2.53283847e-02, 2.71375547e-03, 0., 0., 0., 0., 0., 0., 0., 0.,
          0., 0., 0., 0., 0., 0., 0., 0., 0., 0., 0., 0., 0., 0., 0., 0.,
          0., 0., 0., 0., 0., 0., 0., 0., 0., 0., 3.61834071e-03,
          2.71375552e-02, 9.76951942e-02, 2.35192142e-02, 0., 0., 0., 0.,
          1.80917035e-03, 2.53283847e-02, 1.17596067e-01, 9.04585142e-03,
          0., 0., 0., 0., 0., 0., 1.80917035e-03, 4.52292571e-03, 0., 0.,
          0., 0., 0., 0., 0., 0., 0., 0., 0., 0., 0., 0., 0., 0., 0., 0.,
          0., 0., 0., 0., 0., 0., 0., 0., 0., 0., 0., 0., 0., 0., 0., 0.,
          0., 0., 0., 0., 0., 0., 0., 0., 0., 0., 0., 1.35687776e-02,
          7.14622289e-02, 1.26641924e-02, 9.04585177e-04, 2.71375547e-03,
          0., 0., 3.61834071e-03, 1.80917028e-02, 1.80917025e-01,
          7.32713938e-02, 1.80917035e-03, 0., 0., 0., 0., 4.52292571e-03,
          1.78203270e-01, 1.27546504e-01, 0., 0., 0., 0., 0.,
          2.71375547e-03, 3.43742371e-02, 1.17596071e-02, 0., 0., 0., 0.,
          0., 0., 0., 3.61834071e-03, 0., 0., 0., 0., 0., 0., 0., 0., 0.,
          0., 0., 0., 0., 0., 0., 0., 0., 0., 0., 0., 0., 0., 0., 0., 0.,
          0., 0., 0., 0., 0., 0., 0., 0., 0., 0., 0., 0., 0., 0., 0., 0.,
          0., 0., 0., 0., 0., 0., 0., 0., 0., 0., 0., 0., 0., 0., 0., 0.,
          0., 0., 0., 0., 0., 0., 0., 0., 0., 0., 0., 0., 0., 0., 0., 0.,
          0., 0., 0., 0., 0., 0., 0., 0., 0., 0., 0., 0., 0., 0., 0., 0.,
          0., 0., 0., 0., 0., 0., 0., 0., 0., 0., 0., 0., 0., 0., 0., 0.,
          0., 0., 0., 0., 0., 0., 0., 0., 0., 0., 0., 0., 0., 0., 0., 0.,
          0., 0., 0., 0., 0., 0., 0., 0., 0., 0., 0., 0., 0., 0., 0., 0.,
          0., 0., 0., 0., 0., 0., 0., 0., 0., 0., 0., 0., 0., 0., 0., 0.,
          0., 4.66666669e-01, 6.03921592e-01 ]
      - [ 0., 0., 0., 5.23140561e-03, 1.03756212e-01, 6.97520748e-02,
          9.59090982e-03, 6.10330654e-03, 0., 0., 0., 8.71900935e-04,
          5.75454608e-02, 1.29913241e-01, 1.56942159e-02, 1.74380187e-03,
          0., 0., 0., 0., 6.10330654e-03, 2.79008299e-02, 9.59090982e-03,
          0., 0., 0., 0., 0., 0., 3.48760374e-03, 4.35950467e-03, 0., 0.,
          0., 0., 0., 0., 0., 0., 0., 0., 0., 0., 0., 0., 0., 0., 0., 0.,
          0., 0., 0., 0., 0., 0., 0., 0., 0., 0., 0., 0., 0., 0., 0., 0.,
          0., 0., 8.71900935e-04, 3.31322365e-02, 6.10330626e-02,
          1.13347117e-02, 2.61570280e-03, 0., 0., 0., 0., 4.35950467e-03,
          8.71900935e-03, 2.52851266e-02, 7.84710795e-03, 0., 0., 0., 0.,
          0., 0., 0., 0., 0., 0., 0., 0., 0., 0., 0., 0., 0., 0., 0., 0.,
          0., 0., 0., 0., 0., 0., 0., 0., 0., 0., 0., 0., 0., 0., 0., 0.,
          0., 0., 0., 0., 0., 0., 0., 0., 0., 0., 0., 0., 0., 0., 0.,
          4.35950467e-03, 3.66198383e-02, 6.71363696e-02, 3.48760374e-02,
          8.80619958e-02, 0., 0., 0., 8.71900935e-04, 1.83099192e-02,
          5.14421538e-02, 5.31859547e-02, 5.49297594e-02, 0., 0., 0., 0.,
          4.35950467e-03, 1.04628112e-02, 9.59090982e-03, 7.84710795e-03,
          0., 0., 0., 0., 0., 0., 0., 0., 0., 0., 0., 0., 0., 0., 0., 0.,
          0., 0., 0., 0., 0., 0., 0., 0., 0., 0., 0., 0., 0., 0., 0., 0.,
          0., 0., 0., 0., 0., 0., 0., 0., 0., 0., 1.74380187e-03,
          1.74380187e-03, 1.09859519e-01, 1.73508286e-01, 2.59826481e-01,
          7.06239715e-02, 0., 0., 0., 3.48760374e-03, 1.22938029e-01,
          4.40309972e-01, 5.37962854e-01, 4.88264523e-02, 0., 0., 0.,
          1.74380187e-03, 8.71900935e-03, 1.15090922e-01, 4.62107480e-01,
          8.37024897e-02, 0., 0., 0., 0., 0., 7.84710795e-03,
          1.11603320e-01, 1.65661182e-02, 0., 0., 0., 0., 0., 0., 0., 0.,
          0., 0., 0., 0., 0., 0., 0., 0., 0., 0., 0., 0., 0., 0., 0., 0.,
          0., 0., 0., 0., 0., 0., 0., 0., 0., 0., 0., 1.13347117e-02,
          1.54326469e-01, 1.61301672e-01, 2.35413257e-02, 2.61570280e-03,
          0., 0., 0., 6.97520748e-03, 5.31859547e-02, 6.88801706e-02,
          2.61570280e-03, 0., 0., 0., 0., 0., 0., 2.61570280e-03, 0., 0.,
          0., 0., 0., 0., 0., 0., 0., 0., 0., 0., 0., 0., 0., 0., 0., 0.,
          0., 0., 0., 0., 0., 0., 0., 0., 0., 0., 0., 0., 0., 0., 0., 0.,
          0., 0., 0., 0., 0., 0., 0., 0., 0., 0., 0., 2.61570280e-03,
          9.06776935e-02, 5.05702533e-02, 6.97520748e-03, 2.61570280e-03,
          0., 0., 0., 1.74380187e-03, 2.79008299e-02, 3.48760374e-02,
          8.71900935e-04, 0., 0., 0., 0., 0., 0., 0., 0., 0., 0., 0., 0.,
          0., 0., 0., 0., 0., 0., 0., 0., 0., 0., 0., 0., 0., 0., 0., 0.,
          0., 0., 0., 0., 0., 0., 0., 0., 0., 0., 0., 0., 0., 0., 0., 0.,
          0., 0., 0., 0., 0., 0., 0., 0., 0., 0., 0., 0., 0., 0., 0., 0.,
          0., 0., 0., 0., 0., 0., 0., 0., 0., 0., 0., 0., 0., 0., 0., 0.,
          0., 0., 0., 0., 0., 0., 0., 0., 0., 0., 0., 0., 0., 0., 0., 0.,
          0., 0., 0., 0., 0., 0., 0., 0., 0., 0., 0., 0., 0., 0., 0., 0.,
          0., 0., 0., 0., 0., 0., 0., 0., 0., 0., 0., 0., 0., 0., 0., 0.,
          0., 0., 0., 0., 0., 0., 0., 0., 0., 0., 0., 0., 0., 0., 0., 0.,
          0., 0., 0., 0., 0., 0., 0., 0., 0., 0., 0., 0., 0., 0., 0., 0.,
          0., 0., 0., 0., 0., 0., 0., 0., 0., 0., 0., 0., 0., 0., 0., 0.,
          0., 0., 0., 0., 0., 4.86274511e-01, 7.56862760e-01 ]
      - [ 0., 0., 2.31793034e-03, 9.27172154e-02, 1.95478797e-01,
          3.24510261e-02, 3.47689539e-02, 3.39963101e-02, 0., 0.,
          1.15896519e-02, 6.25841171e-02, 1.22850306e-01, 2.78151631e-02,
          2.93604508e-02, 7.72643462e-03, 0., 0., 6.18114742e-03,
          2.24066600e-02, 2.39519458e-02, 1.93160865e-02, 1.93160865e-02,
          3.86321731e-03, 0., 0., 7.72643462e-03, 1.54528685e-03,
          9.27172136e-03, 1.31349387e-02, 1.08170081e-02, 1.00443652e-02,
          0., 0., 0., 0., 0., 7.72643427e-04, 1.54528685e-03, 0., 0., 0.,
          0., 0., 0., 0., 0., 0., 0., 0., 0., 0., 0., 0., 0., 0., 0., 0.,
          0., 0., 0., 0., 0., 0., 0., 0., 0., 1.00443652e-02,
          1.12805940e-01, 1.54528692e-02, 2.00887304e-02, 0., 0., 0., 0.,
          0., 1.54528685e-03, 6.18114742e-03, 7.72643462e-03, 0., 0., 0.,
          0., 0., 0., 0., 0., 0., 0., 0., 0., 0., 0., 0., 0., 0., 0., 0.,
          0., 0., 0., 0., 0., 0., 0., 0., 0., 0., 0., 0., 0., 0., 0., 0.,
          0., 0., 0., 0., 0., 0., 0., 0., 0., 0., 0., 0., 0., 0., 0., 0.,
          0., 1.69981550e-02, 1.69981554e-01, 1.85434427e-02,
          1.08170081e-02, 6.18114742e-03, 0., 0., 0., 0., 3.09057371e-03,
          0., 0., 0., 0., 0., 0., 0., 0., 0., 0., 0., 0., 0., 0., 0., 0.,
          0., 0., 0., 0., 0., 0., 0., 0., 0., 0., 0., 0., 0., 0., 0., 0.,
          0., 0., 0., 0., 0., 0., 0., 0., 0., 0., 0., 0., 0., 0., 0., 0.,
          0., 0., 0., 0., 0., 0., 3.78595293e-02, 5.40850401e-01,
          4.69767213e-01, 2.78151631e-02, 1.39075816e-02, 0., 0., 0., 0.,
          2.37974182e-01, 4.46587920e-01, 2.39519458e-02, 2.31793034e-03,
          0., 0., 0., 0., 1.08170081e-02, 2.31793034e-03, 0., 0., 0., 0.,
          0., 0., 0., 0., 0., 0., 0., 0., 0., 0., 0., 0., 0., 0., 0., 0.,
          0., 0., 0., 0., 0., 0., 0., 0., 0., 0., 0., 0., 0., 0., 0., 0.,
          0., 0., 0., 0., 0., 0., 0., 0., 0., 8.88539925e-02,
          2.75833696e-01, 5.71756139e-02, 1.54528692e-02, 4.63586068e-03,
          0., 0., 0., 1.00443652e-02, 5.02218232e-02, 8.49907752e-03, 0.,
          0., 0., 0., 0., 0., 0., 0., 0., 0., 0., 0., 0., 0., 0., 0., 0.,
          0., 0., 0., 0., 0., 0., 0., 0., 0., 0., 0., 0., 0., 0., 0., 0.,
          0., 0., 0., 0., 0., 0., 0., 0., 0., 0., 0., 0., 0., 0., 0., 0.,
          0., 0., 0., 0., 6.87652677e-02, 1.22077666e-01, 1.00443652e-02,
          3.09057371e-03, 1.54528685e-03, 0., 0., 0., 2.16340162e-02,
          1.93160865e-02, 1.54528685e-03, 0., 0., 0., 0., 0., 0.,
          9.27172136e-03, 7.72643427e-04, 0., 0., 0., 0., 0., 0., 0., 0.,
          0., 0., 0., 0., 0., 0., 0., 0., 0., 0., 0., 0., 0., 0., 0., 0.,
          0., 0., 0., 0., 0., 0., 0., 0., 0., 0., 0., 0., 0., 0., 0., 0.,
          0., 0., 0., 0., 0., 0., 0., 0., 0., 0., 0., 0., 0., 0., 0., 0.,
          0., 0., 0., 0., 0., 0., 0., 0., 0., 0., 0., 0., 0., 0., 0., 0.,
          0., 0., 0., 0., 0., 0., 0., 0., 0., 0., 0., 0., 0., 0., 0., 0.,
          0., 0., 0., 0., 0., 0., 0., 0., 0., 0., 0., 0., 0., 0., 0., 0.,
          0., 0., 0., 0., 0., 0., 0., 0., 0., 0., 0., 0., 0., 0., 0., 0.,
          0., 0., 0., 0., 0., 0., 0., 0., 0., 0., 0., 0., 0., 0., 0., 0.,
          0., 0., 0., 0., 0., 0., 0., 0., 0., 0., 0., 0., 0., 0., 0., 0.,
          0., 0., 0., 0., 0., 0., 0., 0., 0., 0., 0., 0., 0., 0., 0., 0.,
          0., 0., 6.23529434e-01, 5.33333361e-01 ]
      - [ 0., 0., 0., 8.65437265e-04, 7.18312934e-02, 2.85594296e-02,
          3.54829282e-02, 9.77944136e-02, 0., 0., 0., 1.12506850e-02,
          1.29815593e-01, 1.25488400e-01, 7.26967305e-02, 1.38469962e-02,
          0., 0., 8.65437265e-04, 9.51980986e-03, 2.63958365e-01,
          5.14069736e-01, 4.24064286e-02, 1.12506850e-02, 0., 0., 0.,
          3.54829282e-02, 2.47515067e-01, 5.48687220e-01, 4.15409915e-02,
          0., 0., 0., 0., 6.05806103e-03, 2.46649623e-01, 2.13763013e-01,
          5.97151741e-02, 0., 0., 0., 0., 0., 3.72138023e-02,
          3.54829282e-02, 8.65437277e-03, 0., 0., 0., 0., 0., 0., 0., 0.,
          0., 0., 0., 0., 0., 0., 0., 0., 0., 0., 0., 0., 1.73087453e-03,
          1.99050568e-02, 1.90396197e-02, 5.53879850e-02, 1.38469962e-02,
          0., 0., 0., 1.73087453e-03, 9.51980986e-03, 4.32718638e-03,
          2.59631183e-02, 3.46174906e-03, 0., 0., 0., 0., 0.,
          4.32718638e-03, 0., 0., 0., 0., 0., 0., 0., 0., 0., 0., 0., 0.,
          0., 0., 0., 0., 0., 0., 0., 0., 0., 0., 0., 0., 0., 0., 0., 0.,
          0., 0., 0., 0., 0., 0., 0., 0., 0., 0., 0., 0., 0., 0., 0., 0.,
          0., 0., 3.11557427e-02, 1.12506850e-02, 3.80792394e-02,
          1.47124343e-02, 0., 0., 0., 0., 7.78893568e-03, 1.21161221e-02,
          0., 0., 0., 0., 0., 0., 0., 0., 0., 0., 0., 0., 0., 0., 0., 0.,
          0., 0., 0., 0., 0., 0., 0., 0., 0., 0., 0., 0., 0., 0., 0., 0.,
          0., 0., 0., 0., 0., 0., 0., 0., 0., 0., 0., 0., 0., 0., 0., 0.,
          0., 0., 0., 0., 0., 2.59631197e-03, 6.83695450e-02,
          3.28866169e-02, 6.05806103e-03, 1.12506850e-02, 0., 0., 0.,
          2.59631197e-03, 1.47124343e-02, 2.31071755e-01, 3.46174906e-03,
          0., 0., 0., 0., 0., 8.65437265e-04, 2.76939925e-02,
          4.41373028e-02, 0., 0., 0., 0., 0., 0., 0., 0., 0., 0., 0., 0.,
          0., 0., 0., 0., 0., 0., 0., 0., 0., 0., 0., 0., 0., 0., 0., 0.,
          0., 0., 0., 0., 0., 0., 0., 0., 0., 0., 0., 0., 0., 0., 0., 0.,
          4.32718638e-03, 9.43326652e-02, 1.64433084e-02, 2.59631197e-03,
          1.64433084e-02, 0., 0., 0., 4.32718638e-03, 1.21161221e-02,
          8.65437265e-04, 0., 0., 0., 0., 0., 0., 8.65437265e-04,
          6.92349812e-03, 0., 0., 0., 0., 0., 0., 3.46174906e-03,
          3.46174906e-03, 0., 0., 0., 0., 0., 0., 0., 0., 0., 0., 0., 0.,
          0., 0., 0., 0., 0., 0., 0., 0., 0., 0., 0., 0., 0., 0., 0., 0.,
          0., 0., 0., 0., 0., 0., 0., 0., 0., 8.65437265e-04,
          1.01256162e-01, 9.51980986e-03, 1.21161221e-02, 1.47124343e-02,
          0., 0., 0., 6.92349812e-03, 1.61836773e-01, 4.24064286e-02,
          2.59631197e-03, 0., 0., 0., 0., 6.05806103e-03, 1.05583347e-01,
          3.37520540e-02, 0., 0., 0., 0., 0., 8.65437265e-04,
          4.32718638e-03, 1.73087453e-03, 0., 0., 0., 0., 0., 0., 0., 0.,
          0., 0., 0., 0., 0., 0., 0., 0., 0., 0., 0., 0., 0., 0., 0., 0.,
          0., 0., 0., 0., 0., 0., 0., 0., 0., 0., 0., 0., 0., 0., 0., 0.,
          0., 0., 0., 0., 0., 0., 0., 0., 0., 0., 0., 0., 0., 0., 0., 0.,
          0., 0., 0., 0., 0., 0., 0., 0., 0., 0., 0., 0., 0., 0., 0., 0.,
          0., 0., 0., 0., 0., 0., 0., 0., 0., 0., 0., 0., 0., 0., 0., 0.,
          0., 0., 0., 0., 0., 0., 0., 0., 0., 0., 0., 0., 0., 0., 0., 0.,
          0., 0., 0., 0., 0., 0., 0., 0., 0., 0., 0., 0., 0., 0., 0., 0.,
          0., 0., 0., 0., 0., 0., 0., 0., 0., 0., 0., 0., 0., 0., 0., 0.,
          0., 0., 0., 0., 0., 0., 0., 0., 0., 0., 0., 0., 0., 0., 0., 0.,
          0., 0., 0., 0., 0., 0., 0., 0., 0., 0., 4.35294122e-01,
          6.86274529e-01 ]
      - [ 0., 0., 0., 6.59847690e-04, 2.44143642e-02, 4.68491875e-02,
          6.59847725e-03, 1.51764974e-02, 0., 0., 6.59847690e-04,
          5.93862915e-03, 1.03596091e-01, 1.51764974e-01, 9.89771541e-03,
          5.93862915e-03, 0., 0., 0., 1.12174107e-02, 2.26987615e-01,
          7.38369584e-01, 1.64961927e-02, 0., 0., 0., 7.91817252e-03,
          7.91817252e-03, 3.35862488e-01, 2.92972386e-01, 1.31969545e-02,
          1.31969538e-03, 0., 0., 6.59847690e-04, 1.97954313e-03,
          1.32629395e-01, 6.73044622e-02, 1.18772583e-02, 0., 0., 0., 0.,
          1.31969538e-03, 6.59847725e-03, 1.25371059e-02, 0., 0., 0., 0.,
          0., 6.59847690e-04, 0., 0., 0., 0., 0., 0., 0., 0., 0., 0., 0.,
          0., 0., 0., 0., 2.63939076e-03, 3.95908626e-03, 8.57802015e-03,
          1.31969538e-03, 5.27878152e-03, 0., 0., 0., 6.59847690e-04, 0.,
          2.63939076e-03, 6.59847690e-04, 1.31969538e-03, 0., 0.,
          6.59847690e-04, 6.59847690e-04, 0., 0., 0., 0., 0., 0., 0., 0.,
          0., 0., 0., 0., 0., 0., 0., 0., 0., 0., 0., 0., 0., 0., 0., 0.,
          0., 0., 0., 0., 0., 0., 0., 0., 0., 0., 0., 0., 0., 0., 0., 0.,
          0., 0., 0., 0., 0., 0., 0., 0., 3.29923863e-03, 2.57340595e-02,
          2.63939076e-03, 8.57802015e-03, 0., 0., 0., 0., 3.29923863e-03,
          5.93862915e-03, 6.59847690e-04, 0., 0., 0., 0., 0., 0., 0., 0.,
          0., 0., 0., 0., 0., 0., 0., 0., 0., 0., 0., 0., 0., 0., 0., 0.,
          0., 0., 0., 0., 0., 0., 0., 0., 0., 0., 0., 0., 0., 0., 0., 0.,
          0., 0., 0., 0., 0., 0., 0., 0., 0., 0., 0., 0., 0.,
          1.97954313e-03, 1.38568021e-02, 0., 1.31969538e-03, 0., 0., 0.,
          0., 0., 2.63939076e-03, 0., 0., 0., 0., 0., 0., 0., 0., 0., 0.,
          0., 0., 0., 0., 0., 0., 0., 0., 0., 0., 0., 0., 0., 0., 0., 0.,
          0., 0., 0., 0., 0., 0., 0., 0., 0., 0., 0., 0., 0., 0., 0., 0.,
          0., 0., 0., 0., 0., 0., 0., 0., 0., 0., 0., 0., 2.77136043e-02,
          1.51764974e-02, 0., 6.59847690e-04, 0., 0., 0., 0.,
          2.70537566e-02, 2.50742119e-02, 1.31969538e-03, 0., 0., 0., 0.,
          0., 2.63939076e-03, 0., 0., 0., 0., 0., 0., 0., 0., 0., 0., 0.,
          0., 0., 0., 0., 0., 0., 0., 0., 0., 0., 0., 0., 0., 0., 0., 0.,
          0., 0., 0., 0., 0., 0., 0., 0., 0., 0., 0., 0., 0., 0., 0., 0.,
          0., 0., 0., 0., 2.24348214e-02, 1.58363450e-02, 0.,
          1.97954313e-03, 0., 0., 0., 0., 1.46486193e-01, 2.66578466e-01,
          1.31969538e-03, 6.59847690e-04, 0., 0., 0., 4.61893389e-03,
          1.50445282e-01, 1.51764974e-01, 0., 0., 0., 0., 0.,
          1.97954313e-03, 4.15704064e-02, 1.64961927e-02, 0., 0., 0., 0.,
          0., 0., 0., 0., 0., 0., 0., 0., 0., 0., 0., 0., 0., 0., 0., 0.,
          0., 0., 0., 0., 0., 0., 0., 0., 0., 0., 0., 0., 0., 0., 0., 0.,
          0., 0., 0., 0., 0., 0., 0., 0., 0., 0., 0., 0., 0., 0., 0., 0.,
          0., 0., 0., 0., 0., 0., 0., 0., 0., 0., 0., 0., 0., 0., 0., 0.,
          0., 0., 0., 0., 0., 0., 0., 0., 0., 0., 0., 0., 0., 0., 0., 0.,
          0., 0., 0., 0., 0., 0., 0., 0., 0., 0., 0., 0., 0., 0., 0., 0.,
          0., 0., 0., 0., 0., 0., 0., 0., 0., 0., 0., 0., 0., 0., 0., 0.,
          0., 0., 0., 0., 0., 0., 0., 0., 0., 0., 0., 0., 0., 0., 0., 0.,
          0., 0., 0., 0., 0., 0., 0., 0., 0., 0., 0., 0., 0., 0., 0., 0.,
          0., 0., 0., 0., 0., 0., 0., 0., 0., 0., 0., 0., 0., 0.,
          3.49019617e-01, 7.49019623e-01 ]
      - [ 0., 0., 1.70382729e-03, 6.81530917e-03, 7.07088336e-02,
          9.28585902e-02, 2.72612367e-02, 8.94509330e-02, 0.,
          8.51913646e-04, 1.70382729e-03, 2.30016690e-02, 2.59833664e-01,
          5.29038370e-01, 5.36705591e-02, 1.78901870e-02, 0., 0.,
          2.55574100e-03, 4.08918560e-02, 2.32572421e-01, 5.79301298e-01,
          1.56752110e-01, 6.81530917e-03, 0., 0., 3.40765459e-03,
          4.68552522e-02, 1.94236308e-01, 2.89650649e-01, 9.45624188e-02,
          8.51913646e-04, 0., 0., 8.51913646e-04, 8.51913635e-03,
          2.72612367e-02, 9.28585902e-02, 3.83361131e-02, 1.70382729e-03,
          0., 0., 0., 3.40765459e-03, 1.70382729e-03, 1.53344460e-02,
          1.78901870e-02, 0., 0., 0., 0., 8.51913646e-04, 0.,
          8.51913646e-04, 5.96339582e-03, 0., 0., 0., 0., 0., 0., 0., 0.,
          0., 0., 0., 0., 0., 1.53344460e-02, 1.36306183e-02,
          2.72612367e-02, 2.12978423e-02, 0., 0., 0., 0., 8.51913646e-04,
          4.25956817e-03, 5.96339582e-03, 8.51913646e-04, 0., 0., 0., 0.,
          0., 0., 0., 0., 0., 0., 0., 0., 0., 0., 0., 0., 0., 0., 0., 0.,
          0., 0., 0., 0., 0., 0., 0., 0., 0., 0., 0., 0., 0., 0., 0., 0.,
          0., 0., 0., 0., 0., 0., 0., 0., 0., 0., 0., 0., 0., 0., 0., 0.,
          9.37105063e-03, 2.72612367e-02, 4.68552522e-02, 4.77071665e-02,
          0., 0., 0., 0., 1.70382729e-03, 7.66722299e-03, 4.25956817e-03,
          8.51913635e-03, 0., 0., 0., 0., 0., 0., 0., 0., 0., 0., 0., 0.,
          0., 0., 0., 0., 0., 0., 0., 0., 0., 0., 0., 0., 0., 0., 0., 0.,
          0., 0., 0., 0., 0., 0., 0., 0., 0., 0., 0., 0., 0., 0., 0., 0.,
          0., 0., 0., 0., 0., 0., 0., 8.51913646e-04, 1.02229640e-02,
          2.30016690e-02, 2.81131510e-02, 3.66322882e-02, 0., 0., 0.,
          3.40765459e-03, 3.40765459e-03, 5.11148199e-03, 6.81530917e-03,
          1.78901870e-02, 0., 0., 0., 8.51913646e-04, 8.51913646e-04, 0.,
          0., 0., 0., 0., 0., 0., 0., 0., 0., 0., 0., 0., 0., 0., 0., 0.,
          0., 0., 0., 0., 0., 0., 0., 0., 0., 0., 0., 0., 0., 0., 0., 0.,
          0., 0., 0., 0., 0., 0., 0., 0., 0., 0., 0., 0., 0.,
          4.25956817e-03, 2.72612367e-02, 2.30016690e-02, 8.51913635e-03,
          3.40765454e-02, 0., 0., 3.40765459e-03, 4.25956817e-03,
          2.30016690e-02, 5.96339582e-03, 0., 0., 0., 0., 0.,
          3.40765459e-03, 0., 0., 0., 0., 0., 0., 0., 0., 0., 0., 0., 0.,
          0., 0., 0., 0., 0., 0., 0., 0., 0., 0., 0., 0., 0., 0., 0., 0.,
          0., 0., 0., 0., 0., 0., 0., 0., 0., 0., 0., 0., 0., 0., 0., 0.,
          0., 0., 0., 8.51913635e-03, 4.51514237e-02, 7.75241405e-02,
          1.10748773e-02, 4.94109914e-02, 0., 0., 0., 1.53344460e-02,
          9.71181542e-02, 1.58455938e-01, 5.96339582e-03, 0., 0., 0.,
          2.55574100e-03, 1.27787050e-02, 4.60033379e-02, 6.90050051e-02,
          1.36306183e-02, 0., 0., 0., 0., 8.51913646e-04, 2.55574100e-03,
          2.55574100e-03, 0., 0., 0., 0., 0., 0., 0., 0., 0., 0., 0., 0.,
          0., 0., 0., 0., 0., 0., 0., 0., 0., 0., 0., 0., 0., 0., 0., 0.,
          0., 0., 0., 0., 0., 0., 0., 0., 0., 0., 0., 0., 0., 0., 0., 0.,
          0., 0., 0., 0., 0., 0., 0., 0., 0., 0., 0., 0., 0., 0., 0., 0.,
          0., 0., 0., 0., 0., 0., 0., 0., 0., 0., 0., 0., 0., 0., 0., 0.,
          0., 0., 0., 0., 0., 0., 0., 0., 0., 0., 0., 0., 0., 0., 0., 0.,
          0., 0., 0., 0., 0., 0., 0., 0., 0., 0., 0., 0., 0., 0., 0., 0.,
          0., 0., 0., 0., 0., 0., 0., 0., 0., 0., 0., 0., 0., 0., 0., 0.,
          0., 0., 0., 0., 0., 0., 0., 0., 0., 0., 0., 0., 0., 0., 0., 0.,
          0., 0., 0., 0., 0., 0., 0., 0., 0., 0., 0., 0., 0., 0., 0., 0.,
          0., 0., 0., 0., 0., 0., 1.76470593e-01, 8.62745106e-01 ]
      - [ 0., 0., 7.01806392e-04, 9.82528925e-03, 6.94788322e-02,
          5.89517355e-02, 3.15812863e-02, 2.87740622e-02, 0., 0.,
          1.40361278e-03, 1.26325153e-02, 1.10183604e-01, 6.59698024e-02,
          3.64939310e-02, 0., 0., 0., 7.01806392e-04, 5.61445113e-03,
          6.17589615e-02, 3.85993496e-02, 1.33343218e-02, 8.42167623e-03,
          0., 0., 0., 0., 7.01806368e-03, 2.10541915e-02, 9.82528925e-03,
          9.82528925e-03, 0., 0., 0., 0., 0., 1.05270958e-02,
          4.21083812e-03, 7.01806368e-03, 0., 0., 0., 0., 0.,
          4.21083812e-03, 7.71987019e-03, 4.21083812e-03, 0., 0., 0., 0.,
          0., 0., 1.40361278e-03, 2.80722557e-03, 0., 0., 0., 0., 0., 0.,
          0., 0., 0., 0., 0., 2.80722557e-03, 1.89487729e-02,
          2.80722547e-02, 3.15812863e-02, 7.01806392e-04, 0., 0., 0.,
          7.01806392e-04, 7.01806392e-04, 4.21083812e-03, 8.42167623e-03,
          0., 0., 0., 0., 0., 0., 0., 0., 0., 0., 0., 0., 0., 0., 0., 0.,
          0., 0., 0., 0., 0., 0., 0., 0., 0., 0., 0., 0., 0., 0., 0., 0.,
          0., 0., 0., 0., 0., 0., 0., 0., 0., 0., 0., 0., 0., 0., 0., 0.,
          0., 0., 0., 0., 1.40361278e-03, 2.94758677e-02, 3.93011570e-02,
          4.91264462e-03, 3.85993496e-02, 0., 0., 0., 2.10541906e-03,
          7.01806392e-04, 5.61445113e-03, 0., 0., 0., 0., 0., 0., 0., 0.,
          0., 0., 0., 0., 0., 0., 0., 0., 0., 0., 0., 0., 0., 0., 0., 0.,
          0., 0., 0., 0., 0., 0., 0., 0., 0., 0., 0., 0., 0., 0., 0., 0.,
          0., 0., 0., 0., 0., 0., 0., 0., 0., 0., 0., 0., 0.,
          1.61415469e-02, 1.15798056e-01, 5.92324615e-01, 9.82528925e-03,
          3.78975458e-02, 0., 0., 0., 2.24578045e-02, 2.11945534e-01,
          6.68821514e-01, 1.82469655e-02, 2.10541915e-02, 0., 0., 0., 0.,
          5.05300611e-02, 2.47035846e-01, 2.94758677e-02, 0., 0., 0., 0.,
          0., 6.31625764e-03, 5.61445113e-03, 0., 0., 0., 0., 0., 0., 0.,
          0., 0., 0., 0., 0., 0., 0., 0., 0., 0., 0., 0., 0., 0., 0., 0.,
          0., 0., 0., 0., 0., 0., 0., 0., 0., 0., 0., 0., 0., 0.,
          3.22830938e-02, 1.16499864e-01, 4.63192202e-02, 2.10541906e-03,
          4.21083812e-03, 0., 0., 0., 1.68433525e-02, 3.29849012e-02,
          9.12348274e-03, 0., 0., 0., 0., 0., 0., 0., 0., 0., 0., 0., 0.,
          0., 0., 0., 0., 0., 0., 0., 0., 0., 0., 0., 0., 0., 0., 0., 0.,
          0., 0., 0., 0., 0., 0., 0., 0., 0., 0., 0., 0., 0., 0., 0., 0.,
          0., 0., 0., 0., 0., 0., 0., 0., 0., 1.47379339e-02,
          7.01806396e-02, 1.47379339e-02, 2.10541906e-03, 9.82528925e-03,
          0., 0., 0., 3.85993496e-02, 9.82528925e-02, 7.71987019e-03, 0.,
          0., 0., 0., 0., 0., 5.61445113e-03, 7.01806392e-04, 0., 0., 0.,
          0., 0., 0., 0., 0., 0., 0., 0., 0., 0., 0., 0., 0., 0., 0., 0.,
          0., 0., 0., 0., 0., 0., 0., 0., 0., 0., 0., 0., 0., 0., 0., 0.,
          0., 0., 0., 0., 0., 0., 0., 0., 0., 0., 0., 0., 0., 0., 0., 0.,
          0., 0., 0., 0., 0., 0., 0., 0., 0., 0., 0., 0., 0., 0., 0., 0.,
          0., 0., 0., 0., 0., 0., 0., 0., 0., 0., 0., 0., 0., 0., 0., 0.,
          0., 0., 0., 0., 0., 0., 0., 0., 0., 0., 0., 0., 0., 0., 0., 0.,
          0., 0., 0., 0., 0., 0., 0., 0., 0., 0., 0., 0., 0., 0., 0., 0.,
          0., 0., 0., 0., 0., 0., 0., 0., 0., 0., 0., 0., 0., 0., 0., 0.,
          0., 0., 0., 0., 0., 0., 0., 0., 0., 0., 0., 0., 0., 0., 0., 0.,
          0., 0., 0., 0., 0., 0., 0., 0., 0., 0., 0., 0., 0., 0., 0., 0.,
          0., 0., 0., 0., 0., 0., 0., 6.23529434e-01, 5.56862772e-01 ]
      - [ 0., 0., 8.32653604e-04, 3.33061442e-03, 5.99510595e-02,
          4.24653329e-02, 1.41551113e-02, 6.57796338e-02, 0., 0.,
          8.32653604e-04, 1.33224577e-02, 1.79020524e-01, 2.78938949e-01,
          1.37387842e-01, 3.49714495e-02, 0., 0., 8.32653604e-04,
          1.58204176e-02, 2.83934891e-01, 5.59543192e-01, 8.90939385e-02,
          2.99755298e-02, 0., 0., 0., 7.49388244e-03, 3.02253246e-01,
          4.86269712e-01, 1.83183793e-02, 2.49796081e-03, 0., 0., 0.,
          8.32653604e-04, 1.70693994e-01, 1.62367448e-01, 9.99184325e-03,
          0., 0., 0., 0., 0., 3.99673730e-02, 5.16245216e-02,
          1.66530721e-03, 0., 0., 0., 0., 0., 0., 8.32653604e-04, 0., 0.,
          0., 0., 0., 0., 0., 0., 0., 0., 0., 0., 0., 4.16326802e-03,
          3.33061442e-02, 1.33224577e-02, 4.16326802e-03, 1.08244969e-02,
          0., 0., 0., 8.32653604e-04, 3.33061442e-03, 1.66530721e-03,
          1.66530721e-03, 0., 0., 0., 0., 0., 0., 0., 0., 0., 0., 0., 0.,
          0., 0., 0., 0., 0., 0., 0., 0., 0., 0., 0., 0., 0., 0., 0., 0.,
          0., 0., 0., 0., 0., 0., 0., 0., 0., 0., 0., 0., 0., 0., 0., 0.,
          0., 0., 0., 0., 0., 0., 0., 0., 1.66530721e-03, 2.74775680e-02,
          1.99836865e-02, 8.32653604e-04, 4.99592163e-03, 0., 0., 0., 0.,
          6.66122884e-03, 1.24898041e-02, 0., 0., 0., 0., 0., 0., 0., 0.,
          0., 0., 0., 0., 0., 0., 0., 0., 0., 0., 0., 0., 0., 0., 0., 0.,
          0., 0., 0., 0., 0., 0., 0., 0., 0., 0., 0., 0., 0., 0., 0., 0.,
          0., 0., 0., 0., 0., 0., 0., 0., 0., 0., 0., 0., 0.,
          8.32653604e-04, 5.24571761e-02, 9.99184325e-02, 4.16326802e-03,
          8.32653604e-03, 0., 0., 0., 8.32653604e-04, 1.16571505e-02,
          1.36555195e-01, 0., 0., 0., 0., 0., 0., 8.32653604e-04, 0., 0.,
          0., 0., 0., 0., 0., 0., 0., 0., 0., 0., 0., 0., 0., 0., 0., 0.,
          0., 0., 0., 0., 0., 0., 0., 0., 0., 0., 0., 0., 0., 0., 0., 0.,
          0., 0., 0., 0., 0., 0., 0., 0., 0., 0., 0., 0., 2.49796081e-03,
          7.07755536e-02, 4.16326784e-02, 4.99592163e-03, 1.58204176e-02,
          0., 0., 0., 2.49796081e-03, 1.41551113e-02, 7.49388244e-03, 0.,
          0., 0., 0., 0., 0., 8.32653604e-04, 0., 0., 0., 0., 0., 0., 0.,
          0., 0., 0., 0., 0., 0., 0., 0., 0., 0., 0., 0., 0., 0., 0., 0.,
          0., 0., 0., 0., 0., 0., 0., 0., 0., 0., 0., 0., 0., 0., 0., 0.,
          0., 0., 0., 0., 0., 0., 0., 5.82857523e-03, 4.24653329e-02,
          3.83020639e-02, 3.33061442e-03, 3.16408351e-02, 0., 0.,
          8.32653604e-04, 4.99592163e-03, 1.28228649e-01, 5.82857504e-02,
          3.33061442e-03, 8.32653604e-04, 0., 0., 0., 2.49796081e-03,
          5.49551360e-02, 6.66122884e-03, 0., 0., 0., 0., 0., 0.,
          7.49388244e-03, 1.66530721e-03, 0., 0., 0., 0., 0., 0., 0., 0.,
          0., 0., 0., 0., 0., 0., 0., 0., 0., 0., 0., 0., 0., 0., 0., 0.,
          0., 0., 0., 0., 0., 0., 0., 0., 0., 0., 0., 0., 0., 0., 0., 0.,
          0., 0., 0., 0., 0., 0., 0., 0., 0., 0., 0., 0., 0., 0., 0., 0.,
          0., 0., 0., 0., 0., 0., 0., 0., 0., 0., 0., 0., 0., 0., 0., 0.,
          0., 0., 0., 0., 0., 0., 0., 0., 0., 0., 0., 0., 0., 0., 0., 0.,
          0., 0., 0., 0., 0., 0., 0., 0., 0., 0., 0., 0., 0., 0., 0., 0.,
          0., 0., 0., 0., 0., 0., 0., 0., 0., 0., 0., 0., 0., 0., 0., 0.,
          0., 0., 0., 0., 0., 0., 0., 0., 0., 0., 0., 0., 0., 0., 0., 0.,
          0., 0., 0., 0., 0., 0., 0., 0., 0., 0., 0., 0., 0., 0., 0., 0.,
          0., 0., 0., 0., 0., 0., 0., 0., 0., 0., 5.37254930e-01,
          6.00000024e-01 ]
      - [ 0., 0., 8.92242067e-04, 4.90733124e-02, 2.05215678e-01,
          2.94439886e-02, 3.03362291e-02, 4.46121022e-02, 0., 0.,
          8.92242067e-04, 6.24569431e-02, 3.32806289e-01, 1.47219941e-01,
          1.42758731e-02, 0., 0., 0., 0., 4.37198617e-02, 2.24844992e-01,
          1.03500076e-01, 2.14138087e-02, 0., 0., 0., 0., 2.94439886e-02,
          1.10638015e-01, 5.44267669e-02, 2.14138087e-02, 0., 0., 0., 0.,
          8.92242067e-04, 4.01508920e-02, 2.67672613e-02, 5.35345217e-03,
          0., 0., 0., 0., 0., 0., 8.92242067e-04, 0., 0., 0., 0., 0., 0.,
          0., 0., 0., 0., 0., 0., 0., 0., 0., 0., 0., 0., 0., 0.,
          8.92242067e-04, 1.07069043e-02, 3.65819260e-02, 1.07069043e-02,
          2.67672613e-02, 1.51681146e-02, 0., 0., 0., 8.92242067e-04, 0.,
          1.78448413e-03, 1.78448413e-03, 0., 0., 0., 0., 0., 0., 0., 0.,
          0., 0., 0., 0., 0., 0., 0., 0., 0., 0., 0., 0., 0., 0., 0., 0.,
          0., 0., 0., 0., 0., 0., 0., 0., 0., 0., 0., 0., 0., 0., 0., 0.,
          0., 0., 0., 0., 0., 0., 0., 0., 0., 0., 0., 0., 8.03017896e-03,
          3.56896818e-02, 2.31982935e-02, 8.92242044e-02, 2.14138087e-02,
          0., 0., 0., 2.67672609e-03, 3.56896827e-03, 1.24913892e-02,
          1.24913892e-02, 0., 0., 0., 0., 0., 0., 0., 0., 0., 0., 0., 0.,
          0., 0., 0., 0., 0., 0., 0., 0., 0., 0., 0., 0., 0., 0., 0., 0.,
          0., 0., 0., 0., 0., 0., 0., 0., 0., 0., 0., 0., 0., 0., 0., 0.,
          0., 0., 0., 0., 0., 0., 0., 0., 1.96293257e-02, 1.65064782e-01,
          7.31638521e-02, 3.47974412e-02, 2.05215681e-02, 0., 0., 0.,
          2.67672609e-03, 2.58750189e-02, 4.55043465e-02, 5.35345217e-03,
          0., 0., 0., 0., 0., 0., 0., 0., 0., 0., 0., 0., 0., 0., 0., 0.,
          0., 0., 0., 0., 0., 0., 0., 0., 0., 0., 0., 0., 0., 0., 0., 0.,
          0., 0., 0., 0., 0., 0., 0., 0., 0., 0., 0., 0., 0., 0., 0., 0.,
          0., 0., 0., 0., 6.78103939e-02, 4.22030479e-01, 5.88879772e-02,
          9.81466286e-03, 3.03362291e-02, 0., 0., 1.78448413e-03,
          5.97802177e-02, 8.38707536e-02, 3.12284715e-02, 3.56896827e-03,
          0., 0., 0., 0., 4.46121022e-03, 4.46121022e-03, 0., 0., 0., 0.,
          0., 0., 0., 0., 0., 0., 0., 0., 0., 0., 0., 0., 0., 0., 0., 0.,
          0., 0., 0., 0., 0., 0., 0., 0., 0., 0., 0., 0., 0., 0., 0., 0.,
          0., 0., 0., 0., 0., 0., 0., 0., 0., 0., 4.99655567e-02,
          3.89909774e-01, 9.81466286e-03, 5.35345217e-03, 1.07069043e-02,
          0., 0., 2.67672609e-03, 8.03017840e-02, 5.55866778e-01,
          8.83319601e-02, 1.78448413e-03, 0., 0., 0., 0., 1.60603579e-02,
          7.04871193e-02, 4.46121022e-03, 0., 0., 0., 0., 0., 0.,
          8.92242067e-04, 0., 0., 0., 0., 0., 0., 0., 0., 0., 0., 0., 0.,
          0., 0., 0., 0., 0., 0., 0., 0., 0., 0., 0., 0., 0., 0., 0., 0.,
          0., 0., 0., 0., 0., 0., 0., 0., 0., 0., 0., 0., 0., 0., 0., 0.,
          0., 0., 0., 0., 0., 0., 0., 0., 0., 0., 0., 0., 0., 0., 0., 0.,
          0., 0., 0., 0., 0., 0., 0., 0., 0., 0., 0., 0., 0., 0., 0., 0.,
          0., 0., 0., 0., 0., 0., 0., 0., 0., 0., 0., 0., 0., 0., 0., 0.,
          0., 0., 0., 0., 0., 0., 0., 0., 0., 0., 0., 0., 0., 0., 0., 0.,
          0., 0., 0., 0., 0., 0., 0., 0., 0., 0., 0., 0., 0., 0., 0., 0.,
          0., 0., 0., 0., 0., 0., 0., 0., 0., 0., 0., 0., 0., 0., 0., 0.,
          0., 0., 0., 0., 0., 0., 0., 0., 0., 0., 0., 0., 0., 0., 0., 0.,
          0., 0., 0., 0., 0., 0., 0., 5.60784340e-01, 5.80392182e-01 ]
      - [ 0., 0., 2.33321148e-03, 1.71102174e-02, 2.04544857e-01,
          1.39992684e-02, 6.99963421e-03, 5.05529121e-02, 0., 0.,
          4.66642296e-03, 5.59970737e-02, 4.79086071e-01, 1.18993782e-01,
          2.95540113e-02, 7.77737121e-04, 0., 0., 4.66642296e-03,
          7.46627674e-02, 2.39543036e-01, 8.32178742e-02, 5.83302826e-02,
          0., 0., 0., 7.77737121e-04, 5.75525463e-02, 1.68768957e-01,
          3.96645926e-02, 3.73313837e-02, 1.24437939e-02, 0., 0., 0.,
          1.16660567e-02, 4.97751758e-02, 3.34426947e-02, 4.12200689e-02,
          2.33321134e-02, 0., 0., 0., 0., 0., 0., 3.11094848e-03,
          1.55547424e-03, 0., 0., 0., 0., 0., 0., 0., 0., 0., 0., 0., 0.,
          0., 0., 0., 0., 0., 0., 2.33321148e-03, 4.66642296e-03,
          1.08883195e-02, 4.66642296e-03, 7.77737121e-04, 7.77737144e-03,
          0., 0., 7.77737121e-04, 2.33321148e-03, 0., 0., 0., 0., 0., 0.,
          0., 0., 0., 0., 0., 0., 0., 0., 0., 0., 0., 0., 0., 0., 0., 0.,
          0., 0., 0., 0., 0., 0., 0., 0., 0., 0., 0., 0., 0., 0., 0., 0.,
          0., 0., 0., 0., 0., 0., 0., 0., 0., 0., 0., 0., 0., 0., 0., 0.,
          0., 1.55547429e-02, 2.64430624e-02, 0., 7.77737121e-04,
          4.66642296e-03, 0., 0., 0., 1.55547424e-03, 0., 0., 0., 0., 0.,
          0., 0., 0., 0., 0., 0., 0., 0., 0., 0., 0., 0., 0., 0., 0., 0.,
          0., 0., 0., 0., 0., 0., 0., 0., 0., 0., 0., 0., 0., 0., 0., 0.,
          0., 0., 0., 0., 0., 0., 0., 0., 0., 0., 0., 0., 0., 0., 0., 0.,
          0., 7.77737121e-04, 3.88868572e-03, 1.34548515e-01,
          1.55547424e-03, 0., 1.55547424e-03, 0., 0., 0., 2.33321148e-03,
          1.63324792e-02, 7.77737144e-03, 0., 0., 0., 0., 0., 0., 0., 0.,
          0., 0., 0., 0., 0., 0., 0., 0., 0., 0., 0., 0., 0., 0., 0., 0.,
          0., 0., 0., 0., 0., 0., 0., 0., 0., 0., 0., 0., 0., 0., 0., 0.,
          0., 0., 0., 0., 0., 0., 0., 0., 0., 0., 0., 0., 0.,
          7.77737144e-03, 3.04872960e-01, 5.44415973e-03, 1.55547424e-03,
          2.33321148e-03, 0., 0., 0., 5.44415973e-03, 1.11216411e-01,
          1.55547424e-03, 0., 0., 0., 0., 0., 0., 1.55547424e-03, 0., 0.,
          0., 0., 0., 0., 0., 0., 0., 0., 0., 0., 0., 0., 0., 0., 0., 0.,
          0., 0., 0., 0., 0., 0., 0., 0., 0., 0., 0., 0., 0., 0., 0., 0.,
          0., 0., 0., 0., 0., 0., 0., 0., 0., 0., 0., 7.77737121e-04,
          2.33321148e-03, 3.34426969e-01, 7.77737144e-03, 2.33321148e-03,
          3.88868572e-03, 0., 0., 0., 3.57759073e-02, 5.77080965e-01,
          1.03439040e-01, 0., 0., 0., 0., 0., 1.47770057e-02,
          1.04216777e-01, 4.66642296e-03, 0., 0., 0., 0., 0., 0., 0., 0.,
          0., 0., 0., 0., 0., 0., 0., 0., 0., 0., 0., 0., 0., 0., 0., 0.,
          0., 0., 0., 0., 0., 0., 0., 0., 0., 0., 0., 0., 0., 0., 0., 0.,
          0., 0., 0., 0., 0., 0., 0., 0., 0., 0., 0., 0., 0., 0., 0., 0.,
          0., 0., 0., 0., 0., 0., 0., 0., 0., 0., 0., 0., 0., 0., 0., 0.,
          0., 0., 0., 0., 0., 0., 0., 0., 0., 0., 0., 0., 0., 0., 0., 0.,
          0., 0., 0., 0., 0., 0., 0., 0., 0., 0., 0., 0., 0., 0., 0., 0.,
          0., 0., 0., 0., 0., 0., 0., 0., 0., 0., 0., 0., 0., 0., 0., 0.,
          0., 0., 0., 0., 0., 0., 0., 0., 0., 0., 0., 0., 0., 0., 0., 0.,
          0., 0., 0., 0., 0., 0., 0., 0., 0., 0., 0., 0., 0., 0., 0., 0.,
          0., 0., 0., 0., 0., 0., 0., 0., 0., 0., 0., 0., 0., 0., 0., 0.,
          0., 0., 2.50980407e-01, 8.00000012e-01 ]
      - [ 0., 0., 4.61157691e-03, 1.01454696e-02, 1.20823316e-01,
          1.54026672e-01, 3.59703004e-02, 6.82513416e-02, 0., 0.,
          6.45620795e-03, 3.22810411e-02, 2.45335907e-01, 4.21498150e-01,
          2.39802003e-02, 5.53389266e-03, 0., 0., 9.22315405e-04,
          1.75239928e-02, 1.69706032e-01, 3.18198830e-01, 4.79604006e-02,
          6.45620795e-03, 0., 0., 0., 4.61157691e-03, 4.05818783e-02,
          1.39269635e-01, 4.98050340e-02, 0., 0., 0., 0., 0.,
          1.84463081e-03, 4.79604006e-02, 1.29124159e-02, 0., 0., 0., 0.,
          0., 0., 0., 1.84463081e-03, 0., 0., 0., 0., 0., 0., 0., 0., 0.,
          0., 0., 0., 0., 0., 0., 0., 0., 0., 0., 0., 0., 3.68926153e-02,
          3.04364096e-02, 2.30578855e-02, 1.47570465e-02, 0., 0., 0., 0.,
          3.68926162e-03, 3.68926162e-03, 3.68926162e-03, 5.53389266e-03,
          0., 0., 0., 0., 0., 0., 7.37852324e-03, 3.68926162e-03, 0., 0.,
          0., 0., 0., 0., 0., 0., 0., 0., 0., 0., 0., 0., 0., 0., 0., 0.,
          0., 0., 0., 0., 0., 0., 0., 0., 0., 0., 0., 0., 0., 0., 0., 0.,
          0., 0., 0., 0., 0., 0., 0., 0., 0., 9.22315405e-04,
          8.39307010e-02, 6.45620823e-02, 6.08728193e-02, 2.30578855e-02,
          0., 0., 0., 0., 3.68926162e-03, 0., 1.19901001e-02, 0., 0., 0.,
          0., 0., 0., 0., 0., 0., 0., 0., 0., 0., 0., 0., 0., 0., 0., 0.,
          0., 0., 0., 0., 0., 0., 0., 0., 0., 0., 0., 0., 0., 0., 0., 0.,
          0., 0., 0., 0., 0., 0., 0., 0., 0., 0., 0., 0., 0., 0., 0., 0.,
          0., 5.53389266e-03, 7.93191269e-02, 5.34942932e-02,
          3.59703004e-02, 2.76694633e-03, 0., 0., 0., 0., 0.,
          6.45620795e-03, 2.95140930e-02, 1.10677853e-02, 0., 0., 0., 0.,
          0., 0., 0., 0., 0., 0., 0., 0., 0., 0., 0., 0., 0., 0., 0., 0.,
          0., 0., 0., 0., 0., 0., 0., 0., 0., 0., 0., 0., 0., 0., 0., 0.,
          0., 0., 0., 0., 0., 0., 0., 0., 0., 0., 0., 0., 0., 0.,
          9.22315405e-04, 1.19901001e-02, 1.31891102e-01, 1.44803524e-01,
          9.22315381e-03, 2.21355706e-02, 0., 0., 9.22315405e-04,
          2.76694633e-03, 1.38347317e-02, 2.67471466e-02, 3.68926162e-03,
          0., 0., 0., 0., 0., 0., 0., 0., 0., 0., 0., 0., 0., 0., 0., 0.,
          0., 0., 0., 0., 0., 0., 0., 0., 0., 0., 0., 0., 0., 0., 0., 0.,
          0., 0., 0., 0., 0., 0., 0., 0., 0., 0., 0., 0., 0., 0., 0., 0.,
          0., 0., 0., 1.84463081e-03, 1.29124159e-02, 1.92763925e-01,
          2.61015266e-01, 1.47570465e-02, 4.42711413e-02, 0., 0., 0.,
          6.45620795e-03, 5.10040402e-01, 3.15431863e-01, 1.84463081e-03,
          0., 0., 0., 0., 1.38347317e-02, 1.35580361e-01, 3.22810411e-02,
          0., 0., 0., 0., 0., 1.84463081e-03, 9.22315381e-03,
          1.84463081e-03, 0., 0., 0., 0., 0., 0., 0., 0., 0., 0., 0., 0.,
          0., 0., 0., 0., 0., 0., 0., 0., 0., 0., 0., 0., 0., 0., 0., 0.,
          0., 0., 0., 0., 0., 0., 0., 0., 0., 0., 0., 0., 0., 0., 0., 0.,
          0., 0., 0., 0., 0., 0., 0., 0., 0., 0., 0., 0., 0., 0., 0., 0.,
          0., 0., 0., 0., 0., 0., 0., 0., 0., 0., 0., 0., 0., 0., 0., 0.,
          0., 0., 0., 0., 0., 0., 0., 0., 0., 0., 0., 0., 0., 0., 0., 0.,
          0., 0., 0., 0., 0., 0., 0., 0., 0., 0., 0., 0., 0., 0., 0., 0.,
          0., 0., 0., 0., 0., 0., 0., 0., 0., 0., 0., 0., 0., 0., 0., 0.,
          0., 0., 0., 0., 0., 0., 0., 0., 0., 0., 0., 0., 0., 0., 0., 0.,
          0., 0., 0., 0., 0., 0., 0., 0., 0., 0., 0., 0., 0., 0., 0., 0.,
          0., 0., 0., 0., 0., 0., 4.43137258e-01, 6.90196097e-01 ]
      - [ 0., 0., 1.39307254e-03, 2.36822329e-02, 2.22891606e-02,
          4.17921785e-03, 4.17921785e-03, 6.96536293e-03, 0., 0.,
          6.96536270e-04, 2.85579879e-02, 5.01506105e-02, 2.15926245e-02,
          1.32341888e-02, 6.26882631e-03, 0., 0., 0., 6.26882631e-03,
          2.71649137e-02, 2.36822329e-02, 1.11445803e-02, 1.46272620e-02,
          0., 0., 0., 0., 4.87575401e-03, 3.20406668e-02, 2.08960883e-02,
          1.39307259e-02, 0., 0., 0., 0., 0., 6.96536270e-04,
          3.48268147e-03, 2.57718414e-02, 0., 0., 0., 0., 0., 0., 0.,
          6.96536270e-04, 0., 0., 0., 0., 0., 0., 0., 0., 0., 0., 0., 0.,
          0., 0., 0., 0., 0., 0., 0., 9.75150801e-03, 2.50753053e-02,
          1.81099437e-02, 1.18411165e-02, 1.67168714e-02, 0., 0., 0.,
          1.39307254e-03, 4.17921785e-03, 1.39307254e-03, 8.35843571e-03,
          4.17921785e-03, 0., 0., 0., 0., 0., 0., 6.26882631e-03,
          1.39307254e-03, 0., 0., 0., 0., 0., 0., 0., 0., 0., 0., 0., 0.,
          0., 0., 0., 0., 0., 0., 0., 0., 0., 0., 0., 0., 0., 0., 0., 0.,
          0., 0., 0., 0., 0., 0., 0., 0., 0., 0., 0., 0., 0., 0.,
          1.39307254e-03, 1.04480442e-02, 9.75150801e-03, 1.32341888e-02,
          2.43787691e-02, 8.84601101e-02, 0., 0., 0., 6.96536270e-04,
          1.32341888e-02, 1.74134076e-02, 1.25376526e-02, 1.74134076e-02,
          0., 0., 0., 0., 2.08960893e-03, 2.92545240e-02, 2.08960893e-03,
          0., 0., 0., 0., 0., 0., 6.96536270e-04, 0., 0., 0., 0., 0., 0.,
          0., 0., 0., 0., 0., 0., 0., 0., 0., 0., 0., 0., 0., 0., 0., 0.,
          0., 0., 0., 0., 0., 0., 0., 0., 0., 0., 0., 0., 0., 0., 0.,
          2.50753053e-02, 3.69164236e-02, 1.46272620e-02, 5.57229016e-03,
          5.29367551e-02, 0., 0., 6.96536270e-04, 3.62198874e-02,
          1.28162667e-01, 7.94051364e-02, 1.67168714e-02, 2.22891606e-02,
          0., 0., 0., 1.46272620e-02, 1.82492509e-01, 2.89759099e-01,
          3.35033953e-01, 6.26882631e-03, 0., 0., 0., 6.96536270e-04,
          4.59713936e-02, 2.63290703e-01, 7.88479030e-01, 1.50451839e-01,
          0., 0., 0., 0., 1.39307254e-03, 0., 1.74134076e-02,
          1.25376526e-02, 0., 0., 0., 0., 0., 0., 0., 0., 0., 0., 0., 0.,
          0., 0., 0., 0., 0., 0., 0., 0., 0., 0., 0., 0., 0., 0.,
          1.39307254e-03, 2.15926245e-02, 2.64683776e-02, 6.96536293e-03,
          6.96536270e-04, 4.17921785e-03, 0., 0., 6.96536270e-04,
          2.85579879e-02, 1.60203334e-02, 1.39307254e-03, 0., 0., 0., 0.,
          0., 4.87575401e-03, 1.11445803e-02, 0., 0., 0., 0., 0., 0., 0.,
          1.39307254e-03, 0., 0., 0., 0., 0., 0., 0., 0., 0., 0., 0., 0.,
          0., 0., 0., 0., 0., 0., 0., 0., 0., 0., 0., 0., 0., 0., 0., 0.,
          0., 0., 0., 0., 0., 0., 0., 0., 0., 0., 8.35843571e-03,
          1.04480442e-02, 4.17921785e-03, 4.17921785e-03, 0., 0., 0.,
          6.96536270e-04, 6.26882631e-03, 2.78614508e-03, 2.08960893e-03,
          0., 0., 0., 0., 0., 0., 1.39307254e-03, 0., 0., 0., 0., 0., 0.,
          0., 0., 0., 0., 0., 0., 0., 0., 0., 0., 0., 0., 0., 0., 0., 0.,
          0., 0., 0., 0., 0., 0., 0., 0., 0., 0., 0., 0., 0., 0., 0., 0.,
          0., 0., 0., 0., 0., 0., 0., 0., 0., 0., 0., 0., 0., 0., 0., 0.,
          0., 0., 0., 0., 0., 0., 0., 0., 0., 0., 0., 0., 0., 0., 0., 0.,
          0., 0., 0., 0., 0., 0., 0., 0., 0., 0., 0., 0., 0., 0., 0., 0.,
          0., 0., 0., 0., 0., 0., 0., 0., 0., 0., 0., 0., 0., 0., 0., 0.,
          0., 0., 0., 0., 0., 0., 0., 0., 0., 0., 0., 0., 0., 0., 0., 0.,
          0., 0., 0., 0., 0., 0., 0., 0., 0., 0., 0., 0., 0., 0., 0., 0.,
          0., 0., 0., 0., 0., 0., 0., 0., 0., 0., 0., 0., 0., 0., 0., 0.,
          0., 0., 0., 0., 0., 0., 0., 0., 0., 0., 0., 0., 0., 0., 0., 0.,
          0., 0., 0., 0., 0., 6.15686297e-01, 5.25490224e-01 ]
      - [ 0., 0., 0., 0., 2.44349567e-03, 6.10873895e-03, 6.71961298e-03,
          2.68784519e-02, 0., 0., 0., 0., 4.27611731e-03, 7.69701153e-02,
          1.52718484e-01, 4.82590385e-02, 0., 0., 0., 0., 6.10873895e-03,
          4.96640503e-01, 6.17593527e-01, 3.23763192e-02, 0., 0., 0., 0.,
          3.54306884e-02, 4.01344150e-01, 3.45143765e-01, 8.55223462e-03,
          0., 0., 0., 1.22174784e-03, 2.13805865e-02, 1.52107611e-01,
          1.32559642e-01, 2.44349567e-03, 0., 0., 0., 0., 4.88699134e-03,
          5.62004000e-02, 2.26023346e-02, 0., 0., 0., 0., 6.10873918e-04,
          0., 0., 0., 0., 0., 0., 0., 0., 0., 0., 0., 0., 0., 0., 0., 0.,
          0., 2.44349567e-03, 1.16066048e-02, 1.52718481e-02, 0., 0., 0.,
          0., 6.10873918e-04, 4.27611731e-03, 1.34392260e-02,
          2.44349567e-03, 0., 0., 0., 0., 0., 0., 0., 0., 0., 0., 0., 0.,
          0., 0., 0., 0., 0., 0., 0., 0., 0., 0., 0., 0., 0., 0., 0., 0.,
          0., 0., 0., 0., 0., 0., 0., 0., 0., 0., 0., 0., 0., 0., 0., 0.,
          0., 0., 0., 0., 0., 0., 0., 0., 0., 6.10873918e-04,
          1.22174784e-03, 6.41417578e-02, 0., 0., 0., 0., 0., 0.,
          1.83262175e-03, 1.22174784e-03, 0., 0., 0., 0., 0., 0., 0., 0.,
          0., 0., 0., 0., 0., 0., 0., 0., 0., 0., 0., 0., 0., 0., 0., 0.,
          0., 0., 0., 0., 0., 0., 0., 0., 0., 0., 0., 0., 0., 0., 0., 0.,
          0., 0., 0., 0., 0., 0., 0., 0., 0., 0., 0., 0., 0.,
          9.16310865e-03, 1.34392260e-02, 2.68784519e-02, 0., 0., 0., 0.,
          0., 1.83262175e-03, 4.27611731e-03, 6.10873918e-04, 0., 0., 0.,
          0., 0., 0., 0., 0., 0., 0., 0., 0., 0., 0., 0., 0., 0., 0., 0.,
          0., 0., 0., 0., 0., 0., 0., 0., 0., 0., 0., 0., 0., 0., 0., 0.,
          0., 0., 0., 0., 0., 0., 0., 0., 0., 0., 0., 0., 0., 0., 0., 0.,
          0., 6.10873918e-04, 1.03848567e-02, 9.16310865e-03,
          5.49786538e-03, 0., 0., 0., 0., 0., 0., 0., 0., 0., 0., 0., 0.,
          0., 0., 0., 0., 0., 0., 0., 0., 0., 0., 0., 0., 0., 0., 0., 0.,
          0., 0., 0., 0., 0., 0., 0., 0., 0., 0., 0., 0., 0., 0., 0., 0.,
          0., 0., 0., 0., 0., 0., 0., 0., 0., 0., 0., 0., 0., 0., 0., 0.,
          0., 4.88699134e-03, 1.83262175e-03, 7.94136059e-03, 0., 0., 0.,
          0., 0., 3.35980654e-02, 4.09285538e-02, 0., 0., 0., 0., 0., 0.,
          3.90959308e-02, 4.09285538e-02, 0., 0., 0., 0., 0., 0.,
          2.44349567e-03, 1.83262175e-03, 0., 0., 0., 0., 0., 0., 0., 0.,
          0., 0., 0., 0., 0., 0., 0., 0., 0., 0., 0., 0., 0., 0., 0., 0.,
          0., 0., 0., 0., 0., 0., 0., 0., 0., 0., 0., 0., 0., 0., 0., 0.,
          0., 0., 0., 0., 0., 0., 0., 0., 0., 0., 0., 0., 0., 0., 0., 0.,
          0., 0., 0., 0., 0., 0., 0., 0., 0., 0., 0., 0., 0., 0., 0., 0.,
          0., 0., 0., 0., 0., 0., 0., 0., 0., 0., 0., 0., 0., 0., 0., 0.,
          0., 0., 0., 0., 0., 0., 0., 0., 0., 0., 0., 0., 0., 0., 0., 0.,
          0., 0., 0., 0., 0., 0., 0., 0., 0., 0., 0., 0., 0., 0., 0., 0.,
          0., 0., 0., 0., 0., 0., 0., 0., 0., 0., 0., 0., 0., 0., 0., 0.,
          0., 0., 0., 0., 0., 0., 0., 0., 0., 0., 0., 0., 0., 0., 0., 0.,
          0., 0., 0., 0., 0., 0., 0., 0., 0., 4.50980395e-01,
          7.25490212e-01 ]
      - [ 0., 0., 0., 2.45935004e-03, 6.31233156e-02, 1.02472916e-01,
          7.21409321e-02, 6.80420175e-02, 0., 0., 0., 9.01761651e-03,
          7.70596340e-02, 3.68082732e-01, 6.42710149e-01, 1.63956676e-02,
          0., 0., 0., 1.63956673e-03, 1.27066419e-01, 3.87757540e-01,
          3.13157231e-01, 3.36111188e-02, 0., 0., 0., 8.19783367e-04,
          9.01761651e-03, 1.66416019e-01, 1.18048802e-01, 8.19783378e-03,
          0., 0., 0., 0., 8.19783367e-04, 1.55758839e-02, 1.47561003e-02,
          4.91870008e-03, 0., 0., 0., 0., 0., 0., 0., 0., 0., 0., 0., 0.,
          0., 0., 0., 0., 0., 0., 0., 0., 0., 0., 0., 0., 0., 0., 0., 0.,
          2.62330677e-02, 2.29539331e-02, 6.96815848e-02, 4.01693843e-02,
          0., 0., 0., 0., 3.27913347e-03, 8.19783378e-03, 2.21341513e-02,
          1.88550167e-02, 0., 0., 0., 0., 0., 1.63956673e-03, 0., 0., 0.,
          0., 0., 0., 0., 0., 0., 0., 0., 0., 0., 0., 0., 0., 0., 0., 0.,
          0., 0., 0., 0., 0., 0., 0., 0., 0., 0., 0., 0., 0., 0., 0., 0.,
          0., 0., 0., 0., 0., 0., 0., 0., 0., 0., 0., 1.06571838e-02,
          2.04945840e-02, 1.14769666e-02, 4.42683026e-02, 0., 0., 0., 0.,
          0., 0., 0., 0., 0., 0., 0., 0., 0., 0., 0., 0., 0., 0., 0., 0.,
          0., 0., 0., 0., 0., 0., 0., 0., 0., 0., 0., 0., 0., 0., 0., 0.,
          0., 0., 0., 0., 0., 0., 0., 0., 0., 0., 0., 0., 0., 0., 0., 0.,
          0., 0., 0., 0., 0., 0., 0., 8.19783367e-04, 1.72154512e-02,
          7.86992013e-02, 1.14769666e-02, 1.88550167e-02, 0., 0., 0., 0.,
          8.19783367e-04, 0., 0., 0., 0., 0., 0., 0., 0., 0., 0., 0., 0.,
          0., 0., 0., 0., 0., 0., 0., 0., 0., 0., 0., 0., 0., 0., 0., 0.,
          0., 0., 0., 0., 0., 0., 0., 0., 0., 0., 0., 0., 0., 0., 0., 0.,
          0., 0., 0., 0., 0., 0., 0., 0., 0., 0., 1.63956673e-03,
          1.14769667e-01, 1.47560999e-01, 1.06571838e-02, 2.70528514e-02,
          0., 0., 0., 8.19783367e-04, 9.83740017e-03, 9.83740017e-03, 0.,
          0., 0., 0., 0., 0., 1.63956673e-03, 9.01761651e-03, 0., 0., 0.,
          0., 0., 0., 0., 0., 0., 0., 0., 0., 0., 0., 0., 0., 0., 0., 0.,
          0., 0., 0., 0., 0., 0., 0., 0., 0., 0., 0., 0., 0., 0., 0., 0.,
          0., 0., 0., 0., 0., 0., 0., 0., 0., 0., 4.09891689e-03,
          8.36179033e-02, 1.39363170e-01, 4.59078662e-02, 4.18089516e-02,
          0., 0., 0., 2.45935004e-03, 6.47628829e-02, 1.30345553e-01,
          7.62398541e-02, 0., 0., 0., 0., 0., 4.91870008e-03,
          3.52506861e-02, 4.09891689e-03, 0., 0., 0., 0., 0., 0., 0., 0.,
          0., 0., 0., 0., 0., 0., 0., 0., 0., 0., 0., 0., 0., 0., 0., 0.,
          0., 0., 0., 0., 0., 0., 0., 0., 0., 0., 0., 0., 0., 0., 0., 0.,
          0., 0., 0., 0., 0., 0., 0., 0., 0., 0., 0., 0., 0., 0., 0., 0.,
          0., 0., 0., 0., 0., 0., 0., 0., 0., 0., 0., 0., 0., 0., 0., 0.,
          0., 0., 0., 0., 0., 0., 0., 0., 0., 0., 0., 0., 0., 0., 0., 0.,
          0., 0., 0., 0., 0., 0., 0., 0., 0., 0., 0., 0., 0., 0., 0., 0.,
          0., 0., 0., 0., 0., 0., 0., 0., 0., 0., 0., 0., 0., 0., 0., 0.,
          0., 0., 0., 0., 0., 0., 0., 0., 0., 0., 0., 0., 0., 0., 0., 0.,
          0., 0., 0., 0., 0., 0., 0., 0., 0., 0., 0., 0., 0., 0., 0., 0.,
          0., 0., 0., 0., 0., 0., 0., 0., 0., 0., 0., 0., 0., 0., 0., 0.,
          0., 4.82352942e-01, 7.49019623e-01 ]
      - [ 0., 0., 8.59259337e-04, 8.59259337e-04, 1.57244459e-01,
          6.35851920e-02, 3.69481519e-02, 1.11703714e-02, 0.,
          8.59259337e-04, 8.59259337e-04, 4.72592637e-02, 3.02459300e-01,
          2.22548172e-01, 4.03851904e-02, 6.87407469e-03, 0.,
          1.71851867e-03, 5.15555637e-03, 4.55407463e-02, 2.01925948e-01,
          3.66903752e-01, 7.73333432e-03, 4.29629674e-03, 0.,
          1.71851867e-03, 6.01481553e-03, 4.46814857e-02, 2.86992639e-01,
          2.68088907e-01, 6.01481553e-03, 0., 0., 5.15555637e-03,
          8.59259337e-04, 1.20296311e-02, 1.17718533e-01, 4.46814857e-02,
          2.57777818e-03, 0., 0., 2.57777818e-03, 1.71851867e-03,
          8.59259337e-04, 1.89037062e-02, 0., 0., 0., 0., 3.43703735e-03,
          0., 0., 0., 0., 0., 0., 0., 2.57777818e-03, 0., 0., 0., 0., 0.,
          0., 0., 0., 0., 0., 1.71851867e-03, 1.97629649e-02,
          2.74962988e-02, 3.43703735e-03, 0., 0., 0., 2.57777818e-03,
          1.71851867e-03, 0., 0., 0., 0., 0., 0., 8.59259337e-04, 0., 0.,
          0., 0., 0., 0., 0., 0., 0., 0., 0., 0., 0., 0., 0., 0., 0., 0.,
          0., 0., 0., 0., 0., 0., 0., 0., 0., 0., 0., 0., 0., 0., 0., 0.,
          0., 0., 0., 0., 0., 0., 0., 0., 0., 0., 0., 0., 0., 0.,
          8.59259348e-03, 1.11703714e-02, 4.29629674e-03, 3.43703735e-03,
          0., 0., 0., 0., 0., 0., 0., 0., 0., 0., 0., 0., 0., 0., 0., 0.,
          0., 0., 0., 0., 0., 0., 0., 0., 0., 0., 0., 0., 0., 0., 0., 0.,
          0., 0., 0., 0., 0., 0., 0., 0., 0., 0., 0., 0., 0., 0., 0., 0.,
          0., 0., 0., 0., 0., 0., 0., 0., 0., 0., 0., 0., 7.73333432e-03,
          0., 0., 5.15555637e-03, 0., 0., 0., 0., 0., 0., 0., 0., 0., 0.,
          0., 0., 0., 0., 0., 0., 0., 0., 0., 0., 0., 0., 0., 0., 0., 0.,
          0., 0., 0., 0., 0., 0., 0., 0., 0., 0., 0., 0., 0., 0., 0., 0.,
          0., 0., 0., 0., 0., 0., 0., 0., 0., 0., 0., 0., 0., 0., 0., 0.,
          0., 1.11703714e-02, 1.14281498e-01, 2.83555593e-02,
          1.71851867e-03, 5.15555637e-03, 0., 0., 0., 2.32000034e-02,
          7.56148249e-02, 2.83555593e-02, 0., 0., 0., 0., 0.,
          5.15555637e-03, 8.59259348e-03, 0., 0., 0., 0., 0., 0., 0., 0.,
          0., 0., 0., 0., 0., 0., 0., 0., 0., 0., 0., 0., 0., 0., 0., 0.,
          0., 0., 0., 0., 0., 0., 0., 0., 0., 0., 0., 0., 0., 0., 0., 0.,
          0., 0., 0., 0., 0., 0., 0., 2.24266693e-01, 3.69481519e-02,
          5.15555637e-03, 2.57777818e-03, 0., 0., 0., 3.43703739e-02,
          4.99229699e-01, 1.71851873e-01, 8.59259337e-04, 0., 0., 0., 0.,
          6.18666746e-02, 3.35970402e-01, 5.41333407e-02, 0., 0., 0., 0.,
          0., 3.43703735e-03, 2.32000034e-02, 5.15555637e-03, 0., 0., 0.,
          0., 0., 0., 0., 0., 0., 0., 0., 0., 0., 0., 0., 0., 0., 0., 0.,
          0., 0., 0., 0., 0., 0., 0., 0., 0., 0., 0., 0., 0., 0., 0., 0.,
          0., 0., 0., 0., 0., 0., 0., 0., 0., 0., 0., 0., 0., 0., 0., 0.,
          0., 0., 0., 0., 0., 0., 0., 0., 0., 0., 0., 0., 0., 0., 0., 0.,
          0., 0., 0., 0., 0., 0., 0., 0., 0., 0., 0., 0., 0., 0., 0., 0.,
          0., 0., 0., 0., 0., 0., 0., 0., 0., 0., 0., 0., 0., 0., 0., 0.,
          0., 0., 0., 0., 0., 0., 0., 0., 0., 0., 0., 0., 0., 0., 0., 0.,
          0., 0., 0., 0., 0., 0., 0., 0., 0., 0., 0., 0., 0., 0., 0., 0.,
          0., 0., 0., 0., 0., 0., 0., 0., 0., 0., 0., 0., 0., 0., 0., 0.,
          0., 0., 0., 0., 0., 0., 0., 0., 0., 0., 0., 0., 0., 0., 0.,
          6.00000024e-01, 4.74509805e-01 ]
      - [ 0., 0., 0., 0., 8.04156938e-04, 4.02078498e-03, 1.60831388e-03,
          3.53829078e-02, 0., 0., 0., 0., 4.02078469e-04, 7.23741250e-03,
          1.12581970e-02, 2.41247080e-02, 0., 0., 0., 4.02078469e-04,
          4.02078498e-03, 1.16602760e-02, 2.65371799e-02, 4.06099260e-02,
          0., 0., 0., 0., 4.02078469e-04, 2.25163940e-02, 4.62390259e-02,
          3.81974541e-02, 0., 0., 0., 0., 2.41247076e-03, 1.64852180e-02,
          9.04676542e-02, 8.96634981e-02, 0., 0., 0., 0., 1.20623538e-03,
          1.32685900e-02, 3.08394194e-01, 9.30007517e-01, 0., 0., 0., 0.,
          8.04156938e-04, 9.24780499e-03, 4.30223979e-02, 1.11375742e-01,
          0., 0., 0., 0., 0., 0., 0., 0., 0., 0., 0., 0., 4.02078469e-04,
          2.01039249e-03, 2.01039249e-03, 8.04156996e-03, 0., 0., 0., 0.,
          0., 0., 6.83533400e-03, 0., 0., 0., 0., 0., 0., 0., 0., 0., 0.,
          0., 0., 0., 0., 0., 0., 0., 0., 0., 0., 0., 0., 0., 0., 0., 0.,
          0., 0., 0., 0., 0., 0., 0., 0., 0., 0., 0., 0., 0., 0., 0., 0.,
          0., 0., 0., 0., 0., 0., 0., 0., 0., 0., 0., 0., 4.02078469e-04,
          2.81454925e-03, 3.61870625e-03, 0., 0., 0., 0., 0.,
          4.02078469e-04, 8.04156938e-04, 0., 0., 0., 0., 0., 0., 0., 0.,
          0., 0., 0., 0., 0., 0., 0., 0., 0., 0., 0., 0., 0., 0., 0., 0.,
          0., 0., 0., 0., 0., 0., 0., 0., 0., 0., 0., 0., 0., 0., 0., 0.,
          0., 0., 0., 0., 0., 0., 0., 0., 0., 0., 0., 0., 0., 0.,
          4.02078469e-04, 0., 0., 0., 0., 0., 0., 8.04156938e-04,
          4.02078469e-04, 4.02078469e-04, 0., 0., 0., 0., 0.,
          4.02078469e-04, 0., 0., 0., 0., 0., 0., 0., 0., 0., 0., 0., 0.,
          0., 0., 0., 0., 0., 0., 0., 0., 0., 0., 0., 0., 0., 0., 0., 0.,
          0., 0., 0., 0., 0., 0., 0., 0., 0., 0., 0., 0., 0., 0., 0., 0.,
          0., 0., 8.04156938e-04, 1.60831388e-03, 8.04156938e-04, 0.,
          2.41247076e-03, 0., 0., 0., 2.81454925e-03, 5.22702001e-03, 0.,
          0., 0., 0., 0., 0., 1.20623538e-03, 8.04156938e-04, 0., 0., 0.,
          0., 0., 0., 0., 0., 0., 0., 0., 0., 0., 0., 0., 0., 0., 0., 0.,
          0., 0., 0., 0., 0., 0., 0., 0., 0., 0., 0., 0., 0., 0., 0., 0.,
          0., 0., 0., 0., 0., 0., 0., 0., 0., 0., 0., 0., 2.41247076e-03,
          4.02078469e-04, 4.02078469e-04, 8.84572696e-03, 0., 0., 0.,
          4.02078469e-04, 8.04156938e-04, 1.20623538e-03, 8.04156938e-04,
          2.81454925e-03, 0., 0., 0., 8.04156938e-04, 2.81454925e-03,
          1.20623538e-03, 4.02078469e-04, 4.02078469e-04, 0., 0., 0., 0.,
          4.02078469e-04, 2.81454925e-03, 2.41247076e-03, 0., 0., 0., 0.,
          0., 0., 4.02078469e-04, 0., 4.02078469e-04, 0., 0., 0., 0., 0.,
          0., 4.02078469e-04, 2.41247076e-03, 0., 0., 0., 0., 0., 0., 0.,
          0., 0., 0., 0., 0., 0., 0., 0., 0., 0., 0., 0., 0., 0., 0., 0.,
          0., 0., 0., 0., 0., 0., 0., 0., 0., 0., 0., 0., 0., 0., 0., 0.,
          0., 0., 0., 0., 0., 0., 0., 0., 0., 0., 0., 0., 0., 0., 0., 0.,
          0., 0., 0., 0., 0., 0., 0., 0., 0., 0., 0., 0., 0., 0., 0., 0.,
          0., 0., 0., 0., 0., 0., 0., 0., 0., 0., 0., 0., 0., 0., 0., 0.,
          0., 0., 0., 0., 0., 0., 0., 0., 0., 0., 0., 0., 0., 0., 0., 0.,
          0., 0., 0., 0., 0., 0., 0., 0., 0., 0., 0., 0., 0., 0., 0., 0.,
          0., 0., 0., 0., 0., 0., 0., 0., 0., 0., 0., 0., 0., 0., 0., 0.,
          0., 0., 0., 0., 0., 0., 0., 0., 0., 4.27450985e-01,
          7.17647076e-01 ]
      - [ 0., 0., 0., 1.62389025e-03, 8.03825632e-02, 5.68361580e-02,
          5.68361580e-03, 3.49136405e-02, 0., 0., 0., 2.02986281e-02,
          1.59953192e-01, 2.07857952e-01, 2.92300247e-02, 8.11945088e-03,
          0., 0., 0., 4.14092019e-02, 3.10974985e-01, 2.56574661e-01,
          2.27344632e-02, 0., 0., 0., 0., 1.29911220e-02, 1.81063756e-01,
          4.54689264e-02, 2.67941877e-02, 0., 0., 0., 0., 0.,
          1.21791763e-02, 8.11945088e-03, 1.78627931e-02, 0., 0., 0., 0.,
          0., 0., 6.49556099e-03, 5.68361580e-03, 0., 0., 0., 0., 0., 0.,
          0., 8.11945123e-04, 0., 0., 0., 0., 0., 0., 0., 0., 0., 0., 0.,
          0., 0., 1.05552860e-02, 3.97853106e-02, 4.87167062e-03,
          7.30750617e-03, 0., 0., 0., 0., 8.93139653e-03, 4.05972544e-03,
          4.87167062e-03, 8.93139653e-03, 0., 0., 0., 1.62389025e-03,
          2.43583531e-03, 8.11945123e-04, 0., 0., 0., 0., 0.,
          1.62389025e-03, 0., 0., 0., 0., 0., 0., 0., 0., 0., 0., 0., 0.,
          0., 0., 0., 0., 0., 0., 0., 0., 0., 0., 0., 0., 0., 0., 0., 0.,
          0., 0., 0., 0., 0., 0., 0., 0., 0., 0., 0., 0., 4.87167062e-03,
          3.00419684e-02, 0., 1.62389025e-03, 0., 0., 0., 0., 0., 0., 0.,
          0., 0., 0., 0., 0., 0., 0., 0., 0., 0., 0., 0., 0., 0., 0., 0.,
          0., 0., 0., 0., 0., 0., 0., 0., 0., 0., 0., 0., 0., 0., 0., 0.,
          0., 0., 0., 0., 0., 0., 0., 0., 0., 0., 0., 0., 0., 0., 0., 0.,
          0., 0., 0., 0., 0., 7.22631142e-02, 1.21791763e-02, 0.,
          8.11945123e-04, 0., 0., 0., 0., 2.43583526e-02, 3.24778049e-03,
          0., 0., 0., 0., 0., 0., 0., 0., 0., 0., 0., 0., 0., 0., 0., 0.,
          0., 0., 0., 0., 0., 0., 0., 0., 0., 0., 0., 0., 0., 0., 0., 0.,
          0., 0., 0., 0., 0., 0., 0., 0., 0., 0., 0., 0., 0., 0., 0., 0.,
          0., 0., 0., 0., 0., 0., 4.09220338e-01, 1.12860367e-01, 0., 0.,
          0., 0., 0., 1.62389025e-03, 2.10293785e-01, 1.46150123e-02, 0.,
          0., 0., 0., 0., 0., 9.74334124e-03, 0., 0., 0., 0., 0., 0., 0.,
          0., 0., 0., 0., 0., 0., 0., 0., 0., 0., 0., 0., 0., 0., 0., 0.,
          0., 0., 0., 0., 0., 0., 0., 0., 0., 0., 0., 0., 0., 0., 0., 0.,
          0., 0., 0., 0., 0., 0., 0., 2.43583531e-03, 1.04740918e-01,
          6.73914403e-02, 0., 0., 0., 0., 0., 4.54689264e-02,
          4.73363996e-01, 4.17339772e-01, 0., 0., 0., 0., 0.,
          1.78627931e-02, 2.39523813e-01, 1.03117026e-01, 0., 0., 0., 0.,
          0., 0., 6.49556099e-03, 0., 0., 0., 0., 0., 0., 0., 0., 0., 0.,
          0., 0., 0., 0., 0., 0., 0., 0., 0., 0., 0., 0., 0., 0., 0., 0.,
          0., 0., 0., 0., 0., 0., 0., 0., 0., 0., 0., 0., 0., 0., 0., 0.,
          0., 0., 0., 0., 0., 0., 0., 0., 0., 0., 0., 0., 0., 0., 0., 0.,
          0., 0., 0., 0., 0., 0., 0., 0., 0., 0., 0., 0., 0., 0., 0., 0.,
          0., 0., 0., 0., 0., 0., 0., 0., 0., 0., 0., 0., 0., 0., 0., 0.,
          0., 0., 0., 0., 0., 0., 0., 0., 0., 0., 0., 0., 0., 0., 0., 0.,
          0., 0., 0., 0., 0., 0., 0., 0., 0., 0., 0., 0., 0., 0., 0., 0.,
          0., 0., 0., 0., 0., 0., 0., 0., 0., 0., 0., 0., 0., 0., 0., 0.,
          0., 0., 0., 0., 0., 0., 0., 0., 0., 0., 0., 0., 0., 0., 0., 0.,
          0., 0., 0., 0., 0., 0., 0., 0., 0., 6.27451003e-01,
          5.37254930e-01 ]
      - [ 0., 0., 0., 9.12133139e-03, 1.18577309e-01, 1.65096104e-01,
          6.02007881e-02, 1.34083569e-01, 0., 0., 9.12133139e-04,
          2.28033289e-02, 2.22560480e-01, 5.33597887e-01, 1.04895309e-01,
          3.37489247e-02, 0., 0., 0., 1.45941302e-02, 1.90635830e-01,
          5.70083201e-01, 7.57070482e-02, 9.12133139e-03, 0., 0., 0.,
          3.64853255e-03, 7.47949183e-02, 2.78200597e-01, 1.04895309e-01,
          2.46275943e-02, 0., 0., 0., 0., 5.47279883e-03, 7.47949183e-02,
          6.20250553e-02, 3.01003940e-02, 0., 0., 0., 0., 0.,
          5.47279883e-03, 9.12133139e-04, 0., 0., 0., 0., 0., 0., 0., 0.,
          0., 0., 0., 0., 0., 0., 0., 0., 0., 0., 0., 0., 1.82426628e-03,
          3.01003940e-02, 1.91547964e-02, 4.83430550e-02, 2.82761268e-02,
          0., 0., 0., 0., 9.12133139e-04, 3.64853255e-03, 2.00669300e-02,
          2.73639942e-03, 0., 0., 0., 0., 0., 0., 0., 0., 0., 0., 0., 0.,
          0., 0., 0., 0., 0., 0., 0., 0., 0., 0., 0., 0., 0., 0., 0., 0.,
          0., 0., 0., 0., 0., 0., 0., 0., 0., 0., 0., 0., 0., 0., 0., 0.,
          0., 0., 0., 0., 0., 0., 0., 9.12133139e-04, 5.19915894e-02,
          5.74643873e-02, 1.73305292e-02, 2.46275943e-02, 0., 0., 0., 0.,
          1.73305292e-02, 1.73305292e-02, 0., 1.82426628e-03, 0., 0., 0.,
          0., 0., 0., 0., 0., 0., 0., 0., 0., 0., 0., 0., 0., 0., 0., 0.,
          0., 0., 0., 0., 0., 0., 0., 0., 0., 0., 0., 0., 0., 0., 0., 0.,
          0., 0., 0., 0., 0., 0., 0., 0., 0., 0., 0., 0., 0., 0., 0., 0.,
          9.12133139e-04, 1.08543843e-01, 1.04895309e-01, 2.73639951e-02,
          1.82426628e-02, 0., 0., 0., 9.12133139e-04, 2.64518615e-02,
          7.38827810e-02, 5.74643873e-02, 0., 0., 0., 0., 0., 0.,
          1.82426628e-03, 3.64853255e-03, 0., 0., 0., 0., 0., 0., 0., 0.,
          0., 0., 0., 0., 0., 0., 0., 0., 0., 0., 0., 0., 0., 0., 0., 0.,
          0., 0., 0., 0., 0., 0., 0., 0., 0., 0., 0., 0., 0., 0., 0., 0.,
          0., 0., 0., 9.12133139e-04, 3.64853255e-03, 1.02158912e-01,
          5.10794558e-02, 2.73639942e-03, 1.00334650e-02, 0., 0., 0.,
          5.47279883e-03, 1.73305292e-02, 3.37489247e-02, 0., 0., 0., 0.,
          0., 9.12133139e-04, 9.12133139e-04, 0., 0., 0., 0., 0., 0., 0.,
          0., 0., 0., 0., 0., 0., 0., 0., 0., 0., 0., 0., 0., 0., 0., 0.,
          0., 0., 0., 0., 0., 0., 0., 0., 0., 0., 0., 0., 0., 0., 0., 0.,
          0., 0., 0., 0., 0., 0., 0., 2.73639942e-03, 7.38827810e-02,
          1.18577309e-01, 1.27698639e-02, 4.92551886e-02, 0., 0., 0.,
          1.36819975e-02, 7.93555826e-02, 1.63271829e-01, 2.82761268e-02,
          2.73639942e-03, 0., 0., 0., 2.73639942e-03, 1.64183974e-02,
          3.10125276e-02, 5.47279883e-03, 0., 0., 0., 0., 0.,
          1.82426628e-03, 3.64853255e-03, 0., 0., 0., 0., 0., 0., 0., 0.,
          0., 0., 0., 0., 0., 0., 0., 0., 0., 0., 0., 0., 0., 0., 0., 0.,
          0., 0., 0., 0., 0., 0., 0., 0., 0., 0., 0., 0., 0., 0., 0., 0.,
          0., 0., 0., 0., 0., 0., 0., 0., 0., 0., 0., 0., 0., 0., 0., 0.,
          0., 0., 0., 0., 0., 0., 0., 0., 0., 0., 0., 0., 0., 0., 0., 0.,
          0., 0., 0., 0., 0., 0., 0., 0., 0., 0., 0., 0., 0., 0., 0., 0.,
          0., 0., 0., 0., 0., 0., 0., 0., 0., 0., 0., 0., 0., 0., 0., 0.,
          0., 0., 0., 0., 0., 0., 0., 0., 0., 0., 0., 0., 0., 0., 0., 0.,
          0., 0., 0., 0., 0., 0., 0., 0., 0., 0., 0., 0., 0., 0., 0., 0.,
          0., 0., 0., 0., 0., 0., 0., 0., 0., 0., 0., 0., 0., 0., 0., 0.,
          0., 0., 0., 0., 0., 0., 0., 0., 0., 0., 4.94117647e-01,
          6.78431392e-01 ]
      - [ 0., 0., 0., 0., 1.76565051e-02, 3.46824229e-02, 1.38729690e-02,
          3.40518318e-02, 0., 0., 0., 1.89176842e-03, 3.59436013e-02,
          3.41148913e-01, 4.79248017e-02, 2.83765271e-02, 0., 0.,
          1.89176842e-03, 1.19812004e-02, 7.12566152e-02, 7.11304963e-01,
          7.75625035e-02, 2.08094530e-02, 0., 0., 1.89176842e-03,
          2.14400422e-02, 5.23389280e-02, 2.86918223e-01, 4.22494970e-02,
          4.41412628e-03, 0., 0., 0., 8.19766335e-03, 1.45035582e-02,
          1.04047269e-01, 1.89176854e-02, 0., 0., 0., 1.89176842e-03,
          6.30589493e-04, 1.26117899e-03, 2.52235793e-02, 7.56707368e-03,
          0., 0., 0., 1.26117899e-03, 0., 0., 0., 0., 0., 0., 0., 0., 0.,
          0., 0., 0., 0., 0., 0., 0., 6.30589493e-04, 6.30589493e-04,
          3.15294741e-03, 1.07200211e-02, 1.19812004e-02, 0., 0., 0.,
          1.26117899e-03, 6.30589493e-04, 3.78353684e-03, 0., 0., 0., 0.,
          0., 6.30589493e-04, 0., 0., 0., 0., 0., 0., 0., 0., 0., 0., 0.,
          0., 0., 0., 0., 0., 0., 0., 0., 0., 0., 0., 0., 0., 0., 0., 0.,
          0., 0., 0., 0., 0., 0., 0., 0., 0., 0., 0., 0., 0., 0., 0., 0.,
          0., 0., 0., 0., 6.30589493e-04, 1.26117899e-03, 6.30589493e-04,
          3.15294741e-03, 1.07200211e-02, 0., 0., 0., 0., 0.,
          6.30589493e-04, 0., 0., 0., 0., 0., 0., 0., 0., 0., 0., 0., 0.,
          0., 0., 0., 0., 0., 0., 0., 0., 0., 0., 0., 0., 0., 0., 0., 0.,
          0., 0., 0., 0., 0., 0., 0., 0., 0., 0., 0., 0., 0., 0., 0., 0.,
          0., 0., 0., 0., 0., 0., 0., 0., 0., 0., 0., 1.26117899e-03, 0.,
          5.04471594e-03, 0., 0., 0., 0., 0., 0., 0., 0., 0., 0., 0., 0.,
          0., 0., 0., 0., 0., 0., 0., 0., 0., 0., 0., 0., 0., 0., 0., 0.,
          0., 0., 0., 0., 0., 0., 0., 0., 0., 0., 0., 0., 0., 0., 0., 0.,
          0., 0., 0., 0., 0., 0., 0., 0., 0., 0., 0., 0., 0., 0., 0., 0.,
          3.78353684e-03, 6.68424889e-02, 2.52235797e-03, 2.52235797e-03,
          0., 0., 6.30589493e-04, 1.26117899e-03, 2.52235797e-03,
          1.26117896e-02, 0., 0., 0., 0., 0., 0., 0., 0., 0., 0., 0., 0.,
          0., 0., 0., 0., 0., 0., 0., 0., 0., 0., 0., 0., 0., 0., 0., 0.,
          0., 0., 0., 0., 0., 0., 0., 0., 0., 0., 0., 0., 0., 0., 0., 0.,
          0., 0., 0., 0., 0., 0., 0., 0., 0., 0., 1.07200211e-02,
          1.66475624e-01, 1.89176842e-03, 2.52235797e-03, 0., 0., 0., 0.,
          2.14400422e-02, 4.48349118e-01, 1.32423788e-02, 1.26117899e-03,
          0., 0., 0., 2.52235797e-03, 3.78353707e-02, 1.50710881e-01,
          1.38729690e-02, 6.30589493e-04, 0., 0., 0., 6.30589493e-04,
          4.41412628e-03, 1.57647375e-02, 5.04471594e-03, 0., 0., 0., 0.,
          0., 0., 0., 0., 0., 0., 0., 0., 0., 0., 0., 0., 0., 0., 0., 0.,
          0., 0., 0., 0., 0., 0., 0., 0., 0., 0., 0., 0., 0., 0., 0., 0.,
          0., 0., 0., 0., 0., 0., 0., 0., 0., 0., 0., 0., 0., 0., 0., 0.,
          0., 0., 0., 0., 0., 0., 0., 0., 0., 0., 0., 0., 0., 0., 0., 0.,
          0., 0., 0., 0., 0., 0., 0., 0., 0., 0., 0., 0., 0., 0., 0., 0.,
          0., 0., 0., 0., 0., 0., 0., 0., 0., 0., 0., 0., 0., 0., 0., 0.,
          0., 0., 0., 0., 0., 0., 0., 0., 0., 0., 0., 0., 0., 0., 0., 0.,
          0., 0., 0., 0., 0., 0., 0., 0., 0., 0., 0., 0., 0., 0., 0., 0.,
          0., 0., 0., 0., 0., 0., 0., 0., 0., 0., 0., 0., 0., 0., 0., 0.,
          0., 0., 0., 0., 0., 0., 0., 0., 0., 0., 0., 0., 0.,
          4.19607848e-01, 7.72549033e-01 ]
      - [ 0., 0., 0., 1.04667572e-03, 4.81470861e-02, 1.81074902e-01,
          4.60537337e-02, 3.03535983e-02, 0., 0., 0., 5.23337908e-03,
          7.43139833e-02, 4.56350625e-01, 2.60622263e-01, 6.17538691e-02,
          0., 0., 2.09335145e-03, 1.25601096e-02, 5.96605204e-02,
          3.38076264e-01, 3.38076264e-01, 6.38472214e-02, 0., 0.,
          1.04667572e-03, 7.32673053e-03, 1.98868401e-02, 1.98868394e-01,
          2.08288476e-01, 2.09335145e-03, 0., 0., 0., 1.04667572e-03,
          2.61668935e-02, 9.10607949e-02, 7.85006806e-02, 2.09335163e-02,
          0., 0., 0., 0., 0., 1.88401639e-02, 3.97736803e-02, 0., 0., 0.,
          0., 0., 0., 0., 0., 0., 0., 0., 0., 0., 0., 0., 0., 0., 0., 0.,
          0., 0., 6.28005480e-03, 8.05940330e-02, 1.25601096e-02,
          7.32673053e-03, 0., 0., 0., 0., 0., 1.25601096e-02,
          1.04667582e-02, 1.77934878e-02, 0., 0., 0., 0., 0.,
          1.04667572e-03, 0., 0., 0., 0., 0., 0., 0., 0., 0., 0., 0., 0.,
          0., 0., 0., 0., 0., 0., 0., 0., 0., 0., 0., 0., 0., 0., 0., 0.,
          0., 0., 0., 0., 0., 0., 0., 0., 0., 0., 0., 0., 0., 0., 0., 0.,
          0., 0., 3.03535983e-02, 1.14087656e-01, 6.38472214e-02,
          6.59405738e-02, 0., 0., 0., 0., 1.04667572e-03, 4.39603813e-02,
          7.74540082e-02, 1.57001372e-02, 0., 0., 0., 0., 0.,
          1.04667572e-03, 1.57001372e-02, 2.09335145e-03, 0., 0., 0., 0.,
          0., 0., 0., 0., 0., 0., 0., 0., 0., 0., 0., 0., 0., 0., 0., 0.,
          0., 0., 0., 0., 0., 0., 0., 0., 0., 0., 0., 0., 0., 0., 0., 0.,
          0., 0., 0., 0., 0., 0., 0., 0., 5.33804633e-02, 1.83168262e-01,
          1.17227688e-01, 9.42008197e-02, 0., 0., 0., 0., 1.25601096e-02,
          3.27609509e-01, 2.79462427e-01, 1.46534611e-02, 0., 0., 0., 0.,
          2.09335145e-03, 6.28005480e-03, 5.75671680e-02, 9.00141150e-02,
          0., 0., 0., 0., 0., 0., 0., 4.18670289e-03, 0., 0., 0., 0., 0.,
          0., 0., 0., 0., 0., 0., 0., 0., 0., 0., 0., 0., 0., 0., 0., 0.,
          0., 0., 0., 0., 0., 0., 0., 0., 0., 0., 0., 0., 0., 0.,
          3.14002740e-03, 7.85006806e-02, 5.44271395e-02, 7.32673053e-03,
          1.25601096e-02, 0., 0., 0., 0., 6.28005480e-03, 3.14002740e-03,
          4.18670289e-03, 0., 0., 0., 0., 0., 0., 0., 0., 0., 0., 0., 0.,
          0., 0., 0., 0., 0., 0., 0., 0., 0., 0., 0., 0., 0., 0., 0., 0.,
          0., 0., 0., 0., 0., 0., 0., 0., 0., 0., 0., 0., 0., 0., 0., 0.,
          0., 0., 0., 0., 0., 0., 0., 0., 0., 4.18670326e-02,
          1.19321041e-01, 1.25601096e-02, 1.04667582e-02, 0., 0., 0.,
          4.18670289e-03, 6.90805987e-02, 1.09900959e-01, 3.87270041e-02,
          0., 0., 0., 0., 2.09335145e-03, 2.19801906e-02, 6.28005480e-03,
          5.23337908e-03, 0., 0., 0., 0., 0., 0., 0., 2.09335145e-03, 0.,
          0., 0., 0., 0., 0., 0., 0., 0., 0., 0., 0., 0., 0., 0., 0., 0.,
          0., 0., 0., 0., 0., 0., 0., 0., 0., 0., 0., 0., 0., 0., 0., 0.,
          0., 0., 0., 0., 0., 0., 0., 0., 0., 0., 0., 0., 0., 0., 0., 0.,
          0., 0., 0., 0., 0., 0., 0., 0., 0., 0., 0., 0., 0., 0., 0., 0.,
          0., 0., 0., 0., 0., 0., 0., 0., 0., 0., 0., 0., 0., 0., 0., 0.,
          0., 0., 0., 0., 0., 0., 0., 0., 0., 0., 0., 0., 0., 0., 0., 0.,
          0., 0., 0., 0., 0., 0., 0., 0., 0., 0., 0., 0., 0., 0., 0., 0.,
          0., 0., 0., 0., 0., 0., 0., 0., 0., 0., 0., 0., 0., 0., 0., 0.,
          0., 0., 0., 0., 0., 0., 0., 0., 0., 0., 0., 0., 0., 0., 0., 0.,
          0., 0., 0., 0., 0., 0., 0., 0., 0., 0., 0., 0., 0., 0., 0., 0.,
          3.64705890e-01, 8.31372559e-01 ]
      - [ 0., 0., 0., 0., 1.19708898e-03, 1.31679783e-02, 1.79563351e-02,
          1.49636120e-02, 0., 0., 0., 1.79563346e-03, 5.98544488e-03,
          5.44675477e-02, 5.08762822e-02, 1.01752561e-02, 0., 0., 0.,
          5.98544488e-04, 1.19708898e-02, 2.71140665e-01, 2.48994499e-01,
          1.43650677e-02, 0., 0., 0., 3.59126693e-03, 1.67592447e-02,
          2.83710092e-01, 5.21332264e-01, 4.78835590e-03, 0., 0., 0.,
          5.98544488e-04, 1.37665235e-02, 3.36980551e-01, 5.80588162e-01,
          5.98544488e-04, 0., 0., 0., 0., 4.78835590e-03, 1.17913261e-01,
          1.95724040e-01, 4.18981118e-03, 0., 0., 0., 0., 0.,
          1.01752561e-02, 2.99272244e-03, 0., 0., 0., 0., 0., 0., 0., 0.,
          0., 0., 0., 0., 0., 1.19708898e-03, 1.79563346e-03,
          2.99272244e-03, 2.39417795e-03, 0., 0., 0., 0., 4.18981118e-03,
          0., 5.98544488e-04, 0., 0., 0., 0., 0., 0., 0., 0., 0., 0., 0.,
          0., 0., 0., 0., 0., 0., 0., 0., 0., 0., 0., 0., 0., 0., 0., 0.,
          0., 0., 0., 0., 0., 0., 0., 0., 0., 0., 0., 0., 0., 0., 0., 0.,
          0., 0., 0., 0., 0., 0., 0., 0., 0., 0., 1.19708898e-03,
          3.59126693e-03, 8.97816755e-03, 6.58398913e-03, 0., 0., 0., 0.,
          5.98544488e-04, 0., 6.58398913e-03, 4.18981118e-03, 0., 0., 0.,
          0., 0., 0., 0., 0., 0., 0., 0., 0., 0., 0., 0., 0., 0., 0., 0.,
          0., 0., 0., 0., 0., 0., 0., 0., 0., 0., 0., 0., 0., 0., 0., 0.,
          0., 0., 0., 0., 0., 0., 0., 0., 0., 0., 0., 0., 0., 0., 0., 0.,
          0., 0., 5.98544488e-04, 4.78835590e-03, 1.19708898e-03, 0., 0.,
          0., 0., 0., 0., 2.99272244e-03, 0., 0., 0., 0., 0., 0., 0., 0.,
          0., 0., 0., 0., 0., 0., 0., 0., 0., 0., 0., 0., 0., 0., 0., 0.,
          0., 0., 0., 0., 0., 0., 0., 0., 0., 0., 0., 0., 0., 0., 0., 0.,
          0., 0., 0., 0., 0., 0., 0., 0., 0., 0., 0., 0., 0.,
          5.98544488e-04, 2.39417795e-03, 1.19708898e-03, 1.19708898e-03,
          0., 0., 0., 0., 0., 0., 0., 0., 0., 0., 0., 0., 0., 0., 0., 0.,
          0., 0., 0., 0., 0., 0., 0., 0., 0., 0., 0., 0., 0., 0., 0., 0.,
          0., 0., 0., 0., 0., 0., 0., 0., 0., 0., 0., 0., 0., 0., 0., 0.,
          0., 0., 0., 0., 0., 0., 0., 0., 0., 0., 0., 0., 0.,
          1.19708898e-03, 1.79563346e-03, 1.19708898e-03, 0., 0., 0.,
          5.98544488e-04, 2.39417795e-03, 1.25694340e-02, 3.59126693e-03,
          1.19708898e-03, 0., 0., 0., 5.98544488e-04, 2.99272244e-03,
          2.93286797e-02, 2.03505121e-02, 0., 0., 0., 0., 0.,
          1.79563346e-03, 1.25694340e-02, 2.99272244e-03, 0., 0., 0., 0.,
          0., 0., 2.99272244e-03, 5.98544488e-04, 0., 0., 0., 0., 0., 0.,
          0., 0., 0., 0., 0., 0., 0., 0., 0., 0., 0., 0., 0., 0., 0., 0.,
          0., 0., 0., 0., 0., 0., 0., 0., 0., 0., 0., 0., 0., 0., 0., 0.,
          0., 0., 0., 0., 0., 0., 0., 0., 0., 0., 0., 0., 0., 0., 0., 0.,
          0., 0., 0., 0., 0., 0., 0., 0., 0., 0., 0., 0., 0., 0., 0., 0.,
          0., 0., 0., 0., 0., 0., 0., 0., 0., 0., 0., 0., 0., 0., 0., 0.,
          0., 0., 0., 0., 0., 0., 0., 0., 0., 0., 0., 0., 0., 0., 0., 0.,
          0., 0., 0., 0., 0., 0., 0., 0., 0., 0., 0., 0., 0., 0., 0., 0.,
          0., 0., 0., 0., 0., 0., 0., 0., 0., 0., 0., 0., 0., 0., 0., 0.,
          0., 0., 0., 0., 0., 0., 0., 0., 0., 0., 0., 0., 0., 0., 0., 0.,
          0., 0., 0., 3.52941185e-01, 8.43137264e-01 ]
      - [ 0., 0., 3.30975023e-03, 7.44693819e-03, 2.97877528e-02,
          4.21993136e-02, 8.27437558e-04, 8.27437558e-04, 0., 0.,
          6.61950046e-03, 2.64780018e-02, 9.18455720e-02, 9.68101919e-02,
          8.27437558e-04, 0., 0., 0., 1.65487512e-03, 7.44693819e-03,
          1.58040568e-01, 1.28252819e-01, 1.32390009e-02, 0., 0., 0.,
          1.65487512e-03, 2.48231273e-03, 9.10181329e-02, 6.61950037e-02,
          1.48938764e-02, 0., 0., 0., 0., 8.27437558e-04, 2.89603136e-02,
          2.06859391e-02, 1.57213137e-02, 2.48231273e-03, 0., 0., 0.,
          8.27437558e-04, 8.27437558e-04, 1.32390009e-02, 2.31682509e-02,
          7.44693819e-03, 0., 0., 0., 0., 0., 2.48231273e-03,
          9.10181273e-03, 1.15841255e-02, 0., 0., 0., 0., 0., 0., 0.,
          8.27437558e-04, 0., 0., 8.27437558e-04, 0., 1.40664382e-02,
          1.32390009e-02, 0., 0., 0., 0., 0., 8.27437558e-04,
          9.92925093e-03, 4.96462546e-03, 0., 0., 0., 0., 0., 0., 0., 0.,
          0., 0., 0., 0., 0., 0., 0., 0., 0., 0., 0., 0., 0., 0., 0., 0.,
          0., 0., 0., 0., 0., 0., 0., 0., 0., 0., 0., 0., 0., 0., 0., 0.,
          0., 0., 0., 0., 0., 0., 0., 0., 0., 0., 0., 0., 4.96462546e-03,
          2.48231273e-03, 9.10181273e-03, 5.79206273e-03, 0., 0., 0., 0.,
          0., 0., 0., 0., 0., 0., 0., 0., 0., 0., 0., 0., 0., 0., 0., 0.,
          0., 0., 0., 0., 0., 0., 0., 0., 0., 0., 0., 0., 0., 0., 0., 0.,
          0., 0., 0., 0., 0., 0., 0., 0., 0., 0., 0., 0., 0., 0., 0., 0.,
          0., 0., 0., 0., 0., 0., 0., 0., 0., 4.13718773e-03,
          9.92925093e-02, 1.07566882e-02, 0., 0., 0., 0., 0.,
          9.92925093e-03, 2.21753269e-01, 6.37126938e-02, 0., 0., 0., 0.,
          0., 0., 6.61950046e-03, 1.15841255e-02, 0., 0., 0., 0., 0., 0.,
          0., 0., 0., 0., 0., 0., 0., 0., 0., 0., 0., 0., 0., 0., 0., 0.,
          0., 0., 0., 0., 0., 0., 0., 0., 0., 0., 0., 0., 0., 0., 0., 0.,
          0., 0., 0., 0., 0., 0., 0., 2.97877528e-02, 2.27545321e-01,
          6.53675646e-02, 1.65487512e-03, 0., 0., 0., 0., 7.61242583e-02,
          5.45281351e-01, 7.11596310e-02, 0., 0., 0., 0., 0.,
          1.65487512e-03, 2.48231273e-03, 6.61950046e-03, 0., 0., 0., 0.,
          0., 0., 0., 0., 0., 0., 0., 0., 0., 0., 0., 0., 0., 0., 0., 0.,
          0., 0., 0., 0., 0., 0., 0., 0., 0., 0., 0., 0., 0., 0., 0., 0.,
          0., 0., 0., 0., 0., 0., 0., 0., 0., 2.39956882e-02,
          7.11596310e-02, 7.28145018e-02, 8.27437558e-04, 8.27437558e-04,
          0., 0., 0., 7.03321919e-02, 4.48471159e-01, 3.65727395e-01,
          8.27437558e-04, 0., 0., 0., 0., 2.56505646e-02, 3.24355513e-01,
          1.88655764e-01, 0., 0., 0., 0., 0., 0., 9.10181273e-03, 0., 0.,
          0., 0., 0., 0., 0., 0., 0., 0., 0., 0., 0., 0., 0., 0., 0., 0.,
          0., 0., 0., 0., 0., 0., 0., 0., 0., 0., 0., 0., 0., 0., 0., 0.,
          0., 0., 0., 0., 0., 0., 0., 0., 0., 0., 0., 0., 0., 0., 0., 0.,
          0., 0., 0., 0., 0., 0., 0., 0., 0., 0., 0., 0., 0., 0., 0., 0.,
          0., 0., 0., 0., 0., 0., 0., 0., 0., 0., 0., 0., 0., 0., 0., 0.,
          0., 0., 0., 0., 0., 0., 0., 0., 0., 0., 0., 0., 0., 0., 0., 0.,
          0., 0., 0., 0., 0., 0., 0., 0., 0., 0., 0., 0., 0., 0., 0., 0.,
          0., 0., 0., 0., 0., 0., 0., 0., 0., 0., 0., 0., 0., 0., 0., 0.,
          0., 0., 0., 0., 0., 0., 0., 0., 0., 0., 0., 0., 0., 0., 0., 0.,
          0., 0., 0., 0., 0., 0., 0., 0., 0., 0., 0., 0., 0., 0., 0., 0.,
          0., 6.11764729e-01, 5.68627477e-01 ]
      - [ 0., 0., 0., 1.21376812e-02, 4.35528532e-02, 4.14109118e-02,
          4.28388733e-03, 2.14194376e-02, 0., 0., 1.21376812e-02,
          5.85464612e-02, 1.71355501e-01, 9.06756148e-02, 7.13981222e-03,
          2.85592489e-03, 0., 2.14194367e-03, 7.85379391e-03,
          4.21248935e-02, 3.17721635e-01, 1.22804768e-01, 1.99914742e-02,
          0., 0., 0., 0., 5.71184978e-03, 1.16378941e-01, 1.49936061e-02,
          1.57075878e-02, 0., 0., 0., 0., 2.85592489e-03, 2.57033240e-02,
          1.42796244e-02, 2.07054559e-02, 0., 0., 0., 0., 0.,
          6.42583100e-03, 1.99914742e-02, 1.35656437e-02, 0., 0., 0., 0.,
          0., 0., 0., 0., 0., 0., 0., 0., 0., 0., 0., 0., 0., 0., 0., 0.,
          1.42796244e-03, 4.99786856e-03, 1.14236996e-02, 7.13981222e-04,
          8.56777467e-03, 0., 0., 7.13981222e-04, 1.42796244e-03,
          3.56990611e-03, 7.13981222e-04, 0., 0., 0., 0., 0., 0., 0., 0.,
          0., 0., 0., 0., 0., 0., 0., 0., 0., 0., 0., 0., 0., 0., 0., 0.,
          0., 0., 0., 0., 0., 0., 0., 0., 0., 0., 0., 0., 0., 0., 0., 0.,
          0., 0., 0., 0., 0., 0., 0., 0., 0., 0., 0., 0., 0., 0.,
          4.99786856e-03, 2.14194367e-03, 0., 0., 0., 0., 0., 0., 0., 0.,
          0., 0., 0., 0., 0., 0., 0., 0., 0., 0., 0., 0., 0., 0., 0., 0.,
          0., 0., 0., 0., 0., 0., 0., 0., 0., 0., 0., 0., 0., 0., 0., 0.,
          0., 0., 0., 0., 0., 0., 0., 0., 0., 0., 0., 0., 0., 0., 0., 0.,
          0., 0., 0., 0., 0., 4.99786856e-03, 6.14023842e-02, 0., 0., 0.,
          0., 0., 0., 0., 1.42796244e-03, 0., 0., 0., 0., 0., 0., 0., 0.,
          0., 0., 0., 0., 0., 0., 0., 0., 0., 0., 0., 0., 0., 0., 0., 0.,
          0., 0., 0., 0., 0., 0., 0., 0., 0., 0., 0., 0., 0., 0., 0., 0.,
          0., 0., 0., 0., 0., 0., 0., 0., 0., 0., 0., 0., 0., 0.,
          4.14109118e-02, 2.85592496e-01, 1.42796244e-03, 0.,
          2.85592489e-03, 0., 0., 0., 1.49936061e-02, 1.09953113e-01,
          1.28516620e-02, 0., 0., 0., 0., 0., 0., 4.28388733e-03, 0., 0.,
          0., 0., 0., 0., 0., 0., 0., 0., 0., 0., 0., 0., 0., 0., 0., 0.,
          0., 0., 0., 0., 0., 0., 0., 0., 0., 0., 0., 0., 0., 0., 0., 0.,
          0., 0., 0., 0., 0., 0., 0., 0., 0., 0., 0., 7.13981222e-04,
          1.71355493e-02, 2.22048163e-01, 1.42796244e-02, 7.13981222e-04,
          3.56990611e-03, 0., 0., 2.14194367e-03, 1.10667087e-01,
          7.46110380e-01, 1.96344838e-01, 0., 7.13981222e-04, 0.,
          7.13981222e-04, 0., 5.99744245e-02, 2.39183709e-01,
          4.35528532e-02, 0., 0., 0., 0., 0., 2.85592489e-03,
          2.07054559e-02, 7.13981222e-04, 0., 0., 0., 0., 0., 0., 0., 0.,
          0., 0., 0., 0., 0., 0., 0., 0., 0., 0., 0., 0., 0., 0., 0., 0.,
          0., 0., 0., 0., 0., 0., 0., 0., 0., 0., 0., 0., 0., 0., 0., 0.,
          0., 0., 0., 0., 0., 0., 0., 0., 0., 0., 0., 0., 0., 0., 0., 0.,
          0., 0., 0., 0., 0., 0., 0., 0., 0., 0., 0., 0., 0., 0., 0., 0.,
          0., 0., 0., 0., 0., 0., 0., 0., 0., 0., 0., 0., 0., 0., 0., 0.,
          0., 0., 0., 0., 0., 0., 0., 0., 0., 0., 0., 0., 0., 0., 0., 0.,
          0., 0., 0., 0., 0., 0., 0., 0., 0., 0., 0., 0., 0., 0., 0., 0.,
          0., 0., 0., 0., 0., 0., 0., 0., 0., 0., 0., 0., 0., 0., 0., 0.,
          0., 0., 0., 0., 0., 0., 0., 0., 0., 0., 0., 0., 0., 0., 0., 0.,
          0., 0., 0., 0., 0., 0., 0., 0., 0., 0., 9.80392173e-02,
          9.13725495e-01 ]
      - [ 0., 0., 0., 2.74134567e-03, 6.16802741e-03, 3.22108120e-02,
          2.53574457e-02, 1.02800457e-02, 0., 0., 0., 4.11201827e-03,
          1.50774010e-02, 2.94694658e-02, 3.90641727e-02, 0., 0., 0., 0.,
          0., 4.79735481e-03, 3.90641727e-02, 8.22403654e-03,
          8.22403654e-03, 0., 0., 0., 0., 6.85336418e-04, 2.53574457e-02,
          3.83788384e-02, 3.42668197e-03, 0., 0., 0., 0., 0.,
          2.05600914e-03, 1.50774010e-02, 0., 0., 0., 0., 0., 0., 0., 0.,
          0., 0., 0., 0., 0., 0., 0., 0., 0., 0., 0., 0., 0., 0., 0., 0.,
          0., 0., 0., 0., 2.05600914e-03, 2.74134567e-03, 1.50774010e-02,
          6.85336394e-03, 2.05600914e-03, 0., 0., 0., 6.85336418e-04,
          6.85336418e-04, 1.37067284e-03, 0., 0., 0., 0., 0., 0., 0., 0.,
          0., 0., 0., 0., 0., 0., 0., 0., 0., 0., 0., 0., 0., 0., 0., 0.,
          0., 0., 0., 0., 0., 0., 0., 0., 0., 0., 0., 0., 0., 0., 0., 0.,
          0., 0., 0., 0., 0., 0., 0., 0., 0., 0., 0., 0., 0., 0.,
          2.05600914e-03, 1.78187471e-02, 3.76935005e-02, 5.96242659e-02,
          0., 0., 0., 0., 1.37067284e-03, 1.64480731e-02, 2.39867736e-02,
          1.30213918e-02, 0., 0., 0., 0., 0., 3.42668197e-03,
          1.37067284e-03, 0., 0., 0., 0., 0., 0., 0., 0., 0., 0., 0., 0.,
          0., 0., 0., 0., 0., 0., 0., 0., 0., 0., 0., 0., 0., 0., 0., 0.,
          0., 0., 0., 0., 0., 0., 0., 0., 0., 0., 0., 0., 0., 0., 0., 0.,
          1.37067284e-03, 1.98747553e-02, 8.36110413e-02, 2.53574457e-02,
          5.61975837e-02, 0., 0., 0., 1.37067284e-03, 8.15550312e-02,
          4.91386205e-01, 4.85218167e-01, 6.44216239e-02, 0., 0., 0.,
          6.85336418e-04, 4.52322029e-02, 2.22048998e-01, 6.22970760e-01,
          4.11201827e-02, 0., 0., 0., 0., 0., 1.23360548e-02,
          1.59683377e-01, 1.03485793e-01, 0., 0., 0., 0., 0., 0.,
          3.42668197e-03, 1.23360548e-02, 0., 0., 0., 0., 0., 0., 0., 0.,
          0., 0., 0., 0., 0., 0., 0., 0., 0., 0., 0., 0., 0., 0., 0., 0.,
          0., 0., 0., 6.85336418e-04, 3.56374942e-02, 4.11201827e-02,
          1.57627370e-02, 2.67281197e-02, 0., 0., 0., 6.85336418e-04,
          2.80987918e-02, 3.49521562e-02, 1.37067284e-03, 6.85336418e-04,
          0., 0., 0., 0., 3.42668197e-03, 0., 0., 0., 0., 0., 0., 0., 0.,
          0., 0., 0., 0., 0., 0., 0., 0., 0., 0., 0., 0., 0., 0., 0., 0.,
          0., 0., 0., 0., 0., 0., 0., 0., 0., 0., 0., 0., 0., 0., 0., 0.,
          0., 0., 0., 0., 0., 0., 0., 1.37067279e-02, 2.53574457e-02,
          8.90937354e-03, 6.16802741e-03, 0., 0., 0., 6.85336418e-04,
          2.19307654e-02, 3.01548019e-02, 4.11201827e-03, 1.37067284e-03,
          0., 0., 0., 1.37067284e-03, 6.85336418e-04, 6.85336418e-04, 0.,
          0., 0., 0., 0., 0., 0., 0., 2.05600914e-03, 0., 0., 0., 0., 0.,
          0., 0., 0., 0., 0., 0., 0., 0., 0., 0., 0., 0., 0., 0., 0., 0.,
          0., 0., 0., 0., 0., 0., 0., 0., 0., 0., 0., 0., 0., 0., 0., 0.,
          0., 0., 0., 0., 0., 0., 0., 0., 0., 0., 0., 0., 0., 0., 0., 0.,
          0., 0., 0., 0., 0., 0., 0., 0., 0., 0., 0., 0., 0., 0., 0., 0.,
          0., 0., 0., 0., 0., 0., 0., 0., 0., 0., 0., 0., 0., 0., 0., 0.,
          0., 0., 0., 0., 0., 0., 0., 0., 0., 0., 0., 0., 0., 0., 0., 0.,
          0., 0., 0., 0., 0., 0., 0., 0., 0., 0., 0., 0., 0., 0., 0., 0.,
          0., 0., 0., 0., 0., 0., 0., 0., 0., 0., 0., 0., 0., 0., 0., 0.,
          0., 0., 0., 0., 0., 0., 0., 0., 0., 0., 0., 0., 0., 0., 0., 0.,
          0., 0., 0., 0., 0., 0., 0., 0., 0., 0., 0., 0., 5.80392182e-01,
          6.58823550e-01 ]
      - [ 0., 0., 0., 0., 2.36738450e-03, 5.32661518e-03, 8.28584563e-03,
          9.11443010e-02, 0., 0., 0., 1.18369225e-03, 3.55107663e-03,
          4.14292281e-03, 1.77553836e-02, 5.56335337e-02, 0., 0., 0.,
          1.18369225e-03, 6.51030708e-03, 2.01227684e-02, 3.49189192e-02,
          6.98378384e-02, 0., 0., 0., 1.77553832e-03, 7.10215326e-03,
          2.95923054e-02, 7.98992217e-02, 6.98378384e-02, 0., 0., 0.,
          5.91846125e-04, 5.91846090e-03, 2.66330745e-02, 3.07168126e-01,
          4.31455821e-01, 0., 0., 0., 5.91846125e-04, 4.73476900e-03,
          5.91846108e-02, 6.10193312e-01, 5.26743054e-01, 0., 0., 0.,
          5.91846125e-04, 2.95923045e-03, 3.90618443e-02, 1.55655533e-01,
          8.16747621e-02, 0., 0., 0., 0., 1.77553832e-03, 2.36738450e-03,
          0., 5.91846125e-04, 0., 0., 0., 0., 5.91846125e-04,
          5.91846125e-04, 1.77553832e-03, 3.31433825e-02, 0., 0., 0., 0.,
          0., 1.18369225e-03, 3.55107663e-03, 8.87769181e-03, 0., 0., 0.,
          0., 0., 0., 1.77553832e-03, 0., 0., 0., 0., 0., 0., 0., 0., 0.,
          0., 0., 0., 0., 0., 0., 0., 0., 0., 0., 0., 0., 0., 0., 0., 0.,
          0., 0., 0., 0., 0., 0., 0., 0., 0., 0., 0., 0., 0., 0., 0., 0.,
          0., 0., 0., 0., 5.91846125e-04, 2.36738450e-03, 2.36738450e-03,
          2.36738436e-02, 0., 0., 0., 0., 5.91846125e-04, 5.91846125e-04,
          5.91846125e-04, 5.91846125e-04, 0., 0., 0., 0., 0., 0., 0., 0.,
          0., 0., 0., 0., 0., 0., 0., 0., 0., 0., 0., 0., 0., 0., 0., 0.,
          0., 0., 0., 0., 0., 0., 0., 0., 0., 0., 0., 0., 0., 0., 0., 0.,
          0., 0., 0., 0., 0., 0., 0., 0., 0., 0., 0., 5.91846125e-04, 0.,
          1.77553832e-03, 2.36738450e-03, 1.06532304e-02, 0., 0., 0.,
          1.77553832e-03, 1.77553832e-03, 1.18369225e-03, 1.18369225e-03,
          1.18369225e-03, 0., 0., 0., 0., 0., 0., 0., 0., 0., 0., 0., 0.,
          0., 0., 0., 0., 0., 0., 0., 0., 0., 0., 0., 0., 0., 0., 0., 0.,
          0., 0., 0., 0., 0., 0., 0., 0., 0., 0., 0., 0., 0., 0., 0., 0.,
          0., 0., 0., 0., 0., 0., 0., 5.91846125e-04, 1.77553832e-03,
          5.91846125e-04, 1.18369225e-03, 6.51030708e-03, 0., 0., 0.,
          2.36738450e-03, 2.36738450e-03, 1.18369225e-03, 0., 0., 0., 0.,
          0., 0., 1.77553832e-03, 0., 0., 0., 0., 0., 0., 0., 0., 0., 0.,
          0., 0., 0., 0., 0., 0., 0., 0., 0., 0., 0., 0., 0., 0., 0., 0.,
          0., 0., 0., 0., 0., 0., 0., 0., 0., 0., 0., 0., 0., 0., 0., 0.,
          0., 0., 0., 0., 1.18369225e-03, 5.91846125e-04, 5.91846125e-04,
          1.18369225e-03, 1.89390760e-02, 0., 0., 0., 1.77553832e-03,
          2.36738450e-03, 2.95923045e-03, 3.55107663e-03, 1.77553832e-03,
          0., 0., 0., 2.36738450e-03, 1.18369225e-03, 3.55107663e-03,
          1.18369225e-03, 0., 0., 0., 0., 1.18369225e-03, 2.95923045e-03,
          5.91846125e-04, 0., 0., 0., 0., 0., 0., 0., 0., 1.77553832e-03,
          0., 0., 0., 0., 0., 0., 0., 0., 0., 0., 0., 0., 0., 0., 0., 0.,
          0., 0., 0., 0., 0., 0., 0., 0., 0., 0., 0., 0., 0., 0., 0., 0.,
          0., 0., 0., 0., 0., 0., 0., 0., 0., 0., 0., 0., 0., 0., 0., 0.,
          0., 0., 0., 0., 0., 0., 0., 0., 0., 0., 0., 0., 0., 0., 0., 0.,
          0., 0., 0., 0., 0., 0., 0., 0., 0., 0., 0., 0., 0., 0., 0., 0.,
          0., 0., 0., 0., 0., 0., 0., 0., 0., 0., 0., 0., 0., 0., 0., 0.,
          0., 0., 0., 0., 0., 0., 0., 0., 0., 0., 0., 0., 0., 0., 0., 0.,
          0., 0., 0., 0., 0., 0., 0., 0., 0., 0., 0., 0., 0., 0., 0., 0.,
          0., 0., 0., 0., 0., 0., 0., 0., 0., 0., 0., 0., 0., 0., 0., 0.,
          0., 0., 0., 0., 0., 0., 0., 0., 0., 5.29411793e-01,
          6.03921592e-01 ]
      - [ 0., 0., 0., 1.45199588e-02, 9.05362144e-02, 6.14962950e-02,
          8.54115188e-03, 4.09975313e-02, 0., 0., 0., 4.09975313e-02,
          1.25554934e-01, 6.32045269e-02, 3.50187235e-02, 3.41646071e-03,
          0., 0., 8.54115176e-04, 2.81858016e-02, 1.22138478e-01,
          3.84351835e-02, 1.02493828e-02, 0., 0., 0., 0., 2.56234570e-03,
          2.90399175e-02, 1.28117278e-02, 1.70823035e-03, 0., 0., 0., 0.,
          0., 1.02493828e-02, 1.70823038e-02, 5.12469141e-03, 0., 0., 0.,
          0., 0., 1.70823035e-03, 1.62281897e-02, 2.56234570e-03, 0., 0.,
          0., 0., 0., 8.54115176e-04, 7.68703688e-03, 8.54115176e-04, 0.,
          0., 0., 0., 0., 0., 0., 0., 0., 0., 0., 0., 4.27057594e-03,
          1.62281897e-02, 4.61222194e-02, 9.39526688e-03, 1.45199588e-02,
          0., 0., 0., 0., 6.83292141e-03, 5.12469141e-03, 1.70823035e-03,
          0., 0., 0., 0., 8.54115176e-04, 1.70823035e-03, 0., 0., 0., 0.,
          0., 0., 0., 0., 0., 0., 0., 0., 0., 0., 0., 0., 0., 0., 0., 0.,
          0., 0., 0., 0., 0., 0., 0., 0., 0., 0., 0., 0., 0., 0., 0., 0.,
          0., 0., 0., 0., 0., 0., 0., 0., 0., 0., 0., 1.96446497e-02,
          2.04987656e-02, 0., 0., 0., 0., 0., 0., 1.70823035e-03, 0., 0.,
          0., 0., 0., 0., 0., 0., 0., 0., 0., 0., 0., 0., 0., 0., 0., 0.,
          0., 0., 0., 0., 0., 0., 0., 0., 0., 0., 0., 0., 0., 0., 0., 0.,
          0., 0., 0., 0., 0., 0., 0., 0., 0., 0., 0., 0., 0., 0., 0., 0.,
          0., 0., 0., 0., 1.70823035e-03, 2.19507605e-01, 1.66552469e-01,
          8.54115188e-03, 0., 0., 0., 0., 0., 3.10897946e-01,
          3.98017675e-01, 5.97880641e-03, 0., 0., 0., 0., 0.,
          8.54115176e-04, 0., 0., 0., 0., 0., 0., 0., 0., 0., 0., 0., 0.,
          0., 0., 0., 0., 0., 0., 0., 0., 0., 0., 0., 0., 0., 0., 0., 0.,
          0., 0., 0., 0., 0., 0., 0., 0., 0., 0., 0., 0., 0., 0., 0., 0.,
          0., 0., 4.61222194e-02, 5.01365602e-01, 1.40929013e-01, 0., 0.,
          0., 0., 0., 7.25997910e-02, 3.35667282e-01, 8.02868307e-02, 0.,
          0., 0., 0., 0., 0., 8.54115176e-04, 5.12469141e-03, 0., 0., 0.,
          0., 0., 0., 0., 0., 0., 0., 0., 0., 0., 0., 0., 0., 0., 0., 0.,
          0., 0., 0., 0., 0., 0., 0., 0., 0., 0., 0., 0., 0., 0., 0., 0.,
          0., 0., 0., 0., 0., 0., 0., 0., 0., 0., 2.81858016e-02,
          2.19507605e-01, 4.95386831e-02, 0., 0., 0., 0., 0.,
          8.19950625e-02, 3.53603691e-01, 1.29825518e-01, 0., 0., 0., 0.,
          0., 2.04987656e-02, 1.05056167e-01, 1.79364197e-02, 0., 0., 0.,
          0., 0., 0., 2.56234570e-03, 0., 0., 0., 0., 0., 0., 0., 0., 0.,
          0., 0., 0., 0., 0., 0., 0., 0., 0., 0., 0., 0., 0., 0., 0., 0.,
          0., 0., 0., 0., 0., 0., 0., 0., 0., 0., 0., 0., 0., 0., 0., 0.,
          0., 0., 0., 0., 0., 0., 0., 0., 0., 0., 0., 0., 0., 0., 0., 0.,
          0., 0., 0., 0., 0., 0., 0., 0., 0., 0., 0., 0., 0., 0., 0., 0.,
          0., 0., 0., 0., 0., 0., 0., 0., 0., 0., 0., 0., 0., 0., 0., 0.,
          0., 0., 0., 0., 0., 0., 0., 0., 0., 0., 0., 0., 0., 0., 0., 0.,
          0., 0., 0., 0., 0., 0., 0., 0., 0., 0., 0., 0., 0., 0., 0., 0.,
          0., 0., 0., 0., 0., 0., 0., 0., 0., 0., 0., 0., 0., 0., 0., 0.,
          0., 0., 0., 0., 0., 0., 0., 0., 0., 0., 0., 0., 0., 0., 0., 0.,
          0., 0., 0., 0., 0., 0., 0., 0., 0., 0., 6.39215708e-01,
          5.72549045e-01 ]
      - [ 0., 0., 0., 0., 6.29075663e-03, 1.11835673e-02, 1.39794592e-02,
          4.12394032e-02, 0., 0., 6.98972959e-04, 4.19383775e-03,
          1.46784317e-02, 6.22085929e-02, 4.54332419e-02, 4.26373482e-02,
          0., 0., 0., 4.19383775e-03, 2.44640540e-02, 2.57222056e-01,
          2.77492255e-01, 3.42496745e-02, 0., 0., 0., 2.79589184e-03,
          1.67753510e-02, 3.01956326e-01, 6.30473614e-01, 1.62860692e-01,
          0., 0., 0., 1.39794592e-03, 2.23671347e-02, 1.96411401e-01,
          4.91377980e-01, 1.48881242e-01, 0., 0., 0., 2.09691888e-03,
          9.08664800e-03, 3.63465920e-02, 1.18825398e-01, 6.98972959e-03,
          0., 0., 0., 6.98972959e-04, 6.98972959e-04, 0., 1.39794592e-03,
          0., 0., 0., 0., 0., 0., 0., 0., 0., 0., 0., 0., 0.,
          1.39794592e-03, 6.29075663e-03, 1.46784317e-02, 2.09691878e-02,
          0., 0., 0., 0., 0., 0., 4.89281071e-03, 2.44640540e-02, 0., 0.,
          0., 0., 0., 0., 5.59178367e-03, 1.39794592e-03, 0., 0., 0., 0.,
          0., 0., 0., 0., 0., 0., 0., 0., 0., 0., 0., 0., 0., 0., 0., 0.,
          0., 0., 0., 0., 0., 0., 0., 0., 0., 0., 0., 0., 0., 0., 0., 0.,
          0., 0., 0., 0., 0., 0., 0., 0., 1.39794592e-03, 4.89281071e-03,
          1.46784317e-02, 6.64024279e-02, 0., 0., 0., 0., 0.,
          1.39794592e-03, 6.98972959e-03, 4.61322144e-02, 0., 0., 0., 0.,
          0., 0., 0., 0., 0., 0., 0., 0., 0., 0., 0., 0., 0., 0., 0., 0.,
          0., 0., 0., 0., 0., 0., 0., 0., 0., 0., 0., 0., 0., 0., 0., 0.,
          0., 0., 0., 0., 0., 0., 0., 0., 0., 0., 0., 0., 0., 0., 0., 0.,
          6.98972959e-04, 1.39794592e-02, 1.74743235e-02, 1.60763785e-02,
          0., 0., 0., 0., 4.19383775e-03, 4.19383775e-03, 6.98972959e-03,
          1.18825398e-02, 0., 0., 0., 0., 0., 6.98972959e-04, 0., 0., 0.,
          0., 0., 0., 0., 0., 0., 0., 0., 0., 0., 0., 0., 0., 0., 0., 0.,
          0., 0., 0., 0., 0., 0., 0., 0., 0., 0., 0., 0., 0., 0., 0., 0.,
          0., 0., 0., 0., 0., 0., 0., 0., 0., 0., 1.39794592e-03,
          5.59178367e-03, 8.38767551e-03, 4.89281071e-03, 9.08664800e-03,
          0., 0., 0., 2.09691888e-03, 5.59178367e-03, 2.09691888e-03,
          2.09691888e-03, 0., 0., 0., 0., 6.98972959e-04, 2.09691888e-03,
          8.38767551e-03, 2.79589184e-03, 0., 0., 0., 0., 0., 0.,
          7.68870255e-03, 2.79589184e-03, 0., 0., 0., 0., 0.,
          6.98972959e-04, 0., 0., 0., 0., 0., 0., 0., 0., 0., 0., 0., 0.,
          0., 0., 0., 0., 0., 0., 0., 0., 0., 0., 0., 0., 0., 0., 0., 0.,
          0., 0., 0., 4.89281071e-03, 6.98972959e-03, 2.79589184e-03,
          1.53774051e-02, 0., 0., 0., 6.29075663e-03, 3.49486480e-03,
          8.38767551e-03, 3.49486480e-03, 2.09691888e-03, 0., 0., 0.,
          6.98972959e-04, 2.09691888e-03, 1.60763785e-02, 2.72599459e-02,
          0., 0., 0., 0., 0., 0., 1.32804858e-02, 4.89281071e-03, 0., 0.,
          0., 0., 0., 0., 0., 0., 0., 0., 0., 0., 0., 0., 0., 0., 0., 0.,
          0., 0., 0., 0., 0., 0., 0., 0., 0., 0., 0., 0., 0., 0., 0., 0.,
          0., 0., 0., 0., 0., 0., 0., 0., 0., 0., 0., 0., 0., 0., 0., 0.,
          0., 0., 0., 0., 0., 0., 0., 0., 0., 0., 0., 0., 0., 0., 0., 0.,
          0., 0., 0., 0., 0., 0., 0., 0., 0., 0., 0., 0., 0., 0., 0., 0.,
          0., 0., 0., 0., 0., 0., 0., 0., 0., 0., 0., 0., 0., 0., 0., 0.,
          0., 0., 0., 0., 0., 0., 0., 0., 0., 0., 0., 0., 0., 0., 0., 0.,
          0., 0., 0., 0., 0., 0., 0., 0., 0., 0., 0., 0., 0., 0., 0., 0.,
          0., 0., 0., 0., 0., 0., 0., 0., 0., 0., 0., 0., 0., 0., 0., 0.,
          0., 0., 0., 0., 0., 0., 0., 0., 0., 0., 0., 0., 0., 0., 0.,
          3.68627459e-01, 8.19607854e-01 ]
      - [ 0., 0., 0., 0., 1.13686109e-02, 7.47080147e-02, 3.16697024e-02,
          3.16697024e-02, 0., 0., 0., 0., 4.14142236e-02, 3.59735310e-01,
          2.17627689e-01, 1.62408724e-02, 0., 0., 0., 4.87226155e-03,
          8.93247947e-02, 4.72609401e-01, 2.54981697e-01, 2.27372218e-02,
          0., 0., 0., 6.49634888e-03, 5.76550961e-02, 3.80848467e-01,
          1.64032817e-01, 2.43613087e-02, 0., 0., 1.62408722e-03,
          2.43613077e-03, 1.54288290e-02, 1.07189760e-01, 3.73540074e-02,
          0., 0., 0., 2.43613077e-03, 8.12043610e-04, 1.62408722e-03,
          8.93247966e-03, 4.87226155e-03, 0., 0., 0., 0., 0., 0., 0., 0.,
          0., 0., 0., 0., 0., 0., 0., 0., 0., 0., 0., 0., 8.12043610e-04,
          3.24817444e-03, 8.12043622e-03, 1.46167856e-02, 9.74452309e-03,
          0., 0., 0., 0., 1.62408722e-03, 4.87226155e-03, 4.06021811e-03,
          0., 0., 0., 0., 0., 0., 0., 0., 0., 0., 0., 0., 0., 0., 0., 0.,
          0., 0., 0., 0., 0., 0., 0., 0., 0., 0., 0., 0., 0., 0., 0., 0.,
          0., 0., 0., 0., 0., 0., 0., 0., 0., 0., 0., 0., 0., 0., 0., 0.,
          0., 0., 0., 0., 0., 8.12043610e-04, 7.30839279e-03,
          1.05565675e-02, 1.37235373e-01, 0., 0., 0., 0., 8.12043610e-04,
          1.05565675e-02, 9.74452309e-03, 4.06021811e-03, 0., 0., 0., 0.,
          0., 0., 0., 0., 0., 0., 0., 0., 0., 0., 0., 0., 0., 0., 0., 0.,
          0., 0., 0., 0., 0., 0., 0., 0., 0., 0., 0., 0., 0., 0., 0., 0.,
          0., 0., 0., 0., 0., 0., 0., 0., 0., 0., 0., 0., 0., 0., 0., 0.,
          7.30839279e-03, 3.08576580e-02, 1.94890462e-02, 5.52189648e-02,
          0., 0., 0., 0., 0., 5.68430545e-03, 1.62408724e-02,
          4.87226155e-03, 0., 0., 0., 0., 0., 0., 0., 0., 0., 0., 0., 0.,
          0., 0., 0., 0., 0., 0., 0., 0., 0., 0., 0., 0., 0., 0., 0., 0.,
          0., 0., 0., 0., 0., 0., 0., 0., 0., 0., 0., 0., 0., 0., 0., 0.,
          0., 0., 0., 0., 0., 0., 0., 0., 2.59853955e-02, 7.63320997e-02,
          8.12043622e-03, 1.54288290e-02, 0., 0., 0., 0., 3.24817444e-03,
          3.24817449e-02, 8.12043610e-04, 0., 0., 0., 0., 0., 0., 0., 0.,
          0., 0., 0., 0., 0., 0., 0., 0., 0., 0., 0., 0., 0., 0., 0., 0.,
          0., 0., 0., 0., 0., 0., 0., 0., 0., 0., 0., 0., 0., 0., 0., 0.,
          0., 0., 0., 0., 0., 0., 0., 0., 0., 0., 0., 0., 0.,
          2.11131349e-02, 1.02317497e-01, 3.65419611e-02, 2.43613077e-03,
          0., 0., 0., 0., 5.52189648e-02, 5.00218868e-01, 7.30839223e-02,
          3.24817444e-03, 0., 0., 0., 1.62408722e-03, 5.92791848e-02,
          1.36423334e-01, 2.43613087e-02, 0., 0., 0., 0., 0.,
          4.87226155e-03, 3.97901386e-02, 0., 0., 0., 0., 0., 0., 0., 0.,
          0., 0., 0., 0., 0., 0., 0., 0., 0., 0., 0., 0., 0., 0., 0., 0.,
          0., 0., 0., 0., 0., 0., 0., 0., 0., 0., 0., 0., 0., 0., 0., 0.,
          0., 0., 0., 0., 0., 0., 0., 0., 0., 0., 0., 0., 0., 0., 0., 0.,
          0., 0., 0., 0., 0., 0., 0., 0., 0., 0., 0., 0., 0., 0., 0., 0.,
          0., 0., 0., 0., 0., 0., 0., 0., 0., 0., 0., 0., 0., 0., 0., 0.,
          0., 0., 0., 0., 0., 0., 0., 0., 0., 0., 0., 0., 0., 0., 0., 0.,
          0., 0., 0., 0., 0., 0., 0., 0., 0., 0., 0., 0., 0., 0., 0., 0.,
          0., 0., 0., 0., 0., 0., 0., 0., 0., 0., 0., 0., 0., 0., 0., 0.,
          0., 0., 0., 0., 0., 0., 0., 0., 0., 0., 0., 0., 0., 0., 0., 0.,
          0., 0., 0., 0., 0., 0., 0., 0., 0., 0., 3.33333343e-01,
          8.54901969e-01 ]
      - [ 0., 0., 1.14565399e-02, 5.58506288e-02, 1.03108853e-01,
          5.15544266e-02, 6.44430332e-03, 3.79497856e-02, 0., 0.,
          1.50367077e-02, 4.43940908e-02, 5.37025295e-02, 1.86168775e-02,
          5.72826993e-03, 0., 0., 0., 2.14810111e-03, 3.07894498e-02,
          4.08139229e-02, 8.59240443e-03, 7.87637103e-03, 0., 0., 0.,
          7.16033741e-04, 8.59240443e-03, 4.15299572e-02, 1.21725732e-02,
          4.29620221e-03, 0., 0., 0., 0., 0., 7.16033718e-03,
          2.86413496e-03, 0., 0., 0., 0., 0., 0., 0., 0., 0., 0., 0., 0.,
          0., 0., 0., 0., 0., 0., 0., 0., 0., 0., 0., 0., 0., 0., 0., 0.,
          1.43206748e-03, 2.43451465e-02, 2.43451465e-02, 5.01223607e-03,
          4.29620221e-03, 7.16033741e-04, 0., 0., 0., 1.43206748e-03,
          2.86413496e-03, 0., 0., 0., 0., 0., 0., 0., 0., 0., 0., 0., 0.,
          0., 0., 0., 0., 0., 0., 0., 0., 0., 0., 0., 0., 0., 0., 0., 0.,
          0., 0., 0., 0., 0., 0., 0., 0., 0., 0., 0., 0., 0., 0., 0., 0.,
          0., 0., 0., 0., 0., 0., 0., 0., 0., 7.16033741e-04,
          3.58016859e-03, 2.36291122e-02, 2.21970454e-02, 3.07894498e-02,
          2.14810111e-03, 0., 0., 0., 0., 0., 0., 0., 0., 0., 0., 0., 0.,
          0., 0., 0., 0., 0., 0., 0., 0., 0., 0., 0., 0., 0., 0., 0., 0.,
          0., 0., 0., 0., 0., 0., 0., 0., 0., 0., 0., 0., 0., 0., 0., 0.,
          0., 0., 0., 0., 0., 0., 0., 0., 0., 0., 0., 0., 0., 0.,
          7.16033741e-04, 1.93329100e-02, 5.25568724e-01, 1.21725731e-01,
          1.21725732e-02, 2.14810111e-03, 0., 0., 0., 0., 3.34387749e-01,
          5.23420632e-01, 0., 0., 0., 0., 0., 0., 0., 1.43206748e-03, 0.,
          0., 0., 0., 0., 0., 0., 0., 0., 0., 0., 0., 0., 0., 0., 0., 0.,
          0., 0., 0., 0., 0., 0., 0., 0., 0., 0., 0., 0., 0., 0., 0., 0.,
          0., 0., 0., 0., 0., 0., 0., 0., 0., 0., 0., 1.43206748e-03,
          8.59240443e-02, 4.71150190e-01, 3.22215185e-02, 7.16033718e-03,
          7.16033718e-03, 0., 0., 0., 6.94552734e-02, 1.50367081e-01,
