%YAML:1.0
---
opencv_ml_svm:
   format: 3
   svmType: C_SVC
   kernel:
      type: RBF
      gamma: 5.
   C: 2.
   term_criteria: { epsilon:1.1920928955078125e-07, iterations:1000 }
   var_count: 512
   class_count: 2
   class_labels: !!opencv-matrix
      rows: 2
      cols: 1
      dt: i
      data: [ 0, 1 ]
   sv_total: 156
   support_vectors:
      - [ 0., 0., 1.72430323e-03, 4.31075832e-03, 3.44860647e-03,
          8.62151617e-04, 5.17290970e-03, 1.20701231e-02, 0., 0., 0.,
          1.72430333e-02, 1.12079708e-02, 5.17290970e-03, 5.17290970e-03,
          1.12079708e-02, 0., 0., 7.75936479e-03, 2.32780930e-02,
          4.56940345e-02, 1.46565773e-02, 4.31075832e-03, 1.89673360e-02,
          0., 0., 0., 1.89673360e-02, 2.32780930e-02, 2.67267004e-02,
          8.62151664e-03, 1.55187296e-02, 0., 0., 4.31075832e-03,
          1.72430333e-02, 1.12079708e-02, 2.41402462e-02, 1.55187296e-02,
          1.98294874e-02, 0., 0., 0., 0., 6.03506155e-03, 1.20701231e-02,
          1.72430333e-02, 1.37944259e-02, 0., 0., 0., 0., 0.,
          1.72430323e-03, 7.75936479e-03, 0., 0., 0., 0., 0., 0., 0., 0.,
          0., 0., 0., 8.62151617e-04, 2.58645485e-03, 5.17290970e-03,
          7.75936479e-03, 1.03458194e-02, 3.62103693e-02, 0., 0., 0., 0.,
          2.58645485e-03, 7.75936479e-03, 1.81051847e-02, 4.48318832e-02,
          0., 0., 0., 0., 0., 0., 2.58645485e-03, 2.32780930e-02, 0., 0.,
          0., 0., 0., 0., 0., 0., 0., 0., 0., 0., 0., 0., 0., 0., 0., 0.,
          0., 0., 0., 0., 0., 0., 0., 0., 0., 0., 0., 0., 0., 0., 0., 0.,
          0., 0., 0., 0., 0., 0., 0., 0., 2.58645485e-03, 6.03506155e-03,
          9.48366802e-03, 1.03458194e-02, 1.81051847e-02, 8.01801011e-02,
          0., 0., 1.72430323e-03, 1.37944259e-02, 4.13832776e-02,
          2.24159416e-02, 1.81051847e-02, 1.81051847e-02, 0., 0., 0.,
          8.62151617e-04, 3.44860647e-03, 8.62151617e-04, 0., 0., 0., 0.,
          0., 0., 0., 0., 0., 0., 0., 0., 0., 0., 0., 0., 0., 0., 0., 0.,
          0., 0., 0., 0., 0., 0., 0., 0., 0., 0., 0., 0., 0., 0., 0., 0.,
          0., 0., 0., 0., 0., 0., 0., 0., 0., 4.31075832e-03,
          1.12079708e-02, 4.31075832e-03, 1.37944259e-02, 8.44908580e-02,
          0., 0., 5.17290970e-03, 7.06964359e-02, 2.14675754e-01,
          1.76741078e-01, 3.36239114e-02, 2.32780930e-02, 0., 0.,
          8.62151617e-04, 1.14666164e-01, 2.96580166e-01, 6.66443229e-01,
          4.05211262e-02, 1.72430323e-03, 0., 0., 0., 3.79346721e-02,
          1.86224744e-01, 3.86243939e-01, 3.62965822e-01, 2.58645485e-03,
          0., 0., 0., 6.03506155e-03, 1.04320347e-01, 6.12127632e-02,
          2.41402462e-02, 2.58645485e-03, 0., 0., 0., 0., 0., 0., 0., 0.,
          0., 0., 0., 0., 0., 0., 0., 0., 0., 0., 0., 0., 0., 0., 0., 0.,
          0., 0., 0., 1.72430323e-03, 6.89721294e-03, 0., 8.62151617e-04,
          1.03458194e-02, 0., 0., 1.46565773e-02, 4.82804924e-02,
          2.67267004e-02, 0., 0., 0., 0., 0., 6.89721294e-03,
          1.37944259e-02, 8.62151617e-04, 0., 0., 0., 0., 0., 0., 0., 0.,
          0., 0., 0., 0., 0., 0., 0., 0., 0., 0., 0., 0., 0., 0., 0., 0.,
          0., 0., 0., 0., 0., 0., 0., 0., 0., 0., 0., 0., 0., 0., 0., 0.,
          0., 0., 0., 0., 0., 0., 1.20701231e-02, 4.31075832e-03,
          8.62151617e-04, 0., 1.72430323e-03, 0., 0., 8.62151617e-04,
          2.58645490e-02, 7.75936479e-03, 0., 0., 0., 0., 0.,
          1.72430333e-02, 1.55187296e-02, 5.17290970e-03, 0., 0., 0., 0.,
          0., 1.72430323e-03, 3.44860666e-02, 0., 0., 0., 0., 0., 0., 0.,
          3.44860647e-03, 0., 0., 0., 0., 0., 0., 0., 0., 0., 0., 0., 0.,
          0., 0., 0., 0., 0., 0., 0., 0., 0., 0., 0., 0., 0., 0., 0., 0.,
          0., 0., 0., 0., 0., 0., 0., 0., 0., 0., 0., 0., 0., 0., 0., 0.,
          0., 0., 0., 0., 0., 0., 0., 0., 0., 0., 0., 0., 0., 0., 0., 0.,
          0., 0., 0., 0., 0., 0., 0., 0., 0., 0., 0., 0., 0., 0., 0., 0.,
          0., 0., 0., 0., 0., 0., 0., 0., 0., 0., 0., 0., 0., 0., 0., 0.,
          0., 0., 0., 0., 0., 0., 0., 0., 0., 0., 0., 0., 0., 0., 0., 0.,
          0., 0., 0., 0., 0., 0., 0., 0., 0., 0., 0., 0., 0., 0., 0., 0.,
          0., 0., 0., 0., 0., 0., 0., 0., 0., 0., 0., 0., 0., 0., 0., 0.,
          0., 0., 0., 0., 0., 0., 0., 0., 0., 0., 0., 0., 0., 0., 0., 0. ]
      - [ 0., 0., 0., 2.85827033e-02, 1.39050996e-02, 0., 0.,
          1.69951208e-02, 0., 0., 0., 4.40328158e-02, 3.24452333e-02,
          4.63503320e-03, 3.86252766e-03, 2.31751660e-03, 0., 0., 0.,
          2.78101992e-02, 2.31751651e-02, 1.62226167e-02, 1.69951208e-02,
          2.62651872e-02, 0., 0., 0., 4.63503320e-03, 2.54926812e-02,
          1.69951208e-02, 2.39476711e-02, 3.32177356e-02, 0., 0., 0., 0.,
          3.86252766e-03, 9.27006640e-03, 1.54501107e-02, 1.08150775e-02,
          0., 0., 0., 0., 0., 6.95254980e-03, 1.00425715e-02,
          2.85827033e-02, 0., 0., 0., 0., 0., 0., 0., 3.09002213e-03, 0.,
          0., 0., 0., 0., 0., 0., 0., 0., 0., 0., 2.08576489e-02,
          2.47201771e-02, 1.08150775e-02, 8.49756040e-03, 2.85827033e-02,
          0., 0., 0., 5.40753873e-03, 1.62226167e-02, 2.62651872e-02,
          6.56629726e-02, 5.33028804e-02, 0., 0., 0., 0., 1.00425715e-02,
          1.93126388e-02, 2.31751651e-02, 2.78101992e-02, 0., 0., 0., 0.,
          3.09002213e-03, 1.54501107e-02, 1.39050996e-02, 6.18004426e-03,
          0., 0., 0., 0., 0., 3.09002213e-03, 0., 7.72505533e-04, 0., 0.,
          0., 0., 0., 0., 0., 0., 0., 0., 0., 0., 0., 0., 0., 0., 0., 0.,
          0., 0., 0., 0., 0., 0., 0., 0., 0., 1.54501107e-02,
          5.33028804e-02, 3.24452333e-02, 1.77676268e-02, 9.27006602e-02,
          0., 0., 0., 1.23600885e-02, 5.33028804e-02, 1.00425720e-01,
          2.24026609e-02, 1.00425715e-02, 0., 0., 0., 0., 1.08150775e-02,
          6.25729486e-02, 8.49756040e-03, 0., 0., 0., 0., 0., 0., 0., 0.,
          0., 0., 0., 0., 0., 0., 0., 0., 0., 0., 0., 0., 0., 0., 0., 0.,
          0., 0., 0., 0., 0., 0., 0., 0., 0., 0., 0., 0., 0., 0., 0., 0.,
          0., 0., 0., 0., 4.24878038e-02, 4.55778241e-02, 6.95254980e-03,
          1.62226167e-02, 8.42031017e-02, 0., 0., 0., 5.17578684e-02,
          2.23254099e-01, 1.18965849e-01, 1.62226167e-02, 3.09002213e-03,
          0., 0., 0., 5.40753873e-03, 2.28661627e-01, 8.19628358e-01,
          1.99306428e-01, 0., 0., 0., 0., 0., 2.39476711e-02,
          1.95443898e-01, 2.53381819e-01, 0., 0., 0., 0., 0., 0.,
          1.54501107e-03, 3.86252766e-03, 4.63503320e-03, 0., 0., 0., 0.,
          0., 0., 0., 0., 0., 0., 0., 0., 0., 0., 0., 0., 0., 0., 0., 0.,
          0., 0., 0., 0., 0., 0., 0., 1.69951208e-02, 6.95254980e-03, 0.,
          0., 1.46776047e-02, 0., 0., 0., 7.72505533e-04, 0., 0., 0., 0.,
          0., 0., 0., 0., 0., 0., 0., 0., 0., 0., 0., 0., 0., 0., 0., 0.,
          0., 0., 0., 0., 0., 0., 0., 0., 0., 0., 0., 0., 0., 0., 0., 0.,
          0., 0., 0., 0., 0., 0., 0., 0., 0., 0., 0., 0., 0., 0., 0., 0.,
          0., 0., 0., 9.27006640e-03, 3.86252766e-03, 0., 0.,
          3.09002213e-03, 0., 0., 0., 3.09002213e-03, 3.09002213e-03, 0.,
          0., 0., 0., 0., 0., 0., 0., 0., 0., 0., 0., 0., 0., 0., 0., 0.,
          0., 0., 0., 0., 0., 0., 0., 0., 0., 0., 0., 0., 0., 0., 0., 0.,
          0., 0., 0., 0., 0., 0., 0., 0., 0., 0., 0., 0., 0., 0., 0., 0.,
          0., 0., 0., 0., 0., 0., 0., 0., 0., 0., 0., 0., 0., 0., 0., 0.,
          0., 0., 0., 0., 0., 0., 0., 0., 0., 0., 0., 0., 0., 0., 0., 0.,
          0., 0., 0., 0., 0., 0., 0., 0., 0., 0., 0., 0., 0., 0., 0., 0.,
          0., 0., 0., 0., 0., 0., 0., 0., 0., 0., 0., 0., 0., 0., 0., 0.,
          0., 0., 0., 0., 0., 0., 0., 0., 0., 0., 0., 0., 0., 0., 0., 0.,
          0., 0., 0., 0., 0., 0., 0., 0., 0., 0., 0., 0., 0., 0., 0., 0.,
          0., 0., 0., 0., 0., 0., 0., 0., 0., 0., 0., 0., 0., 0., 0., 0.,
          0., 0., 0., 0., 0., 0., 0., 0., 0., 0., 0., 0., 0., 0., 0., 0.,
          0., 0. ]
      - [ 0., 0., 1.22658489e-03, 7.23685101e-02, 1.36150926e-01,
          3.37310843e-02, 3.12779136e-02, 9.32204500e-02, 0., 0.,
          7.35950936e-03, 2.67395496e-01, 7.86854208e-01, 8.58609453e-02,
          3.61842550e-02, 4.29304736e-03, 0., 0., 2.02386510e-02,
          2.67395496e-01, 3.86374235e-01, 1.53323114e-02, 6.13292446e-03,
          4.90633957e-03, 0., 6.13292446e-04, 6.13292446e-03,
          2.88247447e-02, 7.48216808e-02, 1.96253583e-02, 1.96253583e-02,
          1.41057260e-02, 0., 0., 6.13292446e-04, 0., 2.51449905e-02,
          2.94380374e-02, 1.16525562e-02, 0., 0., 0., 0., 0.,
          6.74621714e-03, 2.45316979e-03, 0., 0., 0., 0., 0., 0., 0., 0.,
          0., 0., 0., 0., 0., 0., 0., 0., 0., 0., 0., 0., 0.,
          6.74621714e-03, 1.10392645e-02, 1.83987734e-03, 2.45316979e-03,
          1.22658489e-03, 0., 0., 0., 1.22658489e-03, 1.28791416e-02,
          2.39184052e-02, 9.32204500e-02, 1.22658489e-03, 0., 0., 0., 0.,
          1.22658489e-03, 0., 6.13292446e-04, 0., 0., 0., 0., 0., 0., 0.,
          6.13292446e-04, 0., 0., 0., 0., 0., 0., 0., 0., 0., 0., 0., 0.,
          0., 0., 0., 0., 0., 0., 0., 0., 0., 0., 0., 0., 0., 0., 0., 0.,
          0., 0., 0., 0., 0., 0., 0., 0., 0., 5.51963225e-03, 0., 0., 0.,
          0., 0., 0., 0., 0., 0., 0., 0., 0., 0., 0., 0., 0., 0., 0., 0.,
          0., 0., 0., 0., 0., 0., 0., 0., 0., 0., 0., 0., 0., 0., 0., 0.,
          0., 0., 0., 0., 0., 0., 0., 0., 0., 0., 0., 0., 0., 0., 0., 0.,
          0., 0., 0., 0., 0., 0., 0., 0., 0., 0., 0., 0., 7.97280204e-03,
          0., 0., 0., 0., 0., 0., 0., 0., 0., 0., 0., 0., 0., 0., 0., 0.,
          0., 0., 0., 0., 0., 0., 0., 0., 0., 0., 0., 0., 0., 0., 0., 0.,
          0., 0., 0., 0., 0., 0., 0., 0., 0., 0., 0., 0., 0., 0., 0., 0.,
          0., 0., 0., 0., 0., 0., 0., 0., 0., 0., 0., 0., 0.,
          6.13292446e-04, 7.97280204e-03, 3.67975468e-03, 0., 0.,
          2.45316979e-03, 0., 0., 0., 0., 0., 0., 0., 0., 0., 0., 0., 0.,
          0., 0., 0., 0., 0., 0., 0., 0., 0., 0., 0., 0., 0., 0., 0., 0.,
          0., 0., 0., 0., 0., 0., 0., 0., 0., 0., 0., 0., 0., 0., 0., 0.,
          0., 0., 0., 0., 0., 0., 0., 0., 0., 0., 0., 0., 0., 0.,
          6.13292446e-04, 1.34924343e-02, 4.96766903e-02, 6.13292446e-04,
          6.13292446e-04, 2.39184052e-02, 0., 0., 0., 2.69848686e-02,
          1.46576896e-01, 0., 0., 0., 0., 0., 0., 4.29304736e-03,
          1.28791416e-02, 0., 0., 0., 0., 0., 0., 0., 0., 0., 0., 0., 0.,
          0., 0., 0., 0., 0., 0., 0., 0., 0., 0., 0., 0., 0., 0., 0., 0.,
          0., 0., 0., 0., 0., 0., 0., 0., 0., 0., 0., 0., 0., 0., 0., 0.,
          0., 0., 0., 0., 0., 0., 0., 0., 0., 0., 0., 0., 0., 0., 0., 0.,
          0., 0., 0., 0., 0., 0., 0., 0., 0., 0., 0., 0., 0., 0., 0., 0.,
          0., 0., 0., 0., 0., 0., 0., 0., 0., 0., 0., 0., 0., 0., 0., 0.,
          0., 0., 0., 0., 0., 0., 0., 0., 0., 0., 0., 0., 0., 0., 0., 0.,
          0., 0., 0., 0., 0., 0., 0., 0., 0., 0., 0., 0., 0., 0., 0., 0.,
          0., 0., 0., 0., 0., 0., 0., 0., 0., 0., 0., 0., 0., 0., 0., 0.,
          0., 0., 0., 0., 0., 0., 0., 0., 0., 0., 0., 0., 0., 0., 0., 0.,
          0., 0., 0., 0., 0., 0., 0., 0., 0., 0., 0., 0., 0., 0., 0. ]
      - [ 0., 0., 4.82570706e-03, 1.44771207e-02, 1.37877336e-03,
          8.96202680e-03, 1.65452808e-02, 2.61966940e-02, 0., 0.,
          7.58325355e-03, 4.13632020e-02, 1.17195742e-02, 1.72346681e-02,
          1.30983470e-02, 1.24089606e-02, 0., 0., 4.82570706e-03,
          5.58403209e-02, 2.61966940e-02, 1.65452808e-02, 9.65141412e-03,
          1.24089606e-02, 0., 0., 1.37877336e-03, 1.37877343e-02,
          2.06816010e-02, 1.17195742e-02, 1.30983470e-02, 1.37877336e-03,
          0., 0., 1.37877336e-03, 6.89386681e-04, 4.82570706e-03,
          7.58325355e-03, 5.51509345e-03, 0., 0., 0., 0., 0., 0.,
          6.89386681e-04, 2.06816010e-03, 0., 0., 0., 0., 0., 0., 0., 0.,
          0., 0., 0., 0., 0., 0., 0., 0., 0., 0., 0., 6.89386681e-04,
          1.79240536e-02, 6.89386716e-03, 1.10301869e-02, 9.65141412e-03,
          5.99766411e-02, 0., 0., 2.06816010e-03, 1.58558935e-02,
          1.86134409e-02, 2.13709883e-02, 2.82648541e-02, 3.79162692e-02,
          0., 0., 2.75754672e-03, 1.03408005e-02, 1.99922137e-02,
          1.37877343e-02, 6.89386716e-03, 8.96202680e-03, 0., 0., 0.,
          6.89386681e-04, 6.89386716e-03, 6.89386716e-03, 3.44693358e-03,
          0., 0., 0., 0., 0., 0., 0., 0., 0., 0., 0., 0., 0., 0., 0., 0.,
          0., 0., 0., 0., 0., 0., 0., 0., 0., 0., 0., 0., 0., 0., 0., 0.,
          0., 0., 0., 0., 1.37877343e-02, 1.17195742e-02, 2.20603738e-02,
          1.44771207e-02, 6.34235740e-02, 0., 0., 0., 1.10301869e-02,
          5.51509345e-03, 1.37877343e-02, 1.30983470e-02, 2.06816010e-03,
          0., 0., 0., 6.89386681e-04, 6.89386681e-04, 7.58325355e-03, 0.,
          0., 0., 0., 0., 0., 0., 0., 0., 0., 0., 0., 0., 0., 0., 0., 0.,
          0., 0., 0., 0., 0., 0., 0., 0., 0., 0., 0., 0., 0., 0., 0., 0.,
          0., 0., 0., 0., 0., 0., 0., 0., 0., 0., 0., 4.82570706e-03,
          1.37877343e-02, 3.65374945e-02, 6.20448031e-03, 7.58325355e-03,
          4.61889096e-02, 0., 0., 0., 8.06582421e-02, 2.00611532e-01,
          1.54422626e-01, 1.86134409e-02, 1.37877343e-02, 0., 0., 0.,
          2.61966940e-02, 2.75754690e-01, 8.56218278e-01, 1.18574508e-01,
          3.44693358e-03, 0., 0., 0., 0., 3.44693358e-03, 2.35080868e-01,
          1.21332057e-01, 0., 0., 0., 0., 0., 0., 0., 0., 0., 0., 0., 0.,
          0., 0., 0., 0., 0., 0., 0., 0., 0., 0., 0., 0., 0., 0., 0., 0.,
          0., 0., 0., 0., 0., 0., 0., 2.06816010e-03, 1.17195742e-02,
          1.24089606e-02, 1.37877336e-03, 1.37877336e-03, 4.82570706e-03,
          0., 0., 1.37877336e-03, 6.68705106e-02, 2.68860813e-02, 0., 0.,
          0., 0., 0., 0., 1.72346681e-02, 4.82570706e-03, 0., 0., 0., 0.,
          0., 0., 0., 0., 0., 0., 0., 0., 0., 0., 0., 0., 0., 0., 0., 0.,
          0., 0., 0., 0., 0., 0., 0., 0., 0., 0., 0., 0., 0., 0., 0., 0.,
          0., 0., 0., 0., 0., 0., 0., 0., 0., 0., 4.82570706e-03,
          6.89386681e-04, 0., 0., 0., 0., 0., 0., 2.96436269e-02,
          1.03408005e-02, 0., 0., 0., 0., 0., 0., 3.30905616e-02, 0., 0.,
          0., 0., 0., 0., 0., 0., 0., 0., 0., 0., 0., 0., 0., 0., 0., 0.,
          0., 0., 0., 0., 0., 0., 0., 0., 0., 0., 0., 0., 0., 0., 0., 0.,
          0., 0., 0., 0., 0., 0., 0., 0., 0., 0., 0., 0., 0., 0., 0., 0.,
          0., 0., 0., 0., 0., 0., 0., 0., 0., 0., 0., 0., 0., 0., 0., 0.,
          0., 0., 0., 0., 0., 0., 0., 0., 0., 0., 0., 0., 0., 0., 0., 0.,
          0., 0., 0., 0., 0., 0., 0., 0., 0., 0., 0., 0., 0., 0., 0., 0.,
          0., 0., 0., 0., 0., 0., 0., 0., 0., 0., 0., 0., 0., 0., 0., 0.,
          0., 0., 0., 0., 0., 0., 0., 0., 0., 0., 0., 0., 0., 0., 0., 0.,
          0., 0., 0., 0., 0., 0., 0., 0., 0., 0., 0., 0., 0., 0., 0., 0.,
          0., 0., 0., 0., 0., 0., 0., 0., 0., 0., 0., 0., 0., 0., 0., 0.,
          0., 0., 0., 0., 0., 0., 0., 0., 0., 0. ]
      - [ 0., 0., 8.40313034e-04, 2.52093915e-02, 2.25203887e-01,
          6.72250427e-03, 4.36962768e-02, 1.39491960e-01, 0., 0.,
          1.84868872e-02, 1.05879441e-01, 7.54601121e-01, 1.71423852e-01,
          3.69737744e-02, 2.01675128e-02, 0., 0., 5.04187820e-03,
          1.06719755e-01, 3.91585886e-01, 2.94109564e-02, 1.84868872e-02,
          4.03350256e-02, 0., 0., 1.26046957e-02, 1.36130705e-01,
          1.36130705e-01, 1.42853213e-02, 9.24344361e-03, 2.52093910e-03,
          0., 0., 1.68062607e-03, 6.72250390e-02, 9.99972522e-02,
          2.68900171e-02, 1.09240692e-02, 0., 0., 0., 1.68062607e-03,
          5.54606616e-02, 8.23506787e-02, 2.10078266e-02, 2.18481384e-02,
          1.68062607e-03, 0., 0., 0., 1.76465735e-02, 1.51256341e-02,
          8.40312988e-03, 0., 0., 0., 0., 0., 0., 0., 0., 0., 0., 0., 0.,
          0., 1.42853213e-02, 2.52093915e-02, 5.04187820e-03,
          1.59659479e-02, 3.94947119e-02, 0., 0., 0., 0., 9.24344361e-03,
          4.20156494e-03, 2.35287640e-02, 5.37800342e-02, 0., 0.,
          8.40313034e-04, 3.36125214e-03, 0., 0., 0., 6.72250427e-03, 0.,
          0., 0., 0., 0., 0., 0., 0., 0., 0., 0., 0., 0., 0., 0., 0., 0.,
          0., 0., 0., 0., 0., 0., 0., 0., 0., 0., 0., 0., 0., 0., 0., 0.,
          0., 0., 0., 0., 0., 0., 0., 0., 0., 0., 1.34450085e-02,
          3.27722095e-02, 3.36125214e-03, 2.52093910e-03, 4.20156494e-03,
          0., 0., 0., 3.36125214e-03, 9.24344361e-03, 0., 0., 0., 0., 0.,
          0., 0., 0., 0., 0., 0., 0., 0., 0., 0., 0., 0., 0., 0., 0., 0.,
          0., 0., 0., 0., 0., 0., 0., 0., 0., 0., 0., 0., 0., 0., 0., 0.,
          0., 0., 0., 0., 0., 0., 0., 0., 0., 0., 0., 0., 0., 0., 0., 0.,
          0., 1.26046957e-02, 5.79815991e-02, 1.09240692e-02,
          4.20156494e-03, 2.52093910e-03, 0., 0., 0., 2.52093910e-03,
          1.34450085e-02, 5.04187820e-03, 0., 0., 0., 0., 0., 0., 0., 0.,
          0., 0., 0., 0., 0., 0., 0., 0., 0., 0., 0., 0., 0., 0., 0., 0.,
          0., 0., 0., 0., 0., 0., 0., 0., 0., 0., 0., 0., 0., 0., 0., 0.,
          0., 0., 0., 0., 0., 0., 0., 0., 0., 0., 0., 0., 3.36125214e-03,
          2.94109564e-02, 1.13442257e-01, 7.56281707e-03, 1.68062598e-02,
          3.02512683e-02, 0., 0., 4.20156494e-03, 8.40312988e-03, 0., 0.,
          0., 0., 0., 0., 0., 0., 0., 0., 0., 0., 0., 0., 0., 0., 0., 0.,
          0., 0., 0., 0., 0., 0., 0., 0., 0., 0., 0., 0., 0., 0., 0., 0.,
          0., 0., 0., 0., 0., 0., 0., 0., 0., 0., 0., 0., 0., 0., 0., 0.,
          0., 0., 0., 0., 2.52093910e-03, 2.10078266e-02, 1.64701357e-01,
          0., 6.72250427e-03, 2.94109564e-02, 0., 0., 8.40313034e-04,
          3.02512683e-02, 1.62180409e-01, 3.36125214e-03, 0., 0., 0., 0.,
          0., 5.04187820e-03, 2.60497034e-02, 0., 0., 0., 0., 0., 0.,
          8.40313034e-04, 1.34450085e-02, 0., 0., 0., 0., 0., 0., 0., 0.,
          0., 0., 0., 0., 0., 0., 0., 0., 0., 0., 0., 0., 0., 0., 0., 0.,
          0., 0., 0., 0., 0., 0., 0., 0., 0., 0., 0., 0., 0., 0., 0., 0.,
          0., 0., 0., 0., 0., 0., 0., 0., 0., 0., 0., 0., 0., 0., 0., 0.,
          0., 0., 0., 0., 0., 0., 0., 0., 0., 0., 0., 0., 0., 0., 0., 0.,
          0., 0., 0., 0., 0., 0., 0., 0., 0., 0., 0., 0., 0., 0., 0., 0.,
          0., 0., 0., 0., 0., 0., 0., 0., 0., 0., 0., 0., 0., 0., 0., 0.,
          0., 0., 0., 0., 0., 0., 0., 0., 0., 0., 0., 0., 0., 0., 0., 0.,
          0., 0., 0., 0., 0., 0., 0., 0., 0., 0., 0., 0., 0., 0., 0., 0.,
          0., 0., 0., 0., 0., 0., 0., 0., 0., 0., 0., 0., 0., 0., 0., 0.,
          0., 0., 0., 0., 0., 0., 0., 0., 0., 0., 0. ]
      - [ 0., 0., 0., 1.96298561e-03, 1.13853164e-01, 6.67415112e-02,
          3.23892608e-02, 6.67415112e-02, 0., 0., 9.81492805e-04,
          1.27594061e-02, 3.68059784e-01, 2.51262158e-01, 3.53337415e-02,
          2.94447839e-02, 0., 0., 0., 3.82782184e-02, 4.94672358e-01,
          4.57375646e-01, 2.45373193e-02, 2.45373193e-02, 0., 0.,
          1.96298561e-03, 1.66853778e-02, 2.93466330e-01, 2.40465730e-01,
          1.86483636e-02, 1.86483636e-02, 0., 0., 0., 9.81492735e-03,
          4.71116528e-02, 2.28687823e-01, 8.34268853e-02, 3.04262768e-02,
          0., 0., 5.88895660e-03, 3.92597122e-03, 3.33707556e-02,
          1.10908687e-01, 1.38390481e-01, 3.92597122e-03, 0., 0., 0.,
          1.07964203e-02, 8.83343536e-03, 6.87044933e-02, 6.77229986e-02,
          1.17779132e-02, 0., 0., 0., 1.96298561e-03, 3.92597122e-03,
          2.94447830e-03, 3.33707556e-02, 2.55188122e-02, 0., 0., 0., 0.,
          1.02075249e-01, 1.57038849e-02, 2.74817981e-02, 5.00561297e-02,
          0., 0., 0., 4.90746368e-03, 4.90746386e-02, 2.74817981e-02,
          1.00112259e-01, 5.10376245e-02, 0., 0., 0., 9.81492805e-04,
          6.87044952e-03, 9.81492735e-03, 2.94447830e-03, 1.37408990e-02,
          0., 0., 0., 0., 2.94447830e-03, 0., 0., 0., 0., 0., 0., 0., 0.,
          0., 0., 0., 0., 0., 0., 0., 0., 0., 0., 0., 0., 0., 0., 0., 0.,
          0., 0., 0., 0., 0., 0., 0., 0., 0., 0., 0., 0., 0.,
          9.81492805e-04, 9.81492805e-04, 6.47785217e-02, 3.92597122e-03,
          9.81492735e-03, 8.34268853e-02, 0., 0., 0., 0., 3.04262768e-02,
          7.85194244e-03, 9.81492735e-03, 2.06113476e-02, 0., 0., 0., 0.,
          0., 3.92597122e-03, 0., 0., 0., 0., 0., 0., 0., 0., 0., 0., 0.,
          0., 0., 0., 0., 0., 0., 0., 0., 0., 0., 0., 0., 0., 0., 0., 0.,
          0., 0., 0., 0., 0., 0., 0., 0., 0., 0., 0., 0., 0., 0., 0., 0.,
          0., 0., 0., 7.36119598e-02, 2.65003052e-02, 1.96298561e-03,
          2.25743335e-02, 0., 0., 0., 9.81492805e-04, 1.07964203e-02,
          8.83343536e-03, 0., 0., 0., 0., 0., 0., 0., 0., 0., 0., 0., 0.,
          0., 0., 0., 0., 0., 0., 0., 0., 0., 0., 0., 0., 0., 0., 0., 0.,
          0., 0., 0., 0., 0., 0., 0., 0., 0., 0., 0., 0., 0., 0., 0., 0.,
          0., 0., 0., 0., 0., 0., 0., 0., 9.81492805e-04, 9.81492805e-04,
          7.75379315e-02, 2.94447830e-03, 9.81492805e-04, 4.90746368e-03,
          0., 0., 0., 1.96298561e-03, 0., 0., 0., 0., 0., 0., 0., 0., 0.,
          0., 0., 0., 0., 0., 0., 0., 0., 0., 0., 0., 0., 0., 0., 0., 0.,
          0., 0., 0., 0., 0., 0., 0., 0., 0., 0., 0., 0., 0., 0., 0., 0.,
          0., 0., 0., 0., 0., 0., 0., 0., 0., 0., 0., 0., 0., 0.,
          9.81492805e-04, 5.00561297e-02, 0., 0., 8.83343536e-03, 0., 0.,
          0., 9.81492735e-03, 7.65564367e-02, 2.74817981e-02, 0., 0., 0.,
          0., 0., 4.90746368e-03, 5.10376245e-02, 1.57038849e-02, 0., 0.,
          0., 0., 0., 0., 1.37408990e-02, 3.92597122e-03, 0., 0., 0., 0.,
          0., 0., 0., 0., 0., 0., 0., 0., 0., 0., 0., 0., 0., 0., 0., 0.,
          0., 0., 0., 0., 0., 0., 0., 0., 0., 0., 0., 0., 0., 0., 0., 0.,
          0., 0., 0., 0., 0., 0., 0., 0., 0., 0., 0., 0., 0., 0., 0., 0.,
          0., 0., 0., 0., 0., 0., 0., 0., 0., 0., 0., 0., 0., 0., 0., 0.,
          0., 0., 0., 0., 0., 0., 0., 0., 0., 0., 0., 0., 0., 0., 0., 0.,
          0., 0., 0., 0., 0., 0., 0., 0., 0., 0., 0., 0., 0., 0., 0., 0.,
          0., 0., 0., 0., 0., 0., 0., 0., 0., 0., 0., 0., 0., 0., 0., 0.,
          0., 0., 0., 0., 0., 0., 0., 0., 0., 0., 0., 0., 0., 0., 0., 0.,
          0., 0., 0., 0., 0., 0., 0., 0., 0., 0., 0., 0., 0., 0., 0., 0.,
          0., 0., 0., 0., 0., 0., 0., 0., 0., 0., 0., 0., 0., 0. ]
      - [ 0., 1.71804312e-03, 5.15412958e-03, 1.88984741e-02,
          2.83477120e-02, 2.57706475e-02, 3.00657544e-02, 2.49116253e-02,
          0., 3.43608623e-03, 1.71804316e-02, 2.92067342e-02,
          1.63214095e-02, 2.49116253e-02, 1.46033671e-02, 1.11672804e-02,
          0., 8.59021558e-04, 2.57706475e-02, 3.35018411e-02,
          1.63214095e-02, 1.37443449e-02, 1.80394538e-02, 3.43608623e-03,
          0., 8.59021558e-04, 3.00657544e-02, 3.43608633e-02,
          9.44923703e-03, 1.11672804e-02, 8.59021558e-04, 0., 0.,
          8.59021558e-04, 6.01315126e-03, 6.87217247e-03, 1.28853237e-02,
          8.59021582e-03, 0., 0., 0., 8.59021558e-04, 8.59021558e-04,
          5.15412958e-03, 1.71804312e-03, 5.15412958e-03, 0., 0., 0.,
          8.59021558e-04, 0., 0., 0., 8.59021558e-04, 0., 0., 0.,
          8.59021558e-04, 0., 0., 0., 0., 0., 0., 0., 0., 1.71804312e-03,
          4.29510791e-03, 3.43608623e-03, 5.15412958e-03, 1.80394538e-02,
          7.73119414e-03, 0., 0., 0., 1.71804312e-03, 5.15412958e-03,
          3.43608623e-03, 2.57706479e-03, 1.71804312e-03, 0., 0.,
          2.57706479e-03, 5.15412958e-03, 6.87217247e-03, 8.59021558e-04,
          0., 0., 0., 0., 0., 8.59021558e-04, 0., 0., 0., 0., 0., 0., 0.,
          0., 0., 0., 0., 0., 0., 0., 0., 0., 0., 0., 0., 0., 0., 0., 0.,
          0., 0., 0., 0., 0., 0., 0., 0., 0., 0., 0., 0., 0., 0., 0., 0.,
          1.71804312e-03, 1.71804312e-03, 2.57706479e-03, 3.43608623e-03,
          1.37443449e-02, 0., 0., 0., 3.43608623e-03, 0., 8.59021558e-04,
          0., 0., 0., 0., 0., 0., 0., 0., 0., 0., 0., 0., 0., 0., 0., 0.,
          0., 0., 0., 0., 0., 0., 0., 0., 0., 0., 0., 0., 0., 0., 0., 0.,
          0., 0., 0., 0., 0., 0., 0., 0., 0., 0., 0., 0., 0., 0., 0., 0.,
          0., 0., 0., 0., 1.71804312e-03, 1.54623883e-02, 8.59021582e-03,
          2.06165183e-02, 2.40526050e-02, 1.36584431e-01, 0.,
          3.43608623e-03, 3.00657544e-02, 1.82112575e-01, 2.61142552e-01,
          3.00657544e-02, 1.11672804e-02, 8.59021558e-04, 0., 0.,
          6.87217247e-03, 1.77817464e-01, 6.94948435e-01, 3.60789061e-01,
          1.71804312e-03, 0., 0., 0., 0., 2.74886899e-02, 1.14249870e-01,
          3.10965806e-01, 1.20263025e-02, 0., 0., 0., 0., 0.,
          2.57706479e-03, 0., 0., 0., 0., 0., 0., 0., 0., 0., 0., 0., 0.,
          0., 0., 0., 0., 0., 0., 0., 0., 0., 0., 0., 0., 0., 0., 0., 0.,
          0., 2.57706475e-02, 4.55281436e-02, 1.88984741e-02,
          1.54623883e-02, 6.01315126e-03, 3.09247766e-02, 0.,
          3.43608623e-03, 1.08236715e-01, 2.73168862e-01, 6.44266158e-02,
          8.59021558e-04, 0., 0., 0., 3.43608623e-03, 4.89642285e-02,
          4.12330367e-02, 4.55281436e-02, 0., 0., 0., 0., 1.71804312e-03,
          0., 8.59021558e-04, 0., 0., 0., 0., 8.59021558e-04, 0., 0., 0.,
          0., 0., 0., 0., 8.59021558e-04, 0., 0., 0., 0., 0., 0., 0.,
          8.59021558e-04, 0., 0., 0., 0., 0., 0., 0., 8.59021558e-04, 0.,
          0., 0., 0., 0., 0., 0., 0., 0., 6.87217247e-03, 2.31935829e-02,
          6.87217247e-03, 1.71804312e-03, 4.29510791e-03, 5.15412958e-03,
          0., 1.71804312e-03, 2.57706475e-02, 4.29510772e-02,
          4.29510791e-03, 1.71804312e-03, 0., 0., 0., 0., 3.00657544e-02,
          5.84134683e-02, 2.57706479e-03, 0., 0., 0., 0., 0.,
          1.63214095e-02, 2.49116253e-02, 0., 0., 0., 0., 0., 0., 0., 0.,
          0., 0., 0., 0., 0., 0., 0., 0., 0., 0., 0., 0., 0., 0., 0., 0.,
          0., 0., 0., 0., 0., 0., 0., 0., 0., 0., 0., 0., 0., 0., 0., 0.,
          0., 0., 0., 0., 0., 0., 0., 0., 0., 0., 0., 0., 0., 0., 0., 0.,
          0., 0., 0., 0., 0., 0., 0., 0., 0., 0., 0., 0., 0., 0., 0., 0.,
          0., 0., 0., 0., 0., 0., 0., 0., 0., 0., 0., 0., 0., 0., 0., 0.,
          0., 0., 0., 0., 0., 0., 0., 0., 0., 0., 0., 0., 0., 0., 0., 0.,
          0., 0., 0., 0., 0., 0., 0., 0., 0., 0., 0., 0., 0., 0., 0., 0.,
          0., 0., 0., 0., 0., 0., 0., 0., 0., 0., 0., 0., 0., 0., 0., 0.,
          0., 0., 0., 0., 0., 0., 0., 0., 0., 0., 0., 0., 0., 0., 0., 0.,
          0., 0., 0., 0., 0., 0., 0., 0., 0., 0., 0., 0. ]
      - [ 0., 0., 6.85878447e-04, 0., 6.85878447e-04, 6.85878447e-04,
          1.37175689e-03, 6.10431843e-02, 0., 0., 0., 1.37175689e-03,
          3.42939235e-03, 7.54466327e-03, 4.80114948e-03, 2.67492607e-02,
          0., 6.85878447e-04, 2.05763546e-03, 5.48702758e-03,
          8.23054183e-03, 5.48702758e-03, 8.91641993e-03, 2.60633808e-02,
          0., 0., 2.74351379e-03, 6.85878471e-03, 1.09740552e-02,
          2.67492607e-02, 1.09740552e-02, 7.61325061e-02, 0., 0.,
          2.74351379e-03, 4.80114948e-03, 2.46916246e-02, 5.96714281e-02,
          3.90950739e-02, 5.55561557e-02, 0., 0., 4.11527092e-03,
          2.19481103e-02, 5.69279119e-02, 2.07821175e-01, 6.58443347e-02,
          4.80114948e-03, 0., 0., 6.85878447e-04, 2.19481103e-02,
          1.24829881e-01, 4.86973703e-01, 3.40881586e-01, 5.48702758e-03,
          0., 4.11527092e-03, 2.05763541e-02, 4.38962206e-02,
          4.31417555e-01, 5.87797821e-01, 1.51579142e-01, 6.85878447e-04,
          0., 0., 0., 1.37175689e-03, 1.37175689e-03, 6.85878447e-04,
          1.37175689e-03, 1.16599342e-02, 0., 0., 0., 0., 0.,
          1.37175689e-03, 0., 0., 0., 0., 6.85878447e-04, 2.74351379e-03,
          6.17290614e-03, 8.23054183e-03, 2.74351379e-03, 0., 0., 0., 0.,
          1.37175689e-03, 2.05763546e-03, 2.05763546e-03, 0., 0., 0., 0.,
          0., 0., 0., 0., 0., 0., 0., 0., 0., 0., 0., 0., 0., 0., 0., 0.,
          0., 0., 0., 0., 0., 0., 0., 0., 0., 0., 0., 0., 0., 0., 0., 0.,
          6.85878447e-04, 0., 0., 6.85878447e-04, 0., 8.91641993e-03, 0.,
          0., 0., 0., 0., 0., 0., 0., 0., 0., 0., 0., 0., 0., 0., 0., 0.,
          0., 0., 0., 0., 0., 0., 0., 0., 0., 0., 0., 0., 0., 0., 0., 0.,
          0., 0., 0., 0., 0., 0., 0., 0., 0., 0., 0., 0., 0., 0., 0., 0.,
          0., 0., 0., 0., 0., 0., 0., 0., 0., 0., 0., 0., 0., 0., 0., 0.,
          0., 0., 0., 0., 0., 0., 0., 0., 0., 0., 0., 0., 0., 0., 0., 0.,
          0., 0., 0., 0., 0., 0., 0., 0., 0., 0., 0., 0., 0., 0., 0., 0.,
          0., 0., 0., 0., 0., 0., 0., 0., 0., 0., 0., 0., 0., 0., 0., 0.,
          0., 0., 0., 0., 0., 0., 0., 0., 0., 0., 0., 0., 0., 0.,
          1.37175689e-03, 0., 0., 0., 0., 0., 0., 0., 0., 0., 0., 0., 0.,
          0., 0., 0., 0., 0., 0., 0., 0., 0., 0., 0., 0., 0., 0., 0., 0.,
          0., 0., 6.85878447e-04, 0., 0., 0., 0., 0., 1.37175689e-03,
          3.42939235e-03, 2.74351379e-03, 0., 0., 0., 0., 0.,
          6.17290614e-03, 8.91641993e-03, 3.42939235e-03, 0., 0., 0., 0.,
          1.37175689e-03, 0., 6.85878447e-04, 1.37175689e-03, 0., 0., 0.,
          0., 0., 0., 0., 0., 7.54466327e-03, 0., 0., 6.85878447e-04, 0.,
          0., 0., 0., 0., 0., 6.85878447e-04, 2.74351379e-03, 0., 0., 0.,
          0., 0., 0., 0., 6.85878447e-04, 6.85878447e-04, 0., 0., 0., 0.,
          0., 0., 1.37175689e-03, 6.85878447e-04, 0., 6.85878447e-04, 0.,
          0., 0., 0., 0., 2.05763546e-03, 1.16599342e-02, 2.12622322e-02,
          6.85878447e-04, 0., 0., 6.85878447e-04, 0., 0., 8.23054183e-03,
          1.37175689e-03, 0., 0., 0., 0., 0., 2.05763546e-03, 0., 0., 0.,
          0., 0., 0., 0., 0., 0., 0., 0., 0., 0., 0., 0., 0., 0., 0., 0.,
          0., 0., 0., 0., 0., 0., 0., 0., 0., 0., 0., 0., 0., 0., 0., 0.,
          0., 0., 0., 0., 0., 0., 0., 0., 0., 0., 0., 0., 0., 0., 0., 0.,
          0., 0., 0., 0., 0., 0., 0., 0., 0., 0., 0., 0., 0., 0., 0., 0.,
          0., 0., 0., 0., 0., 0., 0., 0., 0., 0., 0., 0., 0., 0., 0., 0.,
          0., 0., 0., 0., 0., 0., 0., 0., 0., 0., 0., 0., 0., 0., 0., 0.,
          0., 0., 0., 0., 0., 0., 0., 0., 0., 0., 0., 0., 0., 0., 0., 0.,
          0., 0., 0., 0., 0., 0., 0., 0., 0., 0., 0., 0., 0., 0., 0., 0.,
          0. ]
      - [ 0., 0., 1.22043828e-03, 6.46832287e-02, 1.25705138e-01,
          6.10219128e-03, 8.54306761e-03, 5.36992811e-02, 0., 0.,
          1.22043828e-03, 5.98014742e-02, 1.62318289e-01, 8.17693621e-02,
          7.07854182e-02, 6.71241060e-02, 0., 0., 0., 4.02744599e-02,
          1.47673026e-01, 1.36689082e-01, 3.78335863e-02, 4.51562144e-02,
          0., 0., 0., 4.14948985e-02, 1.51334345e-01, 2.73378164e-01,
          5.73605970e-02, 3.05109564e-02, 0., 0., 0., 2.44087651e-02,
          1.09839439e-01, 1.67200044e-01, 6.34627864e-02, 2.44087656e-03,
          0., 0., 2.44087656e-03, 2.44087656e-03, 6.83445409e-02,
          8.42102394e-02, 2.80700792e-02, 0., 0., 0., 0., 1.22043828e-03,
          1.95270125e-02, 6.59036636e-02, 3.66131477e-02, 0., 0., 0., 0.,
          0., 2.44087656e-03, 1.58656966e-02, 8.54306761e-03, 0., 0., 0.,
          0., 3.66131472e-03, 5.98014742e-02, 9.76350624e-03,
          1.22043828e-03, 3.17313932e-02, 0., 0., 0., 0., 7.32262945e-03,
          1.09839439e-02, 2.31883265e-02, 4.88175312e-03, 0., 0.,
          1.22043828e-03, 0., 1.22043828e-03, 3.66131472e-03, 0., 0., 0.,
          0., 0., 0., 0., 0., 0., 0., 0., 0., 0., 0., 0., 0., 0., 0., 0.,
          0., 0., 0., 0., 0., 0., 0., 0., 0., 0., 0., 0., 0., 0., 0., 0.,
          0., 0., 0., 0., 0., 0., 0., 0., 0., 0., 1.09839439e-02,
          1.14721194e-01, 6.10219128e-03, 9.76350624e-03, 1.73302233e-01,
          0., 0., 0., 2.44087656e-03, 4.27153371e-02, 1.22043828e-03,
          1.22043828e-03, 4.88175312e-03, 0., 0., 0., 0., 2.44087656e-03,
          1.22043828e-03, 0., 0., 0., 0., 0., 0., 0., 1.22043828e-03, 0.,
          0., 0., 0., 0., 0., 0., 0., 0., 0., 0., 0., 0., 0., 0., 0., 0.,
          0., 0., 0., 0., 0., 0., 0., 0., 0., 0., 0., 0., 0., 0., 0., 0.,
          0., 0., 0., 1.22043828e-03, 4.63766530e-02, 3.18534374e-01,
          3.78335863e-02, 1.09839439e-02, 1.20823383e-01, 0., 0.,
          1.22043828e-03, 4.39357758e-02, 4.68648285e-01, 3.60029280e-01,
          5.00379689e-02, 9.76350624e-03, 0., 0., 0., 1.22043828e-03,
          4.51562144e-02, 1.30586892e-01, 1.22043826e-02, 0., 0., 0., 0.,
          0., 1.22043828e-03, 2.44087656e-03, 0., 0., 0., 0., 0., 0., 0.,
          0., 0., 0., 0., 0., 0., 0., 0., 0., 0., 0., 0., 0., 0., 0., 0.,
          0., 0., 0., 0., 0., 0., 0., 0., 0., 0., 0., 0., 0., 0.,
          3.53927091e-02, 2.53851146e-01, 1.34248203e-02, 3.66131472e-03,
          2.19678879e-02, 0., 0., 0., 7.44467303e-02, 1.84286177e-01,
          7.32262945e-03, 0., 0., 0., 0., 0., 3.66131472e-03,
          8.54306761e-03, 0., 0., 0., 0., 0., 0., 0., 0., 0., 0., 0., 0.,
          0., 0., 0., 0., 0., 0., 0., 0., 0., 0., 0., 0., 0., 0., 0., 0.,
          0., 0., 0., 0., 0., 0., 0., 0., 0., 0., 0., 0., 0., 0., 0., 0.,
          0., 0., 3.17313932e-02, 1.03737250e-01, 1.22043828e-03,
          4.88175312e-03, 2.07474492e-02, 0., 0., 0., 9.03124288e-02,
          1.69640914e-01, 4.63766530e-02, 0., 0., 0., 0., 0.,
          8.42102394e-02, 8.42102394e-02, 3.66131477e-02, 0., 0., 0., 0.,
          0., 7.32262945e-03, 4.02744599e-02, 0., 0., 0., 0., 0., 0., 0.,
          6.10219128e-03, 0., 0., 0., 0., 0., 0., 0., 0., 0., 0., 0., 0.,
          0., 0., 0., 0., 0., 0., 0., 0., 0., 0., 0., 0., 0., 0., 0., 0.,
          0., 0., 0., 0., 0., 0., 0., 0., 0., 0., 0., 0., 0., 0., 0., 0.,
          0., 0., 0., 0., 0., 0., 0., 0., 0., 0., 0., 0., 0., 0., 0., 0.,
          0., 0., 0., 0., 0., 0., 0., 0., 0., 0., 0., 0., 0., 0., 0., 0.,
          0., 0., 0., 0., 0., 0., 0., 0., 0., 0., 0., 0., 0., 0., 0., 0.,
          0., 0., 0., 0., 0., 0., 0., 0., 0., 0., 0., 0., 0., 0., 0., 0.,
          0., 0., 0., 0., 0., 0., 0., 0., 0., 0., 0., 0., 0., 0., 0., 0.,
          0., 0., 0., 0., 0., 0., 0., 0., 0., 0., 0., 0., 0., 0., 0., 0.,
          0., 0., 0., 0., 0., 0., 0., 0., 0., 0., 0., 0., 0., 0., 0. ]
      - [ 0., 0., 0., 4.32180037e-04, 8.64360074e-04, 0., 0.,
          8.64360016e-03, 0., 0., 8.64360074e-04, 4.32180037e-04, 0.,
          4.32180037e-04, 8.64360074e-04, 9.07578040e-03, 0., 0.,
          4.32180037e-04, 3.45744030e-03, 3.45744030e-03, 1.72872015e-03,
          3.45744030e-03, 4.75398032e-03, 0., 0., 1.72872015e-03,
          3.45744030e-03, 3.45744030e-03, 1.72872015e-03, 3.45744030e-03,
          3.50065827e-02, 0., 4.32180037e-04, 1.29654002e-03,
          1.72872015e-03, 4.32180008e-03, 3.88962030e-03, 2.16090009e-02,
          5.22937812e-02, 0., 0., 1.72872015e-03, 4.32180037e-04,
          4.75398032e-03, 1.55584812e-02, 2.63629816e-02, 1.29654007e-02,
          0., 4.32180037e-04, 1.29654002e-03, 8.64360074e-04,
          1.29654007e-02, 4.79719825e-02, 4.62432615e-02, 6.91488059e-03,
          0., 4.32180037e-04, 4.32180008e-03, 2.42020804e-02,
          3.75996605e-02, 2.39427730e-01, 7.85703301e-01, 5.59240937e-01,
          0., 0., 0., 0., 0., 1.29654002e-03, 4.32180037e-04,
          2.59308005e-03, 0., 0., 0., 0., 0., 2.16090004e-03,
          8.64360074e-04, 0., 0., 0., 4.32180037e-04, 1.72872015e-03,
          4.32180037e-04, 0., 0., 0., 0., 0., 0., 0., 0., 0., 0., 0., 0.,
          0., 0., 0., 0., 0., 0., 0., 0., 0., 0., 0., 0., 0., 0., 0., 0.,
          0., 0., 0., 0., 0., 0., 0., 0., 0., 0., 0., 0., 0., 0., 0., 0.,
          0., 0., 0., 4.32180037e-04, 3.02526006e-03, 0., 0., 0., 0., 0.,
          0., 4.32180037e-04, 4.75398032e-03, 0., 0., 0., 0., 0., 0., 0.,
          0., 0., 0., 0., 0., 0., 0., 0., 0., 0., 0., 0., 0., 0., 0., 0.,
          0., 0., 0., 0., 0., 0., 0., 0., 0., 0., 0., 0., 0., 0., 0., 0.,
          0., 0., 0., 0., 0., 0., 0., 0., 0., 0., 0., 0., 0., 0., 0., 0.,
          0., 0., 0., 0., 0., 0., 0., 0., 0., 0., 0., 0., 0., 0., 0., 0.,
          0., 0., 0., 0., 0., 0., 0., 0., 0., 0., 0., 0., 0., 0., 0., 0.,
          0., 0., 0., 0., 0., 0., 0., 0., 0., 0., 0., 0., 0., 0., 0., 0.,
          0., 0., 0., 0., 0., 0., 0., 0., 0., 0., 0., 0., 0., 0., 0., 0.,
          0., 0., 0., 0., 0., 0., 0., 0., 0., 0., 0., 0., 0., 0., 0., 0.,
          0., 0., 0., 0., 0., 0., 0., 0., 0., 0., 0., 0., 0., 0., 0., 0.,
          0., 0., 0., 0., 0., 0., 0., 0., 0., 0., 0., 0., 0., 0., 0., 0.,
          0., 0., 0., 0., 0., 0., 0., 0., 0., 0., 0., 0., 0., 0., 0., 0.,
          0., 0., 4.32180037e-04, 0., 0., 0., 0., 0., 0., 0., 0., 0., 0.,
          0., 0., 0., 0., 0., 0., 0., 0., 0., 0., 0., 0., 0., 0., 0., 0.,
          0., 0., 0., 0., 0., 0., 0., 0., 0., 0., 4.32180037e-04, 0., 0.,
          0., 0., 0., 0., 4.32180037e-04, 1.72872015e-03, 0.,
          8.64360074e-04, 0., 0., 0., 0., 0., 0., 8.64360074e-04,
          1.72872015e-03, 0., 0., 0., 0., 0., 0., 0., 0., 0., 0., 0., 0.,
          0., 0., 0., 0., 0., 0., 0., 0., 0., 0., 0., 0., 0., 0., 0., 0.,
          0., 0., 0., 0., 0., 0., 0., 0., 0., 0., 0., 0., 0., 0., 0., 0.,
          0., 0., 0., 0., 0., 0., 0., 0., 0., 0., 0., 0., 0., 0., 0., 0.,
          0., 0., 0., 0., 0., 0., 0., 0., 0., 0., 0., 0., 0., 0., 0., 0.,
          0., 0., 0., 0., 0., 0., 0., 0., 0., 0., 0., 0., 0., 0., 0., 0.,
          0., 0., 0., 0., 0., 0., 0., 0., 0., 0., 0., 0., 0., 0., 0., 0.,
          0., 0., 0., 0., 0., 0., 0., 0., 0., 0., 0., 0., 0., 0., 0., 0.,
          0., 0., 0., 0., 0. ]
      - [ 0., 0., 0., 7.00634439e-04, 2.80253775e-03, 0., 0.,
          2.03183983e-02, 0., 0., 1.40126888e-03, 4.90444107e-03,
          4.20380663e-03, 0., 0., 0., 0., 0., 0., 0., 3.50317219e-03, 0.,
          0., 0., 0., 0., 0., 0., 4.90444107e-03, 0., 0., 0., 0., 0., 0.,
          0., 0., 0., 0., 0., 0., 0., 0., 0., 0., 0., 0., 0., 0., 0., 0.,
          0., 0., 0., 0., 0., 0., 0., 0., 0., 0., 0., 0., 0., 0., 0., 0.,
          4.20380663e-03, 2.10190332e-03, 2.80253775e-03, 1.40126888e-03,
          1.47133227e-02, 0., 0., 0., 2.10190332e-03, 2.80253775e-03,
          1.40126888e-03, 7.70697882e-03, 7.70697882e-03, 0., 0., 0., 0.,
          1.40126888e-03, 0., 1.05095161e-02, 5.60507551e-03, 0., 0., 0.,
          0., 0., 0., 0., 0., 0., 0., 0., 0., 0., 0., 0., 0., 0., 0., 0.,
          0., 0., 0., 0., 0., 0., 0., 0., 0., 0., 0., 0., 0., 0., 0., 0.,
          0., 0., 0., 0., 0., 0., 0., 0., 2.10190332e-03, 1.05095161e-02,
          9.80888214e-03, 7.70697882e-03, 6.93628117e-02, 0., 0., 0.,
          7.00634439e-04, 9.10824724e-03, 1.40126888e-02, 1.19107850e-02,
          6.79615438e-02, 0., 0., 1.40126888e-03, 2.10190332e-03,
          4.90444107e-03, 1.19107850e-02, 9.80888214e-03, 1.82164945e-02,
          0., 0., 0., 1.40126888e-03, 0., 2.10190332e-03, 0., 0., 0.,
          7.00634439e-04, 0., 0., 0., 0., 0., 0., 0., 0., 0., 0., 0., 0.,
          0., 0., 0., 0., 0., 0., 0., 0., 0., 0., 0., 0., 0., 0., 0., 0.,
          0., 0., 0., 0., 0., 3.50317219e-03, 8.40761326e-03,
          1.40126888e-03, 3.50317219e-03, 4.20380645e-02, 0., 0.,
          7.00634439e-04, 2.03183983e-02, 3.43310870e-02, 2.03183983e-02,
          1.47133227e-02, 2.66241077e-02, 0., 0., 9.10824724e-03,
          2.87260115e-02, 8.89805704e-02, 7.00634420e-02, 3.92355286e-02,
          5.74520230e-02, 0., 7.00634439e-04, 5.60507551e-03,
          1.12101510e-02, 6.09551966e-02, 1.72356069e-01, 2.16496035e-01,
          1.33120537e-01, 0., 1.40126888e-03, 4.20380663e-03,
          3.50317219e-03, 1.40126888e-02, 1.07897706e-01, 5.46494842e-01,
          6.92927480e-01, 0., 7.00634439e-04, 7.00634439e-04, 0.,
          7.00634439e-04, 3.08279153e-02, 1.71655431e-01, 2.12292239e-01,
          0., 1.40126888e-03, 0., 0., 0., 7.00634439e-04, 0., 0., 0., 0.,
          0., 0., 0., 0., 0., 0., 0., 0., 7.00634439e-04, 4.20380663e-03,
          7.00634439e-04, 0., 0., 5.60507551e-03, 0., 0., 2.80253775e-03,
          5.60507551e-03, 7.00634439e-04, 0., 0., 0., 0., 0., 0., 0.,
          1.89171303e-02, 0., 0., 0., 0., 0., 0., 0., 0., 0., 0., 0., 0.,
          0., 0., 0., 0., 0., 0., 0., 0., 0., 0., 0., 0., 0., 0., 0., 0.,
          0., 0., 0., 0., 0., 0., 0., 0., 0., 0., 0., 0., 0., 0., 0., 0.,
          0., 1.40126888e-03, 2.10190332e-03, 0., 0., 0., 4.20380663e-03,
          0., 0., 7.00634439e-04, 4.90444107e-03, 2.10190332e-03, 0., 0.,
          0., 0., 0., 0., 4.20380663e-03, 4.20380663e-03, 0., 0., 0., 0.,
          0., 0., 0., 2.10190332e-03, 0., 0., 0., 0., 0., 0., 0., 0., 0.,
          0., 0., 0., 0., 0., 0., 0., 0., 0., 0., 0., 0., 0., 0., 0., 0.,
          0., 0., 0., 0., 0., 0., 0., 0., 0., 0., 0., 0., 0., 0., 0., 0.,
          0., 0., 0., 0., 0., 0., 0., 0., 0., 0., 0., 0., 0., 0., 0., 0.,
          0., 0., 0., 0., 0., 0., 0., 0., 0., 0., 0., 0., 0., 0., 0., 0.,
          0., 0., 0., 0., 0., 0., 0., 0., 0., 0., 0., 0., 0., 0., 0., 0.,
          0., 0., 0., 0., 0., 0., 0., 0., 0., 0., 0., 0., 0., 0., 0., 0.,
          0., 0., 0., 0., 0., 0., 0., 0., 0., 0., 0., 0., 0., 0., 0., 0.,
          0., 0., 0., 0., 0., 0., 0., 0., 0., 0., 0., 0., 0., 0., 0., 0.,
          0., 0., 0., 0., 0., 0., 0., 0., 0., 0., 0., 0., 0., 0., 0., 0.,
          0., 0., 0., 0., 0., 0., 0., 0., 0., 0. ]
      - [ 0., 0., 0., 1.45265844e-03, 6.53696293e-03, 4.35797544e-03,
          2.17898772e-03, 1.08949384e-02, 0., 0., 0., 3.63164605e-03,
          6.53696293e-03, 6.53696293e-03, 8.71595088e-03, 9.44228005e-03,
          0., 0., 0., 2.90531688e-03, 1.74319018e-02, 1.52529133e-02,
          8.71595088e-03, 1.45265842e-02, 0., 0., 0., 7.26329221e-04,
          6.53696293e-03, 8.71595088e-03, 7.26329209e-03, 1.81582309e-02,
          0., 0., 0., 0., 1.45265844e-03, 1.30739259e-02, 5.08430460e-03,
          9.44228005e-03, 0., 0., 0., 0., 1.45265844e-03, 3.63164605e-03,
          2.90531688e-03, 1.45265844e-03, 0., 0., 0., 0., 0., 0., 0., 0.,
          0., 0., 0., 0., 0., 0., 0., 0., 0., 0., 0., 2.17898772e-03,
          2.90531688e-03, 7.98962172e-03, 5.81063377e-03, 2.39688642e-02,
          0., 0., 0., 0., 3.63164605e-03, 3.63164605e-03, 1.38002550e-02,
          1.52529133e-02, 0., 0., 0., 0., 2.17898772e-03, 2.17898772e-03,
          1.45265844e-03, 0., 0., 0., 0., 0., 0., 0., 0., 0., 0., 0., 0.,
          0., 0., 0., 0., 0., 0., 0., 0., 0., 0., 0., 0., 0., 0., 0., 0.,
          0., 0., 0., 0., 0., 0., 0., 0., 0., 0., 0., 0., 0., 0., 0., 0.,
          2.90531688e-03, 2.90531688e-03, 5.08430460e-03, 6.53696293e-03,
          9.29701403e-02, 0., 0., 0., 2.90531688e-03, 2.90531688e-03,
          9.44228005e-03, 1.88845601e-02, 4.57587391e-02, 0., 0., 0., 0.,
          7.26329221e-04, 2.17898772e-03, 1.45265844e-03, 9.44228005e-03,
          0., 0., 7.26329221e-04, 0., 0., 7.26329221e-04, 1.45265844e-03,
          7.26329221e-04, 0., 0., 0., 0., 7.26329221e-04, 7.26329221e-04,
          0., 0., 0., 0., 0., 0., 0., 0., 0., 0., 0., 0., 0., 0., 0., 0.,
          0., 0., 0., 0., 0., 0., 0., 0., 0., 0., 0., 0., 7.26329221e-04,
          5.08430460e-03, 7.98962172e-03, 2.90531688e-03, 7.26329209e-03,
          6.31906390e-02, 0., 0., 7.26329221e-04, 7.26329209e-03,
          1.96108893e-02, 1.45265842e-02, 3.05058267e-02, 4.50324118e-02,
          0., 0., 5.81063377e-03, 6.53696293e-03, 4.79377285e-02,
          8.13488737e-02, 3.99481058e-02, 2.39688642e-02, 0.,
          7.26329221e-04, 0., 8.71595088e-03, 4.50324118e-02,
          1.56887114e-01, 9.07911509e-02, 2.10635476e-02, 0., 0.,
          2.17898772e-03, 3.63164605e-03, 5.08430451e-02, 2.59299546e-01,
          3.90765131e-01, 6.65317595e-01, 0., 0., 0., 7.26329221e-04,
          7.26329209e-03, 4.64850701e-02, 2.18625098e-01, 4.64124382e-01,
          0., 0., 0., 0., 0., 2.17898772e-03, 7.26329221e-04,
          2.17898772e-03, 0., 0., 0., 0., 0., 0., 0., 0., 0., 0.,
          7.26329221e-04, 1.45265844e-03, 5.81063377e-03, 0.,
          2.17898772e-03, 2.17898772e-03, 0., 0., 1.45265844e-03,
          3.63164605e-03, 1.45265844e-03, 7.26329221e-04, 0.,
          7.26329221e-04, 0., 0., 0., 1.45265844e-03, 1.67055726e-02, 0.,
          0., 0., 0., 0., 0., 7.26329221e-04, 1.45265844e-03,
          2.90531688e-03, 0., 0., 0., 0., 0., 0., 7.26329221e-04, 0., 0.,
          0., 0., 0., 0., 0., 0., 0., 0., 0., 0., 0., 0., 0., 0., 0., 0.,
          0., 0., 0., 0., 0., 0., 0., 0., 0., 0., 0., 0., 1.45265844e-03,
          5.08430460e-03, 1.45265844e-03, 1.45265844e-03, 7.26329221e-04,
          0., 0., 0., 4.35797544e-03, 3.63164605e-03, 0., 0., 0., 0., 0.,
          0., 0., 1.45265844e-03, 0., 0., 0., 0., 0., 0., 0.,
          2.90531688e-03, 0., 0., 0., 0., 0., 0., 0., 0., 0., 0., 0., 0.,
          0., 0., 0., 0., 0., 0., 0., 0., 0., 0., 0., 0., 0., 0., 0., 0.,
          0., 0., 0., 0., 0., 0., 0., 0., 0., 0., 0., 0., 0., 0., 0., 0.,
          0., 0., 0., 0., 0., 0., 0., 0., 0., 0., 0., 0., 0., 0., 0., 0.,
          0., 0., 0., 0., 0., 0., 0., 0., 0., 0., 0., 0., 0., 0., 0., 0.,
          0., 0., 0., 0., 0., 0., 0., 0., 0., 0., 0., 0., 0., 0., 0., 0.,
          0., 0., 0., 0., 0., 0., 0., 0., 0., 0., 0., 0., 0., 0., 0., 0.,
          0., 0., 0., 0., 0., 0., 0., 0., 0., 0., 0., 0., 0., 0., 0., 0.,
          0., 0., 0., 0., 0., 0., 0., 0., 0., 0., 0., 0., 0., 0., 0., 0.,
          0., 0., 0., 0., 0., 0., 0., 0., 0., 0., 0., 0., 0., 0., 0., 0.,
          0., 0., 0., 0., 0., 0., 0. ]
      - [ 0., 0., 1.33590016e-03, 1.26910508e-02, 1.13551514e-02,
          1.33590016e-03, 6.67950080e-04, 2.73859520e-02, 0., 0., 0.,
          1.40269510e-02, 1.80346519e-02, 6.67950045e-03, 1.06872013e-02,
          0., 0., 0., 0., 8.68335087e-03, 1.60308015e-02, 1.46949012e-02,
          1.66987516e-02, 2.67180032e-03, 0., 0., 0., 6.67950080e-04,
          8.01540073e-03, 1.33590009e-02, 2.20423527e-02, 1.66987516e-02,
          0., 0., 0., 0., 6.67950080e-04, 1.93705522e-02, 2.13744026e-02,
          1.80346519e-02, 0., 0., 0., 0., 0., 3.33975023e-03,
          2.67180032e-03, 6.67950080e-04, 0., 0., 0., 0., 0., 0., 0., 0.,
          0., 0., 0., 0., 0., 0., 0., 0., 0., 0., 2.67180032e-03,
          3.33975023e-03, 6.01155031e-03, 1.00192511e-02, 1.13551514e-02,
          3.27295512e-02, 0., 0., 1.33590016e-03, 4.00770037e-03,
          3.33975023e-03, 1.00192511e-02, 2.13744026e-02, 7.34745059e-03,
          0., 0., 0., 0., 0., 4.00770037e-03, 8.68335087e-03,
          4.67565050e-03, 0., 0., 0., 0., 4.00770037e-03, 2.67180032e-03,
          1.33590016e-03, 1.06872013e-02, 0., 0., 0., 0., 0., 0., 0.,
          2.00385018e-03, 0., 0., 0., 0., 0., 0., 0., 0., 0., 0., 0., 0.,
          0., 0., 0., 0., 0., 0., 0., 0., 0., 0., 0., 0., 0.,
          6.67950080e-04, 3.33975023e-03, 8.68335087e-03, 1.33590009e-02,
          1.00192511e-02, 1.20231006e-02, 5.94475567e-02, 0., 0.,
          2.00385018e-03, 1.46949012e-02, 3.87411043e-02, 7.14706555e-02,
          5.07642031e-02, 2.40462013e-02, 0., 0., 0., 6.67950080e-04,
          2.67180032e-03, 6.67950080e-04, 0., 0., 0., 0., 0., 0., 0., 0.,
          0., 0., 0., 0., 0., 0., 0., 0., 0., 0., 0., 0., 0., 0., 0., 0.,
          0., 0., 0., 0., 0., 0., 0., 0., 0., 0., 0., 0., 0., 0., 0., 0.,
          0., 0., 0., 0., 3.33975023e-03, 2.27103028e-02, 5.34360064e-03,
          1.20231006e-02, 1.66987516e-02, 6.54591024e-02, 0., 0.,
          1.06872013e-02, 6.14514053e-02, 2.05060661e-01, 9.48489085e-02,
          1.33590009e-02, 1.20231006e-02, 0., 0., 1.33590016e-03,
          4.27488051e-02, 3.11932683e-01, 5.70429325e-01, 2.73859520e-02,
          6.67950080e-04, 0., 0., 0., 2.67180032e-03, 1.36261806e-01,
          6.80641115e-01, 1.02864310e-01, 0., 0., 0., 0., 0.,
          6.67950080e-04, 7.34745059e-03, 2.07064524e-02, 0., 0., 0., 0.,
          0., 0., 0., 0., 0., 0., 0., 0., 0., 0., 0., 0., 0., 0., 0., 0.,
          0., 0., 0., 0., 0., 0., 0., 0., 6.67950080e-04, 0.,
          1.33590016e-03, 2.00385018e-03, 1.33590009e-02, 0., 0., 0.,
          3.33975023e-03, 6.67950080e-04, 0., 0., 0., 0., 0., 0., 0., 0.,
          0., 0., 0., 0., 0., 0., 0., 0., 0., 0., 0., 0., 0., 0., 0., 0.,
          0., 0., 0., 0., 0., 0., 0., 0., 0., 0., 0., 0., 0., 0., 0., 0.,
          0., 0., 0., 0., 0., 0., 0., 0., 0., 0., 0., 0., 0., 0.,
          3.33975023e-03, 2.00385018e-03, 1.33590016e-03, 1.33590016e-03,
          2.00385018e-03, 0., 0., 6.67950080e-04, 5.34360064e-03,
          2.67180032e-03, 0., 0., 0., 0., 0., 0., 2.67180032e-03, 0., 0.,
          0., 0., 0., 0., 0., 0., 0., 0., 0., 0., 0., 0., 0., 0., 0., 0.,
          0., 0., 0., 0., 0., 0., 0., 0., 0., 0., 0., 0., 0., 0., 0., 0.,
          0., 0., 0., 0., 0., 0., 0., 0., 0., 0., 0., 0., 0., 0., 0., 0.,
          0., 0., 0., 0., 0., 0., 0., 0., 0., 0., 0., 0., 0., 0., 0., 0.,
          0., 0., 0., 0., 0., 0., 0., 0., 0., 0., 0., 0., 0., 0., 0., 0.,
          0., 0., 0., 0., 0., 0., 0., 0., 0., 0., 0., 0., 0., 0., 0., 0.,
          0., 0., 0., 0., 0., 0., 0., 0., 0., 0., 0., 0., 0., 0., 0., 0.,
          0., 0., 0., 0., 0., 0., 0., 0., 0., 0., 0., 0., 0., 0., 0., 0.,
          0., 0., 0., 0., 0., 0., 0., 0., 0., 0., 0., 0., 0., 0., 0., 0.,
          0., 0., 0., 0., 0., 0., 0., 0., 0., 0., 0., 0., 0., 0., 0., 0.,
          0., 0., 0., 0., 0., 0., 0., 0., 0., 0. ]
      - [ 0., 8.02643131e-04, 1.84607934e-02, 2.08687216e-01,
          5.05665205e-02, 3.77242267e-02, 2.72898674e-02, 4.81585898e-02,
          0., 1.60528626e-03, 7.30405301e-02, 1.17988542e-01,
          5.69876656e-02, 4.49480154e-02, 3.21057253e-02, 6.42114505e-03,
          0., 1.28422901e-02, 1.76581498e-02, 3.69215868e-02,
          2.72898674e-02, 2.40792949e-02, 4.81585879e-03, 0., 0.,
          4.81585879e-03, 2.40792939e-03, 7.22378818e-03, 2.16713659e-02,
          1.04343612e-02, 1.52502200e-02, 4.81585879e-03, 0., 0., 0.,
          2.40792939e-03, 0., 8.82907491e-03, 1.12370038e-02,
          1.20396474e-02, 0., 0., 8.02643131e-04, 0., 0., 0., 0., 0., 0.,
          0., 0., 0., 0., 0., 0., 0., 0., 0., 0., 0., 0., 0., 0., 0., 0.,
          0., 1.36449337e-02, 4.33427319e-02, 1.20396474e-02,
          1.20396474e-02, 1.44475764e-02, 3.13030817e-02, 0.,
          8.02643131e-04, 5.61850192e-03, 5.61850192e-03, 1.20396474e-02,
          1.44475764e-02, 2.24740077e-02, 2.40792939e-03, 0., 0.,
          8.02643131e-04, 7.22378818e-03, 3.21057253e-03, 8.82907491e-03,
          1.60528626e-03, 0., 0., 0., 0., 0., 0., 1.60528626e-03, 0., 0.,
          0., 0., 0., 0., 0., 0., 0., 0., 0., 0., 0., 0., 0., 0., 0., 0.,
          0., 0., 0., 0., 0., 0., 0., 0., 0., 0., 0., 0., 0., 0., 0., 0.,
          0., 0., 1.60528626e-03, 7.54484534e-02, 5.61850192e-03, 0., 0.,
          6.42114505e-03, 0., 0., 0., 4.81585879e-03, 1.60528626e-03, 0.,
          0., 0., 0., 0., 0., 0., 0., 0., 0., 0., 0., 0., 0., 0., 0., 0.,
          0., 0., 0., 0., 0., 0., 0., 0., 0., 0., 0., 0., 0., 0., 0., 0.,
          0., 0., 0., 0., 0., 0., 0., 0., 0., 0., 0., 0., 0., 0., 0., 0.,
          0., 0., 0., 0., 1.60528626e-03, 5.47402620e-01, 3.42728615e-01,
          1.60528626e-03, 0., 6.42114505e-03, 0., 0., 0., 2.69688100e-01,
          1.95844933e-01, 0., 0., 0., 0., 0., 0., 1.04343612e-02, 0., 0.,
          0., 0., 0., 0., 0., 0., 0., 0., 0., 0., 0., 0., 0., 0., 0., 0.,
          0., 0., 0., 0., 0., 0., 0., 0., 0., 0., 0., 0., 0., 0., 0., 0.,
          0., 0., 0., 0., 0., 0., 0., 0., 0., 0., 0., 0., 3.61189432e-02,
          5.53823769e-01, 8.98960307e-02, 4.01321566e-03, 1.60528626e-03,
          8.02643131e-03, 0., 0., 8.02643131e-04, 1.71765640e-01,
          4.33427319e-02, 0., 0., 0., 0., 0., 0., 4.81585879e-03, 0., 0.,
          0., 0., 0., 0., 0., 0., 0., 0., 0., 0., 0., 0., 0., 0., 0., 0.,
          0., 0., 0., 0., 0., 0., 0., 0., 0., 0., 0., 0., 0., 0., 0., 0.,
          0., 0., 0., 0., 0., 0., 0., 0., 0., 0., 0., 0., 3.53162996e-02,
          1.54910132e-01, 3.21057253e-03, 3.21057253e-03, 0.,
          3.21057253e-03, 0., 0., 2.40792949e-02, 7.94616714e-02,
          2.40792939e-03, 0., 0., 0., 0., 0., 0., 2.16713659e-02, 0., 0.,
          0., 0., 0., 0., 0., 0., 0., 0., 0., 0., 0., 0., 0., 0., 0., 0.,
          0., 0., 0., 0., 0., 0., 0., 0., 0., 0., 0., 0., 0., 0., 0., 0.,
          0., 0., 0., 0., 0., 0., 0., 0., 0., 0., 0., 0., 0., 0., 0., 0.,
          0., 0., 0., 0., 0., 0., 0., 0., 0., 0., 0., 0., 0., 0., 0., 0.,
          0., 0., 0., 0., 0., 0., 0., 0., 0., 0., 0., 0., 0., 0., 0., 0.,
          0., 0., 0., 0., 0., 0., 0., 0., 0., 0., 0., 0., 0., 0., 0., 0.,
          0., 0., 0., 0., 0., 0., 0., 0., 0., 0., 0., 0., 0., 0., 0., 0.,
          0., 0., 0., 0., 0., 0., 0., 0., 0., 0., 0., 0., 0., 0., 0., 0.,
          0., 0., 0., 0., 0., 0., 0., 0., 0., 0., 0., 0., 0., 0., 0., 0.,
          0., 0., 0., 0., 0., 0., 0., 0., 0., 0., 0., 0., 0., 0., 0., 0.,
          0., 0., 0., 0., 0., 0., 0., 0., 0., 0. ]
      - [ 0., 0., 0., 5.34331717e-04, 0., 0., 2.67165853e-03,
          2.61822529e-02, 0., 0., 0., 4.27465374e-03, 3.20599019e-03,
          1.12209655e-02, 3.79375517e-02, 1.28239607e-02, 0.,
          5.34331717e-04, 1.06866343e-03, 5.87764848e-03, 7.21347779e-02,
          7.48064369e-02, 4.64868583e-02, 4.80898516e-03, 0.,
          1.06866343e-03, 2.67165853e-03, 2.67165843e-02, 5.07080793e-01,
          5.41812360e-01, 0., 0., 0., 3.74032184e-03, 2.67165853e-03,
          8.12184140e-02, 4.75020885e-01, 4.38686311e-01, 0., 0., 0.,
          2.13732687e-03, 5.34331717e-04, 2.51135901e-02, 7.26691112e-02,
          4.75555211e-02, 0., 0., 0., 5.34331717e-04, 1.06866343e-03,
          5.34331717e-04, 0., 0., 0., 0., 0., 0., 0., 0., 0., 0., 0., 0.,
          0., 0., 0., 0., 0., 0., 2.13732687e-03, 1.01523018e-02, 0., 0.,
          0., 5.34331717e-04, 1.06866343e-03, 0., 1.60299509e-03,
          2.13732687e-03, 0., 0., 0., 0., 2.67165853e-03, 1.06866343e-03,
          0., 0., 0., 0., 0., 0., 0., 0., 0., 0., 0., 0., 0.,
          5.34331717e-04, 0., 0., 0., 0., 0., 0., 0., 5.34331717e-04, 0.,
          0., 0., 0., 0., 0., 0., 0., 0., 0., 0., 0., 0., 0., 0., 0., 0.,
          0., 0., 0., 0., 0., 0., 0., 0., 0., 0., 5.34331717e-04, 0., 0.,
          0., 0., 0., 0., 0., 0., 0., 0., 0., 0., 0., 0., 0., 0., 0., 0.,
          0., 0., 0., 0., 0., 0., 0., 0., 0., 0., 0., 0., 0., 0., 0., 0.,
          0., 0., 0., 0., 0., 0., 0., 0., 0., 0., 0., 0., 0., 0., 0., 0.,
          0., 0., 0., 0., 0., 0., 0., 0., 0., 0., 0., 0., 0.,
          2.13732687e-03, 0., 0., 0., 0., 0., 0., 0., 0., 0., 0., 0., 0.,
          0., 0., 0., 0., 0., 0., 0., 0., 0., 0., 0., 0., 0., 0., 0., 0.,
          0., 0., 0., 0., 0., 0., 0., 0., 0., 0., 0., 0., 0., 0., 0., 0.,
          0., 0., 0., 0., 0., 0., 0., 0., 0., 0., 0., 0., 0., 0., 0., 0.,
          0., 0., 0., 7.48064369e-03, 0., 0., 0., 0., 0., 0., 0., 0., 0.,
          0., 0., 0., 0., 0., 0., 0., 0., 0., 0., 0., 0., 0., 0., 0., 0.,
          0., 0., 0., 0., 0., 0., 0., 0., 0., 0., 0., 0., 0., 0., 0., 0.,
          0., 0., 0., 0., 0., 0., 0., 0., 0., 0., 0., 0., 0., 0., 0., 0.,
          0., 0., 0., 0., 0., 0., 0., 0., 0., 0., 0., 0., 0., 0., 0., 0.,
          0., 5.34331717e-04, 5.34331717e-04, 4.27465374e-03,
          4.27465374e-03, 0., 0., 0., 0., 0., 1.60299509e-03, 0.,
          1.60299509e-03, 0., 0., 0., 0., 0., 0., 0., 0., 0., 0., 0., 0.,
          0., 0., 0., 0., 0., 0., 0., 0., 0., 0., 0., 0., 0., 0., 0., 0.,
          0., 0., 0., 0., 0., 0., 0., 0., 0., 0., 0., 0., 0., 0., 0., 0.,
          0., 0., 0., 0., 0., 0., 0., 0., 0., 0., 0., 0., 0., 0., 0., 0.,
          0., 0., 0., 0., 0., 0., 0., 0., 0., 0., 0., 0., 0., 0., 0., 0.,
          0., 0., 0., 0., 0., 0., 0., 0., 0., 0., 0., 0., 0., 0., 0., 0.,
          0., 0., 0., 0., 0., 0., 0., 0., 0., 0., 0., 0., 0., 0., 0., 0.,
          0., 0., 0., 0., 0., 0., 0., 0., 0., 0., 0., 0., 0., 0., 0., 0.,
          0., 0., 0., 0., 0., 0., 0., 0., 0., 0., 0., 0., 0., 0., 0., 0.,
          0., 0., 0., 0., 0., 0., 0., 0., 0., 0., 0., 0., 0., 0., 0., 0.,
          0., 0., 0., 0., 0., 0. ]
      - [ 0., 0., 9.27602290e-04, 4.63801157e-03, 1.85520458e-03,
          1.20588299e-02, 3.71040925e-02, 9.27602313e-03, 0., 0., 0.,
          7.42081832e-03, 2.59728637e-02, 4.45249118e-02, 6.12217523e-02,
          2.78280694e-02, 0., 0., 9.27602313e-03, 4.45249118e-02,
          1.39140338e-01, 6.40045553e-02, 2.59728637e-02, 1.94796473e-02,
          0., 0., 5.56561397e-03, 1.37285143e-01, 3.84027362e-01,
          2.43031800e-01, 1.85520463e-02, 2.96832733e-02, 0.,
          2.78280699e-03, 6.49321591e-03, 1.04819059e-01, 2.99615532e-01,
          1.13167480e-01, 1.85520458e-03, 2.59728637e-02, 0.,
          2.78280699e-03, 5.56561397e-03, 6.21493533e-02, 1.70678824e-01,
          3.61764878e-02, 6.49321591e-03, 5.56561397e-03, 0.,
          2.78280699e-03, 1.02036251e-02, 1.20588299e-02, 6.12217523e-02,
          2.69004665e-02, 4.63801157e-03, 0., 0., 3.71040916e-03,
          2.78280699e-03, 4.63801157e-03, 8.34842026e-03, 1.76244434e-02,
          0., 0., 0., 0., 0., 0., 0., 0., 9.27602290e-04, 5.56561397e-03,
          0., 0., 0., 0., 9.27602290e-04, 6.49321591e-03, 5.56561397e-03,
          4.63801157e-03, 0., 0., 0., 0., 1.02036251e-02, 1.02036251e-02,
          0., 0., 0., 0., 0., 0., 9.27602290e-04, 0., 0., 0., 0., 0., 0.,
          0., 0., 0., 0., 0., 0., 0., 0., 0., 0., 0., 0., 0., 0., 0., 0.,
          0., 0., 0., 0., 0., 0., 0., 9.27602290e-04, 0., 0., 0., 0., 0.,
          0., 0., 0., 0., 0., 0., 0., 1.76244434e-02, 0., 0., 0., 0.,
          9.27602290e-04, 5.56561397e-03, 3.71040916e-03, 1.85520458e-03,
          0., 0., 0., 0., 0., 1.85520458e-03, 1.85520458e-03, 0., 0., 0.,
          0., 0., 0., 0., 0., 0., 0., 0., 0., 0., 0., 0., 0., 0., 0., 0.,
          0., 0., 0., 0., 0., 0., 0., 0., 0., 0., 0., 0., 0., 0., 0., 0.,
          0., 0., 0., 0., 0., 0., 0., 0., 0., 0., 0., 0., 0., 0., 0., 0.,
          0., 0., 3.71040916e-03, 0., 0., 0., 0., 0., 0., 1.85520458e-03,
          0., 0., 0., 0., 0., 0., 0., 0., 0., 0., 0., 0., 0., 0., 0., 0.,
          0., 0., 0., 0., 0., 0., 0., 0., 0., 0., 0., 0., 0., 0., 0., 0.,
          0., 0., 0., 0., 0., 0., 0., 0., 0., 0., 0., 0., 0., 0., 0.,
          1.66968405e-02, 0., 0., 0., 0., 0., 0., 1.85520458e-03,
          1.20588299e-02, 3.52488868e-02, 0., 0., 0., 0., 0., 0.,
          1.29864318e-02, 8.34842026e-03, 0., 0., 0., 0., 0.,
          2.78280699e-03, 0., 0., 0., 0., 0., 0., 0., 9.27602290e-04, 0.,
          0., 0., 0., 0., 0., 0., 0., 0., 0., 0., 0., 0., 0., 0., 0., 0.,
          0., 0., 0., 0., 0., 0., 0., 0., 0., 0., 0., 0., 0., 0., 0.,
          4.63801157e-03, 0., 9.27602290e-04, 1.85520458e-03,
          2.78280699e-03, 0., 0., 1.85520458e-03, 2.50452626e-02,
          7.23529756e-02, 1.11312279e-02, 6.49321591e-03, 3.71040916e-03,
          0., 0., 3.71040916e-03, 8.16290006e-02, 5.80679059e-01,
          3.00543129e-01, 9.27602290e-04, 0., 0., 0., 5.56561397e-03,
          1.22443505e-01, 3.22805583e-01, 1.03891455e-01, 0., 0., 0., 0.,
          1.02036251e-02, 3.61764878e-02, 9.73982438e-02, 1.85520458e-03,
          0., 0., 0., 0., 3.71040916e-03, 5.56561397e-03, 1.20588299e-02,
          0., 0., 0., 0., 0., 1.85520458e-03, 9.27602290e-04, 0., 0., 0.,
          0., 0., 9.27602290e-04, 0., 0., 0., 0., 0., 0., 0., 0., 0., 0.,
          0., 0., 0., 0., 0., 0., 0., 0., 0., 0., 0., 0., 0., 0., 0., 0.,
          0., 0., 0., 0., 0., 0., 0., 0., 0., 0., 0., 0., 0., 0., 0., 0.,
          0., 0., 0., 0., 0., 0., 0., 0., 0., 0., 0., 0., 0., 0., 0., 0.,
          0., 0., 0., 0., 0., 0., 0., 0., 0., 0., 0., 0., 0., 0., 0., 0.,
          0., 0., 0., 0., 0., 0., 0., 0., 0., 0., 0., 0., 0., 0., 0., 0.,
          0., 0., 0., 0., 0., 0., 0., 0., 0., 0., 0., 0., 0., 0., 0., 0.,
          0., 0., 0., 0., 0., 0., 0., 0., 0., 0., 0., 0., 0., 0., 0., 0.,
          0., 0., 0., 0., 0., 0., 0., 0., 0., 0., 0., 0. ]
      - [ 0., 0., 0., 6.96701522e-04, 2.09010462e-03, 1.39340304e-03,
          5.57361217e-03, 8.70876908e-02, 0., 0., 2.09010462e-03,
          4.87691071e-03, 6.27031410e-03, 6.27031410e-03, 1.39340311e-02,
          2.50812564e-02, 0., 0., 6.96701522e-04, 4.18020925e-03,
          1.74175389e-02, 7.66371703e-03, 1.67208370e-02, 1.03111826e-01,
          0., 0., 3.48350778e-03, 1.39340311e-02, 5.71295284e-02,
          4.11053896e-02, 7.17602596e-02, 4.94658090e-02, 0., 0.,
          2.09010462e-03, 3.06548681e-02, 2.04830259e-01, 3.25359613e-01,
          4.66790050e-02, 2.78680609e-03, 0., 6.96701522e-04,
          6.96701522e-04, 1.01718426e-01, 4.53552693e-01, 6.78587317e-01,
          1.06595337e-01, 0., 0., 2.78680609e-03, 6.96701522e-04,
          1.07292041e-01, 3.07942092e-01, 6.75800517e-02, 6.96701522e-04,
          0., 0., 1.39340304e-03, 7.66371703e-03, 2.29911506e-02,
          1.24709576e-01, 5.57361217e-03, 0., 0., 0., 0., 0.,
          2.09010462e-03, 1.39340304e-03, 0., 0., 9.05712042e-03, 0., 0.,
          6.96701522e-04, 6.96701522e-04, 6.96701522e-04, 0., 0., 0., 0.,
          0., 6.96701522e-04, 0., 0., 0., 0., 0., 0., 0., 0., 0., 0., 0.,
          0., 0., 0., 0., 0., 0., 0., 0., 0., 0., 0., 0., 0., 0., 0., 0.,
          0., 0., 0., 0., 0., 0., 0., 0., 0., 0., 0., 0., 0., 0., 0., 0.,
          0., 0., 0., 0., 0., 1.39340304e-03, 0., 0., 0., 1.39340304e-03,
          0., 0., 0., 0., 0., 0., 0., 0., 0., 0., 0., 0., 0., 0., 0., 0.,
          0., 0., 0., 0., 0., 0., 0., 0., 0., 0., 0., 0., 0., 0., 0., 0.,
          0., 0., 0., 0., 0., 0., 0., 0., 0., 0., 0., 0., 0., 0., 0., 0.,
          0., 0., 0., 0., 0., 0., 0., 0., 0., 0., 0., 0., 0., 0., 0.,
          2.78680609e-03, 0., 0., 0., 0., 0., 0., 0., 0., 0., 0., 0., 0.,
          0., 0., 0., 0., 0., 0., 0., 0., 0., 0., 0., 0., 0., 0., 0., 0.,
          0., 0., 0., 0., 0., 0., 0., 0., 0., 0., 0., 0., 0., 0., 0., 0.,
          0., 0., 0., 0., 0., 0., 0., 0., 0., 0., 0., 0., 0., 0., 0.,
          1.39340304e-03, 6.96701522e-04, 0., 0., 8.36041849e-03, 0., 0.,
          0., 6.96701522e-04, 0., 0., 0., 0., 0., 0., 1.39340304e-03, 0.,
          0., 0., 0., 0., 0., 0., 0., 0., 0., 0., 0., 0., 0., 0., 0., 0.,
          0., 0., 0., 0., 0., 0., 0., 0., 0., 0., 0., 0., 0., 0., 0., 0.,
          0., 0., 0., 0., 0., 0., 0., 0., 0., 0., 0., 0., 0., 0.,
          6.96701522e-04, 0., 0., 6.96701522e-04, 6.96701522e-04,
          3.06548681e-02, 0., 0., 6.96701522e-04, 4.18020925e-03,
          1.39340304e-03, 2.09010462e-03, 2.09010462e-03, 4.18020925e-03,
          0., 0., 1.39340304e-03, 8.36041849e-03, 5.57361217e-03,
          6.96701522e-04, 0., 0., 0., 0., 1.39340304e-03, 9.05712042e-03,
          1.04505233e-02, 0., 0., 0., 0., 0., 6.96701522e-04,
          1.39340304e-03, 6.96701522e-04, 6.96701522e-04, 0., 0., 0.,
          6.96701522e-04, 6.96701522e-04, 0., 6.96701522e-04, 0., 0., 0.,
          0., 0., 0., 0., 0., 0., 0., 0., 0., 0., 0., 0., 0., 0., 0., 0.,
          0., 0., 0., 0., 0., 0., 0., 0., 0., 0., 0., 0., 0., 0., 0., 0.,
          0., 0., 0., 0., 0., 0., 0., 0., 0., 0., 0., 0., 0., 0., 0., 0.,
          0., 0., 0., 0., 0., 0., 0., 0., 0., 0., 0., 0., 0., 0., 0., 0.,
          0., 0., 0., 0., 0., 0., 0., 0., 0., 0., 0., 0., 0., 0., 0., 0.,
          0., 0., 0., 0., 0., 0., 0., 0., 0., 0., 0., 0., 0., 0., 0., 0.,
          0., 0., 0., 0., 0., 0., 0., 0., 0., 0., 0., 0., 0., 0., 0., 0.,
          0., 0., 0., 0., 0., 0., 0., 0., 0., 0., 0., 0., 0., 0., 0., 0.,
          0., 0., 0., 0., 0., 0., 0., 0., 0., 0., 0., 0., 0., 0., 0., 0. ]
      - [ 0., 0., 0., 6.30540599e-04, 1.89162185e-03, 1.89162185e-03,
          1.26108120e-03, 6.11624382e-02, 0., 0., 0., 8.19702819e-03,
          1.38718933e-02, 1.26108117e-02, 9.45810881e-03, 4.28767614e-02,
          0., 0., 1.26108120e-03, 1.32413525e-02, 1.72768131e-01,
          1.21063799e-01, 7.50343353e-02, 5.54875731e-02, 0., 0., 0.,
          8.13397393e-02, 5.47309220e-01, 6.19821429e-01, 3.97240594e-02,
          3.15270312e-02, 0., 0., 6.30540599e-04, 1.29260823e-01,
          3.46797347e-01, 3.14639777e-01, 1.70245972e-02, 1.26108117e-02,
          0., 0., 0., 5.80097362e-02, 6.87289238e-02, 2.96354089e-02,
          1.89162185e-03, 1.26108120e-03, 0., 0., 0., 1.38718933e-02,
          8.82756896e-03, 1.26108120e-03, 0., 0., 0., 0., 0., 0., 0., 0.,
          0., 0., 0., 0., 0., 0., 0., 0., 0., 2.14383807e-02, 0., 0., 0.,
          0., 0., 6.30540599e-04, 6.30540599e-04, 2.90048681e-02, 0., 0.,
          0., 1.89162185e-03, 0., 0., 1.00886496e-02, 1.13497311e-02, 0.,
          0., 0., 0., 1.26108120e-03, 0., 1.57635156e-02, 4.41378448e-03,
          0., 0., 0., 0., 0., 0., 3.78324371e-03, 0., 0., 0., 0., 0., 0.,
          6.30540599e-04, 6.30540599e-04, 0., 0., 0., 0., 0., 0., 0., 0.,
          0., 0., 0., 0., 0., 0., 0., 0., 0., 0., 0., 0., 0.,
          6.30540599e-04, 0., 0., 6.30540599e-04, 0., 0., 0., 0., 0., 0.,
          0., 0., 0., 0., 0., 0., 0., 0., 0., 0., 0., 0., 0., 0., 0., 0.,
          0., 0., 0., 0., 0., 0., 0., 0., 0., 0., 0., 0., 0., 0., 0., 0.,
          0., 0., 0., 0., 0., 0., 0., 0., 0., 0., 0., 0., 0., 0., 0., 0.,
          0., 0., 0., 0., 0., 0., 1.26108120e-03, 6.30540599e-04, 0., 0.,
          0., 0., 0., 0., 0., 0., 0., 0., 0., 0., 0., 0., 0., 0., 0., 0.,
          0., 0., 0., 0., 0., 0., 0., 0., 0., 0., 0., 0., 0., 0., 0., 0.,
          0., 0., 0., 0., 0., 0., 0., 0., 0., 0., 0., 0., 0., 0., 0., 0.,
          0., 0., 0., 0., 0., 0., 0., 0., 0., 0., 0., 1.26108120e-03,
          6.30540599e-04, 6.30540599e-04, 6.30540599e-04, 0., 0., 0., 0.,
          0., 0., 0., 0., 0., 0., 0., 0., 0., 0., 0., 0., 0., 0., 0., 0.,
          0., 0., 0., 0., 0., 0., 0., 0., 0., 0., 0., 0., 0., 0., 0., 0.,
          0., 0., 0., 0., 0., 0., 0., 0., 0., 0., 0., 0., 0., 0., 0., 0.,
          0., 0., 0., 0., 0., 0., 0., 0., 1.26108120e-03, 6.30540599e-04,
          0., 1.89162185e-03, 8.82756896e-03, 0., 0., 6.30540599e-04,
          3.15270294e-03, 1.89162185e-03, 0., 0., 0., 0., 0., 0.,
          2.52216239e-03, 0., 0., 0., 0., 0., 0., 0., 0., 0., 0., 0., 0.,
          0., 0., 0., 0., 0., 0., 0., 0., 0., 0., 0., 0., 0., 0., 0., 0.,
          0., 0., 0., 0., 0., 0., 0., 0., 0., 0., 0., 0., 0., 0., 0., 0.,
          0., 0., 0., 0., 0., 0., 0., 0., 0., 0., 0., 0., 0., 0., 0., 0.,
          0., 0., 0., 0., 0., 0., 0., 0., 0., 0., 0., 0., 0., 0., 0., 0.,
          0., 0., 0., 0., 0., 0., 0., 0., 0., 0., 0., 0., 0., 0., 0., 0.,
          0., 0., 0., 0., 0., 0., 0., 0., 0., 0., 0., 0., 0., 0., 0., 0.,
          0., 0., 0., 0., 0., 0., 0., 0., 0., 0., 0., 0., 0., 0., 0., 0.,
          0., 0., 0., 0., 0., 0., 0., 0., 0., 0., 0., 0., 0., 0., 0., 0.,
          0., 0., 0., 0., 0., 0., 0., 0., 0., 0., 0., 0., 0., 0., 0., 0.,
          0., 0., 0., 0., 0., 0., 0., 0., 0., 0., 0., 0., 0., 0., 0., 0. ]
      - [ 0., 0., 6.44060434e-04, 3.22030229e-03, 2.57624174e-03,
          1.28812087e-03, 3.22030229e-03, 7.92194381e-02, 0., 0., 0.,
          1.28812087e-03, 5.79654425e-03, 7.72872521e-03, 2.83386596e-02,
          7.40669519e-02, 0., 0., 6.44060434e-04, 1.09490277e-02,
          2.83386596e-02, 3.86436284e-02, 3.22030224e-02, 5.73213808e-02,
          0., 0., 1.28812087e-03, 2.44742967e-02, 9.98293683e-02,
          3.37487668e-01, 2.83386596e-02, 3.28470841e-02, 0., 0.,
          1.93218130e-03, 4.89485934e-02, 4.79180962e-01, 7.20703661e-01,
          2.06099339e-02, 5.79654425e-03, 0., 0., 1.93218130e-03,
          1.43625483e-01, 2.26709276e-01, 8.37278590e-02, 1.03049669e-02,
          0., 0., 0., 2.57624174e-03, 1.14642762e-01, 6.82704076e-02,
          1.54574504e-02, 0., 0., 0., 0., 6.44060434e-04, 5.98976202e-02,
          7.08466489e-03, 0., 0., 0., 0., 0., 0., 0., 1.28812087e-03, 0.,
          0., 2.57624174e-03, 0., 0., 0., 1.28812087e-03, 1.28812087e-03,
          3.22030229e-03, 1.03049669e-02, 3.34911421e-02, 0., 0., 0., 0.,
          1.28812087e-03, 0., 1.28812087e-03, 6.44060434e-04, 0., 0., 0.,
          0., 0., 0., 5.15248347e-03, 0., 0., 0., 0., 0., 0., 0.,
          1.93218130e-03, 0., 0., 0., 0., 0., 0., 6.44060434e-04, 0., 0.,
          0., 0., 0., 0., 0., 0., 0., 0., 0., 0., 0., 0., 0., 0., 0., 0.,
          0., 0., 0., 6.44060434e-04, 0., 1.28812087e-03, 0., 0., 0., 0.,
          0., 0., 0., 0., 0., 0., 0., 0., 0., 0., 0., 0., 0., 0., 0., 0.,
          0., 0., 0., 0., 0., 0., 0., 0., 0., 0., 0., 0., 0., 0., 0., 0.,
          0., 0., 0., 0., 0., 0., 0., 0., 0., 0., 0., 0., 0., 0., 0., 0.,
          0., 0., 0., 0., 0., 0., 0., 0., 0., 0., 0., 0., 0., 0., 0., 0.,
          0., 0., 0., 0., 0., 0., 0., 0., 0., 0., 0., 0., 0., 0., 0., 0.,
          0., 0., 0., 0., 0., 0., 0., 0., 0., 0., 0., 0., 0., 0., 0., 0.,
          0., 0., 0., 0., 0., 0., 0., 0., 0., 0., 0., 0., 0., 0., 0., 0.,
          0., 0., 0., 0., 0., 0., 0., 0., 0., 6.44060434e-04, 0., 0., 0.,
          1.28812087e-03, 0., 0., 1.93218130e-03, 6.44060434e-04, 0., 0.,
          0., 0., 0., 0., 6.44060434e-04, 0., 0., 0., 0., 0., 0., 0., 0.,
          0., 0., 0., 0., 0., 0., 0., 0., 0., 0., 0., 0., 0., 0., 0., 0.,
          0., 0., 0., 0., 0., 0., 0., 0., 0., 0., 0., 0., 0., 0., 0., 0.,
          0., 0., 0., 0., 0., 0., 0., 0., 1.93218130e-03, 0., 0., 0.,
          1.15930885e-02, 0., 6.44060434e-04, 6.44060434e-04,
          2.57624174e-03, 0., 0., 0., 0., 0., 0., 1.28812087e-03,
          1.28812087e-03, 2.57624174e-03, 6.44060434e-04, 0., 0., 0., 0.,
          6.44060434e-04, 3.22030229e-03, 5.15248347e-03, 1.93218130e-03,
          0., 0., 0., 0., 0., 3.86436260e-03, 6.44060434e-04, 0., 0., 0.,
          0., 0., 0., 0., 0., 0., 0., 0., 0., 0., 0., 0., 0., 0., 0., 0.,
          0., 0., 0., 0., 0., 0., 0., 0., 0., 0., 0., 0., 0., 0., 0., 0.,
          0., 0., 0., 0., 0., 0., 0., 0., 0., 0., 0., 0., 0., 0., 0., 0.,
          0., 0., 0., 0., 0., 0., 0., 0., 0., 0., 0., 0., 0., 0., 0., 0.,
          0., 0., 0., 0., 0., 0., 0., 0., 0., 0., 0., 0., 0., 0., 0., 0.,
          0., 0., 0., 0., 0., 0., 0., 0., 0., 0., 0., 0., 0., 0., 0., 0.,
          0., 0., 0., 0., 0., 0., 0., 0., 0., 0., 0., 0., 0., 0., 0., 0.,
          0., 0., 0., 0., 0., 0., 0., 0., 0., 0., 0., 0., 0., 0., 0., 0.,
          0., 0., 0., 0., 0., 0., 0., 0., 0., 0., 0., 0., 0., 0., 0., 0.,
          0., 0., 0., 0., 0., 0., 0., 0. ]
      - [ 0., 0., 0., 5.32302298e-02, 2.25848258e-01, 3.11777052e-02,
          1.44482050e-02, 4.33446169e-02, 0., 0., 2.28129560e-03,
          1.44482046e-01, 8.24308097e-01, 9.50539783e-02, 3.87820229e-02,
          1.21669099e-02, 0., 0., 3.04172747e-03, 1.01137437e-01,
          2.40296468e-01, 7.22410232e-02, 3.19381393e-02, 3.04172747e-03,
          0., 0., 7.60431867e-04, 1.74899325e-02, 6.53971359e-02,
          2.73755472e-02, 1.59690697e-02, 1.52086373e-02, 0., 0., 0., 0.,
          2.05316599e-02, 2.96568424e-02, 2.43338197e-02, 1.74899325e-02,
          0., 0., 0., 0., 2.28129560e-03, 1.52086373e-03, 0.,
          4.56259120e-03, 0., 0., 0., 0., 0., 0., 0., 0., 0., 0., 0., 0.,
          0., 0., 0., 0., 0., 0., 0., 7.60431867e-04, 4.03028876e-02,
          4.03028876e-02, 3.57402973e-02, 4.71467748e-02, 0., 0., 0., 0.,
          9.88561381e-03, 1.97712276e-02, 3.04172747e-02, 7.60431867e-04,
          0., 0., 0., 0., 1.52086373e-03, 4.56259120e-03, 1.52086373e-03,
          1.52086373e-03, 0., 0., 0., 0., 0., 0., 1.52086373e-03,
          3.04172747e-03, 0., 0., 0., 0., 0., 0., 0., 0., 0., 0., 0., 0.,
          0., 0., 0., 0., 0., 0., 0., 0., 0., 0., 0., 0., 0., 0., 0., 0.,
          0., 0., 0., 0., 0., 0., 0., 6.08345494e-03, 3.65007296e-02,
          1.21669099e-02, 1.67295001e-02, 2.43338197e-02, 0., 0., 0.,
          7.60431867e-03, 1.36877736e-02, 0., 0., 0., 0., 0., 0., 0., 0.,
          0., 0., 0., 0., 0., 0., 0., 0., 0., 0., 0., 0., 0., 0., 0., 0.,
          0., 0., 0., 0., 0., 0., 0., 0., 0., 0., 0., 0., 0., 0., 0., 0.,
          0., 0., 0., 0., 0., 0., 0., 0., 0., 0., 0., 0., 0., 0.,
          2.96568424e-02, 8.82100910e-02, 4.56259120e-03, 1.52086373e-03,
          1.52086373e-03, 0., 0., 0., 1.59690697e-02, 6.84388652e-02,
          1.52086373e-03, 0., 0., 0., 0., 0., 0., 0., 0., 0., 0., 0., 0.,
          0., 0., 0., 0., 0., 0., 0., 0., 0., 0., 0., 0., 0., 0., 0., 0.,
          0., 0., 0., 0., 0., 0., 0., 0., 0., 0., 0., 0., 0., 0., 0., 0.,
          0., 0., 0., 0., 0., 0., 0., 0., 2.28129560e-03, 9.88561437e-02,
          9.73352790e-02, 3.04172747e-03, 2.28129560e-03, 7.60431867e-04,
          0., 0., 3.04172747e-03, 2.35733874e-02, 2.66151149e-02,
          7.60431867e-04, 0., 0., 0., 0., 0., 2.28129560e-03,
          1.44482050e-02, 0., 0., 0., 0., 0., 0., 1.52086373e-03,
          5.32302307e-03, 1.44482050e-02, 0., 0., 0., 0., 0., 0., 0., 0.,
          0., 0., 0., 0., 0., 0., 0., 0., 0., 0., 0., 0., 0., 0., 0., 0.,
          0., 0., 0., 0., 0., 0., 0., 0., 0., 0., 0., 0., 7.60431867e-04,
          6.91993013e-02, 1.52086377e-01, 0., 2.28129560e-03,
          9.12518241e-03, 0., 0., 3.04172747e-03, 8.28870684e-02,
          2.61588544e-01, 2.35733874e-02, 0., 0., 0., 0., 0.,
          4.56259120e-03, 2.05316599e-02, 0., 0., 0., 0., 0., 0., 0., 0.,
          0., 0., 0., 0., 0., 0., 0., 0., 0., 0., 0., 0., 0., 0., 0., 0.,
          0., 0., 0., 0., 0., 0., 0., 0., 0., 0., 0., 0., 0., 0., 0., 0.,
          0., 0., 0., 0., 0., 0., 0., 0., 0., 0., 0., 0., 0., 0., 0., 0.,
          0., 0., 0., 0., 0., 0., 0., 0., 0., 0., 0., 0., 0., 0., 0., 0.,
          0., 0., 0., 0., 0., 0., 0., 0., 0., 0., 0., 0., 0., 0., 0., 0.,
          0., 0., 0., 0., 0., 0., 0., 0., 0., 0., 0., 0., 0., 0., 0., 0.,
          0., 0., 0., 0., 0., 0., 0., 0., 0., 0., 0., 0., 0., 0., 0., 0.,
          0., 0., 0., 0., 0., 0., 0., 0., 0., 0., 0., 0., 0., 0., 0., 0.,
          0., 0., 0., 0., 0., 0., 0., 0., 0., 0., 0., 0., 0., 0., 0., 0.,
          0., 0., 0., 0., 0., 0., 0., 0., 0., 0., 0., 0., 0., 0., 0., 0.,
          0., 0., 0. ]
      - [ 0., 1.84629334e-03, 1.23086222e-03, 6.15431136e-03,
          3.69258667e-03, 1.23086222e-03, 1.23086222e-03, 1.66166406e-02,
          0., 6.15431112e-04, 3.07715568e-03, 1.41549157e-02,
          1.10777598e-02, 7.38517335e-03, 6.15431136e-03, 1.23086222e-03,
          0., 0., 6.15431112e-04, 1.84629334e-03, 4.30801790e-03,
          1.16931917e-02, 1.90783646e-02, 6.15431112e-04, 0., 0., 0., 0.,
          9.23146680e-03, 7.38517335e-03, 5.53887989e-03, 0., 0., 0., 0.,
          0., 6.15431112e-04, 6.15431112e-04, 0., 0., 0., 0., 0., 0., 0.,
          0., 0., 0., 0., 0., 0., 0., 0., 0., 0., 0., 0., 0., 0., 0., 0.,
          0., 0., 0., 0., 1.23086222e-03, 0., 6.15431112e-04,
          3.69258667e-03, 4.92344890e-03, 4.92344890e-03, 3.20024192e-02,
          0., 6.15431112e-04, 0., 0., 3.07715568e-03, 8.61603580e-03,
          9.23146680e-03, 7.38517335e-03, 0., 0., 0., 6.15431112e-04,
          6.15431136e-03, 9.23146680e-03, 6.76974235e-03, 0., 0., 0., 0.,
          0., 6.15431112e-04, 3.07715568e-03, 0., 0., 0., 0., 0., 0., 0.,
          0., 0., 0., 0., 0., 0., 0., 0., 0., 0., 0., 0., 0., 0., 0., 0.,
          0., 0., 0., 0., 0., 0., 0., 0., 0., 0., 0., 0., 0., 0., 0.,
          3.07715568e-03, 8.00060481e-03, 1.84629334e-03, 2.46172454e-02,
          0., 1.23086222e-03, 0., 6.15431112e-04, 9.84689780e-03,
          1.41549157e-02, 1.60012096e-02, 2.46172445e-03, 6.15431112e-04,
          0., 0., 6.15431112e-04, 2.46172445e-03, 2.46172445e-03,
          1.60012096e-02, 1.41549157e-02, 0., 0., 0., 0., 0., 0.,
          6.15431112e-04, 0., 0., 0., 0., 0., 0., 0., 0., 0., 0., 0., 0.,
          0., 0., 0., 0., 0., 0., 0., 0., 0., 0., 0., 0., 0., 0., 0., 0.,
          0., 0., 0., 0., 0., 0., 0., 6.15431112e-04, 4.92344890e-03,
          1.23086222e-03, 0., 0., 2.21555196e-02, 6.15431112e-04,
          6.15431112e-04, 1.23086222e-03, 2.27709524e-02, 1.78475026e-02,
          7.38517335e-03, 1.29240537e-02, 7.38517335e-03, 0.,
          6.15431112e-04, 1.84629334e-03, 1.41549157e-02, 1.59396663e-01,
          1.00315273e-01, 3.01561244e-02, 3.32332812e-02, 0., 0.,
          4.30801790e-03, 1.84629334e-03, 1.64935544e-01, 4.27109212e-01,
          1.55704081e-01, 5.53887989e-03, 0., 0., 0., 0., 2.89252624e-02,
          1.93245366e-01, 8.07445645e-01, 1.02776997e-01, 0., 0., 0., 0.,
          0., 4.30801790e-03, 1.16931915e-01, 8.24677721e-02, 0., 0., 0.,
          0., 0., 0., 0., 0., 0., 0., 0., 0., 0., 0., 0., 0., 0.,
          1.23086222e-03, 0., 8.00060481e-03, 6.15431112e-04, 0., 0.,
          1.23086222e-03, 0., 0., 6.15431112e-04, 1.96937956e-02,
          1.84629334e-03, 0., 0., 0., 0., 0., 0., 1.23086222e-03,
          8.00060481e-03, 0., 0., 0., 0., 0., 0., 0., 0., 0., 0., 0., 0.,
          0., 0., 0., 0., 0., 0., 0., 0., 0., 0., 0., 0., 0., 0., 0., 0.,
          0., 0., 0., 0., 0., 0., 0., 0., 0., 0., 0., 0., 0., 0., 0., 0.,
          0., 0., 1.84629334e-03, 1.84629334e-03, 0., 0., 6.15431112e-04,
          0., 0., 2.46172445e-03, 1.72320716e-02, 1.84629334e-03, 0., 0.,
          0., 0., 0., 0., 6.15431136e-03, 3.69258667e-03, 6.15431112e-04,
          0., 0., 0., 0., 0., 0., 0., 0., 0., 0., 0., 0., 0., 0., 0., 0.,
          0., 0., 0., 0., 0., 0., 0., 0., 0., 0., 0., 0., 0., 0., 0., 0.,
          0., 0., 0., 0., 0., 0., 0., 0., 0., 0., 0., 0., 0., 0., 0., 0.,
          0., 0., 0., 0., 0., 0., 0., 0., 0., 0., 0., 0., 0., 0., 0., 0.,
          0., 0., 0., 0., 0., 0., 0., 0., 0., 0., 0., 0., 0., 0., 0., 0.,
          0., 0., 0., 0., 0., 0., 0., 0., 0., 0., 0., 0., 0., 0., 0., 0.,
          0., 0., 0., 0., 0., 0., 0., 0., 0., 0., 0., 0., 0., 0., 0., 0.,
          0., 0., 0., 0., 0., 0., 0., 0., 0., 0., 0., 0., 0., 0., 0., 0.,
          0., 0., 0., 0., 0., 0., 0., 0., 0., 0., 0., 0., 0., 0., 0., 0.,
          0., 0., 0., 0., 0., 0., 0., 0., 0., 0., 0., 0., 0., 0., 0., 0.,
          0., 0., 0., 0., 0., 0., 0., 0., 0., 0. ]
      - [ 0., 1.90724246e-03, 0., 2.67013945e-02, 5.14955446e-02,
          1.43043185e-02, 1.90724246e-02, 2.00260449e-02, 0.,
          2.86086369e-03, 1.14434548e-02, 6.10317588e-02, 2.04074934e-01,
          4.95883040e-02, 3.33767422e-02, 1.90724246e-03, 0., 0.,
          6.67534862e-03, 5.24491668e-02, 1.56393871e-01, 8.39186683e-02,
          3.24231200e-02, 0., 0., 7.62896985e-03, 3.81448492e-03,
          2.00260449e-02, 9.72693637e-02, 6.86607286e-02, 1.33506972e-02,
          0., 0., 9.53621231e-04, 1.90724246e-03, 1.33506972e-02,
          1.03944711e-01, 4.19593342e-02, 0., 0., 0., 0., 0.,
          1.52579397e-02, 3.24231200e-02, 3.43303643e-02, 3.81448492e-03,
          0., 0., 0., 3.81448492e-03, 1.90724246e-03, 0., 6.67534862e-03,
          3.81448492e-03, 0., 0., 0., 0., 0., 0., 0., 0., 0., 0., 0., 0.,
          3.81448492e-03, 2.09796671e-02, 1.23970760e-02, 1.81188025e-02,
          5.72172739e-03, 0., 0., 0., 4.76810616e-03, 1.04898335e-02,
          1.90724246e-02, 2.86086369e-03, 0., 0., 0., 0., 0.,
          1.04898335e-02, 5.72172739e-03, 0., 0., 0., 0., 0., 0.,
          3.81448492e-03, 0., 0., 0., 0., 0., 0., 0., 0., 0., 0., 0., 0.,
          0., 0., 0., 0., 0., 0., 0., 0., 0., 0., 0., 0., 0., 0., 0., 0.,
          0., 0., 0., 0., 0., 0., 0., 0., 0., 0., 5.72172739e-03,
          1.62115600e-02, 4.76810616e-03, 1.04898335e-02, 4.48201969e-02,
          0., 0., 0., 7.62896985e-03, 1.33506972e-02, 9.53621231e-04,
          4.76810616e-03, 9.53621231e-03, 0., 0., 0., 0., 0., 0., 0., 0.,
          0., 0., 0., 0., 0., 0., 0., 0., 0., 0., 0., 0., 0., 0., 0., 0.,
          0., 0., 0., 0., 0., 0., 0., 0., 0., 0., 0., 0., 0., 0., 0., 0.,
          0., 0., 0., 0., 0., 0., 0., 0., 0., 0., 9.53621231e-04,
          5.05419225e-02, 3.01344305e-01, 5.72172739e-02, 1.23970760e-02,
          1.52579397e-02, 0., 0., 0., 3.43303643e-02, 5.38796008e-01,
          3.90984684e-01, 0., 0., 0., 0., 0., 0., 8.67795274e-02,
          1.77373543e-01, 0., 0., 0., 0., 0., 0., 0., 0., 0., 0., 0., 0.,
          0., 0., 0., 0., 0., 0., 0., 0., 0., 0., 0., 0., 0., 0., 0., 0.,
          0., 0., 0., 0., 0., 0., 0., 0., 0., 0., 0., 0., 0., 0., 0.,
          1.90724246e-03, 1.90724246e-03, 7.62896985e-02, 2.01214075e-01,
          0., 0., 1.14434548e-02, 0., 0., 0., 5.81708923e-02,
          2.16472015e-01, 1.04898335e-02, 0., 0., 0., 0., 0.,
          9.53621231e-04, 1.90724246e-03, 0., 0., 0., 0., 0., 0., 0., 0.,
          0., 0., 0., 0., 0., 0., 0., 0., 0., 0., 0., 0., 0., 0., 0., 0.,
          0., 0., 0., 0., 0., 0., 0., 0., 0., 0., 0., 0., 0., 0., 0., 0.,
          0., 0., 0., 0., 9.53621231e-04, 0., 2.19332874e-02,
          5.72172739e-02, 0., 0., 1.04898335e-02, 0., 0., 2.86086369e-03,
          8.20114240e-02, 4.11010742e-01, 3.14695016e-02, 0., 0., 0., 0.,
          9.53621231e-04, 2.38405298e-02, 1.30646110e-01, 3.62376049e-02,
          0., 0., 0., 0., 0., 0., 3.81448492e-03, 4.76810616e-03, 0., 0.,
          0., 0., 0., 0., 0., 0., 0., 0., 0., 0., 0., 0., 0., 0., 0., 0.,
          0., 0., 0., 0., 0., 0., 0., 0., 0., 0., 0., 0., 0., 0., 0., 0.,
          0., 0., 0., 0., 0., 0., 0., 0., 0., 0., 0., 0., 0., 0., 0., 0.,
          0., 0., 0., 0., 0., 0., 0., 0., 0., 0., 0., 0., 0., 0., 0., 0.,
          0., 0., 0., 0., 0., 0., 0., 0., 0., 0., 0., 0., 0., 0., 0., 0.,
          0., 0., 0., 0., 0., 0., 0., 0., 0., 0., 0., 0., 0., 0., 0., 0.,
          0., 0., 0., 0., 0., 0., 0., 0., 0., 0., 0., 0., 0., 0., 0., 0.,
          0., 0., 0., 0., 0., 0., 0., 0., 0., 0., 0., 0., 0., 0., 0., 0.,
          0., 0., 0., 0., 0., 0., 0., 0., 0., 0., 0., 0., 0., 0., 0., 0.,
          0., 0., 0., 0., 0., 0., 0., 0., 0., 0., 0., 0., 0., 0., 0., 0. ]
      - [ 0., 0., 3.80539969e-02, 1.26306891e-01, 3.31960395e-02,
          3.15767229e-02, 2.50994451e-02, 6.07244670e-02, 0., 0.,
          4.04829755e-02, 9.71591473e-02, 4.53409329e-02, 2.34801266e-02,
          3.88636589e-02, 1.78125091e-02, 0., 1.61931908e-03,
          1.45738721e-02, 5.01988903e-02, 2.75284238e-02, 1.13352332e-02,
          2.59091053e-02, 2.75284238e-02, 0., 8.09659541e-04,
          8.09659541e-04, 3.48153599e-02, 2.10511480e-02, 3.23863812e-02,
          2.10511480e-02, 0., 0., 0., 0., 1.53835313e-02, 2.26704665e-02,
          1.61931908e-03, 0., 0., 0., 0., 0., 8.09659541e-04, 0., 0., 0.,
          0., 0., 0., 0., 0., 0., 0., 0., 0., 0., 0., 0., 0., 0., 0., 0.,
          0., 0., 0., 2.42897868e-03, 4.85795736e-02, 6.63920790e-02,
          3.31960395e-02, 7.85369724e-02, 3.96733172e-02, 0., 0.,
          7.28693604e-03, 4.85795736e-03, 3.23863816e-03, 4.04829765e-03,
          1.61931906e-02, 9.71591473e-03, 0., 0., 0., 8.09659541e-04,
          2.42897868e-03, 4.04829765e-03, 2.42897868e-03, 2.42897868e-03,
          0., 0., 0., 0., 8.09659541e-04, 9.71591473e-03, 1.61931908e-03,
          0., 0., 0., 0., 0., 2.42897868e-03, 1.61931908e-03, 0., 0., 0.,
          0., 0., 0., 0., 0., 0., 0., 0., 0., 0., 0., 0., 0., 0., 0., 0.,
          0., 0., 0., 0., 0., 0., 0., 0., 0., 8.09659541e-04,
          3.56250182e-02, 1.78125091e-02, 6.47727633e-03, 7.28693604e-03,
          5.66761661e-03, 0., 0., 0., 4.04829765e-03, 0., 0., 0., 0., 0.,
          0., 0., 0., 0., 0., 0., 0., 0., 0., 0., 0., 0., 0., 0., 0., 0.,
          0., 0., 0., 0., 0., 0., 0., 0., 0., 0., 0., 0., 0., 0., 0., 0.,
          0., 0., 0., 0., 0., 0., 0., 0., 0., 0., 0., 0., 0., 0., 0., 0.,
          8.09659541e-04, 1.53835313e-02, 3.09289932e-01, 7.75653839e-01,
          1.94318295e-02, 1.70028508e-02, 1.86221693e-02, 0., 0.,
          7.28693604e-03, 1.65170550e-01, 2.69616634e-01, 1.61931908e-03,
          0., 0., 0., 0., 0., 2.42897868e-03, 4.12926376e-02,
          3.23863816e-03, 0., 0., 0., 0., 0., 0., 4.04829765e-03,
          2.10511480e-02, 7.28693604e-03, 0., 0., 0., 0., 0., 0.,
          1.21448934e-02, 4.04829765e-03, 0., 0., 0., 0., 0., 0., 0., 0.,
          0., 0., 0., 0., 0., 0., 0., 0., 0., 0., 0., 0., 0., 0., 0., 0.,
          0., 0., 0., 4.37216163e-02, 2.45326847e-01, 1.83792710e-01,
          1.37642119e-02, 8.90625454e-03, 1.78125091e-02, 0., 0.,
          2.59091053e-02, 1.68409184e-01, 8.90625454e-03, 0., 0., 0., 0.,
          0., 3.23863816e-03, 1.61931908e-03, 1.61931908e-03, 0., 0., 0.,
          0., 0., 0., 0., 0., 0., 0., 0., 0., 0., 0., 0., 0., 0., 0., 0.,
          0., 0., 0., 0., 0., 0., 0., 0., 0., 0., 0., 0., 0., 0., 0., 0.,
          0., 0., 0., 0., 0., 0., 0., 0., 0., 0., 2.26704665e-02,
          6.72017410e-02, 6.47727633e-03, 2.42897868e-03, 8.09659541e-04,
          7.28693604e-03, 0., 0., 3.96733172e-02, 1.53835313e-02, 0., 0.,
          0., 0., 0., 0., 1.37642119e-02, 8.09659529e-03, 0., 0., 0., 0.,
          0., 0., 0., 0., 0., 0., 0., 0., 0., 0., 0., 0., 0., 0., 0., 0.,
          0., 0., 0., 0., 0., 0., 0., 0., 0., 0., 0., 0., 0., 0., 0., 0.,
          0., 0., 0., 0., 0., 0., 0., 0., 0., 0., 0., 0., 0., 0., 0., 0.,
          0., 0., 0., 0., 0., 0., 0., 0., 0., 0., 0., 0., 0., 0., 0., 0.,
          0., 0., 0., 0., 0., 0., 0., 0., 0., 0., 0., 0., 0., 0., 0., 0.,
          0., 0., 0., 0., 0., 0., 0., 0., 0., 0., 0., 0., 0., 0., 0., 0.,
          0., 0., 0., 0., 0., 0., 0., 0., 0., 0., 0., 0., 0., 0., 0., 0.,
          0., 0., 0., 0., 0., 0., 0., 0., 0., 0., 0., 0., 0., 0., 0., 0.,
          0., 0., 0., 0., 0., 0., 0., 0., 0., 0., 0., 0., 0., 0., 0., 0.,
          0., 0., 0., 0., 0., 0., 0., 0., 0., 0., 0., 0., 0., 0., 0., 0.,
          0., 0., 0., 0., 0., 0., 0., 0. ]
      - [ 0., 0., 1.44794246e-03, 9.19443443e-02, 4.64789510e-01,
          3.04067917e-02, 8.68765451e-03, 4.12663594e-02, 0., 0.,
          3.61985597e-03, 1.86784580e-01, 7.71029353e-01, 4.56101857e-02,
          2.53389925e-02, 1.30314818e-02, 0., 0., 3.61985597e-03,
          7.81888887e-02, 1.70857206e-01, 6.80532977e-02, 4.85060699e-02,
          1.44794246e-03, 0., 0., 1.44794246e-03, 3.47506180e-02,
          8.54286030e-02, 4.77821007e-02, 3.40266488e-02, 2.89588491e-03,
          0., 0., 0., 2.89588491e-03, 3.25787030e-02, 1.66513380e-02,
          1.88232511e-02, 1.01355966e-02, 0., 0., 0., 0., 1.44794246e-03,
          3.61985597e-03, 7.23971229e-04, 8.68765451e-03, 0., 0., 0., 0.,
          0., 0., 0., 0., 0., 0., 0., 0., 0., 0., 0., 0., 0., 0., 0.,
          2.38910504e-02, 4.99540120e-02, 2.82348767e-02, 3.18547338e-02,
          3.61985601e-02, 0., 0., 0., 5.06779831e-03, 2.02711932e-02,
          1.88232511e-02, 4.05423865e-02, 1.44794246e-03, 0., 0., 0., 0.,
          2.89588491e-03, 3.61985597e-03, 7.23971194e-03, 1.44794246e-03,
          0., 0., 0., 0., 1.44794246e-03, 7.23971229e-04, 6.51574088e-03,
          4.34382726e-03, 0., 0., 0., 0., 0., 0., 2.17191363e-03, 0., 0.,
          0., 0., 0., 0., 0., 0., 0., 0., 0., 0., 0., 0., 0., 0., 0., 0.,
          0., 0., 0., 0., 0., 0., 0., 0., 0., 0., 1.88232511e-02,
          2.67869346e-02, 1.23075107e-02, 9.41162556e-03, 2.60629635e-02,
          0., 0., 0., 1.01355966e-02, 9.41162556e-03, 0., 0., 0., 0., 0.,
          0., 0., 0., 0., 0., 0., 0., 0., 0., 0., 0., 0., 0., 0., 0., 0.,
          0., 0., 0., 0., 0., 0., 0., 0., 0., 0., 0., 0., 0., 0., 0., 0.,
          0., 0., 0., 0., 0., 0., 0., 0., 0., 0., 0., 0., 0., 0., 0., 0.,
          0., 2.02711932e-02, 7.38450661e-02, 0., 0., 0., 0., 0., 0.,
          4.34382726e-03, 1.66513380e-02, 7.23971229e-04, 0., 0., 0., 0.,
          0., 0., 0., 0., 0., 0., 0., 0., 0., 0., 0., 4.34382726e-03,
          1.44794246e-03, 0., 0., 0., 0., 0., 2.17191363e-03,
          7.23971229e-04, 2.89588491e-03, 0., 0., 0., 0., 0., 0., 0., 0.,
          0., 0., 0., 0., 0., 0., 0., 0., 0., 0., 0., 0., 0., 0., 0., 0.,
          0., 0., 0., 1.44794246e-03, 3.69225331e-02, 6.87772632e-02,
          1.44794246e-03, 1.44794246e-03, 1.44794246e-03, 0., 0., 0.,
          9.41162556e-03, 8.68765451e-03, 0., 0., 0., 0., 0., 0., 0.,
          1.95472222e-02, 3.61985597e-03, 0., 0., 0., 0., 0., 0., 0.,
          9.41162556e-03, 7.23971229e-04, 0., 0., 0., 0., 0., 0., 0., 0.,
          0., 0., 0., 0., 0., 0., 0., 0., 0., 0., 0., 0., 0., 0., 0., 0.,
          0., 0., 0., 0., 0., 0., 0., 0., 0., 0., 0., 7.23971229e-04,
          7.23971203e-02, 1.96920171e-01, 0., 7.23971229e-04,
          1.15835397e-02, 0., 0., 7.23971229e-04, 2.17191372e-02,
          1.25247017e-01, 2.89588491e-03, 0., 0., 0., 0., 0.,
          1.01355966e-02, 7.23971194e-03, 0., 0., 0., 0., 0., 0., 0., 0.,
          0., 0., 0., 0., 0., 0., 0., 0., 0., 0., 0., 0., 0., 0., 0., 0.,
          0., 0., 0., 0., 0., 0., 0., 0., 0., 0., 0., 0., 0., 0., 0., 0.,
          0., 0., 0., 0., 0., 0., 0., 0., 0., 0., 0., 0., 0., 0., 0., 0.,
          0., 0., 0., 0., 0., 0., 0., 0., 0., 0., 0., 0., 0., 0., 0., 0.,
          0., 0., 0., 0., 0., 0., 0., 0., 0., 0., 0., 0., 0., 0., 0., 0.,
          0., 0., 0., 0., 0., 0., 0., 0., 0., 0., 0., 0., 0., 0., 0., 0.,
          0., 0., 0., 0., 0., 0., 0., 0., 0., 0., 0., 0., 0., 0., 0., 0.,
          0., 0., 0., 0., 0., 0., 0., 0., 0., 0., 0., 0., 0., 0., 0., 0.,
          0., 0., 0., 0., 0., 0., 0., 0., 0., 0., 0., 0., 0., 0., 0., 0.,
          0., 0., 0., 0., 0., 0., 0., 0., 0., 0., 0., 0., 0., 0., 0., 0.,
          0., 0., 0. ]
      - [ 0., 0., 0., 0., 1.04537618e-03, 5.22688089e-04, 3.13612842e-03,
          2.82251574e-02, 0., 0., 0., 1.04537618e-03, 3.13612842e-03,
          3.13612842e-03, 1.14991376e-02, 1.77713949e-02, 0., 0.,
          5.22688089e-04, 3.13612842e-03, 8.88569746e-03, 1.30672026e-02,
          1.67260189e-02, 4.54738624e-02, 0., 0., 1.04537618e-03,
          6.79494534e-03, 7.84032140e-03, 1.98621470e-02, 4.07696702e-02,
          4.96553667e-02, 0., 0., 0., 4.18150472e-03, 1.46352667e-02,
          5.27914986e-02, 7.31763318e-02, 8.88569746e-03, 0., 0., 0.,
          5.22688089e-04, 1.46352667e-02, 1.11332566e-01, 7.10855797e-02,
          4.18150472e-03, 0., 0., 0., 3.13612842e-03, 1.51579548e-02,
          1.61510617e-01, 4.26513493e-01, 8.36300969e-01, 0., 0., 0.,
          2.09075236e-03, 2.09075236e-03, 3.29293497e-02, 1.81372762e-01,
          1.52624920e-01, 0., 0., 0., 5.22688089e-04, 1.56806421e-03,
          1.56806421e-03, 1.56806421e-03, 8.36300943e-03, 0., 0., 0.,
          5.22688089e-04, 5.22688089e-04, 1.04537618e-03, 1.04537618e-03,
          5.22688089e-04, 0., 0., 0., 5.22688089e-04, 0., 5.22688089e-04,
          2.09075236e-03, 7.84032140e-03, 0., 0., 0., 0., 0., 0., 0., 0.,
          0., 0., 0., 0., 0., 0., 0., 0., 0., 0., 0., 0., 0., 0., 0., 0.,
          0., 0., 0., 0., 0., 0., 0., 0., 0., 0., 0., 0., 0., 0., 0., 0.,
          0., 0., 0., 5.22688089e-04, 0., 1.04537618e-03, 0.,
          3.65881668e-03, 0., 0., 5.22688089e-04, 0., 5.22688089e-04,
          5.22688089e-04, 5.22688089e-04, 0., 0., 0., 0., 0., 0., 0., 0.,
          0., 0., 0., 0., 0., 0., 0., 0., 0., 0., 0., 0., 0., 0., 0., 0.,
          0., 0., 0., 0., 0., 0., 0., 0., 0., 0., 0., 0., 0., 0., 0., 0.,
          0., 0., 0., 0., 0., 0., 0., 0., 0., 0., 0., 5.22688089e-04, 0.,
          0., 0., 0., 7.31763337e-03, 0., 0., 0., 0., 0., 0., 0., 0., 0.,
          0., 0., 0., 0., 0., 0., 0., 0., 0., 0., 0., 0., 0., 0., 0., 0.,
          0., 0., 0., 0., 0., 0., 0., 0., 0., 0., 0., 0., 0., 0., 0., 0.,
          0., 0., 0., 0., 0., 0., 0., 0., 0., 0., 0., 0., 0., 0., 0., 0.,
          0., 5.22688089e-04, 0., 0., 5.22688089e-04, 0., 3.13612842e-03,
          0., 0., 0., 0., 0., 0., 0., 0., 0., 0., 0., 0., 0., 0., 0., 0.,
          0., 0., 0., 0., 0., 0., 0., 0., 0., 0., 0., 0., 0., 0., 0., 0.,
          0., 0., 0., 0., 0., 0., 0., 0., 0., 0., 0., 0., 0., 0., 0., 0.,
          0., 0., 0., 0., 0., 0., 0., 0., 0., 0., 0., 0., 5.22688089e-04,
          0., 0., 1.25445137e-02, 0., 0., 5.22688089e-04, 0., 0., 0., 0.,
          5.22688089e-04, 0., 0., 5.22688089e-04, 5.22688078e-03,
          5.22688089e-04, 0., 0., 0., 0., 0., 4.18150472e-03, 0., 0., 0.,
          0., 0., 0., 0., 0., 0., 0., 0., 0., 0., 0., 0., 0., 0., 0., 0.,
          0., 0., 0., 0., 0., 0., 0., 0., 0., 0., 0., 0., 0., 0., 0., 0.,
          0., 0., 0., 0., 0., 0., 0., 0., 0., 0., 0., 0., 0., 0., 0., 0.,
          0., 0., 0., 0., 0., 0., 0., 0., 0., 0., 0., 0., 0., 0., 0., 0.,
          0., 0., 0., 0., 0., 0., 0., 0., 0., 0., 0., 0., 0., 0., 0., 0.,
          0., 0., 0., 0., 0., 0., 0., 0., 0., 0., 0., 0., 0., 0., 0., 0.,
          0., 0., 0., 0., 0., 0., 0., 0., 0., 0., 0., 0., 0., 0., 0., 0.,
          0., 0., 0., 0., 0., 0., 0., 0., 0., 0., 0., 0., 0., 0., 0., 0.,
          0., 0., 0., 0., 0., 0., 0., 0., 0., 0., 0., 0., 0., 0., 0., 0.,
          0., 0., 0., 0., 0., 0., 0., 0., 0., 0., 0., 0., 0., 0., 0., 0.,
          0., 0. ]
      - [ 0., 0., 0., 3.56651433e-02, 2.24021673e-01, 6.01849258e-02,
          8.91628582e-03, 3.12069990e-02, 0., 0., 1.11453573e-03,
          6.12994619e-02, 2.67488569e-01, 1.59378603e-01, 5.23831770e-02,
          6.68721413e-03, 0., 0., 0., 2.11761780e-02, 2.01730952e-01,
          1.59378603e-01, 6.01849258e-02, 3.78942117e-02, 0., 0., 0.,
          1.33744283e-02, 1.22598924e-01, 9.36210006e-02, 5.46122491e-02,
          3.34360707e-03, 0., 0., 0., 0., 3.67796794e-02, 7.02157468e-02,
          0., 0., 0., 0., 0., 0., 0., 1.89471059e-02, 0., 0., 0., 0., 0.,
          0., 0., 0., 0., 0., 0., 0., 0., 0., 0., 0., 0., 0., 0., 0., 0.,
          0., 6.91012144e-02, 3.78942117e-02, 6.57576025e-02,
          7.80174956e-02, 0., 0., 0., 2.22907146e-03, 1.44889643e-02,
          2.67488565e-02, 4.79250327e-02, 1.56034995e-02, 0., 0., 0.,
          2.22907146e-03, 3.34360707e-03, 1.11453570e-02, 1.22598922e-02,
          3.34360707e-03, 0., 0., 0., 0., 0., 2.22907146e-03, 0., 0., 0.,
          0., 0., 0., 0., 0., 0., 0., 0., 0., 0., 0., 0., 0., 0., 0., 0.,
          0., 0., 0., 0., 0., 0., 0., 0., 0., 0., 0., 0., 0., 0., 0., 0.,
          0., 0., 1.00308210e-02, 1.14797175e-01, 6.01849258e-02,
          1.11453570e-02, 6.35285303e-02, 0., 0., 0., 0., 3.90087478e-02,
          2.34052502e-02, 6.68721413e-03, 1.33744283e-02, 0., 0., 0., 0.,
          0., 0., 0., 0., 0., 0., 0., 0., 0., 0., 0., 0., 0., 0., 0., 0.,
          0., 0., 0., 0., 0., 0., 0., 0., 0., 0., 0., 0., 0., 0., 0., 0.,
          0., 0., 0., 0., 0., 0., 0., 0., 0., 0., 0., 0., 0., 0., 0.,
          1.56034995e-02, 3.24329883e-01, 3.96774709e-01, 3.34360707e-03,
          7.57884234e-02, 0., 0., 2.22907146e-03, 1.44889643e-02,
          2.41854250e-01, 3.04268241e-01, 1.22598922e-02, 1.11453570e-02,
          0., 0., 0., 0., 1.87242001e-01, 3.52193266e-01, 8.47047120e-02,
          1.11453573e-03, 0., 0., 0., 0., 2.34052502e-02, 2.89779287e-02,
          1.22598922e-02, 0., 0., 0., 0., 0., 0., 0., 0., 0., 0., 0., 0.,
          0., 0., 0., 0., 0., 0., 0., 0., 0., 0., 0., 0., 0., 0., 0., 0.,
          0., 0., 0., 0., 0., 0., 0., 2.22907146e-03, 8.91628582e-03,
          1.89471066e-01, 9.91936773e-02, 0., 4.45814291e-03, 0., 0., 0.,
          2.22907146e-03, 2.34052502e-02, 0., 0., 0., 0., 0., 0., 0., 0.,
          0., 0., 0., 0., 0., 0., 0., 0., 0., 0., 0., 0., 0., 0., 0., 0.,
          0., 0., 0., 0., 0., 0., 0., 0., 0., 0., 0., 0., 0., 0., 0., 0.,
          0., 0., 0., 0., 0., 0., 0., 0., 0., 0., 0., 0., 0., 0.,
          3.34360707e-03, 1.98387355e-01, 3.12069990e-02, 8.91628582e-03,
          4.45814291e-03, 0., 0., 0., 4.45814291e-03, 1.23713464e-01,
          3.23215351e-02, 0., 0., 0., 0., 0., 0., 1.33744283e-02,
          4.45814291e-03, 0., 0., 0., 0., 0., 0., 0., 0., 0., 0., 0., 0.,
          0., 0., 0., 0., 0., 0., 0., 0., 0., 0., 0., 0., 0., 0., 0., 0.,
          0., 0., 0., 0., 0., 0., 0., 0., 0., 0., 0., 0., 0., 0., 0., 0.,
          0., 0., 0., 0., 0., 0., 0., 0., 0., 0., 0., 0., 0., 0., 0., 0.,
          0., 0., 0., 0., 0., 0., 0., 0., 0., 0., 0., 0., 0., 0., 0., 0.,
          0., 0., 0., 0., 0., 0., 0., 0., 0., 0., 0., 0., 0., 0., 0., 0.,
          0., 0., 0., 0., 0., 0., 0., 0., 0., 0., 0., 0., 0., 0., 0., 0.,
          0., 0., 0., 0., 0., 0., 0., 0., 0., 0., 0., 0., 0., 0., 0., 0.,
          0., 0., 0., 0., 0., 0., 0., 0., 0., 0., 0., 0., 0., 0., 0., 0.,
          0., 0., 0., 0., 0., 0., 0., 0., 0., 0., 0., 0., 0., 0., 0., 0.,
          0., 0., 0., 0., 0., 0., 0., 0., 0., 0., 0., 0., 0., 0. ]
      - [ 0., 0., 0., 1.01870392e-03, 1.01870392e-03, 2.03740783e-03,
          1.01870392e-03, 6.16315901e-02, 0., 0., 5.09351958e-04,
          2.54675979e-03, 3.05611175e-03, 3.05611175e-03, 3.56546394e-03,
          2.08834317e-02, 0., 0., 0., 1.01870392e-03, 2.03740783e-03,
          2.54675979e-03, 4.07481566e-03, 9.16833524e-03, 0., 0.,
          5.09351958e-04, 3.05611175e-03, 6.11222349e-03, 4.07481566e-03,
          2.54675979e-03, 1.62992626e-02, 0., 0., 5.09351958e-04,
          3.05611175e-03, 1.12057431e-02, 1.27337994e-02, 7.13092787e-03,
          1.38034388e-01, 0., 1.01870392e-03, 1.52805587e-03,
          1.01870392e-03, 1.01870392e-02, 2.90330630e-02, 4.27855663e-02,
          8.35337266e-02, 0., 1.01870392e-03, 0., 4.58416762e-03,
          1.42618557e-02, 4.48229723e-02, 1.09001324e-01, 9.27020609e-02,
          0., 0., 1.01870392e-03, 2.54675979e-03, 1.88460238e-02,
          2.24114865e-01, 6.67760432e-01, 6.68269813e-01, 0., 0., 0.,
          5.09351958e-04, 5.09351958e-04, 5.09351958e-04, 1.01870392e-03,
          1.06963916e-02, 0., 0., 0., 5.09351958e-04, 5.09351958e-04,
          5.09351958e-04, 1.01870392e-03, 0., 0., 0., 0., 0.,
          5.09351958e-04, 0., 0., 0., 0., 0., 0., 0., 0., 0., 0., 0., 0.,
          0., 0., 0., 0., 0., 0., 0., 0., 0., 0., 0., 0., 0., 0., 0., 0.,
          0., 0., 0., 0., 0., 0., 0., 0., 0., 0., 0., 0., 0., 0., 0., 0.,
          0., 0., 0., 1.01870392e-03, 0., 5.09351958e-04, 6.11222349e-03,
          0., 0., 0., 5.09351958e-04, 0., 5.09351958e-04, 0., 0., 0., 0.,
          0., 0., 0., 0., 0., 0., 0., 0., 0., 0., 0., 0., 0., 0., 0., 0.,
          0., 0., 0., 0., 0., 0., 0., 0., 0., 0., 0., 0., 0., 0., 0., 0.,
          0., 0., 0., 0., 0., 0., 0., 0., 0., 0., 0., 0., 0., 0., 0., 0.,
          0., 0., 0., 0., 0., 5.09351958e-04, 0., 0., 0., 0., 0., 0., 0.,
          0., 0., 0., 0., 0., 0., 0., 0., 0., 0., 0., 0., 0., 0., 0., 0.,
          0., 0., 0., 0., 0., 0., 0., 0., 0., 0., 0., 0., 0., 0., 0., 0.,
          0., 0., 0., 0., 0., 0., 0., 0., 0., 0., 0., 0., 0., 0., 0., 0.,
          0., 0., 0., 0., 0., 0., 0., 0., 3.05611175e-03, 0., 0., 0., 0.,
          0., 0., 0., 0., 0., 0., 0., 0., 0., 0., 0., 0., 0., 0., 0., 0.,
          0., 0., 0., 0., 0., 0., 0., 0., 0., 0., 0., 0., 0., 0., 0., 0.,
          0., 0., 0., 0., 0., 0., 0., 0., 0., 0., 0., 0., 0., 0., 0., 0.,
          0., 0., 0., 0., 0., 0., 0., 0., 0., 0., 0., 1.22244470e-02, 0.,
          0., 0., 1.01870392e-03, 0., 0., 0., 0., 0., 0., 0.,
          1.01870392e-03, 0., 0., 0., 0., 0., 0., 0., 5.09351958e-04, 0.,
          0., 0., 0., 0., 0., 0., 1.01870392e-03, 5.09351958e-04, 0., 0.,
          0., 0., 0., 0., 0., 5.09351958e-04, 1.01870392e-03, 0., 0., 0.,
          0., 0., 0., 1.01870392e-03, 0., 0., 0., 0., 0., 0., 0., 0., 0.,
          0., 0., 0., 0., 0., 0., 0., 0., 0., 0., 0., 0., 0., 0., 0., 0.,
          0., 0., 0., 0., 0., 0., 0., 0., 0., 0., 0., 0., 0., 0., 0., 0.,
          0., 0., 0., 0., 0., 0., 0., 0., 0., 0., 0., 0., 0., 0., 0., 0.,
          0., 0., 0., 0., 0., 0., 0., 0., 0., 0., 0., 0., 0., 0., 0., 0.,
          0., 0., 0., 0., 0., 0., 0., 0., 0., 0., 0., 0., 0., 0., 0., 0.,
          0., 0., 0., 0., 0., 0., 0., 0., 0., 0., 0., 0., 0., 0., 0., 0.,
          0., 0., 0., 0., 0., 0., 0., 0., 0., 0., 0., 0., 0., 0., 0., 0.,
          0., 0., 0., 0., 0., 0., 0., 0., 0., 0., 0., 0., 0., 0., 0., 0.,
          0., 0. ]
      - [ 0., 0., 0., 5.86470552e-02, 1.54512435e-01, 2.81956997e-02,
          2.93235276e-02, 4.84966040e-02, 0., 0., 0., 9.69932079e-02,
          1.02632344e-01, 7.89479613e-02, 7.89479613e-02, 2.93235276e-02,
          0., 0., 1.12782803e-03, 8.90984088e-02, 1.73685506e-01,
          4.73687761e-02, 3.60904969e-02, 2.03009043e-02, 0., 0.,
          1.12782803e-03, 8.12036172e-02, 1.53384611e-01, 3.83461528e-02,
          1.12782801e-02, 1.01504521e-02, 0., 0., 4.51131212e-03,
          2.59400439e-02, 1.19549766e-01, 3.83461528e-02, 9.02262423e-03,
          1.12782801e-02, 0., 0., 3.38348397e-03, 1.01504521e-02,
          8.00757855e-02, 5.63914003e-03, 1.12782801e-02, 3.38348397e-03,
          0., 0., 7.89479632e-03, 0., 3.94739807e-02, 0., 0., 0., 0., 0.,
          6.76696794e-03, 0., 0., 0., 0., 0., 0., 0., 0., 6.76696794e-03,
          4.73687761e-02, 5.63914003e-03, 3.94739807e-02, 6.99253380e-02,
          0., 0., 0., 2.25565606e-03, 1.12782801e-02, 1.35339359e-02,
          3.60904969e-02, 2.25565601e-02, 0., 0., 0., 1.12782803e-03,
          4.51131212e-03, 6.76696794e-03, 9.02262423e-03, 0., 0., 0., 0.,
          4.51131212e-03, 0., 0., 0., 0., 0., 0., 0., 1.12782803e-03, 0.,
          0., 0., 0., 0., 0., 0., 0., 0., 0., 0., 0., 0., 0., 0., 0., 0.,
          0., 0., 0., 0., 0., 0., 0., 0., 0., 0., 0., 0., 0., 0.,
          6.76696794e-03, 8.12036172e-02, 1.69174206e-02, 1.80452485e-02,
