%YAML:1.0
---
opencv_ml_svm:
   format: 3
   svmType: C_SVC
   kernel:
      type: RBF
      gamma: 5.
   C: 5.
   term_criteria: { epsilon:1.1920928955078125e-07, iterations:1000 }
   var_count: 514
   class_count: 2
   class_labels: !!opencv-matrix
      rows: 2
      cols: 1
      dt: i
      data: [ 0, 1 ]
   sv_total: 1205
   support_vectors:
      - [ 0., 0., 0., 1.36719865e-03, 6.83599338e-03, 2.05079801e-02,
          6.08403385e-02, 6.15239376e-03, 0., 0., 0., 0., 1.41505063e-01,
          3.99905592e-01, 8.06647167e-02, 1.02539901e-02, 0., 0., 0.,
          6.83599326e-04, 1.96193010e-01, 6.50102973e-01, 1.01856299e-01,
          2.73439731e-03, 0., 0., 0., 2.73439731e-03, 1.14844687e-01,
          2.91896909e-01, 3.69143635e-02, 1.16211884e-02, 0., 0., 0., 0.,
          4.92191501e-02, 1.16211884e-01, 3.07619702e-02, 1.36719868e-02,
          0., 0., 0., 0., 6.15239376e-03, 1.84571818e-02, 1.02539901e-02,
          4.10159584e-03, 0., 0., 0., 0., 0., 0., 0., 0., 0., 0., 0., 0.,
          0., 0., 0., 0., 0., 0., 0., 0., 6.83599326e-04, 6.83599326e-04,
          3.41799669e-03, 0., 0., 0., 0., 0., 6.83599326e-04, 0., 0., 0.,
          0., 0., 0., 0., 0., 0., 0., 0., 0., 0., 0., 0., 0., 0., 0., 0.,
          0., 0., 0., 0., 0., 0., 0., 0., 0., 0., 0., 0., 0., 0., 0., 0.,
          0., 0., 0., 0., 0., 0., 0., 0., 0., 0., 0., 0., 0., 0., 0., 0.,
          0., 0., 0., 0., 0., 0., 0., 0., 0., 0., 0., 0., 0., 0., 0., 0.,
          0., 0., 0., 0., 0., 0., 0., 0., 0., 0., 0., 0., 0., 0., 0., 0.,
          0., 0., 0., 0., 0., 0., 0., 0., 0., 0., 0., 0., 0., 0., 0., 0.,
          0., 0., 0., 0., 0., 0., 0., 0., 0., 0., 0., 0., 0., 0., 0., 0.,
          0., 0., 0., 0., 2.73439731e-03, 3.41799669e-03, 1.02539901e-02,
          0., 0., 0., 0., 0., 2.05079792e-03, 6.83599326e-04, 0., 0., 0.,
          0., 0., 0., 0., 0., 0., 2.73439731e-03, 0., 0., 0., 0., 0., 0.,
          0., 1.50391851e-02, 0., 0., 0., 0., 0., 0., 0., 0., 0., 0., 0.,
          0., 0., 0., 0., 0., 0., 0., 0., 0., 0., 0., 0., 0., 0., 0., 0.,
          0., 0., 0., 0., 0., 0., 0., 0., 0., 6.15239376e-03,
          1.77735817e-02, 1.43555859e-02, 2.73439731e-03, 0., 0., 0., 0.,
          5.46879461e-03, 2.25587785e-02, 1.36719865e-03, 0., 0., 0., 0.,
          0., 1.36719865e-03, 8.20319168e-03, 1.29883876e-02,
          2.05079792e-03, 0., 0., 0., 0., 0., 0., 5.46879461e-03,
          1.23047875e-02, 0., 0., 0., 0., 0., 0., 0., 2.73439731e-03, 0.,
          0., 0., 0., 0., 0., 0., 0., 0., 0., 0., 0., 0., 0., 0., 0., 0.,
          0., 0., 0., 0., 0., 0., 0., 0., 0., 0., 0., 3.07619702e-02,
          4.71683517e-02, 5.33207469e-02, 6.83599326e-04, 0., 0., 0., 0.,
          1.46290258e-01, 4.12893981e-01, 2.59767752e-02, 0., 0., 0., 0.,
          1.36719865e-03, 9.50203091e-02, 1.01172701e-01, 3.41799669e-03,
          0., 0., 0., 0., 0., 1.70899834e-02, 1.43555859e-02, 0., 0., 0.,
          0., 0., 0., 6.83599326e-04, 0., 0., 0., 0., 0., 0., 0., 0., 0.,
          0., 0., 0., 0., 0., 0., 0., 0., 0., 0., 0., 0., 0., 0., 0., 0.,
          0., 0., 0., 0., 0., 0., 0., 0., 0., 0., 0., 0., 0., 0., 0., 0.,
          0., 0., 0., 0., 0., 0., 0., 0., 0., 0., 0., 0., 0., 0., 0., 0.,
          0., 0., 0., 0., 0., 0., 0., 0., 0., 0., 0., 0., 0., 0., 0., 0.,
          0., 0., 0., 0., 0., 0., 0., 0., 0., 0., 0., 0., 0., 0., 0., 0.,
          0., 0., 0., 0., 0., 0., 0., 0., 0., 0., 0., 0., 0., 0., 0., 0.,
          0., 0., 0., 0., 0., 0., 0., 0., 0., 0., 0., 0., 0., 0., 0., 0.,
          0., 0., 0., 0., 0., 0., 0., 0., 0., 0., 0., 0., 0., 0., 0., 0.,
          0., 0., 0., 0., 0., 0., 0., 0., 0., 0., 0., 0., 0., 0., 0., 0.,
          0., 0., 4.82352942e-01, 6.78431392e-01 ]
      - [ 0., 0., 0., 6.77739852e-04, 1.76212359e-02, 1.55880162e-02,
          3.72756906e-02, 8.13287776e-03, 0., 0., 0., 0., 1.43680841e-01,
          4.20876443e-01, 1.01660974e-01, 1.69434957e-02, 0., 0., 0., 0.,
          1.47747278e-01, 7.00783014e-01, 1.72145918e-01, 3.79534326e-02,
          0., 0., 0., 0., 6.57407641e-02, 2.92105883e-01, 8.67507011e-02,
          1.96544547e-02, 0., 0., 0., 0., 1.76212359e-02, 1.61302075e-01,
          5.96411042e-02, 2.43986342e-02, 0., 0., 0., 0., 1.35547970e-03,
          5.28637059e-02, 5.55746667e-02, 0., 0., 0., 0., 0., 0.,
          1.62657555e-02, 8.81061796e-03, 6.77739852e-04, 0., 0., 0., 0.,
          0., 0., 0., 0., 0., 0., 0., 0., 6.77739852e-04, 6.77739852e-04,
          2.03321944e-03, 1.35547970e-03, 0., 0., 0., 0., 0., 0.,
          6.77739852e-04, 0., 0., 0., 0., 0., 0., 0., 0., 0., 0., 0., 0.,
          0., 0., 0., 0., 0., 0., 0., 0., 0., 0., 0., 0., 0., 0., 0., 0.,
          0., 0., 0., 0., 0., 0., 0., 0., 0., 0., 0., 0., 0., 0., 0., 0.,
          0., 0., 0., 0., 0., 0., 0., 0., 0., 6.77739829e-03,
          8.81061796e-03, 3.18537727e-02, 5.42191882e-03, 0., 0., 0., 0.,
          6.77739852e-04, 2.71095941e-03, 0., 0., 0., 0., 0., 0., 0., 0.,
          0., 0., 0., 0., 0., 0., 0., 0., 0., 0., 0., 0., 0., 0., 0., 0.,
          0., 0., 0., 0., 0., 0., 0., 0., 0., 0., 0., 0., 0., 0., 0., 0.,
          0., 0., 0., 0., 0., 0., 0., 0., 0., 0., 0., 0., 0., 0.,
          8.81061796e-03, 1.89767163e-02, 2.64318530e-02, 8.81061796e-03,
          0., 0., 0., 0., 0., 1.15215769e-02, 0., 0., 0., 0., 0., 0., 0.,
          0., 0., 0., 0., 0., 0., 0., 0., 0., 0., 0., 0., 0., 0., 0., 0.,
          0., 0., 0., 0., 0., 0., 0., 0., 0., 0., 0., 0., 0., 0., 0., 0.,
          0., 0., 0., 0., 0., 0., 0., 0., 0., 0., 0., 0., 0., 0., 0.,
          1.08438376e-02, 1.08438376e-02, 4.74417908e-03, 0., 0., 0., 0.,
          0., 1.35547970e-03, 2.71095941e-03, 0., 0., 0., 0., 0., 0., 0.,
          0., 0., 0., 0., 0., 0., 0., 0., 0., 0., 0., 0., 0., 0., 0., 0.,
          0., 0., 0., 0., 0., 0., 0., 0., 0., 0., 0., 0., 0., 0., 0., 0.,
          0., 0., 0., 0., 0., 0., 0., 0., 0., 0., 0., 0., 0., 0., 0.,
          3.52424718e-02, 2.84650736e-02, 2.10099351e-02, 7.45513802e-03,
          0., 0., 0., 0., 1.30803794e-01, 2.86006212e-01, 2.71095932e-02,
          0., 0., 0., 0., 0., 2.43986342e-02, 7.38736391e-02,
          1.42325368e-02, 0., 0., 0., 0., 0., 2.03321944e-03,
          7.45513802e-03, 0., 0., 0., 0., 0., 0., 1.35547970e-03,
          3.38869914e-03, 0., 0., 0., 0., 0., 0., 0., 0., 0., 0., 0., 0.,
          0., 0., 0., 0., 0., 0., 0., 0., 0., 0., 0., 0., 0., 0., 0., 0.,
          0., 0., 0., 0., 0., 0., 0., 0., 0., 0., 0., 0., 0., 0., 0., 0.,
          0., 0., 0., 0., 0., 0., 0., 0., 0., 0., 0., 0., 0., 0., 0., 0.,
          0., 0., 0., 0., 0., 0., 0., 0., 0., 0., 0., 0., 0., 0., 0., 0.,
          0., 0., 0., 0., 0., 0., 0., 0., 0., 0., 0., 0., 0., 0., 0., 0.,
          0., 0., 0., 0., 0., 0., 0., 0., 0., 0., 0., 0., 0., 0., 0., 0.,
          0., 0., 0., 0., 0., 0., 0., 0., 0., 0., 0., 0., 0., 0., 0., 0.,
          0., 0., 0., 0., 0., 0., 0., 0., 0., 0., 0., 0., 0., 0., 0., 0.,
          0., 0., 0., 0., 0., 0., 0., 0., 0., 0., 0., 0., 0., 0.,
          5.09803951e-01, 7.13725507e-01 ]
      - [ 0., 0., 0., 8.47084157e-04, 1.17744699e-01, 9.57205072e-02,
          2.79537775e-02, 3.30362804e-02, 0., 0., 0., 0., 1.35533467e-01,
          3.98976624e-01, 2.20241882e-02, 1.52475145e-02, 0., 0., 0.,
          8.47084157e-04, 1.34686381e-01, 3.21044892e-01, 2.71066930e-02,
          4.74367104e-02, 0., 0., 0., 1.69416831e-03, 3.55775356e-02,
          1.38074711e-01, 3.81187871e-02, 2.71066930e-02, 0., 0., 0., 0.,
          4.23542084e-03, 9.14850906e-02, 5.25192171e-02, 3.13421153e-02,
          0., 0., 0., 0., 4.23542084e-03, 6.09900579e-02, 4.06600386e-02,
          5.92958881e-03, 0., 0., 0., 0., 0., 8.47084168e-03,
          1.18591776e-02, 8.47084157e-04, 0., 0., 0., 0., 0., 0., 0., 0.,
          0., 0., 0., 0., 4.23542084e-03, 8.47084157e-04, 9.31792520e-03,
          6.77667325e-03, 0., 0., 0., 0., 0., 0., 0., 1.69416831e-03, 0.,
          0., 0., 0., 0., 0., 0., 0., 0., 0., 0., 0., 0., 0., 0., 0., 0.,
          0., 0., 0., 0., 0., 0., 0., 0., 0., 0., 0., 0., 0., 0., 0., 0.,
          0., 0., 0., 0., 0., 0., 0., 0., 0., 0., 0., 0., 0., 0., 0., 0.,
          0., 0., 0., 4.23542084e-03, 3.38833663e-03, 6.77667325e-03,
          9.31792520e-03, 0., 0., 0., 0., 0., 1.69416831e-03,
          1.69416831e-03, 6.77667325e-03, 0., 0., 0., 0., 0., 0., 0., 0.,
          0., 0., 0., 0., 0., 0., 0., 0., 0., 0., 0., 0., 0., 0., 0., 0.,
          0., 0., 0., 0., 0., 0., 0., 0., 0., 0., 0., 0., 0., 0., 0., 0.,
          0., 0., 0., 0., 0., 0., 0., 0., 0., 0., 0., 0., 3.21891978e-02,
          1.18591778e-01, 5.42133860e-02, 7.11550713e-02, 0., 0., 0., 0.,
          8.47084157e-04, 1.26215532e-01, 8.47084168e-03, 6.94608986e-02,
          0., 0., 0., 0., 0., 5.08250482e-03, 8.47084157e-04, 0., 0., 0.,
          0., 0., 0., 0., 0., 0., 0., 0., 0., 0., 0., 0., 0., 0., 0., 0.,
          0., 0., 0., 0., 0., 0., 0., 0., 0., 0., 0., 0., 0., 0., 0., 0.,
          0., 0., 0., 0., 0., 0., 0., 0., 0., 1.69416831e-03,
          1.22827202e-01, 2.65137345e-01, 4.48954590e-02, 1.52475145e-02,
          0., 0., 0., 0., 3.38833663e-03, 5.16721345e-02, 0., 0., 0., 0.,
          0., 0., 8.47084157e-04, 8.47084157e-04, 0., 0., 0., 0., 0., 0.,
          0., 0., 0., 0., 0., 0., 0., 0., 0., 0., 0., 0., 0., 0., 0., 0.,
          0., 0., 0., 0., 0., 0., 0., 0., 0., 0., 0., 0., 0., 0., 0., 0.,
          0., 0., 0., 0., 0., 0., 0., 0., 1.16897613e-01, 2.93091118e-01,
          5.84488064e-02, 1.18591776e-02, 0., 0., 0., 0., 1.66875571e-01,
          5.97194314e-01, 2.71066930e-02, 3.38833663e-03, 0., 0., 0.,
          8.47084157e-04, 4.32012901e-02, 8.64025801e-02, 3.38833663e-03,
          0., 0., 0., 0., 0., 0., 8.47084157e-04, 0., 0., 0., 0., 0., 0.,
          0., 0., 0., 0., 0., 0., 0., 0., 0., 0., 0., 0., 0., 0., 0., 0.,
          0., 0., 0., 0., 0., 0., 0., 0., 0., 0., 0., 0., 0., 0., 0., 0.,
          0., 0., 0., 0., 0., 0., 0., 0., 0., 0., 0., 0., 0., 0., 0., 0.,
          0., 0., 0., 0., 0., 0., 0., 0., 0., 0., 0., 0., 0., 0., 0., 0.,
          0., 0., 0., 0., 0., 0., 0., 0., 0., 0., 0., 0., 0., 0., 0., 0.,
          0., 0., 0., 0., 0., 0., 0., 0., 0., 0., 0., 0., 0., 0., 0., 0.,
          0., 0., 0., 0., 0., 0., 0., 0., 0., 0., 0., 0., 0., 0., 0., 0.,
          0., 0., 0., 0., 0., 0., 0., 0., 0., 0., 0., 0., 0., 0., 0., 0.,
          0., 0., 0., 0., 0., 0., 0., 0., 0., 0., 0., 0., 0., 0., 0., 0.,
          0., 0., 0., 0., 0., 0., 0., 0., 0., 0., 0., 0., 5.05882382e-01,
          7.09803939e-01 ]
      - [ 0., 0., 0., 0., 2.36880854e-02, 1.64500587e-02, 1.71080623e-02,
          2.76360996e-02, 0., 0., 0., 6.58002391e-04, 5.19821867e-02,
          1.26336455e-01, 4.80341725e-02, 2.23720800e-02, 0., 0., 0.,
          5.92202134e-03, 6.64582402e-02, 4.81657743e-01, 1.09228395e-01,
          2.63200961e-02, 0., 0., 0., 1.31600478e-03, 1.63184583e-01,
          6.83664501e-01, 1.45418525e-01, 1.57920569e-02, 0., 0., 0., 0.,
          7.43542686e-02, 3.95459443e-01, 8.35663006e-02, 6.58002391e-04,
          0., 0., 0., 0., 6.58002391e-04, 1.13176413e-01, 3.22421156e-02,
          6.58002391e-04, 0., 0., 0., 0., 6.58002391e-04, 8.35663006e-02,
          2.50040907e-02, 0., 0., 0., 0., 0., 0., 0., 7.23802624e-03, 0.,
          0., 0., 0., 0., 0., 6.58002391e-04, 1.05280383e-02, 0., 0., 0.,
          0., 0., 0., 0., 0., 0., 0., 0., 0., 0., 0., 0., 0., 0., 0., 0.,
          0., 0., 0., 0., 0., 0., 0., 0., 0., 0., 0., 0., 0., 0., 0., 0.,
          0., 0., 0., 0., 0., 0., 0., 0., 0., 0., 0., 0., 0., 0., 0., 0.,
          0., 0., 0., 0., 0., 0., 0., 0., 0., 0., 2.63200956e-03,
          1.31600481e-02, 1.31600481e-02, 6.58002391e-04, 0., 0., 0., 0.,
          6.58002391e-04, 6.58002391e-04, 0., 0., 0., 0., 0., 0., 0., 0.,
          0., 0., 0., 0., 0., 0., 0., 0., 0., 0., 0., 0., 0., 0., 0., 0.,
          0., 0., 0., 0., 0., 0., 0., 0., 0., 0., 0., 0., 0., 0., 0., 0.,
          0., 0., 0., 0., 0., 0., 0., 0., 0., 0., 0., 0., 0., 0.,
          2.23720800e-02, 1.71080623e-02, 2.50040907e-02, 6.58002391e-04,
          0., 0., 0., 0., 1.31600478e-03, 2.63200956e-03, 0., 0., 0., 0.,
          0., 0., 0., 0., 0., 0., 0., 0., 0., 0., 0., 0., 0., 0., 0., 0.,
          0., 0., 0., 0., 0., 0., 0., 0., 0., 0., 0., 0., 0., 0., 0., 0.,
          0., 0., 0., 0., 0., 0., 0., 0., 0., 0., 0., 0., 0., 0., 0., 0.,
          0., 6.58002391e-04, 2.96101067e-02, 1.51340552e-02,
          3.02681103e-02, 7.89602846e-03, 0., 0., 0., 0., 6.58002403e-03,
          6.58002403e-03, 2.63200956e-03, 6.58002391e-04, 0., 0., 0., 0.,
          6.58002391e-04, 0., 0., 0., 0., 0., 0., 0., 0., 0., 0., 0., 0.,
          0., 0., 0., 0., 0., 0., 0., 0., 0., 0., 0., 0., 0., 0., 0., 0.,
          0., 0., 0., 0., 0., 0., 0., 0., 0., 0., 0., 0., 0., 0., 0., 0.,
          0., 0., 6.58002391e-04, 3.09261121e-02, 3.42161246e-02,
          3.48741263e-02, 9.21203289e-03, 0., 0., 0., 0., 2.69780979e-02,
          8.75143185e-02, 2.36880854e-02, 3.29001201e-03, 0., 0., 0.,
          1.97400711e-03, 5.26401922e-02, 4.01381440e-02, 1.31600481e-02,
          0., 0., 0., 0., 0., 2.50040907e-02, 9.21203289e-03, 0., 0., 0.,
          0., 0., 0., 2.63200956e-03, 0., 0., 0., 0., 0., 0., 0., 0., 0.,
          0., 0., 0., 0., 0., 0., 0., 0., 0., 0., 0., 0., 0., 0., 0., 0.,
          0., 0., 0., 0., 0., 0., 0., 0., 0., 0., 0., 0., 0., 0., 0., 0.,
          0., 0., 0., 0., 0., 0., 0., 0., 0., 0., 0., 0., 0., 0., 0., 0.,
          0., 0., 0., 0., 0., 0., 0., 0., 0., 0., 0., 0., 0., 0., 0., 0.,
          0., 0., 0., 0., 0., 0., 0., 0., 0., 0., 0., 0., 0., 0., 0., 0.,
          0., 0., 0., 0., 0., 0., 0., 0., 0., 0., 0., 0., 0., 0., 0., 0.,
          0., 0., 0., 0., 0., 0., 0., 0., 0., 0., 0., 0., 0., 0., 0., 0.,
          0., 0., 0., 0., 0., 0., 0., 0., 0., 0., 0., 0., 0., 0., 0., 0.,
          0., 0., 0., 0., 0., 0., 0., 0., 0., 0., 0., 0., 0., 0., 0., 0.,
          0., 0., 4.19607848e-01, 6.94117665e-01 ]
      - [ 0., 0., 0., 0., 2.62999654e-01, 5.42436764e-02, 1.06843608e-02,
          4.10936959e-03, 0., 0., 0., 2.46562157e-03, 2.10399717e-01,
          7.97217637e-02, 6.57499116e-03, 2.46562157e-03, 0., 0., 0.,
          8.21873918e-03, 1.65196657e-01, 5.99967949e-02, 2.05468480e-02,
          9.86248627e-03, 0., 0., 0., 8.21873895e-04, 7.47905225e-02,
          1.13418594e-01, 3.20530832e-02, 1.64374779e-03, 0., 0., 0., 0.,
          2.62999646e-02, 9.04061273e-02, 3.28749567e-02, 1.31499823e-02,
          0., 0., 0., 0., 1.64374779e-03, 3.04093342e-02, 2.87655853e-02,
          1.80812255e-02, 0., 0., 0., 0., 0., 0., 2.46562157e-03,
          9.04061273e-03, 0., 0., 0., 0., 0., 0., 0., 0., 0., 0., 0., 0.,
          2.46562157e-02, 5.75311715e-03, 7.39686517e-03, 0., 0., 0., 0.,
          0., 0., 0., 0., 0., 0., 0., 0., 0., 0., 0., 0., 0., 0., 0., 0.,
          0., 0., 0., 0., 0., 0., 0., 0., 0., 0., 0., 0., 0., 0., 0., 0.,
          0., 0., 0., 0., 0., 0., 0., 0., 0., 0., 0., 0., 0., 0., 0., 0.,
          0., 0., 0., 0., 0., 0., 0., 0., 0., 8.30092654e-02,
          2.13687215e-02, 5.75311715e-03, 0., 0., 0., 0., 0.,
          3.28749558e-03, 0., 0., 0., 0., 0., 0., 0., 0., 0., 0., 0., 0.,
          0., 0., 0., 0., 0., 0., 0., 0., 0., 0., 0., 0., 0., 0., 0., 0.,
          0., 0., 0., 0., 0., 0., 0., 0., 0., 0., 0., 0., 0., 0., 0., 0.,
          0., 0., 0., 0., 0., 0., 0., 0., 0., 0., 8.21873895e-04,
          2.80258983e-01, 3.90390098e-01, 9.36936215e-02, 0., 0., 0., 0.,
          0., 1.56156039e-02, 1.17527969e-01, 1.64374779e-03, 0., 0., 0.,
          0., 0., 0., 3.28749558e-03, 0., 0., 0., 0., 0., 0., 0., 0., 0.,
          0., 0., 0., 0., 0., 0., 0., 0., 0., 0., 0., 0., 0., 0., 0., 0.,
          0., 0., 0., 0., 0., 0., 0., 0., 0., 0., 0., 0., 0., 0., 0., 0.,
          0., 0., 0., 0., 1.23281078e-02, 5.19424319e-01, 2.24371567e-01,
          4.27374430e-02, 0., 0., 0., 0., 8.21873918e-03, 5.58874235e-02,
          2.46562157e-02, 0., 0., 0., 0., 0., 0., 0., 0., 0., 0., 0., 0.,
          0., 0., 0., 0., 0., 0., 0., 0., 0., 0., 0., 0., 0., 0., 0., 0.,
          0., 0., 0., 0., 0., 0., 0., 0., 0., 0., 0., 0., 0., 0., 0., 0.,
          0., 0., 0., 0., 0., 0., 0., 0., 0., 8.21873918e-03,
          4.11758810e-01, 8.05436373e-02, 2.13687215e-02, 0., 0., 0., 0.,
          2.95874607e-02, 2.10399717e-01, 4.76686843e-02, 1.64374784e-02,
          0., 0., 0., 0., 3.28749558e-03, 3.86280715e-02, 1.64374784e-02,
          0., 0., 0., 0., 0., 0., 1.64374779e-03, 0., 0., 0., 0., 0., 0.,
          0., 0., 0., 0., 0., 0., 0., 0., 0., 0., 0., 0., 0., 0., 0., 0.,
          0., 0., 0., 0., 0., 0., 0., 0., 0., 0., 0., 0., 0., 0., 0., 0.,
          0., 0., 0., 0., 0., 0., 0., 0., 0., 0., 0., 0., 0., 0., 0., 0.,
          0., 0., 0., 0., 0., 0., 0., 0., 0., 0., 0., 0., 0., 0., 0., 0.,
          0., 0., 0., 0., 0., 0., 0., 0., 0., 0., 0., 0., 0., 0., 0., 0.,
          0., 0., 0., 0., 0., 0., 0., 0., 0., 0., 0., 0., 0., 0., 0., 0.,
          0., 0., 0., 0., 0., 0., 0., 0., 0., 0., 0., 0., 0., 0., 0., 0.,
          0., 0., 0., 0., 0., 0., 0., 0., 0., 0., 0., 0., 0., 0., 0., 0.,
          0., 0., 0., 0., 0., 0., 0., 0., 0., 0., 0., 0., 0., 0., 0., 0.,
          0., 0., 0., 0., 0., 0., 0., 0., 0., 0., 0., 0., 0.,
          4.74509805e-01, 6.78431392e-01 ]
      - [ 0., 0., 0., 1.26905097e-02, 1.99143380e-01, 3.07500809e-01,
          2.63572112e-02, 5.95477745e-02, 0., 0., 0., 0., 3.18238914e-01,
          4.94929850e-01, 9.46907252e-02, 4.88096522e-03, 0., 0., 0., 0.,
          2.20619619e-01, 4.08048689e-01, 7.02858940e-02, 1.17143160e-02,
          0., 0., 0., 0., 6.15001619e-02, 2.02071950e-01, 6.05239682e-02,
          5.85715799e-03, 0., 0., 0., 0., 2.05000527e-02, 1.28857478e-01,
          3.02619841e-02, 1.07381232e-02, 0., 0., 0., 0., 5.85715799e-03,
          5.17382286e-02, 2.14762464e-02, 4.88096522e-03, 0., 0., 0., 0.,
          0., 7.80954398e-03, 7.80954398e-03, 0., 0., 0., 0., 0., 0., 0.,
          0., 0., 0., 0., 0., 2.92857899e-03, 3.61191407e-02,
          1.16166972e-01, 2.92857904e-02, 1.95238609e-02, 0., 0., 0., 0.,
          6.83335122e-03, 1.36667024e-02, 2.24524401e-02, 3.90477199e-03,
          0., 0., 0., 0., 0., 0., 0., 0., 0., 0., 0., 0., 0., 0., 0., 0.,
          0., 0., 0., 0., 0., 0., 0., 0., 0., 0., 0., 0., 0., 0., 0., 0.,
          0., 0., 0., 0., 0., 0., 0., 0., 0., 0., 0., 0., 0., 0., 0., 0.,
          0., 0., 0., 1.17143160e-02, 5.66191934e-02, 8.49287957e-02,
          1.26905097e-02, 4.88096522e-03, 0., 0., 0., 0., 7.80954398e-03,
          4.88096522e-03, 8.78573675e-03, 0., 0., 0., 0., 0., 0., 0., 0.,
          0., 0., 0., 0., 0., 0., 0., 0., 0., 0., 0., 0., 0., 0., 0., 0.,
          0., 0., 0., 0., 0., 0., 0., 0., 0., 0., 0., 0., 0., 0., 0., 0.,
          0., 0., 0., 0., 0., 0., 0., 0., 0., 0., 0., 0., 0.,
          7.22382814e-02, 2.07929119e-01, 3.80715281e-02, 1.46428952e-02,
          0., 0., 0., 0., 1.75714735e-02, 7.12620914e-02, 6.24763519e-02,
          4.19762991e-02, 0., 0., 0., 0., 0., 8.78573675e-03,
          2.34286319e-02, 9.27383378e-02, 0., 0., 0., 0., 0.,
          1.95238600e-03, 2.92857899e-03, 2.92857899e-03, 0., 0., 0., 0.,
          0., 0., 0., 0., 0., 0., 0., 0., 0., 0., 0., 0., 0., 0., 0., 0.,
          0., 0., 0., 0., 0., 0., 0., 0., 0., 0., 0., 0., 0., 0., 0.,
          1.46428952e-02, 1.76690936e-01, 1.22024126e-01, 3.12381759e-02,
          3.51429470e-02, 0., 0., 0., 1.95238600e-03, 5.07620387e-02,
          2.34286319e-02, 3.90477199e-03, 0., 0., 0., 0., 0., 0.,
          3.90477199e-03, 0., 0., 0., 0., 0., 0., 1.95238600e-03,
          1.17143160e-02, 0., 0., 0., 0., 0., 0., 0., 5.85715799e-03,
          9.76192998e-04, 0., 0., 0., 0., 0., 0., 0., 2.92857899e-03, 0.,
          0., 0., 0., 0., 0., 0., 0., 0., 0., 0., 0., 0., 0., 0., 0., 0.,
          0., 0., 0., 2.24524401e-02, 1.32762253e-01, 1.42524183e-01,
          1.95238609e-02, 1.56190880e-02, 0., 0., 0., 0., 1.07381232e-01,
          1.22024126e-01, 1.17143160e-02, 0., 0., 0., 0., 0.,
          6.83335122e-03, 1.95238609e-02, 0., 0., 0., 0., 0., 0.,
          2.92857899e-03, 1.95238600e-03, 0., 0., 0., 0., 0., 0., 0.,
          1.17143160e-02, 3.90477199e-03, 0., 0., 0., 0., 0., 0.,
          1.95238600e-03, 0., 0., 0., 0., 0., 0., 0., 0., 0., 0., 0., 0.,
          0., 0., 0., 0., 0., 0., 0., 0., 0., 0., 0., 0., 0., 0., 0., 0.,
          0., 0., 0., 0., 0., 0., 0., 0., 0., 0., 0., 0., 0., 0., 0., 0.,
          0., 0., 0., 0., 0., 0., 0., 0., 0., 0., 0., 0., 0., 0., 0., 0.,
          0., 0., 0., 0., 0., 0., 0., 0., 0., 0., 0., 0., 0., 0., 0., 0.,
          0., 0., 0., 0., 0., 0., 0., 0., 0., 0., 0., 0., 0., 0., 0., 0.,
          0., 0., 0., 0., 0., 0., 0., 0., 0., 0., 0., 0., 0., 0., 0., 0.,
          0., 0., 0., 0., 0., 0., 0., 0., 0., 0., 0., 0., 0., 0., 0., 0.,
          0., 0., 0., 0., 0., 0., 0., 0., 0., 0., 0., 0., 0., 0., 0., 0.,
          0., 0., 0., 0., 0., 0., 3.96078438e-01, 7.17647076e-01 ]
      - [ 0., 0., 0., 0., 2.36487817e-02, 2.36487821e-01, 6.87292740e-02,
          3.17780487e-02, 0., 0., 0., 0., 4.87756133e-02, 4.65585381e-01,
          1.44109756e-01, 8.27707350e-02, 0., 0., 0., 0., 3.62121984e-02,
          6.04521990e-01, 3.34039032e-01, 7.90756121e-02, 0., 0., 0., 0.,
          2.06926838e-02, 2.42400005e-01, 1.67019516e-01, 7.61195123e-02,
          0., 0., 0., 0., 1.84756108e-02, 1.47065863e-01, 9.53341499e-02,
          4.87756133e-02, 0., 0., 0., 0., 2.95609771e-03, 3.84292714e-02,
          6.20780513e-02, 2.29097567e-02, 0., 0., 0., 0., 0.,
          7.39024428e-04, 1.92146357e-02, 2.95609771e-03, 0., 0., 0., 0.,
          0., 0., 0., 0., 0., 0., 0., 0., 2.95609771e-03, 4.72975634e-02,
          1.84756108e-02, 1.18243909e-02, 0., 0., 0., 0., 0.,
          5.17317094e-03, 0., 1.18243909e-02, 0., 0., 0., 0., 0., 0., 0.,
          0., 0., 0., 0., 0., 0., 0., 0., 0., 0., 0., 0., 0., 0., 0., 0.,
          0., 0., 0., 0., 0., 0., 0., 0., 0., 0., 0., 0., 0., 0., 0., 0.,
          0., 0., 0., 0., 0., 0., 0., 0., 0., 0., 0., 0., 0., 0.,
          4.06463444e-02, 7.39024440e-03, 0., 0., 0., 0., 0., 0.,
          2.95609771e-03, 0., 0., 0., 0., 0., 0., 0., 0., 0., 0., 0., 0.,
          0., 0., 0., 0., 0., 0., 0., 0., 0., 0., 0., 0., 0., 0., 0., 0.,
          0., 0., 0., 0., 0., 0., 0., 0., 0., 0., 0., 0., 0., 0., 0., 0.,
          0., 0., 0., 0., 0., 0., 0., 0., 0., 0., 7.39024428e-04,
          6.28170744e-02, 1.69975609e-02, 2.73439027e-02, 0., 0., 0., 0.,
          0., 9.60731786e-03, 1.47804886e-03, 0., 0., 0., 0., 0., 0., 0.,
          0., 0., 0., 0., 0., 0., 0., 0., 0., 0., 0., 0., 0., 0., 0., 0.,
          0., 0., 0., 0., 0., 0., 0., 0., 0., 0., 0., 0., 0., 0., 0., 0.,
          0., 0., 0., 0., 0., 0., 0., 0., 0., 0., 0., 0., 0., 0.,
          8.86829291e-03, 1.45587817e-01, 2.21707323e-03, 4.43414645e-03,
          0., 0., 0., 0., 0., 1.92146357e-02, 0., 0., 0., 0., 0., 0., 0.,
          0., 0., 0., 0., 0., 0., 0., 0., 0., 0., 0., 0., 0., 0., 0., 0.,
          0., 0., 0., 0., 0., 0., 0., 0., 0., 0., 0., 0., 0., 0., 0., 0.,
          0., 0., 0., 0., 0., 0., 0., 0., 0., 0., 0., 0., 0., 0., 0.,
          2.06926838e-02, 1.80321962e-01, 2.80829277e-02, 8.12926888e-03,
          0., 0., 0., 7.39024428e-04, 4.43414645e-03, 9.01609808e-02,
          2.21707318e-02, 1.47804886e-03, 0., 0., 0., 0., 2.95609771e-03,
          7.39024440e-03, 0., 0., 0., 0., 0., 0., 0., 0., 1.47804886e-03,
          0., 0., 0., 0., 0., 0., 1.47804886e-03, 0., 0., 0., 0., 0., 0.,
          0., 0., 0., 0., 0., 0., 0., 0., 0., 0., 0., 0., 0., 0., 0., 0.,
          0., 0., 0., 0., 0., 0., 0., 0., 0., 0., 0., 0., 0., 0., 0., 0.,
          0., 0., 0., 0., 0., 0., 0., 0., 0., 0., 0., 0., 0., 0., 0., 0.,
          0., 0., 0., 0., 0., 0., 0., 0., 0., 0., 0., 0., 0., 0., 0., 0.,
          0., 0., 0., 0., 0., 0., 0., 0., 0., 0., 0., 0., 0., 0., 0., 0.,
          0., 0., 0., 0., 0., 0., 0., 0., 0., 0., 0., 0., 0., 0., 0., 0.,
          0., 0., 0., 0., 0., 0., 0., 0., 0., 0., 0., 0., 0., 0., 0., 0.,
          0., 0., 0., 0., 0., 0., 0., 0., 0., 0., 0., 0., 0., 0., 0., 0.,
          0., 0., 0., 0., 0., 0., 0., 0., 0., 0., 0., 0., 0., 0., 0., 0.,
          0., 0., 0., 0., 4.82352942e-01, 8.07843149e-01 ]
      - [ 0., 0., 0., 7.29971158e-04, 1.28474921e-01, 4.84700859e-01,
          9.41662788e-02, 7.00772330e-02, 0., 0., 0., 0., 1.39424488e-01,
          6.53324187e-01, 6.42374605e-02, 1.16795385e-02, 0., 0., 0., 0.,
          1.27744958e-01, 3.36516708e-01, 4.45282422e-02, 1.31394807e-02,
          0., 0., 0., 0., 7.88368881e-02, 1.54023916e-01, 5.03680110e-02,
          1.31394807e-02, 0., 0., 0., 0., 4.81780991e-02, 1.12415560e-01,
          4.52582128e-02, 3.13887596e-02, 0., 0., 0., 0., 2.91988463e-03,
          7.59169981e-02, 4.59881835e-02, 6.49674311e-02, 0., 0., 0., 0.,
          0., 1.60593651e-02, 3.57685871e-02, 5.10979816e-02, 0., 0., 0.,
          0., 0., 0., 0., 1.02195963e-02, 0., 0., 0., 0., 2.99288183e-02,
          3.35786752e-02, 4.01484147e-02, 5.98576367e-02, 0., 0., 0., 0.,
          7.29971158e-04, 2.18991353e-03, 0., 0., 0., 0., 0., 0., 0., 0.,
          0., 0., 0., 0., 0., 0., 0., 0., 0., 0., 0., 0., 0., 0., 0., 0.,
          0., 0., 0., 0., 0., 0., 0., 0., 0., 0., 0., 0., 0., 0., 0., 0.,
          0., 0., 0., 0., 0., 0., 0., 0., 0., 0., 0., 0., 0.,
          7.29971158e-04, 1.09495679e-02, 1.60593651e-02, 5.10979816e-03,
          1.45994239e-02, 0., 0., 0., 0., 0., 7.29971158e-04, 0., 0., 0.,
          0., 0., 0., 0., 0., 0., 0., 0., 0., 0., 0., 0., 0., 0., 0., 0.,
          0., 0., 0., 0., 0., 0., 0., 0., 0., 0., 0., 0., 0., 0., 0., 0.,
          0., 0., 0., 0., 0., 0., 0., 0., 0., 0., 0., 0., 0., 0., 0., 0.,
          0., 0., 0., 1.24095101e-02, 7.00772330e-02, 1.45994232e-03,
          5.10979816e-03, 0., 0., 0., 0., 7.29971158e-04, 2.18991353e-03,
          1.31394807e-02, 1.45994232e-03, 0., 0., 0., 0., 0., 0., 0.,
          7.29971193e-03, 0., 0., 0., 0., 0., 0., 0., 0., 0., 0., 0., 0.,
          0., 0., 0., 0., 0., 0., 0., 0., 0., 0., 0., 0., 0., 0., 0., 0.,
          0., 0., 0., 0., 0., 0., 0., 0., 0., 0., 0., 0., 0., 0., 0., 0.,
          2.70089339e-02, 1.56213835e-01, 7.29971158e-04, 1.02195963e-02,
          0., 0., 0., 0., 0., 0., 4.37982706e-03, 0., 0., 0., 0., 0., 0.,
          0., 0., 0., 0., 0., 0., 0., 0., 0., 0., 0., 0., 0., 0., 0., 0.,
          0., 0., 0., 0., 0., 0., 0., 0., 0., 0., 0., 0., 0., 0., 0., 0.,
          0., 0., 0., 0., 0., 0., 0., 0., 0., 0., 0., 0., 0., 0.,
          7.29971158e-04, 3.64985578e-02, 1.97822183e-01, 8.75965413e-03,
          5.83976926e-03, 0., 0., 0., 1.45994232e-03, 1.60593651e-02,
          7.88368881e-02, 5.83976926e-03, 0., 0., 0., 0., 0.,
          2.91988463e-03, 2.91988463e-03, 0., 0., 0., 0., 0., 0., 0., 0.,
          0., 0., 0., 0., 0., 0., 0., 0., 0., 0., 0., 0., 0., 0., 0., 0.,
          0., 0., 0., 0., 0., 0., 0., 0., 0., 0., 0., 0., 0., 0., 0., 0.,
          0., 0., 0., 0., 0., 0., 0., 0., 0., 0., 0., 0., 0., 0., 0., 0.,
          0., 0., 0., 0., 0., 0., 0., 0., 0., 0., 0., 0., 0., 0., 0., 0.,
          0., 0., 0., 0., 0., 0., 0., 0., 0., 0., 0., 0., 0., 0., 0., 0.,
          0., 0., 0., 0., 0., 0., 0., 0., 0., 0., 0., 0., 0., 0., 0., 0.,
          0., 0., 0., 0., 0., 0., 0., 0., 0., 0., 0., 0., 0., 0., 0., 0.,
          0., 0., 0., 0., 0., 0., 0., 0., 0., 0., 0., 0., 0., 0., 0., 0.,
          0., 0., 0., 0., 0., 0., 0., 0., 0., 0., 0., 0., 0., 0., 0., 0.,
          0., 0., 0., 0., 0., 0., 0., 0., 0., 0., 0., 0., 0., 0., 0., 0.,
          0., 0., 4.50980395e-01, 8.07843149e-01 ]
      - [ 0., 0., 0., 0., 0., 3.52986418e-02, 4.60677184e-02,
          3.88883352e-02, 0., 0., 0., 0., 5.98282088e-04, 2.40509391e-01,
          2.74611473e-01, 7.77766705e-02, 0., 0., 0., 0., 0.,
          2.88970232e-01, 7.03579724e-01, 9.63234156e-02, 0., 0., 0., 0.,
          0., 1.18459851e-01, 4.36147630e-01, 1.04699366e-01, 0., 0., 0.,
          0., 0., 4.84608486e-02, 1.57946467e-01, 7.47852623e-02, 0., 0.,
          0., 0., 0., 2.45295651e-02, 6.70075938e-02, 9.51268524e-02, 0.,
          0., 0., 0., 0., 1.19656418e-03, 4.06831801e-02, 2.15381552e-02,
          0., 0., 0., 0., 0., 0., 0., 0., 0., 0., 0., 0., 0.,
          8.37594923e-03, 2.45295651e-02, 3.29055153e-02, 0., 0., 0., 0.,
          0., 0., 3.58969253e-03, 4.78625670e-03, 0., 0., 0., 0., 0., 0.,
          0., 0., 0., 0., 0., 0., 0., 0., 0., 0., 0., 0., 0., 0., 0., 0.,
          0., 0., 0., 0., 0., 0., 0., 0., 0., 0., 0., 0., 0., 0., 0., 0.,
          0., 0., 0., 0., 0., 0., 0., 0., 0., 0., 0., 0., 0., 0., 0.,
          1.19656418e-03, 8.97423085e-03, 3.52986418e-02, 0., 0., 0., 0.,
          0., 0., 0., 0., 0., 0., 0., 0., 0., 0., 0., 0., 0., 0., 0., 0.,
          0., 0., 0., 0., 0., 0., 0., 0., 0., 0., 0., 0., 0., 0., 0., 0.,
          0., 0., 0., 0., 0., 0., 0., 0., 0., 0., 0., 0., 0., 0., 0., 0.,
          0., 0., 0., 0., 0., 0., 0., 0., 0., 1.79484626e-03,
          6.58110296e-03, 8.97423085e-03, 0., 0., 0., 0., 0.,
          1.19656418e-03, 5.98282088e-04, 0., 0., 0., 0., 0., 0., 0., 0.,
          0., 0., 0., 0., 0., 0., 0., 0., 0., 0., 0., 0., 0., 0., 0., 0.,
          0., 0., 0., 0., 0., 0., 0., 0., 0., 0., 0., 0., 0., 0., 0., 0.,
          0., 0., 0., 0., 0., 0., 0., 0., 0., 0., 0., 0., 0.,
          5.98282088e-04, 1.79484626e-03, 4.18797461e-03, 2.39312835e-03,
          0., 0., 0., 0., 5.98282088e-04, 1.19656418e-03, 0., 0., 0., 0.,
          0., 0., 0., 0., 0., 0., 0., 0., 0., 0., 0., 0., 0., 0., 0., 0.,
          0., 0., 0., 0., 0., 0., 0., 0., 0., 0., 0., 0., 0., 0., 0., 0.,
          0., 0., 0., 0., 0., 0., 0., 0., 0., 0., 0., 0., 0., 0., 0., 0.,
          0., 0., 0., 4.18797461e-03, 7.17938505e-03, 5.98282088e-03, 0.,
          0., 0., 0., 1.19656418e-03, 1.13673592e-02, 1.07690776e-02,
          1.19656418e-03, 0., 0., 0., 0., 0., 2.99141044e-03,
          5.98282088e-04, 0., 0., 0., 0., 0., 0., 0., 0., 0., 0., 0., 0.,
          0., 0., 0., 0., 0., 0., 0., 0., 0., 0., 0., 0., 0., 0., 0., 0.,
          0., 0., 0., 0., 0., 0., 0., 0., 0., 0., 0., 0., 0., 0., 0., 0.,
          0., 0., 0., 0., 0., 0., 0., 0., 0., 0., 0., 0., 0., 0., 0., 0.,
          0., 0., 0., 0., 0., 0., 0., 0., 0., 0., 0., 0., 0., 0., 0., 0.,
          0., 0., 0., 0., 0., 0., 0., 0., 0., 0., 0., 0., 0., 0., 0., 0.,
          0., 0., 0., 0., 0., 0., 0., 0., 0., 0., 0., 0., 0., 0., 0., 0.,
          0., 0., 0., 0., 0., 0., 0., 0., 0., 0., 0., 0., 0., 0., 0., 0.,
          0., 0., 0., 0., 0., 0., 0., 0., 0., 0., 0., 0., 0., 0., 0., 0.,
          0., 0., 0., 0., 0., 0., 0., 0., 0., 0., 0., 0., 0., 0., 0., 0.,
          0., 0., 0., 0., 0., 0., 0., 0., 0., 0., 0., 0., 0.,
          4.70588237e-01, 8.00000012e-01 ]
      - [ 0., 0., 0., 7.74016697e-03, 1.40183017e-01, 8.42818171e-02, 0.,
          8.60018539e-04, 0., 0., 0., 1.20402593e-02, 4.56669837e-01,
          3.71528000e-01, 2.58005559e-02, 2.06404459e-02, 0., 0., 0.,
          7.74016697e-03, 3.28527093e-01, 4.85050470e-01, 2.06404459e-02,
          8.60018539e-04, 0., 0., 0., 4.30009281e-03, 8.94419253e-02,
          1.38462991e-01, 2.40805186e-02, 6.88014831e-03, 0., 0., 0., 0.,
          3.87008339e-02, 1.03202224e-01, 1.97804272e-02, 1.29002780e-02,
          0., 0., 0., 0., 1.80603899e-02, 4.64410000e-02, 1.46203153e-02,
          7.74016697e-03, 0., 0., 0., 0., 0., 1.72003708e-03,
          4.30009281e-03, 0., 0., 0., 0., 0., 0., 0., 0., 0., 0., 0., 0.,
          0., 2.23604813e-02, 1.72003708e-03, 0., 0., 0., 0., 0., 0., 0.,
          3.44007416e-03, 1.72003708e-03, 0., 0., 0., 0., 0., 0., 0., 0.,
          0., 0., 0., 0., 0., 0., 0., 0., 0., 0., 0., 0., 0., 0., 0., 0.,
          0., 0., 0., 0., 0., 0., 0., 0., 0., 0., 0., 0., 0., 0., 0., 0.,
          0., 0., 0., 0., 0., 0., 0., 0., 0., 0., 0., 0., 0.,
          1.20402593e-02, 8.60018539e-04, 1.72003708e-03, 2.58005573e-03,
          0., 0., 0., 0., 3.44007416e-03, 0., 0., 0., 0., 0., 0., 0., 0.,
          0., 0., 0., 0., 0., 0., 0., 0., 0., 0., 0., 0., 0., 0., 0., 0.,
          0., 0., 0., 0., 0., 0., 0., 0., 0., 0., 0., 0., 0., 0., 0., 0.,
          0., 0., 0., 0., 0., 0., 0., 0., 0., 0., 0., 0., 0., 0., 0.,
          9.54620615e-02, 8.51418376e-02, 9.46020409e-02, 9.37420204e-02,
          0., 0., 0., 0., 2.83806119e-02, 2.56285518e-01, 4.30009291e-02,
          6.45013899e-02, 0., 0., 0., 0., 0., 3.44007416e-03,
          1.03202229e-02, 0., 0., 0., 0., 0., 0., 0., 0., 0., 0., 0., 0.,
          0., 0., 0., 0., 0., 0., 0., 0., 0., 0., 0., 0., 0., 0., 0., 0.,
          0., 0., 0., 0., 0., 0., 0., 0., 0., 0., 0., 0., 0., 0., 0., 0.,
          5.16011147e-03, 1.08362339e-01, 5.50411865e-02, 6.02012984e-02,
          5.16011147e-03, 0., 0., 0., 4.30009281e-03, 2.75205933e-02,
          1.54803339e-02, 7.74016697e-03, 3.44007416e-03, 0., 0., 0.,
          8.60018539e-04, 2.58005573e-03, 1.72003708e-03, 0., 0., 0., 0.,
          0., 0., 0., 0., 0., 0., 0., 0., 0., 0., 0., 0., 0., 0., 0., 0.,
          0., 0., 0., 0., 0., 0., 0., 0., 0., 0., 0., 0., 0., 0., 0., 0.,
          0., 0., 0., 0., 0., 0., 0., 0., 0., 8.60018563e-03,
          9.28819999e-02, 1.22982651e-01, 1.97804272e-02, 0., 0., 0., 0.,
          4.12808917e-02, 1.92644149e-01, 2.14144617e-01, 6.02012966e-03,
          0., 0., 0., 0., 1.46203153e-02, 4.47209626e-02, 1.54803339e-02,
          0., 0., 0., 0., 0., 8.60018539e-04, 0., 6.88014831e-03, 0., 0.,
          0., 0., 0., 0., 0., 0., 0., 0., 0., 0., 0., 0., 0., 0., 0., 0.,
          0., 0., 0., 0., 0., 0., 0., 0., 0., 0., 0., 0., 0., 0., 0., 0.,
          0., 0., 0., 0., 0., 0., 0., 0., 0., 0., 0., 0., 0., 0., 0., 0.,
          0., 0., 0., 0., 0., 0., 0., 0., 0., 0., 0., 0., 0., 0., 0., 0.,
          0., 0., 0., 0., 0., 0., 0., 0., 0., 0., 0., 0., 0., 0., 0., 0.,
          0., 0., 0., 0., 0., 0., 0., 0., 0., 0., 0., 0., 0., 0., 0., 0.,
          0., 0., 0., 0., 0., 0., 0., 0., 0., 0., 0., 0., 0., 0., 0., 0.,
          0., 0., 0., 0., 0., 0., 0., 0., 0., 0., 0., 0., 0., 0., 0., 0.,
          0., 0., 0., 0., 0., 0., 0., 0., 0., 0., 0., 0., 0., 0., 0., 0.,
          0., 0., 0., 0., 0., 0., 0., 0., 0., 0., 0., 0., 0., 0., 0., 0.,
          4.43137258e-01, 7.01960802e-01 ]
      - [ 0., 0., 0., 3.83717865e-02, 5.60406566e-01, 6.24657013e-02,
          1.78473424e-02, 3.48023176e-02, 0., 0., 0., 5.88962324e-02,
          3.06974292e-01, 1.32070333e-01, 1.69549752e-02, 0., 0., 0., 0.,
          4.81878258e-02, 2.40046769e-01, 2.34692559e-01, 2.67710141e-03,
          0., 0., 0., 0., 5.35420282e-03, 1.32070333e-01, 1.39209270e-01,
          2.94481162e-02, 1.78473431e-03, 0., 0., 0., 4.46183560e-03,
          3.30175832e-02, 8.74519795e-02, 2.76633818e-02, 1.42778745e-02,
          0., 0., 0., 0., 3.56946862e-03, 2.85557490e-02, 2.32015457e-02,
          1.78473424e-02, 0., 0., 0., 0., 0., 0., 5.35420282e-03,
          3.03404834e-02, 0., 0., 0., 0., 0., 0., 0., 1.07084056e-02, 0.,
          0., 0., 5.35420282e-03, 2.40046769e-01, 1.07084056e-02,
          3.56946862e-03, 7.13893725e-03, 0., 0., 0., 0., 1.78473431e-03,
          0., 0., 0., 0., 0., 0., 0., 0., 0., 0., 0., 0., 0., 0., 0., 0.,
          0., 0., 0., 0., 0., 0., 0., 0., 0., 0., 0., 0., 0., 0., 0., 0.,
          0., 0., 0., 0., 0., 0., 0., 0., 0., 0., 0., 0., 0., 0., 0., 0.,
          0., 0., 0., 0., 0., 0., 2.67710141e-03, 1.32962704e-01,
          2.23091785e-02, 3.12328506e-02, 1.78473431e-03, 0., 0., 0., 0.,
          0., 0., 0., 0., 0., 0., 0., 0., 0., 0., 0., 0., 0., 0., 0., 0.,
          0., 0., 0., 0., 0., 0., 0., 0., 0., 0., 0., 0., 0., 0., 0., 0.,
          0., 0., 0., 0., 0., 0., 0., 0., 0., 0., 0., 0., 0., 0., 0., 0.,
          0., 0., 0., 0., 0., 0., 0., 7.13893725e-03, 2.97158271e-01,
          7.76359439e-02, 1.16900094e-01, 7.13893725e-03, 0., 0., 0., 0.,
          3.92641537e-02, 2.58786473e-02, 5.17572947e-02, 0., 0., 0., 0.,
          0., 0., 1.78473424e-02, 0., 0., 0., 0., 0., 0., 0., 0.,
          3.56946862e-03, 0., 0., 0., 0., 0., 0., 0., 0., 3.56946862e-03,
          0., 0., 0., 0., 0., 0., 0., 0., 0., 0., 0., 0., 0., 0., 0., 0.,
          0., 0., 0., 0., 0., 0., 0., 0., 0., 0., 0., 4.55107242e-02,
          2.73064345e-01, 4.37259898e-02, 2.32015457e-02, 6.24657003e-03,
          0., 0., 0., 6.24657003e-03, 1.78473424e-02, 8.92367156e-04, 0.,
          0., 0., 0., 0., 0., 2.67710141e-03, 0., 0., 0., 0., 0., 0., 0.,
          8.92367156e-04, 0., 0., 0., 0., 0., 0., 0., 0., 0., 0., 0., 0.,
          0., 0., 0., 0., 0., 0., 0., 0., 0., 0., 0., 0., 0., 0., 0., 0.,
          0., 0., 0., 0., 0., 0., 0., 0., 0., 0., 4.46183570e-02,
          3.39991868e-01, 2.23091785e-02, 1.78473431e-03, 1.33855073e-02,
          0., 0., 0., 4.64030914e-02, 7.85283074e-02, 1.69549752e-02, 0.,
          0., 0., 0., 0., 1.78473431e-03, 3.92641537e-02, 2.67710141e-03,
          0., 0., 0., 0., 0., 8.92367156e-04, 1.16007729e-02,
          8.92367156e-04, 0., 0., 0., 0., 0., 0., 0., 0., 0., 0., 0., 0.,
          0., 0., 0., 0., 0., 0., 0., 0., 0., 0., 0., 0., 0., 0., 0., 0.,
          0., 0., 0., 0., 0., 0., 0., 0., 0., 0., 0., 0., 0., 0., 0., 0.,
          0., 0., 0., 0., 0., 0., 0., 0., 0., 0., 0., 0., 0., 0., 0., 0.,
          0., 0., 0., 0., 0., 0., 0., 0., 0., 0., 0., 0., 0., 0., 0., 0.,
          0., 0., 0., 0., 0., 0., 0., 0., 0., 0., 0., 0., 0., 0., 0., 0.,
          0., 0., 0., 0., 0., 0., 0., 0., 0., 0., 0., 0., 0., 0., 0., 0.,
          0., 0., 0., 0., 0., 0., 0., 0., 0., 0., 0., 0., 0., 0., 0., 0.,
          0., 0., 0., 0., 0., 0., 0., 0., 0., 0., 0., 0., 0., 0., 0., 0.,
          0., 0., 0., 0., 0., 0., 0., 0., 0., 0., 0., 0., 0., 0., 0., 0.,
          0., 0., 0., 0., 0., 0., 4.47058827e-01, 7.01960802e-01 ]
      - [ 0., 0., 0., 0., 2.22160667e-03, 1.08858727e-01, 5.03564179e-02,
          2.22160667e-02, 0., 0., 0., 0., 2.88808867e-02, 3.99889201e-01,
          5.55401668e-02, 1.48107111e-02, 0., 0., 0., 0., 4.96158823e-02,
          5.30964017e-01, 2.19939068e-01, 1.85133889e-02, 0., 0., 0., 0.,
          1.48107111e-03, 3.65084022e-01, 4.71721172e-01, 2.44376734e-02,
          0., 0., 0., 0., 0., 1.62917823e-01, 1.83652818e-01,
          9.62696224e-03, 0., 0., 0., 0., 0., 2.96214223e-02,
          8.51615891e-02, 1.25891045e-02, 0., 0., 0., 0., 0.,
          3.70267779e-03, 1.85133889e-02, 2.96214223e-03, 0., 0., 0., 0.,
          0., 0., 0., 0., 0., 0., 0., 0., 0., 5.92428446e-03,
          3.70267779e-03, 9.62696224e-03, 0., 0., 0., 0., 0.,
          2.96214223e-03, 1.48107111e-03, 0., 0., 0., 0., 0., 0., 0., 0.,
          0., 0., 0., 0., 0., 0., 0., 0., 0., 0., 0., 0., 0., 0., 0., 0.,
          0., 0., 0., 0., 0., 0., 0., 0., 0., 0., 0., 0., 0., 0., 0., 0.,
          0., 0., 0., 0., 0., 0., 0., 0., 0., 0., 0., 0., 0.,
          2.22160667e-03, 3.70267779e-03, 1.25891045e-02, 1.48107111e-02,
          0., 0., 0., 0., 0., 7.40535557e-04, 5.92428446e-03,
          8.88642669e-03, 0., 0., 0., 0., 0., 0., 0., 0., 0., 0., 0., 0.,
          0., 0., 0., 0., 0., 0., 0., 0., 0., 0., 0., 0., 0., 0., 0., 0.,
          0., 0., 0., 0., 0., 0., 0., 0., 0., 0., 0., 0., 0., 0., 0., 0.,
          0., 0., 0., 0., 0., 0., 0., 0., 2.22160667e-03, 2.51782089e-02,
          4.22105268e-02, 3.99889201e-02, 0., 0., 0., 0., 1.48107111e-03,
          1.33296400e-02, 2.73998156e-02, 9.40480158e-02, 0., 0., 0., 0.,
          0., 7.40535557e-04, 7.40535557e-04, 0., 0., 0., 0., 0., 0., 0.,
          0., 0., 0., 0., 0., 0., 0., 0., 0., 0., 0., 0., 0., 0., 0., 0.,
          0., 0., 0., 0., 0., 0., 0., 0., 0., 0., 0., 0., 0., 0., 0., 0.,
          0., 0., 0., 0., 0., 0., 1.18485689e-02, 7.40535557e-02,
          1.92539245e-02, 1.62917823e-02, 0., 0., 0., 2.22160667e-03,
          3.18430290e-02, 2.96214223e-02, 1.48107111e-03, 0., 0., 0., 0.,
          0., 7.40535557e-04, 5.18374890e-03, 2.22160667e-03, 0., 0., 0.,
          0., 0., 0., 7.40535557e-04, 5.92428446e-03, 2.96214223e-03, 0.,
          0., 0., 0., 0., 0., 0., 0., 0., 0., 0., 0., 0., 0., 0., 0., 0.,
          0., 0., 0., 0., 0., 0., 0., 0., 0., 0., 0., 0., 0., 0., 0., 0.,
          0., 0., 0., 1.99944600e-02, 7.62751624e-02, 1.48107111e-02,
          1.03674978e-02, 0., 0., 0., 0., 6.96103424e-02, 1.57734081e-01,
          6.66482002e-03, 1.48107111e-03, 0., 0., 0., 0., 1.40701756e-02,
          5.70212379e-02, 2.22160667e-03, 0., 0., 0., 0., 0., 0.,
          8.14589113e-03, 0., 0., 0., 0., 0., 0., 0., 2.96214223e-03, 0.,
          0., 0., 0., 0., 0., 0., 0., 0., 0., 0., 0., 0., 0., 0., 0., 0.,
          0., 0., 0., 0., 0., 0., 0., 0., 0., 0., 0., 0., 0., 0., 0., 0.,
          0., 0., 0., 0., 0., 0., 0., 0., 0., 0., 0., 0., 0., 0., 0., 0.,
          0., 0., 0., 0., 0., 0., 0., 0., 0., 0., 0., 0., 0., 0., 0., 0.,
          0., 0., 0., 0., 0., 0., 0., 0., 0., 0., 0., 0., 0., 0., 0., 0.,
          0., 0., 0., 0., 0., 0., 0., 0., 0., 0., 0., 0., 0., 0., 0., 0.,
          0., 0., 0., 0., 0., 0., 0., 0., 0., 0., 0., 0., 0., 0., 0., 0.,
          0., 0., 0., 0., 0., 0., 0., 0., 0., 0., 0., 0., 0., 0., 0., 0.,
          0., 0., 0., 0., 0., 0., 0., 0., 0., 0., 0., 0., 0., 0., 0., 0.,
          0., 0., 0., 0., 0., 0., 0., 0., 0., 4.82352942e-01,
          7.37254918e-01 ]
      - [ 0., 0., 0., 1.27426246e-02, 2.64654517e-01, 1.66634321e-02,
          1.27426246e-02, 1.86238363e-02, 0., 0., 0., 1.37228267e-02,
          2.29367241e-01, 1.28406450e-01, 1.13703422e-01, 1.47030279e-02,
          0., 0., 0., 1.86238363e-02, 1.27426252e-01, 1.79376945e-01,
          7.54755437e-02, 3.03862579e-02, 0., 0., 0., 1.56832300e-02,
          1.05861805e-01, 1.66634321e-01, 2.25446429e-02, 9.80201922e-03,
          0., 0., 0., 0., 1.86238363e-02, 7.05745369e-02, 5.19507006e-02,
          6.86141327e-02, 0., 0., 0., 0., 4.90100961e-03, 3.72476727e-02,
          4.60694879e-02, 8.91983733e-02, 0., 0., 0., 0., 0.,
          9.80201876e-04, 1.56832300e-02, 7.44953454e-02, 0., 0., 0., 0.,
          0., 0., 0., 1.96040384e-02, 0., 0., 0., 9.80201876e-04,
          8.72379690e-02, 9.80201876e-04, 4.90100961e-03, 7.84161501e-03,
          0., 0., 0., 0., 1.96040375e-03, 0., 0., 0., 0., 0., 0., 0., 0.,
          0., 0., 0., 0., 0., 0., 0., 0., 0., 0., 0., 0., 0., 0., 0., 0.,
          0., 0., 0., 0., 0., 0., 0., 0., 0., 0., 0., 0., 0., 0., 0., 0.,
          0., 0., 0., 0., 0., 0., 0., 0., 0., 0., 0., 0., 0., 0.,
          9.80201876e-04, 2.41129667e-01, 1.17624225e-02, 1.86238363e-02,
          1.86238363e-02, 0., 0., 0., 0., 2.64654513e-02, 1.86238363e-02,
          0., 0., 0., 0., 0., 0., 0., 0., 0., 0., 0., 0., 0., 0., 0., 0.,
          0., 0., 0., 0., 0., 0., 0., 0., 0., 0., 0., 0., 0., 0., 0., 0.,
          0., 0., 0., 0., 0., 0., 0., 0., 0., 0., 0., 0., 0., 0., 0., 0.,
          0., 0., 0., 0., 0., 4.90100961e-03, 4.98922765e-01,
          7.25349411e-02, 2.15644408e-02, 3.62674706e-02, 0., 0., 0., 0.,
          2.65634716e-01, 4.63635504e-01, 9.31191817e-02, 9.80201922e-03,
          0., 0., 0., 0., 3.03862579e-02, 8.42973590e-02, 4.31288816e-02,
          0., 0., 0., 0., 0., 0., 0., 2.74456535e-02, 4.90100961e-03, 0.,
          0., 0., 0., 0., 0., 0., 1.96040375e-03, 0., 0., 0., 0., 0., 0.,
          0., 0., 0., 0., 0., 0., 0., 0., 0., 0., 0., 0., 0., 0., 0., 0.,
          0., 0., 0., 0., 0., 7.84161501e-03, 1.69574931e-01,
          2.25446429e-02, 4.90100961e-03, 2.05842387e-02, 0., 0., 0.,
          1.76436342e-02, 1.11743018e-01, 1.66634321e-02, 4.90100961e-03,
          0., 0., 0., 0., 0., 1.47030279e-02, 0., 0., 0., 0., 0., 0., 0.,
          0., 0., 0., 0., 0., 0., 0., 0., 0., 0., 0., 0., 0., 0., 0., 0.,
          0., 0., 0., 0., 0., 0., 0., 0., 0., 0., 0., 0., 0., 0., 0., 0.,
          0., 0., 0., 0., 0., 0., 0., 0., 1.48010477e-01, 7.84161501e-03,
          3.92080750e-03, 4.90100961e-03, 0., 0., 0., 1.76436342e-02,
          9.99805927e-02, 1.66634321e-02, 1.96040375e-03, 1.96040375e-03,
          0., 0., 0., 1.47030279e-02, 1.21545032e-01, 9.80201922e-03, 0.,
          0., 0., 0., 0., 0., 3.43070664e-02, 1.37228267e-02,
          9.80201876e-04, 0., 0., 0., 0., 0., 5.88121125e-03,
          1.07822204e-02, 1.96040375e-03, 0., 0., 0., 0., 0., 0., 0., 0.,
          0., 0., 0., 0., 0., 0., 0., 0., 0., 0., 0., 0., 0., 0., 0., 0.,
          0., 0., 0., 0., 0., 0., 0., 0., 0., 0., 0., 0., 0., 0., 0., 0.,
          0., 0., 0., 0., 0., 0., 0., 0., 0., 0., 0., 0., 0., 0., 0., 0.,
          0., 0., 0., 0., 0., 0., 0., 0., 0., 0., 0., 0., 0., 0., 0., 0.,
          0., 0., 0., 0., 0., 0., 0., 0., 0., 0., 0., 0., 0., 0., 0., 0.,
          0., 0., 0., 0., 0., 0., 0., 0., 0., 0., 0., 0., 0., 0., 0., 0.,
          0., 0., 0., 0., 0., 0., 0., 0., 0., 0., 0., 0., 0., 0., 0., 0.,
          0., 0., 0., 0., 0., 0., 0., 0., 0., 0., 0., 0., 0., 0., 0., 0.,
          0., 0., 0., 0., 0., 0., 0., 0., 0., 0., 0., 0., 0., 0., 0., 0.,
          0., 4.43137258e-01, 7.33333349e-01 ]
      - [ 0., 0., 0., 0., 1.06077120e-02, 2.61656880e-01, 3.62430140e-02,
          4.41987999e-03, 0., 0., 0., 0., 5.74584380e-02, 3.88949424e-01,
          8.30937400e-02, 7.95578398e-03, 0., 0., 0., 0., 3.97789180e-02,
          3.35910887e-01, 1.91822797e-01, 3.09391599e-02, 0., 0., 0., 0.,
          4.41987999e-03, 1.95358694e-01, 2.75800496e-01, 6.01103678e-02,
          0., 0., 0., 0., 0., 7.60219321e-02, 1.98894605e-01,
          9.63533819e-02, 0., 0., 0., 0., 0., 3.88949439e-02,
          2.22761944e-01, 6.18783198e-02, 0., 0., 0., 0., 0.,
          1.06077120e-02, 6.89501241e-02, 6.18783198e-03, 0., 0., 0., 0.,
          0., 0., 0., 0., 0., 0., 0., 0., 0., 2.56353039e-02,
          6.18783198e-03, 2.65192799e-03, 0., 0., 0., 0., 0., 0., 0., 0.,
          0., 0., 0., 0., 0., 0., 0., 0., 0., 0., 0., 0., 0., 0., 0., 0.,
          0., 0., 0., 0., 0., 0., 0., 0., 0., 0., 0., 0., 0., 0., 0., 0.,
          0., 0., 0., 0., 0., 0., 0., 0., 0., 0., 0., 0., 0., 0., 0., 0.,
          0., 0., 0., 0., 1.76795200e-03, 5.30385599e-02, 3.62430140e-02,
          5.21545820e-02, 0., 0., 0., 0., 0., 0., 1.76795200e-03,
          1.23756640e-02, 0., 0., 0., 0., 0., 0., 0., 0., 0., 0., 0., 0.,
          0., 0., 0., 0., 0., 0., 0., 0., 0., 0., 0., 0., 0., 0., 0., 0.,
          0., 0., 0., 0., 0., 0., 0., 0., 0., 0., 0., 0., 0., 0., 0., 0.,
          0., 0., 0., 0., 0., 0., 0., 0., 6.18783198e-03, 3.12043518e-01,
          7.95578361e-02, 4.95026559e-02, 0., 0., 0., 0., 0.,
          3.27071100e-02, 1.59115680e-02, 6.54142201e-02, 0., 0., 0., 0.,
          0., 0., 0., 0., 0., 0., 0., 0., 0., 0., 0., 0., 0., 0., 0., 0.,
          0., 0., 0., 0., 0., 0., 0., 0., 0., 0., 0., 0., 0., 0., 0., 0.,
          0., 0., 0., 0., 0., 0., 0., 0., 0., 0., 0., 0., 0., 0., 0., 0.,
          7.95578398e-03, 2.82872319e-01, 2.56353039e-02, 1.76795200e-03,
          0., 0., 0., 0., 0., 1.32596400e-02, 2.65192799e-03, 0., 0., 0.,
          0., 0., 0., 0., 0., 0., 0., 0., 0., 0., 0., 0., 0., 0., 0., 0.,
          0., 0., 0., 0., 0., 0., 0., 0., 0., 0., 0., 0., 0., 0., 0., 0.,
          0., 0., 0., 0., 0., 0., 0., 0., 0., 0., 0., 0., 0., 0., 0., 0.,
          0., 0., 1.41436160e-02, 3.34142923e-01, 2.74032559e-02,
          2.65192799e-03, 0., 0., 0., 0., 2.29833759e-02, 2.49281228e-01,
          6.71821758e-02, 3.53590399e-03, 0., 0., 0., 0., 3.53590399e-03,
          6.09943420e-02, 7.07180798e-03, 0., 0., 0., 0., 0., 0.,
          8.83975998e-04, 0., 0., 0., 0., 0., 0., 0., 0., 0., 0., 0., 0.,
          0., 0., 0., 0., 0., 0., 0., 0., 0., 0., 0., 0., 0., 0., 0., 0.,
          0., 0., 0., 0., 0., 0., 0., 0., 0., 0., 0., 0., 0., 0., 0., 0.,
          0., 0., 0., 0., 0., 0., 0., 0., 0., 0., 0., 0., 0., 0., 0., 0.,
          0., 0., 0., 0., 0., 0., 0., 0., 0., 0., 0., 0., 0., 0., 0., 0.,
          0., 0., 0., 0., 0., 0., 0., 0., 0., 0., 0., 0., 0., 0., 0., 0.,
          0., 0., 0., 0., 0., 0., 0., 0., 0., 0., 0., 0., 0., 0., 0., 0.,
          0., 0., 0., 0., 0., 0., 0., 0., 0., 0., 0., 0., 0., 0., 0., 0.,
          0., 0., 0., 0., 0., 0., 0., 0., 0., 0., 0., 0., 0., 0., 0., 0.,
          0., 0., 0., 0., 0., 0., 0., 0., 0., 0., 0., 0., 0., 0., 0., 0.,
          0., 0., 0., 0., 0., 0., 4.78431374e-01, 7.88235307e-01 ]
      - [ 0., 0., 0., 9.12602432e-03, 1.53114408e-01, 5.37421443e-02,
          3.34620886e-02, 9.12602432e-03, 0., 0., 0., 7.09801866e-03,
          2.40318641e-01, 2.23080590e-01, 1.04442276e-01, 9.12602432e-03,
          0., 0., 0., 2.02800543e-03, 1.83534488e-01, 5.30323386e-01,
          4.25881147e-02, 4.05601086e-03, 0., 0., 0., 1.72380451e-02,
          2.65668720e-01, 3.70110989e-01, 2.83920746e-02, 1.11540295e-02,
          0., 0., 0., 4.05601086e-03, 1.69338450e-01, 2.24094599e-01,
          3.85321006e-02, 7.09801866e-03, 0., 0., 0., 2.02800543e-03,
          9.83582586e-02, 1.19652316e-01, 3.85321006e-02, 3.34620886e-02,
          0., 0., 0., 0., 1.92660503e-02, 3.65040973e-02, 3.44760902e-02,
          1.01400269e-02, 0., 0., 0., 0., 3.04200803e-03, 1.01400272e-03,
          0., 0., 0., 0., 0., 0., 6.79381788e-02, 1.21680321e-02,
          3.24480869e-02, 8.11202172e-03, 0., 0., 0., 0., 9.12602432e-03,
          0., 2.02800543e-03, 0., 0., 0., 0., 0., 0., 0., 0., 0., 0., 0.,
          0., 0., 0., 0., 0., 0., 0., 0., 0., 0., 0., 0., 0., 0., 0., 0.,
          0., 0., 0., 0., 0., 0., 0., 0., 0., 0., 0., 0., 0., 0., 0., 0.,
          0., 0., 0., 0., 0., 0., 0., 0., 0., 0., 9.22742486e-02,
          3.14340852e-02, 4.86721285e-02, 2.23080590e-02, 0., 0., 0.,
          1.01400272e-03, 1.92660503e-02, 5.07001346e-03, 1.01400272e-03,
          0., 0., 0., 0., 0., 0., 0., 0., 0., 0., 0., 0., 0., 0., 0., 0.,
          0., 0., 0., 0., 0., 0., 0., 0., 0., 0., 0., 0., 0., 0., 0., 0.,
          0., 0., 0., 0., 0., 0., 0., 0., 0., 0., 0., 0., 0., 0., 0., 0.,
          0., 0., 0., 0., 0., 1.88604504e-01, 1.24722332e-01,
          1.41960373e-02, 4.05601077e-02, 0., 0., 0., 4.05601086e-03,
          5.37421443e-02, 1.56156421e-01, 5.98261580e-02, 4.86721285e-02,
          0., 0., 0., 0., 0., 0., 1.01400272e-03, 0., 0., 0., 0., 0., 0.,
          0., 0., 0., 0., 0., 0., 0., 0., 0., 0., 0., 0., 0., 0., 0., 0.,
          0., 0., 0., 0., 0., 0., 0., 0., 0., 0., 0., 0., 0., 0., 0., 0.,
          0., 0., 0., 0., 0., 0., 1.72380451e-02, 1.46016389e-01,
          6.48961738e-02, 3.04200803e-03, 2.02800543e-03, 0., 0., 0.,
          1.21680321e-02, 2.43360642e-02, 1.41960373e-02, 1.01400272e-03,
          0., 0., 0., 0., 1.01400272e-03, 4.05601086e-03, 0., 0., 0., 0.,
          0., 0., 0., 0., 0., 0., 0., 0., 0., 0., 0., 0., 0., 0., 0., 0.,
          0., 0., 0., 0., 0., 0., 0., 0., 0., 0., 0., 0., 0., 0., 0., 0.,
          0., 0., 0., 0., 0., 0., 0., 0., 0., 0., 1.01400269e-02,
          1.66296437e-01, 4.56301197e-02, 0., 7.09801866e-03, 0., 0., 0.,
          1.92660503e-02, 1.65282443e-01, 1.39932379e-01, 1.01400272e-03,
          0., 0., 0., 0., 2.33220626e-02, 8.61902311e-02, 3.54900956e-02,
          1.01400272e-03, 0., 0., 0., 0., 1.01400272e-03, 8.11202172e-03,
          2.02800543e-03, 0., 0., 0., 0., 0., 0., 0., 0., 0., 0., 0., 0.,
          0., 0., 0., 0., 0., 0., 0., 0., 0., 0., 0., 0., 0., 0., 0., 0.,
          0., 0., 0., 0., 0., 0., 0., 0., 0., 0., 0., 0., 0., 0., 0., 0.,
          0., 0., 0., 0., 0., 0., 0., 0., 0., 0., 0., 0., 0., 0., 0., 0.,
          0., 0., 0., 0., 0., 0., 0., 0., 0., 0., 0., 0., 0., 0., 0., 0.,
          0., 0., 0., 0., 0., 0., 0., 0., 0., 0., 0., 0., 0., 0., 0., 0.,
          0., 0., 0., 0., 0., 0., 0., 0., 0., 0., 0., 0., 0., 0., 0., 0.,
          0., 0., 0., 0., 0., 0., 0., 0., 0., 0., 0., 0., 0., 0., 0., 0.,
          0., 0., 0., 0., 0., 0., 0., 0., 0., 0., 0., 0., 0., 0., 0., 0.,
          0., 0., 0., 0., 0., 0., 0., 0., 0., 0., 0., 0., 0., 0., 0., 0.,
          0., 0., 0., 0., 0., 0., 3.84313732e-01, 7.45098054e-01 ]
      - [ 0., 0., 0., 1.93785888e-03, 5.32911196e-02, 1.31774411e-01,
          5.23221903e-02, 3.97261083e-02, 0., 0., 0., 0., 1.52121916e-01,
          4.44738626e-01, 2.18009129e-01, 2.80989539e-02, 0., 0., 0., 0.,
          1.39525846e-01, 5.61979055e-01, 1.38556913e-01, 3.68193202e-02,
          0., 0., 0., 0., 4.45707552e-02, 2.35449851e-01, 9.01104361e-02,
          1.45339416e-02, 0., 0., 0., 0., 1.55028710e-02, 1.75376222e-01,
          5.23221903e-02, 1.84096601e-02, 0., 0., 0., 0., 6.78250613e-03,
          9.78618711e-02, 7.36386403e-02, 2.22853776e-02, 0., 0., 0., 0.,
          0., 1.45339416e-02, 1.84096601e-02, 2.90678837e-03, 0., 0., 0.,
          0., 0., 0., 0., 0., 0., 0., 0., 0., 3.10057420e-02,
          1.64718013e-02, 2.42232364e-02, 1.84096601e-02, 0., 0., 0., 0.,
          9.68929438e-04, 0., 1.06582241e-02, 1.84096601e-02, 0., 0., 0.,
          0., 0., 0., 0., 0., 0., 0., 0., 0., 0., 0., 0., 0., 0., 0., 0.,
          0., 0., 0., 0., 0., 0., 0., 0., 0., 0., 0., 0., 0., 0., 0., 0.,
          0., 0., 0., 0., 0., 0., 0., 0., 0., 0., 0., 0., 0., 0., 0., 0.,
          0., 3.10057420e-02, 2.90678833e-02, 6.58872053e-02,
          7.36386403e-02, 0., 0., 0., 0., 3.87571775e-03, 1.35650123e-02,
          8.72036535e-03, 1.35650123e-02, 0., 0., 0., 0., 0., 0., 0., 0.,
          0., 0., 0., 0., 0., 0., 0., 0., 0., 0., 0., 0., 0., 0., 0., 0.,
          0., 0., 0., 0., 0., 0., 0., 0., 0., 0., 0., 0., 0., 0., 0., 0.,
          0., 0., 0., 0., 0., 0., 0., 0., 0., 0., 0., 1.93785888e-03,
          9.30172279e-02, 2.03475177e-01, 8.23590010e-02, 8.13900754e-02,
          0., 0., 0., 9.68929438e-04, 1.74407307e-02, 2.59673089e-01,
          8.91415104e-02, 5.13532609e-02, 0., 0., 0., 0., 0., 0., 0., 0.,
          0., 0., 0., 0., 0., 0., 0., 0., 0., 0., 0., 0., 0., 0., 0., 0.,
          0., 0., 0., 0., 0., 0., 0., 0., 0., 0., 0., 0., 0., 0., 0., 0.,
          0., 0., 0., 0., 0., 0., 0., 0., 0., 0., 0., 2.90678837e-03,
          1.03675447e-01, 1.15302600e-01, 9.68929473e-03, 3.77882496e-02,
          0., 0., 0., 0., 3.48814614e-02, 2.71300245e-02, 0., 0., 0., 0.,
          0., 0., 0., 0., 0., 0., 0., 0., 0., 0., 0., 0., 0., 0., 0., 0.,
          0., 0., 0., 0., 0., 0., 0., 0., 0., 0., 0., 0., 0., 0., 0., 0.,
          0., 0., 0., 0., 0., 0., 0., 0., 0., 0., 0., 0., 0., 0., 0., 0.,
          0., 0., 7.46075660e-02, 1.01737589e-01, 4.26328965e-02,
          2.32543070e-02, 0., 0., 0., 0., 6.97629228e-02, 1.44370481e-01,
          8.72036535e-03, 0., 0., 0., 0., 0., 1.35650123e-02,
          7.84832835e-02, 9.68929438e-04, 0., 0., 0., 0., 0., 0.,
          9.68929473e-03, 1.93785888e-03, 0., 0., 0., 0., 0., 0., 0., 0.,
          0., 0., 0., 0., 0., 0., 0., 0., 0., 0., 0., 0., 0., 0., 0., 0.,
          0., 0., 0., 0., 0., 0., 0., 0., 0., 0., 0., 0., 0., 0., 0., 0.,
          0., 0., 0., 0., 0., 0., 0., 0., 0., 0., 0., 0., 0., 0., 0., 0.,
          0., 0., 0., 0., 0., 0., 0., 0., 0., 0., 0., 0., 0., 0., 0., 0.,
          0., 0., 0., 0., 0., 0., 0., 0., 0., 0., 0., 0., 0., 0., 0., 0.,
          0., 0., 0., 0., 0., 0., 0., 0., 0., 0., 0., 0., 0., 0., 0., 0.,
          0., 0., 0., 0., 0., 0., 0., 0., 0., 0., 0., 0., 0., 0., 0., 0.,
          0., 0., 0., 0., 0., 0., 0., 0., 0., 0., 0., 0., 0., 0., 0., 0.,
          0., 0., 0., 0., 0., 0., 0., 0., 0., 0., 0., 0., 0., 0., 0., 0.,
          0., 0., 0., 0., 0., 0., 0., 0., 0., 4.82352942e-01,
          7.41176486e-01 ]
      - [ 0., 0., 0., 1.89890293e-03, 2.73442030e-01, 1.01591304e-01,
          6.07648939e-02, 5.60176335e-02, 0., 0., 0., 5.69670880e-03,
          3.96870703e-01, 2.15525478e-01, 2.37362869e-02, 2.84835440e-03,
          0., 0., 0., 1.23428684e-02, 3.77881676e-01, 2.11727679e-01,
          3.60791534e-02, 2.84835440e-03, 0., 0., 0., 7.59561174e-03,
          2.58250803e-01, 1.55710042e-01, 3.98769602e-02, 2.08879318e-02,
          0., 0., 0., 9.49451420e-03, 7.50066638e-02, 6.45627007e-02,
          2.37362869e-02, 2.65846401e-02, 0., 0., 0., 0., 1.80395767e-02,
          2.94329952e-02, 2.18373835e-02, 1.80395767e-02, 0., 0., 0., 0.,
          0., 0., 0., 2.84835440e-03, 0., 0., 0., 0., 0., 0., 0., 0., 0.,
          0., 0., 9.49451467e-04, 4.84220237e-02, 2.84835435e-02,
          2.94329952e-02, 1.32923201e-02, 0., 0., 0., 0., 0.,
          9.49451467e-04, 0., 0., 0., 0., 0., 0., 0., 0., 0., 0., 0., 0.,
          0., 0., 0., 0., 0., 0., 0., 0., 0., 0., 0., 0., 0., 0., 0., 0.,
          0., 0., 0., 0., 0., 0., 0., 0., 0., 0., 0., 0., 0., 0., 0., 0.,
          0., 0., 0., 0., 0., 0., 0., 0., 0., 9.49451467e-04,
          7.50066638e-02, 4.08264138e-02, 5.12703769e-02, 6.64616004e-03,
          0., 0., 0., 0., 0., 1.13934176e-02, 0., 0., 0., 0., 0., 0., 0.,
          0., 0., 0., 0., 0., 0., 0., 0., 0., 0., 0., 0., 0., 0., 0., 0.,
          0., 0., 0., 0., 0., 0., 0., 0., 0., 0., 0., 0., 0., 0., 0., 0.,
          0., 0., 0., 0., 0., 0., 0., 0., 0., 0., 0., 0., 0., 0., 0.,
          1.62356198e-01, 1.69951811e-01, 5.41187339e-02, 9.49451467e-04,
          0., 0., 0., 0., 1.13934176e-02, 6.83605075e-02, 0., 0., 0., 0.,
          0., 0., 0., 0., 1.89890293e-03, 0., 0., 0., 0., 0., 0., 0.,
          5.69670880e-03, 2.84835440e-03, 0., 0., 0., 0., 0., 0., 0.,
          9.49451467e-04, 0., 0., 0., 0., 0., 0., 0., 0., 0., 0., 0., 0.,
          0., 0., 0., 0., 0., 0., 0., 0., 0., 0., 0., 0., 0., 0., 0.,
          9.49451467e-04, 3.57943207e-01, 7.40572140e-02, 2.27868352e-02,
          2.84835440e-03, 0., 0., 0., 0., 4.84220237e-02, 1.89890284e-02,
          0., 0., 0., 0., 0., 0., 5.69670880e-03, 5.69670880e-03, 0., 0.,
          0., 0., 0., 0., 0., 3.79780587e-03, 3.79780587e-03, 0., 0., 0.,
          0., 0., 0., 0., 1.89890293e-03, 1.89890293e-03, 0., 0., 0., 0.,
          0., 0., 0., 0., 0., 0., 0., 0., 0., 0., 0., 0., 0., 0., 0., 0.,
          0., 0., 0., 0., 0., 0., 0., 0., 2.43059576e-01, 4.55736704e-02,
          1.42417718e-02, 1.89890293e-03, 0., 0., 0., 3.79780587e-03,
          3.00976098e-01, 8.07033703e-02, 1.89890293e-03, 0., 0., 0., 0.,
          2.84835440e-03, 1.74699068e-01, 6.17143437e-02, 0., 0., 0., 0.,
          0., 0., 3.41802537e-02, 1.89890293e-03, 0., 0., 0., 0., 0., 0.,
          0., 0., 0., 0., 0., 0., 0., 0., 0., 0., 0., 0., 0., 0., 0., 0.,
          0., 0., 0., 0., 0., 0., 0., 0., 0., 0., 0., 0., 0., 0., 0., 0.,
          0., 0., 0., 0., 0., 0., 0., 0., 0., 0., 0., 0., 0., 0., 0., 0.,
          0., 0., 0., 0., 0., 0., 0., 0., 0., 0., 0., 0., 0., 0., 0., 0.,
          0., 0., 0., 0., 0., 0., 0., 0., 0., 0., 0., 0., 0., 0., 0., 0.,
          0., 0., 0., 0., 0., 0., 0., 0., 0., 0., 0., 0., 0., 0., 0., 0.,
          0., 0., 0., 0., 0., 0., 0., 0., 0., 0., 0., 0., 0., 0., 0., 0.,
          0., 0., 0., 0., 0., 0., 0., 0., 0., 0., 0., 0., 0., 0., 0., 0.,
          0., 0., 0., 0., 0., 0., 0., 0., 0., 0., 0., 0., 0., 0., 0., 0.,
          0., 0., 0., 0., 0., 0., 0., 0., 0., 0., 0., 0., 4.70588237e-01,
          7.05882370e-01 ]
      - [ 0., 0., 0., 0., 1.51999876e-01, 1.59414500e-01, 4.22633812e-02,
          2.15024222e-02, 0., 0., 0., 0., 1.66087672e-01, 6.42848253e-01,
          9.56487060e-02, 3.33658271e-02, 0., 0., 0., 0., 1.38653547e-01,
          4.58224028e-01, 1.09736495e-01, 5.70926368e-02, 0., 0., 0., 0.,
          1.06029183e-01, 2.60253459e-01, 5.41267842e-02, 3.55902165e-02,
          0., 0., 0., 0., 2.59511992e-02, 9.71316323e-02, 3.78146023e-02,
          2.89170500e-02, 0., 0., 0., 0., 1.33463303e-02, 5.70926368e-02,
          2.66926605e-02, 3.26243639e-02, 0., 0., 0., 0., 7.41462805e-04,
          7.41462805e-04, 1.40877934e-02, 5.19023975e-03, 0., 0., 0., 0.,
          0., 0., 0., 0., 0., 0., 0., 0., 9.63901635e-03, 3.70731414e-03,
          1.85365696e-02, 0., 0., 0., 0., 0., 0., 0., 0., 0., 0., 0., 0.,
          0., 0., 0., 0., 0., 0., 0., 0., 0., 0., 0., 0., 0., 0., 0., 0.,
          0., 0., 0., 0., 0., 0., 0., 0., 0., 0., 0., 0., 0., 0., 0., 0.,
          0., 0., 0., 0., 0., 0., 0., 0., 0., 0., 0., 0., 0., 0., 0., 0.,
          0., 1.11219427e-02, 1.26048680e-02, 1.18634049e-02,
          1.48292561e-03, 0., 0., 0., 0., 0., 0., 0., 0., 0., 0., 0., 0.,
          0., 0., 0., 0., 0., 0., 0., 0., 0., 0., 0., 0., 0., 0., 0., 0.,
          0., 0., 0., 0., 0., 0., 0., 0., 0., 0., 0., 0., 0., 0., 0., 0.,
          0., 0., 0., 0., 0., 0., 0., 0., 0., 0., 0., 0., 0., 0., 0., 0.,
          1.26048680e-02, 2.59511992e-02, 2.96585122e-03, 7.41462805e-04,
          0., 0., 0., 0., 7.41462805e-04, 1.48292561e-03, 0.,
          1.48292561e-03, 0., 0., 0., 0., 0., 0., 0., 0., 0., 0., 0., 0.,
          0., 0., 0., 0., 0., 0., 0., 0., 0., 0., 0., 0., 0., 0., 0., 0.,
          0., 0., 0., 0., 0., 0., 0., 0., 0., 0., 0., 0., 0., 0., 0., 0.,
          0., 0., 0., 0., 0., 0., 0., 7.41462805e-04, 5.56097105e-02,
          5.63511737e-02, 1.48292561e-03, 2.96585122e-03, 0., 0., 0.,
          1.48292561e-03, 2.96585122e-03, 1.70536451e-02, 7.41462805e-04,
          0., 0., 0., 0., 0., 0., 0., 0., 0., 0., 0., 0., 0., 0., 0., 0.,
          0., 0., 0., 0., 0., 0., 0., 0., 0., 0., 0., 0., 0., 0., 0., 0.,
          0., 0., 0., 0., 0., 0., 0., 0., 0., 0., 0., 0., 0., 0., 0., 0.,
          0., 0., 0., 0., 1.48292561e-03, 6.00584894e-02, 2.19472989e-01,
          5.19023975e-03, 1.40877934e-02, 0., 0., 0., 7.41462805e-04,
          7.85950571e-02, 2.92877823e-01, 9.63901635e-03, 2.22438853e-03,
          0., 0., 0., 0., 5.19023975e-03, 1.33463303e-02, 4.44877706e-03,
          7.41462805e-04, 0., 0., 0., 0., 0., 8.15609097e-03, 0., 0., 0.,
          0., 0., 0., 0., 0., 0., 0., 0., 0., 0., 0., 0., 0., 0., 0., 0.,
          0., 0., 0., 0., 0., 0., 0., 0., 0., 0., 0., 0., 0., 0., 0., 0.,
          0., 0., 0., 0., 0., 0., 0., 0., 0., 0., 0., 0., 0., 0., 0., 0.,
          0., 0., 0., 0., 0., 0., 0., 0., 0., 0., 0., 0., 0., 0., 0., 0.,
          0., 0., 0., 0., 0., 0., 0., 0., 0., 0., 0., 0., 0., 0., 0., 0.,
          0., 0., 0., 0., 0., 0., 0., 0., 0., 0., 0., 0., 0., 0., 0., 0.,
          0., 0., 0., 0., 0., 0., 0., 0., 0., 0., 0., 0., 0., 0., 0., 0.,
          0., 0., 0., 0., 0., 0., 0., 0., 0., 0., 0., 0., 0., 0., 0., 0.,
          0., 0., 0., 0., 0., 0., 0., 0., 0., 0., 0., 0., 0., 0., 0., 0.,
          0., 0., 0., 0., 0., 0., 0., 0., 0., 0., 0., 0., 0., 0., 0.,
          4.58823532e-01, 7.60784328e-01 ]
      - [ 0., 0., 0., 3.45349051e-02, 2.81212807e-01, 8.28837752e-02,
          1.27285793e-01, 3.15747708e-02, 0., 0., 0., 5.03222905e-02,
          3.61136436e-01, 1.66754261e-01, 1.16431974e-01, 0., 0., 0., 0.,
          9.86711588e-03, 2.80226111e-01, 1.94382191e-01, 4.44020219e-02,
          0., 0., 0., 0., 6.90698111e-03, 9.17641819e-02, 1.46033317e-01,
          3.05880606e-02, 0., 0., 0., 0., 1.97342318e-03, 5.32824285e-02,
          1.31232649e-01, 3.25614847e-02, 5.92026953e-03, 0., 0., 0.,
          9.86711588e-04, 2.36810781e-02, 1.08538277e-01, 3.94684635e-02,
          1.67740975e-02, 0., 0., 0., 0., 1.97342318e-03, 7.89369270e-03,
          2.26943679e-02, 1.97342318e-02, 0., 0., 0., 0., 0., 0.,
          3.94684635e-03, 1.67740975e-02, 0., 0., 0., 3.94684635e-03,
          9.66977403e-02, 7.40033686e-02, 1.57873854e-02, 6.90698111e-03,
          0., 0., 0., 4.93355794e-03, 1.18405391e-02, 1.97342318e-03, 0.,
          0., 0., 0., 0., 0., 0., 0., 0., 0., 0., 0., 0., 0., 0., 0., 0.,
          0., 0., 0., 0., 0., 0., 0., 0., 0., 0., 0., 0., 0., 0., 0., 0.,
          0., 0., 0., 0., 0., 0., 0., 0., 0., 0., 0., 0., 0., 0., 0., 0.,
          0., 0., 0., 0., 3.94684635e-03, 2.02275887e-01, 1.97342321e-01,
          1.18405391e-02, 1.67740975e-02, 0., 0., 0., 0., 2.36810781e-02,
          3.74950431e-02, 0., 0., 0., 0., 0., 0., 0., 9.86711588e-04, 0.,
          0., 0., 0., 0., 0., 0., 0., 0., 0., 0., 0., 0., 0., 0., 0., 0.,
          0., 0., 0., 0., 0., 0., 0., 0., 0., 0., 0., 0., 0., 0., 0., 0.,
          0., 0., 0., 0., 0., 0., 0., 0., 0., 0., 0., 0., 5.92026953e-03,
          4.14418876e-01, 2.39770919e-01, 3.05880606e-02, 6.01894073e-02,
          0., 0., 0., 0., 9.17641819e-02, 3.99618208e-01, 1.67740975e-02,
          9.86711588e-04, 0., 0., 0., 0., 1.97342318e-03, 9.86711588e-04,
          0., 0., 0., 0., 0., 0., 0., 0., 0., 0., 0., 0., 0., 0., 0., 0.,
          0., 0., 0., 0., 0., 0., 0., 0., 0., 0., 0., 0., 0., 0., 0., 0.,
          0., 0., 0., 0., 0., 0., 0., 0., 0., 0., 0., 0., 0.,
          7.89369270e-03, 1.29259229e-01, 2.17076559e-02, 9.86711588e-03,
          3.94684635e-02, 0., 0., 0., 0., 0., 0., 0., 0., 0., 0., 0., 0.,
          0., 0., 0., 0., 0., 0., 0., 0., 0., 0., 0., 0., 0., 0., 0., 0.,
          0., 0., 0., 0., 0., 0., 0., 0., 0., 0., 0., 0., 0., 0., 0., 0.,
          0., 0., 0., 0., 0., 0., 0., 0., 0., 0., 0., 0., 0., 0., 0.,
          8.88040476e-03, 1.07551567e-01, 4.53887358e-02, 3.94684635e-03,
          9.86711588e-03, 0., 0., 0., 2.96013476e-03, 5.52558489e-02,
          2.96013476e-03, 1.97342318e-03, 0., 0., 0., 0., 0.,
          1.97342318e-03, 4.93355794e-03, 0., 0., 0., 0., 0., 0., 0.,
          1.97342318e-03, 0., 0., 0., 0., 0., 0., 0., 0., 0., 0., 0., 0.,
          0., 0., 0., 0., 0., 0., 0., 0., 0., 0., 0., 0., 0., 0., 0., 0.,
          0., 0., 0., 0., 0., 0., 0., 0., 0., 0., 0., 0., 0., 0., 0., 0.,
          0., 0., 0., 0., 0., 0., 0., 0., 0., 0., 0., 0., 0., 0., 0., 0.,
          0., 0., 0., 0., 0., 0., 0., 0., 0., 0., 0., 0., 0., 0., 0., 0.,
          0., 0., 0., 0., 0., 0., 0., 0., 0., 0., 0., 0., 0., 0., 0., 0.,
          0., 0., 0., 0., 0., 0., 0., 0., 0., 0., 0., 0., 0., 0., 0., 0.,
          0., 0., 0., 0., 0., 0., 0., 0., 0., 0., 0., 0., 0., 0., 0., 0.,
          0., 0., 0., 0., 0., 0., 0., 0., 0., 0., 0., 0., 0., 0., 0., 0.,
          0., 0., 0., 0., 0., 0., 0., 0., 0., 0., 0., 0., 0., 0., 0., 0.,
          0., 0., 0., 0., 0., 0., 4.35294122e-01, 7.05882370e-01 ]
      - [ 0., 0., 0., 0., 7.27982144e-04, 1.89275369e-02, 4.22229655e-02,
          5.82385734e-02, 0., 0., 0., 0., 5.82385715e-03, 4.53532875e-01,
          1.84179485e-01, 4.14949842e-02, 0., 0., 0., 0., 6.55183941e-03,
          5.40890753e-01, 3.50159407e-01, 4.87748049e-02, 0., 0., 0., 0.,
          8.00780393e-03, 3.25408012e-01, 2.05290973e-01, 3.20312157e-02,
          0., 0., 0., 0., 9.46376845e-03, 1.87819391e-01, 1.00461535e-01,
          1.60156079e-02, 0., 0., 0., 0., 5.82385715e-03, 9.46376845e-02,
          5.16867340e-02, 1.45596429e-03, 0., 0., 0., 0., 0.,
          1.01917507e-02, 7.27982167e-03, 0., 0., 0., 0., 0., 0., 0., 0.,
          0., 0., 0., 0., 0., 0., 5.82385715e-03, 1.45596433e-02,
          1.52876256e-02, 0., 0., 0., 0., 0., 7.27982144e-04,
          3.63991084e-03, 9.46376845e-03, 0., 0., 0., 0., 0., 0., 0., 0.,
          0., 0., 0., 0., 0., 0., 0., 0., 0., 0., 0., 0., 0., 0., 0., 0.,
          0., 0., 0., 0., 0., 0., 0., 0., 0., 0., 0., 0., 0., 0., 0., 0.,
          0., 0., 0., 0., 0., 0., 0., 0., 0., 0., 0., 0., 0.,
          4.36789310e-03, 1.89275369e-02, 2.11114828e-02, 0., 0., 0., 0.,
          0., 1.45596429e-03, 0., 7.27982167e-03, 0., 0., 0., 0., 0., 0.,
          0., 0., 0., 0., 0., 0., 0., 0., 0., 0., 0., 0., 0., 0., 0., 0.,
          0., 0., 0., 0., 0., 0., 0., 0., 0., 0., 0., 0., 0., 0., 0., 0.,
          0., 0., 0., 0., 0., 0., 0., 0., 0., 0., 0., 0., 0., 0.,
          2.91192858e-03, 1.38316611e-02, 3.71270888e-02, 2.54793763e-02,
          0., 0., 0., 0., 0., 1.45596429e-03, 4.36789310e-03,
          1.31036788e-02, 0., 0., 0., 0., 0., 0., 0., 0., 0., 0., 0., 0.,
          0., 0., 0., 0., 0., 0., 0., 0., 0., 0., 0., 0., 0., 0., 0., 0.,
          0., 0., 0., 0., 0., 0., 0., 0., 0., 0., 0., 0., 0., 0., 0., 0.,
          0., 0., 0., 0., 0., 0., 0., 0., 2.18394655e-03, 2.40234118e-02,
          1.89275369e-02, 1.23756966e-02, 0., 0., 0., 0., 7.27982144e-04,
          3.63991084e-03, 7.27982144e-04, 0., 0., 0., 0., 0., 0.,
          1.45596429e-03, 0., 0., 0., 0., 0., 0., 0., 8.00780393e-03,
          6.55183941e-03, 0., 0., 0., 0., 0., 0., 0., 0., 0., 0., 0., 0.,
          0., 0., 0., 0., 0., 0., 0., 0., 0., 0., 0., 0., 0., 0., 0., 0.,
          0., 0., 0., 0., 0., 0., 0., 0., 0., 2.91192858e-03,
          3.49431448e-02, 2.25674473e-02, 1.09197320e-02, 0., 0., 0., 0.,
          1.01917507e-02, 2.95560747e-01, 6.11505024e-02, 1.31036788e-02,
          0., 0., 0., 0., 3.63991084e-03, 1.64523974e-01, 5.82385734e-02,
          0., 0., 0., 0., 0., 0., 2.18394655e-03, 7.27982144e-04, 0., 0.,
          0., 0., 0., 0., 7.27982144e-04, 5.82385715e-03, 0., 0., 0., 0.,
          0., 0., 0., 0., 0., 0., 0., 0., 0., 0., 0., 0., 0., 0., 0., 0.,
          0., 0., 0., 0., 0., 0., 0., 0., 0., 0., 0., 0., 0., 0., 0., 0.,
          0., 0., 0., 0., 0., 0., 0., 0., 0., 0., 0., 0., 0., 0., 0., 0.,
          0., 0., 0., 0., 0., 0., 0., 0., 0., 0., 0., 0., 0., 0., 0., 0.,
          0., 0., 0., 0., 0., 0., 0., 0., 0., 0., 0., 0., 0., 0., 0., 0.,
          0., 0., 0., 0., 0., 0., 0., 0., 0., 0., 0., 0., 0., 0., 0., 0.,
          0., 0., 0., 0., 0., 0., 0., 0., 0., 0., 0., 0., 0., 0., 0., 0.,
          0., 0., 0., 0., 0., 0., 0., 0., 0., 0., 0., 0., 0., 0., 0., 0.,
          0., 0., 0., 0., 0., 0., 0., 0., 0., 0., 0., 0., 0., 0., 0., 0.,
          0., 0., 0., 0., 0., 4.78431374e-01, 7.45098054e-01 ]
      - [ 0., 0., 0., 0., 1.10934547e-03, 5.54672733e-04, 2.77336361e-03,
          1.10934547e-03, 0., 0., 0., 0., 2.21869093e-03, 1.44214900e-02,
          3.93817611e-02, 1.49761634e-02, 0., 0., 0., 0., 4.99205431e-03,
          1.45324245e-01, 1.28129393e-01, 1.27574718e-02, 0., 0., 0., 0.,
          1.10934547e-03, 4.23769951e-01, 4.90330666e-01, 1.16481269e-02,
          0., 0., 0., 0., 0., 3.20046157e-01, 5.86289048e-01,
          1.44214900e-02, 0., 0., 0., 0., 0., 1.21473320e-01,
          2.56258786e-01, 9.98410862e-03, 0., 0., 0., 0., 0.,
          1.10934544e-02, 9.76223946e-02, 9.42943618e-03, 0., 0., 0., 0.,
          0., 0., 5.54672733e-04, 1.10934547e-03, 0., 0., 0., 0., 0., 0.,
          0., 0., 0., 0., 0., 0., 0., 0., 0., 0., 0., 0., 0., 0., 0., 0.,
          0., 0., 0., 0., 0., 0., 0., 0., 0., 0., 0., 0., 0., 0., 0., 0.,
          0., 0., 0., 0., 0., 0., 0., 0., 0., 0., 0., 0., 0., 0., 0., 0.,
          0., 0., 0., 0., 0., 0., 0., 0., 0., 0., 0., 0., 0., 0., 0., 0.,
          0., 0., 0., 0., 0., 0., 0., 0., 0., 0., 0., 0., 0., 0., 0., 0.,
          0., 0., 0., 0., 0., 0., 0., 0., 0., 0., 0., 0., 0., 0., 0., 0.,
          0., 0., 0., 0., 0., 0., 0., 0., 0., 0., 0., 0., 0., 0., 0., 0.,
          0., 0., 0., 0., 0., 0., 0., 0., 0., 0., 0., 0., 0., 0., 0., 0.,
          0., 0., 0., 0., 0., 0., 0., 0., 0., 0., 0., 0., 0., 0., 0., 0.,
          0., 0., 0., 0., 0., 0., 0., 0., 0., 0., 0., 0., 0., 0., 0., 0.,
          0., 0., 0., 0., 0., 0., 0., 0., 0., 0., 0., 0., 0., 0., 0., 0.,
          0., 0., 0., 0., 0., 0., 0., 0., 0., 0., 0., 0., 0., 0., 0.,
          1.10934547e-03, 3.88270896e-03, 0., 0., 0., 0., 0., 0., 0.,
          4.43738187e-03, 0., 0., 0., 0., 0., 0., 0., 0., 0., 0., 0., 0.,
          0., 0., 0., 0., 0., 0., 0., 0., 0., 0., 0., 0., 0., 0., 0., 0.,
          0., 0., 0., 0., 0., 0., 0., 0., 0., 0., 0., 0., 0., 0., 0., 0.,
          0., 0., 0., 0., 0., 0., 0., 0., 0., 0., 2.77336361e-03,
          6.10139966e-03, 7.76541792e-03, 0., 0., 0., 0., 5.54672733e-04,
          1.66401814e-03, 5.54672703e-02, 1.49761634e-02, 0., 0., 0., 0.,
          2.21869093e-03, 0., 3.88270896e-03, 0., 0., 0., 0., 0., 0.,
          3.88270896e-03, 3.88270896e-03, 0., 0., 0., 0., 0., 0., 0., 0.,
          0., 0., 0., 0., 0., 0., 0., 0., 0., 0., 0., 0., 0., 0., 0., 0.,
          0., 0., 0., 0., 0., 0., 0., 0., 0., 0., 0., 0., 0., 0., 0., 0.,
          0., 0., 0., 0., 0., 0., 0., 0., 0., 0., 0., 0., 0., 0., 0., 0.,
          0., 0., 0., 0., 0., 0., 0., 0., 0., 0., 0., 0., 0., 0., 0., 0.,
          0., 0., 0., 0., 0., 0., 0., 0., 0., 0., 0., 0., 0., 0., 0., 0.,
          0., 0., 0., 0., 0., 0., 0., 0., 0., 0., 0., 0., 0., 0., 0., 0.,
          0., 0., 0., 0., 0., 0., 0., 0., 0., 0., 0., 0., 0., 0., 0., 0.,
          0., 0., 0., 0., 0., 0., 0., 0., 0., 0., 0., 0., 0., 0., 0., 0.,
          0., 0., 0., 0., 0., 0., 0., 0., 0., 0., 0., 0., 0., 0., 0., 0.,
          0., 0., 0., 0., 0., 0., 0., 0., 0., 4.58823532e-01,
          7.13725507e-01 ]
      - [ 0., 0., 0., 0., 6.46642223e-02, 5.28354049e-02, 7.09729316e-03,
          7.09729316e-03, 0., 0., 0., 2.36576423e-03, 1.44311622e-01,
          4.60535467e-01, 2.91777607e-02, 2.36576423e-03, 0., 0., 0.,
          7.88588135e-04, 1.52986094e-01, 5.43337226e-01, 4.96810526e-02,
          6.30870508e-03, 0., 0., 0., 0., 4.88924645e-02, 2.11341619e-01,
          2.36576442e-02, 1.34059982e-02, 0., 0., 0., 0., 1.34059982e-02,
          8.75332803e-02, 2.44462322e-02, 1.02516459e-02, 0., 0., 0., 0.,
          0., 1.89261138e-02, 1.73489377e-02, 3.15435254e-03, 0., 0., 0.,
          0., 0., 0., 0., 0., 0., 0., 0., 0., 0., 0., 0., 0., 0., 0., 0.,
          0., 4.73152846e-03, 3.15435254e-03, 0., 0., 0., 0., 0., 0., 0.,
          0., 0., 0., 0., 0., 0., 0., 0., 0., 0., 0., 0., 0., 0., 0., 0.,
          0., 0., 0., 0., 0., 0., 0., 0., 0., 0., 0., 0., 0., 0., 0., 0.,
          0., 0., 0., 0., 0., 0., 0., 0., 0., 0., 0., 0., 0., 0., 0., 0.,
          0., 0., 0., 0., 0., 0., 0., 4.73152846e-03, 8.67446885e-03,
          1.57717627e-03, 7.09729316e-03, 0., 0., 0., 0., 0., 0., 0., 0.,
          0., 0., 0., 0., 0., 0., 0., 0., 0., 0., 0., 0., 0., 0., 0., 0.,
          0., 0., 0., 0., 0., 0., 0., 0., 0., 0., 0., 0., 0., 0., 0., 0.,
          0., 0., 0., 0., 0., 0., 0., 0., 0., 0., 0., 0., 0., 0., 0., 0.,
          0., 0., 0., 0., 6.15098737e-02, 9.77849290e-02, 7.64930472e-02,
          8.51675197e-02, 0., 0., 0., 7.88588135e-04, 4.02179956e-02,
          3.05183589e-01, 4.41609360e-02, 8.83218721e-02, 0., 0., 0., 0.,
          0., 1.02516459e-02, 1.10402340e-02, 0., 0., 0., 0., 0., 0., 0.,
          0., 0., 0., 0., 0., 0., 0., 0., 0., 0., 0., 0., 0., 0., 0., 0.,
          0., 0., 0., 0., 0., 0., 0., 0., 0., 0., 0., 0., 0., 0., 0., 0.,
          0., 0., 0., 0., 0., 6.30870508e-03, 1.41945854e-01,
          1.16711043e-01, 1.73489377e-02, 4.73152846e-03, 0., 0., 0.,
          9.46305692e-03, 4.02179956e-02, 3.94294038e-02, 7.09729316e-03,
          0., 0., 0., 0., 0., 0., 6.30870508e-03, 0., 0., 0., 0., 0., 0.,
          0., 0., 0., 0., 0., 0., 0., 0., 0., 0., 0., 0., 0., 0., 0., 0.,
          0., 0., 0., 0., 0., 0., 0., 0., 0., 0., 0., 0., 0., 0., 0., 0.,
          0., 0., 0., 0., 0., 0., 0., 2.36576423e-03, 8.51675197e-02,
          1.06459394e-01, 7.88588077e-03, 3.94294038e-03, 0., 0., 0.,
          9.46305692e-03, 1.03305042e-01, 4.21106040e-01, 5.52011700e-03,
          0., 0., 0., 0., 0., 2.52348203e-02, 6.78185746e-02,
          2.36576423e-03, 0., 0., 0., 0., 0., 1.10402340e-02, 0., 0., 0.,
          0., 0., 0., 0., 0., 0., 0., 0., 0., 0., 0., 0., 0., 0., 0., 0.,
          0., 0., 0., 0., 0., 0., 0., 0., 0., 0., 0., 0., 0., 0., 0., 0.,
          0., 0., 0., 0., 0., 0., 0., 0., 0., 0., 0., 0., 0., 0., 0., 0.,
          0., 0., 0., 0., 0., 0., 0., 0., 0., 0., 0., 0., 0., 0., 0., 0.,
          0., 0., 0., 0., 0., 0., 0., 0., 0., 0., 0., 0., 0., 0., 0., 0.,
          0., 0., 0., 0., 0., 0., 0., 0., 0., 0., 0., 0., 0., 0., 0., 0.,
          0., 0., 0., 0., 0., 0., 0., 0., 0., 0., 0., 0., 0., 0., 0., 0.,
          0., 0., 0., 0., 0., 0., 0., 0., 0., 0., 0., 0., 0., 0., 0., 0.,
          0., 0., 0., 0., 0., 0., 0., 0., 0., 0., 0., 0., 0., 0., 0., 0.,
          0., 0., 0., 0., 0., 0., 0., 0., 0., 0., 0., 0., 0., 0., 0., 0.,
          5.01960814e-01, 7.25490212e-01 ]
      - [ 0., 0., 0., 6.30258000e-04, 7.75217339e-02, 9.32781845e-02,
          2.89918669e-02, 1.26051600e-03, 0., 0., 0., 0., 2.36976996e-01,
          6.53577507e-01, 5.60929589e-02, 5.04206400e-03, 0., 0., 0., 0.,
          9.07571465e-02, 6.20804131e-01, 7.43704438e-02, 1.19749019e-02,
          0., 0., 0., 0., 4.34878021e-02, 1.44329071e-01, 6.61770850e-02,
          6.30257977e-03, 0., 0., 0., 0., 1.89077400e-03, 9.70597267e-02,
          5.04206382e-02, 4.41180589e-03, 0., 0., 0., 0., 0.,
          8.19335412e-03, 1.76472235e-02, 0., 0., 0., 0., 0., 0., 0., 0.,
          0., 0., 0., 0., 0., 0., 0., 0., 0., 0., 0., 0., 0.,
          5.04206400e-03, 1.07143857e-02, 1.89077400e-03, 0., 0., 0., 0.,
          0., 0., 6.30258000e-04, 0., 0., 0., 0., 0., 0., 0., 0., 0., 0.,
          0., 0., 0., 0., 0., 0., 0., 0., 0., 0., 0., 0., 0., 0., 0., 0.,
          0., 0., 0., 0., 0., 0., 0., 0., 0., 0., 0., 0., 0., 0., 0., 0.,
          0., 0., 0., 0., 0., 0., 0., 0., 0., 0., 0., 0., 1.38656758e-02,
          1.38656758e-02, 5.67232165e-03, 0., 0., 0., 0., 0., 0.,
          6.30257977e-03, 0., 0., 0., 0., 0., 0., 0., 0., 0., 0., 0., 0.,
          0., 0., 0., 0., 0., 0., 0., 0., 0., 0., 0., 0., 0., 0., 0., 0.,
          0., 0., 0., 0., 0., 0., 0., 0., 0., 0., 0., 0., 0., 0., 0., 0.,
          0., 0., 0., 0., 0., 0., 0., 0., 0., 0., 5.60929589e-02,
          5.98745085e-02, 9.51689556e-02, 1.26051595e-02, 0., 0., 0., 0.,
          3.15128989e-03, 3.02523840e-02, 5.67232165e-03, 3.78154800e-03,
          0., 0., 0., 0., 0., 0., 0., 0., 0., 0., 0., 0., 0., 0., 0., 0.,
          0., 0., 0., 0., 0., 0., 0., 0., 0., 0., 0., 0., 0., 0., 0., 0.,
          0., 0., 0., 0., 0., 0., 0., 0., 0., 0., 0., 0., 0., 0., 0., 0.,
          0., 0., 0., 0., 4.03365120e-02, 5.10508977e-02, 2.33195461e-02,
          2.52103200e-03, 0., 0., 0., 2.52103200e-03, 4.41180589e-03,
          5.67232165e-03, 2.52103200e-03, 0., 0., 0., 0., 0., 0., 0., 0.,
          0., 0., 0., 0., 0., 0., 0., 0., 0., 0., 0., 0., 0., 0., 0., 0.,
          0., 0., 0., 0., 0., 0., 0., 0., 0., 0., 0., 0., 0., 0., 0., 0.,
          0., 0., 0., 0., 0., 0., 0., 0., 0., 0., 0., 0., 0.,
          2.45800614e-02, 6.74376041e-02, 2.45800614e-02, 6.30258000e-04,
          0., 0., 0., 6.30258000e-04, 2.52103191e-02, 1.70799911e-01,
          1.82774812e-02, 0., 0., 0., 0., 6.30258000e-04, 3.15128989e-03,
          2.89918669e-02, 1.89077400e-03, 0., 0., 0., 0., 0.,
          2.52103200e-03, 3.15128989e-03, 1.26051600e-03, 0., 0., 0., 0.,
          0., 0., 0., 0., 0., 0., 0., 0., 0., 0., 0., 0., 0., 0., 0., 0.,
          0., 0., 0., 0., 0., 0., 0., 0., 0., 0., 0., 0., 0., 0., 0., 0.,
          0., 0., 0., 0., 0., 0., 0., 0., 0., 0., 0., 0., 0., 0., 0., 0.,
          0., 0., 0., 0., 0., 0., 0., 0., 0., 0., 0., 0., 0., 0., 0., 0.,
          0., 0., 0., 0., 0., 0., 0., 0., 0., 0., 0., 0., 0., 0., 0., 0.,
          0., 0., 0., 0., 0., 0., 0., 0., 0., 0., 0., 0., 0., 0., 0., 0.,
          0., 0., 0., 0., 0., 0., 0., 0., 0., 0., 0., 0., 0., 0., 0., 0.,
          0., 0., 0., 0., 0., 0., 0., 0., 0., 0., 0., 0., 0., 0., 0., 0.,
          0., 0., 0., 0., 0., 0., 0., 0., 0., 0., 0., 0., 0., 0., 0., 0.,
          0., 0., 0., 0., 0., 0., 0., 0., 0., 0., 0., 0., 0.,
          4.70588237e-01, 6.98039234e-01 ]
      - [ 0., 0., 0., 0., 1.15990192e-02, 6.45195395e-02, 7.39437491e-02,
          8.19180682e-02, 0., 0., 0., 0., 1.81234665e-02, 3.54495019e-01,
          3.85667384e-01, 4.85708937e-02, 0., 0., 0., 0., 5.21955863e-02,
          5.54578125e-01, 3.17523152e-01, 2.53728535e-02, 0., 0., 0., 0.,
          4.78459522e-02, 4.16114807e-01, 1.56586751e-01, 5.58202788e-02,
          0., 0., 0., 0., 7.24938698e-03, 1.68185771e-01, 1.15990192e-01,
          7.46686831e-02, 0., 0., 0., 0., 2.17481609e-03, 8.62677023e-02,
          1.16715126e-01, 3.98716293e-02, 0., 0., 0., 0., 0.,
          2.53728535e-02, 6.88691735e-02, 5.72701581e-02, 0., 0., 0., 0.,
          0., 0., 5.07457089e-03, 1.08740805e-02, 0., 0., 0., 0.,
          4.34963219e-03, 2.75476705e-02, 3.47970575e-02, 6.23447262e-02,
          0., 0., 0., 0., 5.07457089e-03, 1.73985288e-02, 2.39229761e-02,
          1.88484062e-02, 0., 0., 0., 0., 0., 0., 0., 0., 0., 0., 0., 0.,
          0., 0., 0., 0., 0., 0., 0., 0., 0., 0., 0., 0., 0., 0., 0., 0.,
          0., 0., 0., 0., 0., 0., 0., 0., 0., 0., 0., 0., 0., 0., 0., 0.,
          0., 0., 0., 0., 0., 0., 0., 0., 3.62469349e-03, 1.81234665e-02,
          5.50953411e-02, 2.89975479e-02, 0., 0., 0., 0., 0.,
          1.44987740e-03, 0., 0., 0., 0., 0., 0., 0., 0., 0., 0., 0., 0.,
          0., 0., 0., 0., 0., 0., 0., 0., 0., 0., 0., 0., 0., 0., 0., 0.,
          0., 0., 0., 0., 0., 0., 0., 0., 0., 0., 0., 0., 0., 0., 0., 0.,
          0., 0., 0., 0., 0., 0., 0., 0., 0., 0., 1.44987740e-03,
          5.79950958e-03, 1.01491418e-02, 1.81234665e-02, 0., 0., 0., 0.,
          0., 3.62469349e-03, 2.17481609e-03, 0., 0., 0., 0., 0., 0., 0.,
          0., 0., 0., 0., 0., 0., 0., 0., 0., 0., 0., 0., 0., 0., 0., 0.,
          0., 0., 0., 0., 0., 0., 0., 0., 0., 0., 0., 0., 0., 0., 0., 0.,
          0., 0., 0., 0., 0., 0., 0., 0., 0., 0., 0., 0., 0., 0.,
          7.24938698e-04, 3.62469349e-03, 2.17481609e-03, 1.59486514e-02,
          0., 0., 0., 0., 0., 0., 0., 0., 0., 0., 0., 0., 0., 0., 0., 0.,
          0., 0., 0., 0., 0., 0., 0., 0., 0., 0., 0., 0., 0., 0., 0., 0.,
          0., 0., 0., 0., 0., 0., 0., 0., 0., 0., 0., 0., 0., 0., 0., 0.,
          0., 0., 0., 0., 0., 0., 0., 0., 0., 0., 0., 0., 1.44987740e-03,
          7.97432568e-03, 1.44987740e-02, 1.66735891e-02, 0., 0., 0., 0.,
          0., 4.34963219e-03, 9.42420308e-03, 0., 0., 0., 0., 0., 0., 0.,
          0., 0., 0., 0., 0., 0., 0., 0., 0., 0., 0., 0., 0., 0., 0., 0.,
          0., 0., 0., 0., 0., 0., 0., 0., 0., 0., 0., 0., 0., 0., 0., 0.,
          0., 0., 0., 0., 0., 0., 0., 0., 0., 0., 0., 0., 0., 0., 0., 0.,
          0., 0., 0., 0., 0., 0., 0., 0., 0., 0., 0., 0., 0., 0., 0., 0.,
          0., 0., 0., 0., 0., 0., 0., 0., 0., 0., 0., 0., 0., 0., 0., 0.,
          0., 0., 0., 0., 0., 0., 0., 0., 0., 0., 0., 0., 0., 0., 0., 0.,
          0., 0., 0., 0., 0., 0., 0., 0., 0., 0., 0., 0., 0., 0., 0., 0.,
          0., 0., 0., 0., 0., 0., 0., 0., 0., 0., 0., 0., 0., 0., 0., 0.,
          0., 0., 0., 0., 0., 0., 0., 0., 0., 0., 0., 0., 0., 0., 0., 0.,
          0., 0., 0., 0., 0., 0., 0., 0., 0., 0., 0., 0., 0., 0., 0., 0.,
          0., 0., 0., 0., 0., 0., 0., 0., 0., 0., 4.82352942e-01,
          7.96078444e-01 ]
      - [ 0., 0., 0., 4.51436033e-03, 1.48973882e-01, 3.90943587e-01,
          8.48699734e-02, 1.80574413e-03, 0., 0., 0., 0., 1.61614090e-01,
          3.32256913e-01, 8.30642283e-02, 1.08344648e-02, 0., 0., 0., 0.,
          7.67441243e-02, 1.99534714e-01, 3.97263691e-02, 1.35430805e-02,
          0., 0., 0., 0., 3.06976493e-02, 8.12584832e-02, 3.79206240e-02,
          1.80574413e-02, 0., 0., 0., 0., 3.61148827e-03, 7.76469931e-02,
          4.78522182e-02, 3.06976493e-02, 0., 0., 0., 0., 0.,
          2.43775453e-02, 3.88234966e-02, 5.77838123e-02, 0., 0., 0., 0.,
          0., 9.02872067e-04, 1.80574413e-03, 2.88919061e-02, 0., 0., 0.,
          0., 0., 0., 0., 0., 0., 0., 0., 9.02872067e-04, 8.12584832e-02,
          1.39945164e-01, 1.98631845e-02, 0., 0., 0., 0., 0.,
          2.61832885e-02, 9.93159227e-03, 0., 0., 0., 0., 0., 0.,
          3.61148827e-03, 0., 0., 0., 0., 0., 0., 0., 0., 0., 0., 0., 0.,
          0., 0., 0., 0., 0., 0., 0., 0., 0., 0., 0., 0., 0., 0., 0., 0.,
          0., 0., 0., 0., 0., 0., 0., 0., 0., 0., 0., 0., 0., 0., 0., 0.,
          0., 0., 0., 8.30642283e-02, 2.90724784e-01, 1.03830285e-01,
          3.61148827e-03, 0., 0., 0., 0., 2.16689296e-02, 2.61832885e-02,
          0., 0., 0., 0., 0., 0., 0., 0., 0., 0., 0., 0., 0., 0., 0., 0.,
          0., 0., 0., 0., 0., 0., 0., 0., 0., 0., 0., 0., 0., 0., 0., 0.,
          0., 0., 0., 0., 0., 0., 0., 0., 0., 0., 0., 0., 0., 0., 0., 0.,
          0., 0., 0., 0., 0., 0., 8.93843323e-02, 4.72202092e-01,
          1.27304956e-01, 3.61148827e-03, 0., 0., 0., 0., 4.51436033e-03,
          3.19616705e-01, 7.94527382e-02, 0., 0., 0., 0., 0., 0., 0.,
          3.61148827e-03, 0., 0., 0., 0., 0., 0., 0., 0., 0., 0., 0., 0.,
          0., 0., 0., 0., 0., 0., 0., 0., 0., 0., 0., 0., 0., 0., 0., 0.,
          0., 0., 0., 0., 0., 0., 0., 0., 0., 0., 0., 0., 0., 0., 0., 0.,
          0., 1.01121671e-01, 2.33843863e-01, 3.25033925e-02, 0., 0., 0.,
          0., 0., 4.51436033e-03, 6.32010447e-03, 0., 0., 0., 0., 0., 0.,
          0., 0., 0., 0., 0., 0., 0., 0., 0., 0., 0., 0., 0., 0., 0., 0.,
          0., 0., 0., 0., 0., 0., 0., 0., 0., 0., 0., 0., 0., 0., 0., 0.,
          0., 0., 0., 0., 0., 0., 0., 0., 0., 0., 0., 0., 0., 0., 0.,
          9.02872067e-04, 8.93843323e-02, 1.81477278e-01, 5.41723240e-03,
          0., 0., 0., 0., 9.02872067e-04, 4.15321141e-02, 8.03556144e-02,
          9.93159227e-03, 0., 0., 0., 0., 0., 5.41723240e-03,
          1.26402089e-02, 0., 0., 0., 0., 0., 0., 0., 0., 0., 0., 0., 0.,
          0., 0., 0., 0., 0., 0., 0., 0., 0., 0., 0., 0., 0., 0., 0., 0.,
          0., 0., 0., 0., 0., 0., 0., 0., 0., 0., 0., 0., 0., 0., 0., 0.,
          0., 0., 0., 0., 0., 0., 0., 0., 0., 0., 0., 0., 0., 0., 0., 0.,
          0., 0., 0., 0., 0., 0., 0., 0., 0., 0., 0., 0., 0., 0., 0., 0.,
          0., 0., 0., 0., 0., 0., 0., 0., 0., 0., 0., 0., 0., 0., 0., 0.,
          0., 0., 0., 0., 0., 0., 0., 0., 0., 0., 0., 0., 0., 0., 0., 0.,
          0., 0., 0., 0., 0., 0., 0., 0., 0., 0., 0., 0., 0., 0., 0., 0.,
          0., 0., 0., 0., 0., 0., 0., 0., 0., 0., 0., 0., 0., 0., 0., 0.,
          0., 0., 0., 0., 0., 0., 0., 0., 0., 0., 0., 0., 0., 0., 0., 0.,
          0., 0., 0., 0., 0., 0., 0., 0., 0., 0., 0., 0., 0., 0.,
          4.62745100e-01, 7.72549033e-01 ]
      - [ 0., 0., 0., 1.30580505e-02, 1.01199888e-01, 6.85547665e-02, 0.,
          1.63225625e-02, 0., 0., 0., 6.52902527e-03, 1.22963309e-01,
          1.62137464e-01, 7.07311034e-02, 9.90235507e-02, 0., 0., 0., 0.,
          1.47991240e-01, 1.86077222e-01, 1.36021361e-01, 1.27315998e-01,
          0., 0., 0., 0., 1.07728913e-01, 1.76283687e-01, 4.57031764e-02,
          5.98493963e-02, 0., 0., 0., 1.08817092e-03, 2.28515882e-02,
          1.62137464e-01, 5.33203706e-02, 5.76730557e-02, 0., 0., 0., 0.,
          1.74107347e-02, 8.92300084e-02, 2.72042714e-02, 3.91741507e-02,
          0., 0., 0., 0., 0., 5.00558615e-02, 1.08817089e-02,
          7.61719607e-03, 0., 0., 0., 0., 0., 0., 1.08817092e-03, 0., 0.,
          0., 0., 0., 1.63225625e-02, 1.19698793e-02, 2.17634183e-03,
          1.95870753e-02, 0., 0., 0., 0., 0., 0., 0., 4.35268367e-03, 0.,
          0., 0., 0., 0., 0., 0., 0., 0., 0., 0., 0., 0., 0., 0., 0., 0.,
          0., 0., 0., 0., 0., 0., 0., 0., 0., 0., 0., 0., 0., 0., 0., 0.,
          0., 0., 0., 0., 0., 0., 0., 0., 0., 0., 0., 0., 0., 0., 0., 0.,
          0., 0., 2.17634183e-03, 3.48214693e-02, 5.44085428e-02, 0., 0.,
          0., 0., 0., 0., 1.30580505e-02, 5.44085447e-03, 0., 0., 0., 0.,
          0., 0., 0., 0., 0., 0., 0., 0., 0., 0., 0., 0., 0., 0., 0., 0.,
          0., 0., 0., 0., 0., 0., 0., 0., 0., 0., 0., 0., 0., 0., 0., 0.,
          0., 0., 0., 0., 0., 0., 0., 0., 0., 0., 0., 0., 0., 0., 0., 0.,
          0., 4.35268367e-03, 1.16434284e-01, 2.20898688e-01,
          4.24386635e-02, 6.52902527e-03, 0., 0., 0., 2.17634183e-03,
          1.68666482e-01, 5.16881168e-01, 4.57031764e-02, 0., 0., 0., 0.,
          0., 8.59654993e-02, 2.65513688e-01, 1.52343921e-02, 0., 0., 0.,
          0., 0., 1.19698793e-02, 6.31139129e-02, 0., 0., 0., 0., 0., 0.,
          0., 0., 0., 0., 0., 0., 0., 0., 0., 0., 0., 0., 0., 0., 0., 0.,
          0., 0., 0., 0., 0., 0., 0., 0., 0., 0., 0., 0., 0., 0., 0.,
          8.70536733e-03, 2.25251362e-01, 1.63225636e-01, 1.74107347e-02,
          8.70536733e-03, 0., 0., 0., 0., 1.42550379e-01, 9.46708620e-02,
          1.30580505e-02, 0., 0., 0., 0., 0., 0., 4.35268367e-03, 0., 0.,
          0., 0., 0., 0., 0., 0., 0., 0., 0., 0., 0., 0., 0., 0., 0., 0.,
          0., 0., 0., 0., 0., 0., 0., 0., 0., 0., 0., 0., 0., 0., 0., 0.,
          0., 0., 0., 0., 0., 0., 0., 0., 0., 0., 0., 1.08817089e-02,
          1.51255757e-01, 1.36021361e-01, 4.35268367e-03, 1.19698793e-02,
          0., 0., 0., 7.61719607e-03, 2.27427706e-01, 2.74219066e-01,
          3.59096378e-02, 1.84989050e-02, 0., 0., 0., 4.35268367e-03,
          1.03376232e-01, 5.00558615e-02, 6.52902527e-03, 3.26451263e-03,
          0., 0., 0., 0., 3.91741507e-02, 2.72042714e-02, 0., 0., 0., 0.,
          0., 0., 3.26451263e-03, 8.70536733e-03, 0., 0., 0., 0., 0., 0.,
          0., 0., 0., 0., 0., 0., 0., 0., 0., 0., 0., 0., 0., 0., 0., 0.,
          0., 0., 0., 0., 0., 0., 0., 0., 0., 0., 0., 0., 0., 0., 0., 0.,
          0., 0., 0., 0., 0., 0., 0., 0., 0., 0., 0., 0., 0., 0., 0., 0.,
          0., 0., 0., 0., 0., 0., 0., 0., 0., 0., 0., 0., 0., 0., 0., 0.,
          0., 0., 0., 0., 0., 0., 0., 0., 0., 0., 0., 0., 0., 0., 0., 0.,
          0., 0., 0., 0., 0., 0., 0., 0., 0., 0., 0., 0., 0., 0., 0., 0.,
          0., 0., 0., 0., 0., 0., 0., 0., 0., 0., 0., 0., 0., 0., 0., 0.,
          0., 0., 0., 0., 0., 0., 0., 0., 0., 0., 0., 0., 0., 0., 0., 0.,
          0., 0., 0., 0., 0., 0., 0., 0., 0., 0., 0., 0., 0., 0., 0., 0.,
          0., 0., 0., 0., 3.72549027e-01, 6.94117665e-01 ]
      - [ 0., 0., 0., 0., 6.77327043e-04, 3.04797180e-02, 1.62558500e-02,
          1.55785223e-02, 0., 0., 0., 0., 9.48257931e-03, 1.50366604e-01,
          7.31513202e-02, 8.80525168e-03, 0., 0., 0., 0., 2.70930827e-02,
          5.24928510e-01, 4.80902225e-01, 1.96424853e-02, 0., 0., 0., 0.,
          1.49011957e-02, 5.20864546e-01, 2.58738935e-01, 3.31890248e-02,
          0., 0., 0., 0., 5.41861635e-03, 2.22163275e-01, 1.38174728e-01,
          3.38663533e-02, 0., 0., 0., 0., 0., 8.39885548e-02,
          5.68954758e-02, 2.16744654e-02, 0., 0., 0., 0., 0., 0.,
          2.70930817e-03, 0., 0., 0., 0., 0., 0., 0., 0., 0., 0., 0., 0.,
          0., 0., 8.12792499e-03, 1.21918870e-02, 0., 0., 0., 0., 0., 0.,
          0., 0., 0., 0., 0., 0., 0., 0., 0., 0., 0., 0., 0., 0., 0., 0.,
          0., 0., 0., 0., 0., 0., 0., 0., 0., 0., 0., 0., 0., 0., 0., 0.,
          0., 0., 0., 0., 0., 0., 0., 0., 0., 0., 0., 0., 0., 0., 0., 0.,
          0., 0., 0., 0., 0., 0., 0., 0., 0., 2.37064473e-02,
          7.45059783e-03, 0., 0., 0., 0., 0., 6.77327043e-04,
          4.74128965e-03, 6.77327043e-04, 0., 0., 0., 0., 0., 0., 0., 0.,
          0., 0., 0., 0., 0., 0., 0., 0., 0., 0., 0., 0., 0., 0., 0., 0.,
          0., 0., 0., 0., 0., 0., 0., 0., 0., 0., 0., 0., 0., 0., 0., 0.,
          0., 0., 0., 0., 0., 0., 0., 0., 0., 0., 0., 0., 1.35465409e-03,
          8.12792499e-03, 2.50611007e-02, 2.91250646e-02, 0., 0., 0., 0.,
          6.77327043e-04, 1.35465409e-03, 1.49011957e-02, 6.97646886e-02,
          0., 0., 0., 0., 0., 0., 0., 0., 0., 0., 0., 0., 0., 0., 0., 0.,
          0., 0., 0., 0., 0., 0., 0., 0., 0., 0., 0., 0., 0., 0., 0., 0.,
          0., 0., 0., 0., 0., 0., 0., 0., 0., 0., 0., 0., 0., 0., 0., 0.,
          0., 0., 0., 0., 6.77327043e-04, 1.49011957e-02, 2.50611007e-02,
          7.45059783e-03, 0., 0., 0., 0., 2.70930817e-03, 8.12792499e-03,
          5.41861635e-03, 1.35465409e-03, 0., 0., 0., 0., 0.,
          1.08372327e-02, 1.28692146e-02, 0., 0., 0., 0., 0., 0.,
          2.70930817e-03, 6.77327043e-04, 1.28692146e-02, 0., 0., 0., 0.,
          0., 0., 0., 3.38663533e-03, 0., 0., 0., 0., 0., 0., 0., 0., 0.,
          0., 0., 0., 0., 0., 0., 0., 0., 0., 0., 0., 0., 0., 0., 0., 0.,
          0., 0., 0., 2.03198125e-03, 4.67355661e-02, 1.15145603e-02,
          6.77327067e-03, 0., 0., 0., 0., 1.42238690e-02, 1.12436295e-01,
          4.87675481e-02, 7.45059783e-03, 0., 0., 0., 0., 3.52210067e-02,
          1.16500258e-01, 3.25116999e-02, 6.77327043e-04, 0., 0., 0., 0.,
          6.77327043e-04, 6.77327067e-03, 0., 0., 0., 0., 0., 0., 0.,
          2.03198125e-03, 0., 0., 0., 0., 0., 0., 0., 0., 0., 0., 0., 0.,
          0., 0., 0., 0., 0., 0., 0., 0., 0., 0., 0., 0., 0., 0., 0., 0.,
          0., 0., 0., 0., 0., 0., 0., 0., 0., 0., 0., 0., 0., 0., 0., 0.,
          0., 0., 0., 0., 0., 0., 0., 0., 0., 0., 0., 0., 0., 0., 0., 0.,
          0., 0., 0., 0., 0., 0., 0., 0., 0., 0., 0., 0., 0., 0., 0., 0.,
          0., 0., 0., 0., 0., 0., 0., 0., 0., 0., 0., 0., 0., 0., 0., 0.,
          0., 0., 0., 0., 0., 0., 0., 0., 0., 0., 0., 0., 0., 0., 0., 0.,
          0., 0., 0., 0., 0., 0., 0., 0., 0., 0., 0., 0., 0., 0., 0., 0.,
          0., 0., 0., 0., 0., 0., 0., 0., 0., 0., 0., 0., 0., 0., 0., 0.,
          0., 0., 0., 0., 0., 0., 0., 0., 0., 0., 0., 0., 0., 0.,
          4.62745100e-01, 7.52941191e-01 ]
      - [ 0., 0., 0., 4.62772138e-03, 1.07363142e-01, 4.07239497e-02,
          3.05429623e-02, 8.32989905e-03, 0., 0., 0., 1.48087088e-02,
          2.45269239e-01, 1.61044702e-01, 3.33195962e-02, 9.25544300e-04,
          0., 0., 0., 1.38831642e-02, 2.71184474e-01, 4.34080273e-01,
          4.99793924e-02, 7.40435440e-03, 0., 0., 0., 2.77663278e-03,
          1.28650650e-01, 3.44302475e-01, 3.42451409e-02, 1.11065311e-02,
          0., 0., 0., 9.25544300e-04, 7.95968100e-02, 1.49938181e-01,
          2.49896962e-02, 3.70217720e-03, 0., 0., 0., 9.25544300e-04,
          3.51706818e-02, 7.86712691e-02, 3.88728604e-02, 1.85108860e-03,
          0., 0., 0., 0., 1.38831642e-02, 6.29370138e-02, 1.38831642e-02,
          0., 0., 0., 0., 0., 0., 9.25544300e-04, 2.77663278e-03, 0., 0.,
          0., 0., 0., 1.01809874e-02, 6.47881022e-03, 3.70217720e-03,
          9.25544300e-04, 0., 0., 0., 0., 0., 0., 0., 0., 0., 0., 0., 0.,
          0., 0., 0., 0., 0., 0., 0., 0., 0., 0., 0., 0., 0., 0., 0., 0.,
          0., 0., 0., 0., 0., 0., 0., 0., 0., 0., 0., 0., 0., 0., 0., 0.,
          0., 0., 0., 0., 0., 0., 0., 0., 0., 0., 0., 0., 0., 0., 0., 0.,
          1.66597981e-02, 2.77663278e-03, 1.94364302e-02, 9.25544300e-04,
          0., 0., 0., 0., 0., 0., 9.25544300e-04, 0., 0., 0., 0., 0., 0.,
          0., 0., 0., 0., 0., 0., 0., 0., 0., 0., 0., 0., 0., 0., 0., 0.,
          0., 0., 0., 0., 0., 0., 0., 0., 0., 0., 0., 0., 0., 0., 0., 0.,
          0., 0., 0., 0., 0., 0., 0., 0., 0., 0., 0., 0., 0., 0., 0.,
          1.35129467e-01, 2.40641516e-02, 1.12916403e-01, 5.55326557e-03,
          0., 0., 0., 0., 6.20114692e-02, 7.95968100e-02, 7.03413635e-02,
          3.33195962e-02, 0., 0., 0., 0., 0., 1.85108860e-03, 0., 0., 0.,
          0., 0., 0., 0., 0., 0., 0., 0., 0., 0., 0., 0., 0., 0., 0., 0.,
          0., 0., 0., 0., 0., 0., 0., 0., 0., 0., 0., 0., 0., 0., 0., 0.,
          0., 0., 0., 0., 0., 0., 0., 0., 0., 0., 8.32989905e-03,
          2.51748055e-01, 5.46071120e-02, 2.59152409e-02, 1.29576204e-02,
          0., 0., 0., 9.25544277e-03, 8.97777975e-02, 3.79473157e-02,
          4.62772138e-03, 2.77663278e-03, 0., 0., 0., 9.25544300e-04,
          1.85108860e-03, 0., 0., 0., 0., 0., 0., 0., 0., 0., 0., 0., 0.,
          0., 0., 0., 0., 0., 0., 0., 0., 0., 0., 0., 0., 0., 0., 0., 0.,
          0., 0., 0., 0., 0., 0., 0., 0., 0., 0., 0., 0., 0., 0., 0., 0.,
          0., 0., 3.70217720e-03, 1.60119161e-01, 4.62772138e-02,
          1.29576204e-02, 6.47881022e-03, 0., 0., 0., 1.20320758e-02,
          4.33154732e-01, 2.00843111e-01, 7.40435440e-03, 7.40435440e-03,
          0., 0., 0., 7.40435440e-03, 2.36939341e-01, 1.16618581e-01, 0.,
          1.85108860e-03, 0., 0., 0., 1.85108860e-03, 5.18304817e-02,
          1.48087088e-02, 0., 0., 0., 0., 0., 0., 0., 1.85108860e-03, 0.,
          0., 0., 0., 0., 0., 0., 0., 0., 0., 0., 0., 0., 0., 0., 0., 0.,
          0., 0., 0., 0., 0., 0., 0., 0., 0., 0., 0., 0., 0., 0., 0., 0.,
          0., 0., 0., 0., 0., 0., 0., 0., 0., 0., 0., 0., 0., 0., 0., 0.,
          0., 0., 0., 0., 0., 0., 0., 0., 0., 0., 0., 0., 0., 0., 0., 0.,
          0., 0., 0., 0., 0., 0., 0., 0., 0., 0., 0., 0., 0., 0., 0., 0.,
          0., 0., 0., 0., 0., 0., 0., 0., 0., 0., 0., 0., 0., 0., 0., 0.,
          0., 0., 0., 0., 0., 0., 0., 0., 0., 0., 0., 0., 0., 0., 0., 0.,
          0., 0., 0., 0., 0., 0., 0., 0., 0., 0., 0., 0., 0., 0., 0., 0.,
          0., 0., 0., 0., 0., 0., 0., 0., 0., 0., 0., 0., 0., 0., 0., 0.,
          0., 0., 0., 0., 0., 0., 0., 0., 0., 4.19607848e-01,
          6.94117665e-01 ]
      - [ 0., 0., 0., 0., 0., 5.01393480e-03, 1.01950005e-01,
          1.11420769e-02, 0., 0., 0., 0., 2.78551923e-03, 1.70473784e-01,
          2.60167509e-01, 1.44847007e-02, 0., 0., 0., 0., 1.67131163e-02,
          5.62674880e-01, 6.14485562e-01, 1.50418039e-02, 0., 0., 0., 0.,
          3.84401679e-02, 2.53482252e-01, 3.09749752e-01, 3.34262326e-02,
          0., 0., 0., 0., 7.79945403e-03, 1.20334432e-01, 1.16434708e-01,
          2.78551932e-02, 0., 0., 0., 0., 0., 3.84401679e-02,
          3.73259597e-02, 2.22841538e-02, 0., 0., 0., 0., 0., 0.,
          5.01393480e-03, 0., 0., 0., 0., 0., 0., 0., 0., 0., 0., 0., 0.,
          0., 0., 0., 2.28412580e-02, 0., 0., 0., 0., 0., 0., 0., 0., 0.,
          0., 0., 0., 0., 0., 0., 0., 0., 0., 0., 0., 0., 0., 0., 0., 0.,
          0., 0., 0., 0., 0., 0., 0., 0., 0., 0., 0., 0., 0., 0., 0., 0.,
          0., 0., 0., 0., 0., 0., 0., 0., 0., 0., 0., 0., 0., 0., 0., 0.,
          0., 0., 0., 0., 0., 0., 1.05849737e-02, 0., 0., 0., 0., 0., 0.,
          0., 0., 0., 0., 0., 0., 0., 0., 0., 0., 0., 0., 0., 0., 0., 0.,
          0., 0., 0., 0., 0., 0., 0., 0., 0., 0., 0., 0., 0., 0., 0., 0.,
          0., 0., 0., 0., 0., 0., 0., 0., 0., 0., 0., 0., 0., 0., 0., 0.,
          0., 0., 0., 0., 0., 0., 0., 0., 1.67131156e-03, 2.78551923e-03,
          1.11420767e-03, 0., 0., 0., 0., 0., 0., 0., 0., 0., 0., 0., 0.,
          0., 0., 0., 0., 0., 0., 0., 0., 0., 0., 0., 0., 0., 0., 0., 0.,
          0., 0., 0., 0., 0., 0., 0., 0., 0., 0., 0., 0., 0., 0., 0., 0.,
          0., 0., 0., 0., 0., 0., 0., 0., 0., 0., 0., 0., 0., 0., 0., 0.,
          1.11420767e-03, 0., 7.79945403e-03, 5.57103835e-04, 0., 0., 0.,
          0., 0., 5.57103835e-04, 0., 0., 0., 0., 0., 0., 0., 0., 0., 0.,
          0., 0., 0., 0., 0., 0., 0., 0., 0., 0., 0., 0., 0., 0., 0., 0.,
          0., 0., 0., 0., 0., 0., 0., 0., 0., 0., 0., 0., 0., 0., 0., 0.,
          0., 0., 0., 0., 0., 0., 0., 0., 0., 0., 0., 0., 0.,
          7.24235037e-03, 2.11699475e-02, 1.67131156e-03, 0., 0., 0., 0.,
          0., 2.39554662e-02, 2.95265038e-02, 0., 0., 0., 0., 0., 0.,
          1.67131156e-03, 8.35655816e-03, 0., 0., 0., 0., 0., 0., 0., 0.,
          0., 0., 0., 0., 0., 0., 0., 0., 0., 0., 0., 0., 0., 0., 0., 0.,
          0., 0., 0., 0., 0., 0., 0., 0., 0., 0., 0., 0., 0., 0., 0., 0.,
          0., 0., 0., 0., 0., 0., 0., 0., 0., 0., 0., 0., 0., 0., 0., 0.,
          0., 0., 0., 0., 0., 0., 0., 0., 0., 0., 0., 0., 0., 0., 0., 0.,
          0., 0., 0., 0., 0., 0., 0., 0., 0., 0., 0., 0., 0., 0., 0., 0.,
          0., 0., 0., 0., 0., 0., 0., 0., 0., 0., 0., 0., 0., 0., 0., 0.,
          0., 0., 0., 0., 0., 0., 0., 0., 0., 0., 0., 0., 0., 0., 0., 0.,
          0., 0., 0., 0., 0., 0., 0., 0., 0., 0., 0., 0., 0., 0., 0., 0.,
          0., 0., 0., 0., 0., 0., 0., 0., 0., 0., 0., 0., 0., 0., 0., 0.,
          0., 0., 0., 0., 0., 0., 0., 0., 0., 0., 0., 0., 0., 0., 0., 0.,
          0., 4.86274511e-01, 7.64705896e-01 ]
      - [ 0., 0., 0., 1.54278297e-02, 6.35112286e-01, 4.62834872e-02,
          1.11423209e-02, 2.91414559e-02, 0., 0., 0., 6.85681310e-03,
          3.41983557e-01, 9.77095887e-02, 9.42811836e-03, 5.99971134e-03,
          0., 0., 0., 5.99971134e-03, 1.69706121e-01, 9.08527747e-02,
          3.42840664e-02, 1.71420327e-03, 0., 0., 0., 8.57101637e-04,
          1.23422638e-01, 5.82829118e-02, 3.42840664e-02, 7.71391485e-03,
          0., 0., 0., 8.57101637e-04, 6.42826259e-02, 5.91400117e-02,
          2.05704384e-02, 3.42840655e-03, 0., 0., 0., 0., 6.85681310e-03,
          1.62849315e-02, 8.57101660e-03, 0., 0., 0., 0., 0., 0., 0., 0.,
          0., 0., 0., 0., 0., 0., 0., 0., 0., 0., 0., 0., 8.57101637e-04,
          1.83419749e-01, 2.14275401e-02, 7.71391485e-03, 2.05704384e-02,
          0., 0., 0., 0., 8.57101660e-03, 0., 0., 0., 0., 0., 0., 0., 0.,
          0., 0., 0., 0., 0., 0., 0., 0., 0., 0., 0., 0., 0., 0., 0., 0.,
          0., 0., 0., 0., 0., 0., 0., 0., 0., 0., 0., 0., 0., 0., 0., 0.,
          0., 0., 0., 0., 0., 0., 0., 0., 0., 0., 0., 0., 0., 0., 0.,
          2.17703819e-01, 1.62849307e-01, 3.51411663e-02, 1.28565244e-02,
          0., 0., 0., 0., 8.57101637e-04, 7.71391485e-03, 1.71420332e-02,
          0., 0., 0., 0., 0., 0., 0., 0., 0., 0., 0., 0., 0., 0., 0., 0.,
          0., 0., 0., 0., 0., 0., 0., 0., 0., 0., 0., 0., 0., 0., 0., 0.,
          0., 0., 0., 0., 0., 0., 0., 0., 0., 0., 0., 0., 0., 0., 0., 0.,
          0., 0., 0., 0., 3.42840655e-03, 2.87129045e-01, 1.85133949e-01,
          6.77110255e-02, 5.14260959e-03, 0., 0., 0., 0., 2.31417436e-02,
          7.54249468e-02, 6.42826259e-02, 8.57101604e-02, 0., 0., 0., 0.,
          0., 0., 3.42840655e-03, 0., 0., 0., 0., 0., 0., 0.,
          6.85681310e-03, 3.42840655e-03, 0., 0., 0., 0., 0., 0., 0., 0.,
          0., 0., 0., 0., 0., 0., 0., 0., 0., 0., 0., 0., 0., 0., 0., 0.,
