%YAML:1.0
---
opencv_ml_svm:
   format: 3
   svmType: C_SVC
   kernel:
      type: RBF
      gamma: 5.
   C: 5.
   term_criteria: { epsilon:1.1920928955078125e-07, iterations:1000 }
   var_count: 512
   class_count: 2
   class_labels: !!opencv-matrix
      rows: 2
      cols: 1
      dt: i
      data: [ 0, 1 ]
   sv_total: 220
   support_vectors:
      - [ 0., 0., 0., 6.41006918e-04, 2.43582632e-02, 7.69208325e-03,
          4.48704837e-03, 3.20503465e-03, 0., 0., 0., 7.69208325e-03,
          8.71769413e-02, 6.85877427e-02, 1.34611456e-02, 1.28201384e-03,
          0., 6.41006918e-04, 3.20503465e-03, 2.37172563e-02,
          1.69225827e-01, 3.50630790e-01, 1.08971177e-02, 0., 0., 0.,
          1.02561107e-02, 1.66661795e-02, 1.30124405e-01, 1.09612182e-01,
          1.08971177e-02, 0., 0., 0., 6.41006918e-04, 1.28201384e-03,
          2.94863191e-02, 1.41021525e-02, 1.21791316e-02, 0., 0., 0., 0.,
          0., 1.92302081e-03, 1.92302081e-03, 0., 0., 0., 0., 0., 0., 0.,
          0., 0., 0., 0., 0., 0., 0., 0., 0., 0., 0., 0., 0.,
          6.41006918e-04, 0., 0., 0., 0., 1.28201384e-03, 0., 0., 0., 0.,
          0., 0., 0., 0., 0., 0., 0., 0., 0., 0., 0., 0., 0., 0., 0., 0.,
          0., 0., 0., 0., 0., 0., 0., 0., 0., 0., 0., 0., 0., 0., 0., 0.,
          0., 0., 0., 0., 0., 0., 0., 0., 0., 0., 0., 0., 0., 0., 0., 0.,
          0., 0., 0., 0., 0., 0., 0., 0., 0., 0., 0., 0., 0., 0., 0., 0.,
          6.41006918e-04, 0., 0., 0., 0., 0., 0., 0., 0., 0., 0., 0., 0.,
          0., 0., 0., 0., 0., 0., 0., 0., 0., 0., 0., 0., 0., 0., 0., 0.,
          0., 0., 0., 0., 0., 0., 0., 0., 0., 0., 0., 0., 0., 0., 0., 0.,
          0., 0., 0., 0., 0., 0., 0., 0., 0., 0., 0., 0., 0.,
          6.41006918e-04, 4.48704837e-03, 0., 0., 0., 0., 6.41006918e-04,
          0., 0., 0., 0., 0., 0., 0., 0., 0., 0., 0., 0., 0., 0., 0., 0.,
          0., 0., 0., 0., 0., 0., 0., 0., 0., 0., 0., 0., 0., 0., 0., 0.,
          0., 0., 0., 0., 0., 0., 0., 0., 0., 0., 0., 0., 0., 0., 0., 0.,
          0., 0., 0., 0., 0., 0., 0., 2.49992702e-02, 7.05107627e-03,
          8.33308976e-03, 1.92302081e-03, 0., 0., 0., 7.69208325e-03,
          1.30765408e-01, 4.23064567e-02, 0., 0., 0., 0., 0., 0., 0., 0.,
          0., 0., 0., 0., 0., 0., 0., 0., 0., 0., 0., 0., 0., 0., 0., 0.,
          0., 0., 0., 0., 0., 0., 0., 0., 0., 0., 0., 0., 0., 0., 0., 0.,
          0., 0., 0., 0., 0., 0., 0., 0., 0., 0., 0., 0., 0., 0.,
          6.15366660e-02, 3.33323590e-02, 1.21791316e-02, 0., 0., 0., 0.,
          1.92302074e-02, 7.13440716e-01, 3.21144462e-01, 3.20503465e-03,
          0., 0., 0., 1.92302081e-03, 1.98712144e-02, 2.91658163e-01,
          2.83325076e-01, 0., 0., 0., 0., 6.41006918e-04, 0.,
          2.82043051e-02, 3.84604163e-03, 0., 0., 0., 0., 0., 0., 0., 0.,
          0., 0., 0., 0., 0., 0., 0., 0., 0., 0., 0., 0., 0., 0., 0., 0.,
          0., 0., 0., 0., 0., 0., 0., 0., 0., 0., 0., 0., 0., 0., 0., 0.,
          0., 0., 0., 0., 0., 0., 0., 0., 0., 0., 0., 0., 0., 0., 0., 0.,
          0., 0., 0., 0., 0., 0., 0., 0., 0., 0., 0., 0., 0., 0., 0., 0.,
          0., 0., 0., 0., 0., 0., 0., 0., 0., 0., 0., 0., 0., 0., 0., 0.,
          0., 0., 0., 0., 0., 0., 0., 0., 0., 0., 0., 0., 0., 0., 0., 0.,
          0., 0., 0., 0., 0., 0., 0., 0., 0., 0., 0., 0., 0., 0., 0., 0.,
          0., 0., 0., 0., 0., 0., 0., 0., 0., 0., 0., 0., 0., 0., 0., 0.,
          0., 0., 0., 0., 0., 0., 0., 0., 0., 0., 0., 0., 0., 0., 0., 0.,
          0., 0., 0., 0., 0., 0., 0., 0., 0., 0. ]
      - [ 0., 4.45922324e-03, 2.97281542e-03, 2.00665034e-02,
          5.94563074e-02, 4.31058221e-02, 0., 5.20242704e-03, 0.,
          5.94563084e-03, 7.43203855e-04, 6.01995103e-02, 1.96205810e-01,
          2.74985414e-02, 5.94563084e-03, 1.48640771e-03, 0.,
          3.71601922e-03, 0., 2.97281537e-02, 1.39722317e-01,
          3.86466011e-02, 5.20242704e-03, 0., 0., 0., 7.43203855e-04,
          9.66165029e-03, 4.90514524e-02, 1.33776693e-02, 8.91844649e-03,
          0., 0., 0., 0., 1.48640771e-03, 1.41208731e-02, 8.17524269e-03,
          1.04048541e-02, 0., 0., 0., 0., 0., 0., 1.48640769e-02,
          5.20242704e-03, 0., 0., 0., 0., 0., 0., 2.97281542e-03, 0., 0.,
          0., 0., 0., 0., 0., 0., 0., 0., 0., 0., 0., 5.94563084e-03,
          9.66165029e-03, 2.08097082e-02, 0., 0., 0., 2.22961162e-03,
          7.43203855e-04, 0., 0., 4.45922324e-03, 0., 0., 0., 0., 0., 0.,
          0., 0., 0., 0., 0., 0., 0., 0., 0., 0., 0., 0., 0., 0., 0., 0.,
          0., 0., 0., 0., 0., 0., 0., 0., 0., 0., 0., 0., 0., 0., 0., 0.,
          0., 0., 0., 0., 0., 0., 0., 0., 0., 0., 0., 0., 0., 0., 0.,
          8.91844649e-03, 4.23626192e-02, 2.89849490e-02, 0., 0., 0., 0.,
          0., 0., 4.45922324e-03, 8.17524269e-03, 0., 0., 0., 0., 0., 0.,
          0., 0., 0., 0., 0., 0., 0., 0., 0., 0., 0., 0., 0., 0., 0., 0.,
          0., 0., 0., 0., 0., 0., 0., 0., 0., 0., 0., 0., 0., 0., 0., 0.,
          0., 0., 0., 0., 0., 0., 0., 0., 0., 0., 0., 0., 0., 0., 0.,
          1.56072807e-02, 2.93565512e-01, 2.97281537e-02, 1.04048541e-02,
          0., 0., 0., 0., 7.43203855e-04, 1.99921831e-01, 7.28339776e-02,
          3.71601922e-03, 0., 0., 0., 0., 0., 0., 4.45922324e-03, 0., 0.,
          0., 0., 0., 0., 0., 0., 0., 0., 0., 0., 0., 0., 0., 0., 0., 0.,
          0., 0., 0., 0., 0., 0., 0., 0., 0., 0., 0., 0., 0., 0., 0., 0.,
          0., 0., 0., 0., 0., 0., 0., 0., 0., 7.43203855e-04,
          7.43203855e-04, 4.31058221e-02, 3.85722786e-01, 2.89849490e-02,
          0., 0., 0., 0., 0., 4.75650467e-02, 2.47486874e-01,
          7.43203834e-02, 0., 0., 0., 0., 0., 1.48640771e-03,
          1.04048541e-02, 2.97281542e-03, 0., 0., 0., 0., 0., 0., 0., 0.,
          0., 0., 0., 0., 0., 0., 0., 0., 0., 0., 0., 0., 0., 0., 0., 0.,
          0., 0., 0., 0., 0., 0., 0., 0., 0., 0., 0., 0., 0., 0., 0., 0.,
          0., 0., 0., 7.43203855e-04, 0., 2.15529110e-02, 1.88030571e-01,
          1.56072807e-02, 0., 0., 0., 0., 0., 9.81029049e-02,
          7.01584399e-01, 6.68883463e-03, 0., 0., 0., 0., 0.,
          2.37825233e-02, 1.74652904e-01, 7.43203855e-04, 0., 0., 0., 0.,
          0., 0., 9.66165029e-03, 0., 0., 0., 0., 0., 0., 0., 0., 0., 0.,
          0., 0., 0., 0., 0., 0., 0., 0., 0., 0., 0., 0., 0., 0., 0., 0.,
          0., 0., 0., 0., 0., 0., 0., 0., 0., 0., 0., 0., 0., 0., 0., 0.,
          0., 0., 0., 0., 0., 0., 0., 0., 0., 0., 0., 0., 0., 0., 0., 0.,
          0., 0., 0., 0., 0., 0., 0., 0., 0., 0., 0., 0., 0., 0., 0., 0.,
          0., 0., 0., 0., 0., 0., 0., 0., 0., 0., 0., 0., 0., 0., 0., 0.,
          0., 0., 0., 0., 0., 0., 0., 0., 0., 0., 0., 0., 0., 0., 0., 0.,
          0., 0., 0., 0., 0., 0., 0., 0., 0., 0., 0., 0., 0., 0., 0., 0.,
          0., 0., 0., 0., 0., 0., 0., 0., 0., 0., 0., 0., 0., 0., 0., 0.,
          0., 0., 0., 0., 0., 0., 0., 0., 0., 0., 0., 0., 0., 0., 0., 0.,
          0., 0., 0., 0., 0., 0., 0., 0., 0. ]
      - [ 0., 0., 0., 0., 7.45383324e-03, 4.24868502e-02, 2.45976504e-02,
          4.24868502e-02, 0., 0., 0., 0., 1.56530496e-02, 1.36405155e-01,
          1.75910473e-01, 1.63984336e-02, 0., 0., 0., 0., 2.98153330e-02,
          3.42876345e-01, 5.24004519e-01, 4.47230004e-02, 0., 0., 0., 0.,
          2.75791846e-02, 2.45231122e-01, 5.33694446e-01, 1.16279803e-01,
          0., 0., 0., 7.45383324e-04, 1.19261332e-02, 8.79552364e-02,
          3.14551771e-01, 9.16821510e-02, 0., 0., 0., 7.45383324e-04,
          7.45383324e-03, 2.68338006e-02, 2.44485736e-01, 5.14314510e-02,
          0., 0., 0., 2.98153330e-03, 3.72691662e-03, 2.23614997e-03,
          5.73945194e-02, 2.45976504e-02, 0., 0., 7.45383324e-04, 0., 0.,
          0., 2.98153330e-03, 2.98153330e-03, 0., 0., 0., 0.,
          2.98153330e-03, 5.21768350e-03, 2.98153330e-03, 1.04353670e-02,
          0., 0., 0., 0., 2.23614997e-03, 2.98153330e-03, 5.21768350e-03,
          2.23614997e-03, 0., 0., 0., 0., 0., 0., 1.49076665e-03, 0., 0.,
          0., 0., 0., 0., 0., 0., 0., 0., 0., 0., 0., 0., 0., 0., 0., 0.,
          0., 0., 0., 0., 0., 0., 0., 0., 0., 0., 0., 0., 0., 0., 0., 0.,
          0., 0., 0., 0., 0., 0., 0., 0., 0., 0., 0., 7.45383324e-04,
          8.19921680e-03, 0., 2.31068842e-02, 0., 0., 0., 0., 0.,
          5.96306659e-03, 1.49076665e-03, 1.49076665e-03, 0., 0., 0., 0.,
          0., 0., 0., 0., 0., 0., 0., 0., 0., 0., 0., 0., 0., 0., 0., 0.,
          0., 0., 0., 0., 0., 0., 0., 0., 0., 0., 0., 0., 0., 0., 0., 0.,
          0., 0., 0., 0., 0., 0., 0., 0., 0., 0., 0., 0., 0., 0., 0., 0.,
          0., 1.63984336e-02, 6.70845015e-03, 1.71438176e-02, 0., 0., 0.,
          0., 1.49076665e-03, 1.11807501e-02, 6.70845015e-03, 0., 0., 0.,
          0., 0., 0., 0., 0., 0., 0., 0., 0., 0., 0., 0., 0., 0., 0., 0.,
          0., 0., 0., 0., 0., 0., 0., 0., 0., 0., 0., 0., 0., 0., 0., 0.,
          0., 0., 0., 0., 0., 0., 0., 0., 0., 0., 0., 0., 0., 0., 0., 0.,
          0., 0., 2.23614997e-03, 1.63984336e-02, 5.21768350e-03,
          1.78891998e-02, 0., 0., 0., 0., 1.49076665e-03, 5.96306659e-03,
          7.45383324e-04, 0., 0., 0., 0., 0., 0., 0., 0., 0., 0., 0., 0.,
          0., 0., 0., 0., 0., 0., 0., 0., 0., 0., 0., 0., 0., 0., 0., 0.,
          0., 0., 0., 0., 0., 0., 0., 0., 0., 0., 0., 0., 0., 0., 0., 0.,
          0., 0., 0., 0., 0., 0., 0., 0., 0., 1.49076665e-03,
          2.83245668e-02, 8.19921680e-03, 2.53430344e-02, 0., 0., 0., 0.,
          7.45383324e-04, 1.86345838e-02, 6.03760518e-02, 1.49076665e-03,
          0., 0., 0., 1.49076665e-03, 2.23614997e-03, 2.08707340e-02,
          2.75791846e-02, 0., 0., 0., 0., 0., 1.49076665e-03,
          7.45383324e-04, 2.23614997e-03, 2.98153330e-03, 0., 0., 0., 0.,
          0., 0., 7.45383324e-04, 0., 0., 0., 0., 0., 0., 0., 0., 0., 0.,
          0., 0., 0., 0., 0., 0., 0., 0., 0., 0., 0., 0., 0., 0., 0., 0.,
          0., 0., 0., 0., 0., 0., 0., 0., 0., 0., 0., 0., 0., 0., 0., 0.,
          0., 0., 0., 0., 0., 0., 0., 0., 0., 0., 0., 0., 0., 0., 0., 0.,
          0., 0., 0., 0., 0., 0., 0., 0., 0., 0., 0., 0., 0., 0., 0., 0.,
          0., 0., 0., 0., 0., 0., 0., 0., 0., 0., 0., 0., 0., 0., 0., 0.,
          0., 0., 0., 0., 0., 0., 0., 0., 0., 0., 0., 0., 0., 0., 0., 0.,
          0., 0., 0., 0., 0., 0., 0., 0., 0., 0., 0., 0., 0., 0., 0., 0.,
          0., 0., 0., 0., 0., 0., 0., 0., 0., 0., 0., 0., 0., 0., 0., 0.,
          0., 0., 0., 0., 0., 0., 0., 0., 0., 0., 0., 0., 0., 0., 0. ]
      - [ 0., 0., 0., 1.94345019e-03, 5.34448773e-03, 1.11748381e-02,
          2.76941638e-02, 4.76145297e-02, 0., 0., 0., 5.83035033e-03,
          2.42931265e-02, 4.90721166e-02, 6.94783404e-02, 1.94345023e-02,
          0., 0., 0., 9.71725117e-03, 3.59538272e-02, 9.47431922e-02,
          3.15810665e-02, 3.40103777e-03, 0., 0., 0., 8.25966336e-03,
          9.52290595e-02, 8.48801851e-01, 9.27997455e-02, 0., 0., 0.,
          1.45758758e-03, 3.40103777e-03, 1.95316747e-01, 4.29988354e-01,
          2.96376143e-02, 0., 0., 0., 0., 1.94345019e-03, 9.37714726e-02,
          7.72521421e-02, 6.80207554e-03, 0., 0., 0., 0., 0.,
          1.45758758e-03, 2.42931279e-03, 0., 0., 0., 0., 0., 0., 0., 0.,
          0., 0., 0., 0., 0., 9.71725094e-04, 9.71725094e-04,
          2.42931279e-03, 1.45758758e-03, 2.91517517e-03, 0., 0., 0., 0.,
          9.71725094e-04, 0., 0., 0., 0., 0., 0., 0., 0., 0., 0., 0., 0.,
          0., 0., 0., 0., 0., 0., 0., 0., 0., 0., 0., 0., 0., 0., 0., 0.,
          0., 0., 0., 0., 0., 0., 0., 0., 0., 0., 0., 0., 0., 0., 0., 0.,
          0., 0., 0., 0., 0., 0., 0., 0., 0., 0., 4.85862547e-04,
          4.85862547e-04, 4.85862547e-04, 0., 1.94345019e-03, 0., 0., 0.,
          0., 0., 4.85862547e-04, 0., 0., 0., 0., 0., 0., 0., 0., 0., 0.,
          0., 0., 0., 0., 0., 0., 0., 0., 0., 0., 0., 0., 0., 0., 0., 0.,
          0., 0., 0., 0., 0., 0., 0., 0., 0., 0., 0., 0., 0., 0., 0., 0.,
          0., 0., 0., 0., 0., 0., 0., 0., 0., 0., 0., 0., 0.,
          4.85862547e-04, 0., 0., 0., 0., 0., 0., 4.85862547e-04, 0., 0.,
          0., 0., 0., 0., 0., 0., 0., 0., 0., 0., 0., 0., 0., 0., 0., 0.,
          0., 0., 0., 0., 0., 0., 0., 0., 0., 0., 0., 0., 0., 0., 0., 0.,
          0., 0., 0., 0., 0., 0., 0., 0., 0., 0., 0., 0., 0., 0., 0., 0.,
          0., 0., 0., 0., 0., 0., 4.85862547e-04, 0., 9.71725094e-04, 0.,
          0., 4.85862547e-04, 4.85862547e-04, 0., 0., 0., 0., 0., 0., 0.,
          4.85862547e-04, 0., 0., 0., 0., 0., 0., 0., 0., 0., 0., 0., 0.,
          0., 0., 0., 0., 0., 0., 0., 0., 0., 0., 0., 0., 0., 0., 0., 0.,
          0., 0., 0., 0., 0., 0., 0., 0., 0., 0., 0., 0., 0., 0., 0., 0.,
          0., 0., 0., 9.71725094e-04, 4.85862547e-04, 1.45758758e-03,
          5.34448773e-03, 6.31621294e-03, 0., 0., 0., 9.71725094e-04, 0.,
          1.94345019e-03, 0., 1.45758758e-03, 0., 0., 0., 4.85862547e-04,
          1.45758758e-03, 7.77380075e-03, 0., 0., 0., 0., 0.,
          4.85862547e-04, 0., 8.25966336e-03, 0., 0., 0., 0., 0., 0., 0.,
          0., 0., 0., 0., 0., 0., 0., 0., 0., 0., 0., 0., 0., 0., 0., 0.,
          0., 0., 0., 0., 0., 0., 0., 0., 0., 0., 0., 0., 0., 0., 0., 0.,
          0., 0., 0., 0., 0., 0., 0., 0., 0., 0., 0., 0., 0., 0., 0., 0.,
          0., 0., 0., 0., 0., 0., 0., 0., 0., 0., 0., 0., 0., 0., 0., 0.,
          0., 0., 0., 0., 0., 0., 0., 0., 0., 0., 0., 0., 0., 0., 0., 0.,
          0., 0., 0., 0., 0., 0., 0., 0., 0., 0., 0., 0., 0., 0., 0., 0.,
          0., 0., 0., 0., 0., 0., 0., 0., 0., 0., 0., 0., 0., 0., 0., 0.,
          0., 0., 0., 0., 0., 0., 0., 0., 0., 0., 0., 0., 0., 0., 0., 0.,
          0., 0., 0., 0., 0., 0., 0., 0., 0., 0., 0., 0., 0., 0., 0., 0.,
          0., 0., 0., 0., 0., 0., 0., 0., 0., 0., 0. ]
      - [ 0., 0., 0., 1.22468162e-03, 4.89872647e-03, 2.02072468e-02,
          3.61281075e-02, 3.67404474e-03, 0., 0., 0., 1.83702237e-03,
          1.59208607e-02, 1.39613703e-01, 3.00046988e-02, 8.57277121e-03,
          0., 0., 0., 7.34808948e-03, 2.06358850e-01, 6.04380369e-01,
          7.47055784e-02, 1.22468162e-03, 0., 0., 3.67404474e-03,
          1.04097938e-02, 1.24305181e-01, 6.08054399e-01, 1.02873258e-01,
          0., 0., 0., 6.73574908e-03, 1.28591573e-02, 4.04144935e-02,
          1.27366886e-01, 2.02072468e-02, 0., 0., 0., 1.83702237e-03,
          7.34808948e-03, 4.28638561e-03, 3.67404474e-03, 1.22468162e-03,
          0., 0., 6.12340809e-04, 2.44936324e-03, 1.83702237e-03, 0., 0.,
          0., 0., 0., 6.12340809e-04, 0., 0., 0., 0., 0., 0., 0., 0., 0.,
          0., 3.67404474e-03, 9.18511208e-03, 7.34808948e-03,
          1.22468162e-03, 0., 0., 0., 0., 6.12340809e-04, 3.06170410e-03,
          0., 0., 0., 0., 0., 6.12340809e-04, 0., 0., 0., 0., 0., 0., 0.,
          0., 0., 0., 0., 0., 0., 0., 0., 0., 0., 0., 0., 0., 0., 0., 0.,
          0., 0., 0., 0., 0., 0., 0., 0., 0., 0., 0., 0., 0., 0., 0., 0.,
          0., 0., 0., 0., 0., 0., 0., 0., 0., 0., 6.12340809e-04,
          6.12340809e-04, 1.83702237e-03, 0., 0., 0., 0., 6.12340809e-04,
          4.28638561e-03, 0., 0., 0., 0., 0., 0., 0., 0., 0., 0., 0., 0.,
          0., 0., 0., 0., 0., 0., 0., 0., 0., 0., 0., 0., 0., 0., 0., 0.,
          0., 0., 0., 0., 0., 0., 0., 0., 0., 0., 0., 0., 0., 0., 0., 0.,
          0., 0., 0., 0., 0., 0., 0., 0., 0., 0., 0., 0., 2.44936324e-03,
          0., 0., 0., 0., 0., 0., 0., 0., 0., 0., 0., 0., 0., 0., 0., 0.,
          0., 0., 0., 0., 0., 0., 0., 0., 0., 0., 0., 0., 0., 0., 0., 0.,
          0., 0., 0., 0., 0., 0., 0., 0., 0., 0., 0., 0., 0., 0., 0., 0.,
          0., 0., 0., 0., 0., 0., 0., 0., 0., 0., 0., 0., 0.,
          6.12340809e-04, 0., 2.44936324e-03, 4.28638561e-03, 0., 0., 0.,
          0., 0., 0., 0., 0., 0., 0., 0., 0., 0., 0., 0., 0., 0., 0., 0.,
          0., 0., 0., 0., 0., 0., 0., 0., 0., 0., 0., 0., 0., 0., 0., 0.,
          0., 0., 0., 0., 0., 0., 0., 0., 0., 0., 0., 0., 0., 0., 0., 0.,
          0., 0., 0., 0., 0., 0., 0., 6.12340809e-04, 0., 1.22468162e-03,
          1.46961790e-02, 6.12340821e-03, 2.44936324e-03, 0., 0., 0.,
          6.12340809e-04, 1.59208607e-02, 2.65755922e-01, 9.18511208e-03,
          6.12340809e-04, 0., 0., 0., 0., 1.29203916e-01, 2.47385681e-01,
          1.10221347e-02, 1.22468162e-03, 0., 0., 0., 1.22468162e-03, 0.,
          9.79745295e-03, 3.06170410e-03, 0., 0., 0., 0., 0., 0., 0., 0.,
          0., 0., 0., 0., 0., 0., 0., 0., 0., 0., 0., 0., 0., 0., 0., 0.,
          0., 0., 0., 0., 0., 0., 0., 0., 0., 0., 0., 0., 0., 0., 0., 0.,
          0., 0., 0., 0., 0., 0., 0., 0., 0., 0., 0., 0., 0., 0., 0., 0.,
          0., 0., 0., 0., 0., 0., 0., 0., 0., 0., 0., 0., 0., 0., 0., 0.,
          0., 0., 0., 0., 0., 0., 0., 0., 0., 0., 0., 0., 0., 0., 0., 0.,
          0., 0., 0., 0., 0., 0., 0., 0., 0., 0., 0., 0., 0., 0., 0., 0.,
          0., 0., 0., 0., 0., 0., 0., 0., 0., 0., 0., 0., 0., 0., 0., 0.,
          0., 0., 0., 0., 0., 0., 0., 0., 0., 0., 0., 0., 0., 0., 0., 0.,
          0., 0., 0., 0., 0., 0., 0., 0., 0., 0., 0., 0., 0., 0., 0., 0.,
          0., 0., 0., 0., 0., 0., 0., 0., 0. ]
      - [ 0., 0., 0., 1.44614116e-03, 2.41023512e-03, 2.41023512e-03,
          2.89228233e-03, 3.61535288e-02, 0., 0., 0., 3.37432930e-03,
          1.15691293e-02, 1.97639279e-02, 5.30251749e-02, 1.97639279e-02,
          0., 0., 0., 3.85637628e-03, 1.97639279e-02, 5.01328930e-02,
          4.77226563e-02, 1.87998340e-02, 0., 0., 0., 4.33842326e-03,
          3.51894349e-02, 1.11352868e-01, 8.53223279e-02, 4.33842326e-03,
          0., 0., 0., 3.85637628e-03, 9.44812223e-02, 8.56597602e-01,
          4.00581092e-01, 0., 0., 0., 0., 3.37432930e-03, 8.82146060e-02,
          2.32346669e-01, 3.61535288e-02, 0., 0., 0., 0., 4.82047035e-04,
          3.71176228e-02, 2.45843995e-02, 9.64094070e-04, 0., 0., 0., 0.,
          0., 0., 0., 0., 0., 0., 0., 0., 0., 1.44614116e-03, 0., 0.,
          2.89228233e-03, 0., 0., 0., 4.82047035e-04, 0., 4.82047035e-04,
          0., 0., 0., 0., 0., 0., 0., 0., 0., 0., 0., 0., 0., 0., 0., 0.,
          0., 0., 0., 0., 0., 0., 0., 0., 0., 0., 0., 0., 0., 0., 0., 0.,
          0., 0., 0., 0., 0., 0., 0., 0., 0., 0., 0., 0., 0., 0., 0., 0.,
          0., 0., 0., 0., 0., 0., 0., 0., 9.64094070e-04, 0., 0., 0., 0.,
          0., 0., 0., 0., 0., 0., 0., 0., 0., 0., 0., 0., 0., 0., 0., 0.,
          0., 0., 0., 0., 0., 0., 0., 0., 0., 0., 0., 0., 0., 0., 0., 0.,
          0., 0., 0., 0., 0., 0., 0., 0., 0., 0., 0., 0., 0., 0., 0., 0.,
          0., 0., 0., 0., 0., 0., 0., 0., 4.82047035e-04, 4.82047035e-04,
          4.82047035e-04, 0., 0., 0., 0., 0., 0., 0., 0., 0., 0., 0., 0.,
          0., 0., 0., 0., 0., 0., 0., 0., 0., 0., 0., 0., 0., 0., 0., 0.,
          0., 0., 0., 0., 0., 0., 0., 0., 0., 0., 0., 0., 0., 0., 0., 0.,
          0., 0., 0., 0., 0., 0., 0., 0., 0., 0., 0., 0., 0., 0., 0., 0.,
          0., 9.64094070e-04, 1.44614116e-03, 0., 0., 1.44614116e-03, 0.,
          0., 0., 9.64094070e-04, 0., 0., 0., 0., 0., 0., 0., 0., 0., 0.,
          0., 0., 0., 0., 0., 0., 0., 0., 0., 0., 0., 0., 0., 0., 0., 0.,
          0., 0., 0., 0., 0., 0., 0., 0., 0., 0., 0., 0., 0., 0., 0., 0.,
          0., 0., 0., 0., 0., 0., 0., 0., 0., 0., 0., 0., 0., 0.,
          1.44614116e-03, 4.82047035e-04, 1.44614116e-03, 1.06050353e-02,
          0., 0., 9.64094070e-04, 2.89228233e-03, 1.44614116e-03,
          4.82047035e-04, 4.82047035e-04, 1.92818814e-03, 0., 0., 0.,
          1.44614116e-03, 4.33842326e-03, 0., 9.64094070e-04,
          4.82047035e-04, 0., 0., 0., 1.44614116e-03, 1.44614116e-03,
          3.85637628e-03, 9.64094070e-04, 0., 0., 0., 0., 0., 0., 0., 0.,
          0., 0., 0., 0., 0., 0., 0., 0., 0., 0., 0., 0., 0., 0., 0., 0.,
          0., 0., 0., 0., 0., 0., 0., 0., 0., 0., 0., 0., 0., 0., 0., 0.,
          0., 0., 0., 0., 0., 0., 0., 0., 0., 0., 0., 0., 0., 0., 0., 0.,
          0., 0., 0., 0., 0., 0., 0., 0., 0., 0., 0., 0., 0., 0., 0., 0.,
          0., 0., 0., 0., 0., 0., 0., 0., 0., 0., 0., 0., 0., 0., 0., 0.,
          0., 0., 0., 0., 0., 0., 0., 0., 0., 0., 0., 0., 0., 0., 0., 0.,
          0., 0., 0., 0., 0., 0., 0., 0., 0., 0., 0., 0., 0., 0., 0., 0.,
          0., 0., 0., 0., 0., 0., 0., 0., 0., 0., 0., 0., 0., 0., 0., 0.,
          0., 0., 0., 0., 0., 0., 0., 0., 0., 0., 0., 0., 0., 0., 0., 0.,
          0., 0., 0., 0., 0., 0., 0., 0., 0. ]
      - [ 0., 0., 1.88960717e-03, 2.51947623e-03, 1.88960712e-02,
          6.29869057e-03, 6.92855939e-03, 1.88960717e-03, 0., 0., 0.,
          2.51947623e-03, 1.63765959e-02, 1.32272504e-02, 1.76363327e-02,
          6.29869057e-04, 0., 0., 0., 1.25973811e-03, 1.95259396e-02,
          1.51168574e-02, 1.07077742e-02, 0., 0., 0., 0., 0.,
          2.51947623e-03, 8.18829797e-03, 2.51947623e-03, 0., 0., 0., 0.,
          0., 0., 5.03895245e-03, 6.29869057e-03, 0., 0., 0., 0., 0., 0.,
          0., 2.51947623e-03, 0., 0., 0., 0., 0., 0., 0., 0., 0., 0., 0.,
          0., 0., 0., 0., 0., 0., 0., 0., 0., 1.88960717e-03,
          6.29869057e-03, 2.51947623e-03, 4.40908317e-03, 2.51947623e-03,
          0., 0., 0., 2.51947623e-03, 7.55842868e-03, 4.40908317e-03, 0.,
          0., 0., 0., 0., 0., 6.29869057e-04, 6.29869057e-04, 0., 0., 0.,
          0., 0., 0., 0., 0., 0., 0., 0., 0., 0., 0., 0., 0., 0., 0., 0.,
          0., 0., 0., 0., 0., 0., 0., 0., 0., 0., 0., 0., 0., 0., 0., 0.,
          0., 0., 0., 0., 0., 0., 0., 0., 0., 0., 3.77921434e-03,
          6.29869057e-04, 1.44869881e-02, 2.26752851e-02, 0., 0., 0., 0.,
          0., 0., 0., 5.03895245e-03, 0., 0., 0., 0., 0., 0., 0., 0., 0.,
          0., 0., 0., 0., 0., 0., 0., 0., 0., 0., 0., 0., 0., 0., 0., 0.,
          0., 0., 0., 0., 0., 0., 0., 0., 0., 0., 0., 0., 0., 0., 0., 0.,
          0., 0., 0., 0., 0., 0., 0., 0., 0., 0., 1.25973811e-03,
          3.14934528e-03, 2.39350237e-02, 4.91297841e-02, 3.14934514e-02,
          2.51947623e-03, 0., 0., 0., 1.88960717e-03, 5.54284751e-02,
          5.00116050e-01, 1.26603678e-01, 4.40908317e-03, 0., 0., 0., 0.,
          3.96817513e-02, 4.87518638e-01, 5.90187311e-01, 1.95259396e-02,
          0., 0., 0., 0., 6.29869057e-04, 8.31427127e-02, 3.04856628e-01,
          2.89739762e-02, 0., 0., 0., 0., 0., 0., 8.81816633e-03, 0., 0.,
          0., 0., 0., 0., 0., 0., 0., 0., 0., 0., 0., 0., 0., 0., 0., 0.,
          0., 0., 0., 0., 0., 0., 0., 0., 0., 2.51947623e-03,
          7.55842868e-03, 5.66882156e-02, 3.33830602e-02, 0.,
          1.88960717e-03, 0., 0., 0., 6.92855939e-03, 1.25973806e-01,
          1.08967349e-01, 6.29869057e-04, 0., 0., 0., 0., 2.51947623e-03,
          1.44869881e-02, 1.25973811e-02, 0., 0., 0., 0., 0., 0., 0., 0.,
          0., 0., 0., 0., 0., 0., 0., 0., 0., 0., 0., 0., 0., 0., 0., 0.,
          0., 0., 0., 0., 0., 0., 0., 0., 0., 0., 0., 0., 0., 0., 0., 0.,
          0., 0., 0., 0., 0., 0., 6.29869057e-03, 3.14934528e-03,
          6.29869057e-04, 0., 0., 0., 3.77921434e-03, 5.66882128e-03,
          4.28310968e-02, 0., 0., 0., 0., 0., 0., 2.51947623e-03,
          1.44869881e-02, 1.51168574e-02, 0., 0., 0., 0., 0., 0.,
          3.14934528e-03, 8.81816633e-03, 0., 0., 0., 0., 0., 0., 0., 0.,
          0., 0., 0., 0., 0., 0., 0., 0., 0., 0., 0., 0., 0., 0., 0., 0.,
          0., 0., 0., 0., 0., 0., 0., 0., 0., 0., 0., 0., 0., 0., 0., 0.,
          0., 0., 0., 0., 0., 0., 0., 0., 0., 0., 0., 0., 0., 0., 0., 0.,
          0., 0., 0., 0., 0., 0., 0., 0., 0., 0., 0., 0., 0., 0., 0., 0.,
          0., 0., 0., 0., 0., 0., 0., 0., 0., 0., 0., 0., 0., 0., 0., 0.,
          0., 0., 0., 0., 0., 0., 0., 0., 0., 0., 0., 0., 0., 0., 0., 0.,
          0., 0., 0., 0., 0., 0., 0., 0., 0., 0., 0., 0., 0., 0., 0., 0.,
          0., 0., 0., 0., 0., 0., 0., 0., 0., 0., 0., 0., 0., 0., 0., 0.,
          0., 0., 0., 0., 0., 0., 0., 0., 0., 0., 0., 0., 0., 0., 0., 0.,
          0., 0., 0., 0., 0., 0., 0., 0., 0., 0. ]
      - [ 0., 0., 0., 3.85806081e-03, 3.18290032e-02, 1.44677283e-02,
          1.15741827e-02, 1.92903040e-03, 0., 0., 1.92903040e-03,
          2.50773951e-02, 1.49499863e-01, 6.65515512e-02, 1.54322432e-02,
          1.92903040e-03, 0., 0., 0., 1.92903038e-02, 1.43712774e-01,
          1.54322430e-01, 7.71612162e-03, 0., 0., 0., 2.89354566e-03,
          8.68063699e-03, 8.29483047e-02, 1.64932102e-01, 0., 0., 0., 0.,
          9.64515191e-03, 1.92903040e-03, 2.89354566e-02, 4.82257605e-02,
          0., 0., 0., 0., 9.64515202e-04, 9.64515202e-04, 9.64515202e-04,
          2.79709417e-02, 2.89354566e-03, 0., 0., 0., 0., 0., 0., 0., 0.,
          0., 0., 0., 0., 0., 0., 0., 0., 0., 0., 0., 0., 0.,
          8.68063699e-03, 9.64515202e-04, 0., 0., 0., 0., 0., 0., 0., 0.,
          0., 0., 0., 0., 0., 0., 0., 0., 0., 0., 0., 0., 0., 0., 0., 0.,
          0., 0., 0., 0., 0., 0., 0., 0., 0., 0., 0., 0., 0., 0., 0., 0.,
          0., 0., 0., 0., 0., 0., 0., 0., 0., 0., 0., 0., 0., 0., 0., 0.,
          0., 0., 0., 0., 0., 0., 7.71612162e-03, 7.71612162e-03,
          1.15741827e-02, 1.92903040e-03, 0., 0., 0., 0., 1.92903040e-03,
          5.78709133e-03, 2.21838504e-02, 1.15741827e-02, 0., 0., 0., 0.,
          2.89354566e-03, 1.92903040e-03, 6.75160671e-03, 2.02548187e-02,
          0., 0., 0., 0., 0., 0., 0., 0., 0., 0., 0., 0., 0., 0., 0., 0.,
          0., 0., 0., 0., 0., 0., 0., 0., 0., 0., 0., 0., 0., 0., 0., 0.,
          0., 0., 0., 0., 0., 0., 0., 0., 0., 0., 0., 1.44677283e-02,
          1.83257893e-01, 8.39128271e-02, 1.54322432e-02, 2.60419101e-02,
          0., 0., 0., 1.15741827e-02, 2.63312668e-01, 4.52357620e-01,
          1.05132155e-01, 3.47225480e-02, 0., 0., 0., 9.64515202e-04,
          1.54322432e-02, 8.96999165e-02, 1.25386983e-01, 2.60419101e-02,
          0., 0., 0., 0., 0., 2.89354566e-03, 1.15741827e-02,
          9.64515202e-04, 0., 0., 0., 0., 0., 0., 0., 0., 0., 0., 0., 0.,
          0., 0., 0., 0., 0., 0., 0., 0., 0., 0., 0., 0., 0., 0., 0., 0.,
          0., 0., 0., 0., 0., 0., 0., 3.76160927e-02, 3.23112607e-01,
          4.82257605e-02, 1.92903040e-03, 9.64515202e-04, 0., 0., 0.,
          3.27935182e-02, 3.07680339e-01, 4.62967306e-02, 0., 0., 0., 0.,
          0., 0., 5.78709133e-03, 0., 0., 0., 0., 0., 0., 0., 0., 0., 0.,
          0., 0., 0., 0., 0., 0., 0., 0., 0., 0., 0., 0., 0., 0., 0., 0.,
          0., 0., 0., 0., 0., 0., 0., 0., 0., 0., 0., 0., 0., 0., 0., 0.,
          0., 0., 0., 0., 9.64515191e-03, 1.18635371e-01, 3.85806076e-02,
          1.35032134e-02, 0., 0., 0., 0., 2.89354566e-02, 4.37889904e-01,
          2.58490086e-01, 3.85806081e-03, 0., 0., 0., 9.64515202e-04,
          1.83257889e-02, 2.05441743e-01, 7.52321854e-02, 0., 0., 0., 0.,
          2.89354566e-03, 7.71612162e-03, 5.88354282e-02, 1.73612740e-02,
          0., 0., 0., 0., 7.71612162e-03, 9.64515202e-04, 3.85806081e-03,
          3.85806081e-03, 0., 0., 0., 0., 0., 0., 0., 2.89354566e-03, 0.,
          0., 0., 0., 0., 0., 0., 0., 0., 0., 0., 0., 0., 0., 0., 0., 0.,
          0., 0., 0., 0., 0., 0., 0., 0., 0., 0., 0., 0., 0., 0., 0., 0.,
          0., 0., 0., 0., 0., 0., 0., 0., 0., 0., 0., 0., 0., 0., 0., 0.,
          0., 0., 0., 0., 0., 0., 0., 0., 0., 0., 0., 0., 0., 0., 0., 0.,
          0., 0., 0., 0., 0., 0., 0., 0., 0., 0., 0., 0., 0., 0., 0., 0.,
          0., 0., 0., 0., 0., 0., 0., 0., 0., 0., 0., 0., 0., 0., 0., 0.,
          0., 0., 0., 0., 0., 0., 0., 0., 0., 0., 0., 0., 0., 0., 0., 0.,
          0., 0., 0., 0., 0., 0., 0., 0., 0., 0., 0., 0., 0., 0., 0., 0.,
          0., 0., 0., 0., 0., 0., 0., 0., 0., 0., 0., 0., 0., 0., 0., 0.,
          0. ]
      - [ 0., 0., 4.63913521e-03, 3.36337313e-02, 4.00125422e-02,
          2.84147020e-02, 1.44972978e-02, 3.01543791e-02, 0., 0.,
          5.79891913e-03, 2.49353517e-02, 4.58114594e-02, 3.24739479e-02,
          1.91364326e-02, 0., 0., 0., 0., 1.44972978e-02, 2.37755682e-02,
          1.04380539e-02, 1.50771895e-02, 2.89945956e-03, 0., 0., 0., 0.,
          4.05924348e-03, 3.47935129e-03, 1.10179456e-02, 7.53859477e-03,
          0., 0., 0., 0., 0., 3.47935129e-03, 7.53859477e-03,
          9.85816214e-03, 0., 0., 0., 0., 0., 0., 2.31956760e-03,
          5.79891901e-04, 0., 0., 0., 0., 0., 0., 0., 0., 0., 0., 0., 0.,
          0., 0., 0., 0., 0., 0., 5.79891901e-04, 4.05924348e-03,
          2.31956765e-02, 1.33375134e-02, 1.15978380e-03, 5.21902693e-03,
          0., 0., 5.79891901e-04, 2.89945956e-03, 1.15978380e-03, 0., 0.,
          0., 0., 0., 0., 5.79891901e-04, 0., 0., 0., 0., 0., 0., 0., 0.,
          0., 0., 0., 0., 0., 0., 0., 0., 0., 0., 0., 0., 0., 0., 0., 0.,
          0., 0., 0., 0., 0., 0., 0., 0., 0., 0., 0., 0., 0., 0., 0., 0.,
          0., 0., 0., 0., 0., 0., 0., 5.79891913e-03, 3.18940543e-02,
          2.95744874e-02, 2.31956760e-03, 1.15978380e-03, 0., 0., 0., 0.,
          0., 0., 0., 0., 0., 0., 0., 0., 0., 0., 0., 0., 0., 0., 0., 0.,
          0., 0., 0., 0., 0., 0., 0., 0., 0., 0., 0., 0., 0., 0., 0., 0.,
          0., 0., 0., 0., 0., 0., 0., 0., 0., 0., 0., 0., 0., 0., 0., 0.,
          0., 0., 0., 0., 0., 0., 0., 2.89945956e-02, 2.48193726e-01,
          8.46642181e-02, 2.31956760e-03, 1.73967564e-03, 0., 0., 0.,
          1.33375134e-02, 4.25060749e-01, 8.19387257e-01, 0., 0., 0., 0.,
          0., 0., 4.92908098e-02, 1.95423573e-01, 1.73967564e-03, 0., 0.,
          0., 0., 0., 0., 0., 0., 0., 0., 0., 0., 0., 0., 0., 0., 0., 0.,
          0., 0., 0., 0., 0., 0., 0., 0., 0., 0., 0., 0., 0., 0., 0., 0.,
          0., 0., 0., 0., 0., 0., 0., 0., 0., 1.15978380e-03,
          5.85690811e-02, 9.16229188e-02, 1.15978383e-02, 1.73967564e-03,
          4.05924348e-03, 0., 0., 0., 2.89945956e-02, 8.11848640e-02,
          1.73967564e-03, 0., 0., 0., 0., 0., 0., 1.73967564e-03, 0., 0.,
          0., 0., 0., 0., 0., 0., 0., 0., 0., 0., 0., 0., 0., 0., 0., 0.,
          0., 0., 0., 0., 0., 0., 0., 0., 0., 0., 0., 0., 0., 0., 0., 0.,
          0., 0., 0., 0., 0., 0., 0., 0., 0., 0., 0., 2.89945956e-03,
          3.01543791e-02, 3.07342708e-02, 2.31956760e-03, 2.31956760e-03,
          1.73967564e-03, 0., 0., 2.31956760e-03, 4.52315696e-02,
          2.78348103e-02, 0., 0., 0., 0., 0., 0., 6.95870258e-03,
          1.68168657e-02, 0., 0., 0., 0., 0., 0., 0., 0., 0., 0., 0., 0.,
          0., 0., 0., 0., 0., 0., 0., 0., 0., 0., 0., 0., 0., 0., 0., 0.,
          0., 0., 0., 0., 0., 0., 0., 0., 0., 0., 0., 0., 0., 0., 0., 0.,
          0., 0., 0., 0., 0., 0., 0., 0., 0., 0., 0., 0., 0., 0., 0., 0.,
          0., 0., 0., 0., 0., 0., 0., 0., 0., 0., 0., 0., 0., 0., 0., 0.,
          0., 0., 0., 0., 0., 0., 0., 0., 0., 0., 0., 0., 0., 0., 0., 0.,
          0., 0., 0., 0., 0., 0., 0., 0., 0., 0., 0., 0., 0., 0., 0., 0.,
          0., 0., 0., 0., 0., 0., 0., 0., 0., 0., 0., 0., 0., 0., 0., 0.,
          0., 0., 0., 0., 0., 0., 0., 0., 0., 0., 0., 0., 0., 0., 0., 0.,
          0., 0., 0., 0., 0., 0., 0., 0., 0., 0., 0., 0., 0., 0., 0., 0.,
          0., 0., 0., 0., 0., 0., 0., 0., 0., 0., 0., 0., 0., 0., 0. ]
      - [ 0., 0., 0., 5.84296940e-04, 5.84296940e-04, 7.59586040e-03,
          2.62933634e-02, 4.61594611e-02, 0., 0., 0., 1.75289088e-03,
          5.25867287e-03, 2.92148478e-02, 9.23189223e-02, 2.68776603e-02,
          0., 0., 0., 1.75289088e-03, 1.34388302e-02, 2.42483243e-01,
          3.42398018e-01, 1.46074239e-02, 0., 0., 0., 5.84296940e-04,
          1.86975021e-02, 4.35301244e-01, 6.30456448e-01, 1.46074239e-02,
          0., 0., 0., 5.84296940e-04, 1.05173457e-02, 2.82799721e-01,
          3.62848401e-01, 8.18015728e-03, 0., 0., 0., 0., 2.92148488e-03,
          6.95313364e-02, 5.72611019e-02, 1.75289088e-03, 0., 0., 0., 0.,
          0., 0., 0., 0., 0., 0., 0., 0., 0., 0., 0., 0., 0., 0., 0., 0.,
          5.84296940e-04, 2.92148488e-03, 1.69446114e-02, 5.25867287e-03,
          0., 0., 0., 0., 2.33718776e-03, 1.75289088e-03, 6.42726664e-03,
          5.84296940e-04, 0., 0., 0., 0., 0., 0., 0., 0., 0., 0., 0., 0.,
          0., 0., 0., 0., 0., 0., 0., 0., 0., 0., 0., 0., 0., 0., 0., 0.,
          0., 0., 0., 0., 0., 0., 0., 0., 0., 0., 0., 0., 0., 0., 0., 0.,
          0., 0., 0., 0., 0., 0., 0., 5.84296940e-04, 1.75289088e-03,
          1.16859388e-03, 0., 2.33718776e-03, 0., 0., 0., 0., 0.,
          5.84296940e-04, 0., 2.33718776e-03, 0., 0., 0., 0., 0., 0., 0.,
          0., 0., 0., 0., 0., 0., 0., 0., 0., 0., 0., 0., 0., 0., 0., 0.,
          0., 0., 0., 0., 0., 0., 0., 0., 0., 0., 0., 0., 0., 0., 0., 0.,
          0., 0., 0., 0., 0., 0., 0., 0., 0., 0., 0., 0., 0.,
          5.84296940e-04, 0., 0., 1.75289088e-03, 0., 0., 0., 0., 0., 0.,
          0., 0., 0., 0., 0., 0., 0., 0., 0., 0., 0., 0., 0., 0., 0., 0.,
          0., 0., 0., 0., 0., 0., 0., 0., 0., 0., 0., 0., 0., 0., 0., 0.,
          0., 0., 0., 0., 0., 0., 0., 0., 0., 0., 0., 0., 0., 0., 0., 0.,
          0., 0., 0., 0., 0., 0., 0., 0., 0., 0., 0., 0., 0., 0., 0., 0.,
          0., 0., 0., 0., 0., 0., 0., 0., 0., 0., 0., 0., 0., 0., 0., 0.,
          0., 0., 0., 0., 0., 0., 0., 0., 0., 0., 0., 0., 0., 0., 0., 0.,
          0., 0., 0., 0., 0., 0., 0., 0., 0., 0., 0., 0., 0., 0., 0., 0.,
          0., 0., 0., 0., 0., 1.16859388e-03, 0., 0., 0., 3.50578176e-03,
          0., 0., 0., 0., 1.16859388e-03, 2.92148488e-03, 2.33718776e-03,
          0., 0., 0., 0., 0., 2.92148488e-03, 3.97321917e-02,
          2.45404728e-02, 0., 0., 0., 0., 0., 0., 1.98660959e-02,
          9.34875105e-03, 0., 0., 0., 0., 0., 0., 1.16859388e-03, 0., 0.,
          0., 0., 0., 0., 0., 0., 0., 0., 0., 0., 0., 0., 0., 0., 0., 0.,
          0., 0., 0., 0., 0., 0., 0., 0., 0., 0., 0., 0., 0., 0., 0., 0.,
          0., 0., 0., 0., 0., 0., 0., 0., 0., 0., 0., 0., 0., 0., 0., 0.,
          0., 0., 0., 0., 0., 0., 0., 0., 0., 0., 0., 0., 0., 0., 0., 0.,
          0., 0., 0., 0., 0., 0., 0., 0., 0., 0., 0., 0., 0., 0., 0., 0.,
          0., 0., 0., 0., 0., 0., 0., 0., 0., 0., 0., 0., 0., 0., 0., 0.,
          0., 0., 0., 0., 0., 0., 0., 0., 0., 0., 0., 0., 0., 0., 0., 0.,
          0., 0., 0., 0., 0., 0., 0., 0., 0., 0., 0., 0., 0., 0., 0., 0.,
          0., 0., 0., 0., 0., 0., 0., 0., 0., 0., 0., 0., 0., 0., 0., 0.,
          0., 0., 0., 0., 0., 0., 0., 0. ]
      - [ 0., 0., 0., 7.82502815e-04, 2.89526042e-02, 4.85151745e-02,
          3.13001126e-02, 0., 0., 0., 1.56500563e-03, 5.47751971e-03,
          9.15528312e-02, 2.15188280e-01, 8.60753059e-02, 7.82502815e-04,
          0., 0., 7.82502815e-04, 1.01725366e-02, 3.83426361e-02,
          3.10653627e-01, 1.77628145e-01, 3.91251408e-03, 0., 0., 0.,
          3.91251408e-03, 1.95625704e-02, 1.14245407e-01, 5.32101914e-02,
          3.91251408e-03, 0., 0., 0., 0., 7.82502815e-04, 3.59951295e-02,
          2.58225929e-02, 1.33025479e-02, 0., 0., 0., 0., 0.,
          7.82502815e-03, 7.04252534e-03, 1.95625704e-02, 0., 0., 0., 0.,
          0., 7.82502815e-04, 1.56500563e-03, 1.56500563e-03, 0., 0., 0.,
          0., 0., 0., 0., 0., 0., 0., 0., 0., 0., 7.04252534e-03,
          1.09550394e-02, 0., 0., 0., 0., 0., 2.34750845e-03,
          2.34750845e-03, 0., 0., 0., 0., 0., 0., 0., 0., 0., 0., 0., 0.,
          0., 0., 0., 0., 0., 0., 0., 0., 0., 0., 0., 0., 0., 0., 0., 0.,
          0., 0., 0., 0., 0., 0., 0., 0., 0., 0., 0., 0., 0., 0., 0., 0.,
          0., 0., 0., 0., 0., 0., 0., 0., 0., 0., 0., 1.56500563e-03,
          2.58225929e-02, 1.01725366e-02, 0., 0., 0., 0., 0.,
          3.91251408e-03, 2.11275760e-02, 0., 0., 0., 0., 0., 0., 0., 0.,
          0., 0., 0., 0., 0., 0., 0., 0., 0., 0., 0., 0., 0., 0., 0., 0.,
          0., 0., 0., 0., 0., 0., 0., 0., 0., 0., 0., 0., 0., 0., 0., 0.,
          0., 0., 0., 0., 0., 0., 0., 0., 0., 0., 0., 0., 7.82502815e-04,
          3.13001126e-03, 5.08626811e-02, 1.17375422e-02, 1.25200450e-02,
          0., 0., 0., 3.91251408e-03, 3.91251408e-03, 5.24276868e-02,
          1.09550394e-02, 0., 0., 0., 0., 3.13001126e-03, 5.47751971e-03,
          0., 7.82502815e-04, 0., 0., 0., 0., 0., 0., 0., 0., 0., 0., 0.,
          0., 0., 0., 0., 0., 0., 0., 0., 0., 0., 0., 0., 0., 0., 0., 0.,
          0., 0., 0., 0., 0., 0., 0., 0., 0., 0., 0., 0., 0., 0., 0., 0.,
          0., 1.56500563e-03, 3.83426361e-02, 2.33968347e-01,
          1.64325591e-02, 1.56500563e-03, 0., 0., 7.82502815e-04,
          7.82502815e-04, 3.05176098e-02, 1.47110522e-01, 2.34750845e-03,
          0., 0., 0., 0., 0., 0., 0., 0., 0., 0., 0., 0., 0., 0., 0., 0.,
          0., 0., 0., 0., 0., 0., 0., 0., 0., 0., 0., 0., 0., 0., 0., 0.,
          0., 0., 0., 0., 0., 0., 0., 0., 0., 0., 0., 0., 0., 0., 0., 0.,
          0., 0., 0., 0., 0., 3.99076417e-02, 1.32242978e-01,
          3.91251408e-02, 0., 0., 0., 0., 1.56500563e-03, 1.09550394e-01,
          7.05817521e-01, 3.35693717e-01, 0., 0., 0., 0., 2.34750845e-03,
          4.69501689e-02, 2.16753274e-01, 6.96427524e-02, 0., 0., 0., 0.,
          7.82502815e-04, 5.47751971e-03, 3.36476192e-02, 8.60753097e-03,
          0., 0., 0., 0., 0., 7.82502815e-04, 6.26002252e-03, 0., 0., 0.,
          0., 0., 0., 0., 0., 0., 0., 0., 0., 0., 0., 0., 0., 0., 0., 0.,
          0., 0., 0., 0., 0., 0., 0., 0., 0., 0., 0., 0., 0., 0., 0., 0.,
          0., 0., 0., 0., 0., 0., 0., 0., 0., 0., 0., 0., 0., 0., 0., 0.,
          0., 0., 0., 0., 0., 0., 0., 0., 0., 0., 0., 0., 0., 0., 0., 0.,
          0., 0., 0., 0., 0., 0., 0., 0., 0., 0., 0., 0., 0., 0., 0., 0.,
          0., 0., 0., 0., 0., 0., 0., 0., 0., 0., 0., 0., 0., 0., 0., 0.,
          0., 0., 0., 0., 0., 0., 0., 0., 0., 0., 0., 0., 0., 0., 0., 0.,
          0., 0., 0., 0., 0., 0., 0., 0., 0., 0., 0., 0., 0., 0., 0., 0.,
          0., 0., 0., 0., 0., 0., 0., 0., 0., 0., 0., 0., 0., 0., 0., 0.,
          0., 0., 0., 0., 0., 0., 0. ]
      - [ 0., 0., 0., 0., 8.04156938e-04, 4.02078498e-03, 1.60831388e-03,
          3.53829078e-02, 0., 0., 0., 0., 4.02078469e-04, 7.23741250e-03,
          1.12581970e-02, 2.41247080e-02, 0., 0., 0., 4.02078469e-04,
          4.02078498e-03, 1.16602760e-02, 2.65371799e-02, 4.06099260e-02,
          0., 0., 0., 0., 4.02078469e-04, 2.25163940e-02, 4.62390259e-02,
          3.81974541e-02, 0., 0., 0., 0., 2.41247076e-03, 1.64852180e-02,
          9.04676542e-02, 8.96634981e-02, 0., 0., 0., 0., 1.20623538e-03,
          1.32685900e-02, 3.08394194e-01, 9.30007517e-01, 0., 0., 0., 0.,
          8.04156938e-04, 9.24780499e-03, 4.30223979e-02, 1.11375742e-01,
          0., 0., 0., 0., 0., 0., 0., 0., 0., 0., 0., 0., 4.02078469e-04,
          2.01039249e-03, 2.01039249e-03, 8.04156996e-03, 0., 0., 0., 0.,
          0., 0., 6.83533400e-03, 0., 0., 0., 0., 0., 0., 0., 0., 0., 0.,
          0., 0., 0., 0., 0., 0., 0., 0., 0., 0., 0., 0., 0., 0., 0., 0.,
          0., 0., 0., 0., 0., 0., 0., 0., 0., 0., 0., 0., 0., 0., 0., 0.,
          0., 0., 0., 0., 0., 0., 0., 0., 0., 0., 0., 0., 4.02078469e-04,
          2.81454925e-03, 3.61870625e-03, 0., 0., 0., 0., 0.,
          4.02078469e-04, 8.04156938e-04, 0., 0., 0., 0., 0., 0., 0., 0.,
          0., 0., 0., 0., 0., 0., 0., 0., 0., 0., 0., 0., 0., 0., 0., 0.,
          0., 0., 0., 0., 0., 0., 0., 0., 0., 0., 0., 0., 0., 0., 0., 0.,
          0., 0., 0., 0., 0., 0., 0., 0., 0., 0., 0., 0., 0., 0.,
          4.02078469e-04, 0., 0., 0., 0., 0., 0., 8.04156938e-04,
          4.02078469e-04, 4.02078469e-04, 0., 0., 0., 0., 0.,
          4.02078469e-04, 0., 0., 0., 0., 0., 0., 0., 0., 0., 0., 0., 0.,
          0., 0., 0., 0., 0., 0., 0., 0., 0., 0., 0., 0., 0., 0., 0., 0.,
          0., 0., 0., 0., 0., 0., 0., 0., 0., 0., 0., 0., 0., 0., 0., 0.,
          0., 0., 8.04156938e-04, 1.60831388e-03, 8.04156938e-04, 0.,
          2.41247076e-03, 0., 0., 0., 2.81454925e-03, 5.22702001e-03, 0.,
          0., 0., 0., 0., 0., 1.20623538e-03, 8.04156938e-04, 0., 0., 0.,
          0., 0., 0., 0., 0., 0., 0., 0., 0., 0., 0., 0., 0., 0., 0., 0.,
          0., 0., 0., 0., 0., 0., 0., 0., 0., 0., 0., 0., 0., 0., 0., 0.,
          0., 0., 0., 0., 0., 0., 0., 0., 0., 0., 0., 0., 2.41247076e-03,
          4.02078469e-04, 4.02078469e-04, 8.84572696e-03, 0., 0., 0.,
          4.02078469e-04, 8.04156938e-04, 1.20623538e-03, 8.04156938e-04,
          2.81454925e-03, 0., 0., 0., 8.04156938e-04, 2.81454925e-03,
          1.20623538e-03, 4.02078469e-04, 4.02078469e-04, 0., 0., 0., 0.,
          4.02078469e-04, 2.81454925e-03, 2.41247076e-03, 0., 0., 0., 0.,
          0., 0., 4.02078469e-04, 0., 4.02078469e-04, 0., 0., 0., 0., 0.,
          0., 4.02078469e-04, 2.41247076e-03, 0., 0., 0., 0., 0., 0., 0.,
          0., 0., 0., 0., 0., 0., 0., 0., 0., 0., 0., 0., 0., 0., 0., 0.,
          0., 0., 0., 0., 0., 0., 0., 0., 0., 0., 0., 0., 0., 0., 0., 0.,
          0., 0., 0., 0., 0., 0., 0., 0., 0., 0., 0., 0., 0., 0., 0., 0.,
          0., 0., 0., 0., 0., 0., 0., 0., 0., 0., 0., 0., 0., 0., 0., 0.,
          0., 0., 0., 0., 0., 0., 0., 0., 0., 0., 0., 0., 0., 0., 0., 0.,
          0., 0., 0., 0., 0., 0., 0., 0., 0., 0., 0., 0., 0., 0., 0., 0.,
          0., 0., 0., 0., 0., 0., 0., 0., 0., 0., 0., 0., 0., 0., 0., 0.,
          0., 0., 0., 0., 0., 0., 0., 0., 0., 0., 0., 0., 0., 0., 0., 0.,
          0., 0., 0., 0., 0., 0., 0., 0., 0. ]
      - [ 0., 0., 0., 0., 0., 1.21691579e-03, 2.43383157e-03,
          3.44792828e-02, 0., 0., 0., 0., 0., 2.02819309e-03,
          9.73532628e-03, 2.55552325e-02, 0., 0., 0., 0., 0.,
          7.30149494e-03, 2.14988459e-02, 4.74597178e-02, 0., 0., 0., 0.,
          4.05638624e-04, 4.05638618e-03, 3.61018367e-02, 6.24683462e-02,
          0., 0., 0., 0., 1.62255450e-03, 4.46202466e-03, 3.16398107e-02,
          4.49853212e-01, 0., 0., 0., 0., 3.24510899e-03, 4.46202466e-03,
          4.54315245e-02, 8.60765159e-01, 0., 0., 0., 0., 1.21691579e-03,
          3.65074747e-03, 6.16570711e-02, 1.98762923e-01, 0., 0., 0.,
          4.05638624e-04, 1.62255450e-03, 1.21691579e-03, 1.09522427e-02,
          4.05638618e-03, 0., 0., 0., 0., 4.05638624e-04, 0.,
          4.05638624e-04, 3.65074747e-03, 0., 0., 0., 0., 0., 0., 0., 0.,
          0., 0., 0., 0., 0., 0., 0., 0., 0., 0., 0., 0., 0., 0., 0., 0.,
          0., 0., 0., 0., 0., 0., 0., 0., 0., 0., 0., 0., 0., 0., 0., 0.,
          0., 0., 0., 0., 0., 0., 0., 0., 0., 0., 0., 0., 0., 0., 0., 0.,
          0., 0., 0., 0., 4.05638624e-04, 1.21691579e-03, 2.02819309e-03,
          2.83947028e-03, 0., 0., 0., 0., 0., 0., 0., 0., 0., 0., 0., 0.,
          0., 0., 0., 0., 0., 0., 0., 0., 0., 0., 0., 0., 0., 0., 0., 0.,
          0., 0., 0., 0., 0., 0., 0., 0., 0., 0., 0., 0., 0., 0., 0., 0.,
          0., 0., 0., 0., 0., 0., 0., 0., 0., 0., 0., 0., 0., 0., 0., 0.,
          0., 8.11277248e-04, 8.11277248e-04, 2.02819309e-03, 0., 0., 0.,
          0., 0., 0., 4.05638624e-04, 0., 0., 0., 0., 0., 0., 0., 0., 0.,
          0., 0., 0., 0., 0., 0., 0., 0., 0., 0., 0., 0., 0., 0., 0., 0.,
          0., 0., 0., 0., 0., 0., 0., 0., 0., 0., 0., 0., 0., 0., 0., 0.,
          0., 0., 0., 0., 0., 0., 0., 0., 0., 0., 0., 0., 4.05638624e-04,
          1.21691579e-03, 8.11277248e-04, 3.65074747e-03, 0., 0., 0., 0.,
          0., 0., 0., 0., 0., 0., 0., 0., 0., 0., 0., 0., 0., 0., 0., 0.,
          0., 0., 0., 0., 0., 0., 0., 0., 0., 0., 0., 0., 0., 0., 0., 0.,
          0., 0., 0., 0., 0., 0., 0., 0., 0., 0., 0., 0., 0., 0., 0., 0.,
          0., 0., 0., 0., 0., 0., 0., 0., 0., 4.05638624e-04,
          4.05638624e-04, 1.05466042e-02, 0., 0., 0., 0., 0.,
          2.43383157e-03, 1.62255450e-03, 3.65074747e-03, 0., 0., 0., 0.,
          4.05638624e-04, 1.62255450e-03, 2.83947028e-03, 4.05638624e-04,
          0., 0., 0., 0., 4.05638624e-04, 4.05638624e-04, 1.21691579e-03,
          0., 0., 0., 0., 0., 0., 0., 0., 4.05638624e-04, 0., 0., 0., 0.,
          0., 0., 0., 0., 0., 0., 0., 0., 0., 0., 0., 0., 0., 0., 0., 0.,
          0., 0., 0., 0., 0., 0., 0., 0., 0., 0., 0., 0., 0., 0., 0., 0.,
          0., 0., 0., 0., 0., 0., 0., 0., 0., 0., 0., 0., 0., 0., 0., 0.,
          0., 0., 0., 0., 0., 0., 0., 0., 0., 0., 0., 0., 0., 0., 0., 0.,
          0., 0., 0., 0., 0., 0., 0., 0., 0., 0., 0., 0., 0., 0., 0., 0.,
          0., 0., 0., 0., 0., 0., 0., 0., 0., 0., 0., 0., 0., 0., 0., 0.,
          0., 0., 0., 0., 0., 0., 0., 0., 0., 0., 0., 0., 0., 0., 0., 0.,
          0., 0., 0., 0., 0., 0., 0., 0., 0., 0., 0., 0., 0., 0., 0., 0.,
          0., 0., 0., 0., 0., 0., 0., 0., 0., 0., 0., 0., 0., 0., 0., 0.,
          0., 0., 0., 0. ]
      - [ 0., 0., 0., 5.72886411e-03, 1.71865914e-02, 1.65500510e-02,
          1.20942686e-02, 5.09232376e-03, 0., 0., 0., 3.18270223e-03,
          1.78231318e-02, 2.60981582e-02, 1.65500510e-02, 1.90962141e-03,
          0., 0., 0., 1.27308094e-03, 4.45578294e-03, 1.90962143e-02,
          1.52769713e-02, 1.20942686e-02, 0., 0., 0., 0., 0.,
          1.90962143e-02, 1.14577282e-02, 1.20942686e-02, 0., 0., 0., 0.,
          0., 1.01846475e-02, 7.00194482e-03, 1.14577282e-02, 0., 0., 0.,
          0., 0., 0., 0., 0., 0., 0., 0., 0., 0., 0., 0., 0., 0., 0., 0.,
          0., 0., 0., 0., 0., 0., 0., 6.36540470e-04, 1.27308094e-03,
          6.36540446e-03, 1.65500510e-02, 2.10058354e-02, 9.54810716e-03,
          0., 0., 0., 0., 0., 1.27308094e-03, 6.36540470e-04, 0., 0., 0.,
          0., 0., 0., 0., 0., 0., 0., 0., 0., 0., 0., 0., 0., 0., 0., 0.,
          0., 0., 0., 0., 0., 0., 0., 0., 0., 0., 0., 0., 0., 0., 0., 0.,
          0., 0., 0., 0., 0., 0., 0., 0., 0., 0., 0., 0., 0., 0., 0., 0.,
          0., 1.27308094e-03, 1.20942686e-02, 2.99174003e-02,
          1.84596740e-02, 5.47424778e-02, 0., 0., 0., 6.36540470e-04,
          1.46404300e-02, 4.45578294e-03, 1.27308094e-03, 5.09232376e-03,
          0., 0., 0., 0., 6.36540470e-04, 0., 0., 0., 0., 0., 0., 0., 0.,
          0., 0., 0., 0., 0., 0., 0., 0., 0., 0., 0., 0., 0., 0., 0., 0.,
          0., 0., 0., 0., 0., 0., 0., 0., 0., 0., 0., 0., 0., 0., 0., 0.,
          0., 0., 0., 0., 0., 0., 1.40038896e-02, 6.11078851e-02,
          2.22789161e-02, 5.72886411e-03, 5.60155585e-02, 0., 0., 0.,
          1.84596740e-02, 2.20242992e-01, 1.24761932e-01, 1.33673493e-02,
          3.69193479e-02, 0., 0., 0., 1.90962141e-03, 1.09484956e-01,
          4.50670630e-01, 4.74859178e-01, 1.27308089e-02, 0., 0., 0.,
          6.36540470e-04, 9.54810716e-03, 1.50860086e-01, 6.68367445e-01,
          3.62828076e-02, 0., 0., 0., 0., 0., 1.90962141e-03,
          5.72886411e-03, 7.63848564e-03, 0., 0., 0., 0., 0., 0., 0., 0.,
          0., 0., 0., 0., 0., 0., 0., 0., 0., 0., 0., 0., 0., 0., 0., 0.,
          0., 0., 0., 5.72886411e-03, 3.24635617e-02, 1.33673493e-02,
          2.54616188e-03, 6.36540446e-03, 0., 0., 0., 6.36540446e-03,
          4.45578322e-02, 1.33673493e-02, 6.36540470e-04, 1.27308094e-03,
          0., 0., 0., 0., 7.00194482e-03, 0., 0., 0., 0., 0., 0., 0.,
          6.36540470e-04, 1.27308094e-03, 0., 0., 0., 0., 0., 0., 0., 0.,
          0., 0., 0., 0., 0., 0., 0., 0., 0., 0., 0., 0., 0., 0., 0., 0.,
          0., 0., 0., 0., 0., 0., 0., 0., 0., 0., 0., 0., 0.,
          8.91156588e-03, 2.92808600e-02, 4.45578294e-03, 1.27308094e-03,
          0., 0., 0., 0., 0., 3.05539425e-02, 3.81924282e-03, 0., 0., 0.,
          0., 0., 0., 0., 0., 0., 0., 0., 0., 0., 0., 0., 0., 0., 0., 0.,
          0., 0., 0., 0., 0., 0., 0., 0., 0., 0., 0., 0., 0., 0., 0., 0.,
          0., 0., 0., 0., 0., 0., 0., 0., 0., 0., 0., 0., 0., 0., 0., 0.,
          0., 0., 0., 0., 0., 0., 0., 0., 0., 0., 0., 0., 0., 0., 0., 0.,
          0., 0., 0., 0., 0., 0., 0., 0., 0., 0., 0., 0., 0., 0., 0., 0.,
          0., 0., 0., 0., 0., 0., 0., 0., 0., 0., 0., 0., 0., 0., 0., 0.,
          0., 0., 0., 0., 0., 0., 0., 0., 0., 0., 0., 0., 0., 0., 0., 0.,
          0., 0., 0., 0., 0., 0., 0., 0., 0., 0., 0., 0., 0., 0., 0., 0.,
          0., 0., 0., 0., 0., 0., 0., 0., 0., 0., 0., 0., 0., 0., 0., 0.,
          0., 0., 0., 0., 0., 0., 0., 0., 0., 0., 0., 0., 0., 0., 0., 0.,
          0., 0., 0., 0., 0., 0., 0., 0., 0., 0., 0., 0., 0., 0., 0. ]
      - [ 0., 0., 0., 0., 3.54487775e-03, 6.07693335e-03, 8.60898942e-03,
          3.39295454e-02, 0., 0., 0., 5.06411132e-04, 3.54487775e-03,
          7.59616680e-03, 1.01282224e-02, 3.49423662e-02, 0., 0., 0., 0.,
          9.11539979e-03, 2.63333786e-02, 2.02564448e-02, 4.76026461e-02,
          0., 0., 0., 5.06411132e-04, 8.60898942e-03, 5.77308685e-02,
          4.96282913e-02, 5.16539328e-02, 0., 0., 0., 1.01282226e-03,
          5.57052251e-03, 4.70962338e-02, 2.08134964e-01, 1.02295049e-01,
          0., 0., 0., 1.51923334e-03, 5.57052251e-03, 1.01282224e-02,
          1.56481043e-01, 5.36795795e-01, 0., 0., 0., 5.06411132e-04,
          1.01282226e-03, 5.06411120e-03, 9.21668261e-02, 7.78353870e-01,
          0., 0., 0., 0., 0., 5.06411132e-04, 2.48141456e-02,
          2.32949108e-02, 0., 0., 0., 0., 1.51923334e-03, 2.02564453e-03,
          4.55769990e-03, 1.31666893e-02, 0., 0., 0., 0., 5.06411132e-04,
          2.53205560e-03, 4.05128906e-03, 4.55769990e-03, 0., 0., 0., 0.,
          0., 0., 0., 0., 0., 0., 0., 0., 0., 0., 0., 0., 0., 0., 0., 0.,
          0., 0., 0., 0., 0., 0., 0., 0., 0., 0., 0., 0., 0., 0., 0., 0.,
          0., 0., 0., 0., 0., 0., 0., 0., 0., 0., 0., 0., 0., 0., 0., 0.,
          1.01282226e-03, 2.02564453e-03, 4.05128906e-03, 2.07628552e-02,
          0., 0., 0., 0., 0., 1.51923334e-03, 1.51923334e-03,
          4.05128906e-03, 0., 0., 0., 0., 0., 0., 0., 0., 0., 0., 0., 0.,
          0., 0., 0., 0., 0., 0., 0., 0., 0., 0., 0., 0., 0., 0., 0., 0.,
          0., 0., 0., 0., 0., 0., 0., 0., 0., 0., 0., 0., 0., 0., 0., 0.,
          0., 0., 0., 0., 0., 0., 0., 0., 0., 1.51923334e-03,
          2.02564453e-03, 1.01282226e-03, 0., 0., 0., 0., 0.,
          1.01282226e-03, 1.51923334e-03, 0., 0., 0., 0., 0., 0., 0., 0.,
          0., 0., 0., 0., 0., 0., 0., 0., 0., 0., 0., 0., 0., 0., 0., 0.,
          0., 0., 0., 0., 0., 0., 0., 0., 0., 0., 0., 0., 0., 0., 0., 0.,
          0., 0., 0., 0., 0., 0., 0., 0., 0., 0., 0., 0., 5.06411132e-04,
          1.51923334e-03, 1.51923334e-03, 1.01282226e-03, 5.57052251e-03,
          0., 0., 0., 0., 0., 0., 0., 0., 0., 0., 0., 0., 0., 0., 0., 0.,
          0., 0., 0., 5.06411132e-04, 0., 0., 0., 0., 0., 0., 0., 0., 0.,
          0., 0., 0., 0., 0., 0., 0., 0., 0., 0., 0., 0., 0., 0., 0., 0.,
          0., 0., 0., 0., 0., 0., 0., 0., 0., 0., 0., 0., 0., 0., 0.,
          5.06411132e-04, 3.03846668e-03, 2.53205560e-03, 1.01282224e-02,
          0., 0., 0., 0., 3.03846668e-03, 2.02564453e-03, 2.53205560e-03,
          4.55769990e-03, 0., 0., 0., 0., 3.54487775e-03, 1.01282226e-03,
          5.06411132e-04, 1.01282226e-03, 0., 0., 0., 0., 5.06411132e-04,
          8.10257811e-03, 5.06411132e-04, 5.06411132e-04, 0., 0., 0., 0.,
          5.06411132e-04, 1.01282226e-03, 2.53205560e-03, 0., 0., 0., 0.,
          0., 0., 5.06411132e-04, 2.02564453e-03, 0., 0., 0., 0., 0., 0.,
          0., 0., 0., 0., 0., 0., 0., 0., 0., 0., 0., 0., 0., 0., 0., 0.,
          0., 0., 0., 0., 0., 0., 0., 0., 0., 0., 0., 0., 0., 0., 0., 0.,
          0., 0., 0., 0., 0., 0., 0., 0., 0., 0., 0., 0., 0., 0., 0., 0.,
          0., 0., 0., 0., 0., 0., 0., 0., 0., 0., 0., 0., 0., 0., 0., 0.,
          0., 0., 0., 0., 0., 0., 0., 0., 0., 0., 0., 0., 0., 0., 0., 0.,
          0., 0., 0., 0., 0., 0., 0., 0., 0., 0., 0., 0., 0., 0., 0., 0.,
          0., 0., 0., 0., 0., 0., 0., 0., 0., 0., 0., 0., 0., 0., 0., 0.,
          0., 0., 0., 0., 0., 0., 0., 0., 0., 0., 0., 0., 0., 0., 0., 0.,
          0., 0., 0., 0., 0., 0., 0., 0., 0., 0., 0. ]
      - [ 0., 0., 7.37046765e-04, 1.47409353e-03, 2.72707306e-02,
          5.97007871e-02, 2.06373092e-02, 5.01191802e-02, 0., 0., 0.,
          2.21114024e-03, 8.91826600e-02, 2.57229328e-01, 6.92823976e-02,
          2.06373092e-02, 0., 0., 0., 2.94818706e-03, 9.13937986e-02,
          6.34597301e-01, 3.87686610e-01, 1.03186546e-02, 0., 0., 0.,
          2.21114024e-03, 9.65531245e-02, 4.84239727e-01, 1.82050556e-01,
          7.37046765e-04, 0., 0., 0., 2.94818706e-03, 1.17927482e-02,
          1.82050556e-01, 7.73899108e-02, 0., 0., 0., 0., 0., 0.,
          3.68523388e-03, 0., 0., 0., 0., 0., 0., 0., 0., 0., 0., 0., 0.,
          0., 0., 0., 0., 0., 0., 0., 0., 0., 0., 1.54779823e-02,
          1.62150282e-02, 8.84456094e-03, 2.21114028e-02, 0., 0., 0., 0.,
          2.21114024e-03, 2.94818706e-03, 1.47409353e-03, 0., 0., 0., 0.,
          0., 2.21114024e-03, 7.37046765e-04, 0., 0., 0., 0., 0., 0., 0.,
          0., 0., 0., 0., 0., 0., 0., 0., 0., 0., 0., 0., 0., 0., 0., 0.,
          0., 0., 0., 0., 0., 0., 0., 0., 0., 0., 0., 0., 0., 0., 0., 0.,
          0., 0., 0., 0., 0., 0., 0., 1.47409355e-02, 3.02189179e-02,
          1.47409353e-03, 1.84261687e-02, 0., 0., 0., 0., 0., 0., 0., 0.,
          0., 0., 0., 0., 0., 0., 0., 0., 0., 0., 0., 0., 0., 0., 0., 0.,
          0., 0., 0., 0., 0., 0., 0., 0., 0., 0., 0., 0., 0., 0., 0., 0.,
          0., 0., 0., 0., 0., 0., 0., 0., 0., 0., 0., 0., 0., 0., 0., 0.,
          0., 0., 0., 1.47409353e-03, 2.21114028e-02, 8.69715214e-02,
          5.89637412e-03, 1.76891219e-02, 0., 0., 0., 7.37046765e-04,
          1.91632155e-02, 1.54779823e-02, 2.94818706e-03, 7.37046765e-04,
          0., 0., 0., 0., 4.42228047e-03, 7.37046765e-04, 7.37046765e-04,
          0., 0., 0., 0., 0., 0., 0., 0., 0., 0., 0., 0., 0., 0., 0., 0.,
          0., 0., 0., 0., 0., 0., 0., 0., 0., 0., 0., 0., 0., 0., 0., 0.,
          0., 0., 0., 0., 0., 0., 0., 0., 0., 0., 0., 0., 1.47409353e-03,
          4.05375734e-02, 4.05375734e-02, 2.21114024e-03, 1.84261687e-02,
          0., 0., 0., 4.42228047e-03, 8.84456094e-03, 2.13743560e-02, 0.,
          0., 0., 0., 0., 0., 0., 2.94818706e-03, 0., 0., 0., 0., 0., 0.,
          0., 0., 0., 0., 0., 0., 0., 0., 0., 0., 0., 0., 0., 0., 0., 0.,
          0., 0., 0., 0., 0., 0., 0., 0., 0., 0., 0., 0., 0., 0., 0., 0.,
          0., 0., 0., 0., 0., 0., 7.37046765e-04, 2.94818706e-03,
          4.49598543e-02, 4.56968993e-02, 1.47409353e-03, 8.84456094e-03,
          0., 0., 0., 5.15932729e-03, 7.37046748e-02, 8.10751468e-02,
          1.54779823e-02, 7.37046765e-04, 0., 0., 0., 1.47409353e-03,
          3.90634798e-02, 3.68523374e-02, 2.21114028e-02, 0., 0., 0., 0.,
          0., 7.37046765e-04, 4.42228047e-03, 0., 0., 0., 0., 0., 0., 0.,
          0., 0., 0., 0., 0., 0., 0., 0., 0., 0., 0., 0., 0., 0., 0., 0.,
          0., 0., 0., 0., 0., 0., 0., 0., 0., 0., 0., 0., 0., 0., 0., 0.,
          0., 0., 0., 0., 0., 0., 0., 0., 0., 0., 0., 0., 0., 0., 0., 0.,
          0., 0., 0., 0., 0., 0., 0., 0., 0., 0., 0., 0., 0., 0., 0., 0.,
          0., 0., 0., 0., 0., 0., 0., 0., 0., 0., 0., 0., 0., 0., 0., 0.,
          0., 0., 0., 0., 0., 0., 0., 0., 0., 0., 0., 0., 0., 0., 0., 0.,
          0., 0., 0., 0., 0., 0., 0., 0., 0., 0., 0., 0., 0., 0., 0., 0.,
          0., 0., 0., 0., 0., 0., 0., 0., 0., 0., 0., 0., 0., 0., 0., 0.,
          0., 0., 0., 0., 0., 0., 0., 0., 0., 0., 0., 0., 0., 0., 0., 0.,
          0., 0., 0., 0., 0., 0., 0., 0., 0., 0., 0. ]
      - [ 0., 0., 1.47196569e-03, 4.41589719e-03, 8.24300796e-02,
          8.46380293e-02, 3.01752966e-02, 2.42874343e-02, 0., 0.,
          6.62384555e-03, 1.83995720e-02, 2.45818272e-01, 2.98809052e-01,
          1.32476911e-02, 1.47196569e-03, 0., 7.35982845e-04,
          7.35982880e-03, 2.28154678e-02, 2.43610322e-01, 1.10397428e-01,
          7.35982880e-03, 3.67991440e-03, 0., 0., 0., 6.62384555e-03,
          8.02221298e-02, 4.19510230e-02, 1.47196569e-03, 1.47196569e-03,
          0., 0., 0., 3.67991440e-03, 2.13435031e-02, 1.32476911e-02, 0.,
          0., 0., 0., 0., 0., 0., 0., 0., 0., 0., 0., 0., 0., 0., 0., 0.,
          0., 0., 0., 0., 0., 0., 0., 0., 0., 0., 0., 0., 7.35982845e-04,
          4.41589719e-03, 9.56777763e-03, 1.54556399e-02, 1.10397432e-02,
          0., 0., 0., 0., 0., 0., 0., 0., 0., 0., 0., 0., 0., 0., 0., 0.,
          0., 0., 0., 0., 0., 0., 0., 0., 0., 0., 0., 0., 0., 0., 0., 0.,
          0., 0., 0., 0., 0., 0., 0., 0., 0., 0., 0., 0., 0., 0., 0., 0.,
          0., 0., 0., 0., 0., 0., 0., 0., 0., 0., 7.35982845e-04,
          2.20794859e-03, 4.41589719e-03, 1.83995720e-02, 3.38552110e-02,
          1.17757255e-02, 0., 0., 0., 0., 3.67991440e-03, 0., 0., 0., 0.,
          0., 0., 0., 0., 0., 0., 0., 0., 0., 0., 0., 0., 0., 0., 0., 0.,
          0., 0., 0., 0., 0., 0., 0., 0., 0., 0., 0., 0., 0., 0., 0., 0.,
          0., 0., 0., 0., 0., 0., 0., 0., 0., 0., 0., 0., 0., 0., 0., 0.,
          0., 0., 0., 1.32476911e-02, 3.82711105e-02, 2.35514510e-02,
          5.88786276e-03, 0., 0., 0., 0., 2.94393138e-03, 1.54556399e-02,
          0., 0., 0., 0., 0., 0., 7.35982845e-04, 0., 0., 0., 0., 0., 0.,
          0., 0., 0., 0., 0., 0., 0., 0., 0., 0., 0., 0., 0., 0., 0., 0.,
          0., 0., 0., 0., 0., 0., 0., 0., 0., 0., 0., 0., 0., 0., 0., 0.,
          0., 0., 0., 0., 0., 0., 0., 0., 2.20794859e-03, 1.25117093e-01,
          3.16472612e-02, 7.35982880e-03, 1.47196569e-03, 0., 0., 0., 0.,
          9.49417874e-02, 1.47196576e-02, 0., 0., 0., 0., 0., 0., 0., 0.,
          0., 0., 0., 0., 0., 0., 0., 0., 0., 0., 0., 0., 0., 0., 0., 0.,
          0., 0., 0., 0., 0., 0., 0., 0., 0., 0., 0., 0., 0., 0., 0., 0.,
          0., 0., 0., 0., 0., 0., 0., 0., 0., 0., 0., 0., 0., 0.,
          1.40572727e-01, 2.31098622e-01, 8.09581112e-03, 5.15187997e-03,
          0., 0., 0., 9.56777763e-03, 4.93844509e-01, 6.13073707e-01,
          1.47196569e-03, 0., 0., 0., 0., 6.62384555e-03, 1.60444260e-01,
          6.10865764e-02, 0., 0., 0., 0., 0., 2.94393138e-03,
          7.35982845e-04, 0., 0., 0., 0., 0., 0., 0., 0., 0., 0., 0., 0.,
          0., 0., 0., 0., 0., 0., 0., 0., 0., 0., 0., 0., 0., 0., 0., 0.,
          0., 0., 0., 0., 0., 0., 0., 0., 0., 0., 0., 0., 0., 0., 0., 0.,
          0., 0., 0., 0., 0., 0., 0., 0., 0., 0., 0., 0., 0., 0., 0., 0.,
          0., 0., 0., 0., 0., 0., 0., 0., 0., 0., 0., 0., 0., 0., 0., 0.,
          0., 0., 0., 0., 0., 0., 0., 0., 0., 0., 0., 0., 0., 0., 0., 0.,
          0., 0., 0., 0., 0., 0., 0., 0., 0., 0., 0., 0., 0., 0., 0., 0.,
          0., 0., 0., 0., 0., 0., 0., 0., 0., 0., 0., 0., 0., 0., 0., 0.,
          0., 0., 0., 0., 0., 0., 0., 0., 0., 0., 0., 0., 0., 0., 0., 0.,
          0., 0., 0., 0., 0., 0., 0., 0., 0., 0., 0., 0., 0., 0., 0., 0.,
          0., 0., 0., 0., 0., 0., 0. ]
      - [ 0., 0., 0., 0., 6.09980803e-03, 4.80359867e-02, 5.64232208e-02,
          8.00599754e-02, 0., 0., 0., 7.62476004e-04, 1.82994232e-02,
          1.21996157e-01, 3.21764857e-01, 6.09980784e-02, 0., 0., 0., 0.,
          6.09980803e-03, 2.06630990e-01, 6.09980762e-01, 1.74606994e-01,
          0., 0., 0., 7.62476004e-04, 6.86228368e-03, 8.84472132e-02,
          4.59773004e-01, 1.95956334e-01, 0., 0., 0., 0., 8.38723592e-03,
          7.70100728e-02, 3.30152094e-01, 8.08224529e-02, 0., 0., 0., 0.,
          8.38723592e-03, 1.90618988e-02, 1.60119951e-01, 5.03234155e-02,
          0., 0., 0., 0., 0., 0., 1.67744718e-02, 1.75369475e-02, 0., 0.,
          0., 0., 0., 0., 0., 0., 0., 0., 0., 0., 0., 1.44870440e-02,
          3.12615149e-02, 3.43114175e-02, 0., 0., 0., 0., 0.,
          1.52495201e-03, 3.04990401e-03, 9.14971158e-03, 0., 0., 0., 0.,
          0., 0., 7.62476004e-04, 2.28742789e-03, 0., 0., 0., 0., 0., 0.,
          0., 0., 0., 0., 0., 0., 0., 0., 0., 0., 0., 0., 0., 0., 0., 0.,
          0., 0., 0., 0., 0., 0., 0., 0., 0., 0., 0., 0., 0., 0., 0., 0.,
          0., 0., 0., 0., 0., 0., 1.52495201e-03, 1.21996161e-02,
          1.75369475e-02, 5.26108444e-02, 0., 0., 0., 0., 2.28742789e-03,
          6.09980803e-03, 7.62475980e-03, 5.33733191e-03, 0., 0., 0., 0.,
          0., 0., 0., 0., 0., 0., 0., 0., 0., 0., 0., 0., 0., 0., 0., 0.,
          0., 0., 0., 0., 0., 0., 0., 0., 0., 0., 0., 0., 0., 0., 0., 0.,
          0., 0., 0., 0., 0., 0., 0., 0., 0., 0., 0., 0., 0., 0., 0.,
          7.62476004e-04, 7.62476004e-04, 1.67744718e-02, 3.04990392e-02,
          3.04990392e-02, 0., 0., 0., 0., 0., 3.81237990e-03,
          4.57485579e-03, 7.62476004e-04, 0., 0., 0., 0., 7.62476004e-04,
          7.62476004e-04, 0., 0., 0., 0., 0., 0., 0., 0., 0., 0., 0., 0.,
          0., 0., 0., 0., 0., 0., 0., 0., 0., 0., 0., 0., 0., 0., 0., 0.,
          0., 0., 0., 0., 0., 0., 0., 0., 0., 0., 0., 0., 0., 0., 0., 0.,
          0., 7.62476004e-04, 0., 1.75369475e-02, 1.14371395e-02,
          2.05868520e-02, 0., 0., 0., 1.52495201e-03, 2.28742789e-03,
          2.28742789e-03, 0., 0., 0., 0., 0., 0., 0., 0., 0., 0., 0., 0.,
          0., 0., 0., 2.28742789e-03, 0., 0., 0., 0., 0., 0., 0., 0.,
          3.04990401e-03, 0., 0., 0., 0., 0., 0., 0., 0., 0., 0., 0., 0.,
          0., 0., 0., 0., 0., 0., 0., 0., 0., 0., 0., 0., 0., 0., 0., 0.,
          0., 2.28742789e-03, 1.75369475e-02, 1.60119962e-02,
          4.04112265e-02, 0., 0., 0., 0., 7.62475980e-03, 1.06746638e-02,
          1.44870440e-02, 7.62476004e-04, 0., 0., 0., 0., 7.62476004e-04,
          7.62475980e-03, 0., 7.62476004e-04, 0., 0., 0., 0.,
          7.62476004e-04, 1.67744718e-02, 7.62475980e-03, 0., 0., 0., 0.,
          0., 0., 7.62476004e-04, 5.33733191e-03, 0., 0., 0., 0., 0., 0.,
          0., 0., 0., 0., 0., 0., 0., 0., 0., 0., 0., 0., 0., 0., 0., 0.,
          0., 0., 0., 0., 0., 0., 0., 0., 0., 0., 0., 0., 0., 0., 0., 0.,
          0., 0., 0., 0., 0., 0., 0., 0., 0., 0., 0., 0., 0., 0., 0., 0.,
          0., 0., 0., 0., 0., 0., 0., 0., 0., 0., 0., 0., 0., 0., 0., 0.,
          0., 0., 0., 0., 0., 0., 0., 0., 0., 0., 0., 0., 0., 0., 0., 0.,
          0., 0., 0., 0., 0., 0., 0., 0., 0., 0., 0., 0., 0., 0., 0., 0.,
          0., 0., 0., 0., 0., 0., 0., 0., 0., 0., 0., 0., 0., 0., 0., 0.,
          0., 0., 0., 0., 0., 0., 0., 0., 0., 0., 0., 0., 0., 0., 0., 0.,
          0., 0., 0., 0., 0., 0., 0., 0., 0., 0., 0., 0., 0., 0., 0., 0.,
          0., 0., 0. ]
      - [ 0., 0., 0., 6.12946984e-04, 1.83884089e-03, 3.67768179e-03,
          6.12946972e-03, 5.82299605e-02, 0., 0., 0., 6.12946984e-04,
          3.67768179e-03, 1.22589394e-02, 2.94214543e-02, 3.18732411e-02,
          0., 0., 0., 0., 9.80715174e-03, 3.18732411e-02, 5.88429086e-02,
          5.45522794e-02, 0., 0., 0., 0., 1.04200980e-02, 1.04200982e-01,
          1.34848326e-01, 3.49379778e-02, 0., 0., 0., 6.12946984e-04,
          1.22589394e-02, 1.02975093e-01, 4.50516015e-01, 1.59366205e-01,
          0., 0., 0., 0., 4.29062871e-03, 3.55509222e-02, 5.56555867e-01,
          5.51652253e-01, 0., 0., 0., 0., 1.22589397e-03, 4.29062871e-03,
          1.62430942e-01, 2.72761405e-01, 0., 0., 0., 0., 0.,
          6.12946984e-04, 7.35536357e-03, 6.12946984e-04, 0., 0., 0., 0.,
          3.06473486e-03, 4.29062871e-03, 3.06473486e-03, 1.65495686e-02,
          0., 0., 0., 0., 6.12946984e-04, 1.83884089e-03, 7.96831027e-03,
          0., 0., 0., 0., 0., 0., 0., 0., 0., 0., 0., 0., 0., 0., 0., 0.,
          0., 0., 0., 0., 0., 0., 0., 0., 0., 0., 0., 0., 0., 0., 0., 0.,
          0., 0., 0., 0., 0., 0., 0., 0., 0., 0., 0., 0., 0., 0., 0., 0.,
          0., 0., 0., 0., 6.12946984e-04, 1.22589397e-03, 3.06473486e-03,
          1.22589397e-03, 2.26790383e-02, 0., 0., 0., 0., 0.,
          2.45178794e-03, 1.83884089e-03, 0., 0., 0., 0., 0., 0., 0., 0.,
          0., 0., 0., 0., 0., 0., 0., 0., 0., 0., 0., 0., 0., 0., 0., 0.,
          0., 0., 0., 0., 0., 0., 0., 0., 0., 0., 0., 0., 0., 0., 0., 0.,
          0., 0., 0., 0., 0., 0., 0., 0., 0., 0., 0., 0., 0.,
          1.22589397e-03, 1.22589397e-03, 2.45178794e-03, 5.51652256e-03,
          0., 0., 0., 0., 1.22589397e-03, 1.22589397e-03, 6.12946984e-04,
          6.12946984e-04, 0., 0., 0., 0., 0., 0., 0., 0., 0., 0., 0., 0.,
          0., 0., 0., 0., 0., 0., 0., 0., 0., 0., 0., 0., 0., 0., 0., 0.,
          0., 0., 0., 0., 0., 0., 0., 0., 0., 0., 0., 0., 0., 0., 0., 0.,
          0., 0., 0., 0., 0., 0., 0., 6.12946984e-04, 0., 2.45178794e-03,
          6.12946984e-04, 3.67768179e-03, 0., 0., 0., 0., 6.12946984e-04,
          0., 0., 0., 0., 0., 0., 1.22589397e-03, 0., 0., 0., 0., 0., 0.,
          0., 0., 0., 0., 0., 0., 0., 0., 0., 0., 0., 0., 0., 0., 0., 0.,
          0., 0., 0., 0., 0., 0., 0., 0., 0., 0., 0., 0., 0., 0., 0., 0.,
          0., 0., 0., 0., 0., 0., 0., 0., 0., 0., 2.45178794e-03,
          6.12946984e-04, 6.12946984e-04, 9.80715174e-03, 0., 0., 0.,
          6.12946984e-04, 2.45178794e-03, 0., 0., 6.12946984e-04, 0., 0.,
          0., 0., 6.12946984e-04, 2.45178794e-03, 0., 0., 0., 0., 0., 0.,
          1.83884089e-03, 1.10330451e-02, 1.83884089e-03, 6.12946984e-04,
          0., 0., 0., 0., 0., 6.12946984e-04, 5.51652256e-03, 0., 0., 0.,
          0., 0., 0., 0., 0., 0., 0., 0., 0., 0., 0., 0., 0., 0., 0., 0.,
          0., 0., 0., 0., 0., 0., 0., 0., 0., 0., 0., 0., 0., 0., 0., 0.,
          0., 0., 0., 0., 0., 0., 0., 0., 0., 0., 0., 0., 0., 0., 0., 0.,
          0., 0., 0., 0., 0., 0., 0., 0., 0., 0., 0., 0., 0., 0., 0., 0.,
          0., 0., 0., 0., 0., 0., 0., 0., 0., 0., 0., 0., 0., 0., 0., 0.,
          0., 0., 0., 0., 0., 0., 0., 0., 0., 0., 0., 0., 0., 0., 0., 0.,
          0., 0., 0., 0., 0., 0., 0., 0., 0., 0., 0., 0., 0., 0., 0., 0.,
          0., 0., 0., 0., 0., 0., 0., 0., 0., 0., 0., 0., 0., 0., 0., 0.,
          0., 0., 0., 0., 0., 0., 0., 0., 0., 0., 0., 0., 0., 0., 0., 0.,
          0., 0., 0., 0., 0., 0. ]
      - [ 0., 0., 0., 3.99664044e-03, 1.19899213e-02, 6.66106772e-03,
          2.33137365e-02, 0., 0., 0., 0., 4.66274749e-03, 2.19815224e-02,
          1.59865618e-02, 1.06577082e-02, 0., 0., 0., 0., 0.,
          1.33221354e-02, 1.66526698e-02, 5.32885408e-03, 0., 0., 0., 0.,
          0., 8.65938794e-03, 2.19815224e-02, 3.33053386e-03, 0., 0., 0.,
          0., 0., 0., 5.32885408e-03, 0., 0., 0., 0., 0., 0., 0., 0., 0.,
          0., 0., 0., 0., 0., 0., 0., 0., 0., 0., 0., 0., 0., 0., 0., 0.,
          0., 0., 0., 0., 3.99664044e-03, 0., 1.99832022e-03,
          1.26560284e-02, 5.32885408e-03, 0., 0., 0., 0., 0.,
          1.99832022e-03, 0., 0., 0., 0., 0., 0., 0., 0., 0., 0., 0., 0.,
          0., 0., 0., 0., 0., 0., 0., 0., 0., 0., 0., 0., 0., 0., 0., 0.,
          0., 0., 0., 0., 0., 0., 0., 0., 0., 0., 0., 0., 0., 0., 0., 0.,
          0., 0., 0., 0., 0., 0., 0., 0., 0., 1.33221352e-03,
          3.33053386e-03, 1.19899213e-02, 3.79680842e-02, 4.99580055e-02,
          0., 0., 0., 0., 2.66442704e-03, 1.33221352e-03, 3.66358720e-02,
          6.66106760e-04, 0., 0., 0., 0., 0., 0., 0., 0., 0., 0., 0., 0.,
          0., 0., 0., 0., 0., 0., 0., 0., 0., 0., 0., 0., 0., 0., 0., 0.,
          0., 0., 0., 0., 0., 0., 0., 0., 0., 0., 0., 0., 0., 0., 0., 0.,
          0., 0., 0., 0., 0., 0., 0., 1.39882416e-02, 4.59613651e-02,
          3.53036597e-02, 3.13070156e-02, 5.66190742e-02, 0., 0.,
          1.99832022e-03, 2.79764831e-02, 1.60531729e-01, 1.64528370e-01,
          7.32717440e-02, 2.99748033e-02, 0., 0., 0., 1.66526698e-02,
          1.91172644e-01, 6.12818241e-01, 2.55118877e-01, 1.99832022e-03,
          0., 0., 0., 1.33221352e-03, 3.79680842e-02, 2.54452765e-01,
          6.09487653e-01, 2.19815224e-02, 0., 0., 0., 0., 0.,
          1.99832022e-03, 6.66106772e-03, 5.32885408e-03, 0., 0., 0., 0.,
          0., 0., 0., 0., 0., 0., 0., 0., 0., 0., 0., 0., 0., 0., 0., 0.,
          0., 0., 0., 0., 0., 0., 0., 1.99832022e-02, 3.79680842e-02,
          6.66106772e-03, 9.99160111e-03, 9.32549499e-03, 0., 0., 0.,
          3.39714438e-02, 6.46123514e-02, 4.66274749e-03, 0., 0., 0., 0.,
          0., 1.33221352e-03, 5.99496067e-03, 0., 0., 0., 0., 0., 0., 0.,
          0., 0., 0., 0., 0., 0., 0., 0., 0., 0., 0., 0., 0., 0., 0., 0.,
          0., 0., 0., 0., 0., 0., 0., 0., 0., 0., 0., 0., 0., 0., 0., 0.,
          0., 0., 0., 0., 0., 0., 0., 9.32549499e-03, 1.79848820e-02,
          2.66442704e-03, 5.99496067e-03, 0., 0., 0., 0., 4.66274749e-03,
          1.93170961e-02, 6.66106760e-04, 1.99832022e-03, 0., 0., 0., 0.,
          0., 2.66442704e-03, 0., 0., 0., 0., 0., 0., 0., 0., 0., 0., 0.,
          0., 0., 0., 0., 0., 0., 0., 0., 0., 0., 0., 0., 0., 0., 0., 0.,
          0., 0., 0., 0., 0., 0., 0., 0., 0., 0., 0., 0., 0., 0., 0., 0.,
          0., 0., 0., 0., 0., 0., 0., 0., 0., 0., 0., 0., 0., 0., 0., 0.,
          0., 0., 0., 0., 0., 0., 0., 0., 0., 0., 0., 0., 0., 0., 0., 0.,
          0., 0., 0., 0., 0., 0., 0., 0., 0., 0., 0., 0., 0., 0., 0., 0.,
          0., 0., 0., 0., 0., 0., 0., 0., 0., 0., 0., 0., 0., 0., 0., 0.,
          0., 0., 0., 0., 0., 0., 0., 0., 0., 0., 0., 0., 0., 0., 0., 0.,
          0., 0., 0., 0., 0., 0., 0., 0., 0., 0., 0., 0., 0., 0., 0., 0.,
          0., 0., 0., 0., 0., 0., 0., 0., 0., 0., 0., 0., 0., 0., 0., 0.,
          0., 0., 0., 0., 0., 0., 0., 0., 0., 0., 0., 0., 0., 0., 0., 0. ]
      - [ 0., 0., 0., 4.53978181e-02, 2.72386909e-01, 5.82462549e-02,
          2.05575023e-02, 5.31068780e-02, 0., 0., 2.56968779e-03,
          5.91028184e-02, 3.98301601e-01, 1.67886257e-01, 5.13937548e-02,
          2.56968779e-03, 0., 0., 3.42625030e-03, 2.99796909e-02,
          3.04079711e-01, 7.19512552e-02, 9.42218862e-03, 5.99593809e-03,
          0., 0., 8.56562576e-04, 5.99593809e-03, 1.02787510e-01,
          3.68321911e-02, 2.74100024e-02, 5.13937557e-03, 0., 0., 0.,
          8.56562576e-04, 1.62746888e-02, 9.42218862e-03, 2.56968779e-03,
          8.56562576e-04, 0., 0., 0., 0., 6.85250061e-03, 1.71312515e-03,
          8.56562576e-04, 0., 0., 0., 0., 0., 0., 0., 0., 0., 0., 0., 0.,
          0., 0., 0., 0., 0., 0., 0., 0., 1.11353137e-02, 3.51190642e-02,
          8.56562611e-03, 1.02787511e-02, 1.28484387e-02, 0., 0.,
          8.56562576e-04, 2.56968779e-03, 1.71312515e-03, 0., 0., 0., 0.,
          0., 0., 0., 0., 0., 0., 0., 0., 0., 0., 0., 0., 0., 0., 0., 0.,
          0., 0., 0., 0., 0., 0., 0., 0., 0., 0., 0., 0., 0., 0., 0., 0.,
          0., 0., 0., 0., 0., 0., 0., 0., 0., 0., 0., 0., 0., 0., 0., 0.,
          0., 0., 8.56562576e-04, 5.65331317e-02, 0., 7.70906312e-03,
          7.70906312e-03, 0., 0., 0., 0., 0., 0., 0., 0., 0., 0., 0., 0.,
          0., 0., 0., 0., 0., 0., 0., 0., 0., 0., 0., 0., 0., 0., 0., 0.,
          0., 0., 0., 0., 0., 0., 0., 0., 0., 0., 0., 0., 0., 0., 0., 0.,
          0., 0., 0., 0., 0., 0., 0., 0., 0., 0., 0., 0., 0., 0., 0.,
          3.42625030e-03, 1.85017511e-01, 1.25058129e-01, 4.19715643e-02,
          0., 0., 0., 0., 0., 8.56562611e-03, 1.64460018e-01,
          5.99593809e-03, 0., 0., 0., 0., 0., 0., 0., 0., 0., 0., 0., 0.,
          0., 0., 0., 0., 0., 0., 0., 0., 0., 0., 0., 0., 0., 0., 0., 0.,
          0., 0., 0., 0., 0., 0., 0., 0., 0., 0., 0., 0., 0., 0., 0., 0.,
          0., 0., 0., 0., 0., 0., 0., 0., 1.19918762e-02, 3.75174403e-01,
          1.35336891e-01, 1.71312515e-03, 5.99593809e-03, 0., 0., 0., 0.,
          5.99593818e-02, 3.85453142e-02, 0., 0., 0., 0., 0., 0., 0., 0.,
          0., 0., 0., 0., 0., 0., 0., 0., 0., 0., 0., 0., 0., 0., 0., 0.,
          0., 0., 0., 0., 0., 0., 0., 0., 0., 0., 0., 0., 0., 0., 0., 0.,
          0., 0., 0., 0., 0., 0., 0., 0., 0., 0., 0., 0., 0.,
          1.79878138e-02, 3.63182545e-01, 5.65331317e-02, 7.70906312e-03,
          5.13937557e-03, 0., 0., 0., 2.39837524e-02, 4.51408476e-01,
          9.93612558e-02, 0., 0., 0., 0., 0., 8.56562576e-04,
          1.19062200e-01, 1.71312515e-03, 0., 0., 0., 0., 0., 0.,
          1.54181262e-02, 8.56562576e-04, 0., 0., 0., 0., 0., 0., 0., 0.,
          0., 0., 0., 0., 0., 0., 0., 0., 0., 0., 0., 0., 0., 0., 0., 0.,
          0., 0., 0., 0., 0., 0., 0., 0., 0., 0., 0., 0., 0., 0., 0., 0.,
          0., 0., 0., 0., 0., 0., 0., 0., 0., 0., 0., 0., 0., 0., 0., 0.,
          0., 0., 0., 0., 0., 0., 0., 0., 0., 0., 0., 0., 0., 0., 0., 0.,
          0., 0., 0., 0., 0., 0., 0., 0., 0., 0., 0., 0., 0., 0., 0., 0.,
          0., 0., 0., 0., 0., 0., 0., 0., 0., 0., 0., 0., 0., 0., 0., 0.,
          0., 0., 0., 0., 0., 0., 0., 0., 0., 0., 0., 0., 0., 0., 0., 0.,
          0., 0., 0., 0., 0., 0., 0., 0., 0., 0., 0., 0., 0., 0., 0., 0.,
          0., 0., 0., 0., 0., 0., 0., 0., 0., 0., 0., 0., 0., 0., 0., 0.,
          0., 0., 0., 0., 0., 0., 0., 0., 0., 0. ]
      - [ 0., 0., 0., 6.33028569e-04, 1.70917716e-02, 2.46881153e-02,
          1.83578283e-02, 3.60826291e-02, 0., 0., 0., 3.16514284e-03,
          5.06422855e-02, 3.93110752e-01, 7.65964612e-02, 1.58257149e-02,
          0., 0., 0., 6.33028569e-03, 4.68441136e-02, 7.03927755e-01,
          1.93706751e-01, 6.33028569e-03, 0., 0., 0., 4.43120021e-03,
          3.73486876e-02, 3.43101501e-01, 1.92440689e-01, 6.96331449e-03,
          0., 0., 6.33028569e-04, 3.16514284e-03, 1.32935997e-02,
          6.07707426e-02, 2.08899435e-02, 1.89908571e-03, 0., 0., 0.,
          1.26605714e-03, 5.69725735e-03, 3.79817141e-03, 6.33028569e-04,
          0., 0., 0., 0., 1.26605714e-03, 1.26605714e-03, 0., 0., 0., 0.,
          0., 0., 6.33028569e-04, 0., 0., 0., 0., 0., 0., 0., 0.,
          1.89908571e-03, 4.43120021e-03, 1.96238849e-02, 2.91193146e-02,
          0., 0., 0., 6.33028569e-04, 0., 1.26605714e-03, 5.06422855e-03,
          6.33028569e-04, 0., 0., 0., 0., 6.33028569e-04, 0., 0., 0., 0.,
          0., 0., 0., 0., 0., 0., 0., 0., 0., 0., 0., 0., 0., 0., 0., 0.,
          0., 0., 0., 0., 0., 0., 0., 0., 0., 0., 0., 0., 0., 0., 0., 0.,
          0., 0., 0., 0., 0., 0., 0., 0., 0., 0., 6.33028569e-04,
          3.79817141e-03, 4.43120021e-03, 2.27890294e-02, 1.07614854e-02,
          0., 0., 0., 0., 6.33028569e-04, 6.33028569e-04, 5.06422855e-03,
          1.58257149e-02, 0., 0., 0., 0., 0., 0., 0., 0., 0., 0., 0., 0.,
          0., 0., 0., 0., 0., 0., 0., 0., 0., 0., 0., 0., 0., 0., 0., 0.,
          0., 0., 0., 0., 0., 0., 0., 0., 0., 0., 0., 0., 0., 0., 0., 0.,
          0., 0., 0., 0., 0., 0., 0., 0., 6.33028569e-04, 1.26605714e-03,
          3.79817141e-03, 5.69725735e-03, 0., 0., 0., 0., 0., 0., 0., 0.,
          0., 0., 0., 0., 0., 0., 0., 0., 0., 0., 0., 0., 0., 0., 0., 0.,
          0., 0., 0., 0., 0., 0., 0., 0., 0., 0., 0., 0., 0., 0., 0., 0.,
          0., 0., 0., 0., 0., 0., 0., 0., 0., 0., 0., 0., 0., 0., 0., 0.,
          0., 0., 0., 0., 0., 6.33028569e-04, 1.26605714e-03,
          1.89908571e-03, 0., 0., 0., 0., 0., 1.89908575e-02,
          6.33028569e-04, 0., 0., 0., 0., 0., 0., 0., 0., 0., 0., 0., 0.,
          0., 0., 0., 0., 0., 0., 0., 0., 0., 0., 0., 0., 0., 0., 0., 0.,
          0., 0., 0., 0., 0., 0., 0., 0., 0., 0., 0., 0., 0., 0., 0., 0.,
          0., 0., 0., 0., 0., 0., 0., 0., 0., 5.69725735e-03,
          2.91193146e-02, 7.59634282e-03, 2.53211427e-03, 0., 0., 0., 0.,
          1.01284571e-02, 3.16514283e-01, 1.13312118e-01, 0., 0., 0., 0.,
          0., 2.53211427e-03, 1.34202063e-01, 5.95046878e-02, 0., 0., 0.,
          0., 0., 1.26605714e-03, 7.59634282e-03, 6.33028569e-04, 0., 0.,
          0., 0., 0., 0., 0., 0., 0., 0., 0., 0., 0., 0., 0., 0., 0., 0.,
          0., 0., 0., 0., 0., 0., 0., 0., 0., 0., 0., 0., 0., 0., 0., 0.,
          0., 0., 0., 0., 0., 0., 0., 0., 0., 0., 0., 0., 0., 0., 0., 0.,
          0., 0., 0., 0., 0., 0., 0., 0., 0., 0., 0., 0., 0., 0., 0., 0.,
          0., 0., 0., 0., 0., 0., 0., 0., 0., 0., 0., 0., 0., 0., 0., 0.,
          0., 0., 0., 0., 0., 0., 0., 0., 0., 0., 0., 0., 0., 0., 0., 0.,
          0., 0., 0., 0., 0., 0., 0., 0., 0., 0., 0., 0., 0., 0., 0., 0.,
          0., 0., 0., 0., 0., 0., 0., 0., 0., 0., 0., 0., 0., 0., 0., 0.,
          0., 0., 0., 0., 0., 0., 0., 0., 0., 0., 0., 0., 0., 0., 0., 0.,
          0., 0., 0., 0., 0., 0., 0., 0., 0., 0., 0., 0., 0., 0., 0. ]
      - [ 0., 0., 0., 0., 3.73811647e-02, 1.36233583e-01, 3.48890871e-02,
          2.65821610e-02, 0., 0., 0., 3.32277012e-03, 1.36233583e-01,
          1.33741498e-01, 6.64554015e-02, 2.74128541e-02, 0., 0., 0.,
          2.49207765e-03, 2.00196907e-01, 7.06088692e-02, 3.98732424e-02,
          3.82118560e-02, 0., 0., 0., 8.30692530e-04, 1.00513801e-01,
          7.80851021e-02, 5.06722443e-02, 1.57831591e-02, 0., 0., 0., 0.,
          1.07990028e-02, 4.73494753e-02, 2.15980057e-02, 2.32593920e-02,
          0., 0., 0., 0., 0., 0., 6.64554024e-03, 3.73811647e-02, 0., 0.,
          0., 0., 0., 0., 0., 9.13761836e-03, 0., 0., 0., 0., 0., 0., 0.,
          0., 0., 0., 0., 8.30692530e-04, 1.74445435e-02, 6.64554015e-02,
          1.07990028e-02, 1.57831591e-02, 0., 0., 0., 0., 2.49207765e-03,
          3.32277012e-03, 1.24603882e-02, 0., 0., 0., 0., 0., 0., 0., 0.,
          0., 0., 0., 0., 0., 0., 0., 0., 0., 0., 0., 0., 0., 0., 0., 0.,
          0., 0., 0., 0., 0., 0., 0., 0., 0., 0., 0., 0., 0., 0., 0., 0.,
          0., 0., 0., 0., 0., 0., 0., 0., 0., 0., 0., 0., 0.,
          3.98732424e-02, 2.11826593e-01, 9.13761836e-03, 3.90425511e-02,
          0., 0., 0., 0., 1.66138506e-03, 4.40267064e-02, 0., 0., 0., 0.,
          0., 0., 0., 0., 0., 0., 0., 0., 0., 0., 0., 0., 0., 0., 0., 0.,
          0., 0., 0., 0., 0., 0., 0., 0., 0., 0., 0., 0., 0., 0., 0., 0.,
          0., 0., 0., 0., 0., 0., 0., 0., 0., 0., 0., 0., 0., 0., 0., 0.,
          0., 0., 8.47306401e-02, 7.69221306e-01, 1.74445435e-02,
          4.73494753e-02, 0., 0., 0., 0., 1.99366212e-02, 2.66652316e-01,
          9.22068730e-02, 9.96831059e-03, 0., 0., 0., 0., 0.,
          1.91059280e-02, 6.64554024e-03, 0., 0., 0., 0., 0., 0., 0., 0.,
          0., 0., 0., 0., 0., 0., 0., 0., 0., 0., 0., 0., 0., 0., 0., 0.,
          0., 0., 0., 0., 0., 0., 0., 0., 0., 0., 0., 0., 0., 0., 0., 0.,
          0., 0., 0., 0., 0., 1.07159339e-01, 2.49207765e-01,
          1.66138506e-03, 4.98415530e-03, 0., 0., 0., 2.49207765e-03,
          2.82435473e-02, 2.65821610e-02, 0., 0., 0., 0., 0., 0., 0., 0.,
          0., 0., 0., 0., 0., 0., 0., 0., 0., 0., 0., 0., 0., 0., 0., 0.,
          0., 0., 0., 0., 0., 0., 0., 0., 0., 0., 0., 0., 0., 0., 0., 0.,
          0., 0., 0., 0., 0., 0., 0., 0., 0., 0., 0., 0., 0., 0.,
          6.81167915e-02, 1.64477125e-01, 9.13761836e-03, 3.32277012e-03,
          0., 0., 0., 3.32277012e-03, 1.17958345e-01, 7.55930245e-02,
          5.81484800e-03, 0., 0., 0., 0., 0., 7.47623295e-03,
          2.40900833e-02, 5.81484800e-03, 0., 0., 0., 0., 0., 0.,
          8.30692530e-04, 0., 0., 0., 0., 0., 0., 0., 0., 0., 0., 0., 0.,
          0., 0., 0., 0., 0., 0., 0., 0., 0., 0., 0., 0., 0., 0., 0., 0.,
          0., 0., 0., 0., 0., 0., 0., 0., 0., 0., 0., 0., 0., 0., 0., 0.,
          0., 0., 0., 0., 0., 0., 0., 0., 0., 0., 0., 0., 0., 0., 0., 0.,
          0., 0., 0., 0., 0., 0., 0., 0., 0., 0., 0., 0., 0., 0., 0., 0.,
          0., 0., 0., 0., 0., 0., 0., 0., 0., 0., 0., 0., 0., 0., 0., 0.,
          0., 0., 0., 0., 0., 0., 0., 0., 0., 0., 0., 0., 0., 0., 0., 0.,
          0., 0., 0., 0., 0., 0., 0., 0., 0., 0., 0., 0., 0., 0., 0., 0.,
          0., 0., 0., 0., 0., 0., 0., 0., 0., 0., 0., 0., 0., 0., 0., 0.,
          0., 0., 0., 0., 0., 0., 0., 0., 0., 0., 0., 0., 0., 0., 0., 0.,
          0., 0., 0., 0., 0., 0. ]
      - [ 0., 0., 2.15413445e-03, 2.87217926e-02, 6.89323023e-02,
          2.51315683e-02, 2.29774341e-02, 2.87217926e-03, 0., 0.,
          1.43608963e-03, 6.17518537e-02, 5.24172708e-02, 1.00526270e-02,
          2.29774341e-02, 2.15413445e-03, 0., 0., 0., 1.22067612e-02,
          4.66729105e-02, 3.30300592e-02, 2.01052539e-02, 2.15413445e-03,
          0., 0., 0., 0., 7.89849274e-03, 2.08232999e-02, 2.72857025e-02,
          7.18044816e-04, 0., 0., 0., 0., 0., 1.43608963e-02,
          9.33458190e-03, 2.15413445e-03, 0., 0., 0., 0., 0., 0.,
          5.74435852e-03, 0., 0., 0., 0., 0., 0., 0., 0., 0., 0., 0., 0.,
          0., 0., 0., 0., 0., 0., 0., 0., 5.02631348e-03, 1.65150296e-02,
          2.65676565e-02, 4.95450906e-02, 8.61653779e-03, 0., 0., 0., 0.,
          0., 2.87217926e-03, 2.15413445e-03, 0., 0., 0., 0., 0.,
          1.43608963e-03, 0., 0., 0., 0., 0., 0., 0., 0., 0., 0., 0., 0.,
          0., 0., 0., 0., 0., 0., 0., 0., 0., 0., 0., 0., 0., 0., 0., 0.,
          0., 0., 0., 0., 0., 0., 0., 0., 0., 0., 0., 0., 0., 0., 0., 0.,
          0., 0., 7.18044816e-03, 3.66202854e-02, 5.02631348e-03,
          2.01052539e-02, 2.51315683e-02, 0., 0., 0., 0., 7.18044816e-03,
          3.59022408e-03, 0., 0., 0., 0., 0., 0., 0., 0., 0., 0., 0., 0.,
          0., 0., 0., 0., 0., 0., 0., 0., 0., 0., 0., 0., 0., 0., 0., 0.,
          0., 0., 0., 0., 0., 0., 0., 0., 0., 0., 0., 0., 0., 0., 0., 0.,
          0., 0., 0., 0., 0., 0., 0., 0., 0., 2.94398367e-02,
          3.85590047e-01, 1.22785658e-01, 5.16992249e-02, 9.19097364e-02,
          0., 0., 7.18044816e-04, 4.23646420e-02, 3.88462245e-01,
          7.38868117e-01, 2.58496124e-02, 7.89849274e-03, 0., 0.,
          7.18044816e-04, 1.43608963e-02, 6.31879419e-02, 1.62278131e-01,
          2.22593881e-02, 0., 0., 0., 0., 0., 0., 7.18044816e-04, 0., 0.,
          0., 0., 0., 0., 0., 0., 0., 0., 0., 0., 0., 0., 0., 0., 0., 0.,
          0., 0., 0., 0., 0., 0., 0., 0., 0., 0., 0., 0., 0., 0., 0., 0.,
          0., 0., 7.18044816e-04, 4.95450906e-02, 2.04642773e-01,
          2.58496124e-02, 1.07706720e-02, 1.65150296e-02, 0., 0.,
          2.15413445e-03, 6.67781681e-02, 1.05552584e-01, 4.81090024e-02,
          0., 0., 0., 0., 0., 2.15413445e-03, 5.74435852e-03,
          7.18044816e-04, 0., 0., 0., 0., 0., 0., 0., 0., 0., 0., 0., 0.,
          0., 0., 0., 0., 0., 0., 0., 0., 0., 0., 0., 0., 0., 0., 0., 0.,
          0., 0., 0., 0., 0., 0., 0., 0., 0., 0., 0., 0., 0., 0., 0., 0.,
          7.18044816e-04, 1.22067612e-02, 5.45714051e-02, 7.18044816e-03,
          5.74435852e-03, 2.87217926e-03, 0., 0., 0., 3.30300592e-02,
          2.72857025e-02, 1.43608963e-03, 3.59022408e-03, 0., 0., 0., 0.,
          2.87217926e-03, 0., 5.74435852e-03, 0., 0., 0., 0., 0., 0.,
          7.18044816e-04, 7.18044816e-04, 0., 0., 0., 0., 0., 0., 0., 0.,
          0., 0., 0., 0., 0., 0., 0., 0., 0., 0., 0., 0., 0., 0., 0., 0.,
          0., 0., 0., 0., 0., 0., 0., 0., 0., 0., 0., 0., 0., 0., 0., 0.,
          0., 0., 0., 0., 0., 0., 0., 0., 0., 0., 0., 0., 0., 0., 0., 0.,
          0., 0., 0., 0., 0., 0., 0., 0., 0., 0., 0., 0., 0., 0., 0., 0.,
          0., 0., 0., 0., 0., 0., 0., 0., 0., 0., 0., 0., 0., 0., 0., 0.,
          0., 0., 0., 0., 0., 0., 0., 0., 0., 0., 0., 0., 0., 0., 0., 0.,
          0., 0., 0., 0., 0., 0., 0., 0., 0., 0., 0., 0., 0., 0., 0., 0.,
          0., 0., 0., 0., 0., 0., 0., 0., 0., 0., 0., 0., 0., 0., 0., 0.,
          0., 0., 0., 0., 0., 0., 0., 0., 0., 0., 0., 0., 0., 0., 0., 0.,
          0., 0., 0., 0., 0., 0., 0., 0., 0., 0. ]
      - [ 0., 0., 0., 1.52346762e-02, 1.66735068e-01, 4.40112837e-02,
          2.03129016e-02, 5.33213653e-02, 0., 0., 4.23185434e-03,
          2.96229813e-02, 3.88484240e-01, 2.97922552e-01, 5.16286232e-02,
          5.07822540e-03, 0., 0., 8.46370868e-03, 5.16286232e-02,
          3.60553980e-01, 1.54039502e-01, 3.55475768e-02, 3.38548352e-03,
          0., 0., 4.23185434e-03, 3.13157216e-02, 1.08335473e-01,
          1.86201595e-02, 2.03129016e-02, 9.31007974e-03, 0., 0., 0.,
          5.92459599e-03, 4.31649163e-02, 2.45447550e-02, 1.35419341e-02,
          1.69274176e-03, 0., 0., 0., 0., 0., 5.92459599e-03,
          4.23185434e-03, 0., 0., 0., 0., 0., 0., 0., 0., 0., 0., 0., 0.,
          0., 0., 0., 0., 0., 0., 0., 0., 8.46370880e-04, 2.45447550e-02,
          3.38548352e-03, 1.69274176e-03, 4.23185434e-03, 0., 0.,
          2.53911270e-03, 1.69274176e-03, 0., 0., 0., 0., 0., 0.,
          2.53911270e-03, 2.53911270e-03, 0., 0., 0., 0., 0., 0., 0., 0.,
          0., 0., 0., 0., 0., 0., 0., 0., 0., 0., 0., 0., 0., 0., 0., 0.,
          0., 0., 0., 0., 0., 0., 0., 0., 0., 0., 0., 0., 0., 0., 0., 0.,
          0., 0., 0., 0., 0., 0., 0., 9.31007974e-03, 6.26314431e-02, 0.,
          0., 2.53911270e-03, 0., 0., 0., 0., 0., 0., 0., 0., 0., 0., 0.,
          0., 0., 0., 0., 0., 0., 0., 0., 0., 0., 0., 0., 0., 0., 0., 0.,
          0., 0., 0., 0., 0., 0., 0., 0., 0., 0., 0., 0., 0., 0., 0., 0.,
          0., 0., 0., 0., 0., 0., 0., 0., 0., 0., 0., 0., 0., 0., 0., 0.,
          2.53911270e-03, 1.76045135e-01, 6.85560405e-02, 0.,
          8.46370880e-04, 0., 0., 0., 0., 2.53911270e-03, 4.82431389e-02,
          0., 0., 0., 0., 0., 0., 0., 0., 0., 0., 0., 0., 0., 0., 0., 0.,
          0., 0., 0., 0., 0., 0., 0., 0., 0., 0., 0., 0., 0., 0., 0., 0.,
          0., 0., 0., 0., 0., 0., 0., 0., 0., 0., 0., 0., 0., 0., 0., 0.,
          0., 0., 0., 0., 0., 2.53911261e-02, 4.34188247e-01,
          2.45447550e-02, 0., 2.53911270e-03, 0., 0., 0., 1.26955630e-02,
          1.10874586e-01, 8.46370868e-03, 0., 0., 0., 0., 0., 0., 0., 0.,
          0., 0., 0., 0., 0., 0., 0., 0., 0., 0., 0., 0., 0., 0., 0., 0.,
          0., 0., 0., 0., 0., 0., 0., 0., 0., 0., 0., 0., 0., 0., 0., 0.,
          0., 0., 0., 0., 0., 0., 0., 0., 0., 0., 0., 0., 0.,
          1.10028209e-02, 2.35291108e-01, 3.04693524e-02, 2.53911270e-03,
          1.26955630e-02, 0., 0., 0., 1.03257246e-01, 4.23185438e-01,
          2.36137480e-01, 0., 0., 0., 0., 0., 1.01564508e-02,
          4.06258032e-02, 2.45447550e-02, 0., 0., 0., 0., 0., 0., 0., 0.,
          0., 0., 0., 0., 0., 0., 0., 0., 0., 0., 0., 0., 0., 0., 0., 0.,
          0., 0., 0., 0., 0., 0., 0., 0., 0., 0., 0., 0., 0., 0., 0., 0.,
          0., 0., 0., 0., 0., 0., 0., 0., 0., 0., 0., 0., 0., 0., 0., 0.,
          0., 0., 0., 0., 0., 0., 0., 0., 0., 0., 0., 0., 0., 0., 0., 0.,
          0., 0., 0., 0., 0., 0., 0., 0., 0., 0., 0., 0., 0., 0., 0., 0.,
          0., 0., 0., 0., 0., 0., 0., 0., 0., 0., 0., 0., 0., 0., 0., 0.,
          0., 0., 0., 0., 0., 0., 0., 0., 0., 0., 0., 0., 0., 0., 0., 0.,
          0., 0., 0., 0., 0., 0., 0., 0., 0., 0., 0., 0., 0., 0., 0., 0.,
          0., 0., 0., 0., 0., 0., 0., 0., 0., 0., 0., 0., 0., 0., 0., 0.,
          0., 0., 0., 0., 0., 0., 0., 0., 0., 0., 0., 0., 0., 0., 0., 0.,
          0., 0. ]
      - [ 0., 0., 0., 3.13426740e-03, 6.16405942e-02, 2.44472861e-01,
          8.98490027e-02, 1.03430830e-01, 0., 0., 0., 1.04475580e-03,
          7.94014409e-02, 2.53875673e-01, 1.08654611e-01, 4.38797437e-02,
          0., 0., 0., 3.13426740e-03, 7.20881522e-02, 2.04772145e-01,
          1.14923142e-01, 3.86559665e-02, 0., 0., 0., 3.13426740e-03,
          4.17902321e-02, 1.47310570e-01, 1.14923142e-01, 4.80587669e-02,
          0., 0., 0., 2.08951160e-03, 7.31329108e-03, 4.28349897e-02,
          5.64168170e-02, 1.46265822e-02, 0., 0., 0., 0., 0.,
          7.31329108e-03, 7.31329108e-03, 5.22377901e-03, 0., 0., 0., 0.,
          0., 0., 0., 0., 0., 0., 0., 0., 0., 0., 0., 0., 0., 0., 0., 0.,
          5.22377901e-03, 1.18057407e-01, 2.71636527e-02, 2.61188950e-02,
          0., 0., 0., 0., 1.04475580e-03, 1.04475580e-02, 4.17902321e-03,
          2.08951160e-03, 0., 0., 0., 0., 0., 0., 0., 0., 0., 0., 0., 0.,
          0., 0., 0., 0., 0., 0., 0., 0., 0., 0., 0., 0., 0., 0., 0., 0.,
          0., 0., 0., 0., 0., 0., 0., 0., 0., 0., 0., 0., 0., 0., 0., 0.,
          0., 0., 0., 0., 0., 0., 0., 0., 3.13426740e-03, 1.94324583e-01,
          3.23874317e-02, 1.17012657e-01, 0., 0., 0., 0., 0.,
          2.19398718e-02, 1.88056044e-02, 5.22377901e-03, 0., 0., 0., 0.,
          0., 1.04475580e-03, 2.08951160e-03, 1.04475580e-03, 0., 0., 0.,
          0., 0., 0., 0., 0., 0., 0., 0., 0., 0., 0., 0., 0., 0., 0., 0.,
          0., 0., 0., 0., 0., 0., 0., 0., 0., 0., 0., 0., 0., 0., 0., 0.,
          0., 0., 0., 0., 0., 0., 0., 0., 0., 1.77608486e-02,
          4.14768070e-01, 3.65664542e-01, 1.10744119e-01, 0., 0., 0., 0.,
          3.13426740e-03, 6.79091290e-02, 2.83128828e-01, 1.04475580e-03,
          0., 0., 0., 0., 0., 5.22377901e-03, 2.29846276e-02,
          2.61188950e-02, 0., 0., 0., 0., 0., 0., 0., 7.31329108e-03, 0.,
          0., 0., 0., 0., 0., 0., 0., 0., 0., 0., 0., 0., 0., 0., 0., 0.,
          0., 0., 0., 0., 0., 0., 0., 0., 0., 0., 0., 0., 0., 0., 0., 0.,
          0., 0., 0., 3.86559665e-02, 3.65664542e-01, 4.80587669e-02,
          3.13426740e-02, 0., 0., 0., 1.04475580e-03, 1.46265822e-02,
          5.74615709e-02, 3.23874317e-02, 0., 0., 0., 0., 0., 0., 0., 0.,
          0., 0., 0., 0., 0., 0., 0., 0., 0., 0., 0., 0., 0., 0., 0., 0.,
          0., 0., 0., 0., 0., 0., 0., 0., 0., 0., 0., 0., 0., 0., 0., 0.,
          0., 0., 0., 0., 0., 0., 0., 0., 0., 0., 0., 0., 0.,
          3.76112089e-02, 2.84173578e-01, 4.70140129e-02, 1.25370696e-02,
          0., 0., 0., 5.22377901e-03, 5.11930361e-02, 1.38952523e-01,
          2.61188950e-02, 0., 0., 0., 0., 0., 2.29846276e-02,
          5.22377901e-02, 1.14923138e-02, 0., 0., 0., 0., 0.,
          1.04475580e-03, 1.04475580e-03, 0., 0., 0., 0., 0., 0., 0., 0.,
          0., 0., 0., 0., 0., 0., 0., 0., 0., 0., 0., 0., 0., 0., 0., 0.,
          0., 0., 0., 0., 0., 0., 0., 0., 0., 0., 0., 0., 0., 0., 0., 0.,
          0., 0., 0., 0., 0., 0., 0., 0., 0., 0., 0., 0., 0., 0., 0., 0.,
          0., 0., 0., 0., 0., 0., 0., 0., 0., 0., 0., 0., 0., 0., 0., 0.,
          0., 0., 0., 0., 0., 0., 0., 0., 0., 0., 0., 0., 0., 0., 0., 0.,
          0., 0., 0., 0., 0., 0., 0., 0., 0., 0., 0., 0., 0., 0., 0., 0.,
          0., 0., 0., 0., 0., 0., 0., 0., 0., 0., 0., 0., 0., 0., 0., 0.,
          0., 0., 0., 0., 0., 0., 0., 0., 0., 0., 0., 0., 0., 0., 0., 0.,
          0., 0., 0., 0., 0., 0., 0., 0., 0., 0., 0., 0., 0., 0., 0., 0.,
          0., 0., 0., 0., 0., 0., 0., 0., 0., 0. ]
      - [ 0., 0., 9.20080347e-04, 0., 1.01208843e-01, 6.07253052e-02,
          6.44056266e-03, 9.20080394e-03, 0., 0., 0., 4.60040197e-03,
          1.37091979e-01, 2.54862249e-01, 1.47212856e-02, 9.20080347e-04,
          0., 0., 1.84016069e-03, 1.38012059e-02, 2.24499613e-01,
          5.22605658e-01, 1.01208845e-02, 0., 0., 0., 8.28072336e-03,
          9.20080394e-03, 1.00288764e-01, 3.57911259e-01, 1.28811253e-02,
          0., 0., 0., 5.52048208e-03, 1.56413671e-02, 4.04835381e-02,
          1.93216875e-01, 8.28072336e-03, 0., 0., 0., 5.52048208e-03,
          9.20080347e-04, 9.20080394e-03, 4.60040197e-03, 0., 0., 0., 0.,
          1.84016069e-03, 0., 0., 0., 0., 0., 0., 0., 0., 0., 0., 0., 0.,
          0., 0., 0., 0., 9.20080347e-04, 6.44056266e-03, 1.28811253e-02,
          7.36064278e-03, 0., 0., 0., 0., 9.20080347e-04, 5.52048208e-03,
          6.44056266e-03, 0., 0., 0., 0., 0., 2.76024104e-03,
          1.84016069e-03, 0., 0., 0., 0., 0., 0., 0., 0., 0., 0., 0., 0.,
          0., 0., 0., 0., 0., 0., 0., 0., 0., 0., 0., 0., 0., 0., 0., 0.,
          0., 0., 0., 0., 0., 0., 0., 0., 0., 0., 0., 0., 0., 0., 0., 0.,
          0., 0., 0., 1.65614467e-02, 2.66823303e-02, 2.57622506e-02,
          9.20080394e-03, 0., 0., 0., 9.20080347e-04, 9.20080347e-04,
          2.48421691e-02, 1.65614467e-02, 4.60040197e-03, 0., 0., 0., 0.,
          0., 0., 0., 0., 0., 0., 0., 0., 0., 0., 0., 0., 0., 0., 0., 0.,
          0., 0., 0., 0., 0., 0., 0., 0., 0., 0., 0., 0., 0., 0., 0., 0.,
          0., 0., 0., 0., 0., 0., 0., 0., 0., 0., 0., 0., 0., 0.,
          9.20080347e-04, 0., 3.03626526e-02, 9.56883579e-02,
          1.38012059e-02, 1.47212856e-02, 0., 0., 0., 0., 1.76655427e-01,
          3.95634562e-01, 5.33646606e-02, 2.76024104e-03, 0., 0., 0., 0.,
          0., 1.53653428e-01, 2.04257846e-01, 1.84016069e-03, 0., 0., 0.,
          0., 0., 1.84016069e-03, 2.11618487e-02, 0., 0., 0., 0., 0., 0.,
          0., 0., 0., 0., 0., 0., 0., 0., 0., 0., 0., 0., 0., 0., 0., 0.,
          0., 0., 0., 0., 0., 0., 0., 0., 0., 0., 0., 0., 0.,
          9.20080347e-04, 4.60040197e-03, 8.64875540e-02, 7.17662722e-02,
          1.84016069e-03, 0., 0., 0., 2.76024104e-03, 1.84016069e-03,
          8.64875540e-02, 3.77232954e-02, 0., 0., 0., 0., 0., 0., 0.,
          9.20080347e-04, 0., 0., 0., 0., 0., 0., 0., 0., 0., 0., 0., 0.,
          0., 0., 0., 0., 0., 0., 0., 0., 0., 0., 0., 0., 0., 0., 0., 0.,
          0., 0., 0., 0., 0., 0., 0., 0., 0., 0., 0., 0., 0., 0., 0., 0.,
          0., 1.84016069e-03, 4.41638567e-02, 1.55493587e-01,
          1.84016069e-03, 0., 0., 0., 1.84016069e-03, 9.20080347e-04,
          1.43532544e-01, 2.30020091e-01, 1.84016069e-03, 0., 0., 0.,
          3.68032139e-03, 5.52048208e-03, 5.24445809e-02, 7.91269094e-02,
          3.68032139e-03, 0., 0., 0., 0., 1.84016069e-03, 3.68032139e-03,
          6.44056266e-03, 0., 0., 0., 0., 0., 0., 0., 0., 0., 0., 0., 0.,
          0., 0., 0., 0., 0., 0., 0., 0., 0., 0., 0., 0., 0., 0., 0., 0.,
          0., 0., 0., 0., 0., 0., 0., 0., 0., 0., 0., 0., 0., 0., 0., 0.,
          0., 0., 0., 0., 0., 0., 0., 0., 0., 0., 0., 0., 0., 0., 0., 0.,
          0., 0., 0., 0., 0., 0., 0., 0., 0., 0., 0., 0., 0., 0., 0., 0.,
          0., 0., 0., 0., 0., 0., 0., 0., 0., 0., 0., 0., 0., 0., 0., 0.,
          0., 0., 0., 0., 0., 0., 0., 0., 0., 0., 0., 0., 0., 0., 0., 0.,
          0., 0., 0., 0., 0., 0., 0., 0., 0., 0., 0., 0., 0., 0., 0., 0.,
          0., 0., 0., 0., 0., 0., 0., 0., 0., 0., 0., 0., 0., 0., 0., 0.,
          0., 0., 0., 0., 0., 0., 0., 0., 0., 0., 0., 0., 0., 0., 0., 0.,
          0., 0., 0., 0., 0., 0. ]
      - [ 0., 0., 0., 2.15361197e-03, 1.61520892e-03, 1.07680596e-02,
          2.15361197e-03, 2.15361193e-02, 0., 0., 0., 1.61520892e-03,
          1.13064628e-02, 1.38907969e-01, 4.84562665e-02, 2.79969554e-02,
          0., 0., 0., 5.92243299e-03, 3.17657776e-02, 1.92748263e-01,
          3.23041789e-02, 1.56136863e-02, 0., 0., 0., 3.76882078e-03,
          4.09186259e-02, 2.73508728e-01, 1.15756638e-01, 7.53764156e-03,
          0., 0., 0., 1.61520892e-03, 5.27634919e-02, 8.22679758e-01,
          3.58037978e-01, 3.23041785e-03, 0., 0., 0., 5.38402994e-04,
          1.50752831e-02, 1.78211391e-01, 7.10691959e-02, 0., 0., 0., 0.,
          0., 5.38402994e-04, 1.72288958e-02, 0., 0., 0., 0., 0., 0., 0.,
          0., 0., 0., 0., 0., 0., 0., 2.69201491e-03, 0., 2.15361197e-03,
          1.61520892e-03, 0., 0., 0., 5.38402994e-04, 2.15361197e-03,
          2.69201491e-03, 2.69201491e-03, 1.07680599e-03, 0., 0., 0., 0.,
          5.38402994e-04, 0., 0., 0., 0., 0., 0., 5.38402994e-04, 0., 0.,
          0., 0., 0., 0., 0., 0., 0., 0., 0., 0., 0., 0., 0., 0., 0., 0.,
          0., 0., 0., 0., 0., 0., 0., 0., 0., 0., 0., 0., 0., 0., 0., 0.,
          0., 0., 0., 0., 0., 0., 1.61520892e-03, 5.38402982e-03,
          3.76882078e-03, 0., 0., 0., 0., 0., 5.38402994e-04,
          5.38402994e-04, 6.99923886e-03, 1.61520895e-02, 0., 0., 0., 0.,
          0., 0., 0., 1.61520892e-03, 0., 0., 0., 0., 0., 0., 0., 0., 0.,
          0., 0., 0., 0., 0., 0., 0., 0., 0., 0., 0., 0., 0., 0., 0., 0.,
          0., 0., 0., 0., 0., 0., 0., 0., 0., 0., 0., 0., 0., 0., 0., 0.,
          0., 0., 0., 5.38402994e-04, 7.53764156e-03, 1.07680599e-03,
          5.38402994e-04, 0., 0., 0., 0., 0., 5.92243299e-03,
          1.61520892e-03, 0., 0., 0., 0., 0., 0., 0., 0., 0., 0., 0., 0.,
          0., 0., 0., 0., 0., 0., 0., 0., 0., 0., 0., 0., 0., 0., 0., 0.,
          0., 0., 0., 0., 0., 0., 0., 0., 0., 0., 0., 0., 0., 0., 0., 0.,
          0., 0., 0., 0., 0., 0., 0., 0., 0., 4.30722395e-03,
          1.72288958e-02, 0., 0., 0., 0., 0., 0., 0., 2.15361197e-03, 0.,
          0., 0., 0., 0., 0., 0., 0., 0., 0., 0., 0., 0., 0., 0., 0., 0.,
          0., 0., 0., 0., 0., 0., 0., 0., 0., 0., 0., 0., 0., 0., 0., 0.,
          0., 0., 0., 0., 0., 0., 0., 0., 0., 0., 0., 0., 0., 0., 0., 0.,
          0., 0., 0., 0., 0., 1.07680599e-03, 2.47665364e-02, 0.,
          5.38402982e-03, 0., 0., 0., 5.38402994e-04, 6.99923886e-03,
          2.74585523e-02, 1.61520892e-03, 0., 0., 0., 0., 0.,
          5.38402982e-03, 1.07680599e-03, 0., 0., 0., 0., 0., 0., 0., 0.,
          0., 0., 0., 0., 0., 0., 0., 0., 0., 0., 0., 0., 0., 0., 0., 0.,
          0., 0., 0., 0., 0., 0., 0., 0., 0., 0., 0., 0., 0., 0., 0., 0.,
          0., 0., 0., 0., 0., 0., 0., 0., 0., 0., 0., 0., 0., 0., 0., 0.,
          0., 0., 0., 0., 0., 0., 0., 0., 0., 0., 0., 0., 0., 0., 0., 0.,
          0., 0., 0., 0., 0., 0., 0., 0., 0., 0., 0., 0., 0., 0., 0., 0.,
          0., 0., 0., 0., 0., 0., 0., 0., 0., 0., 0., 0., 0., 0., 0., 0.,
          0., 0., 0., 0., 0., 0., 0., 0., 0., 0., 0., 0., 0., 0., 0., 0.,
          0., 0., 0., 0., 0., 0., 0., 0., 0., 0., 0., 0., 0., 0., 0., 0.,
          0., 0., 0., 0., 0., 0., 0., 0., 0., 0., 0., 0., 0., 0., 0., 0.,
          0., 0., 0., 0., 0., 0., 0., 0., 0., 0., 0., 0., 0., 0., 0., 0.,
          0., 0. ]
      - [ 0., 0., 0., 0., 4.86538134e-04, 2.43269070e-03, 9.73076269e-04,
          4.52480465e-02, 0., 0., 0., 4.86538134e-04, 4.86538140e-03,
          7.78461015e-03, 2.18942147e-02, 4.37884293e-02, 0., 0., 0.,
          9.73076269e-04, 6.81153359e-03, 2.43269056e-02, 4.13557403e-02,
          5.05999662e-02, 0., 0., 0., 0., 4.86538140e-03, 2.67595965e-02,
          7.44403303e-02, 4.08692025e-02, 0., 0., 0., 9.73076269e-04,
          4.86538140e-03, 3.25980559e-02, 1.48394123e-01, 3.32792073e-01,
          0., 0., 0., 9.73076269e-04, 5.35191922e-03, 1.89749859e-02,
          5.43949604e-01, 7.41484106e-01, 0., 0., 0., 9.73076269e-04,
          2.43269070e-03, 8.75768624e-03, 3.06519009e-02, 3.69768962e-02,
          0., 0., 0., 0., 0., 0., 0., 0., 0., 0., 0., 0., 0., 0.,
          4.86538134e-04, 3.40576679e-03, 0., 0., 0., 0., 4.86538134e-04,
          4.86538134e-04, 3.89230507e-03, 4.37884312e-03, 0., 0., 0., 0.,
          0., 0., 0., 0., 0., 0., 0., 0., 0., 0., 0., 0., 0., 0., 0., 0.,
          0., 0., 0., 0., 0., 0., 0., 0., 0., 0., 0., 0., 0., 0., 0., 0.,
          0., 0., 0., 0., 0., 0., 0., 0., 0., 0., 0., 0., 0., 0., 0., 0.,
          9.73076269e-04, 1.45961437e-03, 4.86538134e-04, 4.86538134e-04,
          0., 0., 0., 0., 0., 0., 0., 0., 0., 0., 0., 0., 0., 0., 0., 0.,
          0., 0., 0., 0., 0., 0., 0., 0., 0., 0., 0., 0., 0., 0., 0., 0.,
          0., 0., 0., 0., 0., 0., 0., 0., 0., 0., 0., 0., 0., 0., 0., 0.,
          0., 0., 0., 0., 0., 0., 0., 0., 0., 0., 0., 0., 4.86538134e-04,
          4.86538134e-04, 4.86538134e-04, 1.94615254e-03, 0., 0., 0., 0.,
          9.73076269e-04, 1.94615254e-03, 0., 0., 0., 0., 0., 0., 0.,
          4.86538134e-04, 0., 0., 0., 0., 0., 0., 0., 0., 0., 0., 0., 0.,
          0., 0., 0., 0., 0., 0., 0., 0., 0., 0., 0., 0., 0., 0., 0., 0.,
          0., 0., 0., 0., 0., 0., 0., 0., 0., 0., 0., 0., 0., 0., 0., 0.,
          0., 0., 2.91922875e-03, 4.86538134e-04, 0., 2.91922875e-03, 0.,
          0., 2.43269070e-03, 1.45961437e-03, 0., 0., 0., 0., 0., 0., 0.,
          0., 0., 0., 0., 0., 0., 0., 0., 0., 0., 0., 0., 0., 0., 0., 0.,
          0., 0., 0., 0., 0., 0., 0., 0., 0., 0., 0., 0., 0., 0., 0., 0.,
          0., 0., 0., 0., 0., 0., 0., 0., 0., 0., 0., 0., 0., 0., 0., 0.,
          0., 1.45961437e-03, 4.86538134e-04, 0., 1.07038384e-02, 0., 0.,
          0., 2.91922875e-03, 3.89230507e-03, 2.43269070e-03,
          4.86538134e-04, 9.73076269e-04, 0., 0., 4.86538134e-04,
          3.40576679e-03, 2.91922875e-03, 4.37884312e-03, 0., 0., 0., 0.,
          0., 0., 1.45961437e-03, 2.43269070e-03, 1.94615254e-03, 0., 0.,
          0., 0., 0., 0., 4.86538134e-04, 4.86538134e-04, 0., 0., 0., 0.,
          0., 0., 0., 0., 0., 0., 0., 0., 0., 0., 0., 0., 0., 0., 0., 0.,
          0., 0., 0., 0., 0., 0., 0., 0., 0., 0., 0., 0., 0., 0., 0., 0.,
          0., 0., 0., 0., 0., 0., 0., 0., 0., 0., 0., 0., 0., 0., 0., 0.,
          0., 0., 0., 0., 0., 0., 0., 0., 0., 0., 0., 0., 0., 0., 0., 0.,
          0., 0., 0., 0., 0., 0., 0., 0., 0., 0., 0., 0., 0., 0., 0., 0.,
          0., 0., 0., 0., 0., 0., 0., 0., 0., 0., 0., 0., 0., 0., 0., 0.,
          0., 0., 0., 0., 0., 0., 0., 0., 0., 0., 0., 0., 0., 0., 0., 0.,
          0., 0., 0., 0., 0., 0., 0., 0., 0., 0., 0., 0., 0., 0., 0., 0.,
          0., 0., 0., 0., 0., 0., 0., 0., 0., 0., 0., 0., 0., 0., 0., 0.,
          0., 0., 0., 0., 0. ]
      - [ 0., 0., 1.39541144e-03, 4.88393987e-03, 3.06990519e-02,
          1.74426436e-02, 1.39541142e-02, 2.79082288e-03, 0., 0., 0.,
          6.97705708e-03, 5.51187508e-02, 2.93036401e-02, 1.18609974e-02,
          5.58164576e-03, 0., 0., 0., 6.97705720e-04, 4.81416956e-02,
          3.69784012e-02, 2.30242889e-02, 3.48852854e-03, 0., 0., 0.,
          2.09311722e-03, 1.25587024e-02, 1.88380536e-02, 2.58151107e-02,
          5.58164576e-03, 0., 0., 0., 1.39541144e-03, 6.97705720e-04,
          1.39541144e-03, 4.88393987e-03, 2.02334654e-02, 0., 0., 0., 0.,
          0., 0., 0., 2.65128165e-02, 0., 0., 0., 0., 0., 0., 0.,
          6.27935119e-03, 0., 0., 0., 0., 0., 0., 0., 0., 0., 0., 0., 0.,
          1.11632915e-02, 1.11632915e-02, 2.09311722e-03, 1.11632915e-02,
          0., 0., 0., 0., 4.18623444e-03, 6.97705708e-03, 2.09311722e-03,
          2.09311722e-03, 0., 0., 0., 1.39541144e-03, 2.79082288e-03,
          2.79082288e-03, 0., 0., 0., 0., 0., 0., 0., 0., 0., 0., 0., 0.,
          0., 0., 0., 0., 0., 0., 0., 0., 0., 0., 0., 0., 0., 0., 0., 0.,
          0., 0., 0., 0., 0., 0., 0., 0., 0., 0., 0., 0., 0., 0., 0., 0.,
