%YAML:1.0
---
opencv_ml_svm:
   format: 3
   svmType: C_SVC
   kernel:
      type: RBF
      gamma: 5.
   C: 5.
   term_criteria: { epsilon:1.1920928955078125e-07, iterations:1000 }
   var_count: 514
   class_count: 2
   class_labels: !!opencv-matrix
      rows: 2
      cols: 1
      dt: i
      data: [ 0, 1 ]
   sv_total: 589
   support_vectors:
      - [ 0., 0., 0., 0., 4.58101071e-02, 9.55467895e-02, 1.30886014e-03,
          2.61772028e-03, 0., 0., 0., 6.54430070e-04, 1.45283476e-01,
          4.97366875e-01, 1.34158164e-01, 9.16202087e-03, 0., 0., 0., 0.,
          1.62298664e-01, 6.93041444e-01, 1.17797412e-01, 5.23544056e-03,
          0., 0., 0., 0., 1.06672101e-01, 2.47374564e-01, 1.23687282e-01,
          1.24341715e-02, 0., 0., 0., 0., 2.35594828e-02, 9.42379311e-02,
          1.06017672e-01, 7.85316061e-03, 0., 0., 0., 0., 1.37430318e-02,
          1.19760707e-01, 9.42379311e-02, 5.88987069e-03, 0., 0., 0., 0.,
          6.54430070e-04, 7.13328794e-02, 6.54430091e-02, 1.63607523e-02,
          0., 0., 0., 0., 0., 3.92658031e-03, 8.50759074e-03,
          3.27215041e-03, 0., 0., 0., 0., 4.25379537e-02, 8.70392025e-02,
          0., 1.17797414e-02, 0., 0., 0., 0., 2.68316325e-02,
          7.98404664e-02, 3.27215041e-03, 0., 0., 0., 0., 0., 0.,
          2.61772028e-03, 0., 0., 0., 0., 0., 0., 0., 0., 0., 0., 0., 0.,
          0., 0., 0., 0., 0., 0., 0., 0., 0., 0., 0., 0., 0., 0., 0., 0.,
          0., 0., 0., 0., 0., 0., 0., 0., 0., 0., 0., 0., 0., 0., 0., 0.,
          0., 0., 9.16202087e-03, 1.38739184e-01, 0., 2.42139138e-02, 0.,
          0., 0., 0., 6.54430070e-04, 1.37430318e-02, 0., 5.23544056e-03,
          0., 0., 0., 0., 0., 0., 0., 0., 0., 0., 0., 0., 0., 0., 0., 0.,
          0., 0., 0., 0., 0., 0., 0., 0., 0., 0., 0., 0., 0., 0., 0., 0.,
          0., 0., 0., 0., 0., 0., 0., 0., 0., 0., 0., 0., 0., 0., 0., 0.,
          0., 0., 0., 0., 1.89784728e-02, 3.86113748e-02, 0., 0., 0., 0.,
          0., 0., 0., 8.50759074e-03, 0., 6.54430070e-04, 0., 0., 0., 0.,
          0., 0., 0., 0., 0., 0., 0., 0., 0., 0., 0., 0., 0., 0., 0., 0.,
          0., 0., 0., 4.58101043e-03, 0., 0., 0., 0., 0., 0., 0.,
          3.92658031e-03, 0., 0., 0., 0., 0., 0., 0., 0., 0., 0., 0., 0.,
          0., 0., 0., 0., 0., 0., 0., 0., 0., 2.61772028e-03, 0., 0., 0.,
          0., 0., 0., 2.61772028e-03, 0., 0., 0., 0., 0., 0., 0., 0., 0.,
          0., 0., 0., 0., 0., 0., 0., 2.61772028e-03, 2.61772028e-03, 0.,
          0., 0., 0., 0., 0., 1.30886014e-03, 3.92658031e-03,
          5.88987069e-03, 0., 0., 0., 0., 0., 1.30886014e-03,
          1.30886014e-03, 1.43974619e-02, 0., 0., 0., 0., 0., 0., 0., 0.,
          0., 0., 0., 0., 0., 0., 0., 0., 0., 0., 0., 0., 1.96329015e-03,
          2.55227741e-02, 0., 1.30886014e-03, 0., 0., 0., 0.,
          6.54430070e-04, 3.92658031e-03, 0., 0., 0., 0., 0., 0.,
          1.30886014e-03, 0., 0., 0., 0., 0., 0., 0., 0., 6.54430070e-04,
          0., 0., 0., 0., 0., 0., 0., 1.96329015e-03, 0., 0., 0., 0., 0.,
          0., 0., 0., 0., 0., 0., 0., 0., 0., 0., 0., 0., 0., 0., 0., 0.,
          0., 0., 0., 0., 0., 0., 0., 0., 0., 0., 0., 0., 0., 0., 0., 0.,
          0., 0., 0., 0., 0., 0., 0., 0., 0., 0., 0., 0., 0., 0., 0., 0.,
          0., 0., 0., 0., 0., 0., 0., 0., 0., 0., 0., 0., 0., 0., 0., 0.,
          0., 0., 0., 0., 0., 0., 0., 0., 0., 0., 0., 0., 0., 0., 0., 0.,
          0., 0., 0., 0., 0., 0., 0., 0., 0., 0., 0., 0., 0., 0., 0., 0.,
          0., 0., 0., 0., 0., 0., 0., 0., 0., 0., 0., 0., 0., 0., 0., 0.,
          0., 0., 0., 0., 0., 0., 0., 0., 0., 0., 0., 0., 0., 0., 0., 0.,
          0., 0., 0., 0., 0., 0., 0., 0., 0., 0., 0., 0., 0., 0., 0., 0.,
          0., 0., 0., 0., 0., 3.17647070e-01, 8.39215696e-01 ]
      - [ 0., 0., 0., 2.91047269e-03, 6.62132576e-02, 3.50711972e-01,
          1.23695089e-02, 2.91047269e-03, 0., 0., 0., 7.27618171e-04,
          9.38627496e-02, 4.21290934e-01, 8.73141810e-02, 0., 0., 0., 0.,
          2.18285457e-03, 6.91237301e-02, 3.66719574e-01, 7.05789626e-02,
          1.45523634e-03, 0., 0., 0., 0., 3.12875807e-02, 1.17146529e-01,
          3.56532931e-02, 0., 0., 0., 0., 0., 9.45903640e-03,
          2.32837815e-02, 3.49256732e-02, 0., 0., 0., 0., 0.,
          1.45523634e-03, 8.73141829e-03, 6.18475452e-02, 5.09332726e-03,
          0., 0., 0., 0., 0., 1.52799822e-02, 3.92913818e-02,
          5.82094537e-03, 0., 0., 0., 0., 0., 2.18285457e-03,
          2.91047269e-03, 0., 0., 0., 0., 0., 9.45903640e-03,
          2.67035872e-01, 1.23695089e-02, 7.27618206e-03, 0., 0., 0., 0.,
          1.45523634e-03, 2.40113996e-02, 7.27618206e-03, 0., 0., 0., 0.,
          0., 0., 0., 1.45523634e-03, 0., 0., 0., 0., 0., 0., 0., 0., 0.,
          0., 0., 0., 0., 0., 0., 0., 0., 0., 0., 0., 0., 0., 0., 0., 0.,
          0., 0., 0., 0., 0., 0., 0., 0., 0., 0., 0., 0., 0., 0., 0., 0.,
          0., 0., 0., 0., 3.12875807e-02, 3.17969143e-01, 4.43847105e-02,
          3.78361456e-02, 0., 0., 0., 0., 0., 2.32837815e-02,
          5.82094537e-03, 2.18285457e-03, 0., 0., 0., 0., 0., 0., 0., 0.,
          0., 0., 0., 0., 0., 0., 0., 0., 0., 0., 0., 0., 0., 0., 0., 0.,
          0., 0., 0., 0., 0., 0., 0., 0., 0., 0., 0., 0., 0., 0., 0., 0.,
          0., 0., 0., 0., 0., 0., 0., 0., 0., 0., 0., 0., 3.05599645e-02,
          5.10060370e-01, 8.36760923e-02, 1.16418907e-02, 0., 0., 0., 0.,
          7.27618171e-04, 9.02246535e-02, 1.07687496e-01, 0., 0., 0., 0.,
          0., 0., 0., 0., 0., 0., 0., 0., 0., 0., 0., 0., 0., 0., 0., 0.,
          0., 0., 0., 0., 0., 0., 0., 0., 0., 0., 0., 0., 0., 0., 0., 0.,
          0., 0., 0., 0., 0., 0., 0., 0., 0., 0., 0., 0., 0., 0., 0., 0.,
          0., 2.11009271e-02, 1.30243659e-01, 2.91047269e-03, 0., 0., 0.,
          0., 0., 1.45523634e-03, 0., 0., 0., 0., 0., 0., 0., 0., 0., 0.,
          0., 0., 0., 0., 0., 0., 0., 0., 0., 0., 0., 0., 0., 0., 0., 0.,
          0., 0., 0., 0., 0., 0., 0., 0., 0., 0., 0., 0., 0., 0., 0., 0.,
          0., 0., 0., 0., 0., 0., 0., 0., 0., 0., 0., 0., 0.,
          3.63809094e-02, 1.38975069e-01, 8.00380018e-03, 0., 0., 0., 0.,
          0., 1.89180728e-02, 7.34894350e-02, 2.18285453e-02, 0., 0., 0.,
          0., 0., 5.09332726e-03, 5.82094537e-03, 0., 0., 0., 0., 0., 0.,
          0., 7.27618171e-04, 0., 0., 0., 0., 0., 0., 0., 2.91047269e-03,
          0., 0., 0., 0., 0., 0., 0., 0., 0., 0., 0., 0., 0., 0., 0., 0.,
          0., 0., 0., 0., 0., 0., 0., 0., 0., 0., 0., 0., 0., 0., 0., 0.,
          0., 0., 0., 0., 0., 0., 0., 0., 0., 0., 0., 0., 0., 0., 0., 0.,
          0., 0., 0., 0., 0., 0., 0., 0., 0., 0., 0., 0., 0., 0., 0., 0.,
          0., 0., 0., 0., 0., 0., 0., 0., 0., 0., 0., 0., 0., 0., 0., 0.,
          0., 0., 0., 0., 0., 0., 0., 0., 0., 0., 0., 0., 0., 0., 0., 0.,
          0., 0., 0., 0., 0., 0., 0., 0., 0., 0., 0., 0., 0., 0., 0., 0.,
          0., 0., 0., 0., 0., 0., 0., 0., 0., 0., 0., 0., 0., 0., 0., 0.,
          0., 0., 0., 0., 0., 0., 0., 0., 0., 0., 0., 0., 0., 0., 0., 0.,
          0., 0., 0., 0., 0., 0., 0., 0., 0., 0., 3.64705890e-01,
          8.00000012e-01 ]
      - [ 0., 0., 0., 8.54718592e-03, 1.36042714e-01, 8.33350644e-02,
          1.21085141e-02, 0., 0., 0., 0., 1.21085141e-02, 1.09688886e-01,
          7.76369423e-02, 3.41887437e-02, 7.83492066e-03, 0., 0., 0., 0.,
          4.70095240e-02, 4.98585850e-02, 2.56415587e-02, 1.21085141e-02,
          0., 0., 0., 0., 4.20236662e-02, 3.70378084e-02, 1.92311686e-02,
          7.83492066e-03, 0., 0., 0., 0., 3.27642150e-02, 5.41321784e-02,
          2.20802315e-02, 4.27359296e-03, 0., 0., 0., 0., 1.42453099e-02,
          4.48727272e-02, 3.20519470e-02, 1.42453099e-03, 0., 0., 0., 0.,
          0., 1.56698413e-02, 6.41038967e-03, 0., 0., 0., 0., 0., 0., 0.,
          0., 0., 0., 0., 0., 1.42453099e-03, 9.40190479e-02,
          1.50288031e-01, 3.41887437e-02, 0., 0., 0., 0., 0.,
          1.42453099e-02, 2.27924958e-02, 8.54718592e-03, 0., 0., 0., 0.,
          0., 2.13679648e-03, 0., 0., 0., 0., 0., 0., 0., 0., 0., 0., 0.,
          0., 0., 0., 0., 0., 0., 0., 0., 0., 0., 0., 0., 0., 0., 0., 0.,
          0., 0., 0., 0., 0., 0., 0., 0., 0., 0., 0., 0., 0., 0., 0., 0.,
          0., 0., 0., 7.12265493e-04, 8.83209258e-02, 3.83911103e-01,
          1.22509666e-01, 0., 0., 0., 0., 0., 7.12265493e-03,
          6.08987033e-01, 1.18236072e-01, 0., 0., 0., 0., 0., 0.,
          2.42170282e-02, 5.27076498e-02, 0., 0., 0., 0., 0., 0., 0., 0.,
          0., 0., 0., 0., 0., 0., 0., 0., 0., 0., 0., 0., 0., 0., 0., 0.,
          0., 0., 0., 0., 0., 0., 0., 0., 0., 0., 0., 0., 0., 0., 0., 0.,
          0., 0., 0., 0., 6.41038967e-03, 6.26793653e-02, 2.03707933e-01,
          5.62689751e-02, 0., 0., 0., 0., 0., 2.49292925e-02,
          4.31632906e-01, 2.89179802e-01, 0., 0., 0., 0., 0., 0.,
          4.13113981e-02, 1.51712552e-01, 0., 0., 0., 0., 0., 0., 0., 0.,
          0., 0., 0., 0., 0., 0., 0., 0., 0., 0., 0., 0., 0., 0., 0., 0.,
          0., 0., 0., 0., 0., 0., 0., 0., 0., 0., 0., 0., 0., 0., 0., 0.,
          0., 0., 0., 0., 4.27359296e-03, 2.99151521e-02, 2.06556991e-02,
          4.98585869e-03, 0., 0., 0., 0., 0., 0., 0., 0., 0., 0., 0., 0.,
          0., 0., 0., 0., 0., 0., 0., 0., 0., 0., 0., 0., 0., 0., 0., 0.,
          0., 0., 0., 0., 0., 0., 0., 0., 0., 0., 0., 0., 0., 0., 0., 0.,
          0., 0., 0., 0., 0., 0., 0., 0., 0., 0., 0., 0., 0., 0., 0., 0.,
          4.98585869e-03, 1.78066380e-02, 3.56132747e-03, 7.12265493e-04,
          0., 0., 0., 0., 1.42453099e-03, 1.70943718e-02, 7.12265493e-04,
          0., 0., 0., 0., 0., 0., 1.42453099e-03, 0., 0., 0., 0., 0., 0.,
          0., 0., 0., 0., 0., 0., 0., 0., 0., 0., 0., 0., 0., 0., 0., 0.,
          0., 0., 0., 0., 0., 0., 0., 0., 0., 0., 0., 0., 0., 0., 0., 0.,
          0., 0., 0., 0., 0., 0., 0., 0., 0., 0., 0., 0., 0., 0., 0., 0.,
          0., 0., 0., 0., 0., 0., 0., 0., 0., 0., 0., 0., 0., 0., 0., 0.,
          0., 0., 0., 0., 0., 0., 0., 0., 0., 0., 0., 0., 0., 0., 0., 0.,
          0., 0., 0., 0., 0., 0., 0., 0., 0., 0., 0., 0., 0., 0., 0., 0.,
          0., 0., 0., 0., 0., 0., 0., 0., 0., 0., 0., 0., 0., 0., 0., 0.,
          0., 0., 0., 0., 0., 0., 0., 0., 0., 0., 0., 0., 0., 0., 0., 0.,
          0., 0., 0., 0., 0., 0., 0., 0., 0., 0., 0., 0., 0., 0., 0., 0.,
          0., 0., 0., 0., 0., 0., 0., 0., 0., 0., 0., 0., 0., 0., 0., 0.,
          0., 0., 0., 0., 0., 4.07843143e-01, 8.00000012e-01 ]
      - [ 0., 0., 0., 0., 5.26049435e-02, 4.77953464e-01, 3.45689617e-02,
          3.00599658e-03, 0., 0., 0., 0., 2.02904772e-02, 2.52503723e-01,
          7.28954226e-02, 2.25449745e-02, 0., 0., 0., 0., 1.35269854e-02,
          1.58566326e-01, 6.98894262e-02, 3.23144644e-02, 0., 0., 0., 0.,
          1.50299829e-03, 1.12724878e-01, 6.08714335e-02, 4.05809544e-02,
          0., 0., 0., 0., 7.51499145e-04, 7.06409216e-02, 6.01199344e-02,
          2.78054699e-02, 0., 0., 0., 0., 0., 3.38174626e-02,
          5.48594408e-02, 2.25449745e-02, 0., 0., 0., 0., 0.,
          3.00599658e-03, 4.58414480e-02, 1.50299829e-03, 0., 0., 0., 0.,
          0., 0., 4.50899499e-03, 0., 0., 0., 0., 0., 1.95389781e-02,
          1.23245865e-01, 3.45689617e-02, 3.60719599e-02, 0., 0., 0., 0.,
          0., 1.50299829e-03, 1.05209881e-02, 6.01199316e-03, 0., 0., 0.,
          0., 0., 0., 0., 0., 0., 0., 0., 0., 0., 0., 0., 0., 0., 0., 0.,
          0., 0., 0., 0., 0., 0., 0., 0., 0., 0., 0., 0., 0., 0., 0., 0.,
          0., 0., 0., 0., 0., 0., 0., 0., 0., 0., 0., 0., 0., 0., 0., 0.,
          0., 6.01199316e-03, 9.76948887e-02, 5.86169362e-02,
          3.00599658e-03, 0., 0., 0., 0., 2.25449749e-03, 5.26049407e-03,
          5.03504425e-02, 0., 0., 0., 0., 0., 0., 0., 3.75749590e-03, 0.,
          0., 0., 0., 0., 0., 0., 0., 0., 0., 0., 0., 0., 0., 0., 0., 0.,
          0., 0., 0., 0., 0., 0., 0., 0., 0., 0., 0., 0., 0., 0., 0., 0.,
          0., 0., 0., 0., 0., 0., 0., 0., 0., 0., 0., 0., 5.26049407e-03,
          1.28506362e-01, 1.17233872e-01, 6.76349271e-03, 0., 0., 0., 0.,
          7.51499145e-04, 9.91978869e-02, 5.97441852e-01, 9.31858942e-02,
          0., 0., 0., 0., 0., 6.68834224e-02, 3.53204608e-01,
          6.53804243e-02, 0., 0., 0., 0., 0., 6.01199316e-03,
          6.98894262e-02, 9.01798997e-03, 0., 0., 0., 0., 0., 0., 0., 0.,
          0., 0., 0., 0., 0., 0., 0., 0., 0., 0., 0., 0., 0., 0., 0., 0.,
          0., 0., 0., 0., 0., 0., 0., 0., 0., 0., 0., 0., 1.05209881e-02,
          1.19488366e-01, 2.17934754e-02, 0., 0., 0., 0., 0., 0.,
          4.50899499e-03, 3.00599658e-03, 0., 0., 0., 0., 0., 0., 0., 0.,
          0., 0., 0., 0., 0., 0., 0., 0., 0., 0., 0., 0., 0., 0., 0., 0.,
          0., 0., 0., 0., 0., 0., 0., 0., 0., 0., 0., 0., 0., 0., 0., 0.,
          0., 0., 0., 0., 0., 0., 0., 0., 0., 0., 0., 0., 0.,
          1.35269854e-02, 1.85620293e-01, 3.90779562e-02, 0., 0., 0., 0.,
          0., 7.51499145e-04, 5.41079417e-02, 7.51499145e-04, 0., 0., 0.,
          0., 0., 0., 1.50299829e-03, 0., 0., 0., 0., 0., 0., 0., 0., 0.,
          0., 0., 0., 0., 0., 0., 0., 0., 0., 0., 0., 0., 0., 0., 0., 0.,
          0., 0., 0., 0., 0., 0., 0., 0., 0., 0., 0., 0., 0., 0., 0., 0.,
          0., 0., 0., 0., 0., 0., 0., 0., 0., 0., 0., 0., 0., 0., 0., 0.,
          0., 0., 0., 0., 0., 0., 0., 0., 0., 0., 0., 0., 0., 0., 0., 0.,
          0., 0., 0., 0., 0., 0., 0., 0., 0., 0., 0., 0., 0., 0., 0., 0.,
          0., 0., 0., 0., 0., 0., 0., 0., 0., 0., 0., 0., 0., 0., 0., 0.,
          0., 0., 0., 0., 0., 0., 0., 0., 0., 0., 0., 0., 0., 0., 0., 0.,
          0., 0., 0., 0., 0., 0., 0., 0., 0., 0., 0., 0., 0., 0., 0., 0.,
          0., 0., 0., 0., 0., 0., 0., 0., 0., 0., 0., 0., 0., 0., 0., 0.,
          0., 0., 0., 0., 0., 0., 0., 0., 0., 0., 0., 0., 0., 0., 0., 0.,
          0., 3.64705890e-01, 8.23529422e-01 ]
      - [ 0., 0., 0., 0., 0., 0., 0., 0., 0., 0., 0., 0., 0., 0., 0., 0.,
          0., 0., 0., 0., 0., 2.15494120e-03, 2.41353400e-02,
          9.86963063e-02, 0., 0., 0., 0., 0., 2.58592935e-03,
          2.46094272e-01, 4.32712168e-01, 0., 0., 0., 0., 0.,
          1.59465633e-02, 3.21517199e-01, 6.12003267e-01, 0., 0., 0., 0.,
          0., 0., 4.74087037e-02, 5.05118191e-01, 0., 0., 0., 0., 0., 0.,
          1.72395294e-03, 7.93018341e-02, 0., 0., 0., 0., 0., 0.,
          8.61976470e-04, 1.72395294e-03, 0., 0., 0., 0., 0., 0., 0., 0.,
          0., 0., 0., 0., 0., 0., 0., 0., 0., 0., 0., 0., 0., 0., 0., 0.,
          0., 0., 0., 0., 0., 0., 0., 0., 0., 0., 0., 0., 0., 0., 0., 0.,
          0., 0., 0., 0., 0., 0., 0., 0., 0., 0., 0., 0., 0., 0., 0., 0.,
          0., 0., 0., 0., 0., 0., 0., 0., 0., 0., 0., 0., 0., 0., 0., 0.,
          0., 0., 0., 0., 0., 0., 0., 0., 0., 0., 0., 0., 0., 0., 0., 0.,
          0., 0., 0., 0., 0., 0., 0., 0., 0., 0., 0., 0., 0., 0., 0., 0.,
          0., 0., 0., 0., 0., 0., 0., 0., 0., 0., 0., 0., 0., 0., 0., 0.,
          0., 0., 0., 0., 0., 0., 0., 0., 0., 0., 0., 0., 0., 0., 0., 0.,
          0., 0., 0., 0., 0., 0., 0., 0., 0., 0., 0., 0., 0., 0., 0., 0.,
          0., 0., 0., 0., 0., 0., 0., 0., 0., 0., 0., 0., 0., 0., 0., 0.,
          0., 0., 0., 0., 0., 0., 0., 0., 0., 0., 0., 0., 0., 0., 0., 0.,
          0., 0., 0., 0., 0., 0., 0., 0., 0., 0., 0., 0., 0., 0., 0., 0.,
          0., 0., 0., 0., 0., 0., 0., 0., 0., 0., 0., 0., 0., 0., 0., 0.,
          0., 0., 0., 0., 0., 0., 0., 0., 0., 0., 0., 0., 0., 0., 0., 0.,
          0., 0., 0., 0., 0., 0., 0., 0., 0., 0., 0., 0., 0., 0., 0., 0.,
          0., 0., 0., 0., 0., 0., 0., 0., 0., 0., 0., 0., 0., 0., 0., 0.,
          0., 0., 0., 0., 0., 0., 0., 0., 0., 0., 0., 0., 0., 0., 0., 0.,
          0., 0., 0., 0., 0., 0., 0., 0., 0., 0., 0., 0., 0., 0., 0., 0.,
          0., 0., 0., 0., 0., 0., 0., 0., 0., 0., 0., 0., 0., 0., 0., 0.,
          0., 0., 0., 0., 0., 0., 0., 0., 0., 0., 0., 0., 0., 0., 0., 0.,
          0., 0., 0., 0., 0., 0., 0., 0., 0., 0., 0., 0., 0., 0., 0., 0.,
          0., 0., 0., 0., 0., 0., 0., 0., 0., 0., 0., 0., 0., 0., 0., 0.,
          0., 0., 0., 0., 0., 0., 0., 0., 0., 0., 0., 0., 0., 0., 0., 0.,
          0., 0., 0., 0., 0., 0., 0., 0., 0., 0., 0., 0., 0., 0., 0., 0.,
          0., 0., 0., 0., 0., 0., 0., 0., 0., 0., 0., 0., 0., 0., 0., 0.,
          0., 0., 0., 0., 0., 0., 0., 0., 0., 0., 0., 0., 0., 0., 0., 0.,
          0., 0., 0., 0., 0., 0., 0., 0., 0., 0., 0., 0., 0., 0., 0., 0.,
          0., 0., 0., 0., 0., 0., 0., 0., 2.11764708e-01, 9.41176474e-01 ]
      - [ 0., 0., 0., 0., 2.72625182e-02, 1.09050073e-01, 1.73197165e-01,
          2.00459678e-02, 0., 0., 0., 0., 1.52349360e-02, 7.93820396e-02,
          4.21767175e-01, 9.62206535e-03, 0., 0., 0., 0., 8.01838760e-04,
          2.72625182e-02, 1.87630266e-01, 5.13176806e-02, 0., 0., 0., 0.,
          0., 1.20275812e-02, 8.74004215e-02, 8.49949047e-02, 0., 0., 0.,
          0., 0., 2.40551634e-03, 8.65985826e-02, 8.17875490e-02, 0., 0.,
          0., 0., 0., 8.01838760e-04, 3.04698721e-02, 1.30699709e-01, 0.,
          0., 0., 0., 0., 0., 0., 1.08248234e-01, 0., 0., 0., 0., 0., 0.,
          0., 2.40551634e-03, 0., 0., 0., 0., 8.01838760e-04,
          8.25893879e-02, 3.87288123e-01, 6.41471008e-03, 0., 0., 0., 0.,
          0., 8.01838760e-04, 1.07446395e-01, 0., 0., 0., 0., 0., 0., 0.,
          0., 0., 0., 0., 0., 0., 0., 0., 0., 0., 0., 0., 0., 0., 0., 0.,
          0., 0., 0., 0., 0., 0., 0., 0., 0., 0., 0., 0., 0., 0., 0., 0.,
          0., 0., 0., 0., 0., 0., 0., 0., 0., 0., 0., 0., 0., 0.,
          1.60367752e-03, 8.57967436e-02, 5.67701817e-01, 7.77783617e-02,
          0., 0., 0., 0., 0., 6.09397441e-02, 1.98054165e-01,
          1.28294202e-02, 0., 0., 0., 0., 0., 0., 9.62206535e-03,
          3.20735504e-03, 0., 0., 0., 0., 0., 0., 0., 0., 0., 0., 0., 0.,
          0., 0., 0., 0., 0., 0., 0., 0., 0., 0., 0., 0., 0., 0., 0., 0.,
          0., 0., 0., 0., 0., 0., 0., 0., 0., 0., 0., 0., 0., 0., 0., 0.,
          4.81103268e-03, 7.53728449e-02, 1.12257421e-01, 5.53268753e-02,
          0., 0., 0., 0., 8.01838760e-04, 8.09857100e-02, 1.54754877e-01,
          4.24974523e-02, 0., 0., 0., 0., 0., 9.62206535e-03,
          1.29897878e-01, 2.30929554e-01, 0., 0., 0., 0., 0., 0., 0.,
          4.89121638e-02, 0., 0., 0., 0., 0., 0., 0., 0., 0., 0., 0., 0.,
          0., 0., 0., 0., 0., 0., 0., 0., 0., 0., 0., 0., 0., 0., 0., 0.,
          0., 0., 0., 0., 0., 0., 0., 0., 3.20735504e-03, 9.62206535e-03,
          4.81103268e-03, 1.28294202e-02, 0., 0., 0., 0., 0., 0., 0., 0.,
          0., 0., 0., 0., 0., 0., 0., 0., 0., 0., 0., 0., 0., 0., 0., 0.,
          0., 0., 0., 0., 0., 0., 0., 0., 0., 0., 0., 0., 0., 0., 0., 0.,
          0., 0., 0., 0., 0., 0., 0., 0., 0., 0., 0., 0., 0., 0., 0., 0.,
          0., 0., 0., 0., 1.44330971e-02, 2.16496456e-02, 1.28294202e-02,
          1.12257423e-02, 0., 0., 0., 0., 0., 8.01838760e-04, 0., 0., 0.,
          0., 0., 0., 0., 0., 0., 0., 0., 0., 0., 0., 0., 0., 0., 0., 0.,
          0., 0., 0., 0., 0., 0., 0., 0., 0., 0., 0., 0., 0., 0., 0., 0.,
          0., 0., 0., 0., 0., 0., 0., 0., 0., 0., 0., 0., 0., 0., 0., 0.,
          0., 0., 0., 0., 0., 0., 0., 0., 0., 0., 0., 0., 0., 0., 0., 0.,
          0., 0., 0., 0., 0., 0., 0., 0., 0., 0., 0., 0., 0., 0., 0., 0.,
          0., 0., 0., 0., 0., 0., 0., 0., 0., 0., 0., 0., 0., 0., 0., 0.,
          0., 0., 0., 0., 0., 0., 0., 0., 0., 0., 0., 0., 0., 0., 0., 0.,
          0., 0., 0., 0., 0., 0., 0., 0., 0., 0., 0., 0., 0., 0., 0., 0.,
          0., 0., 0., 0., 0., 0., 0., 0., 0., 0., 0., 0., 0., 0., 0., 0.,
          0., 0., 0., 0., 0., 0., 0., 0., 0., 0., 0., 0., 0., 0., 0., 0.,
          0., 0., 0., 0., 0., 0., 0., 0., 0., 0., 0., 0., 0., 0., 0.,
          3.17647070e-01, 8.39215696e-01 ]
      - [ 0., 0., 0., 0., 0., 7.33230356e-03, 9.42724757e-03, 0., 0., 0.,
          0., 0., 0., 4.34700847e-02, 3.98563087e-01, 2.40918547e-02, 0.,
          0., 0., 0., 0., 1.13126971e-01, 6.37386680e-01, 2.45632172e-01,
          0., 0., 0., 0., 0., 9.37487409e-02, 4.10609007e-01,
          2.66581625e-01, 0., 0., 0., 0., 0., 1.51883429e-02,
          1.98495939e-01, 2.04257026e-01, 0., 0., 0., 0., 0., 0.,
          3.03766858e-02, 1.56597063e-01, 0., 0., 0., 0., 0., 0.,
          1.57120789e-03, 4.03276682e-02, 0., 0., 0., 0., 0., 0., 0., 0.,
          0., 0., 0., 0., 0., 1.04747200e-03, 0., 0., 0., 0., 0., 0., 0.,
          1.88544951e-02, 4.08514068e-02, 8.37977603e-03, 0., 0., 0., 0.,
          0., 2.09494401e-03, 1.20459273e-02, 0., 0., 0., 0., 0., 0., 0.,
          0., 0., 0., 0., 0., 0., 0., 0., 0., 0., 0., 0., 0., 0., 0., 0.,
          0., 0., 0., 0., 0., 0., 0., 0., 0., 0., 0., 0., 0., 0., 0., 0.,
          0., 0., 0., 0., 0., 0., 0., 0., 0., 0., 0., 0., 0., 0., 0., 0.,
          0., 0., 0., 0., 0., 0., 0., 0., 0., 0., 0., 0., 0., 0., 0., 0.,
          0., 0., 0., 0., 0., 0., 0., 0., 0., 0., 0., 0., 0., 0., 0., 0.,
          0., 0., 0., 0., 0., 0., 0., 0., 0., 0., 0., 0., 0., 0., 0., 0.,
          0., 0., 0., 0., 0., 0., 0., 0., 0., 0., 0., 0., 0., 0., 0., 0.,
          0., 0., 0., 0., 0., 0., 0., 0., 0., 0., 0., 0., 0., 0., 0., 0.,
          0., 0., 0., 0., 0., 0., 0., 0., 0., 0., 0., 0., 0., 0., 0., 0.,
          0., 0., 0., 0., 0., 0., 0., 0., 0., 0., 0., 0., 0., 0., 0., 0.,
          0., 0., 0., 0., 0., 0., 0., 0., 0., 0., 0., 0., 0., 0., 0., 0.,
          0., 0., 0., 0., 0., 0., 0., 0., 0., 0., 0., 0., 0., 0., 0., 0.,
          0., 0., 0., 0., 0., 0., 0., 0., 0., 0., 0., 0., 0., 0., 0., 0.,
          0., 0., 0., 0., 0., 0., 0., 0., 0., 0., 0., 0., 0., 0., 0., 0.,
          0., 0., 0., 0., 0., 0., 0., 0., 3.14241578e-03, 0., 0., 0., 0.,
          0., 0., 0., 2.09494401e-03, 0., 0., 0., 0., 0., 0., 0., 0., 0.,
          0., 0., 0., 0., 0., 0., 0., 0., 0., 0., 0., 0., 0., 0., 0., 0.,
          0., 0., 0., 0., 0., 0., 0., 0., 0., 0., 0., 0., 0., 0., 0., 0.,
          0., 0., 0., 0., 0., 0., 0., 0., 0., 0., 0., 0., 0., 0., 0., 0.,
          0., 0., 0., 0., 0., 0., 0., 0., 0., 0., 0., 0., 0., 0., 0., 0.,
          0., 0., 0., 0., 0., 0., 0., 0., 0., 0., 0., 0., 0., 0., 0., 0.,
          0., 0., 0., 0., 0., 0., 0., 0., 0., 0., 0., 0., 0., 0., 0., 0.,
          0., 0., 0., 0., 0., 0., 0., 0., 0., 0., 0., 0., 0., 0., 0., 0.,
          0., 0., 0., 0., 0., 0., 0., 0., 0., 0., 0., 0., 0., 0., 0., 0.,
          0., 0., 0., 0., 0., 0., 0., 0., 0., 0., 0., 0., 0., 0., 0., 0.,
          0., 0., 0., 0., 0., 0., 0., 0., 0., 0., 0., 0., 0., 0., 0., 0.,
          0., 0., 0., 0., 0., 0., 0., 0., 4.27450985e-01, 7.92156875e-01 ]
      - [ 0., 0., 0., 0., 3.16119334e-03, 1.60430565e-01, 4.18858118e-02,
          8.69328156e-03, 0., 0., 0., 0., 7.11268466e-03, 2.86087990e-01,
          2.20493227e-01, 4.10955139e-02, 0., 0., 0., 0., 3.95149179e-03,
          1.93623081e-01, 3.37457389e-01, 2.21283529e-02, 0., 0., 0., 0.,
          7.90298334e-04, 4.10955139e-02, 5.04210353e-01, 1.88090995e-01,
          0., 0., 0., 0., 0., 1.10641764e-02, 2.73443222e-01,
          3.99100661e-01, 0., 0., 0., 0., 0., 7.11268466e-03,
          1.18544750e-01, 2.16541737e-01, 0., 0., 0., 0., 0.,
          2.37089489e-03, 7.90298283e-02, 1.48576081e-01, 0., 0., 0., 0.,
          0., 0., 1.89671591e-02, 6.08529709e-02, 0., 0., 0., 0.,
          2.37089489e-03, 1.07480571e-01, 1.09061167e-01, 2.52895467e-02,
          0., 0., 0., 0., 3.95149179e-03, 5.13693914e-02, 1.28028333e-01,
          1.18544744e-02, 0., 0., 0., 0., 0., 7.11268466e-03, 0., 0., 0.,
          0., 0., 0., 0., 0., 0., 0., 0., 0., 0., 0., 0., 0., 0., 0., 0.,
          0., 0., 0., 0., 0., 0., 0., 0., 0., 0., 0., 0., 0., 0., 0., 0.,
          0., 0., 0., 0., 0., 0., 0., 0., 0., 0., 0., 1.58059667e-03,
          6.79656565e-02, 3.39828283e-02, 0., 0., 0., 0., 0., 0.,
          2.05477569e-02, 3.87246162e-02, 0., 0., 0., 0., 0., 0.,
          2.37089489e-03, 1.73865631e-02, 0., 0., 0., 0., 0., 0., 0., 0.,
          0., 0., 0., 0., 0., 0., 0., 0., 0., 0., 0., 0., 0., 0., 0., 0.,
          0., 0., 0., 0., 0., 0., 0., 0., 0., 0., 0., 0., 0., 0., 0., 0.,
          0., 0., 0., 0., 0., 0., 5.61111793e-02, 5.45305833e-02, 0., 0.,
          0., 0., 0., 0., 2.13380549e-02, 8.29813257e-02, 3.16119334e-03,
          0., 0., 0., 0., 0., 7.11268466e-03, 6.08529709e-02,
          1.02738785e-02, 0., 0., 0., 0., 0., 0., 6.32238667e-03, 0., 0.,
          0., 0., 0., 0., 0., 0., 0., 0., 0., 0., 0., 0., 0., 0., 0., 0.,
          0., 0., 0., 0., 0., 0., 0., 0., 0., 0., 0., 0., 0., 0., 0., 0.,
          0., 0., 0., 0., 1.65962651e-02, 1.10641764e-02, 0., 0., 0., 0.,
          0., 0., 0., 0., 0., 0., 0., 0., 0., 0., 0., 0., 0., 0., 0., 0.,
          0., 0., 0., 0., 0., 0., 0., 0., 0., 0., 0., 0., 0., 0., 0., 0.,
          0., 0., 0., 0., 0., 0., 0., 0., 0., 0., 0., 0., 0., 0., 0., 0.,
          0., 0., 0., 0., 0., 0., 0., 0., 0., 0., 1.58059672e-02,
          1.10641764e-02, 0., 0., 0., 0., 0., 0., 3.95149179e-03, 0., 0.,
          0., 0., 0., 0., 0., 0., 0., 0., 0., 0., 0., 0., 0., 0., 0., 0.,
          0., 0., 0., 0., 0., 0., 0., 0., 0., 0., 0., 0., 0., 0., 0., 0.,
          0., 0., 0., 0., 0., 0., 0., 0., 0., 0., 0., 0., 0., 0., 0., 0.,
          0., 0., 0., 0., 0., 0., 0., 0., 0., 0., 0., 0., 0., 0., 0., 0.,
          0., 0., 0., 0., 0., 0., 0., 0., 0., 0., 0., 0., 0., 0., 0., 0.,
          0., 0., 0., 0., 0., 0., 0., 0., 0., 0., 0., 0., 0., 0., 0., 0.,
          0., 0., 0., 0., 0., 0., 0., 0., 0., 0., 0., 0., 0., 0., 0., 0.,
          0., 0., 0., 0., 0., 0., 0., 0., 0., 0., 0., 0., 0., 0., 0., 0.,
          0., 0., 0., 0., 0., 0., 0., 0., 0., 0., 0., 0., 0., 0., 0., 0.,
          0., 0., 0., 0., 0., 0., 0., 0., 0., 0., 0., 0., 0., 0., 0., 0.,
          0., 0., 0., 0., 0., 0., 0., 0., 0., 0., 0., 0., 0., 0., 0., 0.,
          2.82352954e-01, 8.94117653e-01 ]
      - [ 0., 0., 0., 0., 0., 1.10309608e-02, 0., 0., 0., 0., 0., 0.,
          1.28694540e-02, 1.18276410e-01, 1.96105968e-02, 0., 0., 0., 0.,
          0., 1.16437916e-02, 1.75269708e-01, 1.86300665e-01, 0., 0., 0.,
          0., 0., 2.45132460e-03, 1.74044043e-01, 2.99061596e-01,
          4.90264921e-03, 0., 0., 0., 0., 4.28981800e-03, 2.37165645e-01,
          4.07532692e-01, 2.57389080e-02, 0., 0., 0., 0., 6.12831151e-04,
          1.03568465e-01, 4.37561423e-01, 1.15212254e-01, 0., 0., 0., 0.,
          0., 1.77721027e-02, 2.87417799e-01, 2.37778485e-01, 0., 0., 0.,
          0., 0., 0., 2.02234276e-02, 4.70654309e-01, 0., 0., 0., 0., 0.,
          4.90264921e-03, 0., 0., 0., 0., 0., 0., 0., 1.04181292e-02, 0.,
          0., 0., 0., 0., 0., 4.90264921e-03, 0., 0., 0., 0., 0., 0., 0.,
          0., 0., 0., 0., 0., 0., 0., 0., 0., 0., 0., 0., 0., 0., 0., 0.,
          0., 0., 0., 0., 0., 0., 0., 0., 0., 0., 0., 0., 0., 0., 0., 0.,
          0., 0., 0., 0., 0., 0., 0., 0., 0., 0., 0., 0., 0., 0., 0., 0.,
          0., 0., 0., 0., 0., 0., 0., 0., 0., 0., 0., 0., 0., 0., 0., 0.,
          0., 0., 0., 0., 0., 0., 0., 0., 0., 0., 0., 0., 0., 0., 0., 0.,
          0., 0., 0., 0., 0., 0., 0., 0., 0., 0., 0., 0., 0., 0., 0., 0.,
          0., 0., 0., 0., 0., 0., 0., 0., 0., 0., 0., 0., 0., 0., 0., 0.,
          0., 0., 0., 0., 0., 0., 0., 0., 0., 0., 0., 0., 0., 0., 0., 0.,
          0., 0., 0., 0., 0., 0., 0., 0., 0., 0., 0., 0., 0., 0., 0., 0.,
          0., 0., 0., 0., 0., 0., 0., 0., 0., 0., 0., 0., 0., 0., 0., 0.,
          0., 0., 0., 0., 0., 0., 0., 0., 0., 0., 0., 0., 0., 0., 0., 0.,
          0., 0., 0., 0., 0., 0., 0., 0., 0., 0., 0., 0., 0., 0., 0., 0.,
          0., 0., 0., 0., 0., 0., 0., 0., 0., 0., 0., 0., 0., 0., 0., 0.,
          0., 0., 0., 0., 0., 0., 0., 0., 0., 0., 0., 0., 0., 0., 0., 0.,
          0., 0., 0., 0., 0., 0., 0., 0., 0., 0., 0., 0., 0., 0., 0., 0.,
          0., 0., 0., 0., 0., 0., 0., 0., 0., 0., 0., 0., 0., 0., 0., 0.,
          0., 0., 0., 0., 0., 0., 0., 0., 0., 0., 0., 0., 0., 0., 0., 0.,
          0., 0., 0., 0., 0., 0., 0., 0., 0., 0., 0., 0., 0., 0., 0., 0.,
          0., 0., 0., 0., 0., 0., 0., 0., 0., 0., 0., 0., 0., 0., 0., 0.,
          0., 0., 0., 0., 0., 0., 0., 0., 0., 0., 0., 0., 0., 0., 0., 0.,
          0., 0., 0., 0., 0., 0., 0., 0., 0., 0., 0., 0., 0., 0., 0., 0.,
          0., 0., 0., 0., 0., 0., 0., 0., 0., 0., 0., 0., 0., 0., 0., 0.,
          0., 0., 0., 0., 0., 0., 0., 0., 0., 0., 0., 0., 0., 0., 0., 0.,
          0., 0., 0., 0., 0., 0., 0., 0., 0., 0., 0., 0., 0., 0., 0., 0.,
          0., 0., 0., 0., 0., 0., 0., 0., 0., 0., 0., 0., 0., 0., 0., 0.,
          0., 0., 0., 0., 0., 0., 0., 0., 0., 0., 0., 0., 0., 0., 0., 0.,
          0., 0., 0., 0., 2.43137255e-01, 9.17647064e-01 ]
      - [ 0., 0., 0., 0., 0., 9.57161859e-02, 2.01912254e-01,
          2.44530402e-02, 0., 0., 0., 0., 1.39731658e-03, 1.18073255e-01,
          3.50726485e-01, 4.96047400e-02, 0., 0., 0., 0., 0.,
          1.35539711e-01, 5.13513863e-01, 2.23570660e-01, 0., 0., 0., 0.,
          4.89060814e-03, 6.91671744e-02, 5.16308486e-01, 1.92829698e-01,
          0., 0., 0., 0., 1.39731658e-03, 5.30980304e-02, 3.26273441e-01,
          1.26457155e-01, 0., 0., 0., 0., 0., 3.98235247e-02,
          1.36238366e-01, 5.65913245e-02, 0., 0., 0., 0., 0.,
          9.08255763e-03, 7.54550993e-02, 3.35355997e-02, 0., 0., 0., 0.,
          0., 0., 9.78121627e-03, 2.16584075e-02, 0., 0., 0., 0., 0.,
          2.02610902e-02, 6.49752244e-02, 4.19194996e-03, 0., 0., 0., 0.,
          0., 0., 0., 0., 0., 0., 0., 0., 0., 0., 0., 0., 0., 0., 0., 0.,
          0., 0., 0., 0., 0., 0., 0., 0., 0., 0., 0., 0., 0., 0., 0., 0.,
          0., 0., 0., 0., 0., 0., 0., 0., 0., 0., 0., 0., 0., 0., 0., 0.,
          0., 0., 0., 0., 0., 0., 0., 0., 0., 2.09597498e-02,
          2.44530402e-02, 1.11785326e-02, 0., 0., 0., 0., 0., 0., 0., 0.,
          0., 0., 0., 0., 0., 0., 0., 0., 0., 0., 0., 0., 0., 0., 0., 0.,
          0., 0., 0., 0., 0., 0., 0., 0., 0., 0., 0., 0., 0., 0., 0., 0.,
          0., 0., 0., 0., 0., 0., 0., 0., 0., 0., 0., 0., 0., 0., 0., 0.,
          0., 0., 0., 0., 0., 1.74664576e-02, 1.60691421e-02,
          7.68524129e-03, 0., 0., 0., 0., 0., 0., 2.79463315e-03, 0., 0.,
          0., 0., 0., 0., 0., 0., 0., 0., 0., 0., 0., 0., 0., 0., 0., 0.,
          0., 0., 0., 0., 0., 0., 0., 0., 0., 0., 0., 0., 0., 0., 0., 0.,
          0., 0., 0., 0., 0., 0., 0., 0., 0., 0., 0., 0., 0., 0., 0., 0.,
          0., 0., 0., 3.49329156e-03, 3.56315747e-02, 2.09597498e-03,
          1.46718249e-02, 0., 0., 0., 0., 8.38389993e-03, 6.98658312e-03,
          0., 0., 0., 0., 0., 0., 0., 0., 0., 0., 0., 0., 0., 0., 0., 0.,
          0., 0., 0., 0., 0., 0., 0., 0., 0., 0., 0., 0., 0., 0., 0., 0.,
          0., 0., 0., 0., 0., 0., 0., 0., 0., 0., 0., 0., 0., 0., 0., 0.,
          0., 0., 0., 0., 0., 0., 0., 4.54127900e-02, 3.56315747e-02,
          8.38389993e-03, 0., 0., 0., 3.49329156e-03, 4.89060814e-03,
          2.65490152e-02, 3.21382843e-02, 0., 0., 0., 0., 3.49329156e-03,
          3.49329156e-03, 0., 9.08255763e-03, 3.49329156e-03, 0., 0., 0.,
          0., 0., 0., 1.39731658e-03, 0., 0., 0., 0., 0., 0., 0., 0., 0.,
          0., 0., 0., 0., 0., 0., 0., 0., 0., 0., 0., 0., 0., 0., 0., 0.,
          0., 0., 0., 0., 0., 0., 0., 0., 0., 0., 0., 0., 0., 0., 0., 0.,
          0., 0., 0., 0., 0., 0., 0., 0., 0., 0., 0., 0., 0., 0., 0., 0.,
          0., 0., 0., 0., 0., 0., 0., 0., 0., 0., 0., 0., 0., 0., 0., 0.,
          0., 0., 0., 0., 0., 0., 0., 0., 0., 0., 0., 0., 0., 0., 0., 0.,
          0., 0., 0., 0., 0., 0., 0., 0., 0., 0., 0., 0., 0., 0., 0., 0.,
          0., 0., 0., 0., 0., 0., 0., 0., 0., 0., 0., 0., 0., 0., 0., 0.,
          0., 0., 0., 0., 0., 0., 0., 0., 0., 0., 0., 0., 0., 0., 0., 0.,
          0., 0., 0., 0., 0., 0., 0., 0., 0., 0., 0., 0., 0., 0., 0., 0.,
          0., 0., 0., 0., 0., 0., 0., 0., 4.39215690e-01, 7.84313738e-01 ]
      - [ 0., 0., 0., 0., 1.79981440e-02, 1.09373339e-01, 2.00748537e-02,
          2.00748537e-02, 0., 0., 0., 0., 8.09916481e-02, 3.63424063e-01,
          5.95323220e-02, 2.76894518e-03, 0., 0., 0., 0., 4.91487794e-02,
          6.32011771e-01, 1.85519338e-01, 0., 0., 0., 0., 0.,
          3.87652330e-02, 4.23648626e-01, 2.78279006e-01, 4.15341789e-03,
          0., 0., 0., 0., 2.07670894e-03, 1.28063723e-01, 1.13526754e-01,
          1.66136716e-02, 0., 0., 0., 0., 0., 4.22264151e-02,
          9.20674279e-02, 8.99907202e-03, 0., 0., 0., 0., 0.,
          8.99907202e-03, 7.13003427e-02, 3.46118165e-03, 0., 0., 0., 0.,
          0., 6.92236295e-04, 5.53789036e-03, 0., 0., 0., 0., 0., 0.,
          3.11506335e-02, 6.92236295e-04, 1.59214344e-02, 0., 0., 0., 0.,
          0., 1.38447259e-03, 0., 0., 0., 0., 0., 0., 0., 0., 0., 0., 0.,
          0., 0., 0., 0., 0., 0., 0., 0., 0., 0., 0., 0., 0., 0., 0., 0.,
          0., 0., 0., 0., 0., 0., 0., 0., 0., 0., 0., 0., 0., 0., 0., 0.,
          0., 0., 0., 0., 0., 0., 0., 0., 0., 0., 0., 7.61459954e-03,
          6.50702119e-02, 1.86903812e-02, 1.38447259e-03, 0., 0., 0., 0.,
          0., 2.76894518e-03, 0., 0., 0., 0., 0., 0., 0., 0., 0., 0., 0.,
          0., 0., 0., 0., 0., 0., 0., 0., 0., 0., 0., 0., 0., 0., 0., 0.,
          0., 0., 0., 0., 0., 0., 0., 0., 0., 0., 0., 0., 0., 0., 0., 0.,
          0., 0., 0., 0., 0., 0., 0., 0., 0., 0., 0., 6.92236330e-03,
          4.36108895e-02, 9.20674279e-02, 1.38447259e-03, 0., 0., 0., 0.,
          0., 2.76894518e-03, 6.92236295e-04, 0., 0., 0., 0., 0., 0., 0.,
          0., 0., 0., 0., 0., 0., 0., 0., 0., 0., 0., 0., 0., 0., 0., 0.,
          0., 0., 0., 0., 0., 0., 0., 0., 0., 0., 0., 0., 0., 0., 0., 0.,
          0., 0., 0., 0., 0., 0., 0., 0., 0., 0., 0., 0., 0., 0.,
          3.66885252e-02, 4.29186523e-02, 2.14593261e-02, 6.92236295e-04,
          0., 0., 0., 0., 6.92236330e-03, 2.76894518e-03, 0., 0., 0., 0.,
          0., 0., 0., 0., 0., 0., 0., 0., 0., 0., 0., 0., 0., 0., 0., 0.,
          0., 0., 0., 0., 0., 0., 0., 0., 0., 0., 0., 0., 0., 0., 0., 0.,
          0., 0., 0., 0., 0., 0., 0., 0., 0., 0., 0., 0., 0., 0., 0., 0.,
          0., 0., 5.26099615e-02, 7.19925761e-02, 2.07670890e-02,
          4.84565413e-03, 0., 0., 0., 0., 1.23218067e-01, 2.37437055e-01,
          7.61459954e-03, 0., 0., 0., 0., 0., 7.61459954e-03,
          6.78391606e-02, 1.38447266e-02, 0., 0., 0., 0., 0., 0., 0., 0.,
          0., 0., 0., 0., 0., 0., 0., 0., 0., 0., 0., 0., 0., 0., 0., 0.,
          0., 0., 0., 0., 0., 0., 0., 0., 0., 0., 0., 0., 0., 0., 0., 0.,
          0., 0., 0., 0., 0., 0., 0., 0., 0., 0., 0., 0., 0., 0., 0., 0.,
          0., 0., 0., 0., 0., 0., 0., 0., 0., 0., 0., 0., 0., 0., 0., 0.,
          0., 0., 0., 0., 0., 0., 0., 0., 0., 0., 0., 0., 0., 0., 0., 0.,
          0., 0., 0., 0., 0., 0., 0., 0., 0., 0., 0., 0., 0., 0., 0., 0.,
          0., 0., 0., 0., 0., 0., 0., 0., 0., 0., 0., 0., 0., 0., 0., 0.,
          0., 0., 0., 0., 0., 0., 0., 0., 0., 0., 0., 0., 0., 0., 0., 0.,
          0., 0., 0., 0., 0., 0., 0., 0., 0., 0., 0., 0., 0., 0., 0., 0.,
          0., 0., 0., 0., 0., 0., 0., 0., 0., 0., 0., 0., 0., 0., 0., 0.,
          0., 3.17647070e-01, 8.39215696e-01 ]
      - [ 0., 0., 0., 0., 5.29584661e-03, 1.29748240e-01, 1.17832586e-01,
          3.97188496e-03, 0., 0., 0., 0., 3.30990413e-03, 2.55524606e-01,
          3.64751428e-01, 6.61980826e-03, 0., 0., 0., 0., 6.61980826e-04,
          2.83989757e-01, 5.77247262e-01, 3.30990404e-02, 0., 0., 0., 0.,
          0., 1.03930987e-01, 4.83907968e-01, 4.63386588e-02, 0., 0., 0.,
          0., 0., 1.25776352e-02, 1.65495202e-01, 6.68600649e-02, 0., 0.,
          0., 0., 0., 4.63386578e-03, 1.24452390e-01, 4.70006391e-02, 0.,
          0., 0., 0., 0., 3.97188496e-03, 8.47335458e-02, 2.97891367e-02,
          0., 0., 0., 0., 0., 0., 8.60575028e-03, 3.24370600e-02, 0., 0.,
          0., 0., 0., 7.67897740e-02, 8.40715617e-02, 1.78734828e-02, 0.,
          0., 0., 0., 0., 2.38313098e-02, 2.64792331e-03, 0., 0., 0., 0.,
          0., 0., 0., 0., 0., 0., 0., 0., 0., 0., 0., 0., 0., 0., 0., 0.,
          0., 0., 0., 0., 0., 0., 0., 0., 0., 0., 0., 0., 0., 0., 0., 0.,
          0., 0., 0., 0., 0., 0., 0., 0., 0., 0., 0., 0., 0., 0., 0., 0.,
          0., 6.61980826e-04, 1.43649831e-01, 4.50146943e-02,
          2.64792331e-02, 0., 0., 0., 0., 0., 1.39015969e-02, 0., 0., 0.,
          0., 0., 0., 0., 0., 0., 0., 0., 0., 0., 0., 0., 0., 0., 0., 0.,
          0., 0., 0., 0., 0., 0., 0., 0., 0., 0., 0., 0., 0., 0., 0., 0.,
          0., 0., 0., 0., 0., 0., 0., 0., 0., 0., 0., 0., 0., 0., 0., 0.,
          0., 0., 0., 0., 9.40012783e-02, 3.44230011e-02, 9.92971193e-03,
          0., 0., 0., 0., 0., 3.30990413e-03, 2.31693294e-02, 0., 0., 0.,
          0., 0., 0., 0., 0., 0., 0., 0., 0., 0., 0., 0., 0., 0., 0., 0.,
          0., 0., 0., 0., 0., 0., 0., 0., 0., 0., 0., 0., 0., 0., 0., 0.,
          0., 0., 0., 0., 0., 0., 0., 0., 0., 0., 0., 0., 0., 0., 0., 0.,
          0., 0., 1.32396165e-03, 2.71412134e-02, 3.97188496e-03, 0., 0.,
          0., 0., 0., 0., 0., 0., 0., 0., 0., 0., 0., 0., 0., 0., 0., 0.,
          0., 0., 0., 0., 0., 0., 0., 0., 0., 0., 0., 0., 0., 0., 0., 0.,
          0., 0., 0., 0., 0., 0., 0., 0., 0., 0., 0., 0., 0., 0., 0., 0.,
          0., 0., 0., 0., 0., 0., 0., 0., 0., 0., 0., 6.61980826e-04,
          3.04511171e-02, 4.63386578e-03, 0., 0., 0., 0., 0., 0.,
          4.63386578e-03, 3.97188496e-03, 0., 0., 0., 0., 0., 0., 0.,
          6.61980826e-04, 0., 0., 0., 0., 0., 0., 0., 0., 0., 0., 0., 0.,
          0., 0., 0., 0., 0., 0., 0., 0., 0., 0., 0., 0., 0., 0., 0., 0.,
          0., 0., 0., 0., 0., 0., 0., 0., 0., 0., 0., 0., 0., 0., 0., 0.,
          0., 0., 0., 0., 0., 0., 0., 0., 0., 0., 0., 0., 0., 0., 0., 0.,
          0., 0., 0., 0., 0., 0., 0., 0., 0., 0., 0., 0., 0., 0., 0., 0.,
          0., 0., 0., 0., 0., 0., 0., 0., 0., 0., 0., 0., 0., 0., 0., 0.,
          0., 0., 0., 0., 0., 0., 0., 0., 0., 0., 0., 0., 0., 0., 0., 0.,
          0., 0., 0., 0., 0., 0., 0., 0., 0., 0., 0., 0., 0., 0., 0., 0.,
          0., 0., 0., 0., 0., 0., 0., 0., 0., 0., 0., 0., 0., 0., 0., 0.,
          0., 0., 0., 0., 0., 0., 0., 0., 0., 0., 0., 0., 0., 0., 0., 0.,
          0., 0., 0., 0., 0., 0., 0., 0., 0., 0., 0., 0., 0.,
          3.68627459e-01, 8.47058833e-01 ]
      - [ 0., 0., 0., 0., 0., 0., 0., 0., 0., 0., 0., 0., 0.,
          9.66307614e-03, 3.86523046e-02, 2.41576903e-03, 0., 0., 0., 0.,
          2.41576903e-03, 9.78386402e-02, 3.61761391e-01, 3.50286514e-02,
          0., 0., 0., 0., 2.41576903e-03, 1.03878066e-01, 4.98856306e-01,
          1.49777681e-01, 0., 0., 0., 0., 6.03942259e-04, 5.49587458e-02,
          4.96440530e-01, 3.99809778e-01, 0., 0., 0., 0., 0.,
          4.65035513e-02, 1.82390556e-01, 2.44596601e-01, 0., 0., 0., 0.,
          0., 3.01971124e-03, 4.28798981e-02, 5.37508577e-02, 0., 0., 0.,
          0., 0., 0., 7.24730687e-03, 6.03942247e-03, 0., 0., 0., 0., 0.,
          1.81182679e-02, 6.64336467e-03, 6.64336467e-03, 0., 0., 0., 0.,
          0., 3.20089385e-02, 2.33725652e-01, 1.87222101e-02, 0., 0., 0.,
          0., 0., 1.99300945e-02, 7.18691275e-02, 0., 0., 0., 0., 0., 0.,
          0., 0., 0., 0., 0., 0., 0., 0., 0., 0., 0., 0., 0., 0., 0., 0.,
          0., 0., 0., 0., 0., 0., 0., 0., 0., 0., 0., 0., 0., 0., 0., 0.,
          0., 0., 0., 0., 0., 0., 0., 0., 1.50985559e-02, 5.13350889e-02,
          2.41576903e-03, 0., 0., 0., 0., 0., 1.14749027e-02,
          1.50985559e-02, 0., 0., 0., 0., 0., 0., 0., 0., 0., 0., 0., 0.,
          0., 0., 0., 0., 0., 0., 0., 0., 0., 0., 0., 0., 0., 0., 0., 0.,
          0., 0., 0., 0., 0., 0., 0., 0., 0., 0., 0., 0., 0., 0., 0., 0.,
          0., 0., 0., 0., 0., 0., 0., 0., 0., 0., 0., 1.81182672e-03, 0.,
          0., 0., 0., 0., 0., 1.20788452e-03, 4.83153807e-03, 0., 0., 0.,
          0., 0., 0., 0., 0., 0., 0., 0., 0., 0., 0., 0., 0., 0., 0., 0.,
          0., 0., 0., 0., 0., 0., 0., 0., 0., 0., 0., 0., 0., 0., 0., 0.,
          0., 0., 0., 0., 0., 0., 0., 0., 0., 0., 0., 0., 0., 0., 0., 0.,
          0., 0., 0., 0., 0., 0., 0., 0., 0., 0., 0., 0., 0., 0., 0., 0.,
          0., 0., 0., 0., 0., 0., 0., 0., 0., 0., 0., 0., 0., 0., 0., 0.,
          0., 0., 0., 0., 0., 0., 0., 0., 0., 0., 0., 0., 0., 0., 0., 0.,
          0., 0., 0., 0., 0., 0., 0., 0., 0., 0., 0., 0., 0., 0., 0., 0.,
          0., 0., 0., 0., 0., 0., 0., 0., 0., 0., 0., 0., 0., 0., 0., 0.,
          0., 0., 0., 0., 0., 0., 0., 0., 0., 0., 0., 0., 0., 0., 0., 0.,
          0., 0., 0., 0., 0., 0., 0., 0., 0., 0., 0., 0., 0., 0., 0., 0.,
          0., 0., 0., 0., 0., 0., 0., 0., 0., 0., 0., 0., 0., 0., 0., 0.,
          0., 0., 0., 0., 0., 0., 0., 0., 0., 0., 0., 0., 0., 0., 0., 0.,
          0., 0., 0., 0., 0., 0., 0., 0., 0., 0., 0., 0., 0., 0., 0., 0.,
          0., 0., 0., 0., 0., 0., 0., 0., 0., 0., 0., 0., 0., 0., 0., 0.,
          0., 0., 0., 0., 0., 0., 0., 0., 0., 0., 0., 0., 0., 0., 0., 0.,
          0., 0., 0., 0., 0., 0., 0., 0., 0., 0., 0., 0., 0., 0., 0., 0.,
          0., 0., 0., 0., 0., 0., 0., 0., 0., 0., 0., 0., 0., 0., 0., 0.,
          0., 0., 0., 0., 0., 0., 0., 0., 0., 0., 0., 0., 0., 0., 0., 0.,
          0., 0., 0., 0., 0., 0., 0., 0., 0., 0., 0., 0., 0., 0.,
          3.80392164e-01, 8.43137264e-01 ]
      - [ 0., 0., 0., 0., 1.38877844e-02, 2.10210562e-01, 2.33567283e-02,
          0., 0., 0., 0., 0., 1.64128356e-02, 4.48827952e-01,
          1.00370802e-01, 6.31262898e-04, 0., 0., 0., 0., 2.14629397e-02,
          4.04008269e-01, 4.63346988e-01, 3.78757762e-03, 0., 0., 0., 0.,
          1.07314698e-02, 2.50611395e-01, 4.60821927e-01, 1.32565219e-02,
          0., 0., 0., 0., 3.15631460e-03, 1.06683433e-01, 1.91272661e-01,
          8.83768126e-03, 0., 0., 0., 0., 0., 1.57815740e-02,
          1.00370802e-01, 1.45190470e-02, 0., 0., 0., 0., 0.,
          6.31262898e-04, 5.61823994e-02, 1.64128356e-02, 0., 0., 0., 0.,
          0., 0., 1.07314698e-02, 3.15631460e-03, 0., 0., 0., 0., 0.,
          3.34569365e-02, 8.20641778e-03, 0., 0., 0., 0., 0., 0.,
          2.02004127e-02, 6.94389222e-03, 6.31262898e-04, 0., 0., 0., 0.,
          0., 0., 0., 0., 0., 0., 0., 0., 0., 0., 0., 0., 0., 0., 0., 0.,
          0., 0., 0., 0., 0., 0., 0., 0., 0., 0., 0., 0., 0., 0., 0., 0.,
          0., 0., 0., 0., 0., 0., 0., 0., 0., 0., 0., 0., 0., 0., 0., 0.,
          1.89378881e-03, 6.75451308e-02, 1.76753625e-02, 0., 0., 0., 0.,
          0., 0., 0., 9.46894381e-03, 0., 0., 0., 0., 0., 0., 0., 0., 0.,
          0., 0., 0., 0., 0., 0., 0., 0., 0., 0., 0., 0., 0., 0., 0., 0.,
          0., 0., 0., 0., 0., 0., 0., 0., 0., 0., 0., 0., 0., 0., 0., 0.,
          0., 0., 0., 0., 0., 0., 0., 0., 0., 0., 0., 0., 6.31262898e-04,
          3.34569365e-02, 4.60821949e-02, 0., 0., 0., 0., 0., 0.,
          1.26252584e-02, 4.60821949e-02, 3.15631460e-03, 0., 0., 0., 0.,
          0., 0., 0., 0., 0., 0., 0., 0., 0., 0., 0., 0., 0., 0., 0., 0.,
          0., 0., 0., 0., 0., 0., 0., 0., 0., 0., 0., 0., 0., 0., 0., 0.,
          0., 0., 0., 0., 0., 0., 0., 0., 0., 0., 0., 0., 0., 0., 0., 0.,
          3.78757762e-03, 2.65130438e-02, 8.20641778e-03, 0., 0., 0., 0.,
          0., 6.31262898e-04, 5.68136619e-03, 6.31262898e-04, 0., 0., 0.,
          0., 0., 0., 0., 0., 0., 0., 0., 0., 0., 0., 0., 0., 0., 0., 0.,
          0., 0., 0., 0., 0., 0., 0., 0., 0., 0., 0., 0., 0., 0., 0., 0.,
          0., 0., 0., 0., 0., 0., 0., 0., 0., 0., 0., 0., 0., 0., 0., 0.,
          0., 0., 5.68136619e-03, 5.61823994e-02, 1.89378876e-02, 0., 0.,
          0., 0., 0., 6.94389222e-03, 1.01002067e-01, 1.57815740e-02, 0.,
          0., 0., 0., 0., 0., 1.45190470e-02, 8.83768126e-03, 0., 0., 0.,
          0., 0., 0., 0., 0., 0., 0., 0., 0., 0., 0., 0., 0., 0., 0., 0.,
          0., 0., 0., 0., 0., 0., 0., 0., 0., 0., 0., 0., 0., 0., 0., 0.,
          0., 0., 0., 0., 0., 0., 0., 0., 0., 0., 0., 0., 0., 0., 0., 0.,
          0., 0., 0., 0., 0., 0., 0., 0., 0., 0., 0., 0., 0., 0., 0., 0.,
          0., 0., 0., 0., 0., 0., 0., 0., 0., 0., 0., 0., 0., 0., 0., 0.,
          0., 0., 0., 0., 0., 0., 0., 0., 0., 0., 0., 0., 0., 0., 0., 0.,
          0., 0., 0., 0., 0., 0., 0., 0., 0., 0., 0., 0., 0., 0., 0., 0.,
          0., 0., 0., 0., 0., 0., 0., 0., 0., 0., 0., 0., 0., 0., 0., 0.,
          0., 0., 0., 0., 0., 0., 0., 0., 0., 0., 0., 0., 0., 0., 0., 0.,
          0., 0., 0., 0., 0., 0., 0., 0., 0., 0., 0., 0., 0., 0., 0., 0.,
          0., 0., 0., 0., 0., 0., 4.70588237e-01, 8.03921580e-01 ]
      - [ 0., 0., 0., 1.92235818e-03, 0., 1.40972938e-02, 5.25444560e-02,
          1.53788654e-02, 0., 0., 0., 8.33021849e-03, 7.68943271e-03,
          1.17263846e-01, 2.49265775e-01, 3.71655934e-02, 0., 0., 0.,
          1.92235818e-03, 4.48550237e-03, 2.65285432e-01, 6.72825396e-01,
          4.93405275e-02, 0., 0., 0., 0., 6.40786067e-03, 1.53788656e-01,
          3.76782209e-01, 1.81342453e-01, 0., 0., 0., 0., 7.04864692e-03,
          3.26800905e-02, 2.57595986e-01, 2.66566992e-01, 0., 0., 0., 0.,
          3.20393033e-03, 4.48550247e-02, 1.21749349e-01, 1.40332147e-01,
          0., 0., 0., 0., 1.28157216e-03, 2.43498702e-02, 1.10215202e-01,
          3.33208740e-02, 0., 0., 0., 0., 0., 5.12628863e-03,
          1.79420095e-02, 1.66604370e-02, 0., 0., 0., 0., 6.40786078e-04,
          1.28157216e-03, 3.07577308e-02, 1.28157216e-03, 0., 0., 0., 0.,
          0., 0., 2.56314431e-03, 0., 0., 0., 0., 0., 0., 0., 0., 0., 0.,
          0., 0., 0., 0., 0., 0., 0., 0., 0., 0., 0., 0., 0., 0., 0., 0.,
          0., 0., 0., 0., 0., 0., 0., 0., 0., 0., 0., 0., 0., 0., 0., 0.,
          0., 0., 0., 0., 0., 0., 0., 0., 0., 0., 0., 0., 6.40786078e-04,
          1.79420095e-02, 0., 0., 0., 0., 0., 0., 0., 0., 0., 0., 0., 0.,
          0., 0., 0., 0., 0., 0., 0., 0., 0., 0., 0., 0., 0., 0., 0., 0.,
          0., 0., 0., 0., 0., 0., 0., 0., 0., 0., 0., 0., 0., 0., 0., 0.,
          0., 0., 0., 0., 0., 0., 0., 0., 0., 0., 0., 0., 0., 0., 0., 0.,
          0., 0., 6.40786078e-04, 6.40786067e-03, 3.84471635e-03, 0., 0.,
          0., 0., 0., 0., 0., 0., 0., 0., 0., 0., 0., 0., 0., 0., 0., 0.,
          0., 0., 0., 0., 0., 0., 0., 0., 0., 0., 0., 0., 0., 0., 0., 0.,
          0., 0., 0., 0., 0., 0., 0., 0., 0., 0., 0., 0., 0., 0., 0., 0.,
          0., 0., 0., 0., 0., 0., 0., 0., 0., 0., 0., 1.28157216e-03,
          6.40786078e-04, 5.76707441e-03, 0., 0., 0., 0., 0.,
          3.20393033e-03, 0., 0., 0., 0., 0., 0., 0., 0., 0., 0., 0., 0.,
          0., 0., 0., 0., 0., 0., 0., 0., 0., 0., 0., 0., 0., 0., 0., 0.,
          0., 0., 0., 0., 0., 0., 0., 0., 0., 0., 0., 0., 0., 0., 0., 0.,
          0., 0., 0., 0., 0., 0., 0., 0., 0., 0., 3.84471635e-03,
          1.28157216e-03, 7.68943271e-03, 3.20393033e-03, 0., 0., 0., 0.,
          0., 4.67773825e-02, 4.10103090e-02, 0., 0., 0., 0., 0.,
          1.28157216e-03, 1.92235820e-02, 8.97100475e-03, 0., 0., 0., 0.,
          0., 0., 0., 0., 0., 0., 0., 0., 0., 0., 0., 0., 0., 0., 0., 0.,
          0., 0., 0., 0., 0., 0., 0., 0., 0., 0., 0., 0., 0., 0., 0., 0.,
          0., 0., 0., 0., 0., 0., 0., 0., 0., 0., 0., 0., 0., 0., 0., 0.,
          0., 0., 0., 0., 0., 0., 0., 0., 0., 0., 0., 0., 0., 0., 0., 0.,
          0., 0., 0., 0., 0., 0., 0., 0., 0., 0., 0., 0., 0., 0., 0., 0.,
          0., 0., 0., 0., 0., 0., 0., 0., 0., 0., 0., 0., 0., 0., 0., 0.,
          0., 0., 0., 0., 0., 0., 0., 0., 0., 0., 0., 0., 0., 0., 0., 0.,
          0., 0., 0., 0., 0., 0., 0., 0., 0., 0., 0., 0., 0., 0., 0., 0.,
          0., 0., 0., 0., 0., 0., 0., 0., 0., 0., 0., 0., 0., 0., 0., 0.,
          0., 0., 0., 0., 0., 0., 0., 0., 0., 0., 0., 0., 0., 0., 0., 0.,
          0., 0., 0., 0., 0., 3.49019617e-01, 8.19607854e-01 ]
      - [ 0., 0., 0., 0., 0., 6.07202761e-04, 1.21440552e-03,
          6.07202761e-04, 0., 0., 0., 0., 0., 1.51800690e-03,
          4.25041933e-03, 2.73241242e-03, 0., 0., 0., 0., 0., 0.,
          5.76842623e-03, 6.07202761e-03, 0., 0., 0., 0., 0.,
          3.03601380e-04, 1.51800690e-03, 1.51800690e-03, 0., 0., 0., 0.,
          0., 3.03601380e-04, 3.64321657e-03, 2.73241242e-03, 0., 0., 0.,
          0., 0., 6.07202761e-04, 1.16582930e-01, 1.40567437e-01, 0., 0.,
          0., 0., 0., 1.51800690e-03, 3.03297788e-01, 9.25377011e-01, 0.,
          0., 0., 0., 0., 0., 2.15556975e-02, 1.28119782e-01, 0., 0., 0.,
          0., 0., 3.03601380e-03, 6.07202761e-03, 5.76842623e-03, 0., 0.,
          0., 0., 0., 3.03601380e-04, 9.10804141e-04, 3.03601380e-04, 0.,
          0., 0., 0., 0., 0., 0., 0., 0., 0., 0., 0., 0., 0., 0., 0., 0.,
          0., 0., 0., 0., 0., 0., 0., 0., 0., 0., 0., 0., 0., 0., 0., 0.,
          0., 0., 0., 0., 0., 0., 0., 0., 0., 0., 0., 0., 0., 0., 0., 0.,
          0., 0., 0., 0., 0., 6.07202761e-04, 3.49141583e-02, 0., 0., 0.,
          0., 0., 0., 1.21440552e-03, 2.12520966e-03, 0., 0., 0., 0., 0.,
          0., 0., 0., 0., 0., 0., 0., 0., 0., 0., 0., 0., 0., 0., 0., 0.,
          0., 0., 0., 0., 0., 0., 0., 0., 0., 0., 0., 0., 0., 0., 0., 0.,
          0., 0., 0., 0., 0., 0., 0., 0., 0., 0., 0., 0., 0., 0., 0., 0.,
          0., 0., 4.85762209e-03, 0., 0., 0., 0., 0., 0., 0., 0., 0., 0.,
          0., 0., 0., 0., 0., 0., 0., 0., 0., 0., 0., 0., 0., 0., 0., 0.,
          0., 0., 0., 0., 0., 0., 0., 0., 0., 0., 0., 0., 0., 0., 0., 0.,
          0., 0., 0., 0., 0., 0., 0., 0., 0., 0., 0., 0., 0., 0., 0., 0.,
          0., 0., 0., 0., 0., 0., 0., 0., 0., 0., 0., 0., 0., 0., 0., 0.,
          0., 0., 0., 0., 0., 0., 0., 0., 0., 0., 0., 0., 0., 0., 0., 0.,
          0., 0., 0., 0., 0., 0., 0., 0., 0., 0., 0., 0., 0., 0., 0., 0.,
          0., 0., 0., 0., 0., 0., 0., 0., 0., 0., 0., 0., 0., 0., 0., 0.,
          0., 0., 0., 0., 0., 0., 0., 0., 0., 0., 0., 0., 0., 0., 0., 0.,
          0., 0., 0., 0., 0., 0., 0., 0., 0., 0., 0., 0., 0., 0., 0., 0.,
          0., 0., 0., 0., 0., 0., 0., 0., 0., 0., 0., 0., 0., 0., 0., 0.,
          0., 0., 0., 0., 0., 0., 0., 0., 0., 0., 0., 0., 0., 0., 0., 0.,
          0., 0., 0., 0., 0., 0., 0., 0., 0., 0., 0., 0., 0., 0., 0., 0.,
          0., 0., 0., 0., 0., 0., 0., 0., 0., 0., 0., 0., 0., 0., 0., 0.,
          0., 0., 0., 0., 0., 0., 0., 0., 0., 0., 0., 0., 0., 0., 0., 0.,
          0., 0., 0., 0., 0., 0., 0., 0., 0., 0., 0., 0., 0., 0., 0., 0.,
          0., 0., 0., 0., 0., 0., 0., 0., 0., 0., 0., 0., 0., 0., 0., 0.,
          0., 0., 0., 0., 0., 0., 0., 0., 0., 0., 0., 0., 0., 0., 0., 0.,
          0., 0., 0., 0., 0., 0., 0., 0., 0., 0., 0., 0., 0., 0., 0., 0.,
          0., 0., 0., 0., 0., 0., 0., 0., 0., 0., 0., 0., 0., 0.,
          2.43137255e-01, 9.05882359e-01 ]
      - [ 0., 0., 0., 0., 5.80158038e-03, 9.41145271e-02, 6.18835278e-02,
          3.86772049e-03, 0., 0., 0., 0., 3.86772049e-03, 4.26093847e-01,
          2.68161952e-01, 5.09249866e-02, 0., 0., 0., 0., 1.28924008e-03,
          3.26822370e-01, 3.83548945e-01, 2.51401830e-02, 0., 0., 0., 0.,
          0., 7.60651678e-02, 5.30522287e-01, 5.35034649e-02, 0., 0., 0.,
          0., 0., 3.28756236e-02, 3.50028694e-01, 7.73544088e-02, 0., 0.,
          0., 0., 0., 1.67601220e-02, 1.37304068e-01, 2.90079024e-02, 0.,
          0., 0., 0., 0., 1.67601220e-02, 9.66930091e-02, 4.06110622e-02,
          0., 0., 0., 0., 0., 0., 2.77186632e-02, 1.93386024e-03, 0., 0.,
          0., 0., 1.28924008e-03, 7.92882666e-02, 2.90079024e-02,
          7.73544097e-03, 0., 0., 0., 0., 1.28924008e-03, 8.83129463e-02,
          5.35034649e-02, 6.44620042e-04, 0., 0., 0., 0., 0.,
          7.09082047e-03, 6.44620042e-03, 0., 0., 0., 0., 0., 0., 0., 0.,
          0., 0., 0., 0., 0., 0., 0., 0., 0., 0., 0., 0., 0., 0., 0., 0.,
          0., 0., 0., 0., 0., 0., 0., 0., 0., 0., 0., 0., 0., 0., 0., 0.,
          0., 0., 0., 0., 0., 0., 7.73544088e-02, 2.57848017e-03,
          2.57848017e-03, 0., 0., 0., 0., 0., 1.93386024e-03,
          4.51234030e-03, 0., 0., 0., 0., 0., 0., 0., 0., 0., 0., 0., 0.,
          0., 0., 0., 0., 0., 0., 0., 0., 0., 0., 0., 0., 0., 0., 0., 0.,
          0., 0., 0., 0., 0., 0., 0., 0., 0., 0., 0., 0., 0., 0., 0., 0.,
          0., 0., 0., 0., 0., 0., 0., 0., 0., 6.44620042e-04,
          1.03139207e-02, 5.80158038e-03, 0., 0., 0., 0., 0., 0.,
          1.03139207e-02, 2.44955625e-02, 0., 0., 0., 0., 0., 0., 0., 0.,
          0., 0., 0., 0., 0., 0., 0., 0., 0., 0., 0., 0., 0., 0., 0., 0.,
          0., 0., 0., 0., 0., 0., 0., 0., 0., 0., 0., 0., 0., 0., 0., 0.,
          0., 0., 0., 0., 0., 0., 0., 0., 0., 0., 0., 0., 0., 0.,
          3.86772049e-03, 5.15696034e-03, 0., 0., 0., 0., 0., 0., 0., 0.,
          0., 0., 0., 0., 0., 0., 0., 0., 0., 0., 0., 0., 0., 0., 0., 0.,
          0., 0., 0., 0., 0., 0., 0., 0., 0., 0., 0., 0., 0., 0., 0., 0.,
          0., 0., 0., 0., 0., 0., 0., 0., 0., 0., 0., 0., 0., 0., 0., 0.,
          0., 0., 0., 0., 0., 0., 1.93386024e-03, 4.51234030e-03, 0., 0.,
          0., 0., 0., 0., 5.80158038e-03, 2.57848017e-03, 0., 0., 0., 0.,
          0., 0., 0., 0., 0., 0., 0., 0., 0., 0., 0., 0., 0., 0., 0., 0.,
          0., 0., 0., 0., 0., 0., 0., 0., 0., 0., 0., 0., 0., 0., 0., 0.,
          0., 0., 0., 0., 0., 0., 0., 0., 0., 0., 0., 0., 0., 0., 0., 0.,
          0., 0., 0., 0., 0., 0., 0., 0., 0., 0., 0., 0., 0., 0., 0., 0.,
          0., 0., 0., 0., 0., 0., 0., 0., 0., 0., 0., 0., 0., 0., 0., 0.,
          0., 0., 0., 0., 0., 0., 0., 0., 0., 0., 0., 0., 0., 0., 0., 0.,
          0., 0., 0., 0., 0., 0., 0., 0., 0., 0., 0., 0., 0., 0., 0., 0.,
          0., 0., 0., 0., 0., 0., 0., 0., 0., 0., 0., 0., 0., 0., 0., 0.,
          0., 0., 0., 0., 0., 0., 0., 0., 0., 0., 0., 0., 0., 0., 0., 0.,
          0., 0., 0., 0., 0., 0., 0., 0., 0., 0., 0., 0., 0., 0., 0., 0.,
          0., 0., 0., 0., 0., 0., 0., 0., 0., 0., 0., 0., 0.,
          2.82352954e-01, 8.94117653e-01 ]
      - [ 0., 0., 0., 0., 1.78392474e-02, 1.12571798e-01, 5.84389120e-02,
          1.66089535e-02, 0., 0., 0., 0., 2.39907112e-02, 3.18645865e-01,
          3.26027632e-01, 1.23029286e-02, 0., 0., 0., 0., 1.66089535e-02,
          2.86043108e-01, 5.61628699e-01, 2.70664431e-02, 0., 0., 0., 0.,
          4.92117181e-03, 1.83928788e-01, 5.03189802e-01, 1.90695394e-02,
          0., 0., 0., 0., 6.15146477e-04, 9.90385786e-02, 1.92540839e-01,
          3.50633487e-02, 0., 0., 0., 0., 0., 5.29025942e-02,
          9.47325528e-02, 1.29180755e-02, 0., 0., 0., 0., 0.,
          4.92117181e-03, 6.02843538e-02, 3.50633487e-02, 0., 0., 0., 0.,
          0., 0., 6.76661078e-03, 7.99690373e-03, 0., 0., 0., 0., 0.,
          1.84543931e-03, 6.15146477e-04, 0., 0., 0., 0., 0., 0.,
          1.23029295e-03, 0., 0., 0., 0., 0., 0., 0., 0., 0., 0., 0., 0.,
          0., 0., 0., 0., 0., 0., 0., 0., 0., 0., 0., 0., 0., 0., 0., 0.,
          0., 0., 0., 0., 0., 0., 0., 0., 0., 0., 0., 0., 0., 0., 0., 0.,
          0., 0., 0., 0., 0., 0., 0., 0., 0., 0., 0., 0., 0., 0., 0., 0.,
          0., 0., 0., 0., 0., 0., 0., 0., 0., 0., 0., 0., 0., 0., 0., 0.,
          0., 0., 0., 0., 0., 0., 0., 0., 0., 0., 0., 0., 0., 0., 0., 0.,
          0., 0., 0., 0., 0., 0., 0., 0., 0., 0., 0., 0., 0., 0., 0., 0.,
          0., 0., 0., 0., 0., 0., 0., 0., 0., 0., 0., 6.39752299e-02,
          2.46058591e-03, 6.15146477e-04, 0., 0., 0., 0., 0.,
          2.46058591e-03, 0., 0., 0., 0., 0., 0., 0., 0., 0., 0., 0., 0.,
          0., 0., 0., 0., 0., 0., 0., 0., 0., 0., 0., 0., 0., 0., 0., 0.,
          0., 0., 0., 0., 0., 0., 0., 0., 0., 0., 0., 0., 0., 0., 0., 0.,
          0., 0., 0., 0., 0., 0., 0., 0., 0., 0., 6.15146477e-04,
          1.01499163e-01, 3.07573215e-03, 0., 0., 0., 0., 0., 0.,
          9.84234363e-03, 0., 0., 0., 0., 0., 0., 0., 0., 0., 0., 0., 0.,
          0., 0., 0., 0., 0., 0., 0., 0., 0., 0., 0., 0., 0., 0., 0., 0.,
          0., 0., 0., 0., 0., 0., 0., 0., 0., 0., 0., 0., 0., 0., 0., 0.,
          0., 0., 0., 0., 0., 0., 0., 0., 0., 0., 0., 9.47325528e-02,
          9.22719669e-03, 1.23029295e-03, 0., 0., 0., 0., 0.,
          1.90695394e-02, 9.84234363e-03, 0., 0., 0., 0., 0., 0., 0., 0.,
          0., 0., 0., 0., 0., 0., 0., 0., 0., 0., 0., 0., 0., 0., 0., 0.,
          0., 0., 0., 0., 0., 0., 0., 0., 0., 0., 0., 0., 0., 0., 0., 0.,
          0., 0., 0., 0., 0., 0., 0., 0., 0., 0., 0., 0., 0., 0., 0., 0.,
          0., 0., 0., 0., 0., 0., 0., 0., 0., 0., 0., 0., 0., 0., 0., 0.,
          0., 0., 0., 0., 0., 0., 0., 0., 0., 0., 0., 0., 0., 0., 0., 0.,
          0., 0., 0., 0., 0., 0., 0., 0., 0., 0., 0., 0., 0., 0., 0., 0.,
          0., 0., 0., 0., 0., 0., 0., 0., 0., 0., 0., 0., 0., 0., 0., 0.,
          0., 0., 0., 0., 0., 0., 0., 0., 0., 0., 0., 0., 0., 0., 0., 0.,
          0., 0., 0., 0., 0., 0., 0., 0., 0., 0., 0., 0., 0., 0., 0., 0.,
          0., 0., 0., 0., 0., 0., 0., 0., 0., 0., 0., 0., 0., 0., 0., 0.,
          0., 0., 0., 0., 0., 0., 0., 0., 0., 4.11764711e-01,
          7.84313738e-01 ]
      - [ 0., 0., 0., 0., 1.40099097e-02, 9.40665379e-02, 6.67138584e-03,
          2.66855420e-03, 0., 0., 0., 0., 6.93824142e-02, 3.75599027e-01,
          2.07480103e-01, 4.00283141e-03, 0., 0., 0., 0., 5.73739186e-02,
          4.06954527e-01, 5.51056445e-01, 6.67138584e-03, 0., 0., 0., 0.,
          6.53795823e-02, 2.40169883e-01, 2.68189698e-01, 6.00424735e-03,
          0., 0., 0., 0., 9.33993980e-03, 1.56777561e-01, 1.70120329e-01,
          9.33993980e-03, 0., 0., 0., 0., 6.67138549e-04, 8.87294337e-02,
          1.28090605e-01, 6.67138584e-03, 0., 0., 0., 0., 6.67138549e-04,
          1.93470195e-02, 7.67209381e-02, 3.33569292e-03, 0., 0., 0., 0.,
          0., 0., 2.66855420e-03, 2.66855420e-03, 0., 0., 0., 0.,
          2.20155735e-02, 2.04144403e-01, 1.00070788e-02, 3.53583433e-02,
          0., 0., 0., 0., 1.06742168e-02, 2.34832779e-01, 5.80410548e-02,
          1.73456036e-02, 0., 0., 0., 0., 2.00141571e-03, 3.60254832e-02,
          3.33569292e-03, 1.33427710e-03, 0., 0., 0., 0., 0., 0., 0., 0.,
          0., 0., 0., 0., 0., 0., 0., 0., 0., 0., 0., 0., 0., 0., 0., 0.,
          0., 0., 0., 0., 0., 0., 0., 0., 0., 0., 0., 0., 0., 0., 0., 0.,
          0., 0., 0., 0., 3.33569292e-03, 8.47266018e-02, 8.00566282e-03,
          3.33569292e-03, 0., 0., 0., 0., 0., 3.33569292e-03,
          2.00141571e-03, 0., 0., 0., 0., 0., 0., 0., 0., 0., 0., 0., 0.,
          0., 0., 0., 0., 0., 0., 0., 0., 0., 0., 0., 0., 0., 0., 0., 0.,
          0., 0., 0., 0., 0., 0., 0., 0., 0., 0., 0., 0., 0., 0., 0., 0.,
          0., 0., 0., 0., 0., 0., 0., 0., 0., 0., 8.67280178e-03,
          2.00141571e-03, 0., 0., 0., 0., 0., 0., 0., 0., 0., 0., 0., 0.,
          0., 0., 0., 0., 0., 0., 0., 0., 0., 0., 0., 0., 0., 0., 0., 0.,
          0., 0., 0., 0., 0., 0., 0., 0., 0., 0., 0., 0., 0., 0., 0., 0.,
          0., 0., 0., 0., 0., 0., 0., 0., 0., 0., 0., 0., 0., 0., 0., 0.,
          0., 0., 0., 0., 0., 0., 0., 0., 0., 0., 0., 0., 0., 0., 0., 0.,
          0., 0., 0., 0., 0., 0., 0., 0., 0., 0., 0., 0., 0., 0., 0., 0.,
          0., 0., 0., 0., 0., 0., 0., 0., 0., 0., 0., 0., 0., 0., 0., 0.,
          0., 0., 0., 0., 0., 0., 0., 0., 0., 0., 0., 0., 0., 0., 0., 0.,
          0., 0., 1.33427710e-03, 0., 0., 0., 0., 0., 0., 0., 0., 0., 0.,
          0., 0., 0., 0., 0., 0., 0., 0., 0., 0., 0., 0., 0., 0., 0., 0.,
          0., 0., 0., 0., 0., 0., 0., 0., 0., 0., 0., 0., 0., 0., 0., 0.,
          0., 0., 0., 0., 0., 0., 0., 0., 0., 0., 0., 0., 0., 0., 0., 0.,
          0., 0., 0., 0., 0., 0., 0., 0., 0., 0., 0., 0., 0., 0., 0., 0.,
          0., 0., 0., 0., 0., 0., 0., 0., 0., 0., 0., 0., 0., 0., 0., 0.,
          0., 0., 0., 0., 0., 0., 0., 0., 0., 0., 0., 0., 0., 0., 0., 0.,
          0., 0., 0., 0., 0., 0., 0., 0., 0., 0., 0., 0., 0., 0., 0., 0.,
          0., 0., 0., 0., 0., 0., 0., 0., 0., 0., 0., 0., 0., 0., 0., 0.,
          0., 0., 0., 0., 0., 0., 0., 0., 0., 0., 0., 0., 0., 0., 0., 0.,
          0., 0., 0., 0., 0., 0., 0., 0., 0., 0., 0., 0., 0., 0., 0., 0.,
          0., 0., 0., 0., 0., 0., 0., 0., 0., 0., 0., 0., 0., 0., 0., 0.,
          3.49019617e-01, 8.31372559e-01 ]
      - [ 0., 0., 0., 0., 0., 1.20802179e-01, 3.26366097e-01,
          8.00898392e-03, 0., 0., 0., 0., 0., 9.74426419e-02,
          5.77314258e-01, 1.80202145e-02, 0., 0., 0., 0., 0.,
          9.47729796e-02, 4.58514333e-01, 2.40269527e-02, 0., 0., 0., 0.,
          0., 5.80651350e-02, 2.52950400e-01, 3.53730135e-02, 0., 0., 0.,
          0., 0., 2.00224598e-03, 1.44161716e-01, 3.80426757e-02, 0., 0.,
          0., 0., 0., 0., 2.73640286e-02, 1.46831376e-02, 0., 0., 0., 0.,
          0., 0., 0., 3.33707663e-03, 0., 0., 0., 0., 0., 0., 0., 0., 0.,
          0., 0., 0., 0., 1.66853834e-02, 2.46943668e-01, 7.34156882e-03,
          0., 0., 0., 0., 0., 3.33707663e-03, 2.80314442e-02, 0., 0., 0.,
          0., 0., 0., 0., 0., 0., 0., 0., 0., 0., 0., 0., 0., 0., 0., 0.,
          0., 0., 0., 0., 0., 0., 0., 0., 0., 0., 0., 0., 0., 0., 0., 0.,
          0., 0., 0., 0., 0., 0., 0., 0., 0., 0., 0., 0., 0., 0., 0., 0.,
          0., 0., 0., 7.34156882e-03, 2.56287485e-01, 5.93999662e-02, 0.,
          0., 0., 0., 0., 0., 8.00898392e-03, 2.46943682e-02, 0., 0., 0.,
          0., 0., 0., 0., 0., 0., 0., 0., 0., 0., 0., 0., 0., 0., 0., 0.,
          0., 0., 0., 0., 0., 0., 0., 0., 0., 0., 0., 0., 0., 0., 0., 0.,
          0., 0., 0., 0., 0., 0., 0., 0., 0., 0., 0., 0., 0., 0., 0., 0.,
          0., 0., 8.67639948e-03, 2.12238073e-01, 6.27370402e-02, 0., 0.,
          0., 0., 0., 2.66966131e-03, 1.80202145e-02, 5.80651350e-02, 0.,
          0., 0., 0., 0., 0., 0., 0., 0., 0., 0., 0., 0., 0., 0., 0., 0.,
          0., 0., 0., 0., 0., 0., 0., 0., 0., 0., 0., 0., 0., 0., 0., 0.,
          0., 0., 0., 0., 0., 0., 0., 0., 0., 0., 0., 0., 0., 0., 0., 0.,
          0., 0., 0., 0., 2.00224593e-02, 1.04116790e-01, 6.00673817e-03,
          0., 0., 0., 0., 0., 7.34156882e-03, 6.67415326e-04, 0., 0., 0.,
          0., 0., 0., 0., 0., 0., 0., 0., 0., 0., 0., 0., 0., 0., 0., 0.,
          0., 0., 0., 0., 0., 0., 0., 0., 0., 0., 0., 0., 0., 0., 0., 0.,
          0., 0., 0., 0., 0., 0., 0., 0., 0., 0., 0., 0., 0., 0., 0., 0.,
          0., 0., 0., 4.07123342e-02, 1.41492054e-01, 2.66966131e-03, 0.,
          0., 0., 0., 0., 1.46831376e-02, 7.67527670e-02, 0., 0., 0., 0.,
          0., 0., 6.67415326e-03, 1.13460608e-02, 0., 0., 0., 0., 0., 0.,
          0., 0., 0., 0., 0., 0., 0., 0., 0., 0., 0., 0., 0., 0., 0., 0.,
          0., 0., 0., 0., 0., 0., 0., 0., 0., 0., 0., 0., 0., 0., 0., 0.,
          0., 0., 0., 0., 0., 0., 0., 0., 0., 0., 0., 0., 0., 0., 0., 0.,
          0., 0., 0., 0., 0., 0., 0., 0., 0., 0., 0., 0., 0., 0., 0., 0.,
          0., 0., 0., 0., 0., 0., 0., 0., 0., 0., 0., 0., 0., 0., 0., 0.,
          0., 0., 0., 0., 0., 0., 0., 0., 0., 0., 0., 0., 0., 0., 0., 0.,
          0., 0., 0., 0., 0., 0., 0., 0., 0., 0., 0., 0., 0., 0., 0., 0.,
          0., 0., 0., 0., 0., 0., 0., 0., 0., 0., 0., 0., 0., 0., 0., 0.,
          0., 0., 0., 0., 0., 0., 0., 0., 0., 0., 0., 0., 0., 0., 0., 0.,
          0., 0., 0., 0., 0., 0., 0., 0., 0., 0., 0., 0., 0., 0., 0., 0.,
          0., 0., 0., 4.70588237e-01, 8.03921580e-01 ]
      - [ 0., 0., 0., 0., 2.50501297e-02, 9.95234922e-02, 5.07772900e-02,
          5.41624427e-03, 0., 0., 0., 4.06218320e-03, 6.22868128e-02,
          1.96338862e-01, 3.58826190e-01, 2.23420076e-02, 0., 0., 0.,
          2.70812213e-03, 5.34854122e-02, 1.50977820e-01, 5.85631430e-01,
          7.37963319e-02, 0., 0., 0., 0., 2.50501297e-02, 1.26604721e-01,
          5.04387736e-01, 7.65044540e-02, 0., 0., 0., 0., 6.77030534e-03,
          2.23420076e-02, 3.06017816e-01, 1.26604721e-01, 0., 0., 0., 0.,
          0., 6.09327480e-03, 6.70260265e-02, 8.19206983e-02, 0., 0., 0.,
          0., 0., 0., 3.24974656e-02, 2.57271603e-02, 0., 0., 0., 0., 0.,
          0., 2.70812213e-03, 1.35406107e-03, 0., 0., 0., 0.,
          1.08324885e-02, 7.98896030e-02, 6.36408702e-02, 0., 0., 0., 0.,
          0., 3.38515267e-03, 2.91123148e-02, 1.69257633e-02, 0., 0., 0.,
          0., 0., 0., 2.70812213e-03, 1.35406107e-03, 0., 0., 0., 0., 0.,
          0., 0., 0., 0., 0., 0., 0., 0., 0., 0., 0., 0., 0., 0., 0., 0.,
          0., 0., 0., 0., 0., 0., 0., 0., 0., 0., 0., 0., 0., 0., 0., 0.,
          0., 0., 0., 0., 0., 0., 0., 0., 1.96338855e-02, 1.11710042e-01,
          4.87461984e-02, 0., 0., 0., 0., 0., 0., 2.97893453e-02,
          3.72366793e-02, 0., 0., 0., 0., 0., 0., 0., 8.12436640e-03, 0.,
          0., 0., 0., 0., 0., 0., 0., 0., 0., 0., 0., 0., 0., 0., 0., 0.,
          0., 0., 0., 0., 0., 0., 0., 0., 0., 0., 0., 0., 0., 0., 0., 0.,
          0., 0., 0., 0., 0., 0., 0., 0., 0., 0., 0., 0., 2.64041908e-02,
          3.79137099e-02, 1.28635801e-02, 0., 0., 0., 0., 0.,
          3.38515267e-03, 3.11434064e-02, 8.05666372e-02, 1.35406107e-03,
          0., 0., 0., 0., 0., 4.73921373e-03, 3.85907404e-02,
          1.35406107e-03, 0., 0., 0., 0., 0., 0., 0., 0., 0., 0., 0., 0.,
          0., 0., 0., 0., 0., 0., 0., 0., 0., 0., 0., 0., 0., 0., 0., 0.,
          0., 0., 0., 0., 0., 0., 0., 0., 0., 0., 0., 0., 0., 0., 0., 0.,
          8.12436640e-03, 8.12436640e-03, 5.41624427e-03, 0., 0., 0., 0.,
          0., 0., 0., 0., 0., 0., 0., 0., 0., 0., 0., 0., 0., 0., 0., 0.,
          0., 0., 0., 0., 0., 0., 0., 0., 0., 0., 0., 0., 0., 0., 0., 0.,
          0., 0., 0., 0., 0., 0., 0., 0., 0., 0., 0., 0., 0., 0., 0., 0.,
          0., 0., 0., 0., 0., 0., 0., 0., 6.77030534e-04, 4.73921373e-03,
          1.01554580e-02, 1.01554580e-02, 0., 0., 0., 0., 2.03109160e-03,
          0., 2.70812213e-03, 0., 0., 0., 0., 0., 0., 0., 2.70812213e-03,
          0., 0., 0., 0., 0., 0., 0., 0., 0., 0., 0., 0., 0., 0., 0., 0.,
          0., 0., 0., 0., 0., 0., 0., 0., 0., 0., 0., 0., 0., 0., 0., 0.,
          0., 0., 0., 0., 0., 0., 0., 0., 0., 0., 0., 0., 0., 0., 0., 0.,
          0., 0., 0., 0., 0., 0., 0., 0., 0., 0., 0., 0., 0., 0., 0., 0.,
          0., 0., 0., 0., 0., 0., 0., 0., 0., 0., 0., 0., 0., 0., 0., 0.,
          0., 0., 0., 0., 0., 0., 0., 0., 0., 0., 0., 0., 0., 0., 0., 0.,
          0., 0., 0., 0., 0., 0., 0., 0., 0., 0., 0., 0., 0., 0., 0., 0.,
          0., 0., 0., 0., 0., 0., 0., 0., 0., 0., 0., 0., 0., 0., 0., 0.,
          0., 0., 0., 0., 0., 0., 0., 0., 0., 0., 0., 0., 0., 0., 0., 0.,
          0., 0., 0., 0., 0., 0., 0., 0., 0., 0., 0., 0., 0., 0., 0., 0.,
          0., 0., 0., 0., 0., 0., 0., 0., 0., 0., 3.37254912e-01,
          8.39215696e-01 ]
      - [ 0., 0., 0., 0., 1.50936283e-02, 1.76357135e-01, 4.26593602e-01,
          5.40193021e-02, 0., 0., 0., 0., 9.53281764e-03, 1.15982614e-01,
          5.87857127e-01, 1.42992269e-02, 0., 0., 0., 0., 7.94401485e-03,
          1.58880293e-01, 3.51125449e-01, 1.66824311e-02, 0., 0., 0., 0.,
          8.73841625e-03, 1.13599412e-01, 2.02572376e-01, 5.87857105e-02,
          0., 0., 0., 0., 0., 6.67297244e-02, 1.19160220e-01,
          3.73368710e-02, 0., 0., 0., 0., 0., 2.93928552e-02,
          1.14393815e-01, 3.89256738e-02, 0., 0., 0., 0., 0., 0.,
          3.41592655e-02, 1.27104241e-02, 0., 0., 0., 0., 0., 0., 0., 0.,
          0., 0., 0., 0., 0., 3.01872566e-02, 6.83185309e-02,
          1.11216204e-02, 0., 0., 0., 0., 0., 7.94401509e-04,
          5.56081021e-03, 0., 0., 0., 0., 0., 0., 0., 0., 0., 0., 0., 0.,
          0., 0., 0., 0., 0., 0., 0., 0., 0., 0., 0., 0., 0., 0., 0., 0.,
          0., 0., 0., 0., 0., 0., 0., 0., 0., 0., 0., 0., 0., 0., 0., 0.,
          0., 0., 0., 0., 0., 0., 0., 0., 0., 2.38320441e-03,
          5.16360961e-02, 6.03745133e-02, 7.94401485e-03, 0., 0., 0., 0.,
          0., 0., 0., 0., 0., 0., 0., 0., 0., 0., 0., 0., 0., 0., 0., 0.,
          0., 0., 0., 0., 0., 0., 0., 0., 0., 0., 0., 0., 0., 0., 0., 0.,
          0., 0., 0., 0., 0., 0., 0., 0., 0., 0., 0., 0., 0., 0., 0., 0.,
          0., 0., 0., 0., 0., 0., 0., 0., 2.38320441e-03, 9.37393755e-02,
          1.41403466e-01, 4.52808850e-02, 0., 0., 0., 0., 5.56081021e-03,
          6.75241277e-02, 1.95422769e-01, 1.19954623e-01, 0., 0., 0., 0.,
          0., 0., 8.57953578e-02, 6.43465221e-02, 0., 0., 0., 0., 0., 0.,
          0., 0., 0., 0., 0., 0., 0., 0., 0., 0., 0., 0., 0., 0., 0., 0.,
          0., 0., 0., 0., 0., 0., 0., 0., 0., 0., 0., 0., 0., 0., 0., 0.,
          0., 0., 0., 0., 0., 1.58880302e-03, 7.94401509e-04,
          9.45337787e-02, 1.00094587e-01, 1.35048255e-02, 0., 0., 0., 0.,
          0., 2.38320441e-03, 1.58880302e-03, 0., 0., 0., 0., 0., 0., 0.,
          0., 0., 0., 0., 0., 0., 0., 0., 0., 0., 0., 0., 0., 0., 0., 0.,
          0., 0., 0., 0., 0., 0., 0., 0., 0., 0., 0., 0., 0., 0., 0., 0.,
          0., 0., 0., 0., 0., 0., 0., 0., 0., 0., 0., 0., 0.,
          7.94401509e-04, 7.94401485e-03, 1.39020264e-01, 1.58880293e-01,
          5.56081021e-03, 0., 0., 0., 0., 0., 3.65424678e-02,
          6.67297244e-02, 0., 0., 0., 0., 0., 0., 5.56081021e-03,
          2.38320441e-03, 0., 0., 0., 0., 0., 0., 0., 0., 0., 0., 0., 0.,
          0., 0., 0., 0., 0., 0., 0., 0., 0., 0., 0., 0., 0., 0., 0., 0.,
          0., 0., 0., 0., 0., 0., 0., 0., 0., 0., 0., 0., 0., 0., 0., 0.,
          0., 0., 0., 0., 0., 0., 0., 0., 0., 0., 0., 0., 0., 0., 0., 0.,
          0., 0., 0., 0., 0., 0., 0., 0., 0., 0., 0., 0., 0., 0., 0., 0.,
          0., 0., 0., 0., 0., 0., 0., 0., 0., 0., 0., 0., 0., 0., 0., 0.,
          0., 0., 0., 0., 0., 0., 0., 0., 0., 0., 0., 0., 0., 0., 0., 0.,
          0., 0., 0., 0., 0., 0., 0., 0., 0., 0., 0., 0., 0., 0., 0., 0.,
          0., 0., 0., 0., 0., 0., 0., 0., 0., 0., 0., 0., 0., 0., 0., 0.,
          0., 0., 0., 0., 0., 0., 0., 0., 0., 0., 0., 0., 0., 0., 0., 0.,
          0., 0., 0., 0., 0., 0., 0., 0., 0., 0., 0., 0., 0.,
          4.31372553e-01, 8.23529422e-01 ]
      - [ 0., 0., 0., 0., 2.71189511e-02, 2.15014547e-01, 5.81120402e-02,
          1.09767187e-02, 0., 0., 0., 0., 1.54965436e-02, 3.39632601e-01,
          5.02346277e-01, 5.16551454e-03, 0., 0., 0., 0., 1.29137868e-02,
          3.26718807e-01, 5.28173864e-01, 1.80793013e-02, 0., 0., 0., 0.,
          2.58275727e-03, 2.07266271e-01, 2.69898146e-01, 6.45689317e-04,
          0., 0., 0., 0., 6.45689317e-04, 5.42379022e-02, 9.87904668e-02,
          6.45689340e-03, 0., 0., 0., 0., 0., 1.29137868e-02,
          9.10421982e-02, 5.16551454e-03, 0., 0., 0., 0., 0.,
          1.93706795e-03, 3.42215337e-02, 3.22844670e-03, 0., 0., 0., 0.,
          0., 0., 0., 0., 0., 0., 0., 0., 5.16551454e-03, 1.36886135e-01,
          4.19698060e-02, 2.06620581e-02, 0., 0., 0., 0., 6.45689317e-04,
          3.09930872e-02, 9.68534034e-03, 6.45689317e-04, 0., 0., 0., 0.,
          0., 0., 0., 0., 0., 0., 0., 0., 0., 0., 0., 0., 0., 0., 0., 0.,
          0., 0., 0., 0., 0., 0., 0., 0., 0., 0., 0., 0., 0., 0., 0., 0.,
          0., 0., 0., 0., 0., 0., 0., 0., 0., 0., 0., 0., 0., 0., 0., 0.,
          1.29137868e-02, 1.13641322e-01, 2.58275736e-02, 1.61422323e-02,
          0., 0., 0., 0., 1.93706795e-03, 8.78137499e-02, 4.51982534e-03,
          0., 0., 0., 0., 0., 0., 0., 0., 0., 0., 0., 0., 0., 0., 0., 0.,
          0., 0., 0., 0., 0., 0., 0., 0., 0., 0., 0., 0., 0., 0., 0., 0.,
          0., 0., 0., 0., 0., 0., 0., 0., 0., 0., 0., 0., 0., 0., 0., 0.,
          0., 0., 0., 0., 0., 1.93706795e-03, 5.29465266e-02,
          6.45689340e-03, 1.22680971e-02, 0., 0., 0., 0., 0.,
          7.74827180e-03, 7.10258260e-03, 0., 0., 0., 0., 0., 0., 0., 0.,
          0., 0., 0., 0., 0., 0., 0., 0., 0., 0., 0., 0., 0., 0., 0., 0.,
          0., 0., 0., 0., 0., 0., 0., 0., 0., 0., 0., 0., 0., 0., 0., 0.,
          0., 0., 0., 0., 0., 0., 0., 0., 0., 0., 0., 0., 0.,
          6.45689340e-03, 2.77646407e-02, 2.58275727e-03, 0., 0., 0., 0.,
          0., 0., 0., 0., 0., 0., 0., 0., 0., 0., 0., 0., 0., 0., 0., 0.,
          0., 0., 0., 0., 0., 0., 0., 0., 0., 0., 0., 0., 0., 0., 0., 0.,
          0., 0., 0., 0., 0., 0., 0., 0., 0., 0., 0., 0., 0., 0., 0., 0.,
          0., 0., 0., 0., 0., 0., 0., 0., 0., 4.51982534e-03,
          4.90723886e-02, 3.16387787e-02, 0., 0., 0., 0., 0.,
          2.58275727e-03, 3.87413613e-02, 6.71516880e-02, 0., 0., 0., 0.,
          0., 0., 3.22844670e-03, 0., 0., 0., 0., 0., 0., 0., 0., 0., 0.,
          0., 0., 0., 0., 0., 0., 0., 0., 0., 0., 0., 0., 0., 0., 0., 0.,
          0., 0., 0., 0., 0., 0., 0., 0., 0., 0., 0., 0., 0., 0., 0., 0.,
          0., 0., 0., 0., 0., 0., 0., 0., 0., 0., 0., 0., 0., 0., 0., 0.,
          0., 0., 0., 0., 0., 0., 0., 0., 0., 0., 0., 0., 0., 0., 0., 0.,
          0., 0., 0., 0., 0., 0., 0., 0., 0., 0., 0., 0., 0., 0., 0., 0.,
          0., 0., 0., 0., 0., 0., 0., 0., 0., 0., 0., 0., 0., 0., 0., 0.,
          0., 0., 0., 0., 0., 0., 0., 0., 0., 0., 0., 0., 0., 0., 0., 0.,
          0., 0., 0., 0., 0., 0., 0., 0., 0., 0., 0., 0., 0., 0., 0., 0.,
          0., 0., 0., 0., 0., 0., 0., 0., 0., 0., 0., 0., 0., 0., 0., 0.,
          0., 0., 0., 0., 0., 0., 0., 0., 0., 0., 0., 0., 0., 0., 0., 0.,
          4.94117647e-01, 8.07843149e-01 ]
      - [ 0., 0., 0., 0., 7.97921733e-04, 2.60920405e-01, 3.67841929e-01,
          1.75542776e-02, 0., 0., 0., 0., 3.19168693e-03, 1.95490822e-01,
          3.13583255e-01, 4.94711474e-02, 0., 0., 0., 0., 3.19168693e-03,
          9.25589204e-02, 2.25811854e-01, 2.23418083e-02, 0., 0., 0., 0.,
          0., 1.67563558e-02, 1.51605129e-01, 2.15438865e-02, 0., 0., 0.,
          0., 0., 0., 9.89422947e-02, 3.35127115e-02, 0., 0., 0., 0., 0.,
          0., 4.46836166e-02, 1.43625913e-02, 0., 0., 0., 0., 0., 0., 0.,
          0., 0., 0., 0., 0., 0., 0., 0., 0., 0., 0., 0., 0.,
          7.97921733e-04, 1.60382271e-01, 3.45500112e-01, 6.70254230e-02,
          0., 0., 0., 0., 0., 7.97921699e-03, 8.77713878e-03,
          1.59584340e-02, 0., 0., 0., 0., 0., 0., 0., 0., 0., 0., 0., 0.,
          0., 0., 0., 0., 0., 0., 0., 0., 0., 0., 0., 0., 0., 0., 0., 0.,
          0., 0., 0., 0., 0., 0., 0., 0., 0., 0., 0., 0., 0., 0., 0., 0.,
          0., 0., 0., 0., 0., 0., 0., 0., 0., 1.32455006e-01,
          2.25811854e-01, 3.19168693e-03, 0., 0., 0., 0., 0.,
          1.03729824e-02, 3.59064788e-02, 1.11709042e-02, 0., 0., 0., 0.,
          0., 0., 9.57506057e-03, 0., 0., 0., 0., 0., 0., 0., 0., 0., 0.,
          0., 0., 0., 0., 0., 0., 0., 0., 0., 0., 0., 0., 0., 0., 0., 0.,
          0., 0., 0., 0., 0., 0., 0., 0., 0., 0., 0., 0., 0., 0., 0., 0.,
          0., 0., 0., 0., 1.30061239e-01, 3.94173354e-01, 5.58545208e-03,
          0., 0., 0., 0., 0., 7.18129575e-02, 2.70495474e-01,
          1.03729829e-01, 0., 0., 0., 0., 0., 0., 1.02931902e-01,
          1.35646695e-02, 0., 0., 0., 0., 0., 0., 0., 0., 0., 0., 0., 0.,
          0., 0., 0., 0., 0., 0., 0., 0., 0., 0., 0., 0., 0., 0., 0., 0.,
          0., 0., 0., 0., 0., 0., 0., 0., 0., 0., 0., 0., 0., 0., 0., 0.,
          0., 7.02171102e-02, 1.75542787e-01, 0., 0., 0., 0., 0., 0., 0.,
          0., 0., 0., 0., 0., 0., 0., 0., 0., 0., 0., 0., 0., 0., 0., 0.,
          0., 0., 0., 0., 0., 0., 0., 0., 0., 0., 0., 0., 0., 0., 0., 0.,
          0., 0., 0., 0., 0., 0., 0., 0., 0., 0., 0., 0., 0., 0., 0., 0.,
          0., 0., 0., 0., 0., 0., 0., 5.74503653e-02, 1.69957325e-01,
          7.97921733e-04, 0., 0., 0., 0., 0., 1.59584347e-03,
          1.11709042e-02, 0., 0., 0., 0., 0., 0., 0., 0., 0., 0., 0., 0.,
          0., 0., 0., 0., 0., 0., 0., 0., 0., 0., 0., 0., 0., 0., 0., 0.,
          0., 0., 0., 0., 0., 0., 0., 0., 0., 0., 0., 0., 0., 0., 0., 0.,
          0., 0., 0., 0., 0., 0., 0., 0., 0., 0., 0., 0., 0., 0., 0., 0.,
          0., 0., 0., 0., 0., 0., 0., 0., 0., 0., 0., 0., 0., 0., 0., 0.,
          0., 0., 0., 0., 0., 0., 0., 0., 0., 0., 0., 0., 0., 0., 0., 0.,
          0., 0., 0., 0., 0., 0., 0., 0., 0., 0., 0., 0., 0., 0., 0., 0.,
          0., 0., 0., 0., 0., 0., 0., 0., 0., 0., 0., 0., 0., 0., 0., 0.,
          0., 0., 0., 0., 0., 0., 0., 0., 0., 0., 0., 0., 0., 0., 0., 0.,
          0., 0., 0., 0., 0., 0., 0., 0., 0., 0., 0., 0., 0., 0., 0., 0.,
          0., 0., 0., 0., 0., 0., 0., 0., 0., 0., 0., 0., 0., 0., 0., 0.,
          0., 0., 0., 0., 0., 3.64705890e-01, 8.23529422e-01 ]
      - [ 0., 0., 0., 0., 2.18327627e-01, 1.73593834e-01, 6.27608523e-02,
          4.67368029e-03, 0., 0., 0., 0., 4.64697361e-01, 5.05425155e-01,
          6.00901730e-02, 3.33834300e-03, 0., 0., 0., 0., 3.17142576e-01,
          3.67217720e-01, 6.14255108e-02, 2.00300571e-03, 0., 0., 0., 0.,
          1.94291562e-01, 3.05792212e-01, 3.20480913e-02, 6.67668588e-04,
          0., 0., 0., 0., 1.86947212e-02, 1.30863041e-01, 3.73894423e-02,
          2.67067435e-03, 0., 0., 0., 0., 2.67067435e-03, 3.93924490e-02,
          3.47187668e-02, 0., 0., 0., 0., 0., 0., 0., 9.34736058e-03,
          6.67668588e-04, 0., 0., 0., 0., 0., 0., 0., 0., 0., 0., 0., 0.,
          8.01202282e-03, 2.00300589e-02, 1.13503663e-02, 0., 0., 0., 0.,
          0., 2.67067435e-03, 8.67969170e-03, 1.33533718e-03, 0., 0., 0.,
          0., 0., 0., 1.33533718e-03, 0., 0., 0., 0., 0., 0., 0., 0., 0.,
          0., 0., 0., 0., 0., 0., 0., 0., 0., 0., 0., 0., 0., 0., 0., 0.,
          0., 0., 0., 0., 0., 0., 0., 0., 0., 0., 0., 0., 0., 0., 0., 0.,
          0., 0., 0., 0., 0., 3.33834300e-03, 1.20180352e-02, 0., 0., 0.,
          0., 0., 0., 0., 0., 0., 0., 0., 0., 0., 0., 0., 0., 0., 0., 0.,
          0., 0., 0., 0., 0., 0., 0., 0., 0., 0., 0., 0., 0., 0., 0., 0.,
          0., 0., 0., 0., 0., 0., 0., 0., 0., 0., 0., 0., 0., 0., 0., 0.,
          0., 0., 0., 0., 0., 0., 0., 0., 0., 0., 0., 2.00300571e-03,
          8.67969170e-03, 2.67067435e-03, 0., 0., 0., 0., 0., 0., 0.,
          2.67067435e-03, 0., 0., 0., 0., 0., 0., 0., 4.67368029e-03,
          5.34134870e-03, 0., 0., 0., 0., 0., 0., 0., 2.67067435e-03, 0.,
          0., 0., 0., 0., 0., 0., 0., 0., 0., 0., 0., 0., 0., 0., 0., 0.,
          0., 0., 0., 0., 0., 0., 0., 0., 0., 0., 0., 0., 0., 0., 0., 0.,
          0., 0., 0., 3.20480913e-02, 3.87247801e-02, 2.67067435e-03, 0.,
          0., 0., 0., 0., 1.33533718e-03, 6.00901758e-03, 0., 0., 0., 0.,
          0., 0., 0., 1.33533718e-03, 0., 6.67668588e-04, 0., 0., 0., 0.,
          0., 0., 0., 0., 0., 0., 0., 0., 0., 0., 0., 0., 0., 0., 0., 0.,
          0., 0., 0., 0., 0., 0., 0., 0., 0., 0., 0., 0., 0., 0., 0., 0.,
          0., 0., 0., 0., 0., 0., 0., 0., 8.14555734e-02, 1.44216418e-01,
          7.34435488e-03, 1.33533718e-03, 0., 0., 0., 0., 9.08029303e-02,
          9.68119502e-02, 2.67067435e-03, 0., 0., 0., 0., 0.,
          2.13653948e-02, 2.93774195e-02, 0., 0., 0., 0., 0., 0., 0., 0.,
          0., 0., 0., 0., 0., 0., 0., 0., 0., 0., 0., 0., 0., 0., 0., 0.,
          0., 0., 0., 0., 0., 0., 0., 0., 0., 0., 0., 0., 0., 0., 0., 0.,
          0., 0., 0., 0., 0., 0., 0., 0., 0., 0., 0., 0., 0., 0., 0., 0.,
          0., 0., 0., 0., 0., 0., 0., 0., 0., 0., 0., 0., 0., 0., 0., 0.,
          0., 0., 0., 0., 0., 0., 0., 0., 0., 0., 0., 0., 0., 0., 0., 0.,
          0., 0., 0., 0., 0., 0., 0., 0., 0., 0., 0., 0., 0., 0., 0., 0.,
          0., 0., 0., 0., 0., 0., 0., 0., 0., 0., 0., 0., 0., 0., 0., 0.,
          0., 0., 0., 0., 0., 0., 0., 0., 0., 0., 0., 0., 0., 0., 0., 0.,
          0., 0., 0., 0., 0., 0., 0., 0., 0., 0., 0., 0., 0., 0., 0., 0.,
          0., 0., 0., 0., 0., 0., 0., 0., 0., 0., 0., 0., 0., 0., 0., 0.,
          0., 0., 4.50980395e-01, 7.72549033e-01 ]
      - [ 0., 0., 0., 0., 1.58937573e-01, 1.70063198e-01, 0., 0., 0., 0.,
          0., 0., 2.78140754e-01, 3.56814831e-01, 3.33768912e-02,
          7.94687832e-04, 0., 0., 0., 0., 1.49401322e-01, 3.25027347e-01,
          8.02634731e-02, 7.15219090e-03, 0., 0., 0., 1.58937566e-03,
          7.47006610e-02, 3.17875147e-01, 9.13891047e-02, 1.82778202e-02,
          0., 0., 0., 0., 1.74831320e-02, 2.14565724e-01, 8.02634731e-02,
          4.76812720e-02, 0., 0., 0., 0., 0., 5.24493977e-02,
          6.19856529e-02, 8.10581595e-02, 0., 0., 0., 0., 0.,
          7.94687867e-03, 1.03309425e-02, 3.17875133e-03, 0., 0., 0., 0.,
          0., 0., 0., 0., 0., 0., 0., 0., 1.17613800e-01, 5.24493977e-02,
          0., 0., 0., 0., 0., 0., 2.54300106e-02, 1.27150053e-02, 0., 0.,
          0., 0., 0., 0., 0., 0., 0., 0., 0., 0., 0., 0., 0., 0., 0., 0.,
          0., 0., 0., 0., 0., 0., 0., 0., 0., 0., 0., 0., 0., 0., 0., 0.,
          0., 0., 0., 0., 0., 0., 0., 0., 0., 0., 0., 0., 0., 0., 0., 0.,
          0., 0., 0., 0., 1.58937573e-01, 2.22512603e-01, 0., 0., 0., 0.,
          0., 0., 2.30459478e-02, 7.54953474e-02, 0., 0., 0., 0., 0., 0.,
          0., 0., 0., 0., 0., 0., 0., 0., 0., 0., 0., 0., 0., 0., 0., 0.,
          0., 0., 0., 0., 0., 0., 0., 0., 0., 0., 0., 0., 0., 0., 0., 0.,
          0., 0., 0., 0., 0., 0., 0., 0., 0., 0., 0., 0., 0., 0., 0., 0.,
          1.11256301e-01, 4.61713642e-01, 0., 0., 0., 0., 0., 0.,
          1.74831320e-02, 2.94829190e-01, 1.58937566e-03, 0., 0., 0., 0.,
          0., 0., 1.19203180e-02, 0., 0., 0., 0., 0., 0., 0., 0., 0., 0.,
          0., 0., 0., 0., 0., 0., 0., 0., 0., 0., 0., 0., 0., 0., 0., 0.,
          0., 0., 0., 0., 0., 0., 0., 0., 0., 0., 0., 0., 0., 0., 0., 0.,
          0., 0., 0., 0., 5.00653349e-02, 5.40387742e-02, 0., 0., 0., 0.,
          0., 0., 0., 0., 0., 0., 0., 0., 0., 0., 0., 0., 0., 0., 0., 0.,
          0., 0., 0., 0., 0., 0., 0., 0., 0., 0., 0., 0., 0., 0., 0., 0.,
          0., 0., 0., 0., 0., 0., 0., 0., 0., 0., 0., 0., 0., 0., 0., 0.,
          0., 0., 0., 0., 0., 0., 0., 0., 0., 0., 4.37078327e-02,
          4.21184562e-02, 0., 0., 0., 0., 0., 0., 3.57609540e-02,
          1.03309425e-02, 0., 0., 0., 0., 0., 0., 4.76812711e-03,
          1.58937566e-03, 0., 0., 0., 0., 0., 0., 0., 0., 0., 0., 0., 0.,
          0., 0., 0., 0., 0., 0., 0., 0., 0., 0., 0., 0., 0., 0., 0., 0.,
          0., 0., 0., 0., 0., 0., 0., 0., 0., 0., 0., 0., 0., 0., 0., 0.,
          0., 0., 0., 0., 0., 0., 0., 0., 0., 0., 0., 0., 0., 0., 0., 0.,
          0., 0., 0., 0., 0., 0., 0., 0., 0., 0., 0., 0., 0., 0., 0., 0.,
          0., 0., 0., 0., 0., 0., 0., 0., 0., 0., 0., 0., 0., 0., 0., 0.,
          0., 0., 0., 0., 0., 0., 0., 0., 0., 0., 0., 0., 0., 0., 0., 0.,
          0., 0., 0., 0., 0., 0., 0., 0., 0., 0., 0., 0., 0., 0., 0., 0.,
          0., 0., 0., 0., 0., 0., 0., 0., 0., 0., 0., 0., 0., 0., 0., 0.,
          0., 0., 0., 0., 0., 0., 0., 0., 0., 0., 0., 0., 0., 0., 0., 0.,
          0., 0., 0., 0., 0., 0., 0., 0., 0., 0., 0., 0., 0., 0.,
          4.00000006e-01, 8.39215696e-01 ]
      - [ 0., 0., 0., 4.21511068e-04, 7.16568809e-03, 1.47528872e-02,
          3.79359955e-03, 4.21511068e-04, 0., 0., 0., 2.10755528e-03,
          1.01162652e-02, 1.68604422e-02, 5.05813258e-03, 1.68604427e-03,
          0., 0., 0., 8.43022135e-04, 1.60174202e-02, 1.81249753e-02,
          1.26453314e-03, 2.10755528e-03, 0., 0., 0., 0., 5.90115506e-03,
          1.34883542e-02, 4.63662157e-03, 0., 0., 0., 0., 0.,
          1.26453314e-03, 3.79359955e-03, 1.26453314e-03, 8.43022135e-04,
          0., 0., 0., 0., 0., 1.26453314e-03, 2.10755528e-03,
          1.26453314e-03, 0., 0., 0., 0., 0., 0., 4.21511068e-04, 0., 0.,
          0., 0., 0., 0., 0., 0., 0., 0., 0., 0., 0., 0., 2.95057753e-03,
          2.95057753e-03, 3.79359955e-03, 0., 0., 0., 0., 0., 0.,
          4.21511068e-04, 1.26453314e-03, 0., 0., 0., 0., 0., 0., 0., 0.,
          0., 0., 0., 0., 0., 0., 0., 0., 0., 0., 0., 0., 0., 0., 0., 0.,
          0., 0., 0., 0., 0., 0., 0., 0., 0., 0., 0., 0., 0., 0., 0., 0.,
          0., 0., 0., 0., 0., 0., 0., 0., 0., 0., 0., 0., 0.,
          6.32266607e-03, 3.79359955e-03, 0., 0., 0., 0., 0., 0.,
          5.47964359e-03, 1.09592872e-02, 1.47528872e-02, 0., 0., 0., 0.,
          0., 0., 0., 0., 0., 0., 0., 0., 0., 0., 0., 0., 0., 0., 0., 0.,
          0., 0., 0., 0., 0., 0., 0., 0., 0., 0., 0., 0., 0., 0., 0., 0.,
          0., 0., 0., 0., 0., 0., 0., 0., 0., 0., 0., 0., 0., 0., 0., 0.,
          1.01162652e-02, 1.30668432e-02, 3.37208854e-03, 0., 0., 0., 0.,
          0., 9.69475415e-03, 9.61045250e-02, 6.61772341e-02,
          1.50479451e-01, 0., 0., 0., 0., 4.21511068e-04, 4.08865735e-02,
          3.29200149e-01, 4.33313370e-01, 0., 0., 0., 0., 0.,
          1.26453314e-03, 4.42586616e-02, 8.12673330e-01, 0., 0., 0., 0.,
          0., 0., 0., 1.26453314e-03, 0., 0., 0., 0., 0., 0., 0., 0., 0.,
          0., 0., 0., 0., 0., 0., 0., 0., 0., 0., 0., 0., 0., 0., 0., 0.,
          0., 0., 4.21511068e-04, 1.01162652e-02, 1.13807982e-02, 0., 0.,
          0., 0., 0., 0., 8.85173213e-03, 9.27324314e-03, 4.21511068e-04,
          0., 0., 0., 0., 0., 1.26453314e-03, 1.68604427e-03, 0., 0., 0.,
          0., 0., 0., 0., 0., 0., 0., 0., 0., 0., 0., 0., 8.43022135e-04,
          8.43022135e-04, 0., 0., 0., 0., 0., 0., 0., 0., 0., 0., 0., 0.,
          0., 0., 0., 0., 0., 0., 0., 0., 0., 0., 0., 0., 0., 0., 0., 0.,
          4.21511068e-04, 7.58719910e-03, 1.01162652e-02, 4.21511068e-04,
          0., 0., 0., 0., 1.68604427e-03, 2.19185743e-02, 7.58719910e-03,
          0., 0., 0., 0., 0., 0., 4.21511056e-03, 2.10755528e-03, 0., 0.,
          0., 0., 0., 0., 3.79359955e-03, 1.26453314e-03, 0., 0., 0., 0.,
          0., 0., 0., 0., 0., 0., 0., 0., 0., 0., 0., 0., 0., 0., 0., 0.,
          0., 0., 0., 0., 0., 0., 0., 0., 0., 0., 0., 0., 0., 0., 0., 0.,
          0., 0., 0., 0., 0., 0., 0., 0., 0., 0., 0., 0., 0., 0., 0., 0.,
          0., 0., 0., 0., 0., 0., 0., 0., 0., 0., 0., 0., 0., 0., 0., 0.,
          0., 0., 0., 0., 0., 0., 0., 0., 0., 0., 0., 0., 0., 0., 0., 0.,
          0., 0., 0., 0., 0., 0., 0., 0., 0., 0., 0., 0., 0., 0., 0., 0.,
          0., 0., 0., 0., 0., 0., 0., 0., 0., 0., 0., 0., 0., 0., 0., 0.,
          0., 0., 0., 0., 0., 0., 0., 0., 0., 0., 0., 0., 0., 0., 0., 0.,
          0., 0., 0., 0., 0., 0., 0., 0., 0., 0., 0., 0., 0., 0., 0., 0.,
          0., 0., 0., 0., 0., 0., 0., 0., 0., 0., 0., 0., 0., 0.,
          4.35294122e-01, 7.76470602e-01 ]
      - [ 0., 0., 0., 0., 0., 3.52400392e-02, 3.24670523e-01,
          5.83482608e-02, 0., 0., 0., 0., 0., 1.38649330e-01,
          7.61993647e-01, 1.37493923e-01, 0., 0., 0., 0., 0.,
          1.84865773e-01, 3.65109921e-01, 8.66558328e-02, 0., 0., 0., 0.,
          0., 5.83482608e-02, 1.29983753e-01, 6.75915480e-02, 0., 0., 0.,
          0., 0., 1.96419898e-02, 1.43270984e-01, 1.31716862e-01, 0., 0.,
          0., 0., 0., 5.19934995e-03, 5.37266172e-02, 7.04800785e-02, 0.,
          0., 0., 0., 0., 5.19934995e-03, 1.38649335e-02, 4.44833264e-02,
          0., 0., 0., 0., 0., 0., 0., 1.15541113e-03, 0., 0., 0., 0., 0.,
          1.44426385e-02, 8.31895992e-02, 2.88852770e-03, 0., 0., 0., 0.,
          0., 2.31082225e-03, 3.06183938e-02, 0., 0., 0., 0., 0., 0., 0.,
          0., 0., 0., 0., 0., 0., 0., 0., 0., 0., 0., 0., 0., 0., 0., 0.,
          0., 0., 0., 0., 0., 0., 0., 0., 0., 0., 0., 0., 0., 0., 0., 0.,
          0., 0., 0., 0., 0., 0., 0., 0., 0., 0., 0., 0., 0., 0., 0.,
          1.32872276e-02, 9.53214169e-02, 0., 0., 0., 0., 0., 0., 0., 0.,
          0., 0., 0., 0., 0., 0., 0., 0., 0., 0., 0., 0., 0., 0., 0., 0.,
          0., 0., 0., 0., 0., 0., 0., 0., 0., 0., 0., 0., 0., 0., 0., 0.,
          0., 0., 0., 0., 0., 0., 0., 0., 0., 0., 0., 0., 0., 0., 0., 0.,
          0., 0., 0., 0., 0., 0., 1.03986999e-02, 4.39056233e-02, 0., 0.,
          0., 0., 0., 0., 0., 0., 0., 0., 0., 0., 0., 0., 0., 0., 0., 0.,
          0., 0., 0., 0., 0., 0., 0., 0., 0., 0., 0., 0., 0., 0., 0., 0.,
          0., 0., 0., 0., 0., 0., 0., 0., 0., 0., 0., 0., 0., 0., 0., 0.,
          0., 0., 0., 0., 0., 0., 0., 0., 0., 0., 0., 0., 1.15541108e-02,
          1.21318167e-02, 0., 0., 0., 0., 0., 0., 0., 0., 0., 0., 0., 0.,
          0., 0., 0., 0., 0., 0., 0., 0., 0., 0., 0., 0., 0., 0., 0., 0.,
          0., 0., 0., 0., 0., 0., 0., 0., 0., 0., 0., 0., 0., 0., 0., 0.,
          0., 0., 0., 0., 0., 0., 0., 0., 0., 0., 0., 0., 0., 0., 0., 0.,
          0., 0., 4.62164450e-03, 5.48820272e-02, 2.88852770e-03, 0., 0.,
          0., 0., 0., 1.15541108e-02, 1.15541108e-02, 1.73311669e-03, 0.,
          0., 0., 0., 0., 0., 0., 0., 0., 0., 0., 0., 0., 0., 0.,
          1.15541113e-03, 0., 0., 0., 0., 0., 0., 2.31082225e-03,
          1.15541113e-03, 0., 0., 0., 0., 0., 0., 0., 0., 0., 0., 0., 0.,
          0., 0., 0., 0., 0., 0., 0., 0., 0., 0., 0., 0., 0., 0., 0., 0.,
          0., 0., 0., 0., 0., 0., 0., 0., 0., 0., 0., 0., 0., 0., 0., 0.,
          0., 0., 0., 0., 0., 0., 0., 0., 0., 0., 0., 0., 0., 0., 0., 0.,
          0., 0., 0., 0., 0., 0., 0., 0., 0., 0., 0., 0., 0., 0., 0., 0.,
          0., 0., 0., 0., 0., 0., 0., 0., 0., 0., 0., 0., 0., 0., 0., 0.,
          0., 0., 0., 0., 0., 0., 0., 0., 0., 0., 0., 0., 0., 0., 0., 0.,
          0., 0., 0., 0., 0., 0., 0., 0., 0., 0., 0., 0., 0., 0., 0., 0.,
          0., 0., 0., 0., 0., 0., 0., 0., 0., 0., 0., 0., 0., 0., 0., 0.,
          0., 0., 0., 0., 0., 0., 0., 0., 0., 0., 0., 0., 3.76470596e-01,
          8.50980401e-01 ]
      - [ 0., 0., 0., 0., 0., 0., 0., 0., 0., 0., 0., 0., 4.87158220e-04,
          4.87158215e-03, 9.74316441e-04, 0., 0., 0., 0., 0., 0.,
          5.35874022e-03, 0., 0., 0., 0., 0., 0., 0., 8.76884814e-03,
          2.67937016e-02, 0., 0., 0., 0., 0., 4.87158220e-04,
          7.45352060e-02, 5.37822664e-01, 2.48450693e-02, 0., 0., 0., 0.,
          4.87158220e-04, 2.46989220e-01, 6.20152414e-01, 2.60142475e-01,
          0., 0., 0., 0., 0., 1.46147460e-01, 3.53189707e-01,
          1.51506200e-01, 0., 0., 0., 0., 0., 1.31532717e-02,
          1.36404306e-01, 5.11516146e-02, 0., 0., 0., 0., 0., 0., 0., 0.,
          0., 0., 0., 0., 4.87158220e-04, 2.43579107e-03, 4.87158220e-04,
          0., 0., 0., 0., 0., 0., 0., 0., 0., 0., 0., 0., 0., 0., 0., 0.,
          0., 0., 0., 0., 0., 0., 0., 0., 0., 0., 0., 0., 0., 0., 0., 0.,
          0., 0., 0., 0., 0., 0., 0., 0., 0., 0., 0., 0., 0., 0., 0., 0.,
          0., 0., 0., 0., 0., 0., 0., 0., 0., 0., 0., 0., 0., 0., 0., 0.,
          0., 0., 0., 0., 0., 0., 0., 0., 0., 0., 0., 0., 0., 0., 0., 0.,
          0., 0., 0., 0., 0., 0., 0., 0., 0., 0., 0., 0., 0., 0., 0., 0.,
          0., 0., 0., 0., 0., 0., 0., 0., 0., 0., 0., 0., 0., 0., 0., 0.,
          0., 0., 0., 0., 0., 0., 0., 0., 0., 0., 0., 0., 0., 0., 0., 0.,
          0., 0., 0., 0., 0., 0., 0., 0., 0., 0., 0., 0., 0., 0., 0., 0.,
          0., 0., 0., 0., 0., 0., 0., 0., 0., 0., 0., 0., 0., 0., 0., 0.,
          0., 0., 0., 0., 0., 0., 0., 0., 0., 0., 0., 0., 0., 0., 0., 0.,
          0., 0., 0., 0., 0., 0., 0., 0., 0., 0., 0., 0., 0., 0., 0., 0.,
          0., 0., 0., 0., 0., 0., 0., 0., 0., 0., 0., 0., 0., 0., 0., 0.,
          0., 0., 0., 0., 0., 0., 0., 0., 0., 0., 0., 0., 0., 0., 0., 0.,
          0., 0., 0., 0., 0., 0., 0., 0., 0., 0., 0., 0., 0., 0., 0., 0.,
          0., 0., 0., 0., 0., 0., 0., 0., 0., 0., 0., 0., 0., 0., 0., 0.,
          0., 0., 0., 0., 0., 0., 0., 0., 0., 0., 0., 0., 0., 0., 0., 0.,
          0., 0., 0., 0., 0., 0., 0., 0., 0., 0., 0., 0., 0., 0., 0., 0.,
          0., 0., 0., 0., 0., 0., 0., 0., 0., 0., 0., 0., 0., 0., 0., 0.,
          0., 0., 0., 0., 0., 0., 0., 0., 0., 0., 0., 0., 0., 0., 0., 0.,
          0., 0., 0., 0., 0., 0., 0., 0., 0., 0., 0., 0., 0., 0., 0., 0.,
          0., 0., 0., 0., 0., 0., 0., 0., 0., 0., 0., 0., 0., 0., 0., 0.,
          0., 0., 0., 0., 0., 0., 0., 0., 0., 0., 0., 0., 0., 0., 0., 0.,
          0., 0., 0., 0., 0., 0., 0., 0., 0., 0., 0., 0., 0., 0., 0., 0.,
          0., 0., 0., 0., 0., 0., 0., 0., 0., 0., 0., 0., 0., 0., 0., 0.,
          0., 0., 0., 0., 0., 0., 0., 0., 0., 0., 0., 0., 0., 0., 0., 0.,
          0., 0., 0., 0., 0., 0., 0., 0., 0., 0., 0., 0., 0., 0., 0., 0.,
          0., 2.50980407e-01, 8.82352948e-01 ]
      - [ 0., 0., 0., 0., 3.20106260e-02, 2.59085983e-01, 2.65087988e-02,
          0., 0., 0., 0., 2.00066413e-03, 7.00232387e-02, 8.34276915e-01,
          1.41546980e-01, 1.00033206e-03, 0., 0., 0., 5.00166032e-04,
          4.10136133e-02, 3.36611718e-01, 9.55317095e-02, 4.00132826e-03,
          0., 0., 0., 0., 4.50149411e-03, 1.57552287e-01, 3.80126163e-02,
          1.50049804e-03, 0., 0., 0., 0., 0., 1.05535030e-01,
          6.15204200e-02, 2.50082999e-03, 0., 0., 0., 0., 0.,
          6.45214170e-02, 4.75157723e-02, 8.50282237e-03, 0., 0., 0., 0.,
          0., 1.95064750e-02, 1.30043160e-02, 1.50049804e-03, 0., 0., 0.,
          0., 0., 0., 0., 0., 0., 0., 0., 0., 5.50182629e-03,
          2.30076369e-02, 0., 0., 0., 0., 0., 0., 5.50182629e-03,
          5.50182629e-03, 5.00166032e-04, 0., 0., 0., 0., 0.,
          5.00166032e-04, 0., 0., 0., 0., 0., 0., 0., 0., 0., 0., 0., 0.,
          0., 0., 0., 0., 0., 0., 0., 0., 0., 0., 0., 0., 0., 0., 0., 0.,
          0., 0., 0., 0., 0., 0., 0., 0., 0., 0., 0., 0., 0., 0., 0., 0.,
          0., 0., 0., 5.00166032e-04, 1.70056447e-02, 0., 0., 0., 0., 0.,
          0., 0., 0., 0., 0., 0., 0., 0., 0., 0., 0., 0., 0., 0., 0., 0.,
          0., 0., 0., 0., 0., 0., 0., 0., 0., 0., 0., 0., 0., 0., 0., 0.,
          0., 0., 0., 0., 0., 0., 0., 0., 0., 0., 0., 0., 0., 0., 0., 0.,
          0., 0., 0., 0., 0., 0., 0., 0., 0., 5.00166032e-04,
          3.30109559e-02, 0., 0., 0., 0., 0., 0., 0., 0., 0., 0., 0., 0.,
          0., 0., 0., 0., 0., 0., 0., 0., 0., 0., 0., 0., 0., 0., 0., 0.,
          0., 0., 0., 0., 0., 0., 0., 0., 0., 0., 0., 0., 0., 0., 0., 0.,
          0., 0., 0., 0., 0., 0., 0., 0., 0., 0., 0., 0., 0., 0., 0., 0.,
          0., 0., 3.00099608e-03, 4.90162708e-02, 1.00033206e-03, 0., 0.,
          0., 0., 0., 1.00033206e-03, 1.00033206e-03, 0., 0., 0., 0., 0.,
          0., 0., 0., 0., 0., 0., 0., 0., 0., 0., 0., 0., 0., 0., 0., 0.,
          0., 0., 0., 0., 0., 0., 0., 0., 0., 0., 0., 0., 0., 0., 0., 0.,
          0., 0., 0., 0., 0., 0., 0., 0., 0., 0., 0., 0., 0., 0., 0., 0.,
          0., 1.45048145e-02, 1.42547309e-01, 3.50116217e-03, 0., 0., 0.,
          0., 0., 5.50182629e-03, 1.11537017e-01, 1.90063082e-02, 0., 0.,
          0., 0., 0., 0., 0., 5.00166032e-04, 0., 0., 0., 0., 0., 0., 0.,
          0., 0., 0., 0., 0., 0., 0., 0., 0., 0., 0., 0., 0., 0., 0., 0.,
          0., 0., 0., 0., 0., 0., 0., 0., 0., 0., 0., 0., 0., 0., 0., 0.,
          0., 0., 0., 0., 0., 0., 0., 0., 0., 0., 0., 0., 0., 0., 0., 0.,
          0., 0., 0., 0., 0., 0., 0., 0., 0., 0., 0., 0., 0., 0., 0., 0.,
          0., 0., 0., 0., 0., 0., 0., 0., 0., 0., 0., 0., 0., 0., 0., 0.,
          0., 0., 0., 0., 0., 0., 0., 0., 0., 0., 0., 0., 0., 0., 0., 0.,
          0., 0., 0., 0., 0., 0., 0., 0., 0., 0., 0., 0., 0., 0., 0., 0.,
          0., 0., 0., 0., 0., 0., 0., 0., 0., 0., 0., 0., 0., 0., 0., 0.,
          0., 0., 0., 0., 0., 0., 0., 0., 0., 0., 0., 0., 0., 0., 0., 0.,
          0., 0., 0., 0., 0., 0., 0., 0., 0., 0., 0., 0., 0., 0., 0., 0.,
          0., 0., 3.76470596e-01, 8.50980401e-01 ]
      - [ 0., 0., 0., 0., 0., 9.96835344e-03, 4.30213138e-02,
          1.67888049e-02, 0., 0., 0., 0., 0., 2.46585570e-02,
          1.62116900e-01, 5.71868680e-02, 0., 0., 0., 0., 0.,
          1.88874062e-02, 4.66938645e-01, 1.18570939e-01, 0., 0., 0., 0.,
          0., 3.56762111e-02, 7.03555882e-01, 1.89398706e-01, 0., 0., 0.,
          0., 0., 3.56762111e-02, 3.65681171e-01, 1.76282451e-01, 0., 0.,
          0., 0., 0., 4.19720123e-03, 1.22243486e-01, 1.02831431e-01, 0.,
          0., 0., 0., 0., 5.24650153e-04, 3.82994637e-02, 6.03347681e-02,
          0., 0., 0., 0., 0., 0., 2.62325094e-03, 3.93487625e-02, 0., 0.,
          0., 0., 0., 2.04613563e-02, 2.30846070e-02, 1.41655542e-02, 0.,
          0., 0., 0., 0., 5.24650188e-03, 6.82045240e-03, 4.19720123e-03,
          0., 0., 0., 0., 0., 0., 0., 0., 0., 0., 0., 0., 0., 0., 0., 0.,
          0., 0., 0., 0., 0., 0., 0., 0., 0., 0., 0., 0., 0., 0., 0., 0.,
          0., 0., 0., 0., 0., 0., 0., 0., 0., 0., 0., 0., 0., 0., 0., 0.,
          0., 0., 0., 0., 0., 5.24650188e-03, 1.46902045e-02,
          1.67888049e-02, 0., 0., 0., 0., 0., 9.44370311e-03,
          5.29896654e-02, 0., 0., 0., 0., 0., 0., 0., 4.19720123e-03,
          5.24650153e-04, 0., 0., 0., 0., 0., 0., 0., 0., 0., 0., 0., 0.,
          0., 0., 0., 0., 0., 0., 0., 0., 0., 0., 0., 0., 0., 0., 0., 0.,
          0., 0., 0., 0., 0., 0., 0., 0., 0., 0., 0., 0., 0., 0., 0., 0.,
          0., 0., 0., 0., 0., 0., 0., 0., 0., 5.24650153e-04,
          4.19720123e-03, 1.04930031e-03, 0., 0., 0., 0., 0., 0.,
          5.77115174e-03, 4.19720123e-03, 0., 0., 0., 0., 0., 0., 0., 0.,
          0., 0., 0., 0., 0., 0., 0., 0., 0., 0., 0., 0., 0., 0., 0., 0.,
          0., 0., 0., 0., 0., 0., 0., 0., 0., 0., 0., 0., 0., 0., 0., 0.,
          0., 0., 0., 0., 0., 0., 0., 0., 0., 0., 0., 0., 0., 0., 0., 0.,
          0., 0., 0., 0., 0., 0., 0., 0., 0., 0., 0., 0., 0., 0., 0., 0.,
          0., 0., 0., 0., 0., 0., 0., 0., 0., 0., 0., 0., 0., 0., 0., 0.,
          0., 0., 0., 0., 0., 0., 0., 0., 0., 0., 0., 0., 0., 0., 0., 0.,
          0., 0., 0., 0., 0., 5.24650153e-04, 0., 0., 0., 0., 0., 0., 0.,
          0., 0., 0., 0., 0., 0., 0., 0., 5.24650153e-04, 1.04930031e-03,
          0., 0., 0., 0., 0., 0., 0., 0., 0., 0., 0., 0., 0., 0., 0., 0.,
          0., 0., 0., 0., 0., 0., 0., 0., 0., 0., 0., 0., 0., 0., 0., 0.,
          0., 0., 0., 0., 0., 0., 0., 0., 0., 0., 0., 0., 0., 0., 0., 0.,
          0., 0., 0., 0., 0., 0., 0., 0., 0., 0., 0., 0., 0., 0., 0., 0.,
          0., 0., 0., 0., 0., 0., 0., 0., 0., 0., 0., 0., 0., 0., 0., 0.,
          0., 0., 0., 0., 0., 0., 0., 0., 0., 0., 0., 0., 0., 0., 0., 0.,
          0., 0., 0., 0., 0., 0., 0., 0., 0., 0., 0., 0., 0., 0., 0., 0.,
          0., 0., 0., 0., 0., 0., 0., 0., 0., 0., 0., 0., 0., 0., 0., 0.,
          0., 0., 0., 0., 0., 0., 0., 0., 0., 0., 0., 0., 0., 0., 0., 0.,
          0., 0., 0., 0., 0., 0., 0., 0., 0., 0., 0., 0., 0., 0., 0., 0.,
          0., 0., 0., 0., 0., 0., 0., 0., 0., 4.27450985e-01,
          8.00000012e-01 ]
      - [ 0., 0., 0., 0., 2.49323761e-03, 7.91602880e-02, 5.60978428e-03,
          0., 0., 0., 0., 0., 6.23309379e-03, 3.16017866e-01,
          3.20381016e-01, 4.30083461e-02, 0., 0., 0., 0., 0.,
          3.24744195e-01, 6.42631948e-01, 1.11572377e-01, 0., 0., 0., 0.,
          4.36316570e-03, 1.62683755e-01, 3.43443483e-01, 3.73985618e-02,
          0., 0., 0., 0., 1.24661881e-03, 8.53933841e-02, 2.10055262e-01,
          5.36046065e-02, 0., 0., 0., 0., 0., 3.36587057e-02,
          1.38997987e-01, 5.42279147e-02, 0., 0., 0., 0., 0.,
          1.43361157e-02, 4.17617299e-02, 9.34964046e-03, 0., 0., 0., 0.,
          0., 0., 4.36316570e-03, 0., 0., 0., 0., 0., 0., 1.28401726e-01,
          1.12195686e-02, 0., 0., 0., 0., 0., 0., 1.01599433e-01,
          3.17887776e-02, 1.05962595e-02, 0., 0., 0., 0., 0.,
          5.60978428e-03, 4.36316570e-03, 0., 0., 0., 0., 0., 0., 0., 0.,
          0., 0., 0., 0., 0., 0., 0., 0., 0., 0., 0., 0., 0., 0., 0., 0.,
          0., 0., 0., 0., 0., 0., 0., 0., 0., 0., 0., 0., 0., 0., 0., 0.,
          0., 0., 0., 0., 0., 0., 6.29542470e-02, 0., 0., 0., 0., 0., 0.,
          0., 0., 0., 0., 0., 0., 0., 0., 0., 0., 0., 0., 0., 0., 0., 0.,
          0., 0., 0., 0., 0., 0., 0., 0., 0., 0., 0., 0., 0., 0., 0., 0.,
          0., 0., 0., 0., 0., 0., 0., 0., 0., 0., 0., 0., 0., 0., 0., 0.,
          0., 0., 0., 0., 0., 0., 0., 0., 0., 2.43090652e-02,
          1.24661881e-03, 0., 0., 0., 0., 0., 0., 2.49323761e-03, 0., 0.,
          0., 0., 0., 0., 0., 0., 0., 0., 0., 0., 0., 0., 0., 0., 0., 0.,
          0., 0., 0., 0., 0., 0., 0., 0., 0., 0., 0., 0., 0., 0., 0., 0.,
          0., 0., 0., 0., 0., 0., 0., 0., 0., 0., 0., 0., 0., 0., 0., 0.,
          0., 0., 0., 0., 0., 9.34964046e-03, 0., 0., 0., 0., 0., 0., 0.,
          1.24661881e-03, 2.49323761e-03, 0., 0., 0., 0., 0., 0.,
          1.24661881e-03, 3.11654690e-03, 0., 0., 0., 0., 0., 0., 0., 0.,
          0., 0., 0., 0., 0., 0., 0., 0., 0., 0., 0., 0., 0., 0., 0., 0.,
          0., 0., 0., 0., 0., 0., 0., 0., 0., 0., 0., 0., 0., 0., 0., 0.,
          0., 0., 0., 0., 0., 0., 7.47971237e-03, 0., 0., 0., 0., 0., 0.,
          0., 1.24661881e-03, 0., 0., 0., 0., 0., 0., 6.23309403e-04,
          6.23309403e-04, 6.23309403e-04, 0., 0., 0., 0., 0., 0., 0., 0.,
          0., 0., 0., 0., 0., 0., 0., 0., 0., 0., 0., 0., 0., 0., 0., 0.,
          0., 0., 0., 0., 0., 0., 0., 0., 0., 0., 0., 0., 0., 0., 0., 0.,
          0., 0., 0., 0., 0., 0., 0., 0., 0., 0., 0., 0., 0., 0., 0., 0.,
          0., 0., 0., 0., 0., 0., 0., 0., 0., 0., 0., 0., 0., 0., 0., 0.,
          0., 0., 0., 0., 0., 0., 0., 0., 0., 0., 0., 0., 0., 0., 0., 0.,
          0., 0., 0., 0., 0., 0., 0., 0., 0., 0., 0., 0., 0., 0., 0., 0.,
          0., 0., 0., 0., 0., 0., 0., 0., 0., 0., 0., 0., 0., 0., 0., 0.,
          0., 0., 0., 0., 0., 0., 0., 0., 0., 0., 0., 0., 0., 0., 0., 0.,
          0., 0., 0., 0., 0., 0., 0., 0., 0., 0., 0., 0., 0., 0., 0., 0.,
          0., 0., 0., 0., 0., 0., 0., 0., 0., 0., 0., 0., 0., 0., 0., 0.,
          0., 2.43137255e-01, 9.17647064e-01 ]
