%YAML:1.0
---
opencv_ml_svm:
   format: 3
   svmType: C_SVC
   kernel:
      type: RBF
      gamma: 5.
   C: 5.
   term_criteria: { epsilon:1.1920928955078125e-07, iterations:1000 }
   var_count: 512
   class_count: 2
   class_labels: !!opencv-matrix
      rows: 2
      cols: 1
      dt: i
      data: [ 0, 1 ]
   sv_total: 364
   support_vectors:
      - [ 0., 0., 0., 2.15225643e-03, 2.08051447e-02, 2.86967512e-02,
          2.86967512e-02, 8.89599323e-02, 0., 0., 0., 6.45676907e-03,
          6.24154359e-02, 1.98725000e-01, 1.45636022e-01, 3.73057760e-02,
          0., 0., 3.58709390e-03, 6.45676907e-03, 6.52851090e-02,
          5.44520855e-01, 5.81826627e-01, 2.15225630e-02, 0., 0.,
          1.43483758e-03, 2.86967517e-03, 5.38064092e-02, 2.32443690e-01,
          4.21842247e-01, 4.95018959e-02, 0., 0., 7.17418792e-04,
          1.43483758e-03, 6.45676907e-03, 1.09047659e-01, 1.26983121e-01,
          2.36748196e-02, 0., 0., 0., 0., 2.86967517e-03, 3.44361030e-02,
          2.94141714e-02, 5.02193160e-03, 0., 0., 0., 0., 0., 0., 0., 0.,
          0., 0., 0., 0., 0., 0., 0., 0., 0., 0., 0., 7.17418792e-04,
          1.36309573e-02, 1.50657948e-02, 1.43483756e-02, 4.66322228e-02,
          0., 0., 0., 1.43483758e-03, 1.43483758e-03, 1.21961199e-02,
          1.93703081e-02, 1.93703081e-02, 0., 0., 0., 0., 7.17418792e-04,
          0., 6.45676907e-03, 1.00438632e-02, 0., 0., 0., 0., 0., 0.,
          7.17418792e-04, 7.17418792e-04, 0., 0., 0., 0., 0., 0., 0., 0.,
          0., 0., 0., 0., 0., 0., 0., 0., 0., 0., 0., 0., 0., 0., 0., 0.,
          0., 0., 0., 0., 0., 0., 0., 0., 0., 0., 0., 0., 5.73935034e-03,
          7.89160654e-03, 1.79354697e-02, 7.31767192e-02, 0., 0., 0., 0.,
          0., 2.15225643e-03, 8.60902574e-03, 7.89160654e-03, 0., 0., 0.,
          0., 0., 0., 0., 0., 0., 0., 0., 0., 0., 0., 0., 0., 0., 0., 0.,
          0., 0., 0., 0., 0., 0., 0., 0., 0., 0., 0., 0., 0., 0., 0., 0.,
          0., 0., 0., 0., 0., 0., 0., 0., 0., 0., 0., 0., 0., 0., 0., 0.,
          0., 7.89160654e-03, 1.00438632e-02, 6.45676907e-03,
          2.00877264e-02, 0., 0., 0., 0., 0., 6.45676907e-03,
          3.58709390e-03, 7.17418792e-04, 0., 0., 0., 0., 0., 0., 0., 0.,
          0., 0., 0., 0., 0., 0., 0., 0., 0., 0., 0., 0., 0., 0., 0., 0.,
          0., 0., 0., 0., 0., 0., 0., 0., 0., 0., 0., 0., 0., 0., 0., 0.,
          0., 0., 0., 0., 0., 0., 0., 0., 0., 0., 0., 7.17418792e-04,
          1.57832131e-02, 2.08051447e-02, 8.60902574e-03, 3.30012627e-02,
          0., 0., 0., 7.17418792e-04, 9.32644401e-03, 1.65006313e-02,
          7.17418792e-04, 0., 0., 0., 0., 0., 0., 7.17418792e-04, 0., 0.,
          0., 0., 0., 0., 0., 0., 0., 0., 0., 0., 0., 0., 0., 0., 0., 0.,
          0., 0., 0., 0., 0., 0., 0., 0., 0., 0., 0., 0., 0., 0., 0., 0.,
          0., 0., 0., 0., 0., 0., 0., 0., 0., 0., 0., 7.17418792e-04,
          1.07612815e-02, 1.29135381e-02, 4.30451287e-03, 1.50657948e-02,
          0., 0., 0., 3.58709390e-03, 2.65444946e-02, 3.30012627e-02,
          2.08051447e-02, 3.58709390e-03, 0., 0., 0., 0., 4.30451287e-03,
          2.22399831e-02, 1.43483756e-02, 0., 0., 0., 0., 0., 0., 0., 0.,
          0., 0., 0., 0., 0., 0., 0., 0., 0., 0., 0., 0., 0., 0., 0., 0.,
          0., 0., 0., 0., 0., 0., 0., 0., 0., 0., 0., 0., 0., 0., 0., 0.,
          0., 0., 0., 0., 0., 0., 0., 0., 0., 0., 0., 0., 0., 0., 0., 0.,
          0., 0., 0., 0., 0., 0., 0., 0., 0., 0., 0., 0., 0., 0., 0., 0.,
          0., 0., 0., 0., 0., 0., 0., 0., 0., 0., 0., 0., 0., 0., 0., 0.,
          0., 0., 0., 0., 0., 0., 0., 0., 0., 0., 0., 0., 0., 0., 0., 0.,
          0., 0., 0., 0., 0., 0., 0., 0., 0., 0., 0., 0., 0., 0., 0., 0.,
          0., 0., 0., 0., 0., 0., 0., 0., 0., 0., 0., 0., 0., 0., 0., 0.,
          0., 0., 0., 0., 0., 0., 0., 0., 0., 0., 0., 0., 0., 0., 0., 0.,
          0., 0., 0., 0., 0., 0., 0., 0., 0., 0., 0., 0., 0., 0., 0., 0.,
          0. ]
      - [ 0., 0., 0., 6.43761037e-03, 5.93690723e-02, 1.43058002e-02,
          7.15290010e-03, 1.21599305e-02, 0., 0., 0., 1.43058004e-03,
          3.57645005e-02, 1.71669610e-02, 1.28752207e-02, 7.86819030e-03,
          0., 0., 0., 2.86116009e-03, 3.50492112e-02, 5.50773330e-02,
          3.64797898e-02, 0., 0., 0., 0., 0., 2.50351503e-02,
          3.93409505e-02, 1.14446403e-02, 1.43058004e-03, 0., 0., 0., 0.,
          7.15290022e-04, 1.85975414e-02, 7.86819030e-03, 0., 0., 0., 0.,
          0., 0., 1.28752207e-02, 0., 0., 0., 0., 0., 0., 0., 0., 0., 0.,
          0., 0., 0., 0., 0., 0., 0., 0., 0., 0., 0., 7.15290022e-04,
          2.57504415e-02, 1.71669610e-02, 1.71669610e-02, 2.50351503e-02,
          0., 0., 0., 0., 5.00703044e-03, 2.86116009e-03, 2.00281218e-02,
          4.29174025e-03, 0., 0., 0., 0., 0., 0., 0., 0., 0., 0., 0., 0.,
          0., 0., 0., 0., 0., 0., 0., 0., 0., 0., 0., 0., 0., 0., 0., 0.,
          0., 0., 0., 0., 0., 0., 0., 0., 0., 0., 0., 0., 0., 0., 0., 0.,
          0., 0., 0., 0., 0., 0., 0., 2.86116009e-03, 4.07715328e-02,
          3.21880504e-02, 3.29033397e-02, 9.72794443e-02, 0., 0., 0.,
          1.43058004e-03, 3.43339220e-02, 6.00843616e-02, 4.50632721e-02,
          3.50492112e-02, 0., 0., 0., 0., 2.14587012e-03, 7.86819030e-03,
          5.36467507e-02, 2.86116009e-03, 0., 0., 0., 0., 0., 0.,
          2.14587012e-03, 0., 0., 0., 0., 0., 0., 0., 0., 0., 0., 0., 0.,
          0., 0., 0., 0., 0., 0., 0., 0., 0., 0., 0., 0., 0., 0., 0., 0.,
          0., 0., 0., 0., 0., 0., 0., 0., 2.14587012e-03, 1.03717051e-01,
          7.93971941e-02, 2.21739914e-02, 6.29455224e-02, 0., 0., 0.,
          7.15290022e-04, 7.36748725e-02, 4.50632721e-01, 2.48920932e-01,
          3.21880504e-02, 0., 0., 0., 1.43058004e-03, 5.72232017e-03,
          1.29467502e-01, 7.79666126e-01, 1.58794388e-01, 0., 0., 0., 0.,
          0., 7.15290022e-04, 4.57785614e-02, 2.00281218e-02, 0., 0., 0.,
          0., 0., 0., 0., 0., 0., 0., 0., 0., 0., 0., 0., 0., 0., 0., 0.,
          0., 0., 0., 0., 0., 0., 0., 0., 0., 0., 0., 0., 0., 0., 0., 0.,
          7.86819030e-03, 7.43901655e-02, 3.14727612e-02, 9.29877069e-03,
          4.29174025e-03, 0., 0., 0., 1.43058004e-03, 4.36326936e-02,
          1.50210904e-02, 0., 0., 0., 0., 0., 0., 0., 7.86819030e-03, 0.,
          0., 0., 0., 0., 0., 0., 0., 0., 0., 0., 0., 0., 0., 0., 0., 0.,
          0., 0., 0., 0., 0., 0., 0., 0., 0., 0., 0., 0., 0., 0., 0., 0.,
          0., 0., 0., 0., 0., 0., 0., 0., 0., 0., 0., 0., 8.58348049e-03,
          5.22161722e-02, 1.71669610e-02, 3.57645005e-03, 7.15290022e-04,
          0., 0., 0., 4.29174025e-03, 3.93409505e-02, 1.00140609e-02, 0.,
          0., 0., 0., 0., 0., 7.15290010e-03, 5.72232017e-03, 0., 0., 0.,
          0., 0., 0., 1.43058004e-03, 1.43058004e-03, 0., 0., 0., 0., 0.,
          0., 0., 0., 0., 0., 0., 0., 0., 0., 0., 0., 0., 0., 0., 0., 0.,
          0., 0., 0., 0., 0., 0., 0., 0., 0., 0., 0., 0., 0., 0., 0., 0.,
          0., 0., 0., 0., 0., 0., 0., 0., 0., 0., 0., 0., 0., 0., 0., 0.,
          0., 0., 0., 0., 0., 0., 0., 0., 0., 0., 0., 0., 0., 0., 0., 0.,
          0., 0., 0., 0., 0., 0., 0., 0., 0., 0., 0., 0., 0., 0., 0., 0.,
          0., 0., 0., 0., 0., 0., 0., 0., 0., 0., 0., 0., 0., 0., 0., 0.,
          0., 0., 0., 0., 0., 0., 0., 0., 0., 0., 0., 0., 0., 0., 0., 0.,
          0., 0., 0., 0., 0., 0., 0., 0., 0., 0., 0., 0., 0., 0., 0., 0.,
          0., 0., 0., 0., 0., 0., 0., 0., 0., 0., 0., 0., 0., 0., 0., 0.,
          0., 0., 0., 0., 0., 0., 0., 0., 0., 0., 0., 0., 0. ]
      - [ 0., 0., 0., 2.61334190e-03, 2.09067352e-02, 6.79468876e-03,
          3.13601037e-03, 6.27202075e-03, 0., 0., 0., 2.09067343e-03,
          1.98613983e-02, 1.41120460e-02, 4.70401533e-03, 5.74935228e-03,
          0., 0., 0., 0., 1.56800519e-03, 2.03840677e-02, 1.25440415e-02,
          7.31735723e-03, 0., 0., 0., 0., 0., 3.13601037e-03,
          9.40803066e-03, 9.93069913e-03, 0., 0., 0., 0., 0., 0.,
          4.18134686e-03, 1.41120460e-02, 0., 0., 0., 0., 0., 0., 0.,
          8.36269371e-03, 0., 0., 0., 0., 0., 0., 0., 0., 0., 0., 0., 0.,
          0., 0., 0., 0., 0., 0., 0., 2.09067343e-03, 6.79468876e-03,
          1.62027199e-02, 2.09067352e-02, 9.93069913e-03, 0., 0., 0., 0.,
          5.22668357e-04, 5.22668357e-04, 4.18134686e-03, 3.13601037e-03,
          0., 0., 0., 0., 0., 0., 1.56800519e-03, 0., 0., 0., 0., 0., 0.,
          0., 0., 0., 0., 0., 0., 0., 0., 0., 0., 0., 0., 0., 0., 0., 0.,
          0., 0., 0., 0., 0., 0., 0., 0., 0., 0., 0., 0., 0., 0., 0., 0.,
          0., 0., 0., 0., 0., 0., 3.13601037e-03, 5.22668380e-03,
          1.25440415e-02, 2.14294028e-02, 4.33814749e-02, 0., 0., 0.,
          1.56800519e-03, 1.56800519e-03, 5.22668380e-03, 9.40803066e-03,
          9.93069913e-03, 0., 0., 0., 0., 1.04533671e-03, 0., 0., 0., 0.,
          0., 0., 0., 0., 0., 0., 0., 0., 0., 0., 0., 0., 0., 0., 0., 0.,
          0., 0., 0., 0., 0., 0., 0., 0., 0., 0., 0., 0., 0., 0., 0., 0.,
          0., 0., 0., 0., 0., 0., 0., 0., 0., 0., 1.88160613e-02,
          2.19520722e-02, 6.27202075e-03, 1.62027199e-02, 3.08374353e-02,
          0., 0., 0., 2.66560875e-02, 9.19896364e-02, 5.06988317e-02,
          3.65867876e-02, 3.03147659e-02, 0., 0., 0., 6.79468876e-03,
          1.08192354e-01, 2.48790145e-01, 9.40803066e-02, 8.36269371e-03,
          0., 0., 0., 0., 2.09067352e-02, 1.76139250e-01, 9.22509670e-01,
          8.10135975e-02, 0., 0., 0., 0., 0., 5.22668357e-04,
          5.48801795e-02, 4.70401533e-02, 0., 0., 0., 0., 0., 0., 0., 0.,
          0., 0., 0., 0., 0., 0., 0., 0., 0., 0., 0., 0., 0., 0., 0., 0.,
          0., 0., 1.04533671e-03, 1.14987046e-02, 1.88160613e-02, 0.,
          1.04533671e-03, 2.61334190e-03, 0., 0., 0., 1.09760361e-02,
          1.51573829e-02, 1.04533671e-03, 0., 0., 0., 0., 0., 0.,
          1.56800519e-03, 0., 0., 0., 0., 0., 0., 0., 0., 0., 0., 0., 0.,
          0., 0., 0., 0., 0., 0., 0., 0., 0., 0., 0., 0., 0., 0., 0., 0.,
          0., 0., 0., 0., 0., 0., 0., 0., 0., 0., 0., 0., 0., 0., 0., 0.,
          0., 0., 8.88536219e-03, 9.40803066e-03, 1.56800519e-03,
          1.04533671e-03, 0., 0., 0., 0., 5.74935228e-03, 7.31735723e-03,
          4.18134686e-03, 0., 0., 0., 0., 0., 0., 5.22668357e-04,
          1.56800519e-03, 0., 0., 0., 0., 0., 0., 0., 0., 0., 0., 0., 0.,
          0., 0., 0., 0., 0., 0., 0., 0., 0., 0., 0., 0., 0., 0., 0., 0.,
          0., 0., 0., 0., 0., 0., 0., 0., 0., 0., 0., 0., 0., 0., 0., 0.,
          0., 0., 0., 0., 0., 0., 0., 0., 0., 0., 0., 0., 0., 0., 0., 0.,
          0., 0., 0., 0., 0., 0., 0., 0., 0., 0., 0., 0., 0., 0., 0., 0.,
          0., 0., 0., 0., 0., 0., 0., 0., 0., 0., 0., 0., 0., 0., 0., 0.,
          0., 0., 0., 0., 0., 0., 0., 0., 0., 0., 0., 0., 0., 0., 0., 0.,
          0., 0., 0., 0., 0., 0., 0., 0., 0., 0., 0., 0., 0., 0., 0., 0.,
          0., 0., 0., 0., 0., 0., 0., 0., 0., 0., 0., 0., 0., 0., 0., 0.,
          0., 0., 0., 0., 0., 0., 0., 0., 0., 0., 0., 0., 0., 0., 0., 0.,
          0., 0., 0., 0., 0., 0., 0., 0., 0., 0., 0., 0., 0., 0. ]
      - [ 0., 0., 1.61599391e-03, 8.07996932e-03, 2.18159184e-02,
          1.93919279e-02, 8.88796616e-03, 8.88796616e-03, 0., 0.,
          8.07996956e-04, 7.27197248e-03, 2.58559026e-02, 3.23198773e-02,
          1.61599386e-02, 8.88796616e-03, 0., 0., 0., 3.23198782e-03,
          2.18159184e-02, 2.90878899e-02, 3.55518647e-02, 3.23198773e-02,
          0., 0., 0., 2.42399098e-03, 2.26239152e-02, 3.87838557e-02,
          4.03998494e-02, 2.58559026e-02, 0., 0., 0., 0., 3.23198782e-03,
          1.77759323e-02, 1.29279513e-02, 2.74718963e-02, 0., 0., 0., 0.,
          0., 0., 0., 2.98958868e-02, 0., 0., 0., 0., 0., 0., 0., 0., 0.,
          0., 0., 0., 0., 0., 0., 0., 0., 0., 0., 0., 1.13119576e-02,
          2.82798931e-02, 2.90878899e-02, 2.50479057e-02, 0., 0., 0.,
          8.07996956e-04, 2.42399098e-03, 4.03998466e-03, 5.65597881e-03,
          0., 0., 0., 0., 0., 0., 0., 1.61599391e-03, 0., 0., 0., 0., 0.,
          0., 0., 0., 0., 0., 0., 0., 0., 0., 0., 0., 0., 0., 0., 0., 0.,
          0., 0., 0., 0., 0., 0., 0., 0., 0., 0., 0., 0., 0., 0., 0., 0.,
          0., 0., 0., 0., 0., 0., 8.07996956e-04, 4.03998466e-03,
          1.21199545e-02, 5.57517894e-02, 4.36318368e-02, 8.96876603e-02,
          0., 0., 0., 1.61599391e-03, 5.65597881e-03, 3.31278741e-02,
          3.23198782e-03, 8.07996956e-04, 0., 0., 0., 0., 8.07996956e-04,
          1.61599391e-03, 8.88796616e-03, 0., 0., 0., 0., 0.,
          8.07996956e-04, 0., 0., 0., 0., 0., 0., 0., 0., 0., 0., 0., 0.,
          0., 0., 0., 0., 0., 0., 0., 0., 0., 0., 0., 0., 0., 0., 0., 0.,
          0., 0., 0., 0., 0., 0., 0., 0., 0., 5.65597881e-03,
          2.01999247e-02, 7.02957362e-02, 4.12078463e-02, 2.98958868e-02,
          9.45356414e-02, 0., 0., 4.84798197e-03, 1.93919279e-02,
          2.14927197e-01, 3.74102592e-01, 1.47055447e-01, 1.85839292e-02,
          0., 0., 1.61599391e-03, 3.23198782e-03, 4.60558273e-02,
          3.27238768e-01, 4.08038467e-01, 8.07996956e-04, 0., 0., 0.,
          8.07996956e-04, 0., 5.97917736e-02, 6.59325540e-01,
          9.69596356e-02, 0., 0., 0., 0., 0., 0., 2.42399098e-03,
          3.23198782e-03, 0., 0., 0., 0., 0., 0., 0., 0., 0., 0., 0., 0.,
          0., 0., 0., 0., 0., 0., 0., 0., 0., 0., 0., 0., 0., 0.,
          1.61599391e-03, 2.74718963e-02, 7.02957362e-02, 2.50479057e-02,
          0., 4.20158431e-02, 0., 0., 1.61599391e-03, 1.61599386e-02,
          1.00191623e-01, 3.15118805e-02, 2.42399098e-03, 0., 0., 0., 0.,
          2.42399098e-03, 4.03998466e-03, 8.07996956e-04, 0., 0., 0., 0.,
          0., 0., 0., 0., 0., 0., 0., 0., 0., 0., 0., 0., 0., 0., 0., 0.,
          0., 0., 0., 0., 0., 0., 0., 0., 0., 0., 0., 0., 0., 0., 0., 0.,
          0., 0., 0., 0., 0., 0., 0., 0., 0., 9.69596393e-03,
          2.10079215e-02, 6.46397565e-03, 1.61599391e-03, 6.46397565e-03,
          0., 0., 0., 6.46397565e-03, 2.18159184e-02, 9.69596393e-03, 0.,
          8.07996956e-04, 0., 0., 0., 1.61599391e-03, 1.69679355e-02,
          4.03998466e-03, 0., 0., 0., 0., 0., 0., 1.61599391e-03,
          8.07996956e-04, 0., 0., 0., 0., 0., 0., 0., 0., 0., 0., 0., 0.,
          0., 0., 0., 0., 0., 0., 0., 0., 0., 0., 0., 0., 0., 0., 0., 0.,
          0., 0., 0., 0., 0., 0., 0., 0., 0., 0., 0., 0., 0., 0., 0., 0.,
          0., 0., 0., 0., 0., 0., 0., 0., 0., 0., 0., 0., 0., 0., 0., 0.,
          0., 0., 0., 0., 0., 0., 0., 0., 0., 0., 0., 0., 0., 0., 0., 0.,
          0., 0., 0., 0., 0., 0., 0., 0., 0., 0., 0., 0., 0., 0., 0., 0.,
          0., 0., 0., 0., 0., 0., 0., 0., 0., 0., 0., 0., 0., 0., 0., 0.,
          0., 0., 0., 0., 0., 0., 0., 0., 0., 0., 0., 0., 0., 0., 0., 0.,
          0., 0., 0., 0., 0., 0., 0., 0., 0., 0., 0., 0., 0., 0., 0., 0.,
          0., 0., 0., 0., 0., 0., 0., 0., 0., 0., 0., 0., 0., 0., 0., 0.,
          0., 0., 0., 0., 0., 0. ]
      - [ 0., 0., 0., 3.58801475e-03, 8.97003710e-03, 2.27240939e-02,
          6.57802727e-03, 1.07640447e-02, 0., 0., 0., 4.78401966e-03,
          1.79400742e-02, 5.86042441e-02, 2.15280894e-02, 3.58801475e-03,
          0., 5.98002458e-04, 1.79400737e-03, 1.49500621e-02,
          9.38863903e-02, 1.00464419e-01, 2.45181005e-02, 2.39200983e-03,
          0., 0., 2.39200983e-03, 2.33220961e-02, 2.30230957e-01,
          5.13684154e-01, 5.38202235e-03, 0., 0., 0., 5.38202235e-03,
          3.40861417e-02, 2.69699126e-01, 6.94878876e-01, 3.76741551e-02,
          0., 0., 1.79400737e-03, 2.39200983e-03, 1.97340809e-02,
          1.41726583e-01, 2.66709089e-01, 5.92022464e-02, 0., 0., 0.,
          5.98002458e-04, 2.39200983e-03, 3.94681618e-02, 4.06641699e-02,
          4.78401966e-03, 0., 0., 0., 1.19600492e-03, 5.98002458e-04,
          1.79400737e-03, 3.58801475e-03, 0., 0., 0., 0., 0.,
          5.98002458e-04, 6.57802727e-03, 2.45181005e-02, 2.39200983e-03,
          1.79400737e-03, 0., 0., 0., 1.19600492e-03, 0., 3.58801475e-03,
          1.79400737e-03, 0., 0., 0., 0., 0., 0., 0., 0., 0., 0., 0., 0.,
          0., 0., 0., 0., 0., 0., 0., 0., 0., 0., 0., 0., 0., 0., 0., 0.,
          0., 0., 0., 0., 0., 0., 0., 0., 0., 0., 0., 0., 0., 0., 0., 0.,
          0., 0., 0., 0., 0., 0., 0., 0., 0., 3.58801475e-03,
          7.17602950e-03, 0., 8.97003710e-03, 0., 0., 0., 0.,
          1.79400737e-03, 5.98002458e-04, 0., 0., 0., 0., 0., 0., 0., 0.,
          0., 0., 0., 0., 0., 0., 0., 0., 0., 0., 0., 0., 0., 0., 0., 0.,
          0., 0., 0., 0., 0., 0., 0., 0., 0., 0., 0., 0., 0., 0., 0., 0.,
          0., 0., 0., 0., 0., 0., 0., 0., 0., 0., 0., 0., 0., 0., 0.,
          2.39200983e-03, 0., 0., 0., 0., 0., 0., 0., 0., 0., 0., 0., 0.,
          0., 0., 0., 0., 0., 0., 0., 0., 0., 0., 0., 0., 0., 0., 0., 0.,
          0., 0., 0., 0., 0., 0., 0., 0., 0., 0., 0., 0., 0., 0., 0., 0.,
          0., 0., 0., 0., 0., 0., 0., 0., 0., 0., 0., 0., 0., 0., 0., 0.,
          0., 0., 1.19600492e-03, 1.19600492e-03, 0., 1.19600492e-03, 0.,
          0., 0., 0., 0., 0., 0., 0., 0., 0., 0., 0., 0., 0., 0., 0., 0.,
          0., 0., 0., 0., 0., 0., 0., 0., 0., 0., 0., 0., 0., 0., 0., 0.,
          0., 0., 0., 0., 0., 0., 0., 0., 0., 0., 0., 0., 0., 0., 0., 0.,
          0., 0., 0., 0., 0., 0., 0., 0., 0., 0., 1.19600492e-03,
          6.57802727e-03, 7.17602950e-03, 0., 5.98002458e-04, 0., 0.,
          5.98002458e-04, 0., 5.38202235e-03, 1.19600492e-03,
          5.98002458e-04, 0., 0., 0., 5.98002458e-04, 5.98002458e-03,
          2.99001229e-03, 9.56803933e-03, 0., 0., 0., 0., 7.17602950e-03,
          1.19600492e-03, 0., 6.57802727e-03, 0., 0., 0., 0.,
          1.19600492e-03, 0., 0., 0., 0., 0., 0., 0., 0., 0., 0., 0., 0.,
          0., 0., 0., 0., 0., 0., 0., 0., 0., 0., 0., 0., 0., 0., 0., 0.,
          0., 0., 0., 0., 0., 0., 0., 0., 0., 0., 0., 0., 0., 0., 0., 0.,
          0., 0., 0., 0., 0., 0., 0., 0., 0., 0., 0., 0., 0., 0., 0., 0.,
          0., 0., 0., 0., 0., 0., 0., 0., 0., 0., 0., 0., 0., 0., 0., 0.,
          0., 0., 0., 0., 0., 0., 0., 0., 0., 0., 0., 0., 0., 0., 0., 0.,
          0., 0., 0., 0., 0., 0., 0., 0., 0., 0., 0., 0., 0., 0., 0., 0.,
          0., 0., 0., 0., 0., 0., 0., 0., 0., 0., 0., 0., 0., 0., 0., 0.,
          0., 0., 0., 0., 0., 0., 0., 0., 0., 0., 0., 0., 0., 0., 0., 0.,
          0., 0., 0., 0., 0., 0., 0., 0., 0., 0., 0., 0., 0., 0., 0., 0.,
          0. ]
      - [ 0., 0., 1.71603984e-03, 1.20122787e-02, 6.69255555e-02,
          4.89071347e-02, 1.02962386e-02, 5.14811929e-03, 0., 0.,
          2.57405965e-03, 7.72217941e-03, 7.55057484e-02, 3.86108942e-02,
          2.40245573e-02, 0., 0., 0., 0., 1.28702987e-02, 1.35567144e-01,
          5.74873351e-02, 2.14504972e-02, 2.57405965e-03, 0., 0., 0.,
          6.86415937e-03, 4.20429744e-02, 3.26047577e-02, 2.65986174e-02,
          5.14811929e-03, 0., 0., 5.14811929e-03, 1.71603984e-03,
          8.58019921e-04, 3.43207968e-03, 1.11542586e-02, 1.45863388e-02,
          0., 0., 8.58019921e-04, 0., 0., 0., 3.43207968e-03,
          2.65986174e-02, 0., 0., 0., 0., 0., 0., 0., 0., 0., 0., 0., 0.,
          0., 0., 0., 0., 0., 0., 0., 9.43821855e-03, 9.43821855e-03,
          2.14504972e-02, 1.11542586e-02, 2.57405965e-03, 0., 0., 0.,
          8.58019921e-04, 6.00613933e-03, 3.43207968e-03, 8.58019921e-04,
          0., 0., 0., 0., 0., 0., 0., 0., 0., 0., 0., 0., 0., 0., 0., 0.,
          0., 0., 0., 0., 0., 0., 0., 0., 0., 0., 0., 0., 0., 0., 0., 0.,
          0., 0., 0., 0., 0., 0., 0., 0., 0., 0., 0., 0., 0., 0., 0., 0.,
          0., 0., 8.58019921e-04, 0., 3.43207968e-03, 4.89071347e-02,
          3.77528742e-02, 2.23085172e-02, 8.58019921e-04, 0., 0., 0., 0.,
          0., 0., 6.00613933e-03, 0., 0., 0., 0., 0., 0., 0., 0., 0., 0.,
          0., 0., 0., 0., 0., 0., 0., 0., 0., 0., 0., 0., 0., 0., 0., 0.,
          0., 0., 0., 0., 0., 0., 0., 0., 0., 0., 0., 0., 0., 0., 0., 0.,
          0., 0., 0., 0., 0., 0., 0., 0., 0., 0., 0., 1.96486562e-01,
          3.11461240e-01, 2.65986174e-02, 2.48825774e-02, 0., 0., 0.,
          8.58019921e-04, 8.23699087e-02, 6.54669166e-01, 2.40245573e-02,
          2.57405965e-03, 0., 0., 0., 0., 0., 7.29316920e-02,
          1.11542586e-02, 0., 0., 0., 0., 0., 0., 0., 0., 0., 0., 0., 0.,
          0., 0., 0., 0., 0., 0., 0., 0., 0., 0., 0., 0., 0., 0., 0., 0.,
          0., 0., 0., 0., 0., 0., 0., 0., 0., 0., 0., 0., 0., 0., 0.,
          8.58019921e-04, 2.31665373e-02, 2.42819637e-01, 2.71134287e-01,
          3.43207968e-03, 8.58019921e-04, 0., 0., 0., 1.54443588e-02,
          2.71134287e-01, 1.32135063e-01, 4.29009972e-03, 0., 0., 0., 0.,
          0., 9.43821855e-03, 5.14811929e-03, 0., 0., 0., 0., 0., 0., 0.,
          0., 0., 0., 0., 0., 0., 0., 0., 0., 0., 0., 0., 0., 0., 0., 0.,
          0., 0., 0., 0., 0., 0., 0., 0., 0., 0., 0., 0., 0., 0., 0., 0.,
          0., 0., 0., 0., 0., 1.71603984e-03, 1.28702987e-02,
          1.19264767e-01, 1.87906355e-01, 6.00613933e-03, 8.58019921e-04,
          0., 0., 0., 2.91726775e-02, 2.21369132e-01, 1.79326162e-01,
          1.71603984e-03, 0., 0., 0., 1.71603984e-03, 4.29009972e-03,
          1.33851111e-01, 1.88764371e-02, 0., 0., 0., 0., 1.71603984e-03,
          0., 6.00613933e-03, 0., 0., 0., 0., 0., 0., 0., 0., 0., 0., 0.,
          0., 0., 0., 0., 0., 0., 0., 0., 0., 0., 0., 0., 0., 0., 0., 0.,
          0., 0., 0., 0., 0., 0., 0., 0., 0., 0., 0., 0., 0., 0., 0., 0.,
          0., 0., 0., 0., 0., 0., 0., 0., 0., 0., 0., 0., 0., 0., 0., 0.,
          0., 0., 0., 0., 0., 0., 0., 0., 0., 0., 0., 0., 0., 0., 0., 0.,
          0., 0., 0., 0., 0., 0., 0., 0., 0., 0., 0., 0., 0., 0., 0., 0.,
          0., 0., 0., 0., 0., 0., 0., 0., 0., 0., 0., 0., 0., 0., 0., 0.,
          0., 0., 0., 0., 0., 0., 0., 0., 0., 0., 0., 0., 0., 0., 0., 0.,
          0., 0., 0., 0., 0., 0., 0., 0., 0., 0., 0., 0., 0., 0., 0., 0.,
          0., 0., 0., 0., 0., 0., 0., 0., 0., 0., 0., 0., 0., 0., 0., 0.,
          0., 0., 0., 0., 0., 0., 0., 0. ]
      - [ 0., 0., 0., 1.03923623e-02, 2.22963423e-01, 5.57408571e-01,
          9.06969830e-02, 8.31388980e-02, 0., 0., 0., 3.21218483e-02,
          3.70346010e-01, 1.66277796e-01, 3.40113677e-02, 2.92875674e-02,
          0., 0., 0., 4.72380128e-03, 8.88074636e-02, 1.02978863e-01,
          5.57408556e-02, 1.70056839e-02, 0., 0., 0., 0., 3.77904102e-02,
          6.80227354e-02, 3.68456505e-02, 5.66856144e-03, 0., 0., 0., 0.,
          8.50284193e-03, 7.55808176e-03, 1.22818835e-02, 0., 0., 0., 0.,
          0., 0., 0., 0., 0., 0., 0., 0., 0., 0., 0., 0., 0., 0., 0., 0.,
          0., 0., 0., 0., 0., 0., 0., 0., 0., 4.06246893e-02,
          9.91998240e-02, 4.72380109e-02, 4.25142124e-02, 0., 0., 0., 0.,
          0., 9.44760221e-04, 0., 0., 0., 0., 0., 0., 0., 0., 0., 0., 0.,
          0., 0., 0., 0., 0., 0., 0., 0., 0., 0., 0., 0., 0., 0., 0., 0.,
          0., 0., 0., 0., 0., 0., 0., 0., 0., 0., 0., 0., 0., 0., 0., 0.,
          0., 0., 0., 0., 0., 0., 0., 0., 0., 0., 9.44760221e-04,
          4.25142124e-02, 1.44548312e-01, 5.10170534e-02, 8.78627002e-02,
          0., 0., 0., 0., 9.44760221e-04, 2.83428072e-03, 1.88952044e-03,
          0., 0., 0., 0., 0., 0., 0., 0., 0., 0., 0., 0., 0., 0., 0., 0.,
          0., 0., 0., 0., 0., 0., 0., 0., 0., 0., 0., 0., 0., 0., 0., 0.,
          0., 0., 0., 0., 0., 0., 0., 0., 0., 0., 0., 0., 0., 0., 0., 0.,
          0., 0., 0., 0., 6.61332160e-03, 1.30376920e-01, 2.56030023e-01,
          2.45637670e-02, 9.44760256e-03, 0., 0., 0., 7.55808176e-03,
          3.02323271e-02, 9.44760218e-02, 2.36190055e-02, 0., 0., 0., 0.,
          0., 0., 0., 1.32266432e-02, 1.60609242e-02, 0., 0., 0., 0., 0.,
          0., 0., 5.66856144e-03, 0., 0., 0., 0., 0., 0., 0., 0., 0., 0.,
          0., 0., 0., 0., 0., 0., 0., 0., 0., 0., 0., 0., 0., 0., 0., 0.,
          0., 0., 0., 0., 0., 0., 0., 0., 0., 4.72380128e-03,
          1.35100707e-01, 3.00433755e-01, 1.98399648e-02, 3.77904102e-02,
          0., 0., 0., 9.44760221e-04, 2.55085267e-02, 3.59008908e-02,
          9.44760256e-03, 0., 0., 0., 0., 0., 0., 0., 1.70056839e-02,
          4.72380128e-03, 0., 0., 0., 0., 0., 0., 0., 0., 0., 0., 0., 0.,
          0., 0., 0., 0., 0., 0., 0., 0., 0., 0., 0., 0., 0., 0., 0., 0.,
          0., 0., 0., 0., 0., 0., 0., 0., 0., 0., 0., 0., 0., 0., 0.,
          3.77904088e-03, 1.68167323e-01, 3.10826123e-01, 1.51161635e-02,
          2.45637670e-02, 0., 0., 0., 1.13371229e-02, 2.07847252e-01,
          4.06246893e-02, 0., 0., 0., 0., 0., 0., 2.45637670e-02,
          7.55808176e-03, 0., 0., 0., 0., 0., 0., 0., 0., 0., 0., 0., 0.,
          0., 0., 0., 0., 0., 0., 0., 0., 0., 0., 0., 0., 0., 0., 0., 0.,
          0., 0., 0., 0., 0., 0., 0., 0., 0., 0., 0., 0., 0., 0., 0., 0.,
          0., 0., 0., 0., 0., 0., 0., 0., 0., 0., 0., 0., 0., 0., 0., 0.,
          0., 0., 0., 0., 0., 0., 0., 0., 0., 0., 0., 0., 0., 0., 0., 0.,
          0., 0., 0., 0., 0., 0., 0., 0., 0., 0., 0., 0., 0., 0., 0., 0.,
          0., 0., 0., 0., 0., 0., 0., 0., 0., 0., 0., 0., 0., 0., 0., 0.,
          0., 0., 0., 0., 0., 0., 0., 0., 0., 0., 0., 0., 0., 0., 0., 0.,
          0., 0., 0., 0., 0., 0., 0., 0., 0., 0., 0., 0., 0., 0., 0., 0.,
          0., 0., 0., 0., 0., 0., 0., 0., 0., 0., 0., 0., 0., 0., 0., 0.,
          0., 0., 0., 0., 0., 0., 0., 0., 0., 0., 0., 0., 0., 0. ]
      - [ 0., 0., 6.27758494e-03, 4.57366891e-02, 3.63203138e-01,
          3.58719155e-02, 3.22847217e-02, 2.51103397e-02, 0., 0.,
          6.27758494e-03, 1.03131756e-01, 1.57836422e-01, 3.49751152e-02,
          3.22847217e-02, 2.69039348e-03, 0., 0., 4.48398944e-03,
          6.90534338e-02, 5.82918599e-02, 1.43487658e-02, 1.43487658e-02,
          1.79359573e-03, 0., 0., 8.96797865e-04, 5.82918599e-02,
          4.39430960e-02, 1.34519674e-02, 6.27758494e-03, 2.69039348e-03,
          0., 0., 0., 1.25551699e-02, 1.79359578e-02, 8.96797888e-03,
          5.38078696e-03, 1.79359573e-03, 0., 0., 0., 8.96797865e-04,
          2.69039348e-03, 0., 6.27758494e-03, 8.96797865e-04, 0., 0., 0.,
          0., 0., 8.96797865e-04, 8.96797865e-04, 0., 0., 0., 0., 0., 0.,
          0., 0., 0., 0., 0., 3.58719146e-03, 2.60071382e-02,
          1.01338156e-01, 2.60071382e-02, 2.24199463e-02, 8.96797888e-03,
          0., 0., 8.96797865e-04, 8.07118043e-03, 1.88327543e-02,
          2.69039348e-03, 0., 0., 0., 0., 0., 0., 0., 0., 0., 0., 0., 0.,
          0., 0., 0., 0., 0., 0., 0., 0., 0., 0., 0., 0., 0., 0., 0., 0.,
          0., 0., 0., 0., 0., 0., 0., 0., 0., 0., 0., 0., 0., 0., 0., 0.,
          0., 0., 0., 0., 0., 0., 0., 0., 5.38078696e-03, 3.94591056e-02,
          1.66804403e-01, 3.13879251e-02, 4.03559022e-02, 1.79359578e-02,
          0., 0., 8.96797865e-04, 1.43487658e-02, 4.21494991e-02, 0., 0.,
          0., 0., 0., 0., 0., 0., 0., 0., 0., 0., 0., 0., 0., 0., 0., 0.,
          0., 0., 0., 0., 0., 0., 0., 0., 0., 0., 0., 0., 0., 0., 0., 0.,
          0., 0., 0., 0., 0., 0., 0., 0., 0., 0., 0., 0., 0., 0., 0., 0.,
          0., 0., 0., 0., 4.48398925e-02, 5.29110730e-01, 1.17480516e-01,
          4.21494991e-02, 1.43487658e-02, 0., 0., 8.96797865e-04,
          8.96797888e-03, 3.70377511e-01, 4.71715659e-01, 5.38078696e-03,
          0., 0., 0., 0., 0., 1.97295528e-02, 3.58719155e-02,
          8.96797865e-04, 0., 0., 0., 0., 0., 0., 0., 0., 0., 0., 0., 0.,
          0., 0., 0., 0., 0., 0., 0., 0., 0., 0., 0., 0., 0., 0., 0., 0.,
          0., 0., 0., 0., 0., 0., 0., 0., 0., 0., 0., 0., 0., 0., 0.,
          2.69039348e-03, 8.69893953e-02, 2.34064236e-01, 3.40783186e-02,
          2.51103397e-02, 1.43487658e-02, 0., 0., 8.96797865e-04,
          6.81566373e-02, 8.34022015e-02, 8.96797888e-03, 0., 0., 0., 0.,
          0., 8.96797865e-04, 2.69039348e-03, 0., 0., 0., 0., 0., 0., 0.,
          0., 0., 0., 0., 0., 0., 0., 0., 0., 0., 0., 0., 0., 0., 0., 0.,
          0., 0., 0., 0., 0., 0., 0., 0., 0., 0., 0., 0., 0., 0., 0., 0.,
          0., 0., 0., 0., 0., 0., 1.79359573e-03, 5.91886602e-02,
          8.51957947e-02, 1.07615739e-02, 2.69039348e-03, 6.27758494e-03,
          0., 0., 2.69039348e-03, 1.07615739e-01, 6.45694435e-02,
          3.58719146e-03, 0., 0., 0., 0., 0., 3.40783186e-02,
          1.34519674e-02, 0., 0., 0., 0., 0., 0., 4.48398944e-03,
          3.58719146e-03, 0., 0., 0., 0., 0., 0., 0., 0., 0., 0., 0., 0.,
          0., 0., 0., 0., 0., 0., 0., 0., 0., 0., 0., 0., 0., 0., 0., 0.,
          0., 0., 0., 0., 0., 0., 0., 0., 0., 0., 0., 0., 0., 0., 0., 0.,
          0., 0., 0., 0., 0., 0., 0., 0., 0., 0., 0., 0., 0., 0., 0., 0.,
          0., 0., 0., 0., 0., 0., 0., 0., 0., 0., 0., 0., 0., 0., 0., 0.,
          0., 0., 0., 0., 0., 0., 0., 0., 0., 0., 0., 0., 0., 0., 0., 0.,
          0., 0., 0., 0., 0., 0., 0., 0., 0., 0., 0., 0., 0., 0., 0., 0.,
          0., 0., 0., 0., 0., 0., 0., 0., 0., 0., 0., 0., 0., 0., 0., 0.,
          0., 0., 0., 0., 0., 0., 0., 0., 0., 0., 0., 0., 0., 0., 0., 0.,
          0., 0., 0., 0., 0., 0., 0., 0., 0., 0., 0., 0., 0., 0., 0., 0.,
          0., 0., 0., 0., 0., 0., 0. ]
      - [ 0., 0., 0., 1.47145649e-03, 9.93233100e-02, 1.84667796e-01,
          2.72219442e-02, 7.13656396e-02, 0., 0., 0., 6.62155403e-03,
          3.60506833e-01, 5.17216980e-01, 1.15509331e-01, 7.35728256e-03,
          0., 0., 0., 9.56446677e-03, 1.83932066e-01, 5.94468415e-01,
          5.81225306e-02, 0., 0., 0., 0., 0., 6.91584572e-02,
          2.79576719e-01, 3.82578671e-02, 1.47145649e-03, 0., 0., 0., 0.,
          0., 1.05944864e-01, 1.69217493e-02, 0., 0., 0., 0., 0., 0., 0.,
          0., 0., 0., 0., 0., 0., 0., 0., 0., 0., 0., 0., 0., 0., 0., 0.,
          0., 0., 0., 0., 0., 0., 1.98646635e-02, 3.97293270e-02,
          2.35433038e-02, 5.44438884e-02, 0., 0., 0., 0., 1.47145649e-03,
          8.09301063e-03, 5.15009789e-03, 1.47145649e-03, 0., 0., 0., 0.,
          2.20718468e-03, 0., 0., 0., 0., 0., 0., 0., 0., 0., 0., 0., 0.,
          0., 0., 0., 0., 0., 0., 0., 0., 0., 0., 0., 0., 0., 0., 0., 0.,
          0., 0., 0., 0., 0., 0., 0., 0., 0., 0., 0., 0., 0., 0., 0., 0.,
          0., 0., 0., 1.91289335e-02, 3.09005864e-02, 7.35728245e-04,
          1.76574774e-02, 0., 0., 0., 1.47145649e-03, 2.20718468e-03,
          2.20718468e-03, 0., 0., 0., 0., 0., 0., 0., 2.94291298e-03, 0.,
          0., 0., 0., 0., 0., 0., 0., 0., 0., 0., 0., 0., 0., 0., 0., 0.,
          0., 0., 0., 0., 0., 0., 0., 0., 0., 0., 0., 0., 0., 0., 0., 0.,
          0., 0., 0., 0., 0., 0., 0., 0., 0., 0., 0., 0., 2.94291298e-03,
          5.29724322e-02, 5.00295199e-02, 5.15009789e-03, 1.10359238e-02,
          0., 0., 0., 7.35728245e-04, 9.56446677e-03, 1.32431081e-02,
          4.41436935e-03, 0., 0., 0., 0., 0., 0., 7.35728245e-04,
          2.20718468e-03, 0., 0., 0., 0., 0., 0., 0., 0., 0., 0., 0., 0.,
          0., 0., 0., 0., 0., 0., 0., 0., 0., 0., 0., 0., 0., 0., 0., 0.,
          0., 0., 0., 0., 0., 0., 0., 0., 0., 0., 0., 0., 0., 0., 0., 0.,
          3.67864128e-03, 1.28016710e-01, 2.57504880e-02, 4.41436935e-03,
          4.41436935e-03, 0., 0., 0., 0., 6.62155403e-03, 1.69217493e-02,
          0., 0., 0., 0., 0., 0., 0., 0., 0., 0., 0., 0., 0., 0., 0., 0.,
          0., 0., 0., 0., 0., 0., 0., 0., 0., 0., 0., 0., 0., 0., 0., 0.,
          0., 0., 0., 0., 0., 0., 0., 0., 0., 0., 0., 0., 0., 0., 0., 0.,
          0., 0., 0., 0., 0., 2.94291298e-03, 8.60802084e-02,
          8.16658363e-02, 4.41436935e-03, 2.94291298e-03, 0., 0., 0.,
          2.20718468e-03, 6.40083551e-02, 6.10654429e-02, 9.56446677e-03,
          0., 0., 0., 7.35728245e-04, 0., 0., 1.32431081e-02, 0., 0., 0.,
          0., 0., 0., 0., 2.94291298e-03, 0., 0., 0., 0., 0., 0., 0., 0.,
          0., 0., 0., 0., 0., 0., 0., 0., 0., 0., 0., 0., 0., 0., 0., 0.,
          0., 0., 0., 0., 0., 0., 0., 0., 0., 0., 0., 0., 0., 0., 0., 0.,
          0., 0., 0., 0., 0., 0., 0., 0., 0., 0., 0., 0., 0., 0., 0., 0.,
          0., 0., 0., 0., 0., 0., 0., 0., 0., 0., 0., 0., 0., 0., 0., 0.,
          0., 0., 0., 0., 0., 0., 0., 0., 0., 0., 0., 0., 0., 0., 0., 0.,
          0., 0., 0., 0., 0., 0., 0., 0., 0., 0., 0., 0., 0., 0., 0., 0.,
          0., 0., 0., 0., 0., 0., 0., 0., 0., 0., 0., 0., 0., 0., 0., 0.,
          0., 0., 0., 0., 0., 0., 0., 0., 0., 0., 0., 0., 0., 0., 0., 0.,
          0., 0., 0., 0., 0., 0., 0., 0., 0., 0., 0., 0., 0., 0., 0., 0.,
          0., 0., 0., 0., 0., 0., 0., 0., 0., 0. ]
      - [ 0., 0., 0., 1.67875772e-03, 1.28424957e-01, 8.81347805e-02,
          6.12746552e-02, 2.35026069e-02, 0., 0., 0., 8.39378859e-04,
          1.00725457e-01, 8.72953981e-02, 3.77720483e-02, 2.51813643e-02,
          0., 0., 0., 5.03627304e-03, 3.94508056e-02, 6.21140338e-02,
          1.93057135e-02, 2.18238495e-02, 0., 0., 0., 0., 5.03627304e-03,
          5.28808683e-02, 2.51813643e-02, 3.02176382e-02, 0., 0., 0., 0.,
          0., 1.76269561e-02, 2.68601235e-02, 4.70052138e-02, 0., 0., 0.,
          0., 0., 0., 7.55440956e-03, 4.78445925e-02, 0., 0., 0., 0., 0.,
          0., 0., 6.71503088e-03, 0., 0., 0., 0., 0., 0., 0., 0., 0., 0.,
          0., 0., 3.02176382e-02, 3.27357762e-02, 3.86114269e-02,
          1.59481987e-02, 0., 0., 0., 0., 8.39378859e-04, 1.67875772e-03,
          3.35751544e-03, 0., 0., 0., 0., 0., 0., 0., 0., 0., 0., 0., 0.,
          0., 0., 0., 0., 0., 0., 0., 0., 0., 0., 0., 0., 0., 0., 0., 0.,
          0., 0., 0., 0., 0., 0., 0., 0., 0., 0., 0., 0., 0., 0., 0., 0.,
          0., 0., 0., 0., 0., 0., 0., 0., 0., 2.51813643e-02,
          6.79896846e-02, 8.98135379e-02, 1.05761737e-01, 0., 0., 0., 0.,
          3.35751544e-03, 3.69326696e-02, 3.18963975e-02, 5.87565172e-03,
          0., 0., 0., 0., 2.51813652e-03, 1.67875772e-03, 5.03627304e-03,
          0., 0., 0., 0., 0., 0., 0., 0., 0., 0., 0., 0., 0., 0., 0., 0.,
          0., 0., 0., 0., 0., 0., 0., 0., 0., 0., 0., 0., 0., 0., 0., 0.,
          0., 0., 0., 0., 0., 0., 0., 0., 0., 0., 0., 0., 5.87565172e-03,
          6.12746552e-02, 1.31782472e-01, 5.20414896e-02, 7.72228539e-02,
          0., 0., 0., 8.39378859e-04, 3.44145335e-02, 4.02062476e-01,
          5.42238712e-01, 2.51813643e-02, 0., 0., 0., 8.39378859e-04,
          3.35751544e-03, 7.13471994e-02, 6.16943419e-01, 6.96684420e-02,
          0., 0., 0., 0., 1.67875772e-03, 1.67875772e-03, 1.84663348e-02,
          1.76269561e-02, 0., 0., 0., 0., 0., 0., 1.67875772e-03,
          3.35751544e-03, 0., 0., 0., 0., 0., 0., 0., 0., 0., 0., 0., 0.,
          0., 0., 0., 0., 0., 0., 0., 0., 0., 0., 0., 0., 0., 0., 0.,
          3.35751544e-03, 9.48498100e-02, 6.21140338e-02, 2.09844708e-02,
          1.09119248e-02, 0., 0., 0., 0., 4.02901843e-02, 1.76269561e-02,
          8.39378859e-04, 0., 0., 0., 0., 0., 8.39378859e-04,
          8.39378871e-03, 0., 0., 0., 0., 0., 0., 0., 0., 0., 0., 0., 0.,
          0., 0., 0., 0., 0., 0., 0., 0., 0., 0., 0., 0., 0., 0., 0., 0.,
          0., 0., 0., 0., 0., 0., 0., 0., 0., 0., 0., 0., 0., 0., 0., 0.,
          0., 3.35751544e-03, 6.21140338e-02, 4.19689417e-02,
          6.71503088e-03, 9.23316739e-03, 0., 0., 0., 8.39378859e-04,
          5.37202470e-02, 3.27357762e-02, 3.35751544e-03, 0., 0., 0., 0.,
          0., 8.39378859e-04, 2.93782596e-02, 0., 0., 0., 0., 0., 0., 0.,
          0., 0., 0., 0., 0., 0., 0., 0., 0., 0., 0., 0., 0., 0., 0., 0.,
          0., 0., 0., 0., 0., 0., 0., 0., 0., 0., 0., 0., 0., 0., 0., 0.,
          0., 0., 0., 0., 0., 0., 0., 0., 0., 0., 0., 0., 0., 0., 0., 0.,
          0., 0., 0., 0., 0., 0., 0., 0., 0., 0., 0., 0., 0., 0., 0., 0.,
          0., 0., 0., 0., 0., 0., 0., 0., 0., 0., 0., 0., 0., 0., 0., 0.,
          0., 0., 0., 0., 0., 0., 0., 0., 0., 0., 0., 0., 0., 0., 0., 0.,
          0., 0., 0., 0., 0., 0., 0., 0., 0., 0., 0., 0., 0., 0., 0., 0.,
          0., 0., 0., 0., 0., 0., 0., 0., 0., 0., 0., 0., 0., 0., 0., 0.,
          0., 0., 0., 0., 0., 0., 0., 0., 0., 0., 0., 0., 0., 0., 0., 0.,
          0., 0., 0., 0., 0., 0., 0., 0., 0., 0., 0., 0., 0., 0., 0., 0.,
          0., 0., 0. ]
      - [ 0., 0., 0., 2.11244207e-02, 1.02242202e-01, 5.83034046e-02,
          4.22488432e-03, 1.09846992e-02, 0., 0., 4.22488432e-03,
          4.56287488e-02, 1.92654729e-01, 6.75981492e-02, 2.53493059e-03,
          0., 0., 0., 5.06986119e-03, 7.18230307e-02, 1.52095839e-01,
          4.64737266e-02, 2.53493059e-03, 0., 0., 8.44976865e-04,
          3.37990746e-03, 3.37990746e-03, 6.92881048e-02, 4.05588895e-02,
          2.53493059e-02, 0., 0., 0., 1.68995373e-03, 2.53493059e-03,
          3.46440524e-02, 2.70392597e-02, 2.95741893e-02, 0., 0., 0.,
          8.44976865e-04, 0., 0., 1.35196298e-02, 1.09846992e-02, 0., 0.,
          0., 0., 0., 0., 0., 0., 0., 0., 0., 0., 0., 0., 0., 0., 0., 0.,
          0., 0., 1.68995373e-03, 7.60479178e-03, 1.35196298e-02,
          1.68995373e-03, 2.53493059e-03, 0., 0., 1.68995373e-03,
          1.68995373e-03, 2.53493059e-03, 0., 0., 0., 0., 0., 0.,
          1.68995373e-03, 0., 0., 0., 0., 0., 0., 0., 0., 0., 0., 0., 0.,
          0., 0., 0., 0., 0., 0., 0., 0., 0., 0., 0., 0., 0., 0., 0., 0.,
          0., 0., 0., 0., 0., 0., 0., 0., 0., 0., 0., 0., 0., 0., 0., 0.,
          0., 0., 0., 4.22488432e-03, 2.53493059e-02, 0., 8.44976865e-04,
          1.68995373e-03, 0., 0., 0., 0., 8.44976865e-04, 3.37990746e-03,
          0., 0., 0., 0., 0., 0., 0., 0., 0., 0., 0., 0., 0., 0., 0., 0.,
          0., 0., 0., 0., 0., 0., 0., 0., 0., 0., 0., 0., 0., 0., 0., 0.,
          0., 0., 0., 0., 0., 0., 0., 0., 0., 0., 0., 0., 0., 0., 0., 0.,
          0., 0., 0., 0., 0., 2.11244207e-02, 4.05588895e-01,
          7.35129863e-02, 8.44976865e-04, 1.09846992e-02, 0., 0., 0., 0.,
          1.44491047e-01, 2.69547611e-01, 1.77445132e-02, 0., 0., 0., 0.,
          0., 3.37990746e-03, 1.68995373e-02, 2.53493059e-03, 0., 0., 0.,
          0., 0., 0., 0., 0., 0., 0., 0., 0., 0., 0., 0., 0., 0., 0., 0.,
          0., 0., 0., 0., 0., 0., 0., 0., 0., 0., 0., 0., 0., 0., 0., 0.,
          0., 0., 0., 0., 0., 0., 0., 0., 0., 3.54890265e-02,
          4.46992755e-01, 2.87292134e-02, 5.06986119e-03, 0., 0., 0., 0.,
          2.53493059e-02, 1.86739892e-01, 3.88689339e-02, 0., 0., 0., 0.,
          0., 0., 0., 8.44976865e-04, 1.68995373e-03, 0., 0., 0., 0., 0.,
          0., 0., 0., 0., 0., 0., 0., 0., 0., 0., 0., 0., 0., 0., 0., 0.,
          0., 0., 0., 0., 0., 0., 0., 0., 0., 0., 0., 0., 0., 0., 0., 0.,
          0., 0., 0., 0., 0., 0., 0., 5.91483805e-03, 2.13779151e-01,
          3.04191671e-02, 4.22488432e-03, 4.22488432e-03, 0., 0.,
          8.44976865e-04, 6.84431270e-02, 5.29800475e-01, 1.76600158e-01,
          0., 0., 0., 1.09846992e-02, 1.68995373e-03, 4.30938192e-02,
          1.76600158e-01, 1.01397224e-02, 0., 0., 0., 1.68995373e-03, 0.,
          0., 3.37990746e-03, 0., 0., 0., 0., 0., 0., 0., 0., 0., 0., 0.,
          0., 0., 0., 0., 0., 0., 0., 0., 0., 0., 0., 0., 0., 0., 0., 0.,
          0., 0., 0., 0., 0., 0., 0., 0., 0., 0., 0., 0., 0., 0., 0., 0.,
          0., 0., 0., 0., 0., 0., 0., 0., 0., 0., 0., 0., 0., 0., 0., 0.,
          0., 0., 0., 0., 0., 0., 0., 0., 0., 0., 0., 0., 0., 0., 0., 0.,
          0., 0., 0., 0., 0., 0., 0., 0., 0., 0., 0., 0., 0., 0., 0., 0.,
          0., 0., 0., 0., 0., 0., 0., 0., 0., 0., 0., 0., 0., 0., 0., 0.,
          0., 0., 0., 0., 0., 0., 0., 0., 0., 0., 0., 0., 0., 0., 0., 0.,
          0., 0., 0., 0., 0., 0., 0., 0., 0., 0., 0., 0., 0., 0., 0., 0.,
          0., 0., 0., 0., 0., 0., 0., 0., 0., 0., 0., 0., 0., 0., 0., 0.,
          0., 0., 0., 0., 0., 0., 0., 0. ]
      - [ 0., 0., 6.60734018e-04, 1.98220205e-03, 1.05717443e-02,
          1.71790849e-02, 2.31256913e-02, 1.12985522e-01, 0., 0., 0.,
          4.62513836e-03, 1.85005534e-02, 1.57254696e-01, 2.64293611e-01,
          2.64293607e-02, 0., 0., 6.60734018e-04, 9.25027672e-03,
          4.22869772e-02, 3.97761881e-01, 6.86502695e-01, 2.37864256e-02,
          0., 0., 0., 5.28587215e-03, 4.36084457e-02, 4.22209054e-01,
          2.12095633e-01, 1.51968831e-02, 0., 0., 0., 6.60734018e-04,
          1.05717443e-02, 9.11813006e-02, 5.74838631e-02, 7.92880822e-03,
          0., 0., 0., 0., 0., 1.05717443e-02, 2.11434886e-02,
          2.64293607e-03, 0., 0., 0., 0., 0., 0., 0., 0., 0., 0., 0., 0.,
          0., 0., 0., 0., 0., 0., 0., 6.60734018e-04, 1.32146804e-03,
          5.94660640e-03, 1.12324785e-02, 4.75728512e-02, 0., 0., 0., 0.,
          1.32146804e-03, 6.60734018e-04, 9.91101097e-03, 5.94660640e-03,
          0., 0., 0., 0., 0., 0., 7.26807443e-03, 0., 0., 0., 0., 0., 0.,
          0., 0., 0., 0., 0., 0., 0., 0., 0., 0., 0., 0., 0., 0., 0., 0.,
          0., 0., 0., 0., 0., 0., 0., 0., 0., 0., 0., 0., 0., 0., 0., 0.,
          0., 0., 0., 0., 0., 6.60734018e-04, 6.60734018e-04,
          3.30367009e-03, 8.58954247e-03, 1.25539470e-02, 5.21979891e-02,
          0., 0., 0., 0., 1.32146804e-03, 2.64293607e-03, 0.,
          1.32146804e-02, 0., 0., 0., 0., 0., 0., 0., 0., 0., 0., 0., 0.,
          0., 0., 0., 0., 0., 0., 0., 0., 0., 0., 0., 0., 0., 0., 0., 0.,
          0., 0., 0., 0., 0., 0., 0., 0., 0., 0., 0., 0., 0., 0., 0., 0.,
          0., 0., 0., 0., 0., 0., 0., 0., 3.30367009e-03, 1.18932128e-02,
          1.65183507e-02, 1.38754146e-02, 0., 0., 0., 6.60734018e-04,
          2.64293607e-03, 3.96440411e-03, 5.28587215e-03, 9.25027672e-03,
          0., 0., 0., 0., 0., 0., 6.60734018e-04, 0., 0., 0., 0., 0., 0.,
          0., 0., 0., 0., 0., 0., 0., 0., 0., 0., 0., 0., 0., 0., 0., 0.,
          0., 0., 0., 0., 0., 0., 0., 0., 0., 0., 0., 0., 0., 0., 0., 0.,
          0., 0., 0., 0., 0., 0., 6.60734018e-04, 4.62513836e-03,
          5.28587215e-03, 1.98220205e-03, 1.05717443e-02, 0., 0., 0., 0.,
          1.98220205e-03, 0., 0., 0., 0., 0., 0., 0., 0., 0., 0., 0., 0.,
          0., 0., 0., 0., 0., 0., 0., 0., 0., 0., 0., 0., 0., 0., 0., 0.,
          0., 0., 0., 0., 0., 0., 0., 0., 0., 0., 0., 0., 0., 0., 0., 0.,
          0., 0., 0., 0., 0., 0., 0., 0., 0., 0., 1.98220205e-03,
          5.28587215e-03, 1.18932128e-02, 9.91101097e-03, 2.11434886e-02,
          0., 0., 0., 4.62513836e-03, 9.25027672e-03, 5.88053279e-02,
          8.32524896e-02, 3.30367009e-03, 0., 0., 0., 1.32146804e-03,
          1.18932128e-02, 3.56796384e-02, 3.96440439e-02, 6.60734018e-04,
          0., 0., 0., 0., 6.60734018e-04, 5.94660640e-03, 0., 0., 0., 0.,
          0., 0., 0., 0., 0., 0., 0., 0., 0., 0., 0., 0., 0., 0., 0., 0.,
          0., 0., 0., 0., 0., 0., 0., 0., 0., 0., 0., 0., 0., 0., 0., 0.,
          0., 0., 0., 0., 0., 0., 0., 0., 0., 0., 0., 0., 0., 0., 0., 0.,
          0., 0., 0., 0., 0., 0., 0., 0., 0., 0., 0., 0., 0., 0., 0., 0.,
          0., 0., 0., 0., 0., 0., 0., 0., 0., 0., 0., 0., 0., 0., 0., 0.,
          0., 0., 0., 0., 0., 0., 0., 0., 0., 0., 0., 0., 0., 0., 0., 0.,
          0., 0., 0., 0., 0., 0., 0., 0., 0., 0., 0., 0., 0., 0., 0., 0.,
          0., 0., 0., 0., 0., 0., 0., 0., 0., 0., 0., 0., 0., 0., 0., 0.,
          0., 0., 0., 0., 0., 0., 0., 0., 0., 0., 0., 0., 0., 0., 0., 0.,
          0., 0., 0., 0., 0., 0., 0., 0., 0., 0., 0., 0., 0., 0. ]
      - [ 0., 0., 0., 1.37045188e-02, 4.11135554e-02, 8.94824415e-02,
          2.01537032e-02, 3.06336284e-02, 0., 0., 0., 3.62766646e-02,
          1.46718964e-01, 1.08023852e-01, 1.77352596e-02, 8.06148164e-04,
          0., 0., 8.06148164e-04, 4.11135554e-02, 1.29789844e-01,
          4.27258499e-02, 2.90213339e-02, 0., 0., 0., 0., 5.64303715e-03,
          6.52979985e-02, 1.53168142e-02, 1.77352596e-02, 0., 0., 0., 0.,
          0., 2.41844449e-03, 1.61229633e-03, 5.64303715e-03,
          7.25533348e-03, 0., 0., 0., 0., 0., 0., 0., 0., 0., 0., 0., 0.,
          0., 0., 0., 0., 0., 0., 0., 0., 0., 0., 0., 0., 0., 0., 0.,
          2.41844449e-03, 3.22459266e-03, 8.06148164e-03, 6.44918531e-03,
          1.20922225e-02, 0., 0., 0., 8.06148164e-04, 3.22459266e-03,
          2.41844449e-03, 1.61229633e-03, 0., 0., 0., 0., 0., 0., 0., 0.,
          0., 0., 0., 0., 0., 0., 0., 0., 0., 0., 0., 0., 0., 0., 0., 0.,
          0., 0., 0., 0., 0., 0., 0., 0., 0., 0., 0., 0., 0., 0., 0., 0.,
          0., 0., 0., 0., 0., 0., 0., 0., 0., 0., 0., 0., 4.03074082e-03,
          8.06148164e-03, 8.06148164e-03, 7.25533348e-03, 8.06148164e-04,
          0., 0., 0., 0., 0., 8.06148164e-04, 0., 0., 0., 0., 0., 0., 0.,
          0., 0., 0., 0., 0., 0., 0., 0., 0., 0., 0., 0., 0., 0., 0., 0.,
          0., 0., 0., 0., 0., 0., 0., 0., 0., 0., 0., 0., 0., 0., 0., 0.,
          0., 0., 0., 0., 0., 0., 0., 0., 0., 0., 0., 0., 0., 0.,
          6.44918531e-03, 1.20922223e-01, 1.84607923e-01, 2.41844449e-03,
          0., 0., 0., 0., 0., 1.55586585e-01, 6.22346342e-01,
          9.67377797e-03, 0., 0., 0., 0., 0., 2.41844449e-03,
          7.90025145e-02, 0., 0., 0., 0., 0., 0., 0., 0., 0., 0., 0., 0.,
          0., 0., 0., 0., 0., 0., 0., 0., 0., 0., 0., 0., 0., 0., 0., 0.,
          0., 0., 0., 0., 0., 0., 0., 0., 0., 0., 0., 0., 0., 0., 0., 0.,
          0., 2.09598523e-02, 3.45031410e-01, 8.38394091e-02, 0., 0., 0.,
          0., 0., 3.70828137e-02, 3.58735919e-01, 1.65260375e-01, 0., 0.,
          0., 0., 0., 0., 4.03074082e-03, 0., 0., 0., 0., 0., 0., 0., 0.,
          0., 0., 0., 0., 0., 0., 0., 0., 0., 0., 0., 0., 0., 0., 0., 0.,
          0., 0., 0., 0., 0., 0., 0., 0., 0., 0., 0., 0., 0., 0., 0., 0.,
          0., 0., 0., 0., 0., 0., 1.45106670e-02, 1.33820593e-01,
          1.37045188e-02, 1.61229633e-03, 1.61229633e-03, 0., 0., 0.,
          6.52979985e-02, 3.32939178e-01, 1.13666885e-01, 0., 0., 0., 0.,
          0., 4.03074082e-03, 1.74127996e-01, 5.64303715e-03, 0., 0., 0.,
          0., 0., 0., 8.86762980e-03, 0., 0., 0., 0., 0., 0., 0., 0., 0.,
          0., 0., 0., 0., 0., 0., 0., 0., 0., 0., 0., 0., 0., 0., 0., 0.,
          0., 0., 0., 0., 0., 0., 0., 0., 0., 0., 0., 0., 0., 0., 0., 0.,
          0., 0., 0., 0., 0., 0., 0., 0., 0., 0., 0., 0., 0., 0., 0., 0.,
          0., 0., 0., 0., 0., 0., 0., 0., 0., 0., 0., 0., 0., 0., 0., 0.,
          0., 0., 0., 0., 0., 0., 0., 0., 0., 0., 0., 0., 0., 0., 0., 0.,
          0., 0., 0., 0., 0., 0., 0., 0., 0., 0., 0., 0., 0., 0., 0., 0.,
          0., 0., 0., 0., 0., 0., 0., 0., 0., 0., 0., 0., 0., 0., 0., 0.,
          0., 0., 0., 0., 0., 0., 0., 0., 0., 0., 0., 0., 0., 0., 0., 0.,
          0., 0., 0., 0., 0., 0., 0., 0., 0., 0., 0., 0., 0., 0., 0., 0.,
          0., 0., 0., 0., 0., 0., 0., 0., 0., 0. ]
      - [ 0., 0., 0., 0., 2.00722646e-03, 6.69075502e-03, 5.35260420e-03,
          8.22962895e-02, 0., 0., 0., 0., 4.68352856e-03, 4.08136062e-02,
          5.82095683e-02, 5.55332676e-02, 0., 0., 0., 2.00722646e-03,
          5.35260420e-03, 7.89509118e-02, 2.18787700e-01, 7.02529252e-02,
          0., 0., 0., 3.34537751e-03, 2.34176423e-02, 1.21771745e-01,
          4.13488656e-01, 1.32476956e-01, 0., 0., 0., 6.69075525e-04,
          1.67268887e-02, 1.25786200e-01, 4.37575400e-01, 6.67068303e-01,
          0., 0., 0., 1.33815105e-03, 1.07052084e-02, 5.68714179e-02,
          2.12766007e-01, 1.23109892e-01, 0., 0., 0., 6.69075525e-04,
          4.68352856e-03, 8.02890584e-03, 4.48280610e-02, 1.27124349e-02,
          0., 0., 0., 3.34537751e-03, 0., 0., 0., 0., 0., 0., 0., 0.,
          1.33815105e-03, 4.68352856e-03, 5.35260420e-03, 2.60939449e-02,
          0., 0., 0., 0., 6.69075525e-04, 1.33815105e-03, 6.02167984e-03,
          1.67268887e-02, 0., 0., 0., 0., 6.69075525e-04, 0.,
          4.01445292e-03, 1.33815105e-03, 0., 0., 0., 0., 0., 0., 0., 0.,
          0., 0., 0., 0., 0., 0., 0., 0., 0., 0., 0., 0., 0., 0., 0., 0.,
          0., 0., 0., 0., 0., 0., 0., 0., 0., 0., 0., 0., 0., 0., 0., 0.,
          0., 0., 0., 0., 6.69075525e-04, 2.00722646e-03, 2.00722646e-03,
          2.14104168e-02, 0., 0., 0., 0., 0., 1.33815105e-03,
          3.34537751e-03, 3.34537751e-03, 0., 0., 0., 0., 0., 0., 0., 0.,
          0., 0., 0., 0., 0., 0., 0., 0., 0., 0., 0., 0., 0., 0., 0., 0.,
          0., 0., 0., 0., 0., 0., 0., 0., 0., 0., 0., 0., 0., 0., 0., 0.,
          0., 0., 0., 0., 0., 0., 0., 0., 0., 0., 0., 0., 6.69075525e-04,
          5.35260420e-03, 6.02167984e-03, 1.07052084e-02, 0., 0., 0., 0.,
          0., 6.02167984e-03, 1.87341142e-02, 1.33815105e-03, 0., 0., 0.,
          0., 0., 0., 0., 0., 0., 0., 0., 0., 0., 0., 0., 0., 0., 0., 0.,
          0., 0., 0., 0., 0., 0., 0., 0., 0., 0., 0., 0., 0., 0., 0., 0.,
          0., 0., 0., 0., 0., 0., 0., 0., 0., 0., 0., 0., 0., 0., 0., 0.,
          0., 2.67630210e-03, 1.87341142e-02, 0., 5.35260420e-03, 0., 0.,
          0., 6.69075525e-04, 6.69075525e-04, 2.00722646e-03,
          2.00722646e-03, 0., 0., 0., 0., 0., 0., 0., 0., 0., 0., 0., 0.,
          0., 0., 0., 0., 0., 0., 0., 0., 0., 0., 0., 0., 0., 0., 0., 0.,
          0., 0., 0., 0., 0., 0., 0., 0., 0., 0., 0., 0., 0., 0., 0., 0.,
          0., 0., 0., 0., 0., 0., 0., 0., 0., 3.34537751e-03,
          4.68352856e-03, 1.33815105e-03, 1.13742836e-02, 0., 0., 0.,
          6.69075525e-04, 3.34537751e-03, 1.33815100e-02, 1.67268887e-02,
          0., 0., 0., 6.69075525e-04, 2.00722646e-03, 2.67630210e-03,
          7.35983066e-03, 6.69075502e-03, 0., 0., 0., 0., 0., 0.,
          1.33815105e-03, 1.13742836e-02, 0., 0., 0., 0., 0., 0., 0.,
          2.67630210e-03, 0., 0., 0., 0., 0., 0., 0., 0., 0., 0., 0., 0.,
          0., 0., 0., 0., 0., 0., 0., 0., 0., 0., 0., 0., 0., 0., 0., 0.,
          0., 0., 0., 0., 0., 0., 0., 0., 0., 0., 0., 0., 0., 0., 0., 0.,
          0., 0., 0., 0., 0., 0., 0., 0., 0., 0., 0., 0., 0., 0., 0., 0.,
          0., 0., 0., 0., 0., 0., 0., 0., 0., 0., 0., 0., 0., 0., 0., 0.,
          0., 0., 0., 0., 0., 0., 0., 0., 0., 0., 0., 0., 0., 0., 0., 0.,
          0., 0., 0., 0., 0., 0., 0., 0., 0., 0., 0., 0., 0., 0., 0., 0.,
          0., 0., 0., 0., 0., 0., 0., 0., 0., 0., 0., 0., 0., 0., 0., 0.,
          0., 0., 0., 0., 0., 0., 0., 0., 0., 0., 0., 0., 0., 0., 0., 0.,
          0., 0., 0., 0., 0., 0., 0., 0., 0., 0., 0., 0., 0. ]
      - [ 0., 0., 0., 9.83811915e-04, 1.47571799e-03, 3.44334194e-03,
          3.44334194e-03, 4.37796339e-02, 0., 0., 0., 0., 3.93524766e-03,
          5.90287196e-03, 9.83811915e-03, 4.42715399e-02, 0., 0., 0.,
          1.47571799e-03, 5.90287196e-03, 1.13138380e-02, 3.49253230e-02,
          4.62391637e-02, 0., 0., 0., 1.47571799e-03, 1.03300251e-02,
          2.11519562e-02, 4.23039123e-02, 3.24657932e-02, 0., 0., 0., 0.,
          4.42715362e-03, 3.39415111e-02, 9.54297632e-02, 3.73848528e-02,
          0., 0., 0., 0., 6.39477791e-03, 3.83686647e-02, 6.93095505e-01,
          5.59789002e-01, 0., 0., 0., 1.47571799e-03, 2.95143598e-03,
          4.82067876e-02, 4.14184839e-01, 8.90349820e-02, 0., 0.,
          4.91905957e-04, 9.83811915e-04, 1.96762383e-03, 1.03300251e-02,
          9.34621319e-03, 0., 0., 0., 0., 4.91905957e-04, 9.83811915e-04,
          9.83811915e-04, 1.47571799e-03, 2.45952979e-03, 0., 0., 0., 0.,
          4.91905957e-04, 0., 1.96762383e-03, 1.96762383e-03, 0., 0., 0.,
          0., 0., 4.91905957e-04, 3.44334194e-03, 0., 0., 0., 0., 0., 0.,
          0., 0., 0., 0., 0., 0., 0., 0., 0., 0., 0., 0., 0., 0., 0., 0.,
          0., 0., 0., 0., 0., 0., 0., 0., 0., 0., 0., 0., 0., 0., 0., 0.,
          0., 0., 0., 0., 0., 0., 0., 9.83811915e-04, 4.91905957e-04, 0.,
          2.45952979e-03, 0., 0., 0., 0., 0., 0., 0., 0., 0., 0., 0., 0.,
          0., 0., 0., 0., 0., 0., 0., 0., 0., 0., 0., 0., 0., 0., 0., 0.,
          0., 0., 0., 0., 0., 0., 0., 0., 0., 0., 0., 0., 0., 0., 0., 0.,
          0., 0., 0., 0., 0., 0., 0., 0., 0., 0., 0., 0., 0., 0., 0., 0.,
          4.91905957e-04, 4.91905957e-04, 0., 0., 0., 0., 0., 0., 0., 0.,
          0., 0., 0., 0., 0., 0., 0., 0., 0., 0., 0., 0., 0., 0., 0., 0.,
          0., 0., 0., 0., 0., 0., 0., 0., 0., 0., 0., 0., 0., 0., 0., 0.,
          0., 0., 0., 0., 0., 0., 0., 0., 0., 0., 0., 0., 0., 0., 0., 0.,
          0., 0., 0., 0., 0., 1.47571799e-03, 4.91905957e-04,
          4.91905957e-04, 0., 9.83811915e-04, 0., 0., 0., 0., 0., 0., 0.,
          0., 0., 0., 0., 0., 0., 0., 0., 0., 0., 0., 0., 0., 0., 0., 0.,
          0., 0., 0., 0., 0., 0., 0., 0., 0., 0., 0., 0., 0., 0., 0., 0.,
          0., 0., 0., 0., 0., 0., 0., 0., 0., 0., 0., 0., 0., 0., 0., 0.,
          0., 0., 0., 0., 0., 0., 0., 0., 4.91905957e-03, 0., 0., 0.,
          9.83811915e-04, 1.47571799e-03, 0., 0., 0., 0., 0., 0.,
          4.91905957e-04, 2.45952979e-03, 1.47571799e-03, 4.91905957e-04,
          4.91905957e-04, 0., 0., 0., 0., 0., 1.96762383e-03, 0., 0., 0.,
          0., 0., 0., 0., 0., 0., 0., 0., 0., 0., 0., 0., 0., 0., 0., 0.,
          0., 0., 0., 0., 0., 0., 0., 0., 0., 0., 0., 0., 0., 0., 0., 0.,
          0., 0., 0., 0., 0., 0., 0., 0., 0., 0., 0., 0., 0., 0., 0., 0.,
          0., 0., 0., 0., 0., 0., 0., 0., 0., 0., 0., 0., 0., 0., 0., 0.,
          0., 0., 0., 0., 0., 0., 0., 0., 0., 0., 0., 0., 0., 0., 0., 0.,
          0., 0., 0., 0., 0., 0., 0., 0., 0., 0., 0., 0., 0., 0., 0., 0.,
          0., 0., 0., 0., 0., 0., 0., 0., 0., 0., 0., 0., 0., 0., 0., 0.,
          0., 0., 0., 0., 0., 0., 0., 0., 0., 0., 0., 0., 0., 0., 0., 0.,
          0., 0., 0., 0., 0., 0., 0., 0., 0., 0., 0., 0., 0., 0., 0., 0.,
          0., 0., 0., 0., 0., 0., 0., 0., 0., 0., 0., 0., 0., 0., 0. ]
      - [ 0., 0., 8.92242067e-04, 4.90733124e-02, 2.05215678e-01,
          2.94439886e-02, 3.03362291e-02, 4.46121022e-02, 0., 0.,
          8.92242067e-04, 6.24569431e-02, 3.32806289e-01, 1.47219941e-01,
          1.42758731e-02, 0., 0., 0., 0., 4.37198617e-02, 2.24844992e-01,
          1.03500076e-01, 2.14138087e-02, 0., 0., 0., 0., 2.94439886e-02,
          1.10638015e-01, 5.44267669e-02, 2.14138087e-02, 0., 0., 0., 0.,
          8.92242067e-04, 4.01508920e-02, 2.67672613e-02, 5.35345217e-03,
          0., 0., 0., 0., 0., 0., 8.92242067e-04, 0., 0., 0., 0., 0., 0.,
          0., 0., 0., 0., 0., 0., 0., 0., 0., 0., 0., 0., 0., 0.,
          8.92242067e-04, 1.07069043e-02, 3.65819260e-02, 1.07069043e-02,
          2.67672613e-02, 1.51681146e-02, 0., 0., 0., 8.92242067e-04, 0.,
          1.78448413e-03, 1.78448413e-03, 0., 0., 0., 0., 0., 0., 0., 0.,
          0., 0., 0., 0., 0., 0., 0., 0., 0., 0., 0., 0., 0., 0., 0., 0.,
          0., 0., 0., 0., 0., 0., 0., 0., 0., 0., 0., 0., 0., 0., 0., 0.,
          0., 0., 0., 0., 0., 0., 0., 0., 0., 0., 0., 0., 8.03017896e-03,
          3.56896818e-02, 2.31982935e-02, 8.92242044e-02, 2.14138087e-02,
          0., 0., 0., 2.67672609e-03, 3.56896827e-03, 1.24913892e-02,
          1.24913892e-02, 0., 0., 0., 0., 0., 0., 0., 0., 0., 0., 0., 0.,
          0., 0., 0., 0., 0., 0., 0., 0., 0., 0., 0., 0., 0., 0., 0., 0.,
          0., 0., 0., 0., 0., 0., 0., 0., 0., 0., 0., 0., 0., 0., 0., 0.,
          0., 0., 0., 0., 0., 0., 0., 0., 1.96293257e-02, 1.65064782e-01,
          7.31638521e-02, 3.47974412e-02, 2.05215681e-02, 0., 0., 0.,
          2.67672609e-03, 2.58750189e-02, 4.55043465e-02, 5.35345217e-03,
          0., 0., 0., 0., 0., 0., 0., 0., 0., 0., 0., 0., 0., 0., 0., 0.,
          0., 0., 0., 0., 0., 0., 0., 0., 0., 0., 0., 0., 0., 0., 0., 0.,
          0., 0., 0., 0., 0., 0., 0., 0., 0., 0., 0., 0., 0., 0., 0., 0.,
          0., 0., 0., 0., 6.78103939e-02, 4.22030479e-01, 5.88879772e-02,
          9.81466286e-03, 3.03362291e-02, 0., 0., 1.78448413e-03,
          5.97802177e-02, 8.38707536e-02, 3.12284715e-02, 3.56896827e-03,
          0., 0., 0., 0., 4.46121022e-03, 4.46121022e-03, 0., 0., 0., 0.,
          0., 0., 0., 0., 0., 0., 0., 0., 0., 0., 0., 0., 0., 0., 0., 0.,
          0., 0., 0., 0., 0., 0., 0., 0., 0., 0., 0., 0., 0., 0., 0., 0.,
          0., 0., 0., 0., 0., 0., 0., 0., 0., 0., 4.99655567e-02,
          3.89909774e-01, 9.81466286e-03, 5.35345217e-03, 1.07069043e-02,
          0., 0., 2.67672609e-03, 8.03017840e-02, 5.55866778e-01,
          8.83319601e-02, 1.78448413e-03, 0., 0., 0., 0., 1.60603579e-02,
          7.04871193e-02, 4.46121022e-03, 0., 0., 0., 0., 0., 0.,
          8.92242067e-04, 0., 0., 0., 0., 0., 0., 0., 0., 0., 0., 0., 0.,
          0., 0., 0., 0., 0., 0., 0., 0., 0., 0., 0., 0., 0., 0., 0., 0.,
          0., 0., 0., 0., 0., 0., 0., 0., 0., 0., 0., 0., 0., 0., 0., 0.,
          0., 0., 0., 0., 0., 0., 0., 0., 0., 0., 0., 0., 0., 0., 0., 0.,
          0., 0., 0., 0., 0., 0., 0., 0., 0., 0., 0., 0., 0., 0., 0., 0.,
          0., 0., 0., 0., 0., 0., 0., 0., 0., 0., 0., 0., 0., 0., 0., 0.,
          0., 0., 0., 0., 0., 0., 0., 0., 0., 0., 0., 0., 0., 0., 0., 0.,
          0., 0., 0., 0., 0., 0., 0., 0., 0., 0., 0., 0., 0., 0., 0., 0.,
          0., 0., 0., 0., 0., 0., 0., 0., 0., 0., 0., 0., 0., 0., 0., 0.,
          0., 0., 0., 0., 0., 0., 0., 0., 0., 0., 0., 0., 0., 0., 0., 0.,
          0., 0., 0., 0., 0., 0., 0. ]
      - [ 0., 0., 0., 8.81875772e-03, 3.52750309e-02, 1.44879594e-02,
          9.44866892e-03, 1.25982251e-03, 0., 0., 0., 1.25982251e-03,
          5.03929034e-02, 3.71647663e-02, 2.07870714e-02, 1.25982251e-03,
          0., 0., 0., 0., 1.38580482e-02, 3.96844111e-02, 3.77946757e-02,
          1.19683146e-02, 0., 0., 0., 0., 6.29911257e-04, 1.63776930e-02,
          3.59049439e-02, 3.14955646e-03, 0., 0., 0., 0., 0.,
          6.92902412e-03, 6.29911292e-03, 1.44879594e-02, 0., 0., 0., 0.,
          0., 0., 2.51964503e-03, 1.25982258e-02, 0., 0., 0., 0., 0., 0.,
          0., 0., 0., 0., 0., 0., 0., 0., 0., 0., 0., 0., 0., 0.,
          1.13384034e-02, 1.19683146e-02, 2.64562741e-02, 2.51964503e-03,
          0., 0., 0., 0., 0., 3.14955646e-03, 1.51178706e-02,
          6.92902412e-03, 0., 0., 0., 0., 0., 1.25982251e-03,
          1.25982251e-03, 0., 0., 0., 0., 0., 0., 0., 0., 0., 0., 0., 0.,
          0., 0., 0., 0., 0., 0., 0., 0., 0., 0., 0., 0., 0., 0., 0., 0.,
          0., 0., 0., 0., 0., 0., 0., 0., 0., 0., 0., 0., 0., 0., 0., 0.,
          1.88973383e-03, 8.81875772e-03, 1.00785801e-02, 2.33067181e-02,
          3.84245887e-02, 0., 0., 0., 0., 4.40937886e-03, 2.51964517e-02,
          7.55893532e-03, 1.13384034e-02, 0., 0., 0., 0., 6.29911257e-04,
          0., 0., 0., 0., 0., 0., 0., 0., 0., 0., 0., 0., 0., 0., 0., 0.,
          0., 0., 0., 0., 0., 0., 0., 0., 0., 0., 0., 0., 0., 0., 0., 0.,
          0., 0., 0., 0., 0., 0., 0., 0., 0., 0., 0., 0., 0., 0.,
          3.21254767e-02, 1.03305452e-01, 7.99987316e-02, 1.88973378e-02,
          6.17313050e-02, 0., 0., 0., 1.44879594e-02, 1.79524720e-01,
          3.64088714e-01, 2.50074774e-01, 1.32281370e-02, 0., 0., 0., 0.,
          2.20468957e-02, 2.46925220e-01, 8.11955631e-01, 6.86603263e-02,
          0., 0., 0., 0., 0., 6.29911257e-04, 4.15741429e-02,
          1.57477818e-02, 0., 0., 0., 0., 0., 0., 0., 0., 0., 0., 0., 0.,
          0., 0., 0., 0., 0., 0., 0., 0., 0., 0., 0., 0., 0., 0., 0., 0.,
          0., 0., 0., 0., 0., 0., 0., 1.88973378e-02, 6.48808628e-02,
          2.07870714e-02, 6.29911257e-04, 3.77946766e-03, 0., 0., 0.,
          1.38580482e-02, 3.08656525e-02, 5.03929006e-03, 6.29911257e-04,
          0., 0., 0., 0., 0., 0., 0., 0., 0., 0., 0., 0., 0., 0., 0., 0.,
          0., 0., 0., 0., 0., 0., 0., 0., 0., 0., 0., 0., 0., 0., 0., 0.,
          0., 0., 0., 0., 0., 0., 0., 0., 0., 0., 0., 0., 0., 0., 0., 0.,
          0., 0., 0., 0., 8.18884652e-03, 2.33067181e-02, 8.18884652e-03,
          0., 6.29911257e-04, 0., 0., 0., 1.25982251e-03, 8.18884652e-03,
          2.51964503e-03, 0., 0., 0., 0., 0., 0., 0., 0., 0., 0., 0., 0.,
          0., 0., 0., 0., 0., 0., 0., 0., 0., 0., 0., 0., 0., 0., 0., 0.,
          0., 0., 0., 0., 0., 0., 0., 0., 0., 0., 0., 0., 0., 0., 0., 0.,
          0., 0., 0., 0., 0., 0., 0., 0., 0., 0., 0., 0., 0., 0., 0., 0.,
          0., 0., 0., 0., 0., 0., 0., 0., 0., 0., 0., 0., 0., 0., 0., 0.,
          0., 0., 0., 0., 0., 0., 0., 0., 0., 0., 0., 0., 0., 0., 0., 0.,
          0., 0., 0., 0., 0., 0., 0., 0., 0., 0., 0., 0., 0., 0., 0., 0.,
          0., 0., 0., 0., 0., 0., 0., 0., 0., 0., 0., 0., 0., 0., 0., 0.,
          0., 0., 0., 0., 0., 0., 0., 0., 0., 0., 0., 0., 0., 0., 0., 0.,
          0., 0., 0., 0., 0., 0., 0., 0., 0., 0., 0., 0., 0., 0., 0., 0.,
          0., 0., 0., 0., 0., 0., 0., 0., 0., 0., 0., 0., 0., 0., 0., 0.,
          0., 0., 0., 0., 0., 0. ]
      - [ 0., 0., 0., 4.00458788e-03, 1.35154843e-01, 2.09239706e-01,
          6.10699654e-02, 6.40734062e-02, 0., 0., 0., 1.50172040e-02,
          1.52174339e-01, 2.12243155e-01, 6.60756975e-02, 8.00917577e-03,
          0., 0., 0., 5.00573451e-03, 2.28261501e-01, 1.60183504e-01,
          5.60642295e-02, 1.10126166e-02, 0., 0., 0., 0., 9.01032239e-02,
          9.51089561e-02, 1.50172040e-02, 2.70309672e-02, 0., 0., 0., 0.,
          5.00573451e-03, 2.50286739e-02, 1.90217923e-02, 4.00458788e-03,
          0., 0., 0., 0., 0., 4.00458788e-03, 2.00229394e-03, 0., 0., 0.,
          0., 0., 0., 0., 0., 0., 0., 0., 0., 0., 0., 0., 0., 0., 0., 0.,
          0., 1.00114697e-03, 3.30378488e-02, 1.80206448e-02,
          3.80435847e-02, 2.50286739e-02, 0., 0., 0., 0., 7.00802868e-03,
          9.01032239e-03, 4.00458788e-03, 0., 0., 0., 0., 0., 0., 0., 0.,
          0., 0., 0., 0., 0., 0., 0., 0., 0., 0., 0., 0., 0., 0., 0., 0.,
          0., 0., 0., 0., 0., 0., 0., 0., 0., 0., 0., 0., 0., 0., 0., 0.,
          0., 0., 0., 0., 0., 0., 0., 0., 0., 0., 0., 0., 9.01032239e-03,
          6.80779889e-02, 2.90332623e-02, 1.70194972e-02, 3.00344080e-02,
          0., 0., 0., 0., 3.00344080e-03, 1.00114697e-03, 0., 0., 0., 0.,
          0., 0., 0., 0., 0., 0., 0., 0., 0., 0., 0., 0., 0., 0., 0., 0.,
          0., 0., 0., 0., 0., 0., 0., 0., 0., 0., 0., 0., 0., 0., 0., 0.,
          0., 0., 0., 0., 0., 0., 0., 0., 0., 0., 0., 0., 0., 0., 0., 0.,
          0., 1.00114690e-02, 2.85326868e-01, 2.19251186e-01,
          1.80206448e-02, 3.00344080e-02, 0., 0., 0., 3.00344080e-03,
          1.34153694e-01, 6.50745481e-02, 0., 0., 0., 0., 0., 0.,
          2.00229394e-03, 0., 0., 0., 0., 0., 0., 0., 0., 0., 0., 0., 0.,
          0., 0., 0., 0., 0., 0., 0., 0., 0., 0., 0., 0., 0., 0., 0., 0.,
          0., 0., 0., 0., 0., 0., 0., 0., 0., 0., 0., 0., 0., 0., 0., 0.,
          0., 0., 1.10126166e-02, 4.07466799e-01, 4.21482861e-01,
          1.20137632e-02, 2.20252331e-02, 0., 0., 0., 4.80550528e-02,
          1.58181220e-01, 7.10814297e-02, 0., 0., 0., 0., 0., 0.,
          3.00344080e-03, 0., 0., 0., 0., 0., 0., 0., 0., 0., 0., 0., 0.,
          0., 0., 0., 0., 0., 0., 0., 0., 0., 0., 0., 0., 0., 0., 0., 0.,
          0., 0., 0., 0., 0., 0., 0., 0., 0., 0., 0., 0., 0., 0., 0., 0.,
          0., 0., 1.00114690e-02, 1.87214479e-01, 2.75315404e-01,
          1.40160574e-02, 6.00688159e-03, 0., 0., 0., 4.40504663e-02,
          2.96339482e-01, 1.06121577e-01, 0., 0., 0., 0., 0.,
          4.00458788e-03, 6.70768470e-02, 4.00458788e-03, 0., 0., 0., 0.,
          0., 0., 4.00458788e-03, 0., 0., 0., 0., 0., 0., 0., 0., 0., 0.,
          0., 0., 0., 0., 0., 0., 0., 0., 0., 0., 0., 0., 0., 0., 0., 0.,
          0., 0., 0., 0., 0., 0., 0., 0., 0., 0., 0., 0., 0., 0., 0., 0.,
          0., 0., 0., 0., 0., 0., 0., 0., 0., 0., 0., 0., 0., 0., 0., 0.,
          0., 0., 0., 0., 0., 0., 0., 0., 0., 0., 0., 0., 0., 0., 0., 0.,
          0., 0., 0., 0., 0., 0., 0., 0., 0., 0., 0., 0., 0., 0., 0., 0.,
          0., 0., 0., 0., 0., 0., 0., 0., 0., 0., 0., 0., 0., 0., 0., 0.,
          0., 0., 0., 0., 0., 0., 0., 0., 0., 0., 0., 0., 0., 0., 0., 0.,
          0., 0., 0., 0., 0., 0., 0., 0., 0., 0., 0., 0., 0., 0., 0., 0.,
          0., 0., 0., 0., 0., 0., 0., 0., 0., 0., 0., 0., 0., 0., 0., 0.,
          0., 0., 0., 0., 0., 0., 0., 0., 0. ]
      - [ 0., 0., 0., 0., 0., 2.70483363e-03, 6.08587591e-03,
          3.65152545e-02, 0., 0., 0., 2.70483363e-03, 2.70483363e-03,
          3.06322426e-01, 1.67023480e-01, 3.78676727e-02, 0., 0.,
          1.35241682e-03, 1.08193345e-02, 1.96100436e-02, 5.55843353e-01,
          5.65310240e-01, 4.86870073e-02, 0., 0., 2.02862523e-03,
          5.40966727e-03, 3.17817964e-02, 3.06998610e-01, 2.63045073e-01,
          6.08587600e-02, 0., 0., 1.35241682e-03, 4.73345909e-03,
          4.05725054e-02, 2.08948404e-01, 1.06840931e-01, 8.79070908e-03,
          0., 0., 0., 8.79070908e-03, 6.76208409e-03, 4.86870073e-02,
          3.85438800e-02, 1.35241682e-03, 0., 0., 0., 1.35241682e-03, 0.,
          2.70483363e-03, 6.08587591e-03, 0., 0., 0., 0., 0., 0., 0., 0.,
          0., 0., 0., 0., 0., 2.02862523e-03, 3.38104204e-03, 0.,
          4.73345909e-03, 0., 0., 0., 0., 2.02862523e-03, 2.70483363e-03,
          6.08587591e-03, 0., 0., 0., 0., 6.76208409e-04, 6.76208409e-04,
          6.76208409e-04, 0., 0., 0., 0., 0., 0., 0., 0., 0., 0., 0., 0.,
          0., 0., 0., 0., 0., 0., 0., 0., 0., 0., 0., 0., 0., 0., 0., 0.,
          0., 0., 0., 0., 0., 0., 0., 0., 0., 0., 0., 0., 0., 0., 0., 0.,
          0., 0., 1.35241682e-03, 2.02862523e-03, 4.05725045e-03,
          4.59821746e-02, 0., 0., 0., 0., 0., 1.35241682e-03,
          1.35241682e-03, 6.76208409e-03, 0., 0., 0., 0., 0., 0.,
          6.76208409e-04, 1.35241682e-03, 0., 0., 0., 0., 0., 0., 0., 0.,
          0., 0., 0., 0., 0., 0., 0., 0., 0., 0., 0., 0., 0., 0., 0., 0.,
          0., 0., 0., 0., 0., 0., 0., 0., 0., 0., 0., 0., 0., 0., 0., 0.,
          0., 0., 0., 0., 0., 4.05725045e-03, 6.76208409e-03,
          2.36672945e-02, 0., 0., 0., 0., 6.76208409e-04, 8.79070908e-03,
          4.73345909e-03, 2.70483363e-03, 0., 0., 0., 0., 0.,
          1.35241682e-03, 6.76208409e-04, 0., 0., 0., 0., 0., 0., 0., 0.,
          0., 0., 0., 0., 0., 0., 0., 0., 0., 0., 0., 0., 0., 0., 0., 0.,
          0., 0., 0., 0., 0., 0., 0., 0., 0., 0., 0., 0., 0., 0., 0., 0.,
          0., 0., 0., 0., 0., 1.35241682e-03, 6.08587591e-03,
          1.35241682e-03, 1.14955436e-02, 0., 0., 0., 0., 2.70483363e-03,
          0., 6.76208409e-04, 0., 0., 0., 0., 0., 0., 0., 0., 0., 0., 0.,
          0., 0., 0., 0., 0., 0., 0., 0., 0., 0., 0., 0., 0., 0., 0., 0.,
          0., 0., 0., 0., 0., 0., 0., 0., 0., 0., 0., 0., 0., 0., 0., 0.,
          0., 0., 0., 0., 0., 0., 0., 0., 0., 0., 0., 1.48765855e-02,
          2.70483363e-03, 1.08193345e-02, 0., 0., 0., 6.76208409e-04,
          3.38104204e-03, 8.92595127e-02, 3.58390473e-02, 2.02862523e-03,
          0., 0., 0., 0., 3.38104204e-03, 4.26011309e-02, 1.89338364e-02,
          0., 0., 0., 0., 0., 1.35241682e-03, 1.35241682e-03,
          2.02862523e-03, 0., 0., 0., 0., 0., 0., 0., 0., 0., 0., 0., 0.,
          0., 0., 0., 0., 0., 0., 0., 0., 0., 0., 0., 0., 0., 0., 0., 0.,
          0., 0., 0., 0., 0., 0., 0., 0., 0., 0., 0., 0., 0., 0., 0., 0.,
          0., 0., 0., 0., 0., 0., 0., 0., 0., 0., 0., 0., 0., 0., 0., 0.,
          0., 0., 0., 0., 0., 0., 0., 0., 0., 0., 0., 0., 0., 0., 0., 0.,
          0., 0., 0., 0., 0., 0., 0., 0., 0., 0., 0., 0., 0., 0., 0., 0.,
          0., 0., 0., 0., 0., 0., 0., 0., 0., 0., 0., 0., 0., 0., 0., 0.,
          0., 0., 0., 0., 0., 0., 0., 0., 0., 0., 0., 0., 0., 0., 0., 0.,
          0., 0., 0., 0., 0., 0., 0., 0., 0., 0., 0., 0., 0., 0., 0., 0.,
          0., 0., 0., 0., 0., 0., 0., 0., 0., 0., 0., 0., 0., 0., 0., 0.,
          0., 0., 0., 0., 0. ]
      - [ 0., 0., 0., 2.45935004e-03, 6.31233156e-02, 1.02472916e-01,
          7.21409321e-02, 6.80420175e-02, 0., 0., 0., 9.01761651e-03,
          7.70596340e-02, 3.68082732e-01, 6.42710149e-01, 1.63956676e-02,
          0., 0., 0., 1.63956673e-03, 1.27066419e-01, 3.87757540e-01,
          3.13157231e-01, 3.36111188e-02, 0., 0., 0., 8.19783367e-04,
          9.01761651e-03, 1.66416019e-01, 1.18048802e-01, 8.19783378e-03,
          0., 0., 0., 0., 8.19783367e-04, 1.55758839e-02, 1.47561003e-02,
          4.91870008e-03, 0., 0., 0., 0., 0., 0., 0., 0., 0., 0., 0., 0.,
          0., 0., 0., 0., 0., 0., 0., 0., 0., 0., 0., 0., 0., 0., 0., 0.,
          2.62330677e-02, 2.29539331e-02, 6.96815848e-02, 4.01693843e-02,
          0., 0., 0., 0., 3.27913347e-03, 8.19783378e-03, 2.21341513e-02,
          1.88550167e-02, 0., 0., 0., 0., 0., 1.63956673e-03, 0., 0., 0.,
          0., 0., 0., 0., 0., 0., 0., 0., 0., 0., 0., 0., 0., 0., 0., 0.,
          0., 0., 0., 0., 0., 0., 0., 0., 0., 0., 0., 0., 0., 0., 0., 0.,
          0., 0., 0., 0., 0., 0., 0., 0., 0., 0., 0., 1.06571838e-02,
          2.04945840e-02, 1.14769666e-02, 4.42683026e-02, 0., 0., 0., 0.,
          0., 0., 0., 0., 0., 0., 0., 0., 0., 0., 0., 0., 0., 0., 0., 0.,
          0., 0., 0., 0., 0., 0., 0., 0., 0., 0., 0., 0., 0., 0., 0., 0.,
          0., 0., 0., 0., 0., 0., 0., 0., 0., 0., 0., 0., 0., 0., 0., 0.,
          0., 0., 0., 0., 0., 0., 0., 8.19783367e-04, 1.72154512e-02,
          7.86992013e-02, 1.14769666e-02, 1.88550167e-02, 0., 0., 0., 0.,
          8.19783367e-04, 0., 0., 0., 0., 0., 0., 0., 0., 0., 0., 0., 0.,
          0., 0., 0., 0., 0., 0., 0., 0., 0., 0., 0., 0., 0., 0., 0., 0.,
          0., 0., 0., 0., 0., 0., 0., 0., 0., 0., 0., 0., 0., 0., 0., 0.,
          0., 0., 0., 0., 0., 0., 0., 0., 0., 0., 1.63956673e-03,
          1.14769667e-01, 1.47560999e-01, 1.06571838e-02, 2.70528514e-02,
          0., 0., 0., 8.19783367e-04, 9.83740017e-03, 9.83740017e-03, 0.,
          0., 0., 0., 0., 0., 1.63956673e-03, 9.01761651e-03, 0., 0., 0.,
          0., 0., 0., 0., 0., 0., 0., 0., 0., 0., 0., 0., 0., 0., 0., 0.,
          0., 0., 0., 0., 0., 0., 0., 0., 0., 0., 0., 0., 0., 0., 0., 0.,
          0., 0., 0., 0., 0., 0., 0., 0., 0., 0., 4.09891689e-03,
          8.36179033e-02, 1.39363170e-01, 4.59078662e-02, 4.18089516e-02,
          0., 0., 0., 2.45935004e-03, 6.47628829e-02, 1.30345553e-01,
          7.62398541e-02, 0., 0., 0., 0., 0., 4.91870008e-03,
          3.52506861e-02, 4.09891689e-03, 0., 0., 0., 0., 0., 0., 0., 0.,
          0., 0., 0., 0., 0., 0., 0., 0., 0., 0., 0., 0., 0., 0., 0., 0.,
          0., 0., 0., 0., 0., 0., 0., 0., 0., 0., 0., 0., 0., 0., 0., 0.,
          0., 0., 0., 0., 0., 0., 0., 0., 0., 0., 0., 0., 0., 0., 0., 0.,
          0., 0., 0., 0., 0., 0., 0., 0., 0., 0., 0., 0., 0., 0., 0., 0.,
          0., 0., 0., 0., 0., 0., 0., 0., 0., 0., 0., 0., 0., 0., 0., 0.,
          0., 0., 0., 0., 0., 0., 0., 0., 0., 0., 0., 0., 0., 0., 0., 0.,
          0., 0., 0., 0., 0., 0., 0., 0., 0., 0., 0., 0., 0., 0., 0., 0.,
          0., 0., 0., 0., 0., 0., 0., 0., 0., 0., 0., 0., 0., 0., 0., 0.,
          0., 0., 0., 0., 0., 0., 0., 0., 0., 0., 0., 0., 0., 0., 0., 0.,
          0., 0., 0., 0., 0., 0., 0., 0., 0., 0., 0., 0., 0., 0., 0., 0.,
          0. ]
      - [ 0., 0., 0., 4.22255741e-03, 3.87067758e-02, 2.60391049e-02,
          9.14887432e-03, 1.26676727e-02, 0., 0., 0., 7.03759585e-03,
          5.20782098e-02, 3.94105352e-02, 8.44511483e-03, 7.03759550e-04,
          0., 0., 0., 0., 2.95579024e-02, 5.55970073e-02, 2.81503834e-02,
          2.81503820e-03, 0., 0., 0., 0., 7.03759550e-04, 1.33714322e-02,
          8.44511483e-03, 1.40751910e-03, 0., 0., 0., 0., 0., 0.,
          2.11127871e-03, 0., 0., 0., 0., 0., 0., 0., 0., 0., 0., 0., 0.,
          0., 0., 0., 0., 0., 0., 0., 0., 0., 0., 0., 0., 0., 0., 0., 0.,
          4.22255741e-03, 2.11127866e-02, 1.97052676e-02, 2.74466239e-02,
          2.39278246e-02, 0., 0., 0., 1.40751910e-03, 3.51879792e-03,
          5.63007640e-03, 8.44511483e-03, 3.51879792e-03, 0., 0., 0., 0.,
          0., 0., 7.03759585e-03, 3.51879792e-03, 0., 0., 0., 0., 0., 0.,
          0., 0., 0., 0., 0., 0., 0., 0., 0., 0., 0., 0., 0., 0., 0., 0.,
          0., 0., 0., 0., 0., 0., 0., 0., 0., 0., 0., 0., 0., 0., 0., 0.,
          0., 0., 0., 0., 0., 8.44511483e-03, 4.64481302e-02,
          3.02616619e-02, 3.94105352e-02, 1.34418085e-01, 0., 0., 0.,
          3.51879792e-03, 1.82977486e-02, 6.47458807e-02, 8.30436274e-02,
          3.94105352e-02, 0., 0., 0., 0., 0., 7.03759585e-03,
          3.37804593e-02, 0., 0., 0., 0., 0., 0., 0., 1.12601528e-02, 0.,
          0., 0., 0., 0., 0., 0., 0., 0., 0., 0., 0., 0., 0., 0., 0., 0.,
          0., 0., 0., 0., 0., 0., 0., 0., 0., 0., 0., 0., 0., 0., 0., 0.,
          0., 0., 0., 1.05563933e-02, 1.06971458e-01, 4.08180542e-02,
          1.40751917e-02, 4.50406112e-02, 0., 0., 7.03759550e-04,
          3.51879792e-03, 1.25269204e-01, 3.32878292e-01, 2.22388029e-01,
          2.11127866e-02, 0., 0., 0., 0., 7.74135534e-03, 1.69606060e-01,
          8.22694957e-01, 1.02045141e-01, 0., 0., 0., 0., 0.,
          6.33383635e-03, 1.61864698e-01, 6.75609186e-02, 0., 0., 0., 0.,
          0., 0., 0., 0., 0., 0., 0., 0., 0., 0., 0., 0., 0., 0., 0., 0.,
          0., 0., 0., 0., 0., 0., 0., 0., 0., 0., 0., 0., 0., 0., 0.,
          1.47789512e-02, 7.88210705e-02, 3.23729403e-02, 7.03759550e-04,
          2.81503820e-03, 0., 0., 0., 4.92631691e-03, 3.23729403e-02,
          1.75939891e-02, 0., 0., 0., 0., 0., 0., 0., 0., 0., 0., 0., 0.,
          0., 0., 0., 0., 0., 0., 0., 0., 0., 0., 0., 0., 0., 0., 0., 0.,
          0., 0., 0., 0., 0., 0., 0., 0., 0., 0., 0., 0., 0., 0., 0., 0.,
          0., 0., 0., 0., 0., 0., 0., 0., 0., 2.11127871e-03,
          2.95579024e-02, 1.12601528e-02, 2.11127871e-03, 0., 0., 0., 0.,
          1.40751910e-03, 8.44511483e-03, 2.81503820e-03, 0., 0., 0., 0.,
          0., 0., 4.22255741e-03, 0., 0., 0., 0., 0., 0., 0., 0., 0., 0.,
          0., 0., 0., 0., 0., 0., 0., 0., 0., 0., 0., 0., 0., 0., 0., 0.,
          0., 0., 0., 0., 0., 0., 0., 0., 0., 0., 0., 0., 0., 0., 0., 0.,
          0., 0., 0., 0., 0., 0., 0., 0., 0., 0., 0., 0., 0., 0., 0., 0.,
          0., 0., 0., 0., 0., 0., 0., 0., 0., 0., 0., 0., 0., 0., 0., 0.,
          0., 0., 0., 0., 0., 0., 0., 0., 0., 0., 0., 0., 0., 0., 0., 0.,
          0., 0., 0., 0., 0., 0., 0., 0., 0., 0., 0., 0., 0., 0., 0., 0.,
          0., 0., 0., 0., 0., 0., 0., 0., 0., 0., 0., 0., 0., 0., 0., 0.,
          0., 0., 0., 0., 0., 0., 0., 0., 0., 0., 0., 0., 0., 0., 0., 0.,
          0., 0., 0., 0., 0., 0., 0., 0., 0., 0., 0., 0., 0., 0., 0., 0.,
          0., 0., 0., 0., 0., 0., 0., 0., 0., 0., 0., 0., 0., 0., 0., 0.,
          0. ]
      - [ 0., 0., 0., 2.09550466e-03, 1.11760246e-02, 3.35280746e-02,
          6.98501524e-03, 1.46685317e-02, 0., 0., 2.09550466e-03,
          4.19100933e-03, 1.32715292e-02, 1.39001802e-01, 1.15252748e-01,
          4.88951057e-03, 0., 1.39700307e-03, 1.39700307e-03,
          2.79400614e-03, 5.02921082e-02, 5.67183256e-01, 2.78003603e-01,
          0., 0., 0., 4.19100933e-03, 6.98501535e-04, 3.21310684e-02,
          5.28765678e-01, 9.70917121e-02, 0., 0., 0., 0., 6.98501535e-04,
          3.35280746e-02, 1.55765846e-01, 3.21310684e-02, 0., 0., 0., 0.,
          0., 0., 1.46685317e-02, 0., 0., 0., 0., 0., 0., 0., 0., 0., 0.,
          0., 0., 0., 0., 0., 0., 0., 0., 0., 0., 0., 0., 2.09550466e-03,
          9.08051990e-03, 4.88951057e-03, 5.58801228e-03, 0., 0., 0., 0.,
          0., 0., 0., 0., 0., 0., 0., 0., 0., 0., 0., 0., 0., 0., 0., 0.,
          0., 0., 0., 0., 0., 0., 0., 0., 0., 0., 0., 0., 0., 0., 0., 0.,
          0., 0., 0., 0., 0., 0., 0., 0., 0., 0., 0., 0., 0., 0., 0., 0.,
          0., 0., 0., 0., 0., 0., 0., 6.98501535e-04, 2.79400614e-03,
          9.08051990e-03, 6.28651353e-03, 4.19100933e-03, 0., 0., 0., 0.,
          0., 4.19100933e-03, 1.88595410e-02, 6.98501535e-04, 0., 0., 0.,
          0., 2.79400614e-03, 6.98501535e-04, 0., 0., 0., 0., 0., 0., 0.,
          0., 0., 0., 0., 0., 0., 0., 0., 0., 0., 0., 0., 0., 0., 0., 0.,
          0., 0., 0., 0., 0., 0., 0., 0., 0., 0., 0., 0., 0., 0., 0., 0.,
          0., 0., 0., 0., 0., 0., 6.98501535e-04, 4.19100933e-03,
          1.18745258e-02, 1.25730271e-02, 4.19100933e-03, 0., 0., 0.,
          3.49250762e-03, 1.39700307e-03, 1.18745258e-02, 2.65430585e-02,
          1.46685317e-02, 0., 0., 0., 0., 6.98501535e-04, 0.,
          4.19100933e-03, 3.49250762e-03, 0., 0., 0., 0., 0., 0., 0., 0.,
          0., 0., 0., 0., 0., 0., 0., 0., 0., 0., 0., 0., 0., 0., 0., 0.,
          0., 0., 0., 0., 0., 0., 0., 0., 0., 0., 0., 0., 0., 0., 0., 0.,
          0., 0., 0., 0., 5.58801228e-03, 2.58445572e-02, 4.19100933e-03,
          1.39700307e-03, 0., 0., 0., 0., 9.08051990e-03, 4.95936088e-02,
          6.98501535e-04, 0., 0., 0., 0., 0., 0., 0., 0., 0., 0., 0., 0.,
          0., 0., 0., 0., 0., 0., 0., 0., 0., 0., 0., 0., 0., 0., 0., 0.,
          0., 0., 0., 0., 0., 0., 0., 0., 0., 0., 0., 0., 0., 0., 0., 0.,
          0., 0., 0., 0., 0., 0., 0., 0., 6.98501535e-04, 1.39700307e-03,
          1.18745258e-02, 5.58801228e-03, 3.49250762e-03, 0., 0., 0.,
          1.39700307e-03, 3.14325690e-02, 2.84988612e-01, 5.02921082e-02,
          0., 0., 0., 0., 0., 5.09906113e-02, 3.56934279e-01,
          1.39001802e-01, 0., 0., 0., 0., 0., 1.81610398e-02,
          8.59156847e-02, 8.38201866e-03, 0., 0., 0., 0., 0., 0.,
          4.88951057e-03, 0., 0., 0., 0., 0., 0., 0., 0., 0., 0., 0., 0.,
          0., 0., 0., 0., 0., 0., 0., 0., 0., 0., 0., 0., 0., 0., 0., 0.,
          0., 0., 0., 0., 0., 0., 0., 0., 0., 0., 0., 0., 0., 0., 0., 0.,
          0., 0., 0., 0., 0., 0., 0., 0., 0., 0., 0., 0., 0., 0., 0., 0.,
          0., 0., 0., 0., 0., 0., 0., 0., 0., 0., 0., 0., 0., 0., 0., 0.,
          0., 0., 0., 0., 0., 0., 0., 0., 0., 0., 0., 0., 0., 0., 0., 0.,
          0., 0., 0., 0., 0., 0., 0., 0., 0., 0., 0., 0., 0., 0., 0., 0.,
          0., 0., 0., 0., 0., 0., 0., 0., 0., 0., 0., 0., 0., 0., 0., 0.,
          0., 0., 0., 0., 0., 0., 0., 0., 0., 0., 0., 0., 0., 0., 0., 0.,
          0., 0., 0., 0., 0., 0., 0., 0., 0., 0., 0., 0., 0., 0. ]
      - [ 0., 0., 4.61157691e-03, 1.01454696e-02, 1.20823316e-01,
          1.54026672e-01, 3.59703004e-02, 6.82513416e-02, 0., 0.,
          6.45620795e-03, 3.22810411e-02, 2.45335907e-01, 4.21498150e-01,
          2.39802003e-02, 5.53389266e-03, 0., 0., 9.22315405e-04,
          1.75239928e-02, 1.69706032e-01, 3.18198830e-01, 4.79604006e-02,
          6.45620795e-03, 0., 0., 0., 4.61157691e-03, 4.05818783e-02,
          1.39269635e-01, 4.98050340e-02, 0., 0., 0., 0., 0.,
          1.84463081e-03, 4.79604006e-02, 1.29124159e-02, 0., 0., 0., 0.,
          0., 0., 0., 1.84463081e-03, 0., 0., 0., 0., 0., 0., 0., 0., 0.,
          0., 0., 0., 0., 0., 0., 0., 0., 0., 0., 0., 0., 3.68926153e-02,
          3.04364096e-02, 2.30578855e-02, 1.47570465e-02, 0., 0., 0., 0.,
          3.68926162e-03, 3.68926162e-03, 3.68926162e-03, 5.53389266e-03,
          0., 0., 0., 0., 0., 0., 7.37852324e-03, 3.68926162e-03, 0., 0.,
          0., 0., 0., 0., 0., 0., 0., 0., 0., 0., 0., 0., 0., 0., 0., 0.,
          0., 0., 0., 0., 0., 0., 0., 0., 0., 0., 0., 0., 0., 0., 0., 0.,
          0., 0., 0., 0., 0., 0., 0., 0., 0., 9.22315405e-04,
          8.39307010e-02, 6.45620823e-02, 6.08728193e-02, 2.30578855e-02,
          0., 0., 0., 0., 3.68926162e-03, 0., 1.19901001e-02, 0., 0., 0.,
          0., 0., 0., 0., 0., 0., 0., 0., 0., 0., 0., 0., 0., 0., 0., 0.,
          0., 0., 0., 0., 0., 0., 0., 0., 0., 0., 0., 0., 0., 0., 0., 0.,
          0., 0., 0., 0., 0., 0., 0., 0., 0., 0., 0., 0., 0., 0., 0., 0.,
          0., 5.53389266e-03, 7.93191269e-02, 5.34942932e-02,
          3.59703004e-02, 2.76694633e-03, 0., 0., 0., 0., 0.,
          6.45620795e-03, 2.95140930e-02, 1.10677853e-02, 0., 0., 0., 0.,
          0., 0., 0., 0., 0., 0., 0., 0., 0., 0., 0., 0., 0., 0., 0., 0.,
          0., 0., 0., 0., 0., 0., 0., 0., 0., 0., 0., 0., 0., 0., 0., 0.,
          0., 0., 0., 0., 0., 0., 0., 0., 0., 0., 0., 0., 0., 0.,
          9.22315405e-04, 1.19901001e-02, 1.31891102e-01, 1.44803524e-01,
          9.22315381e-03, 2.21355706e-02, 0., 0., 9.22315405e-04,
          2.76694633e-03, 1.38347317e-02, 2.67471466e-02, 3.68926162e-03,
          0., 0., 0., 0., 0., 0., 0., 0., 0., 0., 0., 0., 0., 0., 0., 0.,
          0., 0., 0., 0., 0., 0., 0., 0., 0., 0., 0., 0., 0., 0., 0., 0.,
          0., 0., 0., 0., 0., 0., 0., 0., 0., 0., 0., 0., 0., 0., 0., 0.,
          0., 0., 0., 1.84463081e-03, 1.29124159e-02, 1.92763925e-01,
          2.61015266e-01, 1.47570465e-02, 4.42711413e-02, 0., 0., 0.,
          6.45620795e-03, 5.10040402e-01, 3.15431863e-01, 1.84463081e-03,
          0., 0., 0., 0., 1.38347317e-02, 1.35580361e-01, 3.22810411e-02,
          0., 0., 0., 0., 0., 1.84463081e-03, 9.22315381e-03,
          1.84463081e-03, 0., 0., 0., 0., 0., 0., 0., 0., 0., 0., 0., 0.,
          0., 0., 0., 0., 0., 0., 0., 0., 0., 0., 0., 0., 0., 0., 0., 0.,
          0., 0., 0., 0., 0., 0., 0., 0., 0., 0., 0., 0., 0., 0., 0., 0.,
          0., 0., 0., 0., 0., 0., 0., 0., 0., 0., 0., 0., 0., 0., 0., 0.,
          0., 0., 0., 0., 0., 0., 0., 0., 0., 0., 0., 0., 0., 0., 0., 0.,
          0., 0., 0., 0., 0., 0., 0., 0., 0., 0., 0., 0., 0., 0., 0., 0.,
          0., 0., 0., 0., 0., 0., 0., 0., 0., 0., 0., 0., 0., 0., 0., 0.,
          0., 0., 0., 0., 0., 0., 0., 0., 0., 0., 0., 0., 0., 0., 0., 0.,
          0., 0., 0., 0., 0., 0., 0., 0., 0., 0., 0., 0., 0., 0., 0., 0.,
          0., 0., 0., 0., 0., 0., 0., 0., 0., 0., 0., 0., 0., 0., 0., 0.,
          0., 0., 0., 0., 0., 0. ]
      - [ 0., 0., 0., 6.01697946e-03, 5.58719523e-02, 1.62458450e-01,
          4.46975641e-02, 9.28333998e-02, 0., 0., 0., 9.45525337e-03,
          2.19189972e-01, 6.75620854e-01, 5.07145412e-02, 2.06296444e-02,
          0., 0., 0., 7.73611665e-03, 2.68185377e-01, 4.30643827e-01,
          1.80509388e-02, 3.95401530e-02, 0., 0., 0., 0., 1.22918300e-01,
          1.40109673e-01, 2.14892123e-02, 1.80509388e-02, 0., 0., 0., 0.,
          3.43827419e-02, 1.03148222e-01, 3.69614474e-02, 1.11743910e-02,
          0., 0., 0., 0., 9.45525337e-03, 7.13441893e-02, 1.71913709e-02,
          7.73611665e-03, 0., 0., 0., 0., 0., 4.29784274e-03,
          1.11743910e-02, 0., 0., 0., 0., 0., 0., 0., 0., 0., 0., 0., 0.,
          0., 1.20339589e-02, 3.69614474e-02, 2.23487820e-02,
          1.71913709e-02, 0., 0., 0., 0., 0., 8.59568536e-04,
          1.71913707e-03, 0., 0., 0., 0., 0., 0., 0., 0., 0., 0., 0., 0.,
          0., 0., 0., 0., 0., 0., 0., 0., 0., 0., 0., 0., 0., 0., 0., 0.,
          0., 0., 0., 0., 0., 0., 0., 0., 0., 0., 0., 0., 0., 0., 0., 0.,
          0., 0., 0., 0., 0., 0., 0., 0., 0., 7.73611665e-03,
          1.89105067e-02, 6.01697946e-03, 1.63318012e-02, 0., 0., 0.,
          8.59568536e-04, 0., 4.29784274e-03, 8.59568536e-04, 0., 0., 0.,
          0., 0., 0., 0., 3.43827414e-03, 0., 0., 0., 0., 0., 0., 0., 0.,
          0., 0., 0., 0., 0., 0., 0., 0., 0., 0., 0., 0., 0., 0., 0., 0.,
          0., 0., 0., 0., 0., 0., 0., 0., 0., 0., 0., 0., 0., 0., 0., 0.,
          0., 0., 0., 0., 6.01697946e-03, 2.92253289e-02, 6.79059103e-02,
          1.11743910e-02, 2.66466234e-02, 0., 0., 0., 2.57870555e-03,
          9.45525337e-03, 5.07145412e-02, 3.09444666e-02, 0., 0., 0., 0.,
          0., 0., 2.06296444e-02, 8.85355547e-02, 3.43827414e-03, 0., 0.,
          0., 0., 0., 0., 2.06296444e-02, 1.71913709e-02, 0., 0., 0., 0.,
          0., 0., 0., 0., 0., 0., 0., 0., 0., 0., 0., 0., 0., 0., 0., 0.,
          0., 0., 0., 0., 0., 0., 0., 0., 0., 0., 0., 0., 0., 0., 0.,
          9.45525337e-03, 3.43827419e-02, 8.59568492e-02, 8.59568547e-03,
          2.49274876e-02, 0., 0., 0., 6.87654829e-03, 3.43827419e-02,
          2.75061931e-02, 3.43827414e-03, 0., 0., 0., 0., 0., 0.,
          6.87654829e-03, 3.43827414e-03, 0., 0., 0., 0., 0., 0., 0.,
          1.71913707e-03, 0., 0., 0., 0., 0., 0., 0., 0., 0., 0., 0., 0.,
          0., 0., 0., 0., 0., 0., 0., 0., 0., 0., 0., 0., 0., 0., 0., 0.,
          0., 0., 0., 0., 0., 0., 0., 0., 6.87654829e-03, 6.27484992e-02,
          1.48705348e-01, 8.59568547e-03, 3.61018777e-02, 0., 0., 0.,
          8.59568547e-03, 1.49564922e-01, 2.30364367e-01, 3.43827414e-03,
          0., 0., 0., 0., 1.71913707e-03, 4.12592888e-02, 1.54722333e-02,
          0., 0., 0., 0., 0., 0., 1.71913707e-03, 3.43827414e-03, 0., 0.,
          0., 0., 0., 0., 0., 0., 0., 0., 0., 0., 0., 0., 0., 0., 0., 0.,
          0., 0., 0., 0., 0., 0., 0., 0., 0., 0., 0., 0., 0., 0., 0., 0.,
          0., 0., 0., 0., 0., 0., 0., 0., 0., 0., 0., 0., 0., 0., 0., 0.,
          0., 0., 0., 0., 0., 0., 0., 0., 0., 0., 0., 0., 0., 0., 0., 0.,
          0., 0., 0., 0., 0., 0., 0., 0., 0., 0., 0., 0., 0., 0., 0., 0.,
          0., 0., 0., 0., 0., 0., 0., 0., 0., 0., 0., 0., 0., 0., 0., 0.,
          0., 0., 0., 0., 0., 0., 0., 0., 0., 0., 0., 0., 0., 0., 0., 0.,
          0., 0., 0., 0., 0., 0., 0., 0., 0., 0., 0., 0., 0., 0., 0., 0.,
          0., 0., 0., 0., 0., 0., 0., 0., 0., 0., 0., 0., 0., 0., 0., 0.,
          0., 0., 0., 0., 0., 0., 0., 0., 0., 0., 0., 0., 0., 0., 0., 0. ]
      - [ 0., 0., 0., 0., 2.44791177e-03, 1.10156024e-02, 1.59114264e-02,
          9.54685509e-02, 0., 0., 0., 0., 3.67186754e-03, 3.05988956e-02,
          3.05988956e-02, 3.36587839e-02, 0., 0., 0., 3.67186754e-03,
          9.79164708e-03, 3.67186740e-02, 7.64972419e-02, 5.26301004e-02,
          0., 0., 0., 2.44791177e-03, 5.50780119e-03, 4.58983444e-02,
          3.10884774e-01, 4.75506842e-01, 0., 0., 0., 1.83593377e-03,
          1.16275800e-02, 1.00976355e-01, 6.04634166e-01, 4.65103209e-01,
          0., 0., 6.11977943e-04, 6.11977943e-04, 1.10156024e-02,
          3.30468081e-02, 2.26431832e-01, 2.87629627e-02, 0., 0., 0.,
          3.05988966e-03, 6.11977943e-04, 6.11977931e-03, 5.26301004e-02,
          1.22395589e-03, 0., 0., 0., 6.11977943e-04, 0., 0., 0., 0., 0.,
          0., 0., 0., 1.83593377e-03, 9.79164708e-03, 6.73175696e-03,
          3.12108733e-02, 0., 0., 0., 0., 1.22395589e-03, 6.11977943e-04,
          1.77473594e-02, 2.01952718e-02, 0., 0., 0., 0., 0.,
          1.22395589e-03, 7.95571320e-03, 1.22395589e-03, 0., 0., 0., 0.,
          0., 0., 2.44791177e-03, 0., 0., 0., 0., 0., 0., 0., 0., 0., 0.,
          0., 0., 0., 0., 0., 0., 0., 0., 0., 0., 0., 0., 0., 0., 0., 0.,
          0., 0., 0., 0., 0., 0., 0., 0., 0., 0., 0., 6.11977943e-04,
          6.73175696e-03, 9.17966850e-03, 3.42707634e-02, 0., 0., 0., 0.,
          0., 1.22395589e-03, 1.16275800e-02, 7.34373508e-03, 0., 0., 0.,
          0., 0., 0., 0., 0., 0., 0., 0., 0., 0., 0., 0., 0., 0., 0., 0.,
          0., 0., 0., 0., 0., 0., 0., 0., 0., 0., 0., 0., 0., 0., 0., 0.,
          0., 0., 0., 0., 0., 0., 0., 0., 0., 0., 0., 0., 0., 0., 0., 0.,
          0., 0., 1.83593377e-03, 1.83593377e-03, 1.77473594e-02, 0., 0.,
          0., 0., 0., 6.11977943e-04, 0., 0., 0., 0., 0., 0., 0., 0., 0.,
          0., 0., 0., 0., 0., 0., 0., 0., 0., 0., 0., 0., 0., 0., 0., 0.,
          0., 0., 0., 0., 0., 0., 0., 0., 0., 0., 0., 0., 0., 0., 0., 0.,
          0., 0., 0., 0., 0., 0., 0., 0., 0., 0., 0., 0., 0.,
          1.22395589e-03, 6.11977943e-04, 6.11977943e-04, 3.67186754e-03,
          0., 0., 0., 1.83593377e-03, 6.11977943e-04, 0., 0., 0., 0., 0.,
          0., 0., 0., 0., 0., 0., 0., 0., 0., 0., 0., 0., 0., 0., 0., 0.,
          0., 0., 0., 0., 0., 0., 0., 0., 0., 0., 0., 0., 0., 0., 0., 0.,
          0., 0., 0., 0., 0., 0., 0., 0., 0., 0., 0., 0., 0., 0., 0., 0.,
          0., 0., 6.11977943e-04, 5.50780119e-03, 1.83593377e-03,
          1.71353817e-02, 0., 0., 0., 0., 3.67186754e-03, 2.44791177e-03,
          0., 0., 0., 0., 0., 6.11977943e-04, 6.11977943e-04,
          6.11977943e-04, 1.83593377e-03, 0., 0., 0., 0., 0., 0.,
          3.67186754e-03, 1.83593377e-03, 0., 0., 0., 0., 0., 0.,
          1.83593377e-03, 3.67186754e-03, 0., 0., 0., 0., 0., 0., 0., 0.,
          0., 0., 0., 0., 0., 0., 0., 0., 0., 0., 0., 0., 0., 0., 0., 0.,
          0., 0., 0., 0., 0., 0., 0., 0., 0., 0., 0., 0., 0., 0., 0., 0.,
          0., 0., 0., 0., 0., 0., 0., 0., 0., 0., 0., 0., 0., 0., 0., 0.,
          0., 0., 0., 0., 0., 0., 0., 0., 0., 0., 0., 0., 0., 0., 0., 0.,
          0., 0., 0., 0., 0., 0., 0., 0., 0., 0., 0., 0., 0., 0., 0., 0.,
          0., 0., 0., 0., 0., 0., 0., 0., 0., 0., 0., 0., 0., 0., 0., 0.,
          0., 0., 0., 0., 0., 0., 0., 0., 0., 0., 0., 0., 0., 0., 0., 0.,
          0., 0., 0., 0., 0., 0., 0., 0., 0., 0., 0., 0., 0., 0., 0., 0.,
          0., 0., 0., 0., 0., 0., 0., 0., 0., 0., 0., 0., 0., 0., 0., 0.,
          0. ]
      - [ 0., 0., 0., 9.11073352e-04, 1.05684511e-01, 2.98832059e-01,
          2.18657609e-02, 4.09983024e-02, 0., 0., 9.11073352e-04,
          9.11073387e-03, 2.43256584e-01, 5.61221182e-01, 5.64865470e-02,
          9.11073387e-03, 0., 0., 0., 4.55536693e-03, 2.24124044e-01,
          2.04080433e-01, 3.64429355e-02, 6.37751352e-03, 0., 0.,
          9.11073352e-04, 1.82214670e-03, 1.03862368e-01, 2.05902576e-01,
          1.73103940e-02, 0., 0., 0., 0., 0., 2.82432735e-02,
          4.28204499e-02, 1.82214670e-03, 0., 0., 0., 0., 0., 0., 0., 0.,
          0., 0., 0., 0., 0., 0., 0., 0., 0., 0., 0., 0., 0., 0., 0., 0.,
          0., 0., 0., 0., 0., 2.00436134e-02, 5.19311838e-02,
          2.36879084e-02, 2.00436134e-02, 0., 0., 0., 9.11073352e-04,
          8.19966011e-03, 5.46644023e-03, 7.28858681e-03, 3.00654210e-02,
          0., 0., 0., 0., 0., 0., 1.82214670e-03, 3.64429341e-03, 0., 0.,
          0., 0., 0., 0., 0., 0., 0., 0., 0., 0., 0., 0., 0., 0., 0., 0.,
          0., 0., 0., 0., 0., 0., 0., 0., 0., 0., 0., 0., 0., 0., 0., 0.,
          0., 0., 0., 0., 0., 0., 0., 0., 0., 9.11073352e-04,
          1.54882474e-02, 4.64647412e-02, 3.64429355e-02, 1.13884173e-01,
          0., 0., 0., 0., 5.46644023e-03, 7.28858681e-03, 9.11073387e-03,
          2.45989803e-02, 0., 0., 0., 0., 0., 0., 0., 0., 0., 0., 0., 0.,
          0., 0., 0., 0., 0., 0., 0., 0., 0., 0., 0., 0., 0., 0., 0., 0.,
          0., 0., 0., 0., 0., 0., 0., 0., 0., 0., 0., 0., 0., 0., 0., 0.,
          0., 0., 0., 0., 0., 0., 0., 7.28858681e-03, 4.46425937e-02,
          6.10419139e-02, 2.45989803e-02, 5.19311838e-02, 0., 0., 0.,
          1.82214670e-03, 1.00218067e-02, 1.36661008e-02, 8.19966011e-03,
          9.11073352e-04, 0., 0., 0., 0., 0., 0., 3.64429341e-03, 0., 0.,
          0., 0., 0., 0., 0., 0., 3.64429341e-03, 0., 0., 0., 0., 0., 0.,
          0., 0., 0., 0., 0., 0., 0., 0., 0., 0., 0., 0., 0., 0., 0., 0.,
          0., 0., 0., 0., 0., 0., 0., 0., 0., 0., 0., 0., 0.,
          1.45771736e-02, 1.00218073e-01, 2.84254879e-01, 2.73322016e-02,
          5.01090363e-02, 0., 0., 0., 1.82214670e-03, 4.82868887e-02,
          5.37533276e-02, 9.11073352e-04, 0., 0., 0., 0., 0.,
          9.11073352e-04, 2.73322011e-03, 4.55536693e-03, 0., 0., 0., 0.,
          0., 0., 0., 2.73322011e-03, 0., 0., 0., 0., 0., 0., 0., 0., 0.,
          0., 0., 0., 0., 0., 0., 0., 0., 0., 0., 0., 0., 0., 0., 0., 0.,
          0., 0., 0., 0., 0., 0., 0., 0., 0., 0., 0., 8.19966011e-03,
          9.11073387e-02, 3.00654203e-01, 1.00218067e-02, 2.73322016e-02,
          0., 0., 9.11073352e-04, 5.46644023e-03, 1.94969699e-01,
          3.12498152e-01, 7.28858681e-03, 0., 0., 0., 0., 0.,
          5.01090363e-02, 3.09764948e-02, 9.11073352e-04, 0., 0., 0., 0.,
          0., 2.73322011e-03, 9.11073352e-04, 9.11073352e-04, 0., 0., 0.,
          0., 0., 0., 0., 0., 0., 0., 0., 0., 0., 0., 0., 0., 0., 0., 0.,
          0., 0., 0., 0., 0., 0., 0., 0., 0., 0., 0., 0., 0., 0., 0., 0.,
          0., 0., 0., 0., 0., 0., 0., 0., 0., 0., 0., 0., 0., 0., 0., 0.,
          0., 0., 0., 0., 0., 0., 0., 0., 0., 0., 0., 0., 0., 0., 0., 0.,
          0., 0., 0., 0., 0., 0., 0., 0., 0., 0., 0., 0., 0., 0., 0., 0.,
          0., 0., 0., 0., 0., 0., 0., 0., 0., 0., 0., 0., 0., 0., 0., 0.,
          0., 0., 0., 0., 0., 0., 0., 0., 0., 0., 0., 0., 0., 0., 0., 0.,
          0., 0., 0., 0., 0., 0., 0., 0., 0., 0., 0., 0., 0., 0., 0., 0.,
          0., 0., 0., 0., 0., 0., 0., 0., 0., 0., 0., 0., 0., 0., 0., 0.,
          0., 0., 0., 0., 0., 0., 0., 0., 0., 0., 0., 0., 0., 0. ]
      - [ 0., 0., 0., 0., 6.09980803e-03, 4.80359867e-02, 5.64232208e-02,
          8.00599754e-02, 0., 0., 0., 7.62476004e-04, 1.82994232e-02,
          1.21996157e-01, 3.21764857e-01, 6.09980784e-02, 0., 0., 0., 0.,
          6.09980803e-03, 2.06630990e-01, 6.09980762e-01, 1.74606994e-01,
          0., 0., 0., 7.62476004e-04, 6.86228368e-03, 8.84472132e-02,
          4.59773004e-01, 1.95956334e-01, 0., 0., 0., 0., 8.38723592e-03,
          7.70100728e-02, 3.30152094e-01, 8.08224529e-02, 0., 0., 0., 0.,
          8.38723592e-03, 1.90618988e-02, 1.60119951e-01, 5.03234155e-02,
          0., 0., 0., 0., 0., 0., 1.67744718e-02, 1.75369475e-02, 0., 0.,
          0., 0., 0., 0., 0., 0., 0., 0., 0., 0., 0., 1.44870440e-02,
          3.12615149e-02, 3.43114175e-02, 0., 0., 0., 0., 0.,
          1.52495201e-03, 3.04990401e-03, 9.14971158e-03, 0., 0., 0., 0.,
          0., 0., 7.62476004e-04, 2.28742789e-03, 0., 0., 0., 0., 0., 0.,
          0., 0., 0., 0., 0., 0., 0., 0., 0., 0., 0., 0., 0., 0., 0., 0.,
          0., 0., 0., 0., 0., 0., 0., 0., 0., 0., 0., 0., 0., 0., 0., 0.,
          0., 0., 0., 0., 0., 0., 1.52495201e-03, 1.21996161e-02,
          1.75369475e-02, 5.26108444e-02, 0., 0., 0., 0., 2.28742789e-03,
          6.09980803e-03, 7.62475980e-03, 5.33733191e-03, 0., 0., 0., 0.,
          0., 0., 0., 0., 0., 0., 0., 0., 0., 0., 0., 0., 0., 0., 0., 0.,
          0., 0., 0., 0., 0., 0., 0., 0., 0., 0., 0., 0., 0., 0., 0., 0.,
          0., 0., 0., 0., 0., 0., 0., 0., 0., 0., 0., 0., 0., 0., 0.,
          7.62476004e-04, 7.62476004e-04, 1.67744718e-02, 3.04990392e-02,
          3.04990392e-02, 0., 0., 0., 0., 0., 3.81237990e-03,
          4.57485579e-03, 7.62476004e-04, 0., 0., 0., 0., 7.62476004e-04,
          7.62476004e-04, 0., 0., 0., 0., 0., 0., 0., 0., 0., 0., 0., 0.,
          0., 0., 0., 0., 0., 0., 0., 0., 0., 0., 0., 0., 0., 0., 0., 0.,
          0., 0., 0., 0., 0., 0., 0., 0., 0., 0., 0., 0., 0., 0., 0., 0.,
          0., 7.62476004e-04, 0., 1.75369475e-02, 1.14371395e-02,
          2.05868520e-02, 0., 0., 0., 1.52495201e-03, 2.28742789e-03,
          2.28742789e-03, 0., 0., 0., 0., 0., 0., 0., 0., 0., 0., 0., 0.,
          0., 0., 0., 2.28742789e-03, 0., 0., 0., 0., 0., 0., 0., 0.,
          3.04990401e-03, 0., 0., 0., 0., 0., 0., 0., 0., 0., 0., 0., 0.,
          0., 0., 0., 0., 0., 0., 0., 0., 0., 0., 0., 0., 0., 0., 0., 0.,
          0., 2.28742789e-03, 1.75369475e-02, 1.60119962e-02,
          4.04112265e-02, 0., 0., 0., 0., 7.62475980e-03, 1.06746638e-02,
          1.44870440e-02, 7.62476004e-04, 0., 0., 0., 0., 7.62476004e-04,
          7.62475980e-03, 0., 7.62476004e-04, 0., 0., 0., 0.,
          7.62476004e-04, 1.67744718e-02, 7.62475980e-03, 0., 0., 0., 0.,
          0., 0., 7.62476004e-04, 5.33733191e-03, 0., 0., 0., 0., 0., 0.,
          0., 0., 0., 0., 0., 0., 0., 0., 0., 0., 0., 0., 0., 0., 0., 0.,
          0., 0., 0., 0., 0., 0., 0., 0., 0., 0., 0., 0., 0., 0., 0., 0.,
          0., 0., 0., 0., 0., 0., 0., 0., 0., 0., 0., 0., 0., 0., 0., 0.,
          0., 0., 0., 0., 0., 0., 0., 0., 0., 0., 0., 0., 0., 0., 0., 0.,
          0., 0., 0., 0., 0., 0., 0., 0., 0., 0., 0., 0., 0., 0., 0., 0.,
          0., 0., 0., 0., 0., 0., 0., 0., 0., 0., 0., 0., 0., 0., 0., 0.,
          0., 0., 0., 0., 0., 0., 0., 0., 0., 0., 0., 0., 0., 0., 0., 0.,
          0., 0., 0., 0., 0., 0., 0., 0., 0., 0., 0., 0., 0., 0., 0., 0.,
          0., 0., 0., 0., 0., 0., 0., 0., 0., 0., 0., 0., 0., 0., 0., 0.,
          0., 0., 0. ]
      - [ 0., 0., 0., 2.86380504e-03, 5.72761009e-03, 6.87313173e-03,
          1.14552202e-02, 4.98302057e-02, 0., 0., 0., 2.29104399e-03,
          2.29104399e-03, 2.34832000e-02, 8.07593018e-02, 1.94738731e-02,
          0., 0., 0., 5.72761009e-03, 2.29104403e-02, 4.23843116e-02,
          6.98768422e-02, 1.89011134e-02, 0., 0., 0., 3.43656586e-03,
          2.46287230e-02, 2.29677156e-01, 8.01865384e-02, 8.01865384e-03,
          0., 0., 0., 5.15484903e-03, 1.09397352e-01, 7.87546337e-01,
          1.66673452e-01, 1.71828293e-03, 0., 0., 5.72760997e-04,
          4.58208797e-03, 2.36550286e-01, 4.30716276e-01, 4.00932692e-02,
          5.72760997e-04, 0., 0., 5.72760997e-04, 9.16417595e-03,
          1.01951458e-01, 8.93507153e-02, 9.73693654e-03, 0., 0., 0.,
          5.72760997e-04, 1.71828293e-03, 1.77555904e-02, 6.87313173e-03,
          1.14552199e-03, 0., 0., 0., 0., 5.72760997e-04, 2.29104399e-03,
          0., 0., 1.03096981e-02, 0., 0., 0., 0., 0., 2.29104399e-03,
          1.71828293e-03, 0., 0., 0., 0., 0., 0., 0., 0., 2.86380504e-03,
          0., 0., 0., 0., 0., 0., 0., 0., 0., 0., 0., 0., 0., 0., 0., 0.,
          0., 0., 0., 0., 0., 0., 0., 0., 0., 0., 0., 0., 0., 0., 0., 0.,
          0., 0., 0., 0., 0., 0., 0., 0., 0., 0., 0., 1.14552199e-03,
          1.71828293e-03, 1.71828293e-03, 1.14552199e-03, 2.29104399e-03,
          0., 0., 0., 1.14552199e-03, 2.29104399e-03, 0., 0., 0., 0., 0.,
          0., 0., 0., 0., 0., 0., 0., 0., 0., 0., 0., 0., 0., 0., 0., 0.,
          0., 0., 0., 0., 0., 0., 0., 0., 0., 0., 0., 0., 0., 0., 0., 0.,
          0., 0., 0., 0., 0., 0., 0., 0., 0., 0., 0., 0., 0., 0., 0., 0.,
          0., 2.29104399e-03, 1.14552199e-03, 1.14552199e-03,
          5.72760997e-04, 0., 0., 0., 0., 0., 4.58208797e-03,
          1.71828293e-03, 0., 0., 0., 0., 0., 0., 0., 0., 0., 0., 0., 0.,
          0., 0., 0., 0., 0., 0., 0., 0., 0., 0., 0., 0., 0., 0., 0., 0.,
          0., 0., 0., 0., 0., 0., 0., 0., 0., 0., 0., 0., 0., 0., 0., 0.,
          0., 0., 0., 0., 0., 0., 0., 0., 0., 5.72760997e-04, 0.,
          5.72760997e-04, 1.14552199e-03, 2.86380504e-03, 0., 0., 0.,
          1.14552199e-03, 0., 0., 0., 0., 0., 0., 5.72760997e-04,
          5.72760997e-04, 0., 0., 0., 0., 0., 0., 0., 0., 0., 0., 0., 0.,
          0., 0., 0., 0., 0., 0., 0., 0., 0., 0., 0., 0., 0., 0., 0., 0.,
          0., 0., 0., 0., 0., 0., 0., 0., 0., 0., 0., 0., 0., 0., 0., 0.,
          0., 0., 0., 5.72760997e-04, 5.72760997e-04, 0., 1.71828293e-03,
          1.14552202e-02, 0., 0., 0., 3.43656586e-03, 1.14552199e-03, 0.,
          0., 0., 0., 0., 0., 1.14552199e-03, 0., 5.72760997e-04,
          5.72760997e-04, 0., 0., 0., 0., 5.72760997e-04, 5.72760997e-04,
          5.72760997e-04, 0., 0., 0., 0., 0., 0., 0., 0., 0., 0., 0., 0.,
          0., 0., 0., 0., 0., 0., 0., 0., 0., 0., 0., 0., 0., 0., 0., 0.,
          0., 0., 0., 0., 0., 0., 0., 0., 0., 0., 0., 0., 0., 0., 0., 0.,
          0., 0., 0., 0., 0., 0., 0., 0., 0., 0., 0., 0., 0., 0., 0., 0.,
          0., 0., 0., 0., 0., 0., 0., 0., 0., 0., 0., 0., 0., 0., 0., 0.,
          0., 0., 0., 0., 0., 0., 0., 0., 0., 0., 0., 0., 0., 0., 0., 0.,
          0., 0., 0., 0., 0., 0., 0., 0., 0., 0., 0., 0., 0., 0., 0., 0.,
          0., 0., 0., 0., 0., 0., 0., 0., 0., 0., 0., 0., 0., 0., 0., 0.,
          0., 0., 0., 0., 0., 0., 0., 0., 0., 0., 0., 0., 0., 0., 0., 0.,
          0., 0., 0., 0., 0., 0., 0., 0., 0., 0., 0., 0., 0., 0., 0., 0.,
          0., 0., 0., 0., 0., 0. ]
      - [ 0., 0., 0., 1.84204895e-02, 5.52614667e-02, 1.68187078e-02,
          9.61069018e-03, 4.00445424e-03, 0., 0., 8.00890848e-04,
          3.12347431e-02, 7.28810653e-02, 2.56285071e-02, 1.12124719e-02,
          8.80979933e-03, 0., 0., 0., 1.36151444e-02, 8.24917555e-02,
          7.36819580e-02, 4.16463241e-02, 8.00890848e-03, 0., 0., 0., 0.,
          5.20579033e-02, 6.16685934e-02, 1.84204895e-02, 2.80311797e-02,
          0., 0., 0., 0., 2.00222712e-02, 3.76418680e-02, 5.60623594e-03,
          2.00222712e-02, 0., 0., 0., 0., 0., 4.80534509e-03,
          1.60178170e-03, 8.00890848e-04, 0., 0., 0., 0., 0., 0., 0., 0.,
          0., 0., 0., 0., 0., 0., 0., 0., 0., 0., 0., 4.80534509e-03,
          3.68409790e-02, 7.20801763e-03, 9.61069018e-03, 7.20801763e-03,
          0., 0., 0., 8.00890848e-04, 1.60178170e-03, 1.60178170e-03,
          2.32258346e-02, 2.40267254e-03, 0., 0., 0., 0., 0., 0.,
          6.40712678e-03, 0., 0., 0., 0., 0., 0., 0., 0., 0., 0., 0., 0.,
          0., 0., 0., 0., 0., 0., 0., 0., 0., 0., 0., 0., 0., 0., 0., 0.,
          0., 0., 0., 0., 0., 0., 0., 0., 0., 0., 0., 0., 0., 0., 0., 0.,
          4.80534509e-03, 8.72971043e-02, 4.80534509e-02, 4.64516692e-02,
          6.40712678e-02, 0., 0., 0., 2.40267254e-03, 4.00445424e-03,
          9.61069018e-03, 1.28142536e-02, 6.40712678e-03, 0., 0., 0., 0.,
          0., 0., 0., 0., 0., 0., 0., 0., 0., 0., 0., 0., 0., 0., 0., 0.,
          0., 0., 0., 0., 0., 0., 0., 0., 0., 0., 0., 0., 0., 0., 0., 0.,
          0., 0., 0., 0., 0., 0., 0., 0., 0., 0., 0., 0., 0., 0., 0.,
          6.64739385e-02, 2.66696662e-01, 1.32947877e-01, 3.20356339e-02,
          8.32926482e-02, 0., 0., 0., 1.20133627e-02, 3.17953676e-01,
          7.85673916e-01, 5.44605777e-02, 7.20801763e-03, 0., 0.,
          8.00890848e-04, 3.20356339e-03, 4.24472131e-02, 1.98620930e-01,
          1.31346092e-01, 8.00890848e-04, 0., 0., 0., 8.00890848e-04, 0.,
          0., 7.20801763e-03, 9.61069018e-03, 0., 0., 0., 0., 0., 0., 0.,
          0., 0., 0., 0., 0., 0., 0., 0., 0., 0., 0., 0., 0., 0., 0., 0.,
          0., 0., 0., 0., 0., 0., 0., 0., 0., 0., 0., 1.60178170e-03,
