%YAML:1.0
---
opencv_ml_svm:
   format: 3
   svmType: C_SVC
   kernel:
      type: RBF
      gamma: 5.
   C: 5.
   term_criteria: { epsilon:1.1920928955078125e-07, iterations:1000 }
   var_count: 128
   class_count: 2
   class_labels: !!opencv-matrix
      rows: 2
      cols: 1
      dt: i
      data: [ 0, 1 ]
   sv_total: 450
   support_vectors:
      - [ 0., 9.46892332e-03, 2.29959562e-01, 1.17685184e-01, 0.,
          9.46892332e-03, 8.99998605e-01, 1.82614937e-01, 0.,
          1.35270332e-03, 1.69087917e-01, 5.27554266e-02, 0., 0.,
          1.80360442e-03, 3.60720884e-03, 0., 9.01802210e-04,
          9.01802164e-03, 1.08216265e-02, 0., 0., 0., 0., 0., 0., 0., 0.,
          0., 0., 0., 0., 0., 4.50901105e-04, 2.25450541e-03,
          1.12725273e-02, 0., 0., 0., 0., 0., 0., 0., 0., 0., 0., 0., 0.,
          0., 1.80360442e-03, 2.16432530e-02, 1.84869450e-02, 0., 0.,
          2.70540663e-03, 0., 0., 0., 0., 0., 0., 0., 0., 0., 0.,
          4.95991204e-03, 4.05810997e-02, 2.11923514e-02, 0.,
          4.50901105e-04, 3.15630762e-03, 0., 0., 0., 0., 0., 0., 0., 0.,
          0., 0., 6.31261524e-03, 1.96141973e-01, 3.78756933e-02, 0.,
          3.60720884e-03, 1.22194201e-01, 1.30761322e-02, 0., 0.,
          2.70540663e-03, 0., 0., 0., 0., 0., 0., 0., 0., 0., 0., 0., 0.,
          0., 0., 0., 0., 0., 0., 0., 0., 0., 0., 0., 0., 0., 0., 0., 0.,
          0., 0., 0., 0., 0., 0., 0., 0., 0. ]
      - [ 0., 3.94707546e-03, 1.58241838e-01, 4.52119559e-02, 0.,
          8.97062570e-03, 9.42274570e-01, 4.91590314e-02, 0.,
          5.02355071e-03, 1.89100802e-01, 3.91119309e-02, 0., 0.,
          2.51177535e-03, 1.22000510e-02, 0., 0., 3.58825026e-04, 0., 0.,
          0., 1.43530010e-03, 7.17650051e-04, 0., 0., 0., 0., 0., 0., 0.,
          0., 0., 0., 0., 0., 0., 0., 0., 0., 0., 0., 0., 0., 0., 0., 0.,
          0., 0., 0., 0., 0., 0., 0., 0., 0., 0., 0., 0., 0., 0., 0., 0.,
          0., 0., 0., 3.58825026e-04, 0., 0., 0., 0., 0., 0., 0., 0., 0.,
          0., 0., 0., 0., 0., 1.43530010e-03, 1.24512285e-01,
          1.43530010e-03, 0., 3.58825026e-04, 1.71877190e-01, 0., 0., 0.,
          0., 0., 0., 0., 0., 0., 0., 0., 0., 0., 0., 0., 0., 0., 0., 0.,
          0., 0., 0., 0., 0., 0., 0., 0., 0., 0., 0., 0., 0., 0., 0., 0.,
          0., 0., 0., 0., 0., 0. ]
      - [ 0., 2.20495053e-02, 5.55096269e-01, 1.25130937e-01, 0.,
          6.06361357e-03, 6.78022265e-01, 5.62262349e-02, 0.,
          5.51237608e-04, 9.92227718e-02, 3.69329192e-02, 0., 0.,
          1.10247522e-03, 0., 0., 1.10247522e-03, 7.49683157e-02,
          3.41767333e-02, 0., 0., 0., 0., 0., 0., 0., 0., 0., 0., 0., 0.,
          0., 0., 1.09696284e-01, 6.66997507e-02, 0., 0., 0., 0., 0., 0.,
          0., 0., 0., 0., 0., 0., 0., 3.30742565e-03, 2.43095785e-01,
          3.69329192e-02, 0., 0., 5.51237608e-04, 0., 0., 0., 0., 0., 0.,
          0., 0., 0., 0., 8.81980173e-03, 1.70883656e-01, 8.81980173e-03,
          0., 0., 1.10247522e-03, 0., 0., 0., 0., 0., 0., 0., 0., 0., 0.,
          1.98445544e-02, 2.84438610e-01, 9.37103946e-03, 0.,
          5.51237608e-04, 8.43393579e-02, 0., 0., 0., 5.51237608e-04, 0.,
          0., 0., 0., 0., 0., 0., 0., 0., 0., 0., 0., 0., 0., 0., 0., 0.,
          0., 0., 0., 0., 0., 0., 0., 0., 0., 0., 0., 0., 0., 0., 0., 0.,
          0., 0., 0., 0. ]
      - [ 0., 0., 8.56688023e-02, 8.81519541e-02, 0., 8.27717886e-04,
          4.44898367e-01, 8.47169220e-01, 0., 0., 1.51472375e-01,
          1.80442497e-01, 0., 0., 0., 0., 0., 0., 7.44946068e-03,
          1.28296269e-02, 0., 0., 1.65543577e-03, 0., 0., 0., 0., 0., 0.,
          0., 0., 0., 0., 0., 1.65543577e-03, 1.40712038e-02, 0., 0., 0.,
          0., 0., 0., 0., 0., 0., 0., 0., 0., 0., 0., 3.31087154e-03,
          6.20788429e-03, 0., 0., 0., 0., 0., 0., 0., 0., 0., 0., 0., 0.,
          0., 0., 2.06929469e-03, 8.27717886e-04, 0., 0., 1.65543577e-03,
          0., 0., 0., 0., 0., 0., 0., 0., 0., 0., 0., 8.11163485e-02,
          1.24157686e-02, 0., 0., 6.53897151e-02, 4.75937799e-02, 0., 0.,
          0., 0., 0., 0., 0., 0., 0., 0., 0., 0., 0., 0., 0., 0., 0., 0.,
          0., 0., 0., 0., 0., 0., 0., 0., 0., 0., 0., 0., 0., 0., 0., 0.,
          0., 0., 0., 0., 0., 0. ]
      - [ 0., 3.20011005e-02, 2.07311481e-01, 8.34811386e-03, 0.,
          9.27568134e-03, 1.06670335e-01, 6.02919282e-03, 0., 0.,
          1.43773062e-02, 6.95676124e-03, 0., 0., 0., 0., 0.,
          2.78270454e-03, 3.10735330e-02, 0., 0., 0., 0., 0., 0., 0., 0.,
          0., 0., 0., 0., 0., 4.63784090e-04, 2.78270454e-03,
          4.08129990e-02, 1.15946019e-02, 0., 0., 0., 0., 0., 0., 0., 0.,
          0., 0., 0., 0., 0., 1.80875789e-02, 7.66171277e-01,
          4.91611138e-02, 0., 0., 1.94789320e-02, 0., 0., 0., 0., 0., 0.,
          0., 0., 0., 0., 6.77124783e-02, 5.28713822e-01, 6.95676124e-03,
          0., 0., 1.85513636e-03, 0., 0., 0., 0., 0., 0., 0., 0., 0., 0.,
          4.26681340e-02, 2.53226101e-01, 3.71027272e-03, 0., 0.,
          3.33924554e-02, 9.27568180e-04, 0., 0., 0., 0., 0., 0., 0., 0.,
          0., 0., 0., 0., 0., 0., 0., 0., 0., 0., 0., 0., 0., 0., 0., 0.,
          0., 0., 0., 0., 0., 0., 0., 0., 0., 0., 0., 0., 0., 0., 0., 0. ]
      - [ 0., 3.11139273e-03, 6.71171844e-02, 1.10676683e-01, 0.,
          5.33381617e-03, 3.91590983e-01, 2.52467304e-01, 0.,
          6.66726986e-03, 3.81367832e-01, 7.85848916e-01, 0.,
          1.33345404e-03, 9.33417771e-03, 1.86683554e-02, 0., 0.,
          1.33345397e-02, 2.13352647e-02, 0., 0., 0., 0., 0., 0., 0., 0.,
          0., 0., 0., 0., 0., 0., 8.00072402e-03, 1.73349027e-02, 0., 0.,
          0., 0., 0., 0., 0., 0., 0., 0., 0., 0., 0., 8.88969342e-04, 0.,
          1.77793868e-03, 0., 0., 0., 0., 0., 0., 0., 0., 0., 0., 0., 0.,
          0., 2.22242344e-03, 2.66690808e-03, 1.77793868e-03, 0., 0.,
          4.44484671e-04, 0., 0., 0., 0., 0., 0., 0., 0., 0., 0.,
          3.55587737e-03, 2.97804736e-02, 2.31132023e-02, 0.,
          1.33345404e-03, 1.33345397e-02, 3.55587737e-03, 0., 0., 0., 0.,
          0., 0., 0., 0., 0., 0., 0., 0., 0., 0., 0., 0., 0., 0., 0., 0.,
          0., 0., 0., 0., 0., 0., 0., 0., 0., 0., 0., 0., 0., 0., 0., 0.,
          0., 0., 0., 0. ]
      - [ 0., 2.54604337e-03, 2.75481880e-01, 6.16142489e-02, 0., 0.,
          1.31375834e-01, 3.92090678e-02, 0., 0., 3.05525213e-03,
          6.61971280e-03, 0., 0., 0., 0., 0., 0., 6.77247569e-02,
          6.11050427e-02, 0., 0., 0., 2.54604337e-03, 0., 0., 0., 0., 0.,
          0., 0., 0., 0., 0., 5.44853285e-02, 6.72155470e-02, 0., 0., 0.,
          0., 0., 0., 0., 0., 0., 0., 0., 0., 0., 3.05525213e-03,
          6.64008141e-01, 6.05958328e-02, 0., 0., 3.51353996e-02,
          5.09208674e-03, 0., 0., 0., 0., 0., 0., 0., 0., 0.,
          1.73130948e-02, 5.47399342e-01, 2.18959730e-02, 0., 0., 0., 0.,
          0., 0., 0., 0., 0., 0., 0., 0., 0., 8.14733841e-03,
          3.72740746e-01, 3.56446067e-03, 0., 0., 1.88407209e-02, 0., 0.,
          0., 0., 0., 0., 0., 0., 0., 0., 0., 0., 0., 0., 0., 0., 0., 0.,
          0., 0., 0., 0., 0., 0., 0., 0., 0., 0., 0., 0., 0., 0., 0., 0.,
          0., 0., 0., 0., 0., 0., 0. ]
      - [ 0., 4.92743333e-04, 7.53404558e-01, 9.11575183e-02, 0., 0.,
          5.04569173e-01, 9.06647742e-02, 0., 0., 8.08099061e-02,
          1.20229378e-01, 0., 0., 0., 4.92743333e-04, 0., 4.92743333e-04,
          2.51299106e-02, 3.99122126e-02, 0., 0., 0., 0., 0., 0., 0., 0.,
          0., 0., 0., 0., 0., 0., 5.56799993e-02, 4.33614142e-02, 0., 0.,
          0., 0., 0., 0., 0., 0., 0., 0., 0., 0., 0., 0., 6.75058365e-02,
          2.71008834e-02, 0., 0., 0., 0., 0., 0., 0., 0., 0., 0., 0., 0.,
          0., 0., 1.46837518e-01, 1.03476103e-02, 0., 0., 0., 0., 0., 0.,
          0., 0., 0., 0., 0., 0., 0., 9.85486666e-04, 3.22254151e-01,
          1.52750434e-02, 0., 0., 4.43469025e-02, 7.88389333e-03, 0., 0.,
          0., 0., 0., 0., 0., 0., 0., 0., 0., 0., 0., 0., 0., 0., 0., 0.,
          0., 0., 0., 0., 0., 0., 0., 0., 0., 0., 0., 0., 0., 0., 0., 0.,
          0., 0., 0., 0., 0., 0. ]
      - [ 0., 6.63486049e-02, 3.17718118e-01, 6.25726655e-02, 0.,
          4.63900790e-02, 2.52448350e-01, 8.73859674e-02, 0.,
          1.07883906e-03, 2.69709770e-02, 4.20747250e-02, 0., 0., 0., 0.,
          0., 5.39419532e-04, 4.31535617e-02, 2.69709770e-02, 0., 0., 0.,
          3.23651731e-03, 0., 0., 0., 0., 0., 0., 0., 0., 0.,
          1.07883906e-03, 6.14938289e-02, 3.07469144e-02, 0., 0., 0., 0.,
          0., 0., 0., 0., 0., 0., 0., 0., 0., 1.13278106e-02,
          8.28548431e-01, 7.60581568e-02, 0., 5.39419532e-04,
          6.79668635e-02, 1.02489712e-02, 0., 0., 0., 0., 0., 0., 0., 0.,
          0., 4.90871780e-02, 2.20622584e-01, 1.34854885e-02, 0.,
          1.61825866e-03, 0., 0., 0., 0., 0., 0., 0., 0., 0., 0., 0.,
          7.17427954e-02, 2.31410980e-01, 7.01245386e-03, 0.,
          7.01245386e-03, 1.40249077e-02, 0., 0., 0., 0., 0., 0., 0., 0.,
          0., 0., 0., 0., 0., 0., 0., 0., 0., 0., 0., 0., 0., 0., 0., 0.,
          0., 0., 0., 0., 0., 0., 0., 0., 0., 0., 0., 0., 0., 0., 0., 0.,
          0. ]
      - [ 0., 0., 2.96624124e-01, 2.48378024e-01, 0., 0., 3.93711925e-01,
          6.56980753e-01, 0., 0., 1.07809171e-01, 4.08602715e-01, 0., 0.,
          1.19126157e-03, 1.32825658e-01, 0., 5.95630787e-04,
          3.27596925e-02, 5.00329845e-02, 0., 0., 0., 2.38252315e-03, 0.,
          0., 0., 0., 0., 0., 0., 0., 0., 0., 3.15684304e-02,
          8.81533548e-02, 0., 0., 0., 0., 0., 0., 0., 0., 0., 0., 0., 0.,
          0., 0., 6.43281192e-02, 1.76306710e-01, 0., 0., 1.19126157e-03,
          7.74319982e-03, 0., 0., 0., 0., 0., 0., 0., 0., 0., 0.,
          5.47980294e-02, 2.32295990e-02, 0., 0., 0., 0., 0., 0., 0., 0.,
          0., 0., 0., 0., 0., 0., 1.20317414e-01, 3.99072617e-02, 0., 0.,
          8.93446151e-03, 1.19126150e-02, 0., 0., 0., 0., 0., 0., 0., 0.,
          0., 0., 0., 0., 0., 0., 0., 0., 0., 0., 0., 0., 0., 0., 0., 0.,
          0., 0., 0., 0., 0., 0., 0., 0., 0., 0., 0., 0., 0., 0., 0., 0. ]
      - [ 0., 1.25361327e-02, 1.58630297e-01, 3.27868089e-02, 0.,
          1.35004502e-02, 2.69526839e-01, 3.37511264e-02, 0., 0.,
          1.15718143e-02, 1.78398807e-02, 0., 0., 0., 9.64317878e-04, 0.,
          4.82158939e-04, 1.92863576e-03, 5.78590715e-03, 0.,
          9.64317878e-04, 9.64317878e-04, 0., 0., 0., 0., 0., 0., 0., 0.,
          0., 0., 0., 9.16101970e-03, 0., 0., 0., 0., 0., 0., 0., 0., 0.,
          0., 0., 0., 0., 0., 4.33943048e-03, 1.25843480e-01,
          1.44647679e-03, 0., 0., 1.39826089e-02, 0., 0., 0., 0., 0., 0.,
          0., 0., 0., 0., 4.53229398e-02, 5.49179018e-01, 9.64317878e-04,
          0., 1.44647679e-03, 1.59112457e-02, 0., 0., 0., 0., 0., 0., 0.,
          0., 0., 0., 4.14656699e-02, 6.96719646e-01, 3.37511254e-03, 0.,
          2.36257873e-02, 3.02313656e-01, 0., 0., 0., 0., 0., 0., 0., 0.,
          0., 0., 0., 0., 0., 0., 0., 0., 0., 0., 0., 0., 0., 0., 0., 0.,
          0., 0., 0., 0., 0., 0., 0., 0., 0., 0., 0., 0., 0., 0., 0., 0.,
          0. ]
      - [ 0., 1.05273770e-03, 3.52667123e-01, 7.94816986e-02, 0.,
          2.10547540e-03, 3.43192488e-01, 5.36896214e-02, 0., 0.,
          5.05314097e-02, 3.10557615e-02, 0., 0., 0., 0., 0.,
          1.57910655e-03, 8.94827023e-03, 8.94827023e-03, 0., 0., 0., 0.,
          0., 0., 0., 0., 0., 0., 0., 0., 0., 0., 5.00050411e-02,
          7.15861619e-02, 0., 0., 3.15821311e-03, 1.05273770e-03, 0., 0.,
          0., 0., 0., 0., 0., 0., 0., 1.10537456e-02, 2.84239173e-01,
          6.15851544e-02, 0., 2.63184425e-03, 6.31642621e-03,
          5.26368851e-04, 0., 0., 0., 0., 0., 0., 0., 0., 0.,
          1.63174346e-02, 2.50025213e-01, 1.36855897e-02, 0.,
          5.26368851e-04, 2.63184425e-03, 0., 0., 0., 0., 0., 0., 0., 0.,
          0., 0., 2.63184425e-03, 7.61129379e-01, 4.63204570e-02, 0.,
          1.05273770e-03, 9.00090709e-02, 2.10547540e-03, 0., 0.,
          4.21095081e-03, 0., 0., 0., 0., 0., 0., 0., 0., 0., 0., 0., 0.,
          0., 0., 0., 0., 0., 0., 0., 0., 0., 0., 0., 0., 0., 0., 0., 0.,
          0., 0., 0., 0., 0., 0., 0., 0., 0. ]
      - [ 0., 1.62631795e-02, 2.73763537e-01, 1.23058058e-01,
          1.62631797e-03, 3.09000406e-02, 7.59490490e-01, 2.99242496e-01,
          5.42105990e-04, 1.73473917e-02, 4.22300577e-01, 4.82474342e-02,
          0., 0., 4.28263731e-02, 5.42105990e-04, 0., 2.71053007e-03,
          2.76474059e-02, 3.68632078e-02, 0., 5.42105990e-04,
          3.25263594e-03, 0., 0., 0., 0., 0., 0., 0., 0., 0., 0., 0.,
          9.21580195e-03, 7.26421997e-02, 0., 0., 0., 0., 0., 0., 0., 0.,
          0., 0., 0., 0., 0., 5.42105990e-04, 3.09000406e-02,
          5.90895526e-02, 0., 0., 1.08421198e-03, 0., 0., 0., 0., 0., 0.,
          0., 0., 0., 0., 3.25263594e-03, 6.34263977e-02, 2.06000283e-02,
          0., 0., 0., 0., 0., 0., 0., 0., 0., 0., 0., 0., 0.,
          4.33684792e-03, 1.90279201e-01, 4.06579487e-02, 0.,
          3.25263594e-03, 7.10158870e-02, 1.24684377e-02, 0., 0.,
          4.33684792e-03, 0., 0., 0., 0., 0., 0., 0., 0., 0., 0., 0., 0.,
          0., 0., 0., 0., 0., 0., 0., 0., 0., 0., 0., 0., 0., 0., 0., 0.,
          0., 0., 0., 0., 0., 0., 0., 0., 0. ]
      - [ 0., 3.51631008e-02, 1.26039177e-01, 1.59832276e-02, 0.,
          1.55265648e-02, 3.47064398e-02, 5.47996396e-03, 0., 0., 0., 0.,
          0., 0., 0., 0., 0., 1.23299193e-02, 4.65796925e-02,
          2.37465110e-02, 0., 0., 0., 0., 0., 0., 0., 0., 0., 0., 0., 0.,
          0., 9.13327374e-03, 5.20596579e-02, 4.56663668e-02, 0., 0., 0.,
          0., 0., 0., 0., 0., 0., 0., 0., 0., 0., 2.96831392e-02,
          8.81817520e-01, 6.94128796e-02, 0., 0., 3.62134278e-01,
          9.77260247e-02, 0., 0., 0., 0., 0., 0., 0., 0., 0.,
          5.52563034e-02, 1.97278708e-01, 5.93662774e-03, 0., 0., 0., 0.,
          0., 0., 0., 0., 0., 0., 0., 0., 0., 3.47064398e-02,
          7.85461515e-02, 2.73998198e-03, 0., 0., 0., 0., 0., 0., 0., 0.,
          0., 0., 0., 0., 0., 0., 0., 0., 0., 0., 0., 0., 0., 0., 0., 0.,
          0., 0., 0., 0., 0., 0., 0., 0., 0., 0., 0., 0., 0., 0., 0., 0.,
          0., 0., 0., 0. ]
      - [ 0., 2.02380456e-02, 1.07218578e-01, 3.78925093e-02, 0.,
          8.18133727e-03, 5.68387657e-02, 6.88954722e-03, 0.,
          8.61193403e-04, 2.32522227e-02, 0., 0., 0., 0., 0., 0.,
          2.15298356e-03, 1.46402884e-02, 6.45895069e-03, 0., 0., 0., 0.,
          0., 0., 0., 0., 0., 0., 0., 0., 0., 4.73656366e-03,
          3.27253491e-02, 6.45895069e-03, 0., 0., 0., 0., 0., 0., 0., 0.,
          0., 0., 0., 0., 0., 2.84193829e-02, 9.10281479e-01,
          7.87991956e-02, 0., 8.61193403e-04, 2.26493865e-01,
          6.54506981e-02, 0., 0., 0., 0., 0., 0., 0., 0., 0.,
          2.58358028e-02, 2.73859501e-01, 6.02835417e-03, 0., 0.,
          1.72238681e-03, 0., 0., 0., 0., 0., 0., 0., 0., 0., 0.,
          1.20567083e-02, 1.16261110e-01, 5.59775718e-03, 0.,
          2.15298356e-03, 2.75581889e-02, 0., 0., 0., 0., 0., 0., 0., 0.,
          0., 0., 0., 0., 0., 0., 0., 0., 0., 0., 0., 0., 0., 0., 0., 0.,
          0., 0., 0., 0., 0., 0., 0., 0., 0., 0., 0., 0., 0., 0., 0., 0.,
          0. ]
      - [ 0., 1.17670661e-02, 1.37623504e-01, 6.75327256e-02, 0.,
          2.50689667e-02, 3.07478547e-01, 1.07438425e-02, 0.,
          2.04644632e-03, 3.88824791e-02, 3.06966924e-03, 0., 0., 0., 0.,
          0., 1.02322316e-03, 2.55805789e-03, 3.58128082e-03, 0., 0., 0.,
          0., 0., 0., 0., 0., 0., 0., 0., 0., 0., 5.11611579e-04,
          1.58599578e-02, 6.65095029e-03, 0., 0., 0., 0., 0., 0., 0., 0.,
          0., 0., 0., 0., 0., 5.11611579e-04, 1.34042233e-01,
          4.39985953e-02, 0., 0., 3.06966924e-03, 0., 0., 0., 0., 0., 0.,
          0., 0., 0., 0., 2.40457430e-02, 3.97522181e-01, 4.09289263e-03,
          0., 1.02322316e-03, 8.69739614e-03, 0., 0., 0., 0., 0., 0., 0.,
          0., 0., 0., 5.78121059e-02, 5.45377910e-01, 6.65095029e-03, 0.,
          5.01379333e-02, 6.30305469e-01, 0., 0., 0., 1.02322316e-03, 0.,
          0., 0., 0., 0., 0., 0., 0., 0., 0., 0., 0., 0., 0., 0., 0., 0.,
          0., 0., 0., 0., 0., 0., 0., 0., 0., 0., 0., 0., 0., 0., 0., 0.,
          0., 0., 0., 0. ]
      - [ 0., 2.87363771e-02, 8.45432580e-02, 1.62423011e-02, 0.,
          6.66350778e-03, 7.78797492e-02, 2.33222768e-02, 0., 0.,
          2.08234624e-03, 1.08282007e-02, 0., 0., 0., 0., 0.,
          4.16469248e-03, 2.37387475e-02, 5.41410036e-03, 0., 0., 0., 0.,
          0., 0., 0., 0., 0., 0., 0., 0., 0., 7.91291520e-03,
          6.70515448e-02, 5.24751246e-02, 0., 0., 0., 0., 0., 0., 0., 0.,
          0., 0., 0., 0., 0., 4.99763079e-02, 9.43719327e-01,
          1.39933661e-01, 0., 8.32938473e-04, 2.24060446e-01,
          6.28868565e-02, 0., 0., 0., 0., 0., 0., 0., 0., 0.,
          6.95503652e-02, 5.49739413e-02, 7.07997708e-03, 0., 0., 0., 0.,
          0., 0., 0., 0., 0., 0., 0., 0., 0., 3.95645797e-02,
          2.58210935e-02, 1.66587695e-03, 0., 8.32938473e-04,
          8.74585379e-03, 0., 0., 0., 0., 0., 0., 0., 0., 0., 0., 0., 0.,
          0., 0., 0., 0., 0., 0., 0., 0., 0., 0., 0., 0., 0., 0., 0., 0.,
          0., 0., 0., 0., 0., 0., 0., 0., 0., 0., 0., 0., 0. ]
      - [ 0., 3.74179729e-03, 5.92451245e-02, 9.91576314e-02, 0.,
          8.10722727e-03, 9.63512838e-01, 8.85558724e-02, 0.,
          2.49453168e-03, 2.19518781e-01, 3.96006890e-02, 0., 0.,
          4.36543021e-03, 0., 0., 0., 3.11816460e-03, 9.35449323e-04, 0.,
          0., 0., 0., 0., 0., 0., 0., 0., 0., 0., 0., 0., 0.,
          1.87089865e-03, 1.24726584e-03, 0., 0., 0., 0., 0., 0., 0., 0.,
          0., 0., 0., 0., 0., 0., 1.24726584e-03, 2.49453168e-03, 0., 0.,
          3.11816460e-04, 0., 0., 0., 0., 0., 0., 0., 0., 0., 0.,
          3.11816460e-04, 7.48359459e-03, 4.98906337e-03, 0., 0.,
          3.11816460e-04, 0., 0., 0., 0., 0., 0., 0., 0., 0., 0.,
          6.23632921e-04, 1.34081077e-02, 6.23632921e-03, 0.,
          3.11816460e-04, 1.65262725e-02, 0., 0., 0., 0., 0., 0., 0., 0.,
          0., 0., 0., 0., 0., 0., 0., 0., 0., 0., 0., 0., 0., 0., 0., 0.,
          0., 0., 0., 0., 0., 0., 0., 0., 0., 0., 0., 0., 0., 0., 0., 0.,
          0. ]
      - [ 0., 6.59443885e-02, 2.70427406e-01, 1.66246351e-02, 0.,
          1.77329443e-02, 2.48261213e-01, 5.54154487e-03, 0., 0.,
          4.04532775e-02, 0., 0., 0., 0., 0., 0., 4.43323608e-03,
          3.87908146e-02, 7.20400829e-03, 0., 0., 0., 0., 0., 0., 0., 0.,
          0., 0., 0., 0., 0., 5.54154511e-04, 1.03626892e-01,
          6.59443885e-02, 0., 0., 1.10830902e-03, 0., 0., 0., 0., 0., 0.,
          0., 0., 0., 0., 1.88412536e-02, 6.96572185e-01, 8.86647180e-02,
          0., 0., 1.82870980e-02, 1.66246353e-03, 0., 0., 0., 0., 0., 0.,
          0., 0., 0., 6.15111478e-02, 4.42215294e-01, 1.32997083e-02, 0.,
          2.21661804e-03, 1.10830902e-03, 0., 0., 0., 0., 0., 0., 0., 0.,
          0., 0., 8.64481032e-02, 3.71283501e-01, 3.87908146e-03, 0.,
          3.87908146e-03, 5.76320663e-02, 0., 0., 0., 0., 0., 0., 0., 0.,
          0., 0., 0., 0., 0., 0., 0., 0., 0., 0., 0., 0., 0., 0., 0., 0.,
          0., 0., 0., 0., 0., 0., 0., 0., 0., 0., 0., 0., 0., 0., 0., 0.,
          0. ]
      - [ 0., 4.04680427e-03, 6.65474460e-02, 1.37591347e-01, 0.,
          9.89218801e-03, 5.24735630e-01, 7.76536763e-01, 0.,
          8.09360854e-03, 1.42987087e-01, 2.63042271e-01, 0.,
          8.99289851e-04, 1.79857970e-03, 3.14751454e-03, 0.,
          4.49644926e-04, 6.29502907e-03, 4.27162685e-02, 0., 0., 0., 0.,
          0., 0., 0., 0., 0., 0., 0., 0., 0., 0., 7.19431881e-03,
          2.56297607e-02, 0., 0., 0., 0., 0., 0., 0., 0., 0., 0., 0., 0.,
          0., 2.69786967e-03, 1.03418333e-02, 1.57375727e-02, 0., 0.,
          4.49644926e-04, 8.99289851e-04, 0., 0., 0., 0., 0., 0., 0., 0.,
          0., 6.74467394e-03, 7.19431881e-03, 2.15829574e-02, 0.,
          8.99289851e-04, 4.04680427e-03, 0., 0., 0., 0., 0., 0., 0., 0.,
          0., 0., 2.24822457e-03, 2.02340223e-02, 3.50723043e-02, 0.,
          3.59715940e-03, 3.91191095e-02, 4.18169796e-02, 0.,
          4.49644926e-04, 0., 0., 0., 0., 0., 0., 0., 0., 0., 0., 0., 0.,
          0., 0., 0., 0., 0., 0., 0., 0., 0., 0., 0., 0., 0., 0., 0., 0.,
          0., 0., 0., 0., 0., 0., 0., 0., 0., 0. ]
      - [ 0., 6.01512799e-03, 2.23653391e-01, 6.99942186e-02, 0., 0.,
          1.42722577e-01, 1.01710342e-01, 0., 0., 1.69517249e-02,
          5.19488305e-02, 0., 0., 0., 0., 0., 0., 1.63502112e-01,
          7.38220215e-02, 0., 0., 5.46829833e-04, 0., 0., 0., 0., 0., 0.,
          0., 0., 0., 0., 5.46829833e-04, 2.90366620e-01, 8.69459435e-02,
          0., 0., 0., 0., 0., 0., 0., 0., 0., 0., 0., 0., 0.,
          1.09365967e-03, 8.17510545e-01, 1.78813353e-01, 0., 0.,
          2.18731933e-03, 1.64048944e-03, 0., 0., 0., 0., 0., 0., 0., 0.,
          0., 5.46829822e-03, 2.61384636e-01, 1.14834262e-02, 0., 0.,
          3.28097902e-02, 0., 0., 0., 0., 0., 0., 0., 0., 0., 0.,
          7.10878754e-03, 1.26864523e-01, 7.10878754e-03, 0., 0.,
          3.49971093e-02, 5.46829833e-04, 0., 0., 0., 0., 0., 0., 0., 0.,
          0., 0., 0., 0., 0., 0., 0., 0., 0., 0., 0., 0., 0., 0., 0., 0.,
          0., 0., 0., 0., 0., 0., 0., 0., 0., 0., 0., 0., 0., 0., 0., 0. ]
      - [ 0., 3.18029150e-02, 5.31443469e-02, 1.08799450e-02, 0.,
          6.69535063e-03, 6.23504519e-02, 1.67383766e-03, 0., 0.,
          5.43997250e-03, 0., 0., 0., 0., 0., 0., 0., 5.02151297e-03,
          3.01290769e-02, 0., 0., 0., 0., 0., 0., 0., 0., 0., 0., 0., 0.,
          0., 1.25537824e-03, 1.21353231e-02, 5.23074269e-02, 0., 0.,
          4.18459415e-04, 0., 0., 0., 0., 0., 0., 0., 0., 0., 0.,
          4.85412925e-02, 8.84204745e-01, 1.33488551e-01, 0.,
          8.36918829e-04, 3.97536457e-01, 5.43997250e-02, 0., 0., 0., 0.,
          0., 0., 0., 0., 0., 6.69535026e-02, 1.38091609e-01,
          1.92491338e-02, 0., 1.67383766e-03, 9.62456688e-03, 0., 0., 0.,
          0., 0., 0., 0., 0., 0., 0., 1.42276203e-02, 3.22213732e-02,
          2.09229696e-03, 0., 0., 3.34767532e-03, 0., 0., 0., 0., 0., 0.,
          0., 0., 0., 0., 0., 0., 0., 0., 0., 0., 0., 0., 0., 0., 0., 0.,
          0., 0., 0., 0., 0., 0., 0., 0., 0., 0., 0., 0., 0., 0., 0., 0.,
          0., 0., 0. ]
      - [ 0., 5.87627292e-03, 7.01413333e-01, 2.08340585e-01,
          5.34206629e-04, 1.70946121e-02, 5.34206629e-01, 1.57056749e-01,
          0., 5.34206629e-04, 9.66913998e-02, 7.95967877e-02, 0., 0., 0.,
          0., 5.34206629e-04, 3.20523977e-03, 4.48733568e-02,
          5.12838364e-02, 0., 0., 0., 0., 0., 0., 0., 0., 0., 0., 0., 0.,
          0., 2.13682652e-03, 2.61761248e-02, 6.73100352e-02, 0., 0., 0.,
          5.34206629e-04, 0., 0., 0., 0., 0., 0., 0., 0., 0.,
          1.60261989e-03, 7.26521015e-02, 2.72445381e-02, 0., 0.,
          1.06841326e-03, 5.34206629e-04, 0., 0., 0., 0., 0., 0., 0., 0.,
          0., 0., 1.16991252e-01, 1.01499259e-02, 0., 0., 0., 0., 0., 0.,
          0., 0., 0., 0., 0., 0., 0., 2.13682652e-03, 3.26934457e-01,
          3.89970839e-02, 0., 5.34206629e-04, 2.13682652e-02, 0., 0., 0.,
          0., 0., 0., 0., 0., 0., 0., 0., 0., 0., 0., 0., 0., 0., 0., 0.,
          0., 0., 0., 0., 0., 0., 0., 0., 0., 0., 0., 0., 0., 0., 0., 0.,
          0., 0., 0., 0., 0., 0. ]
      - [ 0., 4.33674036e-03, 1.73108220e-01, 1.15285017e-01, 0.,
          1.04804561e-02, 9.57696855e-01, 1.34077564e-01, 0.,
          2.52976525e-03, 1.02997586e-01, 4.48129848e-02, 0., 0., 0., 0.,
          0., 0., 1.19260363e-02, 3.36097367e-02, 0., 0., 0., 0., 0., 0.,
          0., 0., 0., 0., 0., 0., 0., 0., 1.44558016e-03, 1.69855673e-02,
          0., 0., 0., 0., 0., 0., 0., 0., 0., 0., 0., 0., 0.,
          1.08418509e-03, 5.78232063e-03, 8.31208564e-03, 0., 0., 0., 0.,
          0., 0., 0., 0., 0., 0., 0., 0., 0., 2.52976525e-03,
          9.39627085e-03, 1.69855673e-02, 0., 7.22790079e-04,
          3.61395039e-04, 0., 0., 0., 0., 0., 0., 0., 0., 0., 0.,
          6.50511077e-03, 6.61352947e-02, 2.74660233e-02, 0.,
          1.08418509e-03, 4.01148498e-02, 3.61395039e-04, 0., 0., 0., 0.,
          0., 0., 0., 0., 0., 0., 0., 0., 0., 0., 0., 0., 0., 0., 0., 0.,
          0., 0., 0., 0., 0., 0., 0., 0., 0., 0., 0., 0., 0., 0., 0., 0.,
          0., 0., 0., 0. ]
      - [ 0., 4.73078080e-02, 4.15087849e-01, 1.47518972e-02, 0.,
          7.12160533e-03, 9.51243043e-02, 1.52605830e-03, 0., 0., 0., 0.,
          0., 0., 0., 0., 0., 2.54343054e-03, 3.76427732e-02,
          3.00124791e-02, 0., 1.01737224e-03, 5.08686120e-04, 0., 0., 0.,
          0., 0., 0., 0., 0., 0., 0., 0., 3.00124791e-02, 1.57692693e-02,
          0., 0., 0., 0., 0., 0., 0., 0., 0., 0., 0., 0., 0., 0.,
          6.21614397e-01, 1.62779555e-01, 0., 0., 8.64766352e-03,
          4.62904349e-02, 0., 0., 0., 0., 0., 0., 0., 0., 0.,
          1.88213866e-02, 4.90373403e-01, 9.15635005e-03, 0., 0., 0., 0.,
          0., 0., 0., 0., 0., 0., 0., 0., 0., 4.32383195e-02,
          3.92196983e-01, 1.01737224e-03, 0., 5.08686109e-03,
          3.05211656e-02, 0., 0., 0., 0., 0., 0., 0., 0., 0., 0., 0., 0.,
          0., 0., 0., 0., 0., 0., 0., 0., 0., 0., 0., 0., 0., 0., 0., 0.,
          0., 0., 0., 0., 0., 0., 0., 0., 0., 0., 0., 0., 0. ]
      - [ 0., 3.24807353e-02, 8.54287818e-02, 3.20357941e-02, 0.,
          2.22470798e-03, 6.58513531e-02, 2.13571955e-02, 0., 0.,
          4.89435717e-03, 1.06785977e-02, 0., 0., 0., 0., 0.,
          2.22470798e-03, 1.95774287e-02, 9.78871435e-03, 0.,
          4.44941572e-04, 4.44941572e-04, 0., 0., 0., 0., 0., 0., 0., 0.,
          0., 0., 4.44941572e-04, 3.15908529e-02, 3.29256766e-02, 0., 0.,
          0., 0., 0., 0., 0., 0., 0., 0., 0., 0., 0., 1.37931891e-02,
          6.72751665e-01, 9.34377313e-03, 0., 0., 1.73527207e-02, 0., 0.,
          0., 0., 0., 0., 0., 0., 0., 0., 1.04561269e-01, 6.63852811e-01,
          0., 0., 0., 1.24583645e-02, 0., 0., 0., 0., 0., 0., 0., 0., 0.,
          0., 4.84986305e-02, 2.73194134e-01, 0., 0., 1.06785977e-02,
          3.24807353e-02, 0., 0., 0., 0., 0., 0., 0., 0., 0., 0., 0., 0.,
          0., 0., 0., 0., 0., 0., 0., 0., 0., 0., 0., 0., 0., 0., 0., 0.,
          0., 0., 0., 0., 0., 0., 0., 0., 0., 0., 0., 0., 0. ]
      - [ 0., 6.72153942e-03, 4.24417198e-01, 4.27297875e-02, 0.,
          1.34430788e-02, 7.80178666e-01, 6.00137450e-02, 0.,
          1.92043977e-03, 6.38546273e-02, 4.80109965e-03, 0., 0., 0., 0.,
          0., 3.36076971e-03, 4.08093445e-02, 1.34430788e-02, 0., 0.,
          2.40054983e-03, 0., 0., 0., 0., 0., 0., 0., 0., 0., 0.,
          4.80109942e-04, 7.48971552e-02, 2.59259380e-02, 0., 0., 0., 0.,
          0., 0., 0., 0., 0., 0., 0., 0., 0., 0., 2.57338941e-01,
          1.29629690e-02, 0., 0., 0., 0., 0., 0., 0., 0., 0., 0., 0., 0.,
          0., 0., 1.37311444e-01, 4.80109942e-04, 0., 0., 0., 0., 0., 0.,
          0., 0., 0., 0., 0., 0., 0., 6.24142960e-03, 3.15432250e-01,
          1.44032983e-03, 0., 9.60219884e-04, 9.21811089e-02, 0., 0., 0.,
          2.40054983e-03, 0., 0., 0., 0., 0., 0., 0., 0., 0., 0., 0., 0.,
          0., 0., 0., 0., 0., 0., 0., 0., 0., 0., 0., 0., 0., 0., 0., 0.,
          0., 0., 0., 0., 0., 0., 0., 0., 0. ]
      - [ 0., 7.93748349e-02, 2.16369912e-01, 2.58703157e-02, 0.,
          5.93841337e-02, 1.93439409e-01, 1.99906975e-02, 0.,
          2.93980865e-03, 1.29351579e-02, 2.93980865e-03, 0., 0., 0., 0.,
          5.87961695e-04, 1.76388510e-02, 4.05693576e-02, 1.52870044e-02,
          0., 0., 0., 0., 0., 0., 0., 0., 0., 0., 0., 0., 0.,
          1.52870044e-02, 4.23332416e-02, 5.29165519e-03, 0., 0., 0., 0.,
          0., 0., 0., 0., 0., 0., 0., 0., 0., 3.29258554e-02,
          4.28624094e-01, 1.29351579e-02, 0., 0., 1.58749670e-02, 0., 0.,
          0., 0., 0., 0., 0., 0., 0., 0., 1.55809850e-01, 7.13785529e-01,
          1.35231195e-02, 0., 8.81942548e-03, 3.64536270e-02, 0., 0., 0.,
          0., 0., 0., 0., 0., 0., 0., 2.11666211e-01, 3.35726142e-01,
          1.29351579e-02, 0., 5.40924780e-02, 1.38758957e-01, 0., 0., 0.,
          0., 0., 0., 0., 0., 0., 0., 0., 0., 0., 0., 0., 0., 0., 0., 0.,
          0., 0., 0., 0., 0., 0., 0., 0., 0., 0., 0., 0., 0., 0., 0., 0.,
          0., 0., 0., 0., 0., 0. ]
      - [ 0., 1.97626539e-02, 2.62635261e-01, 7.85305426e-02, 0.,
          1.30017456e-02, 1.74743459e-01, 3.48446779e-02, 0.,
          5.20069851e-04, 2.60034911e-02, 1.35218157e-02, 0., 0., 0., 0.,
          0., 0., 1.16495639e-01, 6.24083802e-02, 0., 0., 0., 0., 0., 0.,
          0., 0., 0., 0., 0., 0., 0., 1.04013970e-03, 2.11668417e-01,
          4.47260067e-02, 0., 0., 0., 0., 0., 0., 0., 0., 0., 0., 0., 0.,
          0., 1.04013961e-02, 8.33151877e-01, 5.87678887e-02, 0., 0., 0.,
          0., 0., 0., 0., 0., 0., 0., 0., 0., 0., 2.34031416e-02,
          3.08921486e-01, 2.08027922e-02, 0., 5.20069851e-04,
          1.04013970e-03, 0., 0., 0., 0., 0., 0., 0., 0., 0., 0.,
          2.34031416e-02, 1.79944158e-01, 2.60034902e-03, 0.,
          8.32111761e-03, 1.71623044e-02, 0., 0., 0., 0., 0., 0., 0., 0.,
          0., 0., 0., 0., 0., 0., 0., 0., 0., 0., 0., 0., 0., 0., 0., 0.,
          0., 0., 0., 0., 0., 0., 0., 0., 0., 0., 0., 0., 0., 0., 0., 0.,
          0. ]
      - [ 0., 5.34378691e-03, 1.27839833e-01, 1.76756028e-02, 0.,
          1.23318157e-03, 6.98802918e-02, 3.28848436e-02, 0., 0.,
          8.22121103e-04, 3.53512056e-02, 0., 0., 0., 0., 0., 0.,
          2.50746924e-02, 8.22121103e-04, 0., 0., 0., 0., 0., 0., 0., 0.,
          0., 0., 0., 0., 0., 8.22121103e-04, 6.53586239e-02,
          5.63152954e-02, 0., 0., 4.11060551e-04, 0., 0., 0., 0., 0., 0.,
          0., 0., 0., 0., 1.19207557e-02, 9.38451231e-01, 9.00222585e-02,
          0., 0., 9.53660458e-02, 1.89087857e-02, 0., 0., 0., 0., 0., 0.,
          0., 0., 0., 1.23318164e-02, 2.30193898e-01, 9.45439283e-03, 0.,
          8.22121103e-04, 5.75484755e-03, 0., 0., 0., 0., 0., 0., 0., 0.,
          0., 0., 1.43871186e-02, 1.26195580e-01, 5.75484755e-03, 0.,
          4.11060551e-04, 1.43871186e-02, 0., 0., 0., 0., 0., 0., 0., 0.,
          0., 0., 0., 0., 0., 0., 0., 0., 0., 0., 0., 0., 0., 0., 0., 0.,
          0., 0., 0., 0., 0., 0., 0., 0., 0., 0., 0., 0., 0., 0., 0., 0.,
          0. ]
      - [ 0., 3.58814397e-03, 5.77691197e-01, 1.48459449e-01, 0.,
          1.03159137e-02, 7.62480617e-01, 8.61154571e-02, 0.,
          1.79407198e-03, 9.28432271e-02, 2.91536693e-02, 0., 0., 0., 0.,
          0., 0., 9.86739621e-03, 3.85725461e-02, 0., 0., 0., 0., 0., 0.,
          0., 0., 0., 0., 0., 0., 0., 0., 8.07332434e-03, 3.54329199e-02,
          0., 0., 0., 0., 0., 0., 0., 0., 0., 0., 0., 0., 0.,
          8.97035992e-04, 2.19773818e-02, 1.65951662e-02, 0., 0., 0., 0.,
          0., 0., 0., 0., 0., 0., 0., 0., 0., 1.34555402e-03,
          5.69617860e-02, 1.43525759e-02, 0., 0., 0., 0., 0., 0., 0., 0.,
          0., 0., 0., 0., 0., 4.48518014e-03, 1.88377559e-01,
          3.09477411e-02, 0., 1.34555402e-03, 4.66458723e-02,
          9.41887777e-03, 0., 0., 0., 0., 0., 0., 0., 0., 0., 0., 0., 0.,
          0., 0., 0., 0., 0., 0., 0., 0., 0., 0., 0., 0., 0., 0., 0., 0.,
          0., 0., 0., 0., 0., 0., 0., 0., 0., 0., 0., 0. ]
      - [ 0., 1.99829545e-02, 4.02434498e-01, 7.16055855e-02, 0.,
          2.94193495e-02, 7.56576836e-01, 8.88131279e-03, 0.,
          9.43639502e-03, 1.19342647e-01, 5.55082050e-04, 0., 0., 0., 0.,
          0., 7.21606705e-03, 1.77626256e-02, 8.32623150e-03, 0., 0., 0.,
          0., 0., 0., 0., 0., 0., 0., 0., 0., 0., 4.44065640e-03,
          5.99488653e-02, 8.32623150e-03, 0., 0., 0., 0., 0., 0., 0., 0.,
          0., 0., 0., 0., 0., 1.66524621e-03, 3.00854474e-01,
          4.66268957e-02, 0., 0., 1.32664621e-01, 7.16055855e-02, 0., 0.,
          0., 2.60888580e-02, 0., 0., 0., 0., 0., 9.99147724e-03,
          1.21007890e-01, 2.22032820e-03, 0., 0., 0., 0., 0., 0., 0., 0.,
          0., 0., 0., 0., 0., 1.72075443e-02, 2.99744308e-01,
          1.16567239e-02, 0., 1.33219697e-02, 1.39325604e-01,
          5.55082050e-04, 0., 0., 1.11016410e-03, 0., 0., 0., 0., 0., 0.,
          0., 0., 0., 0., 0., 0., 0., 0., 0., 0., 0., 0., 0., 0., 0., 0.,
          0., 0., 0., 0., 0., 0., 0., 0., 0., 0., 0., 0., 0., 0., 0. ]
      - [ 0., 6.75264513e-03, 1.81421056e-01, 3.51137519e-02, 0.,
          2.74607558e-02, 7.97712445e-01, 1.08042322e-02, 0.,
          2.61102263e-02, 3.21425885e-01, 2.70105805e-03, 0.,
          1.35052903e-03, 1.75568759e-02, 0., 0., 1.80070533e-03,
          1.98077578e-02, 8.55335034e-03, 0., 0., 1.80070533e-03, 0., 0.,
          0., 0., 0., 0., 0., 0., 0., 0., 4.50176332e-04, 2.20586397e-02,
          1.35052903e-02, 0., 0., 9.00352665e-04, 0., 0., 0., 0., 0., 0.,
          0., 0., 0., 0., 0., 2.16084644e-02, 4.05158708e-03, 0., 0., 0.,
          0., 0., 0., 0., 0., 0., 0., 0., 0., 0., 4.50176332e-04,
          1.30551131e-02, 1.80070533e-03, 0., 0., 4.50176332e-04, 0., 0.,
          0., 0., 0., 0., 0., 0., 0., 0., 4.95193945e-03, 2.83611089e-01,
          6.75264513e-03, 0., 1.44056426e-02, 3.76347423e-01,
          1.35052903e-03, 0., 0., 1.12544084e-02, 0., 0., 0., 0., 0., 0.,
          0., 0., 0., 0., 0., 0., 0., 0., 0., 0., 0., 0., 0., 0., 0., 0.,
          0., 0., 0., 0., 0., 0., 0., 0., 0., 0., 0., 0., 0., 0., 0. ]
      - [ 0., 3.01458091e-02, 1.20583236e-01, 2.59717740e-02, 0.,
          2.82906815e-02, 6.02916181e-02, 1.11307595e-02, 0., 0.,
          4.63781646e-03, 4.63781646e-03, 0., 0., 0., 0., 0.,
          4.63781646e-03, 2.59717740e-02, 0., 0., 0., 1.39134494e-03, 0.,
          0., 0., 0., 0., 0., 0., 0., 0., 0., 2.78268987e-03,
          4.40592580e-02, 9.27563349e-04, 0., 0., 0., 0., 0., 0., 0., 0.,
          0., 0., 0., 0., 0., 1.15945414e-02, 6.85005546e-01,
          6.49294350e-03, 0., 0., 1.04814656e-01, 3.71025340e-03, 0., 0.,
          0., 0., 0., 0., 0., 0., 0., 1.33569121e-01, 6.50685668e-01,
          1.85512670e-03, 0., 0., 1.34496680e-02, 0., 0., 0., 0., 0., 0.,
          0., 0., 0., 0., 4.73057292e-02, 2.24006549e-01, 1.39134494e-03,
          0., 7.42050679e-03, 4.82332930e-02, 0., 0., 0., 0., 0., 0., 0.,
          0., 0., 0., 0., 0., 0., 0., 0., 0., 0., 0., 0., 0., 0., 0., 0.,
          0., 0., 0., 0., 0., 0., 0., 0., 0., 0., 0., 0., 0., 0., 0., 0.,
          0., 0. ]
      - [ 0., 0., 1.67979285e-01, 1.42736495e-01, 0., 1.83583912e-03,
          4.84202594e-01, 7.98131108e-01, 0., 0., 1.06478669e-01,
          2.40035966e-01, 0., 0., 0., 2.29479908e-03, 0., 0.,
          1.00971153e-02, 3.30451056e-02, 0., 0., 0., 0., 0., 0., 0., 0.,
          0., 0., 0., 0., 0., 0., 8.72023590e-03, 6.74670935e-02, 0., 0.,
          0., 2.29479908e-03, 0., 0., 0., 0., 0., 0., 0., 0., 0.,
          2.29479908e-03, 2.06531901e-02, 1.92763116e-02, 0.,
          4.58959781e-04, 9.17919562e-04, 0., 0., 0., 0., 0., 0., 0., 0.,
          0., 0., 4.13063820e-03, 8.72023590e-03, 1.00971153e-02, 0., 0.,
          0., 0., 0., 0., 0., 0., 0., 0., 0., 0., 0., 0., 5.46162166e-02,
          1.74404718e-02, 0., 4.58959781e-04, 2.61607077e-02,
          1.28508741e-02, 0., 0., 1.83583912e-03, 3.67167825e-03, 0., 0.,
          0., 0., 0., 0., 0., 0., 0., 0., 0., 0., 0., 0., 0., 0., 0., 0.,
          0., 0., 0., 0., 0., 0., 0., 0., 0., 0., 0., 0., 0., 0., 0., 0.,
          0., 0. ]
      - [ 0., 4.47212756e-02, 1.45457074e-01, 5.24006858e-02, 0.,
          1.31001715e-02, 4.33660857e-02, 3.43314856e-02, 0., 0.,
          3.16211046e-03, 1.21967113e-02, 0., 0., 0., 0., 0.,
          9.48633160e-03, 1.89726632e-02, 1.35519020e-02, 0., 0., 0., 0.,
          0., 0., 0., 0., 0., 0., 0., 0., 0., 7.67941121e-03,
          1.98761225e-02, 1.40036317e-02, 0., 0., 0., 0., 0., 0., 0., 0.,
          0., 0., 0., 0., 0., 3.16211060e-02, 8.44735205e-01,
          1.21967113e-02, 0., 0., 5.78214489e-02, 4.06557061e-02, 0., 0.,
          0., 0., 0., 0., 0., 0., 0., 9.89288837e-02, 4.59409475e-01,
          9.48633160e-03, 0., 0., 0., 0., 0., 0., 0., 0., 0., 0., 0., 0.,
          0., 7.00181574e-02, 1.53136492e-01, 1.31001715e-02, 0.,
          9.03460104e-03, 1.26484418e-02, 0., 0., 0., 0., 0., 0., 0., 0.,
          0., 0., 0., 0., 0., 0., 0., 0., 0., 0., 0., 0., 0., 0., 0., 0.,
          0., 0., 0., 0., 0., 0., 0., 0., 0., 0., 0., 0., 0., 0., 0., 0.,
          0. ]
      - [ 0., 4.79781665e-02, 3.04580480e-01, 5.49862124e-02, 0.,
          2.42586229e-02, 3.35308075e-01, 3.28839123e-02, 0.,
          5.39080531e-04, 1.67114958e-02, 1.50942542e-02, 0., 0., 0., 0.,
          0., 6.46896614e-03, 2.53367834e-02, 1.07816106e-03, 0., 0., 0.,
          0., 0., 0., 0., 0., 0., 0., 0., 0., 0., 2.15632212e-03,
          2.96494272e-02, 2.15632212e-03, 0., 0., 0., 0., 0., 0., 0., 0.,
          0., 0., 0., 0., 0., 0., 2.65766680e-01, 5.39080531e-04, 0., 0.,
          0., 0., 0., 0., 0., 0., 0., 0., 0., 0., 0., 4.47436832e-02,
          5.08352935e-01, 0., 0., 1.07816106e-03, 7.00804638e-03, 0., 0.,
          0., 0., 0., 0., 0., 0., 0., 0., 8.03229958e-02, 6.31802380e-01,
          5.39080531e-04, 0., 1.94068979e-02, 2.20483929e-01, 0., 0., 0.,
          0., 0., 0., 0., 0., 0., 0., 0., 0., 0., 0., 0., 0., 0., 0., 0.,
          0., 0., 0., 0., 0., 0., 0., 0., 0., 0., 0., 0., 0., 0., 0., 0.,
          0., 0., 0., 0., 0., 0. ]
      - [ 0., 1.99623834e-02, 1.22150771e-01, 2.28141509e-02, 0.,
          2.04376765e-02, 1.39736682e-01, 2.85176886e-03, 0.,
          4.75294830e-04, 3.51718180e-02, 9.50589660e-04, 0., 0., 0., 0.,
          0., 0., 1.37835499e-02, 4.75294830e-04, 0., 0., 0., 0., 0., 0.,
          0., 0., 0., 0., 0., 0., 0., 2.85176886e-03, 2.56659202e-02,
          1.56847294e-02, 0., 0., 0., 0., 0., 0., 0., 0., 0., 0., 0., 0.,
          0., 5.70353772e-03, 2.75671005e-01, 7.74730593e-02, 0., 0.,
          5.70353772e-03, 0., 0., 0., 0., 0., 0., 0., 0., 0., 0.,
          2.70918049e-02, 4.59134787e-01, 1.14070754e-02, 0., 0.,
          1.28329601e-02, 0., 0., 0., 0., 0., 0., 0., 0., 0., 0.,
          2.42400356e-02, 7.84711778e-01, 1.80612039e-02, 0.,
          9.98119172e-03, 2.26240337e-01, 0., 0., 0., 9.50589660e-04, 0.,
          0., 0., 0., 0., 0., 0., 0., 0., 0., 0., 0., 0., 0., 0., 0., 0.,
          0., 0., 0., 0., 0., 0., 0., 0., 0., 0., 0., 0., 0., 0., 0., 0.,
          0., 0., 0., 0. ]
      - [ 0., 8.65044631e-03, 1.94889471e-01, 1.07876152e-01, 0.,
          1.67920422e-02, 7.86681771e-01, 4.52876300e-01, 0.,
          8.14159680e-03, 2.60022223e-01, 9.76991579e-02, 0., 0.,
          4.07079840e-03, 4.57964791e-03, 0., 5.08849800e-04,
          1.01769958e-02, 3.05309873e-02, 0., 0., 0., 0., 0., 0., 0., 0.,
          0., 0., 0., 0., 0., 5.08849800e-04, 1.93362907e-02,
          6.56416193e-02, 0., 0., 0., 0., 0., 0., 0., 0., 0., 0., 0., 0.,
          0., 2.03539920e-03, 3.20575349e-02, 6.25885203e-02, 0.,
          1.01769960e-03, 1.52654934e-03, 0., 0., 0., 0., 0., 0., 0., 0.,
          0., 0., 6.61504688e-03, 5.08849770e-02, 2.34070905e-02, 0.,
          1.01769960e-03, 0., 0., 0., 0., 0., 0., 0., 0., 0., 0., 0.,
          5.59734739e-03, 1.74026623e-01, 2.23893896e-02, 5.08849800e-04,
          6.10619737e-03, 6.36062250e-02, 6.61504688e-03, 0., 0., 0., 0.,
          0., 0., 0., 0., 0., 0., 0., 0., 0., 0., 0., 0., 0., 0., 0., 0.,
          0., 0., 0., 0., 0., 0., 0., 0., 0., 0., 0., 0., 0., 0., 0., 0.,
          0., 0., 0., 0. ]
      - [ 0., 2.00075936e-02, 1.17253803e-01, 1.95422992e-02, 0.,
          2.32646428e-02, 1.61456615e-01, 3.44316699e-02, 0.,
          9.30585724e-04, 6.04880694e-03, 0., 0., 0., 0., 0., 0.,
          3.25704995e-03, 1.11670289e-02, 1.25629073e-02, 0., 0., 0., 0.,
          0., 0., 0., 0., 0., 0., 0., 0., 0., 3.25704995e-03,
          4.97863367e-02, 5.02516292e-02, 0., 0., 1.86117145e-03, 0., 0.,
          0., 0., 0., 0., 0., 0., 0., 0., 4.51334082e-02, 8.96154046e-01,
          1.12135582e-01, 0., 3.25704995e-03, 2.81502187e-01,
          1.07017355e-02, 0., 0., 0., 0., 0., 0., 0., 0., 0.,
          8.00303742e-02, 1.91700652e-01, 1.16323214e-02, 0., 0., 0., 0.,
          0., 0., 0., 0., 0., 0., 0., 0., 0., 4.60639931e-02,
          9.81767923e-02, 2.79175723e-03, 0., 5.11822151e-03,
          1.30281998e-02, 0., 0., 0., 0., 0., 0., 0., 0., 0., 0., 0., 0.,
          0., 0., 0., 0., 0., 0., 0., 0., 0., 0., 0., 0., 0., 0., 0., 0.,
          0., 0., 0., 0., 0., 0., 0., 0., 0., 0., 0., 0., 0. ]
      - [ 0., 2.39086151e-02, 1.21382199e-01, 4.00009528e-02, 0.,
          2.20694914e-02, 1.12186581e-01, 2.29890533e-02, 0., 0.,
          4.59781056e-03, 4.59781062e-04, 0., 0., 0., 0., 0.,
          2.75868643e-03, 2.85064261e-02, 1.10347457e-02, 0., 0., 0., 0.,
          0., 0., 0., 0., 0., 0., 0., 0., 0., 5.05759148e-03,
          3.44835781e-02, 1.74716804e-02, 0., 0., 9.19562124e-04, 0., 0.,
          0., 0., 0., 0., 0., 0., 0., 0., 1.56325568e-02, 7.65995264e-01,
          1.60923377e-02, 0., 0., 2.71270815e-02, 1.37934322e-03, 0., 0.,
          0., 0., 0., 0., 0., 0., 0., 6.25302270e-02, 5.53576410e-01,
          1.14945266e-02, 0., 2.75868643e-03, 7.81627838e-03, 0., 0., 0.,
          0., 0., 0., 0., 0., 0., 0., 2.43683960e-02, 2.48741552e-01,
          9.65540204e-03, 0., 1.47129940e-02, 7.54040927e-02, 0., 0., 0.,
          0., 0., 0., 0., 0., 0., 0., 0., 0., 0., 0., 0., 0., 0., 0., 0.,
          0., 0., 0., 0., 0., 0., 0., 0., 0., 0., 0., 0., 0., 0., 0., 0.,
          0., 0., 0., 0., 0., 0. ]
      - [ 0., 7.24638812e-03, 3.49379420e-01, 1.07660629e-01, 0.,
          6.21119002e-03, 8.01243484e-01, 1.01449437e-01, 0.,
          3.62319406e-03, 2.72774756e-01, 1.07660629e-01, 0.,
          5.17599168e-04, 2.58799572e-03, 4.14079335e-03, 0.,
          5.17599168e-04, 1.65631734e-02, 1.65631734e-02, 0., 0., 0., 0.,
          0., 0., 0., 0., 0., 0., 0., 0., 0., 0., 3.41615453e-02,
          4.03727330e-02, 0., 0., 0., 5.69359073e-03, 0., 0., 0., 0., 0.,
          0., 0., 0., 0., 1.03519834e-03, 9.00622532e-02, 2.63975579e-02,
          0., 0., 0., 5.17599168e-04, 0., 0., 0., 0., 0., 0., 0., 0., 0.,
          3.62319406e-03, 1.13871813e-01, 9.31678526e-03, 0., 0., 0., 0.,
          0., 0., 0., 0., 0., 0., 0., 0., 0., 5.17599145e-03,
          3.11594695e-01, 1.44927762e-02, 0., 3.10559501e-03,
          7.29814842e-02, 3.10559501e-03, 0., 0., 2.58799572e-03, 0., 0.,
          0., 0., 0., 0., 0., 0., 0., 0., 0., 0., 0., 0., 0., 0., 0., 0.,
          0., 0., 0., 0., 0., 0., 0., 0., 0., 0., 0., 0., 0., 0., 0., 0.,
          0., 0., 0. ]
      - [ 0., 2.63694022e-03, 2.70286351e-01, 1.04159139e-01, 0.,
          6.15286035e-03, 8.99636090e-01, 4.17515524e-02, 0.,
          2.19745003e-03, 1.15585878e-01, 2.10955217e-02, 0., 0., 0., 0.,
          0., 4.39490017e-04, 1.75796002e-02, 2.59299111e-02, 0.,
          4.39490017e-04, 0., 0., 0., 0., 0., 0., 0., 0., 0., 0., 0., 0.,
          3.69171612e-02, 5.27388044e-03, 0., 0., 0., 0., 0., 0., 0., 0.,
          0., 0., 0., 0., 0., 0., 1.60413861e-01, 1.53821511e-02, 0., 0.,
          9.22929030e-03, 4.35095131e-02, 0., 0., 0., 0., 0., 0., 0., 0.,
          0., 0., 8.74585137e-02, 3.51592014e-03, 0., 0., 0., 0., 0., 0.,
          0., 0., 0., 0., 0., 0., 0., 8.78980034e-04, 2.12273687e-01,
          1.23057207e-02, 0., 0., 8.92164782e-02, 0., 0., 0., 0., 0., 0.,
          0., 0., 0., 0., 0., 0., 0., 0., 0., 0., 0., 0., 0., 0., 0., 0.,
          0., 0., 0., 0., 0., 0., 0., 0., 0., 0., 0., 0., 0., 0., 0., 0.,
          0., 0., 0. ]
      - [ 0., 1.10951141e-02, 3.44476879e-01, 4.91355062e-02, 0., 0.,
          1.73295125e-01, 1.90201961e-02, 0., 0., 5.28338784e-03,
          2.64169392e-03, 0., 0., 0., 0., 0., 3.69837135e-03,
          5.65322489e-02, 1.58501640e-02, 0., 0., 0., 0., 0., 0., 0., 0.,
          0., 0., 0., 0., 0., 1.58501638e-03, 1.07252769e-01,
          3.48703600e-02, 0., 0., 0., 0., 0., 0., 0., 0., 0., 0., 0., 0.,
          0., 1.37368087e-02, 5.45773983e-01, 3.17003280e-02, 0., 0.,
          5.81172667e-03, 0., 0., 0., 0., 0., 0., 0., 0., 0., 0.,
          7.39674270e-02, 5.85927725e-01, 1.53218247e-02, 0., 0., 0., 0.,
          0., 0., 0., 0., 0., 0., 0., 0., 0., 1.69068407e-02,
          4.26897734e-01, 7.39674270e-03, 0., 0., 3.85687314e-02,
          2.11335509e-03, 0., 0., 0., 0., 0., 0., 0., 0., 0., 0., 0., 0.,
          0., 0., 0., 0., 0., 0., 0., 0., 0., 0., 0., 0., 0., 0., 0., 0.,
          0., 0., 0., 0., 0., 0., 0., 0., 0., 0., 0., 0. ]
      - [ 0., 3.75467464e-02, 9.66720805e-02, 1.63997281e-02, 0.,
          5.17886132e-03, 7.72513524e-02, 0., 0., 0., 0., 0., 0., 0., 0.,
          0., 0., 1.12208668e-02, 4.35887501e-02, 1.51050128e-02, 0., 0.,
          0., 0., 0., 0., 0., 0., 0., 0., 0., 0., 0., 8.63143615e-03,
          8.89037922e-02, 5.56727611e-02, 0., 0., 4.31571796e-04, 0., 0.,
          0., 0., 0., 0., 0., 0., 0., 0., 3.71151753e-02, 9.39100206e-01,
          1.61407858e-01, 0., 0., 2.63258796e-02, 2.45995931e-02, 0., 0.,
          0., 0., 0., 0., 0., 0., 0., 8.71775001e-02, 2.04996601e-01,
          1.59681570e-02, 0., 0., 0., 0., 0., 0., 0., 0., 0., 0., 0., 0.,
          0., 5.39464727e-02, 7.50934929e-02, 3.02100251e-03, 0.,
          5.61043341e-03, 2.33048778e-02, 0., 0., 0., 4.31571796e-04, 0.,
          0., 0., 0., 0., 0., 0., 0., 0., 0., 0., 0., 0., 0., 0., 0., 0.,
          0., 0., 0., 0., 0., 0., 0., 0., 0., 0., 0., 0., 0., 0., 0., 0.,
          0., 0., 0., 0. ]
      - [ 0., 2.50731898e-03, 1.68491825e-01, 4.96449135e-02, 0.,
          1.25365946e-02, 8.40954781e-01, 1.46427423e-01, 0.,
          5.01463772e-04, 2.71291912e-01, 1.03803001e-01, 0., 0.,
          1.30380578e-02, 5.01463795e-03, 0., 0., 1.30380578e-02,
          1.15336664e-02, 0., 0., 0., 0., 0., 0., 0., 0., 0., 0., 0., 0.,
          0., 0., 3.00878263e-03, 3.15922163e-02, 0., 0., 0., 0., 0., 0.,
          0., 0., 0., 0., 0., 0., 0., 0., 6.71961457e-02, 9.12664086e-02,
          0., 0., 5.01463772e-04, 0., 0., 0., 0., 0., 0., 0., 0., 0., 0.,
          2.50731898e-03, 5.86712621e-02, 4.66361307e-02, 0., 0., 0., 0.,
          0., 0., 0., 0., 0., 0., 0., 0., 0., 2.50731898e-03,
          2.30171874e-01, 1.95570868e-02, 0., 5.01463795e-03,
          2.87338734e-01, 5.01463795e-03, 0., 0., 2.50731898e-03, 0., 0.,
          0., 0., 0., 0., 0., 0., 0., 0., 0., 0., 0., 0., 0., 0., 0., 0.,
          0., 0., 0., 0., 0., 0., 0., 0., 0., 0., 0., 0., 0., 0., 0., 0.,
          0., 0., 0. ]
      - [ 0., 2.25273967e-02, 9.01095867e-02, 3.94229442e-02, 0.,
          1.53595884e-03, 6.65582120e-02, 5.17106131e-02, 0., 0.,
          8.19178019e-03, 4.40308191e-02, 0., 0., 0., 6.65582158e-03, 0.,
          3.07191769e-03, 3.99349295e-02, 1.53595880e-02, 0., 0., 0., 0.,
          0., 0., 0., 0., 0., 0., 0., 0., 0., 5.11986250e-03,
          9.98373255e-02, 6.86061606e-02, 0., 0., 2.61112992e-02,
          3.58390389e-03, 0., 0., 0., 0., 0., 0., 0., 0., 0.,
          1.07517121e-02, 8.48873258e-01, 1.37724310e-01, 0.,
          1.53595884e-03, 2.60089040e-01, 3.57366413e-01, 0., 0., 0., 0.,
          0., 0., 0., 0., 0., 1.38236294e-02, 1.42844170e-01,
          2.04794500e-02, 0., 0., 1.53595884e-03, 0., 0., 0., 0., 0., 0.,
          0., 0., 0., 0., 1.53595880e-02, 8.29417780e-02, 1.17756845e-02,
          0., 0., 1.12636983e-02, 0., 0., 0., 0., 0., 0., 0., 0., 0., 0.,
          0., 0., 0., 0., 0., 0., 0., 0., 0., 0., 0., 0., 0., 0., 0., 0.,
          0., 0., 0., 0., 0., 0., 0., 0., 0., 0., 0., 0., 0., 0., 0. ]
      - [ 0., 1.39444424e-02, 2.36210406e-01, 4.01430912e-02, 0.,
          3.38047091e-03, 1.00146450e-01, 1.35218836e-02, 0., 0.,
          5.91582432e-03, 0., 0., 0., 0., 0., 0., 2.53535318e-03,
          3.67626213e-02, 3.88754159e-02, 0., 0., 0., 0., 0., 0., 0., 0.,
          0., 0., 0., 0., 0., 8.45117727e-04, 9.12727118e-02,
          1.01414129e-01, 0., 0., 1.69023545e-03, 0., 0., 0., 0., 0., 0.,
          0., 0., 0., 0., 5.91582432e-03, 9.27939296e-01, 7.90185109e-02,
          0., 8.45117727e-04, 3.80302966e-02, 4.69040349e-02, 0., 0., 0.,
          0., 0., 0., 0., 0., 0., 1.14090890e-02, 1.58459574e-01,
          5.49326511e-03, 0., 0., 4.22558887e-03, 0., 0., 0., 0., 0., 0.,
          0., 0., 0., 0., 1.26767661e-02, 1.19161598e-01, 4.22558864e-04,
          0., 4.22558864e-04, 2.53535318e-03, 0., 0., 0., 0., 0., 0., 0.,
          0., 0., 0., 0., 0., 0., 0., 0., 0., 0., 0., 0., 0., 0., 0., 0.,
          0., 0., 0., 0., 0., 0., 0., 0., 0., 0., 0., 0., 0., 0., 0., 0.,
          0., 0. ]
      - [ 0., 1.71838969e-03, 1.54655069e-01, 3.43677923e-02, 0.,
          1.37471175e-02, 3.25205237e-01, 3.30790021e-02, 0., 0.,
          2.31982600e-02, 2.10502725e-02, 0., 0., 0., 0., 0.,
          4.29597421e-04, 1.11695332e-02, 4.29597421e-04, 0.,
          4.29597421e-04, 4.29597421e-04, 0., 0., 0., 0., 0., 0., 0., 0.,
          0., 0., 0., 8.59194808e-03, 8.59194843e-04, 0., 0., 0., 0., 0.,
          0., 0., 0., 0., 0., 0., 0., 0., 0., 1.41767152e-02,
          2.57758447e-03, 0., 0., 0., 0., 0., 0., 0., 0., 0., 0., 0., 0.,
          0., 0., 2.76231140e-01, 0., 0., 0., 3.43677937e-03, 0., 0., 0.,
          0., 0., 0., 0., 0., 0., 0., 4.72557172e-03, 8.20960641e-01,
          9.02154576e-03, 0., 3.86637682e-03, 3.40670764e-01, 0., 0., 0.,
          0., 0., 0., 0., 0., 0., 0., 0., 0., 0., 0., 0., 0., 0., 0., 0.,
          0., 0., 0., 0., 0., 0., 0., 0., 0., 0., 0., 0., 0., 0., 0., 0.,
          0., 0., 0., 0., 0., 0. ]
      - [ 0., 2.33116210e-03, 5.07027805e-01, 1.82413444e-01, 0.,
          1.74837164e-03, 4.58656162e-01, 2.44189233e-01, 0., 0.,
          3.49674337e-02, 3.90469655e-02, 0., 0., 0., 0., 0., 0.,
          2.68083643e-02, 3.43846418e-02, 0., 5.82790526e-04, 0., 0., 0.,
          0., 0., 0., 0., 0., 0., 0., 0., 0., 4.95371968e-02,
          5.65306842e-02, 0., 0., 0., 0., 0., 0., 0., 0., 0., 0., 0., 0.,
          0., 0., 1.27048343e-01, 4.77888249e-02, 0., 0., 0., 0., 0., 0.,
          0., 0., 0., 0., 0., 0., 0., 5.82790526e-04, 2.60507375e-01,
          3.78813855e-02, 0., 0., 0., 0., 0., 0., 0., 0., 0., 0., 0., 0.,
          0., 5.82790526e-04, 5.67055225e-01, 8.91669542e-02, 0., 0.,
          1.08399041e-01, 1.92320887e-02, 0., 0., 0., 0., 0., 0., 0., 0.,
          0., 0., 0., 0., 0., 0., 0., 0., 0., 0., 0., 0., 0., 0., 0., 0.,
          0., 0., 0., 0., 0., 0., 0., 0., 0., 0., 0., 0., 0., 0., 0., 0. ]
      - [ 0., 2.70791743e-02, 1.61074400e-01, 4.01518792e-02, 0.,
          1.86752924e-03, 6.25622272e-02, 4.66882288e-02, 0., 0.,
          1.02714105e-02, 1.16720572e-02, 0., 0., 0., 0., 0.,
          3.26817622e-03, 6.72310516e-02, 1.86752919e-02, 0., 0., 0., 0.,
          0., 0., 0., 0., 0., 0., 0., 0., 0., 5.13570523e-03,
          1.73213333e-01, 5.74265234e-02, 0., 0., 0., 0., 0., 0., 0., 0.,
          0., 0., 0., 0., 0., 2.19434686e-02, 9.23026323e-01,
          1.20922513e-01, 0., 0., 4.06187586e-02, 5.04232906e-02, 0., 0.,
          0., 0., 0., 0., 0., 0., 0., 5.74265234e-02, 1.92822397e-01,
          2.42778789e-02, 0., 0., 4.66882309e-04, 1.86752924e-03, 0., 0.,
          0., 0., 0., 0., 0., 0., 0., 2.38109976e-02, 1.17654338e-01,
          1.91421751e-02, 0., 4.66882309e-04, 6.53635245e-03, 0., 0., 0.,
          0., 0., 0., 0., 0., 0., 0., 0., 0., 0., 0., 0., 0., 0., 0., 0.,
          0., 0., 0., 0., 0., 0., 0., 0., 0., 0., 0., 0., 0., 0., 0., 0.,
          0., 0., 0., 0., 0., 0. ]
      - [ 0., 1.66930277e-02, 1.71938196e-01, 5.55043183e-02, 0.,
          4.17325704e-04, 5.50869927e-02, 8.34651385e-03, 0., 0.,
          1.04331421e-02, 0., 0., 0., 0., 0., 0., 0., 3.17167528e-02,
          3.71419862e-02, 0., 0., 0., 0., 0., 0., 0., 0., 0., 0., 0., 0.,
          0., 1.25197705e-03, 5.04964106e-02, 1.25197712e-02, 0., 0., 0.,
          0., 0., 0., 0., 0., 0., 0., 0., 0., 0., 2.71261707e-02,
          9.21037793e-01, 8.30478147e-02, 0., 0., 4.84097824e-02,
          1.71103533e-02, 0., 0., 0., 0., 0., 0., 0., 0., 0.,
          5.46696670e-02, 2.85450786e-01, 2.12836098e-02, 0., 0.,
          4.59058257e-03, 0., 0., 0., 0., 0., 0., 0., 0., 0., 0.,
          2.25355886e-02, 1.20189801e-01, 1.71103533e-02, 0., 0., 0., 0.,
          0., 0., 0., 0., 0., 0., 0., 0., 0., 0., 0., 0., 0., 0., 0., 0.,
          0., 0., 0., 0., 0., 0., 0., 0., 0., 0., 0., 0., 0., 0., 0., 0.,
          0., 0., 0., 0., 0., 0., 0., 0. ]
      - [ 0., 1.43379504e-02, 4.25688803e-01, 1.32008031e-01, 0.,
          5.93294529e-03, 3.01096976e-01, 1.08276248e-01, 0.,
          9.88824177e-04, 5.38909175e-02, 3.36200222e-02, 0., 0., 0.,
          9.88824177e-04, 0., 9.88824177e-04, 1.48323625e-02,
          3.06535494e-02, 0., 4.94412088e-04, 2.47206050e-03, 0., 0., 0.,
          0., 0., 0., 0., 0., 0., 0., 0., 1.77988354e-02, 4.74635623e-02,
          0., 0., 0., 0., 0., 0., 0., 0., 0., 0., 0., 0., 0., 0.,
          5.09244464e-02, 3.36200222e-02, 0., 0., 0., 0., 0., 0., 0., 0.,
          0., 0., 0., 0., 0., 1.48323632e-03, 1.59200698e-01,
          3.46088456e-03, 0., 0., 0., 0., 0., 0., 0., 0., 0., 0., 0., 0.,
          0., 2.66982522e-02, 8.05891693e-01, 4.99356203e-02, 0.,
          3.95529671e-03, 9.59159434e-02, 0., 0., 0., 0., 0., 0., 0., 0.,
          0., 0., 0., 0., 0., 0., 0., 0., 0., 0., 0., 0., 0., 0., 0., 0.,
          0., 0., 0., 0., 0., 0., 0., 0., 0., 0., 0., 0., 0., 0., 0., 0.,
          0. ]
      - [ 0., 7.83290714e-02, 3.13316286e-01, 7.65754357e-02, 0.,
          2.45509017e-02, 1.83547214e-01, 8.76817945e-03, 0., 0.,
          3.50727164e-03, 0., 0., 0., 0., 0., 0., 7.59908883e-03,
          7.77445212e-02, 3.15654464e-02, 0., 0., 0., 0., 0., 0., 0., 0.,
          0., 0., 0., 0., 0., 1.22754509e-02, 1.23339057e-01,
          6.78072497e-02, 0., 0., 0., 0., 0., 0., 0., 0., 0., 0., 0., 0.,
          0., 3.09808999e-02, 7.85044312e-01, 8.06672499e-02, 0.,
          1.75363582e-03, 1.08725421e-01, 3.68263535e-02, 0., 0., 0., 0.,
          0., 0., 0., 0., 0., 7.30681643e-02, 3.60664427e-01,
          4.26718071e-02, 0., 3.50727164e-03, 1.22754509e-02,
          1.75363582e-03, 0., 0., 0., 0., 0., 0., 0., 0., 0.,
          9.00199711e-02, 2.11605400e-01, 2.16281749e-02, 0.,
          1.11063607e-02, 2.39663571e-02, 0., 0., 0., 0., 0., 0., 0., 0.,
          0., 0., 0., 0., 0., 0., 0., 0., 0., 0., 0., 0., 0., 0., 0., 0.,
          0., 0., 0., 0., 0., 0., 0., 0., 0., 0., 0., 0., 0., 0., 0., 0.,
          0. ]
      - [ 0., 1.14881881e-02, 1.92801759e-01, 2.84707267e-02, 0.,
          1.49845926e-03, 1.77317679e-01, 5.24460748e-02, 0., 0.,
          1.44851068e-02, 6.99280994e-03, 0., 0., 0., 0., 0.,
          3.99589166e-03, 9.04070437e-02, 3.54635380e-02, 0., 0., 0., 0.,
          0., 0., 0., 0., 0., 0., 0., 0., 0., 1.99794583e-03,
          2.12781221e-01, 8.69106352e-02, 0., 0., 4.99486458e-04,
          9.98972915e-04, 0., 0., 0., 0., 0., 0., 0., 0., 0.,
          1.34861339e-02, 8.72103333e-01, 1.39856204e-01, 0., 0.,
          2.49743205e-03, 4.59527522e-02, 0., 0., 0., 0., 0., 0., 0., 0.,
          0., 4.44542915e-02, 2.54238605e-01, 1.09887011e-02, 0., 0., 0.,
          0., 0., 0., 0., 0., 0., 0., 0., 0., 0., 1.99794564e-02,
          1.24871604e-01, 0., 0., 0., 4.99486458e-04, 0., 0., 0., 0., 0.,
          0., 0., 0., 0., 0., 0., 0., 0., 0., 0., 0., 0., 0., 0., 0., 0.,
          0., 0., 0., 0., 0., 0., 0., 0., 0., 0., 0., 0., 0., 0., 0., 0.,
          0., 0., 0., 0. ]
      - [ 0., 1.62474047e-02, 1.06826685e-01, 3.73690315e-02, 0.,
          4.06185107e-04, 6.25525117e-02, 5.64597324e-02, 0., 0.,
          1.21855538e-03, 2.39649229e-02, 0., 0., 0., 0., 0.,
          1.62474043e-03, 2.19339970e-02, 2.72144023e-02, 0., 0., 0., 0.,
          0., 0., 0., 0., 0., 0., 0., 0., 0., 2.03092559e-03,
          6.13339543e-02, 4.10246961e-02, 0., 0., 0., 0., 0., 0., 0., 0.,
          0., 0., 0., 0., 0., 2.07154416e-02, 9.51285541e-01,
          1.99030712e-01, 0., 0., 6.66143596e-02, 6.45834357e-02, 0., 0.,
          0., 0., 0., 0., 0., 0., 0., 5.76782860e-02, 1.12513281e-01,
          9.34225786e-03, 0., 0., 8.12370214e-04, 0., 0., 0., 0., 0., 0.,
          0., 0., 0., 0., 2.19339970e-02, 4.91483994e-02, 2.03092559e-03,
          0., 2.84329592e-03, 0., 0., 0., 0., 0., 0., 0., 0., 0., 0., 0.,
          0., 0., 0., 0., 0., 0., 0., 0., 0., 0., 0., 0., 0., 0., 0., 0.,
          0., 0., 0., 0., 0., 0., 0., 0., 0., 0., 0., 0., 0., 0., 0. ]
      - [ 0., 2.05290061e-03, 6.19462788e-01, 1.52427867e-01, 0.,
          5.64547675e-03, 6.22542143e-01, 1.33951768e-01, 0.,
          5.13225154e-04, 1.23174042e-01, 1.74496565e-02, 0., 0., 0., 0.,
          0., 5.13225154e-04, 2.46348083e-02, 7.13382959e-02, 0., 0., 0.,
          0., 0., 0., 0., 0., 0., 0., 0., 0., 0., 0., 2.51480322e-02,
          8.46821517e-02, 0., 0., 0., 0., 0., 0., 0., 0., 0., 0., 0., 0.,
          0., 2.05290061e-03, 4.82431650e-02, 3.23331840e-02, 0., 0., 0.,
          0., 0., 0., 0., 0., 0., 0., 0., 0., 0., 5.64547675e-03,
          9.59731042e-02, 2.00157817e-02, 0., 0., 0., 0., 0., 0., 0., 0.,
          0., 0., 0., 0., 0., 4.61902656e-03, 3.77220482e-01,
          3.43860872e-02, 0., 0., 4.46505882e-02, 0., 0., 0.,
          2.05290061e-03, 0., 0., 0., 0., 0., 0., 0., 0., 0., 0., 0., 0.,
          0., 0., 0., 0., 0., 0., 0., 0., 0., 0., 0., 0., 0., 0., 0., 0.,
          0., 0., 0., 0., 0., 0., 0., 0., 0. ]
      - [ 0., 9.68084019e-03, 4.17295158e-01, 8.25419053e-02, 0., 0.,
          1.61517173e-01, 5.80850430e-02, 0., 0., 0., 3.87233607e-02, 0.,
          0., 0., 0., 0., 1.01903582e-03, 4.17804681e-02, 4.17804681e-02,
          0., 0., 0., 0., 0., 0., 0., 0., 0., 0., 0., 0., 0.,
          2.03807163e-03, 2.49663778e-02, 2.75139678e-02, 0., 0., 0., 0.,
          0., 0., 0., 0., 0., 0., 0., 0., 0., 6.11421512e-03,
          2.76668221e-01, 1.98711995e-02, 0., 0., 0., 0., 0., 0., 0., 0.,
          0., 0., 0., 0., 0., 4.07614326e-03, 5.16141653e-01,
          1.98711995e-02, 0., 0., 0., 0., 0., 0., 0., 0., 0., 0., 0., 0.,
          0., 5.09517919e-03, 6.60335243e-01, 4.33090217e-02, 0., 0.,
          3.71948071e-02, 1.01903582e-03, 0., 0., 0., 0., 0., 0., 0., 0.,
          0., 0., 0., 0., 0., 0., 0., 0., 0., 0., 0., 0., 0., 0., 0., 0.,
          0., 0., 0., 0., 0., 0., 0., 0., 0., 0., 0., 0., 0., 0., 0., 0. ]
      - [ 0., 4.75708023e-02, 2.20828667e-01, 5.10760173e-02, 0.,
          1.95290651e-02, 1.81770533e-01, 4.85722907e-02, 0., 0.,
          1.65245943e-02, 3.00447177e-03, 0., 0., 0., 0., 0.,
          2.50372640e-03, 2.45365184e-02, 1.00149056e-02, 0., 0., 0., 0.,
          0., 0., 0., 0., 0., 0., 0., 0., 0., 7.01043382e-03,
          1.03153527e-01, 2.10313015e-02, 0., 0., 0., 0., 0., 0., 0., 0.,
          0., 0., 0., 0., 0., 1.95290651e-02, 8.73800516e-01,
          6.20924160e-02, 0., 0., 1.00149056e-02, 0., 0., 0., 0., 0., 0.,
          0., 0., 0., 0., 9.86468196e-02, 2.78414369e-01, 1.80268306e-02,
          0., 0., 0., 0., 0., 0., 0., 0., 0., 0., 0., 0., 0.,
          1.07660234e-01, 1.73257872e-01, 1.25186322e-02, 0.,
          8.01192410e-03, 3.45514230e-02, 0., 0., 0., 0., 0., 0., 0., 0.,
          0., 0., 0., 0., 0., 0., 0., 0., 0., 0., 0., 0., 0., 0., 0., 0.,
          0., 0., 0., 0., 0., 0., 0., 0., 0., 0., 0., 0., 0., 0., 0., 0.,
          0. ]
      - [ 0., 2.55792914e-03, 5.36141932e-01, 1.47848308e-01, 0.,
          6.13903021e-03, 7.15197027e-01, 2.12308124e-01, 0.,
          3.06951511e-03, 2.35841066e-01, 5.11585847e-02, 0., 0., 0., 0.,
          0., 1.02317170e-03, 2.76256353e-02, 2.30213627e-02, 0.,
          5.11585851e-04, 0., 0., 0., 0., 0., 0., 0., 0., 0., 0., 0.,
          5.11585851e-04, 1.99518483e-02, 7.05988482e-02, 0., 0.,
          5.11585851e-04, 0., 0., 0., 0., 0., 0., 0., 0., 0., 0.,
          5.11585851e-04, 3.63225937e-02, 3.52994241e-02, 0., 0.,
          2.04634340e-03, 5.11585851e-04, 0., 0., 0., 0., 0., 0., 0., 0.,
          0., 1.53475755e-03, 6.44598156e-02, 1.73939187e-02, 0., 0.,
          1.02317170e-03, 0., 0., 0., 0., 0., 0., 0., 0., 0., 0.,
          1.02317170e-03, 2.42491692e-01, 3.17183211e-02, 0.,
          5.11585851e-04, 4.75774817e-02, 6.13903021e-03, 0., 0., 0., 0.,
          0., 0., 0., 0., 0., 0., 0., 0., 0., 0., 0., 0., 0., 0., 0., 0.,
          0., 0., 0., 0., 0., 0., 0., 0., 0., 0., 0., 0., 0., 0., 0., 0.,
          0., 0., 0., 0. ]
      - [ 0., 1.38617139e-02, 3.95890534e-01, 1.01467744e-01, 0.,
          1.44161824e-02, 3.20482820e-01, 8.70515630e-02, 0., 0.,
          7.20809121e-03, 3.38225812e-02, 0., 0., 0., 0., 0.,
          2.21787416e-03, 1.99608672e-02, 1.88519303e-02, 0., 0., 0., 0.,
          0., 0., 0., 0., 0., 0., 0., 0., 0., 1.66340568e-03,
          6.09915406e-02, 3.21591757e-02, 0., 0., 1.10893708e-03, 0., 0.,
          0., 0., 0., 0., 0., 0., 0., 0., 4.99021681e-03, 3.75929683e-01,
          4.54664193e-02, 0., 0., 4.43574833e-03, 0., 0., 0., 0., 0., 0.,
          0., 0., 0., 0., 1.38617139e-02, 5.36725581e-01, 1.05349021e-02,
          0., 0., 6.09915424e-03, 0., 0., 0., 0., 0., 0., 0., 0., 0., 0.,
          3.10502388e-02, 5.27299583e-01, 1.60795879e-02, 0.,
          5.54468529e-03, 6.65362254e-02, 0., 0., 0., 0., 0., 0., 0., 0.,
          0., 0., 0., 0., 0., 0., 0., 0., 0., 0., 0., 0., 0., 0., 0., 0.,
          0., 0., 0., 0., 0., 0., 0., 0., 0., 0., 0., 0., 0., 0., 0., 0.,
          0. ]
      - [ 4.43841680e-04, 2.08605584e-02, 2.12156326e-01, 7.54530868e-03,
          0., 1.06522003e-02, 5.45925274e-02, 0., 0., 2.66305008e-03,
          3.10689164e-03, 0., 0., 0., 0., 0., 0., 2.21920828e-03,
          2.48551331e-02, 2.66305008e-03, 0., 0., 0., 0., 0., 0., 0., 0.,
          0., 0., 0., 0., 0., 4.43841680e-04, 2.79620253e-02,
          6.21378329e-03, 0., 0., 0., 0., 0., 0., 0., 0., 0., 0., 0., 0.,
          0., 3.55073344e-03, 8.32646966e-01, 6.56885654e-02, 0., 0.,
          4.70472164e-02, 1.46467751e-02, 0., 0., 0., 0., 0., 0., 0., 0.,
          1.33152504e-03, 1.50906174e-02, 3.54185671e-01, 1.37590915e-02,
          8.87683360e-04, 0., 8.87683360e-04, 4.43841680e-04, 0., 0., 0.,
          0., 0., 0., 0., 0., 0., 1.86413508e-02, 3.43977302e-01,
          2.21920828e-03, 0., 1.02083590e-02, 7.23461956e-02, 0., 0.,
          8.87683360e-04, 0., 0., 0., 0., 0., 0., 0., 0., 0., 0., 0., 0.,
          0., 0., 0., 0., 0., 0., 0., 0., 0., 0., 0., 0., 0., 0., 0., 0.,
          0., 0., 0., 0., 0., 0., 0., 0., 0., 0. ]
      - [ 0., 2.78639123e-02, 4.79259282e-01, 8.52635726e-02, 0.,
          3.45512517e-02, 2.34614134e-01, 4.56968136e-02, 0.,
          2.22911290e-03, 5.57278225e-04, 8.91645160e-03, 0., 0., 0., 0.,
          0., 2.78639118e-03, 2.45202426e-02, 1.44892335e-02, 0., 0., 0.,
          0., 0., 0., 0., 0., 0., 0., 0., 0., 0., 0., 2.17338502e-02,
          1.89474598e-02, 0., 0., 0., 0., 0., 0., 0., 0., 0., 0., 0., 0.,
          0., 5.57278236e-03, 4.88175720e-01, 8.91645178e-02, 0., 0.,
          6.29724413e-02, 5.01550408e-03, 0., 0., 0., 0., 0., 0., 0., 0.,
          0., 5.34987114e-02, 4.85389352e-01, 7.80189503e-03, 0., 0.,
          3.90094751e-03, 0., 0., 0., 0., 0., 0., 0., 0., 0., 0.,
          5.23841530e-02, 4.55853581e-01, 5.57278225e-04, 0.,
          5.01550408e-03, 5.29414304e-02, 0., 0., 0., 0., 0., 0., 0., 0.,
          0., 0., 0., 0., 0., 0., 0., 0., 0., 0., 0., 0., 0., 0., 0., 0.,
          0., 0., 0., 0., 0., 0., 0., 0., 0., 0., 0., 0., 0., 0., 0., 0.,
          0. ]
      - [ 0., 3.82120088e-02, 4.43125248e-01, 5.96643649e-02, 0.,
          1.74300391e-02, 3.34522694e-01, 1.24691822e-01, 0., 0.,
          4.35751006e-02, 3.88823971e-02, 0., 0., 0., 0., 0.,
          6.03347551e-03, 1.81004256e-02, 4.69270311e-02, 0., 0., 0., 0.,
          0., 0., 0., 0., 0., 0., 0., 0., 0., 8.04463401e-03,
          1.18658349e-01, 1.61563054e-01, 0., 0., 0., 1.34077226e-03, 0.,
          0., 0., 0., 0., 0., 0., 0., 0., 3.21785361e-02, 6.14073694e-01,
          1.59551904e-01, 0., 6.70386129e-04, 6.36866838e-02,
          2.39998236e-01, 0., 0., 0., 0., 0., 0., 0., 0., 0.,
          8.71502012e-02, 2.41339013e-01, 2.54746731e-02, 0., 0.,
          6.70386152e-03, 0., 0., 0., 0., 0., 0., 0., 0., 0., 0.,
          4.89381887e-02, 2.98321843e-01, 1.60892680e-02, 0.,
          2.01115850e-03, 3.48600782e-02, 0., 0., 0., 0., 0., 0., 0., 0.,
          0., 0., 0., 0., 0., 0., 0., 0., 0., 0., 0., 0., 0., 0., 0., 0.,
          0., 0., 0., 0., 0., 0., 0., 0., 0., 0., 0., 0., 0., 0., 0., 0.,
          0. ]
      - [ 0., 1.98491737e-02, 2.35354498e-01, 4.63147387e-02, 0.,
          8.03418923e-03, 8.31774920e-02, 3.82805504e-02, 0.,
          4.72599379e-04, 3.78079503e-03, 5.67119289e-03, 0., 0., 0., 0.,
          0., 4.25339444e-03, 3.73353511e-02, 2.78833639e-02, 0., 0., 0.,
          0., 0., 0., 0., 0., 0., 0., 0., 0., 0., 4.25339444e-03,
          5.05681336e-02, 1.18149845e-02, 0., 0., 0., 0., 0., 0., 0., 0.,
          0., 0., 0., 0., 0., 1.32327825e-02, 8.84706080e-01,
          1.11533456e-01, 0., 0., 8.88486877e-02, 7.46707022e-02, 0., 0.,
          0., 0., 0., 0., 0., 0., 0., 2.26847716e-02, 2.79778838e-01,
          7.56159006e-03, 0., 0., 3.30819562e-03, 0., 0., 0., 0., 0., 0.,
          0., 0., 0., 0., 3.16641591e-02, 1.99436948e-01, 5.19859325e-03,
          0., 1.41779822e-03, 1.46505814e-02, 0., 0., 0., 0., 0., 0., 0.,
          0., 0., 0., 0., 0., 0., 0., 0., 0., 0., 0., 0., 0., 0., 0., 0.,
          0., 0., 0., 0., 0., 0., 0., 0., 0., 0., 0., 0., 0., 0., 0., 0.,
          0., 0. ]
      - [ 0., 2.77059022e-02, 6.59613609e-01, 9.85690728e-02, 0.,
          7.45928101e-03, 1.70497850e-01, 1.27873393e-02, 0., 0.,
          9.05769877e-03, 0., 0., 0., 0., 0., 0., 2.13122321e-03,
          6.34038895e-02, 7.19287843e-02, 0., 0., 0., 0., 0., 0., 0., 0.,
          0., 0., 0., 0., 0., 2.13122321e-03, 1.11356415e-01,
          2.55746786e-02, 0., 0., 0., 0., 0., 0., 0., 0., 0., 0., 0., 0.,
          0., 5.32805780e-03, 5.22682488e-01, 4.04932424e-02, 0., 0., 0.,
          0., 0., 0., 0., 0., 0., 0., 0., 0., 0., 1.01233106e-02,
          2.09392682e-01, 3.72964069e-02, 0., 0., 0., 0., 0., 0., 0., 0.,
          0., 0., 0., 0., 0., 2.77059022e-02, 4.23580617e-01,
          3.40995714e-02, 0., 2.66402890e-03, 3.51651832e-02, 0., 0., 0.,
          0., 0., 0., 0., 0., 0., 0., 0., 0., 0., 0., 0., 0., 0., 0., 0.,
          0., 0., 0., 0., 0., 0., 0., 0., 0., 0., 0., 0., 0., 0., 0., 0.,
          0., 0., 0., 0., 0., 0. ]
      - [ 0., 1.04482368e-01, 3.15516055e-01, 8.43100324e-02, 0.,
          2.84481701e-02, 1.63964897e-01, 6.20687334e-03, 0., 0.,
          7.24135200e-03, 0., 0., 0., 0., 0., 0., 1.08620282e-02,
          7.03445673e-02, 1.60344224e-02, 0., 0., 0., 0., 0., 0., 0., 0.,
          0., 0., 0., 0., 0., 1.60344224e-02, 1.06551327e-01,
          1.03447884e-02, 0., 0., 0., 0., 0., 0., 0., 0., 0., 0., 0., 0.,
          0., 2.17240565e-02, 8.03790092e-01, 3.77584808e-02, 0., 0.,
          1.70689020e-02, 1.55171833e-03, 0., 0., 0., 0., 0., 0., 0., 0.,
          0., 3.41378041e-02, 3.54309022e-01, 4.65515489e-03, 0., 0., 0.,
          0., 0., 0., 0., 0., 0., 0., 0., 0., 0., 4.18963954e-02,
          2.45688736e-01, 1.18965069e-02, 0., 1.03447889e-03,
          1.86206196e-02, 0., 0., 0., 0., 0., 0., 0., 0., 0., 0., 0., 0.,
          0., 0., 0., 0., 0., 0., 0., 0., 0., 0., 0., 0., 0., 0., 0., 0.,
          0., 0., 0., 0., 0., 0., 0., 0., 0., 0., 0., 0., 0. ]
      - [ 0., 1.53817581e-02, 1.03277519e-01, 1.01080127e-02, 0.,
          5.71322441e-03, 1.53817581e-02, 3.07635171e-03, 0.,
          1.75791525e-03, 8.78957624e-04, 0., 0., 0., 0., 0., 0.,
          7.47113954e-03, 2.76871640e-02, 3.51583050e-03, 0.,
          4.39478812e-04, 1.31843635e-03, 0., 0., 0., 0., 0., 0., 0., 0.,
          0., 0., 1.75791525e-03, 5.22979759e-02, 3.73556986e-02, 0., 0.,
          0., 0., 0., 0., 0., 0., 0., 0., 0., 0., 0., 1.84581093e-02,
          8.93460393e-01, 7.86667019e-02, 0., 4.39478812e-04,
          2.77311116e-01, 1.01959080e-01, 0., 0., 0., 0., 0., 0., 0., 0.,
          0., 9.75642949e-02, 2.70279467e-01, 4.39478812e-04, 0.,
          1.31843635e-03, 4.39478812e-04, 0., 0., 0., 0., 0., 0., 0., 0.,
          0., 0., 2.76871640e-02, 9.09721106e-02, 4.39478812e-04, 0.,
          1.31843635e-03, 5.27374540e-03, 0., 0., 0., 0., 0., 0., 0., 0.,
          0., 0., 0., 0., 0., 0., 0., 0., 0., 0., 0., 0., 0., 0., 0., 0.,
          0., 0., 0., 0., 0., 0., 0., 0., 0., 0., 0., 0., 0., 0., 0., 0.,
          0. ]
      - [ 0., 1.16015458e-02, 3.35390121e-01, 7.75194168e-02, 0.,
          2.63671484e-03, 3.29062015e-01, 6.48631826e-02, 0., 0.,
          9.49217379e-03, 3.16405781e-02, 0., 0., 0., 0., 0.,
          5.27342956e-04, 3.21679227e-02, 2.58398056e-02, 0., 0.,
          4.21874365e-03, 5.27342956e-04, 0., 0., 0., 0., 0., 0., 0., 0.,
          0., 5.27342956e-04, 2.16210615e-02, 9.49217379e-03, 0., 0., 0.,
          0., 0., 0., 0., 0., 0., 0., 0., 0., 0., 1.58202893e-03,
          4.81464148e-01, 5.90624139e-02, 0., 0., 0., 4.21874365e-03, 0.,
          0., 0., 0., 0., 0., 0., 0., 0., 2.63671484e-03, 4.61952448e-01,
          3.69140087e-03, 0., 0., 0., 0., 0., 0., 0., 0., 0., 0., 0., 0.,
          0., 1.42382607e-02, 5.58456242e-01, 7.91014452e-03, 0.,
          5.27342956e-04, 6.80272430e-02, 0., 0., 0., 0., 0., 0., 0., 0.,
          0., 0., 0., 0., 0., 0., 0., 0., 0., 0., 0., 0., 0., 0., 0., 0.,
          0., 0., 0., 0., 0., 0., 0., 0., 0., 0., 0., 0., 0., 0., 0., 0.,
          0. ]
      - [ 0., 2.93842591e-02, 5.52282445e-02, 5.66443522e-03, 0.,
          3.54027213e-03, 4.07131314e-02, 0., 0., 0., 1.41610880e-03, 0.,
          0., 0., 0., 0., 0., 1.41610880e-03, 1.02667892e-02,
          3.89429927e-03, 0., 0., 0., 0., 0., 0., 0., 0., 0., 0., 0., 0.,
          0., 2.83221761e-03, 2.72600949e-02, 2.61980146e-02, 0.,
          1.06208166e-03, 3.54027201e-04, 0., 0., 0., 0., 0., 0., 0., 0.,
          0., 0., 2.30117682e-02, 9.48438883e-01, 7.32836351e-02, 0.,
          3.54027201e-04, 7.18675256e-02, 3.54027213e-03, 0., 0., 0., 0.,
          0., 0., 0., 0., 0., 3.78809124e-02, 2.76849270e-01,
          4.95638093e-03, 0., 0., 3.18624498e-03, 0., 0., 0., 0., 0., 0.,
          0., 0., 0., 0., 2.44278777e-02, 5.48742190e-02, 5.66443522e-03,
          0., 7.08054402e-04, 2.12416332e-02, 0., 0., 0., 0., 0., 0., 0.,
          0., 0., 0., 0., 0., 0., 0., 0., 0., 0., 0., 0., 0., 0., 0., 0.,
          0., 0., 0., 0., 0., 0., 0., 0., 0., 0., 0., 0., 0., 0., 0., 0.,
          0., 0. ]
      - [ 0., 3.48450094e-02, 3.15213323e-01, 4.87830117e-02, 0.,
          4.55665514e-02, 1.79585814e-01, 6.86178654e-02, 0., 0.,
          3.69893163e-02, 5.73602468e-02, 0., 0., 0., 0., 0.,
          3.21646244e-03, 7.98754841e-02, 4.82469350e-02, 0., 0., 0., 0.,
          0., 0., 0., 0., 0., 0., 0., 0., 0., 1.07215415e-03,
          2.05317512e-01, 3.64532396e-02, 0., 0., 0., 0., 0., 0., 0., 0.,
          0., 0., 0., 0., 0., 6.96900161e-03, 8.29311192e-01,
          5.57520129e-02, 0., 0., 0., 1.39380032e-02, 0., 0., 0., 0., 0.,
          0., 0., 0., 0., 2.51956228e-02, 2.65358150e-01, 2.89481618e-02,
          0., 0., 0., 0., 0., 0., 0., 0., 0., 0., 0., 0., 0.,
          3.53810862e-02, 1.91915587e-01, 4.28861659e-03, 0.,
          1.60823122e-03, 6.96900161e-03, 0., 0., 0., 0., 0., 0., 0., 0.,
          0., 0., 0., 0., 0., 0., 0., 0., 0., 0., 0., 0., 0., 0., 0., 0.,
          0., 0., 0., 0., 0., 0., 0., 0., 0., 0., 0., 0., 0., 0., 0., 0.,
          0. ]
      - [ 0., 1.39587941e-02, 1.17073752e-01, 5.76363094e-02, 0.,
          9.00567335e-04, 5.04317693e-02, 4.45780829e-02, 0., 0.,
          9.00567335e-04, 1.21576590e-02, 0., 0., 0., 0., 0.,
          1.35085103e-03, 2.83678714e-02, 2.34147515e-02, 0., 0., 0., 0.,
          0., 0., 0., 0., 0., 0., 0., 0., 0., 2.70170206e-03,
          9.77115557e-02, 5.44843227e-02, 0., 0., 0., 0., 0., 0., 0., 0.,
          0., 0., 0., 0., 0., 7.20453868e-03, 8.72199476e-01,
          3.04391772e-01, 0., 0., 8.55538994e-03, 1.12570915e-02, 0., 0.,
          0., 0., 0., 0., 0., 0., 0., 2.88181547e-02, 3.17449987e-01,
          3.42215598e-02, 0., 0., 0., 0., 0., 0., 0., 0., 0., 0., 0., 0.,
          0., 1.12570915e-02, 8.55538994e-02, 1.89119149e-02, 0., 0.,
          9.00567335e-04, 0., 0., 0., 0., 0., 0., 0., 0., 0., 0., 0., 0.,
          0., 0., 0., 0., 0., 0., 0., 0., 0., 0., 0., 0., 0., 0., 0., 0.,
          0., 0., 0., 0., 0., 0., 0., 0., 0., 0., 0., 0., 0. ]
      - [ 0., 0., 2.02140994e-02, 1.26944542e-01, 0., 0., 3.19382787e-01,
          7.05472052e-01, 0., 0., 9.05591697e-02, 6.12082958e-01, 0., 0.,
          0., 2.42569204e-03, 0., 1.61712803e-03, 6.87279413e-03,
          1.37455883e-02, 0., 0., 4.04282007e-04, 0., 0., 0., 0., 0., 0.,
          0., 0., 0., 0., 0., 2.42569204e-03, 8.08564015e-03, 0., 0., 0.,
          0., 0., 0., 0., 0., 0., 0., 0., 0., 0., 0., 4.44710208e-03,
          3.23425606e-03, 0., 0., 0., 0., 0., 0., 0., 0., 0., 0., 0., 0.,
          0., 4.44710208e-03, 7.27707567e-03, 6.87279413e-03, 0., 0., 0.,
          0., 0., 0., 0., 0., 0., 0., 0., 0., 0., 3.23425606e-03,
          1.69798434e-02, 8.89420416e-03, 0., 4.04282007e-04,
          5.25566610e-03, 7.68135767e-03, 0., 0., 1.61712803e-03,
          4.04282007e-04, 0., 0., 0., 0., 0., 0., 0., 0., 0., 0., 0., 0.,
          0., 0., 0., 0., 0., 0., 0., 0., 0., 0., 0., 0., 0., 0., 0., 0.,
          0., 0., 0., 0., 0., 0., 0., 0. ]
      - [ 0., 1.61964050e-03, 3.76836360e-01, 3.28786999e-01, 0.,
          3.23928101e-03, 7.26138830e-01, 3.89793485e-01, 0.,
          7.55832205e-03, 1.07976034e-01, 6.64052591e-02, 0.,
          5.39880130e-04, 2.15952052e-03, 1.02577228e-02, 0., 0.,
          9.71784256e-03, 2.21350864e-02, 0., 0., 5.39880130e-04, 0., 0.,
          0., 0., 0., 0., 0., 0., 0., 0., 0., 7.01844180e-03,
          7.93623850e-02, 0., 0., 5.39880130e-04, 5.39880130e-04, 0., 0.,
          0., 0., 0., 0., 0., 0., 0., 0., 5.18284962e-02, 7.01844171e-02,
          0., 0., 5.39880130e-04, 1.13374833e-02, 0., 0., 0., 0., 0., 0.,
          0., 0., 0., 0., 6.31659776e-02, 1.07976031e-02, 0., 0., 0., 0.,
          0., 0., 0., 0., 0., 0., 0., 0., 0., 0., 1.60884291e-01,
          9.44790244e-02, 0., 5.39880130e-04, 2.32148468e-02,
          1.72761641e-02, 0., 0., 0., 0., 0., 0., 0., 0., 0., 0., 0., 0.,
          0., 0., 0., 0., 0., 0., 0., 0., 0., 0., 0., 0., 0., 0., 0., 0.,
          0., 0., 0., 0., 0., 0., 0., 0., 0., 0., 0., 0. ]
      - [ 0., 4.23163688e-03, 5.36007285e-01, 1.32121101e-01, 0.,
          1.17545463e-02, 6.98220074e-01, 1.47166923e-01, 0.,
          4.70181840e-04, 3.62040028e-02, 1.41054559e-02, 0., 0., 0., 0.,
          4.70181840e-04, 2.82109110e-03, 2.82109119e-02, 5.26603684e-02,
          0., 0., 0., 0., 0., 0., 0., 0., 0., 0., 0., 0., 0.,
          4.70181840e-04, 1.50458189e-02, 4.27865498e-02, 0., 0., 0., 0.,
          0., 0., 0., 0., 0., 0., 0., 0., 0., 0., 2.06880011e-02,
          2.11581830e-02, 0., 0., 0., 0., 0., 0., 0., 0., 0., 0., 0., 0.,
          0., 0., 8.18116441e-02, 4.70181834e-03, 0., 0., 0., 0., 0., 0.,
          0., 0., 0., 0., 0., 0., 0., 0., 4.10938948e-01, 1.92774553e-02,
          0., 0., 4.18461859e-02, 1.36352740e-02, 0., 0., 0., 0., 0., 0.,
          0., 0., 0., 0., 0., 0., 0., 0., 0., 0., 0., 0., 0., 0., 0., 0.,
          0., 0., 0., 0., 0., 0., 0., 0., 0., 0., 0., 0., 0., 0., 0., 0.,
          0., 0. ]
      - [ 0., 0., 9.45864897e-03, 5.83283342e-02, 0., 7.88220728e-04,
          3.05041432e-01, 6.55405521e-01, 0., 0., 2.44348422e-01,
          6.43188119e-01, 0., 0., 1.18233112e-03, 9.45864897e-03, 0., 0.,
          1.97055191e-03, 1.85231864e-02, 0., 3.94110364e-04,
          1.57644146e-03, 0., 0., 0., 0., 0., 0., 0., 0., 0., 0., 0., 0.,
          7.88220763e-03, 0., 0., 0., 0., 0., 0., 0., 0., 0., 0., 0., 0.,
          0., 0., 0., 0., 0., 0., 0., 0., 0., 0., 0., 0., 0., 0., 0., 0.,
          0., 0., 0., 0., 0., 0., 0., 0., 0., 0., 0., 0., 0., 0., 0., 0.,
          0., 0., 0., 0., 0., 0., 1.18233112e-03, 0., 0., 0., 0., 0., 0.,
          0., 0., 0., 0., 0., 0., 0., 0., 0., 0., 0., 0., 0., 0., 0., 0.,
          0., 0., 0., 0., 0., 0., 0., 0., 0., 0., 0., 0., 0., 0., 0., 0.,
          0., 0., 0. ]
      - [ 0., 1.61653180e-02, 4.61187005e-01, 1.08402714e-01, 0.,
          5.22995554e-03, 3.59440595e-01, 1.85425691e-02, 0., 0.,
          2.94779316e-02, 4.75450506e-04, 0., 0., 0., 0., 0.,
          2.85270298e-03, 1.80671196e-02, 2.09198222e-02, 0., 0., 0., 0.,
          0., 0., 0., 0., 0., 0., 0., 0., 0., 9.50901012e-04,
          2.47234274e-02, 3.66096906e-02, 0., 0., 0., 0., 0., 0., 0., 0.,
          0., 0., 0., 0., 0., 9.98446066e-03, 9.17619467e-02,
          1.85425691e-02, 0., 0., 0., 0., 0., 0., 0., 0., 0., 0., 0., 0.,
          0., 4.75450512e-03, 2.09198222e-01, 3.37569863e-02, 0., 0.,
          1.90180202e-03, 0., 0., 0., 0., 0., 0., 0., 0., 0., 0.,
          1.52144162e-02, 7.62147188e-01, 3.04288324e-02, 0.,
          2.85270298e-03, 7.94002339e-02, 0., 0., 0., 0., 0., 0., 0., 0.,
          0., 0., 0., 0., 0., 0., 0., 0., 0., 0., 0., 0., 0., 0., 0., 0.,
          0., 0., 0., 0., 0., 0., 0., 0., 0., 0., 0., 0., 0., 0., 0., 0.,
          0. ]
      - [ 0., 1.70228025e-03, 3.04708183e-01, 5.70263900e-02, 0.,
          5.10684075e-03, 8.66035104e-01, 1.44693822e-01, 0.,
          3.40456050e-03, 3.23433250e-01, 1.08094797e-01, 0.,
          4.25570062e-04, 0., 0., 0., 1.27671019e-03, 2.12785043e-03,
          3.83013068e-03, 0., 0., 8.51140125e-04, 0., 0., 0., 0., 0., 0.,
          0., 0., 0., 0., 0., 6.38355082e-03, 1.27671019e-03, 0., 0., 0.,
          0., 0., 0., 0., 0., 0., 0., 0., 0., 0., 0., 4.21314351e-02,
          2.97899055e-03, 0., 0., 1.70228025e-03, 1.10648219e-02, 0., 0.,
          0., 0., 0., 0., 0., 0., 0., 0., 2.46830638e-02, 2.12785043e-03,
          0., 0., 0., 0., 0., 0., 0., 0., 0., 0., 0., 0., 0., 0.,
          1.06392518e-01, 9.36254114e-03, 0., 0., 5.10684066e-02,
          3.40456050e-03, 0., 0., 0., 0., 0., 0., 0., 0., 0., 0., 0., 0.,
          0., 0., 0., 0., 0., 0., 0., 0., 0., 0., 0., 0., 0., 0., 0., 0.,
          0., 0., 0., 0., 0., 0., 0., 0., 0., 0., 0., 0. ]
      - [ 0., 1.17546832e-02, 5.46592772e-01, 6.67879730e-02, 0.,
          5.34303777e-04, 2.54328609e-01, 5.77048063e-02, 0., 0.,
          8.54886044e-03, 3.20582255e-03, 0., 0., 0., 0., 0., 0.,
          7.48025253e-02, 4.27443013e-02, 0., 0., 0., 0., 0., 0., 0., 0.,
          0., 0., 0., 0., 0., 2.13721511e-03, 1.23424172e-01,
          8.06798711e-02, 0., 0., 0., 0., 0., 0., 0., 0., 0., 0., 0., 0.,
          0., 2.67151883e-03, 6.33149981e-01, 6.78565800e-02, 0., 0.,
          5.87734161e-03, 1.17546832e-02, 0., 0., 0., 0., 0., 0., 0., 0.,
          0., 7.48025300e-03, 2.99210101e-01, 1.38918981e-02, 0., 0., 0.,
          0., 0., 0., 0., 0., 0., 0., 0., 0., 0., 9.61746834e-03,
          3.22185189e-01, 4.27443022e-03, 0., 0., 4.27443022e-03, 0., 0.,
          0., 0., 0., 0., 0., 0., 0., 0., 0., 0., 0., 0., 0., 0., 0., 0.,
          0., 0., 0., 0., 0., 0., 0., 0., 0., 0., 0., 0., 0., 0., 0., 0.,
          0., 0., 0., 0., 0., 0., 0. ]
      - [ 0., 1.64982043e-02, 2.30459288e-01, 4.12455089e-02, 0.,
          1.03113772e-02, 1.77355692e-01, 9.28023923e-03, 0.,
          1.54670654e-03, 4.84634750e-02, 2.06227554e-03, 0., 0., 0., 0.,
          0., 0., 2.73251496e-02, 1.54670663e-02, 0., 0., 0., 0., 0., 0.,
          0., 0., 0., 0., 0., 0., 0., 2.57784431e-03, 1.95916165e-02,
          4.22766469e-02, 0., 0., 0., 0., 0., 0., 0., 0., 0., 0., 0., 0.,
          0., 7.73353316e-03, 3.13465863e-01, 7.01173618e-02, 0.,
          5.15568885e-04, 5.15568885e-04, 0., 0., 0., 0., 0., 0., 0., 0.,
          0., 0., 5.51658683e-02, 6.20229363e-01, 1.44359283e-02, 0., 0.,
          3.60898208e-03, 0., 0., 0., 0., 0., 0., 0., 0., 0., 0.,
          3.86676639e-02, 6.28478467e-01, 1.23736523e-02, 0.,
          1.08269462e-02, 1.40750304e-01, 5.15568885e-04, 0., 0.,
          5.15568885e-04, 0., 0., 0., 0., 0., 0., 0., 0., 0., 0., 0., 0.,
          0., 0., 0., 0., 0., 0., 0., 0., 0., 0., 0., 0., 0., 0., 0., 0.,
          0., 0., 0., 0., 0., 0., 0., 0., 0. ]
      - [ 0., 2.28444282e-02, 6.53350651e-01, 7.19599500e-02, 0.,
          5.02577424e-02, 3.00404221e-01, 5.93955144e-02, 0., 0.,
          2.91266460e-02, 6.62488416e-02, 0., 0., 0., 1.14222139e-03, 0.,
          1.14222139e-03, 8.39532763e-02, 6.96755052e-02, 0., 0., 0., 0.,
          0., 0., 0., 0., 0., 0., 0., 0., 0., 1.71333214e-03,
          1.17648803e-01, 1.37066571e-02, 0., 0., 0., 0., 0., 0., 0., 0.,
          0., 0., 0., 0., 0., 6.85332855e-03, 4.62028563e-01,
          3.14110890e-02, 0., 0., 0., 0., 0., 0., 0., 0., 0., 0., 0., 0.,
          0., 1.54199889e-02, 2.79844254e-01, 7.42443930e-03, 0.,
          5.71110693e-04, 0., 0., 0., 0., 0., 0., 0., 0., 0., 0., 0.,
          2.39866506e-02, 3.80359739e-01, 1.71333214e-03, 0.,
          6.85332855e-03, 3.94066386e-02, 0., 0., 0., 0., 0., 0., 0., 0.,
          0., 0., 0., 0., 0., 0., 0., 0., 0., 0., 0., 0., 0., 0., 0., 0.,
          0., 0., 0., 0., 0., 0., 0., 0., 0., 0., 0., 0., 0., 0., 0., 0.,
          0. ]
      - [ 0., 3.35377268e-02, 2.24807575e-01, 8.17482099e-02, 0.,
          4.19221586e-03, 1.46727547e-01, 5.39747775e-02, 0., 0.,
          1.15285935e-02, 3.14416178e-03, 0., 0., 0., 0., 0.,
          6.81235082e-03, 3.14416178e-02, 2.09610797e-02, 0., 0., 0., 0.,
          0., 0., 0., 0., 0., 0., 0., 0., 0., 3.66818882e-03,
          3.56338359e-02, 4.08741049e-02, 0., 0., 0., 0., 0., 0., 0., 0.,
          0., 0., 0., 0., 0., 3.14416178e-03, 7.14772820e-01,
          1.37819096e-01, 0., 5.24026982e-04, 3.66818868e-02,
          2.62013488e-02, 0., 0., 0., 0., 0., 0., 0., 0., 0.,
          3.24896723e-02, 5.19834757e-01, 8.90845899e-03, 0., 0.,
          1.57208089e-03, 0., 0., 0., 0., 0., 0., 0., 0., 0., 0.,
          3.24896723e-02, 3.24896723e-01, 1.67688634e-02, 0., 0.,
          4.92585376e-02, 0., 0., 0., 0., 0., 0., 0., 0., 0., 0., 0., 0.,
          0., 0., 0., 0., 0., 0., 0., 0., 0., 0., 0., 0., 0., 0., 0., 0.,
          0., 0., 0., 0., 0., 0., 0., 0., 0., 0., 0., 0., 0. ]
      - [ 0., 3.05715073e-02, 3.15560132e-01, 6.06248528e-02, 0.,
          8.80873948e-03, 9.89687741e-02, 3.36804725e-02, 0., 0.,
          2.27990896e-02, 1.39903501e-02, 0., 0., 1.03632221e-03,
          5.69977239e-03, 0., 9.84506123e-03, 6.83972687e-02,
          7.77241681e-03, 0., 5.18161105e-04, 5.18161105e-04, 0., 0., 0.,
          0., 0., 0., 0., 0., 0., 0., 2.07264442e-03, 7.97968134e-02,
          2.22809277e-02, 0., 0., 0., 0., 0., 0., 0., 0., 0., 0., 0., 0.,
          0., 3.21259908e-02, 7.65842140e-01, 6.83972687e-02, 0., 0.,
          9.94869396e-02, 6.21793373e-03, 0., 0., 0., 0., 0., 0., 0., 0.,
          0., 4.50800173e-02, 3.86548191e-01, 0., 0., 0., 1.55448343e-03,
          0., 0., 0., 0., 0., 0., 0., 0., 0., 0., 1.29540283e-02,
          3.43022674e-01, 1.03632221e-03, 0., 0., 3.00533455e-02, 0., 0.,
          0., 0., 0., 0., 0., 0., 0., 0., 0., 0., 0., 0., 0., 0., 0., 0.,
          0., 0., 0., 0., 0., 0., 0., 0., 0., 0., 0., 0., 0., 0., 0., 0.,
          0., 0., 0., 0., 0., 0., 0. ]
      - [ 0., 1.37583213e-02, 1.59596533e-01, 2.10960936e-02, 0.,
          3.30199711e-02, 5.79683959e-01, 1.00894356e-02, 0.,
          4.58610710e-04, 5.77849522e-02, 6.87916065e-03, 0., 0., 0., 0.,
          0., 0., 5.04471781e-03, 3.21027497e-03, 0., 4.58610710e-04, 0.,
          0., 0., 0., 0., 0., 0., 0., 0., 0., 0., 0., 1.51341539e-02,
          1.65099856e-02, 0., 0., 0., 0., 0., 0., 0., 0., 0., 0., 0., 0.,
          0., 0., 1.37583213e-03, 4.12749639e-03, 0., 0., 0., 0., 0., 0.,
          0., 0., 0., 0., 0., 0., 0., 0., 1.69227362e-01, 3.21027497e-03,
          0., 0., 5.50332852e-03, 0., 0., 0., 0., 0., 0., 0., 0., 0., 0.,
          1.28410999e-02, 6.22334719e-01, 1.32997110e-02, 0.,
          2.38477569e-02, 4.64572668e-01, 2.29305355e-03, 0.,
          1.83444284e-03, 0., 0., 0., 0., 0., 0., 0., 0., 0., 0., 0., 0.,
          0., 0., 0., 0., 0., 0., 0., 0., 0., 0., 0., 0., 0., 0., 0., 0.,
          0., 0., 0., 0., 0., 0., 0., 0., 0., 0. ]
      - [ 0., 0., 2.12273723e-03, 1.03104375e-02, 0., 3.03248176e-04,
          1.00071896e-02, 4.88229543e-02, 0., 3.03248176e-04,
          1.45559125e-02, 5.44633687e-01, 0., 1.81948906e-03,
          3.63897812e-03, 8.36964965e-01, 0., 0., 3.03248176e-04,
          1.81948906e-03, 0., 0., 0., 0., 0., 0., 0., 0., 0., 0., 0., 0.,
          0., 0., 3.03248176e-04, 0., 0., 0., 0., 0., 0., 0., 0., 0., 0.,
          0., 0., 0., 0., 0., 0., 0., 0., 0., 0., 0., 0., 0., 0., 0., 0.,
          0., 0., 0., 0., 0., 6.06496353e-04, 0., 0., 0., 0., 0., 0., 0.,
          0., 0., 0., 0., 0., 0., 0., 0., 1.51624088e-03, 5.45846717e-03,
          0., 0., 3.03248176e-04, 0., 0., 0., 2.12273723e-03, 0., 0., 0.,
          0., 0., 0., 0., 0., 0., 0., 0., 0., 0., 0., 0., 0., 0., 0., 0.,
          0., 0., 0., 0., 0., 0., 0., 0., 0., 0., 0., 0., 0., 0., 0., 0.,
          0., 0. ]
      - [ 0., 5.23247174e-04, 1.64822862e-01, 1.65869355e-01, 0., 0.,
          6.08013272e-01, 5.72432458e-01, 0., 0., 1.80520281e-01,
          4.06039834e-01, 0., 0., 2.61623599e-03, 1.30811799e-02, 0., 0.,
          9.41844936e-03, 7.84870796e-03, 0., 0., 0., 0., 0., 0., 0., 0.,
          0., 0., 0., 0., 0., 0., 7.84870796e-03, 9.94169712e-03, 0., 0.,
          0., 0., 0., 0., 0., 0., 0., 0., 0., 0., 0., 0., 1.56974159e-02,
          2.09298879e-02, 0., 0., 0., 0., 0., 0., 0., 0., 0., 0., 0., 0.,
          0., 0., 4.13365290e-02, 2.14531347e-02, 0., 0., 1.04649435e-03,
          0., 0., 0., 0., 0., 0., 0., 0., 0., 0., 0., 1.96740940e-01,
          6.95918798e-02, 0., 0., 4.55225073e-02, 3.92435417e-02, 0., 0.,
          0., 0., 0., 0., 0., 0., 0., 0., 0., 0., 0., 0., 0., 0., 0., 0.,
          0., 0., 0., 0., 0., 0., 0., 0., 0., 0., 0., 0., 0., 0., 0., 0.,
          0., 0., 0., 0., 0., 0. ]
      - [ 0., 3.88795212e-02, 2.74443686e-01, 5.90053909e-02, 0.,
          5.03146742e-03, 1.11149691e-01, 7.59294182e-02, 0., 0.,
          8.23330972e-03, 2.24128999e-02, 0., 0., 0., 0., 0.,
          1.82962453e-03, 8.91941935e-02, 3.65924910e-02, 0., 0., 0., 0.,
          0., 0., 0., 0., 0., 0., 0., 0., 0., 4.57406137e-03,
          1.82962447e-01, 6.63238838e-02, 0., 0., 0., 0., 0., 0., 0., 0.,
          0., 0., 0., 0., 0., 6.40368555e-03, 9.05664146e-01,
          6.58664778e-02, 0., 0., 1.05203409e-02, 2.28703069e-03, 0., 0.,
          0., 0., 0., 0., 0., 0., 0., 1.14351530e-02, 1.34020001e-01,
          2.88165864e-02, 0., 0., 2.74443673e-03, 0., 0., 0., 0., 0., 0.,
          0., 0., 0., 0., 1.73814334e-02, 9.83423144e-02, 1.23499651e-02,
          0., 9.14812263e-04, 0., 0., 0., 0., 0., 0., 0., 0., 0., 0., 0.,
          0., 0., 0., 0., 0., 0., 0., 0., 0., 0., 0., 0., 0., 0., 0., 0.,
          0., 0., 0., 0., 0., 0., 0., 0., 0., 0., 0., 0., 0., 0., 0. ]
      - [ 0., 3.77694005e-03, 1.62408426e-01, 3.44121195e-02, 0.,
          1.51077602e-02, 7.77210355e-01, 1.67864002e-02, 0.,
          4.19660006e-03, 7.97353983e-02, 1.09111601e-02, 0., 0.,
          8.39320011e-04, 0., 0., 0., 1.13308206e-02, 6.71456009e-03, 0.,
          1.25898002e-03, 4.19660006e-04, 0., 0., 0., 0., 0., 0., 0., 0.,
          0., 0., 0., 4.19660006e-04, 2.09830003e-03, 0., 0., 0., 0., 0.,
          0., 0., 0., 0., 0., 0., 0., 0., 0., 7.13422010e-03,
          2.47599408e-02, 0., 0., 0., 0., 0., 0., 0., 0., 0., 0., 0., 0.,
          0., 0., 1.34291202e-02, 2.93762004e-03, 0., 0., 2.93762004e-03,
          0., 0., 0., 0., 0., 0., 0., 0., 0., 0., 3.35728005e-03,
          4.11686480e-01, 1.59470811e-02, 0., 9.23252013e-03,
          4.36446398e-01, 8.39320011e-04, 0., 0., 0., 0., 0., 0., 0., 0.,
          0., 0., 0., 0., 0., 0., 0., 0., 0., 0., 0., 0., 0., 0., 0., 0.,
          0., 0., 0., 0., 0., 0., 0., 0., 0., 0., 0., 0., 0., 0., 0., 0. ]
      - [ 0., 3.51870642e-03, 2.99090058e-01, 4.61830236e-02, 0.,
          1.05561195e-02, 8.47568452e-01, 1.30192146e-01, 0.,
          8.79676605e-04, 1.06440872e-01, 2.02325620e-02, 0., 0.,
          8.79676605e-04, 1.31951494e-03, 0., 0., 2.33114306e-02,
          7.03741284e-03, 0., 0., 2.19919160e-03, 0., 0., 0., 0., 0., 0.,
          0., 0., 0., 0., 0., 3.95854469e-03, 4.39838303e-04, 0., 0., 0.,
          0., 0., 0., 0., 0., 0., 0., 0., 0., 0., 0., 4.44236696e-02, 0.,
          0., 0., 0., 0., 0., 0., 0., 0., 0., 0., 0., 0., 0.,
          2.19919160e-03, 1.12158768e-01, 1.75935321e-03, 0., 0., 0., 0.,
          0., 0., 0., 0., 0., 0., 0., 0., 0., 9.67644248e-03,
          3.52750331e-01, 7.03741284e-03, 0., 1.31951494e-03,
          1.46466151e-01, 4.39838320e-03, 0., 0., 0., 0., 0., 0., 0., 0.,
          0., 0., 0., 0., 0., 0., 0., 0., 0., 0., 0., 0., 0., 0., 0., 0.,
          0., 0., 0., 0., 0., 0., 0., 0., 0., 0., 0., 0., 0., 0., 0., 0. ]
      - [ 0., 2.83485055e-02, 1.26150846e-01, 2.17338540e-02, 0.,
          9.92197730e-03, 8.03207681e-02, 1.08669270e-02, 0., 0.,
          2.17338540e-02, 4.63025607e-02, 0., 0., 0., 5.66970138e-03, 0.,
          3.77980084e-03, 4.34677079e-02, 2.36237538e-03, 0., 0., 0., 0.,
          0., 0., 0., 0., 0., 0., 0., 0., 0., 6.61465153e-03,
          2.92934552e-02, 5.19722607e-03, 0., 0., 0., 0., 0., 0., 0., 0.,
          0., 0., 0., 0., 0., 2.64586061e-02, 8.66046846e-01,
          1.88990030e-02, 0., 4.72475105e-04, 3.04746449e-01,
          3.49631570e-02, 0., 0., 0., 0., 0., 0., 0., 0., 0.,
          7.03987926e-02, 3.16085845e-01, 1.41742534e-03, 0.,
          3.77980084e-03, 1.03944521e-02, 0., 0., 0., 0., 0., 0., 0., 0.,
          0., 0., 5.57520613e-02, 1.17646299e-01, 4.72475105e-04, 0.,
          2.50411797e-02, 5.38621619e-02, 0., 0., 0., 0., 0., 0., 0., 0.,
          0., 0., 0., 0., 0., 0., 0., 0., 0., 0., 0., 0., 0., 0., 0., 0.,
          0., 0., 0., 0., 0., 0., 0., 0., 0., 0., 0., 0., 0., 0., 0., 0.,
          0. ]
      - [ 0., 2.14881208e-02, 2.95103520e-01, 6.39868453e-02, 0.,
          5.49140833e-02, 2.97491074e-01, 5.49140833e-02, 0., 0.,
          2.96058543e-02, 3.43809910e-02, 0., 0., 0., 0., 0.,
          4.77513764e-04, 1.71904955e-02, 1.43254129e-02, 0.,
          4.77513764e-04, 9.55027528e-04, 0., 0., 0., 0., 0., 0., 0., 0.,
          0., 0., 9.55027528e-04, 2.33981758e-02, 3.53360176e-02, 0., 0.,
          0., 0., 0., 0., 0., 0., 0., 0., 0., 0., 0., 0., 1.08873144e-01,
          2.05330923e-02, 0., 0., 0., 0., 0., 0., 0., 0., 0., 0., 0., 0.,
          0., 1.28928721e-02, 2.61677563e-01, 1.14603303e-02, 0., 0.,
          4.77513764e-04, 0., 0., 0., 0., 0., 0., 0., 0., 0., 0.,
          3.82011011e-02, 8.49974513e-01, 5.25265140e-03, 0.,
          2.24431474e-02, 6.30318150e-02, 0., 0., 0., 0., 0., 0., 0., 0.,
          0., 0., 0., 0., 0., 0., 0., 0., 0., 0., 0., 0., 0., 0., 0., 0.,
          0., 0., 0., 0., 0., 0., 0., 0., 0., 0., 0., 0., 0., 0., 0., 0.,
          0. ]
      - [ 0., 1.77803133e-02, 2.30650172e-01, 1.09151363e-01, 0.,
          1.48169277e-03, 9.18649510e-02, 3.35850343e-02, 0., 0.,
          3.95118073e-03, 2.17314940e-02, 0., 0., 0., 0., 0.,
          2.46948795e-03, 3.35850343e-02, 3.65484208e-02, 0., 0., 0., 0.,
          0., 0., 0., 0., 0., 0., 0., 0., 0., 9.87795182e-04,
          3.21033411e-02, 3.75362150e-02, 0., 0., 0., 0., 0., 0., 0., 0.,
          0., 0., 0., 0., 0., 4.44507832e-03, 7.33437896e-01,
          1.15078136e-01, 0., 0., 2.32131854e-02, 1.08657470e-02, 0., 0.,
          0., 0., 0., 0., 0., 0., 0., 1.97559036e-02, 5.55140853e-01,
          1.62986200e-02, 0., 0., 0., 0., 0., 0., 0., 0., 0., 0., 0., 0.,
          0., 1.33352345e-02, 2.41022021e-01, 1.13596441e-02, 0., 0.,
          2.27192882e-02, 0., 0., 0., 0., 0., 0., 0., 0., 0., 0., 0., 0.,
          0., 0., 0., 0., 0., 0., 0., 0., 0., 0., 0., 0., 0., 0., 0., 0.,
          0., 0., 0., 0., 0., 0., 0., 0., 0., 0., 0., 0., 0. ]
      - [ 0., 3.89819480e-02, 3.55643511e-01, 8.33038837e-02, 0.,
          2.40299664e-02, 1.68743774e-01, 6.51479140e-02, 0., 0.,
          3.15059572e-02, 2.13599708e-02, 0., 0., 5.33999293e-04,
          1.06799859e-03, 0., 1.01459865e-02, 9.45178717e-02,
          2.99039595e-02, 0., 0., 0., 0., 0., 0., 0., 0., 0., 0., 0., 0.,
          0., 8.54398869e-03, 1.40441805e-01, 3.84479463e-02, 0., 0.,
          5.33999293e-04, 0., 0., 0., 0., 0., 0., 0., 0., 0., 0.,
          7.47598987e-03, 7.90852904e-01, 2.93699596e-02, 0., 0.,
          5.33999293e-04, 0., 0., 0., 0., 0., 0., 0., 0., 0., 0.,
          2.02919729e-02, 3.13991576e-01, 6.40799105e-03, 0., 0., 0., 0.,
          0., 0., 0., 0., 0., 0., 0., 0., 0., 4.91279326e-02,
          2.66465634e-01, 1.60199776e-03, 0., 1.06799859e-03,
          1.65539775e-02, 0., 0., 0., 0., 0., 0., 0., 0., 0., 0., 0., 0.,
          0., 0., 0., 0., 0., 0., 0., 0., 0., 0., 0., 0., 0., 0., 0., 0.,
          0., 0., 0., 0., 0., 0., 0., 0., 0., 0., 0., 0., 0. ]
      - [ 0., 1.95879936e-02, 5.47344506e-01, 8.89854580e-02, 0.,
          1.62300523e-02, 5.31674087e-01, 4.86901551e-02, 0., 0.,
          1.56703945e-02, 6.71588350e-03, 0., 0., 0., 0., 0.,
          1.11931388e-03, 5.26077524e-02, 3.58180441e-02, 0., 0.,
          5.59656939e-04, 0., 0., 0., 0., 0., 0., 0., 0., 0., 0., 0.,
          1.42152861e-01, 2.35055927e-02, 0., 0., 1.67897088e-03, 0., 0.,
          0., 0., 0., 0., 0., 0., 0., 0., 1.67897088e-03, 3.02214772e-01,
          1.12491049e-01, 0., 0., 2.23862776e-03, 7.27554038e-03, 0., 0.,
          0., 0., 0., 0., 0., 0., 0., 2.23862776e-03, 2.33936608e-01,
          1.51107376e-02, 0., 0., 0., 0., 0., 0., 0., 0., 0., 0., 0., 0.,
          0., 6.15622662e-03, 4.69552189e-01, 1.06334826e-02, 0.,
          1.11931388e-03, 4.53322120e-02, 0., 0., 0., 0., 0., 0., 0., 0.,
          0., 0., 0., 0., 0., 0., 0., 0., 0., 0., 0., 0., 0., 0., 0., 0.,
          0., 0., 0., 0., 0., 0., 0., 0., 0., 0., 0., 0., 0., 0., 0., 0.,
          0. ]
      - [ 0., 4.33009438e-04, 8.01067501e-02, 2.01782405e-01, 0.,
          1.29902828e-03, 2.24298894e-01, 8.83772254e-01, 0., 0.,
          5.62912263e-02, 3.16096902e-01, 0., 0., 0., 4.76310402e-03, 0.,
          4.33009438e-04, 4.76310402e-03, 1.73203778e-02, 0., 0., 0., 0.,
          0., 0., 0., 0., 0., 0., 0., 0., 0., 0., 6.49514142e-03,
          3.55067737e-02, 0., 0., 0., 0., 0., 0., 0., 0., 0., 0., 0., 0.,
          0., 0., 5.62912272e-03, 1.21242646e-02, 0., 0., 0., 0., 0., 0.,
          0., 0., 0., 0., 0., 0., 0., 8.66018876e-04, 9.52620804e-03,
          1.12582454e-02, 0., 0., 4.33009438e-04, 0., 0., 0., 0., 0., 0.,
          0., 0., 0., 0., 4.33009438e-04, 4.20019142e-02, 7.83747062e-02,
          0., 0., 5.15281223e-02, 7.62096643e-02, 0., 0., 0., 0., 0., 0.,
          0., 0., 0., 0., 0., 0., 0., 0., 0., 0., 0., 0., 0., 0., 0., 0.,
          0., 0., 0., 0., 0., 0., 0., 0., 0., 0., 0., 0., 0., 0., 0., 0.,
          0., 0. ]
      - [ 0., 7.35622458e-03, 1.41607314e-01, 7.81598873e-03, 0.,
          4.59764036e-04, 6.57462552e-02, 3.54018286e-02, 0., 0.,
          9.19528073e-04, 4.09189984e-02, 0., 0., 0., 0., 0.,
          1.37929211e-03, 5.70107400e-02, 8.27575289e-03, 0., 0., 0., 0.,
          0., 0., 0., 0., 0., 0., 0., 0., 0., 0., 1.14481241e-01,
          4.64361683e-02, 0., 0., 1.83905615e-03, 0., 0., 0., 0., 0., 0.,
          0., 0., 0., 0., 1.05745727e-02, 9.05735135e-01, 2.12870747e-01,
          0., 0., 2.27123424e-01, 7.90794119e-02, 0., 0., 0., 0., 0., 0.,
          0., 0., 0., 1.56319775e-02, 1.52181894e-01, 1.60917416e-02, 0.,
          0., 1.37929211e-03, 0., 0., 0., 0., 0., 0., 0., 0., 0., 0.,
          6.43669628e-03, 8.09184685e-02, 5.97693212e-03, 0., 0.,
          9.19528026e-03, 0., 0., 0., 0., 0., 0., 0., 0., 0., 0., 0., 0.,
          0., 0., 0., 0., 0., 0., 0., 0., 0., 0., 0., 0., 0., 0., 0., 0.,
          0., 0., 0., 0., 0., 0., 0., 0., 0., 0., 0., 0., 0. ]
      - [ 0., 1.23679359e-02, 4.34856623e-01, 1.39510319e-01, 0.,
          3.46302204e-02, 8.12326014e-01, 2.15696797e-01, 0.,
          6.92604389e-03, 1.31594837e-01, 5.68925031e-02, 0.,
          1.48415228e-03, 1.48415228e-03, 0., 0., 9.89434891e-04,
          1.13785006e-02, 4.40298505e-02, 0., 0., 0., 4.94717446e-04, 0.,
          0., 0., 0., 0., 0., 0., 0., 0., 0., 9.89434868e-03,
          6.13449588e-02, 0., 0., 0., 0., 0., 0., 0., 0., 0., 0., 0., 0.,
          0., 4.45245672e-03, 1.18732182e-02, 2.77041756e-02, 0., 0., 0.,
          0., 0., 0., 0., 0., 0., 0., 0., 0., 0., 4.45245672e-03,
          2.91883275e-02, 2.81988923e-02, 0., 9.89434891e-04,
          4.94717446e-04, 0., 0., 0., 0., 0., 0., 0., 0., 0., 0.,
          8.41019582e-03, 2.01844707e-01, 5.09558953e-02, 0.,
          4.94717434e-03, 1.05374813e-01, 3.95773957e-03, 0., 0., 0., 0.,
          0., 0., 0., 0., 0., 0., 0., 0., 0., 0., 0., 0., 0., 0., 0., 0.,
          0., 0., 0., 0., 0., 0., 0., 0., 0., 0., 0., 0., 0., 0., 0., 0.,
          0., 0., 0., 0. ]
      - [ 0., 6.12224173e-03, 4.66232240e-01, 5.79258241e-02, 0.,
          3.76753323e-02, 6.32945597e-01, 5.98095916e-02, 0.,
          5.18035842e-03, 1.43166259e-01, 4.75651063e-02, 0., 0., 0.,
          2.16633156e-02, 0., 0., 4.70941653e-03, 9.41883307e-04, 0.,
          4.70941653e-04, 9.41883307e-04, 0., 0., 0., 0., 0., 0., 0., 0.,
          0., 0., 0., 5.65129984e-03, 2.35470827e-03, 0., 0., 0., 0., 0.,
          0., 0., 0., 0., 0., 0., 0., 0., 0., 1.31863663e-02, 0., 0., 0.,
          0., 0., 0., 0., 0., 0., 0., 0., 0., 0., 0., 0., 1.14909768e-01,
          0., 0., 0., 1.88376661e-03, 0., 0., 0., 0., 0., 0., 0., 0., 0.,
          0., 4.23847511e-03, 5.71252227e-01, 4.70941653e-04, 0.,
          5.65129984e-03, 1.02665283e-01, 0., 0., 0., 0., 0., 0., 0., 0.,
          0., 0., 0., 0., 0., 0., 0., 0., 0., 0., 0., 0., 0., 0., 0., 0.,
          0., 0., 0., 0., 0., 0., 0., 0., 0., 0., 0., 0., 0., 0., 0., 0.,
          0. ]
      - [ 0., 1.14782155e-02, 4.71650332e-01, 8.55648816e-02, 0.,
          2.08694837e-03, 3.80868077e-01, 5.37389182e-02, 0., 0.,
          3.18259634e-02, 3.80868055e-02, 0., 0., 0., 0., 0.,
          1.56521122e-03, 8.86953063e-03, 1.56521127e-02, 0., 0., 0., 0.,
          0., 0., 0., 0., 0., 0., 0., 0., 0., 5.21737093e-04,
          3.23476978e-02, 5.53041324e-02, 0., 0., 1.04347419e-03, 0., 0.,
          0., 0., 0., 0., 0., 0., 0., 0., 5.73910773e-03, 4.64345999e-02,
          4.01737541e-02, 0., 5.21737093e-04, 5.73910773e-03,
          1.04347419e-03, 0., 0., 0., 0., 0., 0., 0., 0., 0.,
          7.30431918e-03, 2.03999192e-01, 1.87825356e-02, 0.,
          2.60868552e-03, 5.21737104e-03, 0., 0., 0., 0., 0., 0., 0., 0.,
          0., 0., 1.66955870e-02, 7.11127639e-01, 9.18257236e-02, 0.,
          5.21737104e-03, 2.34259948e-01, 5.73910773e-03, 0., 0., 0., 0.,
          0., 0., 0., 0., 0., 0., 0., 0., 0., 0., 0., 0., 0., 0., 0., 0.,
          0., 0., 0., 0., 0., 0., 0., 0., 0., 0., 0., 0., 0., 0., 0., 0.,
          0., 0., 0., 0. ]
      - [ 0., 4.84577753e-03, 3.27310234e-01, 4.27309461e-02, 0.,
          6.16735313e-03, 5.31713963e-01, 4.27309461e-02, 0.,
          1.32157572e-03, 4.49335724e-02, 1.80615336e-02, 0., 0.,
          8.81050422e-04, 1.76210084e-03, 0., 4.40525211e-04,
          1.62994340e-02, 6.16735313e-03, 0., 0., 8.81050422e-04, 0., 0.,
          0., 0., 0., 0., 0., 0., 0., 0., 0., 1.32157570e-02,
          1.36562819e-02, 0., 0., 0., 0., 0., 0., 0., 0., 0., 0., 0., 0.,
          0., 0., 5.28630288e-03, 1.76210084e-03, 0., 0., 0., 0., 0., 0.,
          0., 0., 0., 0., 0., 0., 0., 0., 1.17620237e-01, 8.81050422e-04,
          0., 0., 3.96472681e-03, 0., 0., 0., 0., 0., 0., 0., 0., 0., 0.,
          3.96472681e-03, 7.43166029e-01, 3.52420169e-03, 0.,
          1.23347063e-02, 1.92509517e-01, 4.40525211e-04, 0., 0., 0., 0.,
          0., 0., 0., 0., 0., 0., 0., 0., 0., 0., 0., 0., 0., 0., 0., 0.,
          0., 0., 0., 0., 0., 0., 0., 0., 0., 0., 0., 0., 0., 0., 0., 0.,
          0., 0., 0., 0. ]
      - [ 0., 1.98202915e-02, 2.70546973e-01, 5.54968156e-02, 0.,
          1.83337703e-02, 4.98975843e-01, 6.24339171e-02, 0.,
          7.92811625e-03, 6.24339171e-02, 9.41463839e-03, 0.,
          9.91014531e-04, 0., 0., 0., 0., 1.63517408e-02, 3.96405812e-03,
          0., 0., 0., 0., 0., 0., 0., 0., 0., 0., 0., 0., 0.,
          9.91014531e-04, 6.44159457e-03, 7.43260933e-03, 0., 0.,
          4.95507265e-04, 1.98202906e-03, 0., 0., 0., 0., 0., 0., 0., 0.,
          0., 2.97304383e-03, 3.76585536e-02, 2.97304383e-03, 0., 0., 0.,
          0., 0., 0., 0., 0., 0., 0., 0., 0., 0., 4.45956551e-03,
          2.99781919e-01, 2.47753644e-03, 0., 0., 0., 0., 0., 0., 0., 0.,
          0., 0., 0., 0., 0., 5.94608765e-03, 7.05602407e-01,
          3.56765240e-02, 0., 3.96405812e-03, 2.74015516e-01,
