%YAML:1.0
---
opencv_ml_svm:
   format: 3
   svmType: C_SVC
   kernel:
      type: RBF
      gamma: 5.
   C: 5.
   term_criteria: { epsilon:1.1920928955078125e-07, iterations:1000 }
   var_count: 514
   class_count: 2
   class_labels: !!opencv-matrix
      rows: 2
      cols: 1
      dt: i
      data: [ 0, 1 ]
   sv_total: 575
   support_vectors:
      - [ 0., 0., 0., 0., 3.50484671e-03, 3.57494354e-02, 7.00969307e-04,
          4.90678521e-03, 0., 0., 0., 0., 1.19164782e-02, 1.24071568e-01,
          2.94407122e-02, 4.90678521e-03, 0., 0., 0., 7.00969307e-04,
          1.96271408e-02, 3.11931342e-01, 3.86234105e-01, 2.17300486e-02,
          0., 0., 0., 2.10290798e-03, 1.12155089e-02, 2.81789660e-01,
          5.05398870e-01, 7.21998438e-02, 0., 0., 0., 2.10290798e-03,
          1.33184176e-02, 1.94168508e-01, 4.30395156e-01, 5.95823936e-02,
          0., 0., 0., 7.71066267e-03, 4.90678521e-03, 9.60327983e-02,
          3.65906000e-01, 5.81804551e-02, 0., 0., 0., 3.50484671e-03,
          3.50484671e-03, 4.90678521e-03, 7.43027478e-02, 2.10290798e-03,
          0., 0., 0., 7.00969307e-04, 0., 0., 0., 0., 0., 0., 0., 0.,
          2.80387723e-03, 1.47203561e-02, 0., 2.80387723e-03, 0., 0., 0.,
          7.00969307e-04, 7.00969307e-04, 1.40193861e-03, 7.00969307e-04,
          0., 0., 0., 0., 0., 0., 0., 0., 0., 0., 0., 0., 0., 0., 0., 0.,
          0., 0., 0., 0., 0., 0., 0., 0., 0., 0., 0., 0., 0., 0., 0., 0.,
          0., 0., 0., 0., 0., 0., 0., 0., 0., 0., 0., 0., 0., 0., 0., 0.,
          0., 0., 0., 0., 0., 1.40193861e-03, 7.71066267e-03, 0.,
          2.10290798e-03, 0., 0., 0., 0., 7.00969307e-04, 7.00969307e-04,
          7.00969307e-04, 0., 0., 0., 0., 0., 0., 0., 0., 0., 0., 0., 0.,
          0., 0., 0., 0., 0., 0., 0., 0., 0., 0., 0., 0., 0., 0., 0., 0.,
          0., 0., 0., 0., 0., 0., 0., 0., 0., 0., 0., 0., 0., 0., 0., 0.,
          0., 0., 0., 0., 0., 0., 0., 0., 0., 1.40193861e-03,
          4.20581596e-03, 0., 0., 0., 0., 0., 0., 0., 2.10290798e-03, 0.,
          0., 0., 0., 0., 0., 0., 0., 0., 0., 0., 0., 0., 0., 0., 0., 0.,
          0., 0., 0., 0., 0., 0., 0., 0., 0., 0., 0., 0., 0., 0., 0., 0.,
          0., 0., 0., 0., 0., 0., 0., 0., 0., 0., 0., 0., 0., 0., 0., 0.,
          0., 0., 0., 0., 0., 7.00969307e-04, 9.11260117e-03, 0., 0., 0.,
          0., 0., 0., 0., 0., 0., 0., 0., 0., 0., 0., 0., 0., 0., 0., 0.,
          0., 0., 0., 0., 0., 0., 0., 0., 0., 0., 0., 0., 0., 0., 0., 0.,
          0., 0., 0., 0., 0., 0., 0., 0., 0., 0., 0., 0., 0., 0., 0., 0.,
          0., 0., 0., 0., 0., 0., 0., 0., 0., 0., 0., 1.61222946e-02,
          2.52348948e-02, 0., 0., 0., 0., 0., 0., 1.19164782e-02,
          1.12155095e-01, 1.40193861e-03, 0., 0., 0., 0., 0.,
          1.40193861e-03, 3.71513739e-02, 2.24310178e-02, 0., 0., 0., 0.,
          0., 0., 7.00969307e-04, 2.10290798e-03, 0., 0., 0., 0., 0., 0.,
          0., 0., 0., 0., 0., 0., 0., 0., 0., 0., 0., 0., 0., 0., 0., 0.,
          0., 0., 0., 0., 0., 0., 0., 0., 0., 0., 0., 0., 0., 0., 0., 0.,
          0., 0., 0., 0., 0., 0., 0., 0., 0., 0., 0., 0., 0., 0., 0., 0.,
          0., 0., 0., 0., 0., 0., 0., 0., 0., 0., 0., 0., 0., 0., 0., 0.,
          0., 0., 0., 0., 0., 0., 0., 0., 0., 0., 0., 0., 0., 0., 0., 0.,
          0., 0., 0., 0., 0., 0., 0., 0., 0., 0., 0., 0., 0., 0., 0., 0.,
          0., 0., 0., 0., 0., 0., 0., 0., 0., 0., 0., 0., 0., 0., 0., 0.,
          0., 0., 0., 0., 0., 0., 0., 0., 0., 0., 0., 0., 0., 0., 0., 0.,
          0., 0., 0., 0., 0., 0., 0., 0., 0., 0., 0., 0., 0., 0., 0., 0.,
          0., 0., 0., 0., 0., 0., 0., 0., 0., 0., 0., 2.86274523e-01,
          8.98039222e-01 ]
      - [ 0., 0., 9.87762352e-04, 2.07430087e-02, 2.59781480e-01,
          7.70454630e-02, 1.58041976e-02, 2.07430087e-02, 0., 0., 0.,
          3.55594456e-02, 4.04982567e-01, 2.30148628e-01, 1.77797228e-02,
          1.97552470e-03, 0., 0., 6.91433623e-03, 2.46940590e-02,
          4.47456330e-01, 3.09169620e-01, 2.96328706e-03, 0., 0., 0., 0.,
          2.96328706e-03, 1.97552472e-01, 1.93601415e-01, 0., 0., 0., 0.,
          0., 4.93881153e-03, 8.19842741e-02, 4.74125929e-02, 0., 0., 0.,
          0., 0., 0., 0., 0., 0., 0., 0., 0., 0., 0., 0., 0., 0., 0., 0.,
          0., 0., 0., 0., 0., 0., 0., 0., 0., 0., 1.97552470e-03,
          1.23470291e-01, 3.65472063e-02, 1.28409099e-02, 9.87762306e-03,
          0., 0., 0., 0., 2.56818198e-02, 1.97552470e-03, 0., 0., 0., 0.,
          0., 0., 0., 0., 0., 0., 0., 0., 0., 0., 0., 0., 0., 0., 0., 0.,
          0., 0., 0., 0., 0., 0., 0., 0., 0., 0., 0., 0., 0., 0., 0., 0.,
          0., 0., 0., 0., 0., 0., 0., 0., 0., 0., 0., 0., 0., 0., 0., 0.,
          0., 6.91433623e-03, 5.72902150e-02, 7.50699341e-02,
          2.86451075e-02, 2.17307713e-02, 0., 0., 0., 0., 2.96328706e-03,
          2.66695824e-02, 1.97552461e-02, 2.27185339e-02, 0., 0., 0., 0.,
          9.87762352e-04, 0., 0., 0., 0., 0., 0., 0., 0., 0., 0., 0., 0.,
          0., 0., 0., 0., 0., 0., 0., 0., 0., 0., 0., 0., 0., 0., 0., 0.,
          0., 0., 0., 0., 0., 0., 0., 0., 0., 0., 0., 0., 0., 0., 0., 0.,
          0., 0., 9.87762352e-04, 1.89650372e-01, 2.42001772e-01,
          3.45716812e-02, 2.76573449e-02, 0., 0., 0., 9.87762352e-04,
          1.30384624e-01, 2.49903873e-01, 6.81556016e-02, 1.28409099e-02,
          0., 0., 0., 0., 3.95104941e-03, 1.77797228e-02, 1.97552470e-03,
          0., 0., 0., 0., 0., 0., 0., 0., 0., 0., 0., 0., 0., 0., 0., 0.,
          0., 0., 0., 0., 0., 0., 0., 0., 0., 0., 0., 0., 0., 0., 0., 0.,
          0., 0., 0., 0., 0., 0., 0., 0., 0., 0., 0., 0., 1.38286725e-02,
          1.55078679e-01, 4.74125929e-02, 9.87762352e-04, 2.96328706e-03,
          0., 0., 0., 0., 6.42045513e-02, 1.08653856e-02, 9.87762352e-04,
          0., 0., 0., 0., 0., 0., 0., 0., 0., 0., 0., 0., 0., 0., 0., 0.,
          0., 0., 0., 0., 0., 0., 0., 0., 0., 0., 0., 0., 0., 0., 0., 0.,
          0., 0., 0., 0., 0., 0., 0., 0., 0., 0., 0., 0., 0., 0., 0., 0.,
          0., 0., 0., 0., 1.58041976e-02, 8.88986066e-02, 8.19842741e-02,
          1.97552470e-03, 6.91433623e-03, 0., 0., 0., 1.77797228e-02,
          2.17307717e-01, 1.01739518e-01, 0., 0., 0., 0., 0.,
          1.97552470e-03, 9.97639969e-02, 2.46940590e-02, 0., 0., 0., 0.,
          0., 0., 1.58041976e-02, 7.90209882e-03, 0., 0., 0., 0., 0., 0.,
          0., 0., 0., 0., 0., 0., 0., 0., 0., 0., 0., 0., 0., 0., 0., 0.,
          0., 0., 0., 0., 0., 0., 0., 0., 0., 0., 0., 0., 0., 0., 0., 0.,
          0., 0., 0., 0., 0., 0., 0., 0., 0., 0., 0., 0., 0., 0., 0., 0.,
          0., 0., 0., 0., 0., 0., 0., 0., 0., 0., 0., 0., 0., 0., 0., 0.,
          0., 0., 0., 0., 0., 0., 0., 0., 0., 0., 0., 0., 0., 0., 0., 0.,
          0., 0., 0., 0., 0., 0., 0., 0., 0., 0., 0., 0., 0., 0., 0., 0.,
          0., 0., 0., 0., 0., 0., 0., 0., 0., 0., 0., 0., 0., 0., 0., 0.,
          0., 0., 0., 0., 0., 0., 0., 0., 0., 0., 0., 0., 0., 0., 0., 0.,
          0., 0., 0., 0., 0., 0., 0., 0., 0., 0., 0., 0., 0., 0., 0., 0.,
          0., 0., 0., 0., 0., 0., 0., 0., 0., 0., 0., 0., 4.70588237e-01,
          6.74509823e-01 ]
      - [ 0., 0., 0., 0., 1.11726765e-02, 7.52293542e-02, 3.94767895e-02,
          3.79870981e-02, 0., 0., 0., 2.97938031e-03, 1.78762823e-02,
          3.47842664e-01, 1.66100457e-01, 2.23453529e-02, 0., 0., 0.,
          1.48969016e-03, 5.36288470e-02, 4.22327161e-01, 5.82468867e-01,
          2.60695778e-02, 0., 0., 0., 1.48969016e-03, 3.35180275e-02,
          3.57525647e-01, 2.80061752e-01, 3.42628732e-02, 0., 0., 0., 0.,
          5.95876062e-03, 1.76528290e-01, 8.71468782e-02, 1.63865928e-02,
          0., 0., 0., 0., 0., 1.19175212e-02, 1.56417470e-02,
          7.44845078e-04, 0., 0., 0., 0., 0., 0., 1.48969016e-03, 0., 0.,
          0., 0., 0., 0., 0., 0., 0., 0., 0., 0., 0., 5.21391584e-03,
          1.86211281e-02, 2.53247339e-02, 2.97938031e-03, 0., 0., 0., 0.,
          7.44845078e-04, 4.46907058e-03, 1.26623670e-02, 7.44845078e-04,
          0., 0., 0., 0., 0., 0., 3.72422556e-03, 3.72422556e-03, 0., 0.,
          0., 0., 0., 0., 1.48969016e-03, 0., 0., 0., 0., 0., 0., 0., 0.,
          0., 0., 0., 0., 0., 0., 0., 0., 0., 0., 0., 0., 0., 0., 0., 0.,
          0., 0., 0., 0., 0., 0., 0., 0., 0., 0., 0., 0., 0.,
          7.44845078e-04, 2.90489588e-02, 3.20283398e-02, 4.24561687e-02,
          0., 0., 0., 0., 0., 3.72422556e-03, 3.72422556e-03, 0., 0., 0.,
          0., 0., 0., 0., 0., 0., 0., 0., 0., 0., 0., 0., 0., 0., 0., 0.,
          0., 0., 0., 0., 0., 0., 0., 0., 0., 0., 0., 0., 0., 0., 0., 0.,
          0., 0., 0., 0., 0., 0., 0., 0., 0., 0., 0., 0., 0., 0., 0., 0.,
          0., 0., 2.23453529e-03, 1.78762823e-02, 1.34072118e-02,
          7.29948208e-02, 0., 0., 0., 0., 2.23453529e-03, 5.95876062e-03,
          3.72422556e-03, 0., 0., 0., 0., 0., 0., 0., 7.44845078e-04, 0.,
          0., 0., 0., 0., 0., 0., 0., 0., 0., 0., 0., 0., 0., 0., 0., 0.,
          0., 0., 0., 0., 0., 0., 0., 0., 0., 0., 0., 0., 0., 0., 0., 0.,
          0., 0., 0., 0., 0., 0., 0., 0., 0., 0., 0., 0., 7.44845078e-04,
          4.69252393e-02, 9.68298595e-03, 2.30901986e-02, 0., 0., 0.,
          1.48969016e-03, 2.97938031e-03, 1.26623670e-02, 2.97938031e-03,
          0., 0., 0., 0., 7.44845078e-04, 2.23453529e-03, 7.44845078e-04,
          0., 0., 0., 0., 0., 0., 0., 0., 0., 0., 0., 0., 0., 0., 0., 0.,
          0., 0., 0., 0., 0., 0., 0., 0., 0., 0., 0., 0., 0., 0., 0., 0.,
          0., 0., 0., 0., 0., 0., 0., 0., 0., 0., 0., 0., 0.,
          7.44845078e-04, 0., 4.69252393e-02, 4.46907058e-03,
          2.01108176e-02, 0., 0., 0., 7.44845078e-04, 1.04278317e-02,
          2.23453522e-01, 5.80979176e-02, 2.97938031e-03, 0., 0., 0., 0.,
          7.44845113e-03, 1.56417470e-02, 4.54355516e-02, 0., 0., 0., 0.,
          0., 7.44845078e-04, 1.86211281e-02, 1.48969016e-03, 0., 0., 0.,
          0., 0., 0., 0., 0., 0., 0., 0., 0., 0., 0., 0., 0., 0., 0., 0.,
          0., 0., 0., 0., 0., 0., 0., 0., 0., 0., 0., 0., 0., 0., 0., 0.,
          0., 0., 0., 0., 0., 0., 0., 0., 0., 0., 0., 0., 0., 0., 0., 0.,
          0., 0., 0., 0., 0., 0., 0., 0., 0., 0., 0., 0., 0., 0., 0., 0.,
          0., 0., 0., 0., 0., 0., 0., 0., 0., 0., 0., 0., 0., 0., 0., 0.,
          0., 0., 0., 0., 0., 0., 0., 0., 0., 0., 0., 0., 0., 0., 0., 0.,
          0., 0., 0., 0., 0., 0., 0., 0., 0., 0., 0., 0., 0., 0., 0., 0.,
          0., 0., 0., 0., 0., 0., 0., 0., 0., 0., 0., 0., 0., 0., 0., 0.,
          0., 0., 0., 0., 0., 0., 0., 0., 0., 0., 0., 0., 0., 0., 0., 0.,
          0., 0., 0., 0., 0., 0., 0., 0., 0., 0., 0., 0., 0., 0.,
          3.76470596e-01, 8.03921580e-01 ]
      - [ 0., 0., 0., 3.15992278e-03, 1.42196521e-01, 1.75902367e-01,
          3.37058417e-02, 6.21451475e-02, 0., 0., 0., 6.31984556e-03,
          1.98021814e-01, 5.23493886e-01, 6.21451475e-02, 2.52793822e-02,
          0., 0., 0., 6.31984556e-03, 1.92755282e-01, 4.16056484e-01,
          1.01117529e-01, 2.31727660e-02, 0., 0., 0., 0., 9.58509892e-02,
          2.09608197e-01, 1.23236984e-01, 3.68657634e-02, 0., 0., 0., 0.,
          3.89723815e-02, 1.85382128e-01, 8.95311460e-02, 8.84778351e-02,
          0., 0., 0., 0., 9.47976764e-03, 6.63583726e-02, 5.47719933e-02,
          2.73859967e-02, 0., 0., 0., 0., 0., 3.15992278e-03, 0.,
          1.05330755e-03, 0., 0., 0., 0., 0., 0., 0., 0., 0., 0., 0.,
          1.05330755e-03, 4.73988391e-02, 4.21323031e-02, 2.84393039e-02,
          2.21194588e-02, 0., 0., 0., 0., 3.15992278e-03, 6.31984556e-03,
          0., 0., 0., 0., 0., 0., 0., 0., 0., 0., 0., 0., 0., 0., 0., 0.,
          0., 0., 0., 0., 0., 0., 0., 0., 0., 0., 0., 0., 0., 0., 0., 0.,
          0., 0., 0., 0., 0., 0., 0., 0., 0., 0., 0., 0., 0., 0., 0., 0.,
          0., 0., 0., 0., 0., 0., 2.10661516e-02, 6.63583726e-02,
          2.42260732e-02, 5.16120717e-02, 0., 0., 0., 0., 7.37315277e-03,
          2.31727660e-02, 9.47976764e-03, 0., 0., 0., 0., 0., 0.,
          1.05330755e-03, 0., 0., 0., 0., 0., 0., 0., 0., 0., 0., 0., 0.,
          0., 0., 0., 0., 0., 0., 0., 0., 0., 0., 0., 0., 0., 0., 0., 0.,
          0., 0., 0., 0., 0., 0., 0., 0., 0., 0., 0., 0., 0., 0., 0., 0.,
          0., 1.05330755e-03, 4.31856103e-02, 1.57996133e-01,
          1.57996137e-02, 2.73859967e-02, 0., 0., 0., 0., 1.47463055e-02,
          1.34823367e-01, 5.58253005e-02, 3.15992278e-03, 0., 0., 0., 0.,
          0., 6.31984556e-03, 2.21194588e-02, 0., 0., 0., 0., 0., 0., 0.,
          0., 0., 0., 0., 0., 0., 0., 0., 0., 0., 0., 0., 0., 0., 0., 0.,
          0., 0., 0., 0., 0., 0., 0., 0., 0., 0., 0., 0., 0., 0., 0., 0.,
          0., 0., 0., 0., 0., 2.10661511e-03, 1.01117529e-01,
          2.29621053e-01, 1.57996137e-02, 2.42260732e-02, 0., 0., 0., 0.,
          7.16249123e-02, 8.42646062e-02, 2.10661511e-03, 0., 0., 0., 0.,
          0., 3.15992278e-03, 2.10661511e-03, 0., 0., 0., 0., 0., 0., 0.,
          1.05330755e-03, 0., 0., 0., 0., 0., 0., 0., 0., 0., 0., 0., 0.,
          0., 0., 0., 0., 0., 0., 0., 0., 0., 0., 0., 0., 0., 0., 0., 0.,
          0., 0., 0., 0., 0., 0., 0., 0., 0., 0., 1.01117529e-01,
          1.27450213e-01, 2.31727660e-02, 2.10661516e-02, 0., 0., 0.,
          2.10661511e-03, 1.55889526e-01, 2.78073192e-01, 1.36929983e-02,
          2.10661511e-03, 0., 0., 0., 0., 2.84393039e-02, 6.84649944e-02,
          1.57996137e-02, 0., 0., 0., 0., 0., 1.36929983e-02,
          6.31984556e-03, 1.05330755e-03, 0., 0., 0., 0., 0., 0., 0., 0.,
          0., 0., 0., 0., 0., 0., 0., 0., 0., 0., 0., 0., 0., 0., 0., 0.,
          0., 0., 0., 0., 0., 0., 0., 0., 0., 0., 0., 0., 0., 0., 0., 0.,
          0., 0., 0., 0., 0., 0., 0., 0., 0., 0., 0., 0., 0., 0., 0., 0.,
          0., 0., 0., 0., 0., 0., 0., 0., 0., 0., 0., 0., 0., 0., 0., 0.,
          0., 0., 0., 0., 0., 0., 0., 0., 0., 0., 0., 0., 0., 0., 0., 0.,
          0., 0., 0., 0., 0., 0., 0., 0., 0., 0., 0., 0., 0., 0., 0., 0.,
          0., 0., 0., 0., 0., 0., 0., 0., 0., 0., 0., 0., 0., 0., 0., 0.,
          0., 0., 0., 0., 0., 0., 0., 0., 0., 0., 0., 0., 0., 0., 0., 0.,
          0., 0., 0., 0., 0., 0., 0., 0., 0., 0., 0., 0., 0., 0., 0., 0.,
          0., 0., 0., 0., 0., 0., 0., 0., 0., 5.01960814e-01,
          7.52941191e-01 ]
      - [ 0., 0., 0., 1.37892144e-03, 1.17208324e-02, 4.13676426e-02,
          3.30941156e-02, 3.51624973e-02, 0., 0., 0., 8.27352889e-03,
          8.48036706e-02, 5.44673987e-02, 5.79147004e-02, 1.58575960e-02,
          0., 0., 3.44730355e-03, 1.93048995e-02, 2.08217144e-01,
          1.62023276e-01, 1.51681360e-02, 2.75784289e-03, 0., 0.,
          5.51568577e-03, 3.30941156e-02, 6.14998996e-01, 4.71591145e-01,
          7.58406799e-03, 0., 0., 0., 0., 1.58575960e-02, 3.63345802e-01,
          2.26832584e-01, 1.37892144e-03, 0., 0., 0., 0., 4.13676444e-03,
          4.48149480e-02, 1.44786751e-02, 0., 0., 0., 0., 0., 0.,
          1.37892144e-03, 0., 0., 0., 0., 0., 0., 0., 0., 0., 0., 0., 0.,
          0., 0., 2.06838222e-03, 2.06838222e-03, 2.06838222e-03, 0.,
          2.06838222e-03, 0., 0., 0., 1.37892144e-03, 0., 6.89460721e-04,
          0., 6.89460721e-04, 0., 0., 6.89460721e-04, 1.37892144e-03, 0.,
          0., 0., 0., 0., 0., 0., 0., 0., 0., 0., 0., 0., 0., 0., 0., 0.,
          0., 0., 0., 0., 0., 0., 0., 0., 0., 0., 0., 0., 0., 0., 0., 0.,
          0., 0., 0., 0., 0., 0., 0., 0., 0., 0., 0., 0., 0., 0., 0.,
          6.89460721e-04, 6.89460721e-04, 0., 0., 0., 0., 0., 0., 0., 0.,
          0., 0., 0., 0., 0., 0., 0., 0., 0., 0., 0., 0., 0., 0., 0., 0.,
          0., 0., 0., 0., 0., 0., 0., 0., 0., 0., 0., 0., 0., 0., 0., 0.,
          0., 0., 0., 0., 0., 0., 0., 0., 0., 0., 0., 0., 0., 0., 0., 0.,
          0., 0., 0., 0., 6.89460721e-04, 0., 0., 6.89460721e-04, 0.,
          1.37892144e-03, 0., 0., 0., 6.89460721e-04, 6.89460721e-04, 0.,
          0., 0., 0., 0., 0., 0., 0., 0., 0., 0., 0., 0., 0., 0., 0., 0.,
          0., 0., 0., 0., 0., 0., 0., 0., 0., 0., 0., 0., 0., 0., 0., 0.,
          0., 0., 0., 0., 0., 0., 0., 0., 0., 0., 0., 0., 0., 0., 0., 0.,
          0., 0., 0., 0., 0., 0., 0., 6.89460721e-04, 6.89460721e-04,
          4.13676444e-03, 0., 0., 0., 0., 0., 6.89460721e-04, 0., 0., 0.,
          0., 0., 0., 2.75784289e-03, 0., 0., 0., 0., 0., 0., 0., 0., 0.,
          0., 0., 0., 0., 0., 0., 0., 0., 0., 0., 0., 0., 0., 0., 0., 0.,
          0., 0., 0., 0., 0., 0., 0., 0., 0., 0., 0., 0., 0., 0., 0., 0.,
          0., 0., 0., 0., 0., 1.37892144e-03, 8.27352889e-03,
          2.06838213e-02, 8.27352889e-03, 8.27352889e-03, 0., 0.,
          1.37892144e-03, 2.06838222e-03, 2.17180133e-01, 3.24046537e-02,
          2.06838222e-03, 0., 0., 0., 0., 1.86154395e-02, 2.28900954e-01,
          1.17208324e-01, 0., 0., 0., 0., 0., 2.27522049e-02,
          5.72252385e-02, 6.41198456e-02, 0., 0., 0., 0., 0.,
          6.89460721e-04, 2.61995085e-02, 1.37892144e-03, 0., 0., 0., 0.,
          0., 0., 0., 0., 0., 0., 0., 0., 0., 0., 0., 0., 0., 0., 0., 0.,
          0., 0., 0., 0., 0., 0., 0., 0., 0., 0., 0., 0., 0., 0., 0., 0.,
          0., 0., 0., 0., 0., 0., 0., 0., 0., 0., 0., 0., 0., 0., 0., 0.,
          0., 0., 0., 0., 0., 0., 0., 0., 0., 0., 0., 0., 0., 0., 0., 0.,
          0., 0., 0., 0., 0., 0., 0., 0., 0., 0., 0., 0., 0., 0., 0., 0.,
          0., 0., 0., 0., 0., 0., 0., 0., 0., 0., 0., 0., 0., 0., 0., 0.,
          0., 0., 0., 0., 0., 0., 0., 0., 0., 0., 0., 0., 0., 0., 0., 0.,
          0., 0., 0., 0., 0., 0., 0., 0., 0., 0., 0., 0., 0., 0., 0., 0.,
          0., 0., 0., 0., 0., 0., 0., 0., 0., 0., 0., 0., 0., 0., 0., 0.,
          0., 0., 0., 0., 0., 0., 3.80392164e-01, 6.58823550e-01 ]
      - [ 0., 0., 0., 2.74459785e-03, 6.95298165e-02, 1.71079934e-01,
          3.56797725e-02, 5.30622266e-02, 0., 0., 0., 4.57433006e-03,
          1.50038019e-01, 5.14154673e-01, 1.71994805e-01, 1.09783914e-02,
          0., 0., 0., 5.48919570e-03, 1.46378562e-01, 5.07750630e-01,
          1.36315033e-01, 8.23379401e-03, 0., 0., 0., 3.65946395e-03,
          4.57432978e-02, 2.72630066e-01, 6.31257519e-02, 5.48919570e-03,
          0., 0., 0., 0., 3.65946395e-03, 8.78271312e-02, 4.57432978e-02,
          0., 0., 0., 0., 0., 0., 0., 0., 0., 0., 0., 0., 0., 0., 0., 0.,
          0., 0., 0., 0., 0., 0., 0., 0., 0., 0., 0., 0., 0.,
          2.47013811e-02, 3.93392369e-02, 6.40406180e-03, 2.28716489e-02,
          0., 0., 0., 0., 3.65946395e-03, 1.55527219e-02, 0., 0., 0., 0.,
          0., 0., 0., 0., 0., 0., 0., 0., 0., 0., 0., 0., 0., 0., 0., 0.,
          0., 0., 0., 0., 0., 0., 0., 0., 0., 0., 0., 0., 0., 0., 0., 0.,
          0., 0., 0., 0., 0., 0., 0., 0., 0., 0., 0., 0., 0., 0., 0., 0.,
          0., 0., 2.47013811e-02, 1.07954189e-01, 5.48919570e-03,
          4.66581658e-02, 0., 0., 0., 0., 9.14865988e-04, 2.10419167e-02,
          2.74459785e-03, 9.14865988e-04, 0., 0., 0., 0., 0., 0., 0., 0.,
          0., 0., 0., 0., 0., 0., 0., 0., 0., 0., 0., 0., 0., 0., 0., 0.,
          0., 0., 0., 0., 0., 0., 0., 0., 0., 0., 0., 0., 0., 0., 0., 0.,
          0., 0., 0., 0., 0., 0., 0., 0., 0., 0., 0., 1.82973198e-03,
          9.97203887e-02, 1.02464989e-01, 1.73824541e-02, 4.20838334e-02,
          0., 0., 0., 6.40406180e-03, 3.29351760e-02, 2.73544937e-01,
          5.67216910e-02, 4.57433006e-03, 0., 0., 0., 1.82973198e-03,
          2.74459785e-03, 1.55527219e-02, 4.20838334e-02, 0., 0., 0., 0.,
          0., 0., 0., 0., 0., 0., 0., 0., 0., 0., 0., 0., 0., 0., 0., 0.,
          0., 0., 0., 0., 0., 0., 0., 0., 0., 0., 0., 0., 0., 0., 0., 0.,
          0., 0., 0., 0., 0., 0., 0., 0., 2.74459785e-03, 5.67216910e-02,
          7.50190094e-02, 1.73824541e-02, 9.14866012e-03, 0., 0., 0.,
          9.14865988e-04, 1.28081236e-02, 4.57433006e-03, 2.74459785e-03,
          0., 0., 0., 0., 0., 9.14865988e-04, 0., 0., 0., 0., 0., 0., 0.,
          0., 0., 0., 0., 0., 0., 0., 0., 0., 0., 0., 0., 0., 0., 0., 0.,
          0., 0., 0., 0., 0., 0., 0., 0., 0., 0., 0., 0., 0., 0., 0., 0.,
          0., 0., 0., 0., 0., 0., 0., 2.74459785e-03, 4.75730300e-02,
          1.70165077e-01, 2.28716489e-02, 7.31892791e-03, 0., 0., 0.,
          4.57433006e-03, 9.78906602e-02, 2.82693595e-01, 3.75095047e-02,
          0., 0., 0., 0., 0., 3.01905777e-02, 4.75730300e-02,
          6.40406180e-03, 0., 0., 0., 0., 0., 0., 3.65946395e-03, 0., 0.,
          0., 0., 0., 0., 0., 0., 0., 0., 0., 0., 0., 0., 0., 0., 0., 0.,
          0., 0., 0., 0., 0., 0., 0., 0., 0., 0., 0., 0., 0., 0., 0., 0.,
          0., 0., 0., 0., 0., 0., 0., 0., 0., 0., 0., 0., 0., 0., 0., 0.,
          0., 0., 0., 0., 0., 0., 0., 0., 0., 0., 0., 0., 0., 0., 0., 0.,
          0., 0., 0., 0., 0., 0., 0., 0., 0., 0., 0., 0., 0., 0., 0., 0.,
          0., 0., 0., 0., 0., 0., 0., 0., 0., 0., 0., 0., 0., 0., 0., 0.,
          0., 0., 0., 0., 0., 0., 0., 0., 0., 0., 0., 0., 0., 0., 0., 0.,
          0., 0., 0., 0., 0., 0., 0., 0., 0., 0., 0., 0., 0., 0., 0., 0.,
          0., 0., 0., 0., 0., 0., 0., 0., 0., 0., 0., 0., 0., 0., 0., 0.,
          0., 0., 0., 0., 0., 0., 0., 0., 0., 0., 0., 0., 0., 0., 0., 0.,
          3.84313732e-01, 7.84313738e-01 ]
      - [ 0., 0., 0., 2.26143794e-03, 7.53812632e-03, 3.16601321e-02,
          1.73376910e-02, 6.63355142e-02, 0., 0., 0., 1.13071892e-02,
          5.12592606e-02, 3.88213515e-01, 3.54291946e-02, 4.97516356e-02,
          0., 0., 3.01525043e-03, 6.78431382e-03, 3.54291946e-02,
          4.88470584e-01, 9.04575139e-02, 4.07058820e-02, 0.,
          7.53812608e-04, 3.01525043e-03, 1.20610017e-02, 3.16601321e-02,
          4.51533765e-01, 2.53281057e-01, 1.80915035e-02, 0., 0.,
          7.53812608e-04, 5.27668837e-03, 2.18605660e-02, 2.52527237e-01,
          2.97755986e-01, 8.29193927e-03, 0., 0., 2.26143794e-03,
          3.76906316e-03, 8.29193927e-03, 9.42265764e-02, 3.47507626e-01,
          4.29673195e-02, 0., 0., 2.26143794e-03, 7.53812608e-04, 0.,
          5.12592606e-02, 3.46753821e-02, 0., 0., 0., 0., 0., 0.,
          2.26143794e-03, 3.76906316e-03, 0., 0., 0., 0., 1.50762522e-03,
          4.52287588e-03, 3.76906316e-03, 1.05533767e-02, 1.50762526e-02,
          0., 0., 0., 0., 0., 0., 0., 0., 0., 0., 0., 0., 0., 0., 0., 0.,
          0., 0., 0., 0., 0., 0., 0., 0., 0., 0., 0., 0., 0., 0., 0., 0.,
          0., 0., 0., 0., 0., 0., 0., 0., 0., 0., 0., 0., 0., 0., 0., 0.,
          0., 0., 0., 0., 0., 0., 0., 0., 0., 0., 0., 7.53812608e-04,
          2.26143794e-03, 1.20610017e-02, 5.27668837e-03, 1.20610017e-02,
          0., 0., 0., 0., 7.53812608e-04, 0., 3.76906316e-03,
          6.03050087e-03, 0., 0., 0., 0., 0., 0., 0., 0., 0., 0., 0., 0.,
          0., 0., 0., 0., 0., 0., 0., 0., 0., 0., 0., 0., 0., 0., 0., 0.,
          0., 0., 0., 0., 0., 0., 0., 0., 0., 0., 0., 0., 0., 0., 0., 0.,
          0., 0., 0., 0., 0., 0., 0., 0., 7.53812608e-04, 0.,
          7.53812608e-04, 1.50762522e-03, 0., 0., 0., 0., 0., 0., 0., 0.,
          0., 0., 0., 0., 0., 0., 0., 0., 0., 0., 0., 0., 0., 0., 0., 0.,
          0., 0., 0., 0., 0., 0., 0., 0., 0., 0., 0., 0., 0., 0., 0., 0.,
          0., 0., 0., 0., 0., 0., 0., 0., 0., 0., 0., 0., 0., 0., 0., 0.,
          0., 0., 0., 0., 2.26143794e-03, 3.01525043e-03, 7.53812608e-04,
          7.53812608e-04, 0., 0., 0., 0., 1.50762522e-03, 0., 0., 0., 0.,
          0., 0., 0., 0., 0., 0., 0., 0., 0., 0., 0., 0., 0., 0., 0., 0.,
          0., 0., 0., 0., 0., 0., 0., 0., 0., 0., 0., 0., 0., 0., 0., 0.,
          0., 0., 0., 0., 0., 0., 0., 0., 0., 0., 0., 0., 0., 0., 0., 0.,
          0., 0., 3.01525043e-03, 1.20610017e-02, 4.52287570e-02,
          3.01525043e-03, 1.20610017e-02, 0., 0., 7.53812608e-04,
          3.01525043e-03, 1.65838785e-02, 1.53023958e-01, 7.53812608e-04,
          7.53812608e-04, 0., 0., 0., 1.50762522e-03, 6.03050087e-03,
          4.82440069e-02, 3.01525043e-03, 1.50762522e-03, 0., 0.,
          7.53812608e-04, 7.53812608e-04, 0., 1.05533767e-02,
          3.76906316e-03, 0., 0., 0., 0., 0., 7.53812608e-04, 0., 0., 0.,
          0., 0., 0., 0., 0., 0., 0., 0., 0., 0., 0., 0., 0., 0., 0., 0.,
          0., 0., 0., 0., 0., 0., 0., 0., 0., 0., 0., 0., 0., 0., 0., 0.,
          0., 0., 0., 0., 0., 0., 0., 0., 0., 0., 0., 0., 0., 0., 0., 0.,
          0., 0., 0., 0., 0., 0., 0., 0., 0., 0., 0., 0., 0., 0., 0., 0.,
          0., 0., 0., 0., 0., 0., 0., 0., 0., 0., 0., 0., 0., 0., 0., 0.,
          0., 0., 0., 0., 0., 0., 0., 0., 0., 0., 0., 0., 0., 0., 0., 0.,
          0., 0., 0., 0., 0., 0., 0., 0., 0., 0., 0., 0., 0., 0., 0., 0.,
          0., 0., 0., 0., 0., 0., 0., 0., 0., 0., 0., 0., 0., 0., 0., 0.,
          0., 0., 0., 0., 0., 0., 0., 0., 0., 0., 0., 0., 0., 0., 0., 0.,
          0., 0., 0., 0., 0., 0., 0., 0., 3.05882365e-01, 8.70588243e-01 ]
      - [ 0., 0., 0., 3.52158793e-03, 1.00717410e-01, 2.46511139e-02,
          1.47906691e-02, 4.93022287e-03, 0., 0., 0., 1.69036221e-02,
          1.21846937e-01, 1.83122568e-02, 1.33820334e-02, 7.04317586e-04,
          0., 0., 7.04317586e-04, 1.26777161e-02, 8.31094757e-02,
          2.88770199e-02, 7.04317586e-03, 0., 0., 0., 0., 2.11295276e-03,
          2.95813382e-02, 2.32424792e-02, 5.63454069e-03, 0., 0., 0.,
          2.81727035e-03, 1.40863517e-03, 1.40863517e-03, 1.47906691e-02,
          1.40863517e-03, 0., 0., 0., 3.52158793e-03, 0., 0.,
          3.52158793e-03, 1.40863517e-03, 0., 0., 0., 0., 0., 0., 0., 0.,
          0., 0., 0., 0., 0., 0., 0., 0., 0., 0., 0., 0., 0.,
          3.23986076e-02, 4.22590552e-03, 9.86044575e-03, 3.52158793e-03,
          0., 0., 0., 7.04317586e-04, 1.05647631e-02, 2.11295276e-03,
          4.93022287e-03, 0., 0., 0., 0., 7.04317586e-04, 3.52158793e-03,
          0., 0., 0., 0., 0., 0., 0., 0., 0., 0., 0., 0., 0., 0., 0., 0.,
          0., 0., 0., 0., 0., 0., 0., 0., 0., 0., 0., 0., 0., 0., 0., 0.,
          0., 0., 0., 0., 0., 0., 0., 0., 0., 0., 0., 0., 0., 0.,
          2.11295276e-03, 5.49367703e-02, 4.08504196e-02, 3.45115624e-02,
          7.04317586e-03, 0., 0., 0., 0., 9.15612839e-03, 7.74749322e-03,
          1.54949864e-02, 0., 0., 0., 0., 0., 0., 0., 0., 0., 0., 0., 0.,
          0., 0., 0., 0., 0., 0., 0., 0., 0., 0., 0., 0., 0., 0., 0., 0.,
          0., 0., 0., 0., 0., 0., 0., 0., 0., 0., 0., 0., 0., 0., 0., 0.,
          0., 0., 0., 0., 0., 0., 0., 0., 3.52158793e-03, 1.64105996e-01,
          3.86670351e-01, 2.39467975e-02, 0., 0., 0., 0., 0.,
          6.83188066e-02, 8.00809085e-01, 6.40928969e-02, 7.74749322e-03,
          0., 0., 0., 0., 0., 8.24051574e-02, 3.45115624e-02,
          7.04317586e-04, 0., 0., 0., 0., 0., 0., 0., 0., 0., 0., 0., 0.,
          0., 0., 0., 0., 0., 0., 0., 0., 0., 0., 0., 0., 0., 0., 0., 0.,
          0., 0., 0., 0., 0., 0., 0., 0., 0., 0., 0., 0., 0., 0., 0.,
          9.86044575e-03, 1.95095971e-01, 1.21142618e-01, 3.52158793e-03,
          0., 0., 0., 0., 1.33820334e-02, 1.61288723e-01, 1.02830365e-01,
          1.40863517e-03, 0., 0., 0., 0., 0., 1.19733987e-02,
          2.11295276e-03, 0., 0., 0., 0., 0., 0., 0., 0., 0., 0., 0., 0.,
          0., 0., 0., 0., 0., 0., 0., 0., 0., 0., 0., 0., 0., 0., 0., 0.,
          0., 0., 0., 0., 0., 0., 0., 0., 0., 0., 0., 0., 0., 0., 0., 0.,
          0., 1.54949864e-02, 7.53619820e-02, 2.11295262e-02, 0.,
          7.04317586e-04, 0., 0., 0., 4.01461013e-02, 1.31707385e-01,
          2.53554322e-02, 0., 0., 0., 0., 1.40863517e-03, 4.22590552e-03,
          7.11360723e-02, 4.22590552e-03, 0., 0., 0., 0., 2.81727035e-03,
          7.04317586e-04, 0., 1.40863517e-03, 0., 0., 0., 0., 0., 0.,
          1.40863517e-03, 7.04317586e-03, 0., 0., 0., 0., 0., 0., 0., 0.,
          0., 0., 0., 0., 0., 0., 0., 0., 0., 0., 0., 0., 0., 0., 0., 0.,
          0., 0., 0., 0., 0., 0., 0., 0., 0., 0., 0., 0., 0., 0., 0., 0.,
          0., 0., 0., 0., 0., 0., 0., 0., 0., 0., 0., 0., 0., 0., 0., 0.,
          0., 0., 0., 0., 0., 0., 0., 0., 0., 0., 0., 0., 0., 0., 0., 0.,
          0., 0., 0., 0., 0., 0., 0., 0., 0., 0., 0., 0., 0., 0., 0., 0.,
          0., 0., 0., 0., 0., 0., 0., 0., 0., 0., 0., 0., 0., 0., 0., 0.,
          0., 0., 0., 0., 0., 0., 0., 0., 0., 0., 0., 0., 0., 0., 0., 0.,
          0., 0., 0., 0., 0., 0., 0., 0., 0., 0., 0., 0., 0., 0., 0., 0.,
          0., 0., 0., 0., 0., 0., 0., 0., 0., 0., 0., 0., 0., 0., 0., 0.,
          0., 0., 4.58823532e-01, 6.78431392e-01 ]
      - [ 0., 0., 0., 6.49831863e-03, 5.95679209e-02, 1.94949567e-01,
          4.44051772e-02, 4.44051772e-02, 0., 0., 2.16610637e-03,
          9.74747818e-03, 1.09388366e-01, 2.30690315e-01, 1.41879961e-01,
          1.08305309e-02, 0., 0., 4.33221273e-03, 9.74747818e-03,
          6.93154037e-02, 1.94949567e-01, 9.63917300e-02, 1.29966373e-02,
          0., 2.16610637e-03, 0., 0., 0., 7.36476108e-02, 6.06509745e-02,
          2.92424355e-02, 0., 0., 0., 0., 0., 1.84119027e-02,
          3.46577018e-02, 4.33221273e-03, 0., 0., 0., 0., 0.,
          1.51627436e-02, 1.40796909e-02, 0., 0., 0., 0., 0., 0., 0., 0.,
          0., 0., 0., 0., 0., 0., 0., 0., 0., 0., 0., 0., 0.,
          1.84119027e-02, 1.09388366e-01, 8.44781473e-02, 6.71492964e-02,
          0., 0., 0., 0., 1.40796909e-02, 1.29966373e-02, 2.59932745e-02,
          3.46577018e-02, 0., 0., 0., 1.08305318e-03, 0., 5.41526545e-03,
          1.40796909e-02, 4.33221273e-03, 0., 0., 0., 0., 0., 0., 0., 0.,
          0., 0., 0., 0., 0., 0., 0., 0., 0., 0., 0., 0., 0., 0., 0., 0.,
          0., 0., 0., 0., 0., 0., 0., 0., 0., 0., 0., 0., 0., 0., 0., 0.,
          0., 0., 0., 0., 1.40796909e-02, 1.78703770e-01, 1.14803635e-01,
          1.84119031e-01, 0., 0., 0., 0., 4.33221273e-03, 5.41526563e-02,
          1.68956295e-01, 5.52357100e-02, 0., 0., 0., 0., 0.,
          6.49831863e-03, 3.24915946e-02, 3.24915946e-02, 0., 0., 0., 0.,
          0., 0., 0., 0., 0., 0., 0., 0., 0., 0., 0., 0., 0., 0., 0., 0.,
          0., 0., 0., 0., 0., 0., 0., 0., 0., 0., 0., 0., 0., 0., 0., 0.,
          0., 0., 0., 0., 0., 0., 0., 0., 2.05780100e-02, 3.96397442e-01,
          2.15527579e-01, 9.53086764e-02, 0., 0., 0., 0., 5.41526545e-03,
          1.67873234e-01, 5.30696034e-01, 8.23120400e-02, 0., 0., 0., 0.,
          0., 1.40796909e-02, 1.24551110e-01, 2.17693686e-01, 0., 0., 0.,
          0., 0., 0., 0., 9.74747818e-03, 0., 0., 0., 0., 0., 0., 0., 0.,
          0., 0., 0., 0., 0., 0., 0., 0., 0., 0., 0., 0., 0., 0., 0., 0.,
          0., 0., 0., 0., 0., 0., 0., 0., 0., 0., 0., 1.08305318e-03,
          4.54882309e-02, 1.71122402e-01, 3.35746482e-02, 3.03254873e-02,
          0., 0., 0., 2.16610637e-03, 4.11560200e-02, 2.27441154e-02,
          4.33221273e-03, 0., 0., 0., 0., 0., 0., 0., 0., 0., 0., 0., 0.,
          0., 0., 0., 0., 0., 0., 0., 0., 0., 0., 0., 0., 0., 0., 0., 0.,
          0., 0., 0., 0., 0., 0., 0., 0., 0., 0., 0., 0., 0., 0., 0., 0.,
          0., 0., 0., 0., 0., 0., 0., 0., 2.16610637e-03, 3.89899127e-02,
          1.05056152e-01, 1.73288509e-02, 1.51627436e-02, 0., 0., 0., 0.,
          5.63187636e-02, 1.27800271e-01, 1.62457973e-02, 0., 0., 0., 0.,
          0., 9.74747818e-03, 2.70763282e-02, 2.16610637e-03, 0., 0., 0.,
          0., 0., 0., 0., 0., 0., 0., 0., 0., 0., 0., 0., 0., 0., 0., 0.,
          0., 0., 0., 0., 0., 0., 0., 0., 0., 0., 0., 0., 0., 0., 0., 0.,
          0., 0., 0., 0., 0., 0., 0., 0., 0., 0., 0., 0., 0., 0., 0., 0.,
          0., 0., 0., 0., 0., 0., 0., 0., 0., 0., 0., 0., 0., 0., 0., 0.,
          0., 0., 0., 0., 0., 0., 0., 0., 0., 0., 0., 0., 0., 0., 0., 0.,
          0., 0., 0., 0., 0., 0., 0., 0., 0., 0., 0., 0., 0., 0., 0., 0.,
          0., 0., 0., 0., 0., 0., 0., 0., 0., 0., 0., 0., 0., 0., 0., 0.,
          0., 0., 0., 0., 0., 0., 0., 0., 0., 0., 0., 0., 0., 0., 0., 0.,
          0., 0., 0., 0., 0., 0., 0., 0., 0., 0., 0., 0., 0., 0., 0., 0.,
          0., 0., 0., 0., 0., 0., 0., 0., 0., 0., 0., 0., 0., 0., 0., 0.,
          0., 0., 0., 0., 0., 0., 3.45098048e-01, 8.47058833e-01 ]
      - [ 0., 0., 1.38964632e-03, 4.86376230e-03, 4.79427986e-02,
          4.79427986e-02, 6.94823160e-04, 7.64305517e-03, 0., 0.,
          8.33787769e-03, 4.30790372e-02, 1.47997335e-01, 8.26839581e-02,
          2.77929264e-03, 3.47411586e-03, 0., 0., 1.38964632e-03,
          2.70981044e-02, 1.86212614e-01, 3.05722207e-02, 1.11171706e-02,
          0., 0., 0., 0., 1.25068175e-02, 8.19891319e-02, 1.87602267e-02,
          1.25068175e-02, 0., 0., 0., 0., 2.08446942e-03, 1.73705798e-02,
          1.04223480e-02, 1.25068175e-02, 0., 0., 0., 0., 0., 0.,
          5.55858528e-03, 6.94823160e-04, 0., 0., 0., 0., 0., 0., 0., 0.,
          0., 0., 0., 0., 0., 0., 0., 0., 0., 0., 0., 0., 1.18119940e-02,
          4.86376230e-03, 1.87602267e-02, 0., 0., 0., 0., 0., 0., 0., 0.,
          0., 0., 0., 0., 0., 0., 0., 0., 0., 0., 0., 0., 0., 0., 0., 0.,
          0., 0., 0., 0., 0., 0., 0., 0., 0., 0., 0., 0., 0., 0., 0., 0.,
          0., 0., 0., 0., 0., 0., 0., 0., 0., 0., 0., 0., 0., 0., 0., 0.,
          0., 0., 0., 0., 0., 7.64305517e-03, 9.72752459e-03,
          1.38964632e-03, 0., 0., 0., 0., 0., 0., 0., 0., 0., 0., 0., 0.,
          0., 0., 0., 0., 0., 0., 0., 0., 0., 0., 0., 0., 0., 0., 0., 0.,
          0., 0., 0., 0., 0., 0., 0., 0., 0., 0., 0., 0., 0., 0., 0., 0.,
          0., 0., 0., 0., 0., 0., 0., 0., 0., 0., 0., 0., 0., 0., 0., 0.,
          1.38964632e-03, 1.73705798e-02, 1.01444185e-01, 5.55858528e-03,
          0., 0., 0., 0., 0., 2.77929264e-03, 8.19891319e-02,
          2.77929264e-03, 0., 0., 0., 0., 0., 0., 0., 0., 0., 0., 0., 0.,
          0., 0., 0., 0., 0., 0., 0., 0., 0., 0., 0., 0., 0., 0., 0., 0.,
          0., 0., 0., 0., 0., 0., 0., 0., 0., 0., 0., 0., 0., 0., 0., 0.,
          0., 0., 0., 0., 0., 0., 0., 0., 0., 5.41962087e-02,
          3.84932041e-01, 3.47411586e-03, 0., 0., 0., 0., 0.,
          3.54359820e-02, 3.57833922e-01, 3.26566882e-02, 0., 0., 0., 0.,
          0., 7.64305517e-03, 2.77929264e-03, 0., 0., 0., 0., 0., 0., 0.,
          0., 0., 0., 0., 0., 0., 0., 0., 0., 0., 0., 0., 0., 0., 0., 0.,
          0., 0., 0., 0., 0., 0., 0., 0., 0., 0., 0., 0., 0., 0., 0., 0.,
          0., 0., 0., 0., 0., 0., 0., 3.05722207e-02, 1.11171708e-01,
          1.38964634e-02, 0., 0., 0., 0., 0., 1.45218045e-01,
          6.62861288e-01, 2.29291655e-02, 0., 0., 0., 0., 0.,
          4.51635048e-02, 3.79373461e-01, 6.25340873e-03, 0., 0., 0., 0.,
          0., 1.38964632e-03, 9.72752459e-03, 0., 0., 0., 0., 0., 0., 0.,
          0., 0., 0., 0., 0., 0., 0., 0., 0., 0., 0., 0., 0., 0., 0., 0.,
          0., 0., 0., 0., 0., 0., 0., 0., 0., 0., 0., 0., 0., 0., 0., 0.,
          0., 0., 0., 0., 0., 0., 0., 0., 0., 0., 0., 0., 0., 0., 0., 0.,
          0., 0., 0., 0., 0., 0., 0., 0., 0., 0., 0., 0., 0., 0., 0., 0.,
          0., 0., 0., 0., 0., 0., 0., 0., 0., 0., 0., 0., 0., 0., 0., 0.,
          0., 0., 0., 0., 0., 0., 0., 0., 0., 0., 0., 0., 0., 0., 0., 0.,
          0., 0., 0., 0., 0., 0., 0., 0., 0., 0., 0., 0., 0., 0., 0., 0.,
          0., 0., 0., 0., 0., 0., 0., 0., 0., 0., 0., 0., 0., 0., 0., 0.,
          0., 0., 0., 0., 0., 0., 0., 0., 0., 0., 0., 0., 0., 0., 0., 0.,
          0., 0., 0., 0., 0., 0., 0., 0., 0., 0., 0., 0., 5.60784340e-01,
          5.84313750e-01 ]
      - [ 0., 0., 0., 1.27456635e-02, 9.66546163e-02, 7.43497014e-02,
          3.18641588e-02, 4.03612666e-02, 0., 0., 0., 3.18641588e-03,
          2.03930616e-01, 2.89963841e-01, 7.11632892e-02, 7.43497023e-03,
          0., 0., 0., 3.18641588e-03, 3.05895925e-01, 3.21828008e-01,
          6.26661777e-02, 1.80563573e-02, 0., 0., 0., 2.12427718e-03,
          1.89060673e-01, 2.37919047e-01, 7.32875615e-02, 4.88583744e-02,
          0., 0., 0., 0., 4.77962382e-02, 1.76315010e-01, 7.11632892e-02,
          5.41690700e-02, 0., 0., 0., 0., 1.69942174e-02, 5.52312061e-02,
          2.54913270e-02, 1.59320794e-02, 0., 0., 0., 0., 0.,
          8.49710871e-03, 0., 0., 0., 0., 0., 0., 0., 0., 0., 0., 0., 0.,
          0., 1.06213859e-03, 2.01806333e-02, 1.91184953e-02,
          1.91184953e-02, 8.49710871e-03, 0., 0., 0., 0., 1.06213859e-03,
          0., 6.37283176e-03, 1.06213859e-03, 0., 0., 0., 0., 0., 0.,
          1.06213859e-03, 0., 0., 0., 0., 0., 0., 0., 0., 0., 0., 0., 0.,
          0., 0., 0., 0., 0., 0., 0., 0., 0., 0., 0., 0., 0., 0., 0., 0.,
          0., 0., 0., 0., 0., 0., 0., 0., 0., 0., 0., 0., 0., 0., 0., 0.,
          1.06213859e-03, 2.01806333e-02, 4.88583744e-02, 5.20447902e-02,
          4.88583744e-02, 0., 0., 0., 0., 3.18641588e-03, 1.27456635e-02,
          9.55924764e-03, 4.24855435e-03, 0., 0., 0., 0., 0., 0., 0., 0.,
          0., 0., 0., 0., 0., 0., 0., 0., 0., 0., 0., 0., 0., 0., 0., 0.,
          0., 0., 0., 0., 0., 0., 0., 0., 0., 0., 0., 0., 0., 0., 0., 0.,
          0., 0., 0., 0., 0., 0., 0., 0., 0., 0., 0., 1.06213859e-03,
          5.84176220e-02, 1.43388718e-01, 4.14234065e-02, 8.07225332e-02,
          0., 0., 0., 3.18641588e-03, 2.44291872e-02, 2.12427720e-01,
          1.80563573e-02, 3.18641588e-03, 0., 0., 0., 1.06213859e-03,
          2.12427718e-03, 1.69942174e-02, 2.44291872e-02, 0., 0., 0., 0.,
          0., 0., 0., 4.24855435e-03, 1.06213856e-02, 0., 0., 0., 0., 0.,
          0., 0., 0., 0., 0., 0., 0., 0., 0., 0., 0., 0., 0., 0., 0., 0.,
          0., 0., 0., 0., 0., 0., 0., 0., 0., 0., 0., 0., 0., 0.,
          8.49710871e-03, 1.61445066e-01, 1.64631486e-01, 1.48699405e-02,
          5.62933460e-02, 0., 0., 0., 2.12427718e-03, 4.67340983e-02,
          8.92196447e-02, 1.06213859e-03, 0., 0., 0., 0., 0., 0., 0.,
          8.49710871e-03, 0., 0., 0., 0., 0., 0., 0., 0., 0., 0., 0., 0.,
          0., 0., 0., 0., 0., 0., 0., 0., 0., 0., 0., 0., 0., 0., 0., 0.,
          0., 0., 0., 0., 0., 0., 0., 0., 0., 0., 0., 0., 0., 0., 0., 0.,
          2.12427718e-03, 1.14710972e-01, 1.32767320e-01, 1.91184953e-02,
          1.69942174e-02, 0., 0., 0., 3.18641588e-03, 2.51726836e-01,
          4.90708023e-01, 1.48699405e-02, 1.06213859e-03, 0., 0., 0.,
          2.12427718e-03, 7.01011494e-02, 8.81575048e-02, 7.43497023e-03,
          0., 0., 0., 0., 0., 5.31069282e-03, 1.06213856e-02, 0., 0., 0.,
          0., 0., 0., 0., 4.24855435e-03, 0., 0., 0., 0., 0., 0., 0., 0.,
          0., 0., 0., 0., 0., 0., 0., 0., 0., 0., 0., 0., 0., 0., 0., 0.,
          0., 0., 0., 0., 0., 0., 0., 0., 0., 0., 0., 0., 0., 0., 0., 0.,
          0., 0., 0., 0., 0., 0., 0., 0., 0., 0., 0., 0., 0., 0., 0., 0.,
          0., 0., 0., 0., 0., 0., 0., 0., 0., 0., 0., 0., 0., 0., 0., 0.,
          0., 0., 0., 0., 0., 0., 0., 0., 0., 0., 0., 0., 0., 0., 0., 0.,
          0., 0., 0., 0., 0., 0., 0., 0., 0., 0., 0., 0., 0., 0., 0., 0.,
          0., 0., 0., 0., 0., 0., 0., 0., 0., 0., 0., 0., 0., 0., 0., 0.,
          0., 0., 0., 0., 0., 0., 0., 0., 0., 0., 0., 0., 0., 0., 0., 0.,
          0., 0., 0., 0., 0., 0., 0., 0., 0., 0., 0., 0., 0., 0., 0., 0.,
          0., 0., 3.76470596e-01, 8.03921580e-01 ]
      - [ 0., 0., 0., 1.64660048e-02, 5.09662069e-02, 4.07729670e-02,
          7.05685932e-03, 2.11705789e-02, 0., 0., 0., 4.70457301e-02,
          9.64437425e-02, 2.27387697e-02, 2.35228660e-03, 7.84095493e-04,
          0., 0., 0., 2.74433419e-02, 4.31252532e-02, 5.72389700e-02,
          1.25455279e-02, 0., 0., 0., 0., 1.56819099e-03, 2.97956280e-02,
          4.62616347e-02, 0., 0., 0., 0., 0., 7.84095493e-04,
          3.13638197e-03, 9.40914638e-03, 0., 0., 0., 0., 0., 0., 0., 0.,
          0., 0., 0., 0., 0., 0., 0., 0., 0., 0., 0., 0., 0., 0., 0., 0.,
          0., 0., 0., 0., 0., 8.62505008e-03, 1.25455279e-02,
          6.27276395e-03, 1.56819099e-03, 3.13638197e-03, 0., 0., 0.,
          6.27276395e-03, 4.70457319e-03, 0., 0., 0., 0., 0., 0., 0., 0.,
          7.84095493e-04, 0., 0., 0., 0., 0., 0., 0., 0., 0., 0., 0., 0.,
          0., 0., 0., 0., 0., 0., 0., 0., 0., 0., 0., 0., 0., 0., 0., 0.,
          0., 0., 0., 0., 0., 0., 0., 0., 0., 0., 0., 0., 0., 0., 0., 0.,
          0., 8.62505008e-03, 1.41137186e-02, 1.80341955e-02,
          7.05685932e-03, 1.48978140e-02, 0., 0., 0., 3.92047735e-03,
          6.27276395e-03, 2.35228660e-03, 1.25455279e-02, 0., 0., 0., 0.,
          0., 0., 0., 0., 0., 0., 0., 0., 0., 0., 0., 0., 0., 0., 0., 0.,
          0., 0., 0., 0., 0., 0., 0., 0., 0., 0., 0., 0., 0., 0., 0., 0.,
          0., 0., 0., 0., 0., 0., 0., 0., 0., 0., 0., 0., 0., 0., 0., 0.,
          9.40914638e-03, 8.07618350e-02, 3.52842957e-02, 1.96023881e-02,
          2.35228660e-03, 0., 0., 0., 5.48866857e-03, 1.63091868e-01,
          2.96388090e-01, 8.78186971e-02, 9.40914638e-03, 0., 0., 0., 0.,
          3.21479142e-02, 5.09662069e-02, 2.35228660e-03, 0., 0., 0., 0.,
          0., 0., 0., 0., 0., 0., 0., 0., 0., 0., 0., 0., 0., 0., 0., 0.,
          0., 0., 0., 0., 0., 0., 0., 0., 0., 0., 0., 0., 0., 0., 0., 0.,
          0., 0., 0., 0., 0., 0., 0., 0., 4.46934439e-02, 3.49706590e-01,
          3.37161049e-02, 3.13638197e-03, 0., 0., 0., 7.84095493e-04,
          4.70457301e-02, 6.44526482e-01, 1.05852894e-01, 1.56819099e-03,
          0., 0., 0., 0., 5.48866857e-03, 6.74322098e-02, 0., 0., 0., 0.,
          0., 0., 0., 0., 0., 0., 0., 0., 0., 0., 0., 0., 0., 0., 0., 0.,
          0., 0., 0., 0., 0., 0., 0., 0., 0., 0., 0., 0., 0., 0., 0., 0.,
          0., 0., 0., 0., 0., 0., 0., 0., 0., 0., 3.60683911e-02,
          1.38784900e-01, 7.84095470e-03, 4.70457319e-03, 8.62505008e-03,
          0., 0., 7.84095493e-04, 7.99777433e-02, 4.61832255e-01,
          1.05852894e-01, 0., 0., 0., 0., 0., 1.88182928e-02,
          1.19182512e-01, 1.12125657e-01, 0., 0., 0., 0., 0., 0.,
          1.80341955e-02, 1.56819094e-02, 0., 0., 0., 0., 0., 0.,
          7.84095493e-04, 0., 0., 0., 0., 0., 0., 0., 0., 0., 0., 0., 0.,
          0., 0., 0., 0., 0., 0., 0., 0., 0., 0., 0., 0., 0., 0., 0., 0.,
          0., 0., 0., 0., 0., 0., 0., 0., 0., 0., 0., 0., 0., 0., 0., 0.,
          0., 0., 0., 0., 0., 0., 0., 0., 0., 0., 0., 0., 0., 0., 0., 0.,
          0., 0., 0., 0., 0., 0., 0., 0., 0., 0., 0., 0., 0., 0., 0., 0.,
          0., 0., 0., 0., 0., 0., 0., 0., 0., 0., 0., 0., 0., 0., 0., 0.,
          0., 0., 0., 0., 0., 0., 0., 0., 0., 0., 0., 0., 0., 0., 0., 0.,
          0., 0., 0., 0., 0., 0., 0., 0., 0., 0., 0., 0., 0., 0., 0., 0.,
          0., 0., 0., 0., 0., 0., 0., 0., 0., 0., 0., 0., 0., 0., 0., 0.,
          0., 0., 0., 0., 0., 0., 0., 0., 0., 0., 0., 0., 0., 0., 0.,
          3.76470596e-01, 6.98039234e-01 ]
      - [ 0., 0., 2.53365561e-03, 6.92532510e-02, 9.37452540e-02,
          4.22275923e-02, 1.01346225e-02, 1.43573815e-02, 0., 0., 0.,
          4.56058010e-02, 4.13830392e-02, 2.11137962e-02, 3.12484186e-02,
          1.68910366e-03, 0., 0., 0., 3.37820724e-02, 5.65849729e-02,
          3.88493836e-02, 3.20929699e-02, 5.06731123e-03, 0., 0., 0.,
          8.44551832e-04, 3.88493836e-02, 4.56058010e-02, 1.94246918e-02,
          2.11137962e-02, 0., 0., 0., 0., 3.37820733e-03, 9.29007027e-03,
          1.01346225e-02, 1.94246918e-02, 0., 0., 0., 0., 0., 0., 0.,
          5.91186294e-03, 0., 0., 0., 0., 0., 0., 0., 0., 0., 0., 0., 0.,
          0., 0., 0., 0., 0., 0., 0., 4.22275905e-03, 1.04724430e-01,
          5.82740754e-02, 6.24968372e-02, 2.53365561e-03, 0., 0., 0.,
          8.44551832e-04, 4.22275905e-03, 8.44551832e-04, 5.91186294e-03,
          0., 0., 0., 0., 0., 0., 0., 0., 0., 0., 0., 0., 0., 0., 0., 0.,
          0., 0., 0., 0., 0., 0., 0., 0., 0., 0., 0., 0., 0., 0., 0., 0.,
          0., 0., 0., 0., 0., 0., 0., 0., 0., 0., 0., 0., 0., 0., 0., 0.,
          0., 0., 0., 0., 2.11137962e-02, 2.22961679e-01, 7.68542141e-02,
          2.44920030e-02, 3.04038655e-02, 0., 0., 0., 3.37820733e-03,
          4.22275905e-03, 1.68910366e-03, 0., 0., 0., 0., 0., 0., 0., 0.,
          0., 0., 0., 0., 0., 0., 0., 0., 0., 0., 0., 0., 0., 0., 0., 0.,
          0., 0., 0., 0., 0., 0., 0., 0., 0., 0., 0., 0., 0., 0., 0., 0.,
          0., 0., 0., 0., 0., 0., 0., 0., 0., 0., 0., 0., 0.,
          7.76987672e-02, 4.50990677e-01, 4.04540330e-01, 3.12484186e-02,
          8.19215253e-02, 0., 0., 0., 3.29375230e-02, 4.42545176e-01,
          5.07575631e-01, 5.06731123e-03, 1.68910366e-03, 0., 0., 0., 0.,
          1.68910366e-03, 1.09791737e-02, 0., 0., 0., 0., 0., 0., 0., 0.,
          0., 0., 0., 0., 0., 0., 0., 0., 0., 0., 0., 0., 0., 0., 0., 0.,
          0., 0., 0., 0., 0., 0., 0., 0., 0., 0., 0., 0., 0., 0., 0., 0.,
          0., 0., 0., 0., 2.53365561e-03, 1.03879876e-01, 1.42729267e-01,
          5.40513173e-02, 5.06731123e-03, 1.60464849e-02, 0., 0.,
          8.44551832e-04, 4.13830392e-02, 5.65849729e-02, 8.44551809e-03,
          0., 0., 0., 0., 0., 0., 0., 0., 0., 0., 0., 0., 0., 0., 0., 0.,
          0., 0., 0., 0., 0., 0., 0., 0., 0., 0., 0., 0., 0., 0., 0., 0.,
          0., 0., 0., 0., 0., 0., 0., 0., 0., 0., 0., 0., 0., 0., 0., 0.,
          0., 0., 0., 0., 0., 4.64503504e-02, 7.51651153e-02,
          1.68910362e-02, 2.53365561e-03, 6.75641466e-03, 0., 0., 0.,
          6.41859397e-02, 5.74295260e-02, 7.60096638e-03, 0., 0., 0., 0.,
          0., 2.11137962e-02, 1.68910362e-02, 0., 0., 0., 0., 0., 0., 0.,
          0., 0., 0., 0., 0., 0., 0., 0., 0., 0., 0., 0., 0., 0., 0., 0.,
          0., 0., 0., 0., 0., 0., 0., 0., 0., 0., 0., 0., 0., 0., 0., 0.,
          0., 0., 0., 0., 0., 0., 0., 0., 0., 0., 0., 0., 0., 0., 0., 0.,
          0., 0., 0., 0., 0., 0., 0., 0., 0., 0., 0., 0., 0., 0., 0., 0.,
          0., 0., 0., 0., 0., 0., 0., 0., 0., 0., 0., 0., 0., 0., 0., 0.,
          0., 0., 0., 0., 0., 0., 0., 0., 0., 0., 0., 0., 0., 0., 0., 0.,
          0., 0., 0., 0., 0., 0., 0., 0., 0., 0., 0., 0., 0., 0., 0., 0.,
          0., 0., 0., 0., 0., 0., 0., 0., 0., 0., 0., 0., 0., 0., 0., 0.,
          0., 0., 0., 0., 0., 0., 0., 0., 0., 0., 0., 0., 0., 0., 0., 0.,
          0., 0., 0., 0., 0., 0., 0., 0., 0., 0., 0., 0., 0., 0., 0., 0.,
          0., 0., 0., 0., 5.33333361e-01, 6.23529434e-01 ]
      - [ 0., 0., 0., 0., 1.85576570e-03, 1.11345947e-02, 1.29903601e-02,
          6.24774471e-02, 0., 0., 0., 0., 1.23717710e-02, 6.30960315e-02,
          1.04541466e-01, 3.15480158e-02, 0., 0., 0., 6.18588587e-04,
          1.97948348e-02, 2.30733544e-01, 7.09521115e-01, 5.81473261e-02,
          0., 0., 0., 0., 1.67018920e-02, 3.37749362e-01, 4.73220259e-01,
          8.10350999e-02, 0., 0., 0., 0., 8.04165099e-03, 2.08464354e-01,
          1.26192063e-01, 4.70127314e-02, 0., 0., 0., 0., 1.23717717e-03,
          5.44357933e-02, 2.78364848e-02, 4.02082577e-02, 0., 0., 0., 0.,
          0., 0., 0., 3.09294276e-03, 0., 0., 0., 0., 0., 0., 0., 0., 0.,
          0., 0., 0., 0., 4.94870869e-03, 1.54647147e-02, 1.79390684e-02,
          0., 0., 0., 0., 1.85576570e-03, 7.42306281e-03, 6.80447416e-03,
          1.85576570e-03, 0., 0., 0., 0., 0., 1.23717717e-03,
          1.23717717e-03, 0., 0., 0., 0., 0., 0., 0., 0., 0., 0., 0., 0.,
          0., 0., 0., 0., 0., 0., 0., 0., 0., 0., 0., 0., 0., 0., 0., 0.,
          0., 0., 0., 0., 0., 0., 0., 0., 0., 0., 0., 0., 0., 0., 0., 0.,
          0., 1.23717717e-03, 4.33012005e-03, 6.18588552e-03,
          6.24774471e-02, 0., 0., 0., 0., 0., 6.18588587e-04,
          1.85576570e-03, 0., 0., 0., 0., 0., 0., 0., 0., 0., 0., 0., 0.,
          0., 0., 0., 0., 0., 0., 0., 0., 0., 0., 0., 0., 0., 0., 0., 0.,
          0., 0., 0., 0., 0., 0., 0., 0., 0., 0., 0., 0., 0., 0., 0., 0.,
          0., 0., 0., 0., 0., 0., 0., 0., 0., 1.23717717e-03,
          1.23717710e-02, 6.18588552e-03, 1.97948348e-02, 0., 0., 0., 0.,
          1.23717717e-03, 2.47435435e-03, 2.47435435e-03, 0., 0., 0., 0.,
          0., 0., 0., 0., 0., 0., 0., 0., 0., 0., 0., 0., 0., 0., 0., 0.,
          0., 0., 0., 0., 0., 0., 0., 0., 0., 0., 0., 0., 0., 0., 0., 0.,
          0., 0., 0., 0., 0., 0., 0., 0., 0., 0., 0., 0., 0., 0., 0., 0.,
          0., 4.33012005e-03, 1.23717717e-03, 3.71153140e-03,
          1.54647147e-02, 0., 0., 0., 6.18588587e-04, 1.23717717e-03, 0.,
          0., 0., 0., 0., 0., 0., 0., 0., 0., 0., 0., 0., 0., 0., 0., 0.,
          0., 0., 0., 0., 0., 0., 0., 0., 0., 0., 0., 0., 0., 0., 0., 0.,
          0., 0., 0., 0., 0., 0., 0., 0., 0., 0., 0., 0., 0., 0., 0., 0.,
          0., 0., 0., 0., 0., 0., 1.85576570e-03, 2.10320111e-02,
          3.09294276e-03, 2.04134230e-02, 0., 0., 0., 1.23717717e-03,
          9.27882828e-03, 2.10320111e-02, 1.29903601e-02, 1.23717717e-03,
          0., 0., 0., 6.18588587e-04, 4.94870869e-03, 1.48461256e-02,
          8.66024010e-03, 0., 0., 0., 0., 0., 0., 1.23717717e-03, 0., 0.,
          0., 0., 0., 0., 0., 0., 0., 0., 0., 0., 0., 0., 0., 0., 0., 0.,
          0., 0., 0., 0., 0., 0., 0., 0., 0., 0., 0., 0., 0., 0., 0., 0.,
          0., 0., 0., 0., 0., 0., 0., 0., 0., 0., 0., 0., 0., 0., 0., 0.,
          0., 0., 0., 0., 0., 0., 0., 0., 0., 0., 0., 0., 0., 0., 0., 0.,
          0., 0., 0., 0., 0., 0., 0., 0., 0., 0., 0., 0., 0., 0., 0., 0.,
          0., 0., 0., 0., 0., 0., 0., 0., 0., 0., 0., 0., 0., 0., 0., 0.,
          0., 0., 0., 0., 0., 0., 0., 0., 0., 0., 0., 0., 0., 0., 0., 0.,
          0., 0., 0., 0., 0., 0., 0., 0., 0., 0., 0., 0., 0., 0., 0., 0.,
          0., 0., 0., 0., 0., 0., 0., 0., 0., 0., 0., 0., 0., 0., 0., 0.,
          0., 0., 0., 0., 0., 0., 0., 0., 0., 0., 0., 0., 0., 0., 0., 0.,
          3.76470596e-01, 8.00000012e-01 ]
      - [ 0., 0., 1.49391324e-03, 2.98782648e-03, 2.39026118e-02,
          7.46956607e-03, 1.49391324e-03, 1.49391324e-03, 0., 0.,
          3.73478304e-03, 4.48173936e-03, 8.51530507e-02, 1.66571319e-01,
          2.09147856e-02, 0., 0., 0., 1.49391324e-03, 1.56860892e-02,
          1.47897407e-01, 5.15400052e-01, 2.01678276e-02, 0., 0., 0.,
          1.49391324e-03, 8.21652263e-03, 1.38186976e-01, 3.17456543e-01,
          1.41921751e-02, 0., 0., 0., 0., 1.49391324e-03, 3.06252204e-02,
          5.07930480e-02, 5.22869639e-03, 0., 0., 0., 0., 7.46956619e-04,
          2.24086968e-03, 6.72260951e-03, 0., 0., 0., 0., 0., 0., 0., 0.,
          0., 0., 0., 0., 0., 0., 0., 0., 0., 0., 0., 0., 0., 0., 0.,
          4.48173936e-03, 0., 0., 0., 0., 7.46956619e-04, 7.46956619e-04,
          1.49391324e-03, 0., 0., 0., 0., 0., 0., 0., 7.46956619e-04, 0.,
          0., 0., 0., 0., 0., 0., 0., 0., 0., 0., 0., 0., 0., 0., 0., 0.,
          0., 0., 0., 0., 0., 0., 0., 0., 0., 0., 0., 0., 0., 0., 0., 0.,
          0., 0., 0., 0., 0., 0., 0., 0., 0., 0., 0., 0., 1.49391324e-03,
          0., 0., 4.48173936e-03, 2.24086968e-03, 0., 0., 0., 0., 0.,
          1.49391324e-03, 1.19513059e-02, 8.96347873e-03, 0., 0., 0., 0.,
          0., 0., 0., 0., 0., 0., 0., 0., 0., 0., 0., 0., 0., 0., 0., 0.,
          0., 0., 0., 0., 0., 0., 0., 0., 0., 0., 0., 0., 0., 0., 0., 0.,
          0., 0., 0., 0., 0., 0., 0., 0., 0., 0., 0., 0., 0., 0., 0.,
          1.49391324e-03, 5.22869639e-03, 8.96347873e-03, 1.26982620e-02,
          8.21652263e-03, 0., 0., 0., 7.46956619e-04, 7.46956619e-04, 0.,
          1.41921751e-02, 3.58539149e-02, 5.22869639e-03, 0., 0., 0., 0.,
          1.49391324e-03, 7.46956619e-04, 5.97565295e-03, 1.49391324e-03,
          0., 0., 0., 0., 0., 0., 0., 0., 0., 0., 0., 0., 0., 0., 0., 0.,
          0., 0., 0., 0., 0., 0., 0., 0., 0., 0., 0., 0., 0., 0., 0., 0.,
          0., 0., 0., 0., 0., 0., 0., 0., 0., 0., 7.46956619e-04,
          5.97565295e-03, 8.29121843e-02, 2.31556538e-02, 2.98782648e-03,
          0., 0., 0., 0., 1.49391324e-03, 1.48644358e-01, 3.06252204e-02,
          0., 0., 0., 0., 0., 0., 2.24086968e-03, 0., 0., 0., 0., 0., 0.,
          0., 0., 0., 0., 0., 0., 0., 0., 0., 0., 0., 0., 0., 0., 0., 0.,
          0., 0., 0., 0., 0., 0., 0., 0., 0., 0., 0., 0., 0., 0., 0., 0.,
          0., 0., 0., 0., 0., 0., 0., 1.49391324e-03, 6.72260951e-03,
          6.87200055e-02, 1.64330453e-02, 4.48173936e-03, 0., 0.,
          7.46956619e-04, 5.22869639e-03, 1.64330453e-02, 2.83096552e-01,
          3.21938306e-01, 6.72260951e-03, 0., 0., 0., 3.73478304e-03,
          1.12043489e-02, 2.33797416e-01, 5.18387854e-01, 9.71043576e-03,
          0., 0., 0., 0., 0., 4.33234833e-02, 6.79730475e-02,
          1.49391324e-03, 0., 0., 0., 0., 0., 0., 0., 0., 0., 0., 0., 0.,
          0., 0., 0., 0., 0., 0., 0., 0., 0., 0., 0., 0., 0., 0., 0., 0.,
          0., 0., 0., 0., 0., 0., 0., 0., 0., 0., 0., 0., 0., 0., 0., 0.,
          0., 0., 0., 0., 0., 0., 0., 0., 0., 0., 0., 0., 0., 0., 0., 0.,
          0., 0., 0., 0., 0., 0., 0., 0., 0., 0., 0., 0., 0., 0., 0., 0.,
          0., 0., 0., 0., 0., 0., 0., 0., 0., 0., 0., 0., 0., 0., 0., 0.,
          0., 0., 0., 0., 0., 0., 0., 0., 0., 0., 0., 0., 0., 0., 0., 0.,
          0., 0., 0., 0., 0., 0., 0., 0., 0., 0., 0., 0., 0., 0., 0., 0.,
          0., 0., 0., 0., 0., 0., 0., 0., 0., 0., 0., 0., 0., 0., 0., 0.,
          0., 0., 0., 0., 0., 0., 0., 0., 0., 0., 0., 0., 0., 0., 0., 0.,
          0., 0., 0., 0., 0., 4.27450985e-01, 7.17647076e-01 ]
      - [ 0., 0., 0., 3.22325854e-03, 2.98151411e-02, 4.43198048e-02,
          2.41744388e-02, 5.07663190e-02, 0., 0., 8.05814634e-04,
          4.02907329e-03, 4.35139909e-02, 1.35376856e-01, 2.57860683e-02,
          1.04755899e-02, 0., 0., 0., 7.25233136e-03, 5.56012094e-02,
          3.36024702e-01, 3.62616591e-02, 3.22325854e-03, 0., 0., 0.,
          6.44651707e-03, 5.47953919e-02, 5.36672533e-01, 8.78337920e-02,
          4.02907329e-03, 0., 0., 0., 8.05814657e-03, 2.09511798e-02,
          5.09274840e-01, 3.92431706e-01, 1.61162927e-03, 0., 0., 0., 0.,
          8.86396039e-03, 2.18375757e-01, 1.47464082e-01, 8.05814634e-04,
          0., 0., 0., 0., 1.20872194e-02, 8.62221643e-02, 0., 0., 0., 0.,
          0., 0., 0., 0., 0., 0., 0., 0., 0., 1.61162927e-03,
          1.28930341e-02, 8.05814657e-03, 2.98151411e-02, 6.44651707e-03,
          0., 0., 0., 8.05814634e-04, 1.04755899e-02, 4.83488757e-03, 0.,
          0., 0., 0., 0., 0., 0., 0., 0., 0., 0., 0., 0., 0., 0., 0., 0.,
          0., 0., 0., 0., 0., 0., 0., 0., 0., 0., 0., 0., 0., 0., 0., 0.,
          0., 0., 0., 0., 0., 0., 0., 0., 0., 0., 0., 0., 0., 0., 0., 0.,
          0., 0., 0., 0., 2.41744379e-03, 4.10965458e-02, 4.43198048e-02,
          6.44651726e-02, 1.28930341e-02, 0., 0., 0., 0., 3.22325854e-03,
          5.64070232e-03, 1.61162931e-02, 9.66977514e-03, 0., 0., 0., 0.,
          0., 0., 0., 0., 0., 0., 0., 0., 0., 0., 0., 0., 0., 0., 0., 0.,
          0., 0., 0., 0., 0., 0., 0., 0., 0., 0., 0., 0., 0., 0., 0., 0.,
          0., 0., 0., 0., 0., 0., 0., 0., 0., 0., 0., 0., 0., 0., 0., 0.,
          5.23779504e-02, 1.06367528e-01, 7.25233136e-03, 2.41744379e-03,
          0., 0., 0., 0., 8.05814634e-04, 6.84942454e-02, 5.64070232e-03,
          1.53104775e-02, 0., 0., 0., 0., 0., 0., 8.05814634e-04, 0., 0.,
          0., 0., 0., 0., 0., 0., 0., 0., 0., 0., 0., 0., 0., 0., 0., 0.,
          0., 0., 0., 0., 0., 0., 0., 0., 0., 0., 0., 0., 0., 0., 0., 0.,
          0., 0., 0., 0., 0., 0., 0., 0., 0., 0., 8.05814634e-04,
          2.09511798e-02, 7.17175007e-02, 3.22325854e-03, 0., 0., 0., 0.,
          8.05814634e-04, 3.22325854e-03, 1.69221070e-02, 0., 0., 0., 0.,
          0., 0., 0., 0., 0., 0., 0., 0., 0., 0., 0., 0., 0., 0., 0., 0.,
          0., 0., 0., 0., 0., 0., 0., 0., 0., 0., 0., 0., 0., 0., 0., 0.,
          0., 0., 0., 0., 0., 0., 0., 0., 0., 0., 0., 0., 0., 0., 0., 0.,
          0., 2.41744379e-03, 4.27081734e-02, 6.76884279e-02,
          3.22325854e-03, 1.85337365e-02, 0., 0., 0., 8.05814634e-04,
          3.38442139e-02, 1.28124520e-01, 1.61162927e-03, 2.41744379e-03,
          0., 0., 0., 1.61162927e-03, 4.43198048e-02, 6.68826103e-02,
          8.05814634e-04, 0., 0., 0., 0., 0., 4.02907329e-03,
          1.93395503e-02, 3.22325854e-03, 0., 0., 0., 0., 0.,
          1.61162927e-03, 1.61162927e-03, 1.61162927e-03, 0., 0., 0., 0.,
          0., 0., 0., 0., 0., 0., 0., 0., 0., 0., 0., 0., 0., 0., 0., 0.,
          0., 0., 0., 0., 0., 0., 0., 0., 0., 0., 0., 0., 0., 0., 0., 0.,
          0., 0., 0., 0., 0., 0., 0., 0., 0., 0., 0., 0., 0., 0., 0., 0.,
          0., 0., 0., 0., 0., 0., 0., 0., 0., 0., 0., 0., 0., 0., 0., 0.,
          0., 0., 0., 0., 0., 0., 0., 0., 0., 0., 0., 0., 0., 0., 0., 0.,
          0., 0., 0., 0., 0., 0., 0., 0., 0., 0., 0., 0., 0., 0., 0., 0.,
          0., 0., 0., 0., 0., 0., 0., 0., 0., 0., 0., 0., 0., 0., 0., 0.,
          0., 0., 0., 0., 0., 0., 0., 0., 0., 0., 0., 0., 0., 0., 0., 0.,
          0., 0., 0., 0., 0., 0., 0., 0., 0., 0., 0., 0., 0., 0., 0., 0.,
          0., 0., 0., 0., 0., 3.76470596e-01, 8.00000012e-01 ]
      - [ 0., 0., 0., 3.98833910e-03, 1.64518997e-01, 1.20647267e-01,
          3.98833938e-02, 3.29037979e-02, 0., 0., 0., 8.97376332e-03,
          2.06396550e-01, 1.69504419e-01, 4.08804789e-02, 2.99125444e-03,
          0., 0., 0., 4.98542422e-03, 1.14664756e-01, 1.27626851e-01,
          6.87988549e-02, 5.98250888e-03, 0., 0., 0., 9.97084775e-04,
          7.97667876e-02, 6.48105145e-02, 3.88863087e-02, 4.98542422e-03,
          0., 0., 0., 0., 1.99416955e-03, 5.98250888e-03, 3.98833910e-03,
          2.49271207e-02, 0., 0., 0., 0., 0., 0., 0., 1.99416955e-03, 0.,
          0., 0., 0., 0., 0., 0., 0., 0., 0., 0., 0., 0., 0., 0., 0., 0.,
          0., 0., 1.99416955e-03, 4.28746454e-02, 2.39300355e-02,
          1.49562722e-02, 1.79475266e-02, 0., 0., 0., 0., 0.,
          2.99125444e-03, 1.89446118e-02, 1.99416955e-03, 0., 0., 0., 0.,
          0., 3.98833910e-03, 9.97084775e-04, 0., 0., 0., 0., 0., 0., 0.,
          0., 0., 0., 0., 0., 0., 0., 0., 0., 0., 0., 0., 0., 0., 0., 0.,
          0., 0., 0., 0., 0., 0., 0., 0., 0., 0., 0., 0., 0., 0., 0., 0.,
          0., 0., 0., 0., 0., 0., 5.58367483e-02, 2.69212909e-02,
          2.59242058e-02, 7.97667876e-02, 0., 0., 0., 0., 1.19650178e-02,
          1.09679326e-02, 2.99125444e-03, 6.97959354e-03, 0., 0., 0., 0.,
          0., 0., 0., 0., 0., 0., 0., 0., 0., 0., 0., 0., 0., 0., 0., 0.,
          0., 0., 0., 0., 0., 0., 0., 0., 0., 0., 0., 0., 0., 0., 0., 0.,
          0., 0., 0., 0., 0., 0., 0., 0., 0., 0., 0., 0., 0., 0., 0.,
          3.98833910e-03, 1.92437366e-01, 1.09679326e-01, 3.29037979e-02,
          5.28454967e-02, 0., 0., 0., 4.98542422e-03, 5.18484116e-02,
          6.28163442e-02, 3.98833938e-02, 3.98833910e-03, 0., 0., 0., 0.,
          0., 7.97667820e-03, 3.09096295e-02, 4.98542422e-03, 0., 0., 0.,
          0., 0., 0., 3.98833910e-03, 4.48688157e-02, 0., 0., 0., 0., 0.,
          0., 0., 0., 0., 0., 0., 0., 0., 0., 0., 0., 0., 0., 0., 0., 0.,
          0., 0., 0., 0., 0., 0., 0., 0., 0., 0., 0., 0., 0., 0.,
          1.59533564e-02, 4.73615289e-01, 2.73201227e-01, 4.48688157e-02,
          5.78309186e-02, 0., 0., 0., 1.19650178e-02, 1.93434462e-01,
          1.18653096e-01, 3.98833910e-03, 0., 0., 0., 0., 0.,
          1.99416955e-03, 1.19650178e-02, 7.97667820e-03, 0., 0., 0., 0.,
          0., 0., 0., 0., 1.99416955e-03, 0., 0., 0., 0., 0., 0., 0., 0.,
          0., 0., 0., 0., 0., 0., 0., 0., 0., 0., 0., 0., 0., 0., 0., 0.,
          0., 0., 0., 0., 0., 0., 0., 0., 0., 0., 0., 2.99125444e-03,
          2.60239124e-01, 1.35603532e-01, 4.98542422e-03, 2.89154593e-02,
          0., 0., 0., 1.49562722e-02, 4.65638608e-01, 2.33317852e-01,
          5.98250888e-03, 0., 0., 0., 0., 4.98542422e-03, 2.02408224e-01,
          2.79183742e-02, 0., 0., 0., 0., 0., 0., 4.98542422e-03,
          3.98833910e-03, 0., 0., 0., 0., 0., 0., 0., 0., 0., 0., 0., 0.,
          0., 0., 0., 0., 0., 0., 0., 0., 0., 0., 0., 0., 0., 0., 0., 0.,
          0., 0., 0., 0., 0., 0., 0., 0., 0., 0., 0., 0., 0., 0., 0., 0.,
          0., 0., 0., 0., 0., 0., 0., 0., 0., 0., 0., 0., 0., 0., 0., 0.,
          0., 0., 0., 0., 0., 0., 0., 0., 0., 0., 0., 0., 0., 0., 0., 0.,
          0., 0., 0., 0., 0., 0., 0., 0., 0., 0., 0., 0., 0., 0., 0., 0.,
          0., 0., 0., 0., 0., 0., 0., 0., 0., 0., 0., 0., 0., 0., 0., 0.,
          0., 0., 0., 0., 0., 0., 0., 0., 0., 0., 0., 0., 0., 0., 0., 0.,
          0., 0., 0., 0., 0., 0., 0., 0., 0., 0., 0., 0., 0., 0., 0., 0.,
          0., 0., 0., 0., 0., 0., 0., 0., 0., 0., 0., 0., 0., 0., 0., 0.,
          0., 0., 0., 0., 0., 0., 3.64705890e-01, 8.23529422e-01 ]
      - [ 0., 0., 0., 6.41088118e-04, 6.41088095e-03, 1.02574099e-02,
          2.56435238e-02, 4.29529026e-02, 0., 0., 0., 3.20544047e-03,
          5.38513996e-02, 4.03885514e-01, 5.19281365e-02, 1.53861139e-02,
          0., 0., 0., 0., 1.33346319e-01, 7.81486392e-01, 1.62836373e-01,
          1.47450259e-02, 0., 0., 0., 0., 1.21806741e-01, 2.98105955e-01,
          8.65468904e-02, 1.92326424e-03, 0., 0., 0., 0., 3.91063727e-02,
          1.54502228e-01, 5.64157516e-02, 4.48761648e-03, 0., 0., 0., 0.,
          1.47450259e-02, 6.28266335e-02, 2.56435238e-02, 3.20544047e-03,
          0., 0., 0., 0., 3.84652847e-03, 6.41088118e-04, 0., 0., 0., 0.,
          0., 0., 0., 0., 0., 0., 0., 0., 0., 0., 2.56435247e-03,
          7.05196895e-03, 1.53861139e-02, 1.34628499e-02, 0., 0., 0., 0.,
          6.41088118e-04, 6.41088118e-04, 6.41088095e-03, 0., 0., 0., 0.,
          0., 0., 0., 0., 0., 0., 0., 0., 0., 0., 0., 0., 0., 0., 0., 0.,
          0., 0., 0., 0., 0., 0., 0., 0., 0., 0., 0., 0., 0., 0., 0., 0.,
          0., 0., 0., 0., 0., 0., 0., 0., 0., 0., 0., 0., 0., 0., 0., 0.,
          0., 2.56435247e-03, 7.05196895e-03, 2.75667887e-02,
          5.64157516e-02, 0., 0., 0., 0., 6.41088118e-04, 1.28217619e-02,
          8.97523295e-03, 1.34628499e-02, 0., 0., 0., 0., 0., 0., 0., 0.,
          0., 0., 0., 0., 0., 0., 0., 0., 0., 0., 0., 0., 0., 0., 0., 0.,
          0., 0., 0., 0., 0., 0., 0., 0., 0., 0., 0., 0., 0., 0., 0., 0.,
          0., 0., 0., 0., 0., 0., 0., 0., 0., 0., 0., 0., 1.92326424e-03,
          6.41088095e-03, 1.28217619e-02, 3.65420207e-02, 0., 0., 0., 0.,
          2.56435247e-03, 2.56435247e-03, 7.69305695e-03, 1.85915548e-02,
          0., 0., 0., 0., 0., 0., 0., 0., 0., 0., 0., 0., 0., 0., 0., 0.,
          0., 0., 0., 0., 0., 0., 0., 0., 0., 0., 0., 0., 0., 0., 0., 0.,
          0., 0., 0., 0., 0., 0., 0., 0., 0., 0., 0., 0., 0., 0., 0., 0.,
          0., 0., 0., 1.92326424e-03, 3.20544047e-03, 2.56435247e-03,
          1.92326424e-03, 2.50024348e-02, 0., 0., 0., 1.92326424e-03,
          5.12870494e-03, 6.41088118e-04, 0., 0., 0., 0., 0., 0., 0.,
          7.69305695e-03, 0., 0., 0., 0., 0., 0., 0., 0., 0., 0., 0., 0.,
          0., 0., 0., 0., 0., 0., 0., 0., 0., 0., 0., 0., 0., 0., 0., 0.,
          0., 0., 0., 0., 0., 0., 0., 0., 0., 0., 0., 0., 0., 0., 0., 0.,
          0., 0., 2.56435247e-03, 1.08984979e-02, 3.84652847e-03,
          1.02574099e-02, 0., 0., 0., 3.84652847e-03, 3.01311407e-02,
          1.21165648e-01, 7.69305695e-03, 1.92326424e-03, 0., 0., 0., 0.,
          1.79504659e-02, 6.73142523e-02, 8.97523295e-03, 0., 0., 0., 0.,
          0., 2.56435247e-03, 1.92326424e-03, 0., 0., 0., 0., 0., 0., 0.,
          0., 0., 0., 0., 0., 0., 0., 0., 0., 0., 0., 0., 0., 0., 0., 0.,
          0., 0., 0., 0., 0., 0., 0., 0., 0., 0., 0., 0., 0., 0., 0., 0.,
          0., 0., 0., 0., 0., 0., 0., 0., 0., 0., 0., 0., 0., 0., 0., 0.,
          0., 0., 0., 0., 0., 0., 0., 0., 0., 0., 0., 0., 0., 0., 0., 0.,
          0., 0., 0., 0., 0., 0., 0., 0., 0., 0., 0., 0., 0., 0., 0., 0.,
          0., 0., 0., 0., 0., 0., 0., 0., 0., 0., 0., 0., 0., 0., 0., 0.,
          0., 0., 0., 0., 0., 0., 0., 0., 0., 0., 0., 0., 0., 0., 0., 0.,
          0., 0., 0., 0., 0., 0., 0., 0., 0., 0., 0., 0., 0., 0., 0., 0.,
          0., 0., 0., 0., 0., 0., 0., 0., 0., 0., 0., 0., 0., 0., 0., 0.,
          0., 0., 0., 0., 0., 0., 0., 0., 0., 0., 0., 3.72549027e-01,
          8.07843149e-01 ]
      - [ 0., 0., 0., 2.81707607e-02, 2.25366086e-01, 1.25405326e-01,
          2.09008865e-02, 2.09008865e-02, 0., 0., 0., 3.72581035e-02,
          1.10865578e-01, 6.08851910e-02, 3.18056978e-02, 4.54367092e-03,
          0., 0., 0., 6.36113947e-03, 4.90716472e-02, 3.99843045e-02,
          3.36231664e-02, 1.27222789e-02, 0., 0., 0., 0., 9.99607611e-03,
          4.72541787e-02, 2.81707607e-02, 1.99921522e-02, 0., 0., 0., 0.,
          0., 2.27183551e-02, 1.90834180e-02, 1.90834180e-02, 0., 0., 0.,
          0., 0., 0., 2.72620260e-03, 7.26987375e-03, 0., 0., 0., 0., 0.,
          0., 0., 0., 0., 0., 0., 0., 0., 0., 0., 0., 0., 0., 0., 0.,
          2.99882293e-02, 3.99843045e-02, 6.08851910e-02, 9.08734219e-04,
          0., 0., 0., 0., 1.81746844e-03, 1.81746844e-03, 3.63493687e-03,
          0., 0., 0., 0., 0., 0., 0., 0., 0., 0., 0., 0., 0., 0., 0., 0.,
          0., 0., 0., 0., 0., 0., 0., 0., 0., 0., 0., 0., 0., 0., 0., 0.,
          0., 0., 0., 0., 0., 0., 0., 0., 0., 0., 0., 0., 0., 0., 0., 0.,
          0., 0., 0., 0., 2.72620260e-03, 9.72345620e-02, 1.33583933e-01,
          2.36270893e-02, 7.08812699e-02, 0., 0., 0., 0., 1.18135447e-02,
          1.54484818e-02, 0., 0., 0., 0., 0., 0., 0., 0., 0., 0., 0., 0.,
          0., 0., 0., 0., 0., 0., 0., 0., 0., 0., 0., 0., 0., 0., 0., 0.,
          0., 0., 0., 0., 0., 0., 0., 0., 0., 0., 0., 0., 0., 0., 0., 0.,
          0., 0., 0., 0., 0., 0., 0., 0., 0., 6.36113947e-03,
          2.87160009e-01, 4.68906850e-01, 2.72620264e-02, 6.72463328e-02,
          0., 0., 0., 9.08734219e-04, 6.81550652e-02, 4.78902936e-01,
          5.54327890e-02, 0., 0., 0., 0., 0., 0., 5.45240520e-03,
          7.26987375e-03, 0., 0., 0., 0., 0., 0., 0., 0., 0., 0., 0., 0.,
          0., 0., 0., 0., 0., 0., 0., 0., 0., 0., 0., 0., 0., 0., 0., 0.,
          0., 0., 0., 0., 0., 0., 0., 0., 0., 0., 0., 0., 0., 0., 0.,
          1.81746844e-03, 4.08930406e-02, 3.88029516e-01, 2.98973560e-01,
          7.26987375e-03, 2.81707607e-02, 0., 0., 0., 2.72620260e-03,
          6.72463328e-02, 2.27183551e-02, 0., 0., 0., 0., 0., 0., 0., 0.,
          0., 0., 0., 0., 0., 0., 0., 0., 0., 0., 0., 0., 0., 0., 0., 0.,
          0., 0., 0., 0., 0., 0., 0., 0., 0., 0., 0., 0., 0., 0., 0., 0.,
          0., 0., 0., 0., 0., 0., 0., 0., 0., 0., 0., 0., 9.08734219e-04,
          5.27065843e-02, 1.75385699e-01, 1.00869499e-01, 6.36113947e-03,
          2.54445579e-02, 0., 0., 9.08734219e-04, 4.72541787e-02,
          1.49032414e-01, 3.81668359e-02, 2.72620260e-03, 1.81746844e-03,
          0., 0., 0., 0., 3.18056978e-02, 9.99607611e-03, 0., 0., 0., 0.,
          0., 0., 0., 0., 0., 0., 0., 0., 0., 0., 0., 0., 0., 0., 0., 0.,
          0., 0., 0., 0., 0., 0., 0., 0., 0., 0., 0., 0., 0., 0., 0., 0.,
          0., 0., 0., 0., 0., 0., 0., 0., 0., 0., 0., 0., 0., 0., 0., 0.,
          0., 0., 0., 0., 0., 0., 0., 0., 0., 0., 0., 0., 0., 0., 0., 0.,
          0., 0., 0., 0., 0., 0., 0., 0., 0., 0., 0., 0., 0., 0., 0., 0.,
          0., 0., 0., 0., 0., 0., 0., 0., 0., 0., 0., 0., 0., 0., 0., 0.,
          0., 0., 0., 0., 0., 0., 0., 0., 0., 0., 0., 0., 0., 0., 0., 0.,
          0., 0., 0., 0., 0., 0., 0., 0., 0., 0., 0., 0., 0., 0., 0., 0.,
          0., 0., 0., 0., 0., 0., 0., 0., 0., 0., 0., 0., 0., 0., 0., 0.,
          0., 0., 0., 0., 0., 0., 0., 0., 0., 0., 0., 0., 0., 0., 0., 0.,
          0., 0., 0., 0., 0., 0., 5.37254930e-01, 6.15686297e-01 ]
      - [ 0., 0., 1.99138978e-03, 7.66685084e-02, 2.77798891e-01,
          4.87890504e-02, 4.28148843e-02, 5.17761372e-02, 0., 0., 0.,
          5.47632203e-02, 1.59311190e-01, 4.77933586e-02, 3.58450189e-02,
          0., 0., 0., 0., 3.78364064e-02, 1.71259537e-01, 4.08234932e-02,
          1.29440343e-02, 0., 0., 0., 0., 3.98277957e-03, 6.17330857e-02,
          3.88321020e-02, 1.99138978e-03, 0., 0., 0., 0., 0., 0.,
          5.97416982e-03, 0., 0., 0., 0., 0., 0., 0., 0., 0., 0., 0., 0.,
          0., 0., 0., 0., 0., 0., 0., 0., 0., 0., 0., 0., 0., 0., 0., 0.,
          0., 1.29440343e-02, 8.56297687e-02, 2.78794579e-02,
          2.78794579e-02, 2.58880686e-02, 0., 0., 0., 0., 1.59311183e-02,
          2.98708491e-03, 0., 0., 0., 0., 0., 0., 0., 0., 0., 0., 0., 0.,
          0., 0., 0., 0., 0., 0., 0., 0., 0., 0., 0., 0., 0., 0., 0., 0.,
          0., 0., 0., 0., 0., 0., 0., 0., 0., 0., 0., 0., 0., 0., 0., 0.,
          0., 0., 0., 0., 0., 0., 0., 0., 0., 1.69268139e-02,
          1.39397293e-01, 4.97847460e-02, 6.96986467e-02, 4.48062718e-02,
          0., 0., 0., 3.98277957e-03, 1.69268139e-02, 3.98277957e-03,
          9.95694892e-04, 0., 0., 0., 0., 0., 0., 0., 0., 0., 0., 0., 0.,
          0., 0., 0., 0., 0., 0., 0., 0., 0., 0., 0., 0., 0., 0., 0., 0.,
          0., 0., 0., 0., 0., 0., 0., 0., 0., 0., 0., 0., 0., 0., 0., 0.,
          0., 0., 0., 0., 0., 0., 0., 0., 3.38536277e-02, 3.37540597e-01,
          2.59876370e-01, 5.97416982e-02, 6.37244731e-02, 0., 0., 0.,
          1.89182032e-02, 2.27018446e-01, 5.12782872e-01, 1.39397290e-02,
          0., 0., 0., 0., 2.98708491e-03, 1.19483396e-02, 1.73250914e-01,
          4.08234932e-02, 0., 0., 0., 0., 0., 0., 0., 1.39397290e-02,
          7.96555914e-03, 0., 0., 0., 0., 0., 0., 0., 0., 0., 0., 0., 0.,
          0., 0., 0., 0., 0., 0., 0., 0., 0., 0., 0., 0., 0., 0., 0., 0.,
          0., 0., 0., 0., 0., 0., 1.99138978e-03, 7.46771172e-02,
          4.19187576e-01, 1.00565188e-01, 1.79225095e-02, 5.47632203e-02,
          0., 0., 0., 4.77933586e-02, 6.37244731e-02, 3.08665428e-02, 0.,
          0., 0., 0., 0., 5.97416982e-03, 8.96125473e-03, 1.19483396e-02,
          9.95694892e-04, 0., 0., 0., 0., 0., 0., 0., 1.99138978e-03, 0.,
          0., 0., 0., 0., 0., 0., 0., 0., 0., 0., 0., 0., 0., 0., 0., 0.,
          0., 0., 0., 0., 0., 0., 0., 0., 0., 0., 0., 0., 0., 0., 0., 0.,
          0., 0., 2.98708491e-03, 8.46340731e-02, 1.57319799e-01,
          2.58880686e-02, 1.59311183e-02, 2.09095944e-02, 0., 0.,
          4.97847470e-03, 6.07373901e-02, 1.46367162e-01, 3.08665428e-02,
          0., 0., 0., 0., 0., 1.89182032e-02, 3.68407145e-02,
          2.98708491e-03, 0., 0., 0., 0., 0., 0., 9.95694892e-04, 0., 0.,
          0., 0., 0., 0., 0., 0., 0., 0., 0., 0., 0., 0., 0., 0., 0., 0.,
          0., 0., 0., 0., 0., 0., 0., 0., 0., 0., 0., 0., 0., 0., 0., 0.,
          0., 0., 0., 0., 0., 0., 0., 0., 0., 0., 0., 0., 0., 0., 0., 0.,
          0., 0., 0., 0., 0., 0., 0., 0., 0., 0., 0., 0., 0., 0., 0., 0.,
          0., 0., 0., 0., 0., 0., 0., 0., 0., 0., 0., 0., 0., 0., 0., 0.,
          0., 0., 0., 0., 0., 0., 0., 0., 0., 0., 0., 0., 0., 0., 0., 0.,
          0., 0., 0., 0., 0., 0., 0., 0., 0., 0., 0., 0., 0., 0., 0., 0.,
          0., 0., 0., 0., 0., 0., 0., 0., 0., 0., 0., 0., 0., 0., 0., 0.,
          0., 0., 0., 0., 0., 0., 0., 0., 0., 0., 0., 0., 0., 0., 0., 0.,
          0., 0., 0., 0., 0., 0., 0., 0., 0., 0., 0., 0., 0., 0., 0., 0.,
          0., 5.01960814e-01, 6.43137276e-01 ]
      - [ 0., 0., 8.50353623e-04, 9.35389008e-03, 8.92871320e-02,
          6.63275868e-02, 1.19049512e-02, 2.72113159e-02, 0., 0.,
          1.70070725e-03, 1.61567200e-02, 8.07835981e-02, 2.80616693e-02,
          1.70070725e-03, 0., 0., 0., 0., 5.10212174e-03, 8.58857185e-02,
          3.31637934e-02, 1.70070725e-03, 0., 0., 0., 0., 0.,
          1.10545978e-02, 2.12588403e-02, 0., 0., 0., 0., 0., 0.,
          1.70070725e-03, 7.65318284e-03, 0., 0., 0., 0., 0., 0.,
          2.55106087e-03, 1.70070725e-03, 0., 0., 0., 0., 0., 0., 0., 0.,
          0., 0., 0., 0., 0., 0., 0., 0., 0., 0., 0., 0., 8.50353623e-04,
          1.70070725e-03, 2.97623780e-02, 2.80616693e-02, 2.89120246e-02,
          1.53063657e-02, 0., 0., 0., 1.70070725e-03, 3.40141449e-03,
          4.25176835e-03, 8.50353623e-04, 0., 0., 0., 0., 0., 0., 0., 0.,
          0., 0., 0., 0., 0., 0., 0., 0., 0., 0., 0., 0., 0., 0., 0., 0.,
          0., 0., 0., 0., 0., 0., 0., 0., 0., 0., 0., 0., 0., 0., 0., 0.,
          0., 0., 0., 0., 0., 0., 0., 0., 0., 0., 0., 0., 3.40141449e-03,
          5.86744025e-02, 2.04084869e-02, 1.61567200e-02, 3.31637934e-02,
          0., 0., 0., 0., 4.25176835e-03, 0., 1.70070725e-03, 0., 0., 0.,
          0., 0., 0., 0., 0., 0., 0., 0., 0., 0., 0., 0., 0., 0., 0., 0.,
          0., 0., 0., 0., 0., 0., 0., 0., 0., 0., 0., 0., 0., 0., 0., 0.,
          0., 0., 0., 0., 0., 0., 0., 0., 0., 0., 0., 0., 0., 0., 0., 0.,
          8.50353623e-04, 3.31637934e-02, 2.86569178e-01, 4.17523652e-01,
          1.04593500e-01, 7.31304139e-02, 0., 0., 0., 1.36056580e-02,
          3.11229438e-01, 5.61233401e-01, 4.42183912e-02, 1.27553046e-02,
          0., 0., 0., 3.40141449e-03, 5.01708649e-02, 8.24843049e-02,
          2.55106091e-02, 0., 0., 0., 0., 0., 0., 0., 0., 0., 0., 0., 0.,
          0., 0., 0., 0., 0., 0., 0., 0., 0., 0., 0., 0., 0., 0., 0., 0.,
          0., 0., 0., 0., 0., 0., 0., 0., 0., 0., 0., 0., 0., 0., 0., 0.,
          4.59190980e-02, 3.21433663e-01, 3.00174832e-01, 8.50353669e-03,
          1.02042435e-02, 0., 0., 8.50353623e-04, 4.76198047e-02,
          1.08845264e-01, 6.97290003e-02, 0., 0., 0., 0., 0., 0.,
          1.36056580e-02, 0., 0., 0., 0., 0., 0., 0., 0., 0., 0., 0., 0.,
          0., 0., 0., 0., 0., 0., 0., 0., 0., 0., 0., 0., 0., 0., 0., 0.,
          0., 0., 0., 0., 0., 0., 0., 0., 0., 0., 0., 0., 0., 0., 0., 0.,
          0., 0., 1.87077802e-02, 1.30954459e-01, 5.69736958e-02,
          3.40141449e-03, 8.50353669e-03, 0., 0., 0., 3.23134400e-02,
          1.62417546e-01, 2.12588403e-02, 0., 0., 0., 0., 0., 0.,
          1.78574268e-02, 3.40141449e-03, 0., 0., 0., 0., 0., 0.,
          3.40141449e-03, 2.55106087e-03, 0., 0., 0., 0., 0., 0., 0., 0.,
          0., 0., 0., 0., 0., 0., 0., 0., 0., 0., 0., 0., 0., 0., 0., 0.,
          0., 0., 0., 0., 0., 0., 0., 0., 0., 0., 0., 0., 0., 0., 0., 0.,
          0., 0., 0., 0., 0., 0., 0., 0., 0., 0., 0., 0., 0., 0., 0., 0.,
          0., 0., 0., 0., 0., 0., 0., 0., 0., 0., 0., 0., 0., 0., 0., 0.,
          0., 0., 0., 0., 0., 0., 0., 0., 0., 0., 0., 0., 0., 0., 0., 0.,
          0., 0., 0., 0., 0., 0., 0., 0., 0., 0., 0., 0., 0., 0., 0., 0.,
          0., 0., 0., 0., 0., 0., 0., 0., 0., 0., 0., 0., 0., 0., 0., 0.,
          0., 0., 0., 0., 0., 0., 0., 0., 0., 0., 0., 0., 0., 0., 0., 0.,
          0., 0., 0., 0., 0., 0., 0., 0., 0., 0., 0., 0., 0., 0., 0., 0.,
          0., 0., 0., 0., 0., 0., 0., 0., 0., 0., 5.37254930e-01,
          6.15686297e-01 ]
      - [ 0., 0., 0., 1.15658960e-03, 8.67442228e-03, 8.67442228e-03,
          2.13969089e-02, 1.15658960e-03, 0., 0., 0., 5.78294799e-04,
          2.94930357e-02, 2.02403180e-02, 1.44573702e-02, 4.62635839e-03,
          0., 0., 0., 0., 8.67442228e-03, 2.48666778e-02, 2.31317920e-03,
          6.93953782e-03, 0., 0., 0., 0., 5.78294799e-04, 1.73488446e-02,
          9.25271679e-03, 1.38790756e-02, 0., 0., 0., 0., 0.,
          4.04806389e-03, 4.04806389e-03, 0., 0., 0., 0., 0., 0., 0., 0.,
          0., 0., 0., 0., 0., 0., 0., 0., 0., 0., 0., 0., 0., 0., 0., 0.,
          0., 0., 0., 0., 1.15658960e-03, 3.46976891e-03, 1.15658960e-03,
          2.54449714e-02, 2.89147417e-03, 0., 0., 0., 0., 0., 0.,
          3.46976891e-03, 0., 0., 0., 0., 0., 0., 0., 0., 0., 0., 0., 0.,
          0., 0., 0., 0., 0., 0., 0., 0., 0., 0., 0., 0., 0., 0., 0., 0.,
          0., 0., 0., 0., 0., 0., 0., 0., 0., 0., 0., 0., 0., 0., 0., 0.,
          0., 0., 0., 0., 0., 0., 0., 0., 0., 5.20465337e-03,
          3.06496248e-02, 4.16372269e-02, 4.97333556e-02, 0., 0., 0., 0.,
          0., 0., 2.89147417e-03, 3.46976891e-03, 0., 0., 0., 0., 0.,
          5.78294799e-04, 0., 0., 0., 0., 0., 0., 0., 0., 0., 0., 0., 0.,
          0., 0., 0., 0., 0., 0., 0., 0., 0., 0., 0., 0., 0., 0., 0., 0.,
          0., 0., 0., 0., 0., 0., 0., 0., 0., 0., 0., 0., 0., 0., 0., 0.,
          0., 6.36124285e-03, 3.00713312e-02, 3.87457535e-02,
          3.46976891e-02, 6.30341321e-02, 0., 0., 0., 6.36124285e-03,
          2.05294654e-01, 2.37679169e-01, 5.37814163e-02, 1.67705491e-02,
          0., 0., 0., 5.78294799e-04, 3.06496248e-02, 3.06496263e-01,
          8.49515080e-01, 2.37100869e-02, 0., 0., 0., 0., 1.73488446e-03,
          1.33007811e-02, 2.23221794e-01, 8.79008099e-02, 0., 0., 0., 0.,
          0., 0., 1.15658960e-03, 1.15658967e-02, 0., 0., 0., 0., 0., 0.,
          0., 0., 0., 0., 0., 0., 0., 0., 0., 0., 0., 0., 0., 0., 0., 0.,
          0., 0., 0., 0., 0., 1.21441912e-02, 5.26248291e-02,
          6.36124285e-03, 9.25271679e-03, 7.51783280e-03, 0., 0., 0.,
          6.36124285e-03, 4.22155224e-02, 2.42883824e-02, 0., 0., 0., 0.,
          0., 0., 6.93953782e-03, 0., 0., 0., 0., 0., 0., 0., 0., 0., 0.,
          0., 0., 0., 0., 0., 0., 0., 0., 0., 0., 0., 0., 0., 0., 0., 0.,
          0., 0., 0., 0., 0., 0., 0., 0., 0., 0., 0., 0., 0., 0., 0., 0.,
          0., 0., 0., 0., 2.89147417e-03, 1.15658967e-02, 1.15658960e-03,
          1.73488446e-03, 0., 0., 0., 0., 3.46976891e-03, 1.96620245e-02,
          8.67442228e-03, 0., 0., 0., 0., 0., 0., 0., 0., 0., 0., 0., 0.,
          0., 0., 0., 0., 0., 0., 0., 0., 0., 0., 0., 0., 0., 0., 0., 0.,
          0., 0., 0., 0., 0., 0., 0., 0., 0., 0., 0., 0., 0., 0., 0., 0.,
          0., 0., 0., 0., 0., 0., 0., 0., 0., 0., 0., 0., 0., 0., 0., 0.,
          0., 0., 0., 0., 0., 0., 0., 0., 0., 0., 0., 0., 0., 0., 0., 0.,
          0., 0., 0., 0., 0., 0., 0., 0., 0., 0., 0., 0., 0., 0., 0., 0.,
          0., 0., 0., 0., 0., 0., 0., 0., 0., 0., 0., 0., 0., 0., 0., 0.,
          0., 0., 0., 0., 0., 0., 0., 0., 0., 0., 0., 0., 0., 0., 0., 0.,
          0., 0., 0., 0., 0., 0., 0., 0., 0., 0., 0., 0., 0., 0., 0., 0.,
          0., 0., 0., 0., 0., 0., 0., 0., 0., 0., 0., 0., 0., 0., 0., 0.,
          0., 0., 0., 0., 0., 0., 0., 0., 0., 0., 0., 0., 0., 0., 0., 0.,
          0., 0., 0., 0., 0., 0., 5.33333361e-01, 6.62745118e-01 ]
      - [ 0., 0., 0., 3.04032303e-03, 4.18044403e-02, 6.15665428e-02,
          1.74818579e-02, 4.63649258e-02, 0., 0., 0., 9.12096910e-03,
          1.40614942e-01, 4.49967802e-01, 6.00463822e-02, 3.11633106e-02,
          0., 0., 1.52016152e-03, 1.52016152e-02, 3.04792374e-01,
          5.98183572e-01, 3.26834731e-02, 1.14012118e-02, 0., 0.,
          7.60080758e-04, 1.82419382e-02, 1.41375020e-01, 3.32915366e-01,
          8.36088881e-03, 0., 0., 0., 7.60080758e-04, 2.28024228e-03,
          4.78850901e-02, 4.02842797e-02, 4.56048455e-03, 0., 0., 0., 0.,
          0., 3.80040379e-03, 3.04032303e-03, 0., 0., 0., 0., 0., 0., 0.,
          0., 0., 0., 0., 0., 0., 0., 0., 0., 0., 0., 0., 0., 0.,
          2.28024228e-03, 6.08064607e-03, 3.80040379e-03, 9.12096910e-03,
          1.14012118e-02, 0., 0., 7.60080758e-04, 0., 2.28024228e-03,
          7.60080758e-04, 0., 0., 0., 0., 0., 0., 1.52016152e-03, 0., 0.,
          0., 0., 0., 0., 7.60080758e-04, 1.52016152e-03, 0., 0., 0., 0.,
          0., 0., 0., 0., 0., 0., 0., 0., 0., 0., 0., 0., 0., 0., 0., 0.,
          0., 0., 0., 0., 0., 0., 0., 0., 0., 0., 0., 0., 0., 0., 0., 0.,
          0., 0., 0., 3.80040379e-03, 1.14012118e-02, 0., 6.08064607e-03,
          0., 0., 0., 0., 7.60080758e-04, 0., 0., 0., 0., 0., 0., 0., 0.,
          0., 0., 0., 0., 0., 0., 0., 0., 0., 0., 0., 0., 0., 0., 0., 0.,
          0., 0., 0., 0., 0., 0., 0., 0., 0., 0., 0., 0., 0., 0., 0., 0.,
          0., 0., 0., 0., 0., 0., 0., 0., 0., 0., 0., 0., 0., 0., 0.,
          3.80040379e-03, 1.67217776e-02, 0., 3.80040379e-03, 0., 0., 0.,
          0., 0., 0., 0., 0., 0., 0., 0., 0., 0., 0., 0., 0., 0., 0., 0.,
          0., 0., 0., 0., 0., 0., 0., 0., 0., 0., 0., 0., 0., 0., 0., 0.,
          0., 0., 0., 0., 0., 0., 0., 0., 0., 0., 0., 0., 0., 0., 0., 0.,
          0., 0., 0., 0., 0., 0., 0., 0., 3.04032303e-03, 5.47258146e-02,
          6.00463822e-02, 2.28024228e-03, 7.60080758e-04, 0., 0., 0.,
          3.04032303e-03, 3.26834731e-02, 3.19233909e-02, 0., 0., 0., 0.,
          0., 0., 3.80040379e-03, 0., 0., 0., 0., 0., 0., 0., 0., 0., 0.,
          0., 0., 0., 0., 0., 0., 0., 0., 0., 0., 0., 0., 0., 0., 0., 0.,
          0., 0., 0., 0., 0., 0., 0., 0., 0., 0., 0., 0., 0., 0., 0., 0.,
          0., 0., 0., 0., 5.32056531e-03, 1.09451629e-01, 1.10211708e-01,
          6.08064607e-03, 3.80040379e-03, 0., 0., 7.60080758e-04,
          1.90020185e-02, 2.40945607e-01, 2.19663337e-01, 4.56048455e-03,
          7.60080758e-04, 0., 0., 7.60080758e-04, 9.12096910e-03,
          1.52016148e-01, 1.18572600e-01, 0., 0., 0., 0., 0., 0.,
          6.84072683e-03, 7.60080758e-03, 0., 0., 0., 0., 0., 0., 0.,
          7.60080758e-04, 0., 0., 0., 0., 0., 0., 0., 0., 0., 0., 0., 0.,
          0., 0., 0., 0., 0., 0., 0., 0., 0., 0., 0., 0., 0., 0., 0., 0.,
          0., 0., 0., 0., 0., 0., 0., 0., 0., 0., 0., 0., 0., 0., 0., 0.,
          0., 0., 0., 0., 0., 0., 0., 0., 0., 0., 0., 0., 0., 0., 0., 0.,
          0., 0., 0., 0., 0., 0., 0., 0., 0., 0., 0., 0., 0., 0., 0., 0.,
          0., 0., 0., 0., 0., 0., 0., 0., 0., 0., 0., 0., 0., 0., 0., 0.,
          0., 0., 0., 0., 0., 0., 0., 0., 0., 0., 0., 0., 0., 0., 0., 0.,
          0., 0., 0., 0., 0., 0., 0., 0., 0., 0., 0., 0., 0., 0., 0., 0.,
          0., 0., 0., 0., 0., 0., 0., 0., 0., 0., 0., 0., 0., 0., 0., 0.,
          0., 0., 0., 0., 0., 0., 0., 0., 0., 0., 0., 0., 0., 0.,
          4.27450985e-01, 7.17647076e-01 ]
      - [ 0., 0., 0., 1.05406707e-02, 6.53521568e-02, 2.31894758e-02,
          2.38921866e-02, 2.95138787e-02, 0., 0., 0., 2.10813414e-02,
          8.08118135e-02, 4.77843732e-02, 2.17840523e-02, 4.91897995e-03,
          0., 0., 0., 1.40542276e-02, 7.44874105e-02, 4.63789515e-02,
          2.31894758e-02, 1.40542281e-03, 0., 0., 0., 2.10813410e-03,
          2.52976101e-02, 4.42708172e-02, 6.32440252e-03, 0., 0., 0., 0.,
          0., 0., 2.81084562e-03, 0., 0., 0., 0., 0., 0., 0., 0., 0., 0.,
          0., 0., 0., 0., 0., 0., 0., 0., 0., 0., 0., 0., 0., 0., 0., 0.,
          0., 0., 0., 8.43253639e-03, 2.10813414e-02, 1.47569394e-02,
          2.95138787e-02, 1.12433825e-02, 0., 0., 0., 0., 7.02711404e-04,
          0., 7.02711404e-04, 0., 0., 0., 0., 0., 0., 0., 0., 0., 0., 0.,
          0., 0., 0., 0., 0., 0., 0., 0., 0., 0., 0., 0., 0., 0., 0., 0.,
          0., 0., 0., 0., 0., 0., 0., 0., 0., 0., 0., 0., 0., 0., 0., 0.,
          0., 0., 0., 0., 0., 0., 0., 0., 0., 7.72982510e-03,
          4.49735299e-02, 1.19460933e-02, 2.88111679e-02, 5.34060672e-02,
          0., 0., 0., 1.40542281e-03, 7.02711381e-03, 9.13524814e-03,
          7.02711404e-04, 0., 0., 0., 0., 0., 0., 0., 0., 0., 0., 0., 0.,
          0., 0., 0., 0., 0., 0., 0., 0., 0., 0., 0., 0., 0., 0., 0., 0.,
          0., 0., 0., 0., 0., 0., 0., 0., 0., 0., 0., 0., 0., 0., 0., 0.,
          0., 0., 0., 0., 0., 0., 0., 1.40542281e-03, 1.47569394e-02,
          2.50165254e-01, 1.77083269e-01, 3.58382799e-02, 5.76223359e-02,
          0., 0., 0., 1.68650728e-02, 3.26760799e-01, 7.97577441e-01,
          2.52976101e-02, 6.32440252e-03, 0., 0., 0., 2.10813410e-03,
          5.41087762e-02, 2.62111336e-01, 8.50280821e-02, 0., 0., 0., 0.,
          0., 0., 4.21626819e-03, 1.19460933e-02, 0., 0., 0., 0., 0., 0.,
          0., 0., 0., 0., 0., 0., 0., 0., 0., 0., 0., 0., 0., 0., 0., 0.,
          0., 0., 0., 0., 0., 0., 0., 0., 0., 0., 0., 0., 0.,
          1.40542281e-03, 4.91897985e-02, 1.66542605e-01, 5.55142015e-02,
          9.83795989e-03, 1.26488050e-02, 0., 0., 7.02711404e-04,
          1.26488050e-02, 5.62169105e-02, 4.07572612e-02, 0., 0., 0., 0.,
          0., 0., 0., 0., 0., 0., 0., 0., 0., 0., 0., 0., 0., 0., 0., 0.,
          0., 0., 0., 0., 0., 0., 0., 0., 0., 0., 0., 0., 0., 0., 0., 0.,
          0., 0., 0., 0., 0., 0., 0., 0., 0., 0., 0., 0., 0., 0., 0., 0.,
          0., 1.89732071e-02, 5.76223359e-02, 7.02711381e-03,
          2.81084562e-03, 0., 0., 0., 0., 1.96759198e-02, 2.74057444e-02,
          2.10813410e-03, 0., 0., 0., 0., 0., 1.40542281e-03, 0., 0., 0.,
          0., 0., 0., 0., 0., 0., 0., 0., 0., 0., 0., 0., 0., 0., 0., 0.,
          0., 0., 0., 0., 0., 0., 0., 0., 0., 0., 0., 0., 0., 0., 0., 0.,
          0., 0., 0., 0., 0., 0., 0., 0., 0., 0., 0., 0., 0., 0., 0., 0.,
          0., 0., 0., 0., 0., 0., 0., 0., 0., 0., 0., 0., 0., 0., 0., 0.,
          0., 0., 0., 0., 0., 0., 0., 0., 0., 0., 0., 0., 0., 0., 0., 0.,
          0., 0., 0., 0., 0., 0., 0., 0., 0., 0., 0., 0., 0., 0., 0., 0.,
          0., 0., 0., 0., 0., 0., 0., 0., 0., 0., 0., 0., 0., 0., 0., 0.,
          0., 0., 0., 0., 0., 0., 0., 0., 0., 0., 0., 0., 0., 0., 0., 0.,
          0., 0., 0., 0., 0., 0., 0., 0., 0., 0., 0., 0., 0., 0., 0., 0.,
          0., 0., 0., 0., 0., 0., 0., 0., 0., 0., 0., 0., 0., 0., 0., 0.,
          0., 0., 0., 0., 0., 0., 0., 0., 0., 5.49019635e-01,
          6.39215708e-01 ]
      - [ 0., 0., 0., 6.99879602e-03, 1.16979882e-01, 2.09963888e-01,
          5.69901988e-02, 4.99914028e-02, 0., 0., 9.99827986e-04,
          2.69953571e-02, 2.26960957e-01, 4.23927099e-01, 3.29943262e-02,
          1.89967323e-02, 0., 0., 9.99827986e-04, 1.89967323e-02,
          3.01948071e-01, 3.41941178e-01, 2.79951841e-02, 2.79951841e-02,
          0., 0., 0., 8.99845269e-03, 1.13980398e-01, 1.91966981e-01,
          1.19979363e-02, 1.89967323e-02, 0., 0., 0., 0., 8.99845269e-03,
          1.89967323e-02, 5.99896815e-03, 5.99896815e-03, 0., 0., 0., 0.,
          0., 0., 0., 0., 0., 0., 0., 0., 0., 0., 0., 0., 0., 0., 0., 0.,
          0., 0., 0., 0., 0., 0., 0., 0., 2.99948417e-02, 4.89915721e-02,
          2.29960456e-02, 4.09929492e-02, 0., 0., 0., 1.99965597e-03,
          1.19979363e-02, 2.99948407e-03, 0., 0., 0., 0., 0., 0., 0., 0.,
          0., 0., 0., 0., 0., 0., 9.99827986e-04, 0., 0., 0., 0., 0., 0.,
          0., 0., 0., 0., 0., 0., 0., 0., 0., 0., 0., 0., 0., 0., 0., 0.,
          0., 0., 0., 0., 0., 0., 0., 0., 0., 0., 0., 0., 0., 0., 0., 0.,
          0., 3.69936377e-02, 1.87967673e-01, 1.99965597e-03,
          3.99931222e-02, 0., 0., 0., 0., 1.99965597e-03, 2.69953571e-02,
          0., 0., 0., 0., 0., 0., 9.99827986e-04, 1.99965597e-03, 0., 0.,
          0., 0., 0., 0., 0., 0., 0., 0., 0., 0., 0., 0., 0., 0., 0., 0.,
          0., 0., 0., 0., 0., 0., 0., 0., 0., 0., 0., 0., 0., 0., 0., 0.,
          0., 0., 0., 0., 0., 0., 0., 0., 0., 0., 0., 0., 1.04981944e-01,
          2.95949101e-01, 3.29943262e-02, 6.29891679e-02, 0., 0., 0.,
          2.99948407e-03, 1.69970766e-02, 1.21979021e-01, 1.01982459e-01,
          2.99948407e-03, 0., 0., 0., 0., 0., 3.99931194e-03,
          1.29977642e-02, 0., 0., 0., 0., 0., 0., 0., 0., 0., 0., 0., 0.,
          0., 0., 0., 0., 0., 0., 0., 0., 0., 0., 0., 0., 0., 0., 0., 0.,
          0., 0., 0., 0., 0., 0., 0., 0., 0., 0., 0., 0., 0., 0., 0., 0.,
          3.99931194e-03, 2.08964065e-01, 1.70970589e-01, 8.99845269e-03,
          1.79969054e-02, 0., 0., 0., 0., 3.69936377e-02, 9.99827986e-04,
          0., 0., 0., 0., 0., 0., 0., 0., 0., 0., 0., 0., 0., 0., 0., 0.,
          0., 0., 0., 0., 0., 0., 0., 0., 0., 0., 0., 0., 0., 0., 0., 0.,
          0., 0., 0., 0., 0., 0., 0., 0., 0., 0., 0., 0., 0., 0., 0., 0.,
          0., 0., 0., 0., 0., 3.99931194e-03, 1.50974035e-01,
          1.66971281e-01, 6.99879602e-03, 9.99828056e-03, 0., 0.,
          9.99827986e-04, 5.99896815e-03, 2.17962518e-01, 3.02947909e-01,
          1.99965597e-03, 0., 0., 0., 0., 1.99965597e-03, 4.19927761e-02,
          3.59938107e-02, 0., 0., 0., 0., 0., 0., 9.99827986e-04,
          1.99965597e-03, 0., 0., 0., 0., 0., 0., 0., 0., 0., 0., 0., 0.,
          0., 0., 0., 0., 0., 0., 0., 0., 0., 0., 0., 0., 0., 0., 0., 0.,
          0., 0., 0., 0., 0., 0., 0., 0., 0., 0., 0., 0., 0., 0., 0., 0.,
          0., 0., 0., 0., 0., 0., 0., 0., 0., 0., 0., 0., 0., 0., 0., 0.,
          0., 0., 0., 0., 0., 0., 0., 0., 0., 0., 0., 0., 0., 0., 0., 0.,
          0., 0., 0., 0., 0., 0., 0., 0., 0., 0., 0., 0., 0., 0., 0., 0.,
          0., 0., 0., 0., 0., 0., 0., 0., 0., 0., 0., 0., 0., 0., 0., 0.,
          0., 0., 0., 0., 0., 0., 0., 0., 0., 0., 0., 0., 0., 0., 0., 0.,
          0., 0., 0., 0., 0., 0., 0., 0., 0., 0., 0., 0., 0., 0., 0., 0.,
          0., 0., 0., 0., 0., 0., 0., 0., 0., 0., 0., 0., 0., 0., 0., 0.,
          0., 0., 0., 0., 0., 0., 4.27450985e-01, 7.17647076e-01 ]
      - [ 0., 0., 1.23978569e-03, 3.16145346e-02, 5.02113216e-02,
          2.78951786e-02, 3.65736783e-02, 4.95914277e-03, 0., 0., 0.,
          3.09946425e-02, 4.15328220e-02, 2.91349646e-02, 1.54973213e-02,
          6.19892846e-04, 0., 0., 0., 1.17779644e-02, 2.97548566e-02,
          2.04564650e-02, 3.71935708e-03, 1.23978569e-03, 0., 0., 0., 0.,
          6.19892869e-03, 9.91828553e-03, 1.11580715e-02, 6.19892846e-04,
          0., 0., 0., 0., 0., 3.71935708e-03, 9.29839257e-03,
          6.19892846e-04, 0., 0., 0., 0., 0., 0., 0., 0., 0., 0., 0., 0.,
          0., 0., 0., 0., 0., 0., 0., 0., 0., 0., 0., 0., 0., 0., 0.,
          8.05860758e-03, 1.11580715e-02, 5.57903573e-03, 1.05381785e-02,
          5.57903573e-03, 0., 0., 0., 0., 0., 0., 0., 0., 0., 0., 0., 0.,
          0., 0., 0., 0., 0., 0., 0., 0., 0., 0., 0., 0., 0., 0., 0., 0.,
          0., 0., 0., 0., 0., 0., 0., 0., 0., 0., 0., 0., 0., 0., 0., 0.,
          0., 0., 0., 0., 0., 0., 0., 0., 0., 0., 0., 0., 0., 0.,
          1.23978569e-03, 9.91828553e-03, 2.72752848e-02, 2.29360349e-02,
          2.10763570e-02, 1.05381785e-02, 0., 0., 1.23978569e-03,
          1.85967854e-03, 6.81882119e-03, 3.71935708e-03, 0., 0., 0., 0.,
          0., 0., 1.85967854e-03, 0., 0., 0., 0., 0., 0., 0., 0., 0., 0.,
          0., 0., 0., 0., 0., 0., 0., 0., 0., 0., 0., 0., 0., 0., 0., 0.,
          0., 0., 0., 0., 0., 0., 0., 0., 0., 0., 0., 0., 0., 0., 0., 0.,
          0., 0., 0., 3.09946435e-03, 3.84333581e-02, 2.00845286e-01,
          1.64271608e-01, 2.10763570e-02, 1.54973213e-02, 0., 0.,
          6.19892846e-04, 7.43871415e-03, 2.23781317e-01, 8.74048948e-01,
          7.62468204e-02, 6.19892869e-03, 0., 0., 0., 6.19892846e-04,
          8.05860758e-03, 1.68610856e-01, 1.50633961e-01, 0., 0., 0., 0.,
          0., 0., 9.91828553e-03, 1.85967854e-03, 0., 0., 0., 0., 0., 0.,
          0., 0., 0., 0., 0., 0., 0., 0., 0., 0., 0., 0., 0., 0., 0., 0.,
          0., 0., 0., 0., 0., 0., 0., 0., 0., 0., 0., 0., 0.,
          3.09946435e-03, 6.32290691e-02, 1.66131288e-01, 4.52521779e-02,
          6.81882119e-03, 9.91828553e-03, 0., 0., 2.47957138e-03,
          9.29839257e-03, 6.81882128e-02, 1.79768931e-02, 0., 0., 0., 0.,
          0., 6.19892846e-04, 0., 6.19892846e-04, 0., 0., 0., 0., 0., 0.,
          0., 0., 0., 0., 0., 0., 0., 0., 0., 0., 0., 0., 0., 0., 0., 0.,
          0., 0., 0., 0., 0., 0., 0., 0., 0., 0., 0., 0., 0., 0., 0., 0.,
          0., 0., 0., 0., 0., 0., 0., 2.10763570e-02, 5.08312136e-02,
          1.79768931e-02, 6.81882119e-03, 3.09946435e-03, 0., 0.,
          2.47957138e-03, 1.79768931e-02, 5.45505695e-02, 6.19892869e-03,
          0., 0., 0., 0., 6.19892846e-04, 0., 6.19892869e-03, 0., 0., 0.,
          0., 0., 0., 0., 0., 0., 0., 0., 0., 0., 0., 0., 0., 0., 0., 0.,
          0., 0., 0., 0., 0., 0., 0., 0., 0., 0., 0., 0., 0., 0., 0., 0.,
          0., 0., 0., 0., 0., 0., 0., 0., 0., 0., 0., 0., 0., 0., 0., 0.,
          0., 0., 0., 0., 0., 0., 0., 0., 0., 0., 0., 0., 0., 0., 0., 0.,
          0., 0., 0., 0., 0., 0., 0., 0., 0., 0., 0., 0., 0., 0., 0., 0.,
          0., 0., 0., 0., 0., 0., 0., 0., 0., 0., 0., 0., 0., 0., 0., 0.,
          0., 0., 0., 0., 0., 0., 0., 0., 0., 0., 0., 0., 0., 0., 0., 0.,
          0., 0., 0., 0., 0., 0., 0., 0., 0., 0., 0., 0., 0., 0., 0., 0.,
          0., 0., 0., 0., 0., 0., 0., 0., 0., 0., 0., 0., 0., 0., 0., 0.,
          0., 0., 0., 0., 0., 0., 0., 0., 0., 0., 0., 0., 0., 0., 0., 0.,
          0., 0., 0., 0., 0., 0., 0., 0., 5.25490224e-01, 6.39215708e-01 ]
      - [ 0., 0., 0., 1.47730228e-03, 5.46601824e-02, 1.49207532e-01,
          1.69889759e-02, 4.28417660e-02, 0., 0., 0., 6.64786017e-03,
          1.57332689e-01, 6.08648539e-01, 1.18184183e-02, 0., 0., 0., 0.,
          1.69889759e-02, 2.64437109e-01, 5.45863211e-01, 2.95460457e-03,
          0., 0., 0., 0., 9.60246474e-03, 1.32218555e-01, 2.28243202e-01,
          1.10797668e-02, 0., 0., 0., 0., 0., 5.31828813e-02,
          6.72172531e-02, 1.62503254e-02, 0., 0., 0., 0., 0.,
          7.38651142e-04, 2.95460457e-03, 0., 0., 0., 0., 0., 0., 0., 0.,
          0., 0., 0., 0., 0., 0., 0., 0., 0., 0., 0., 0., 0., 0.,
          1.62503254e-02, 1.40343718e-02, 3.61939035e-02, 4.65350226e-02,
          0., 0., 0., 0., 5.17055811e-03, 5.90920914e-03, 5.90920914e-03,
          1.47730228e-03, 0., 0., 0., 0., 0., 0., 0., 0., 0., 0., 0., 0.,
          0., 0., 0., 0., 0., 0., 0., 0., 0., 0., 0., 0., 0., 0., 0., 0.,
          0., 0., 0., 0., 0., 0., 0., 0., 0., 0., 0., 0., 0., 0., 0., 0.,
          0., 0., 0., 0., 0., 0., 0., 7.38651142e-04, 9.60246474e-03,
          1.32957203e-02, 2.80687436e-02, 6.94332048e-02, 0., 0., 0., 0.,
          2.95460457e-03, 3.69325560e-03, 1.03411162e-02, 2.88073942e-02,
          0., 0., 0., 0., 0., 0., 0., 0., 0., 0., 0., 0., 0., 0., 0., 0.,
          0., 0., 0., 0., 0., 0., 0., 0., 0., 0., 0., 0., 0., 0., 0., 0.,
          0., 0., 0., 0., 0., 0., 0., 0., 0., 0., 0., 0., 0., 0., 0., 0.,
          0., 0., 0., 7.38651142e-04, 1.47730224e-02, 1.84662789e-02,
          1.40343718e-02, 2.06822325e-02, 0., 0., 0., 2.21595331e-03,
          4.43190662e-03, 7.38651119e-03, 7.38651142e-04, 1.47730228e-03,
          0., 0., 0., 0., 0., 0., 7.38651142e-04, 0., 0., 0., 0., 0., 0.,
          0., 0., 0., 0., 0., 0., 0., 0., 0., 0., 0., 0., 0., 0., 0., 0.,
          0., 0., 0., 0., 0., 0., 0., 0., 0., 0., 0., 0., 0., 0., 0., 0.,
          0., 0., 0., 0., 0., 7.38651142e-04, 1.25570688e-02,
          3.02846972e-02, 4.06258106e-02, 1.25570688e-02, 2.21595336e-02,
          0., 0., 7.38651142e-04, 6.64786017e-03, 8.86381324e-03,
          1.55116739e-02, 0., 0., 0., 0., 0., 2.21595331e-03,
          7.38651142e-04, 0., 0., 0., 0., 0., 0., 0., 0., 0., 0., 0., 0.,
          0., 0., 0., 0., 0., 0., 0., 0., 0., 0., 0., 0., 0., 0., 0., 0.,
          0., 0., 0., 0., 0., 0., 0., 0., 0., 0., 0., 0., 0., 0., 0., 0.,
          0., 0., 1.47730228e-03, 3.91485095e-02, 9.97179002e-02,
          1.25570688e-02, 1.25570688e-02, 0., 0., 0., 9.60246474e-03,
          1.04888462e-01, 2.86596626e-01, 5.17055811e-03, 0., 0., 0., 0.,
          1.92049295e-02, 8.42062309e-02, 5.68761379e-02, 0., 0., 0., 0.,
          0., 0., 0., 0., 0., 0., 0., 0., 0., 0., 0., 0., 0., 0., 0., 0.,
          0., 0., 0., 0., 0., 0., 0., 0., 0., 0., 0., 0., 0., 0., 0., 0.,
          0., 0., 0., 0., 0., 0., 0., 0., 0., 0., 0., 0., 0., 0., 0., 0.,
          0., 0., 0., 0., 0., 0., 0., 0., 0., 0., 0., 0., 0., 0., 0., 0.,
          0., 0., 0., 0., 0., 0., 0., 0., 0., 0., 0., 0., 0., 0., 0., 0.,
          0., 0., 0., 0., 0., 0., 0., 0., 0., 0., 0., 0., 0., 0., 0., 0.,
          0., 0., 0., 0., 0., 0., 0., 0., 0., 0., 0., 0., 0., 0., 0., 0.,
          0., 0., 0., 0., 0., 0., 0., 0., 0., 0., 0., 0., 0., 0., 0., 0.,
          0., 0., 0., 0., 0., 0., 0., 0., 0., 0., 0., 0., 0., 0., 0., 0.,
          0., 0., 0., 0., 0., 0., 0., 0., 0., 0., 0., 0., 0., 0., 0., 0.,
          0., 0., 0., 0., 0., 0., 3.76470596e-01, 6.90196097e-01 ]
      - [ 0., 0., 0., 1.91873556e-03, 8.53837281e-02, 5.46839610e-02,
          4.79683876e-02, 5.27652279e-02, 0., 0., 4.79683885e-03,
          7.67494226e-03, 1.24717809e-01, 4.24040556e-01, 4.89277542e-02,
          2.87810317e-03, 0., 0., 1.15124127e-02, 2.49435622e-02,
          1.67889357e-01, 4.90236908e-01, 4.98871244e-02, 0., 0., 0., 0.,
          1.34311486e-02, 1.10327289e-01, 2.35045105e-01, 3.64559740e-02,
          0., 0., 0., 0., 1.91873556e-03, 3.54966074e-02, 8.92212018e-02,
          3.83747113e-03, 0., 0., 0., 0., 9.59367782e-04, 2.87810317e-03,
          9.59367782e-04, 0., 0., 0., 0., 0., 0., 0., 0., 0., 0., 0., 0.,
          0., 0., 0., 0., 0., 0., 0., 0., 0., 0., 1.34311486e-02,
          4.79683885e-03, 8.63431022e-03, 6.71557430e-03, 0., 0., 0.,
          1.91873556e-03, 9.59367782e-04, 0., 0., 0., 0., 0.,
          9.59367782e-04, 0., 0., 0., 0., 0., 0., 0., 0., 0., 0., 0., 0.,
          0., 0., 0., 0., 0., 0., 0., 0., 0., 0., 0., 0., 0., 0., 0., 0.,
          0., 0., 0., 0., 0., 0., 0., 0., 0., 0., 0., 0., 0., 0., 0., 0.,
          0., 0., 0., 0., 3.83747113e-03, 5.56433313e-02, 4.79683876e-02,
          9.40180421e-02, 9.59367771e-03, 0., 0., 0., 0., 1.05530452e-02,
          4.79683885e-03, 5.75620634e-03, 0., 0., 0., 0., 0., 0., 0., 0.,
          0., 0., 0., 0., 0., 0., 0., 0., 0., 0., 0., 0., 0., 0., 0., 0.,
          0., 0., 0., 0., 0., 0., 0., 0., 0., 0., 0., 0., 0., 0., 0., 0.,
          0., 0., 0., 0., 0., 0., 0., 0., 0., 0., 0., 9.59367782e-04,
          2.87810317e-03, 7.00338483e-02, 1.53498843e-01, 3.83747108e-02,
          2.39841938e-02, 0., 0., 0., 1.91873556e-03, 6.04401678e-02,
          1.86117351e-01, 2.87810317e-03, 0., 0., 0., 0., 0.,
          5.75620634e-03, 2.30248254e-02, 0., 0., 0., 0., 0., 0., 0., 0.,
          0., 0., 0., 0., 0., 0., 0., 0., 0., 0., 0., 0., 0., 0., 0., 0.,
          0., 0., 0., 0., 0., 0., 0., 0., 0., 0., 0., 0., 0., 0., 0., 0.,
          0., 0., 0., 0., 0., 3.83747113e-03, 1.18002236e-01,
          7.48306885e-02, 1.05530452e-02, 3.83747113e-03, 0., 0.,
          9.59367782e-04, 3.16591375e-02, 1.12246029e-01, 5.94808012e-02,
          0., 0., 0., 0., 0., 1.91873556e-03, 3.83747113e-03, 0., 0., 0.,
          0., 0., 0., 0., 0., 0., 0., 0., 0., 0., 0., 0., 0., 0., 0., 0.,
          0., 0., 0., 0., 0., 0., 0., 0., 0., 0., 0., 0., 0., 0., 0., 0.,
          0., 0., 0., 0., 0., 0., 0., 0., 0., 0., 0., 4.79683885e-03,
          8.53837281e-02, 9.30586755e-02, 1.05530452e-02, 1.43905161e-02,
          0., 0., 0., 3.93340774e-02, 2.14898378e-01, 4.03893828e-01,
          4.12528142e-02, 0., 0., 0., 9.59367782e-04, 3.83747113e-03,
          2.20654577e-01, 1.92832917e-01, 1.53498845e-02, 0., 0., 0., 0.,
          1.91873556e-03, 2.78216656e-02, 5.75620634e-03, 0., 0., 0., 0.,
          0., 0., 0., 0., 0., 0., 0., 0., 0., 0., 0., 0., 0., 0., 0., 0.,
          0., 0., 0., 0., 0., 0., 0., 0., 0., 0., 0., 0., 0., 0., 0., 0.,
          0., 0., 0., 0., 0., 0., 0., 0., 0., 0., 0., 0., 0., 0., 0., 0.,
          0., 0., 0., 0., 0., 0., 0., 0., 0., 0., 0., 0., 0., 0., 0., 0.,
          0., 0., 0., 0., 0., 0., 0., 0., 0., 0., 0., 0., 0., 0., 0., 0.,
          0., 0., 0., 0., 0., 0., 0., 0., 0., 0., 0., 0., 0., 0., 0., 0.,
          0., 0., 0., 0., 0., 0., 0., 0., 0., 0., 0., 0., 0., 0., 0., 0.,
          0., 0., 0., 0., 0., 0., 0., 0., 0., 0., 0., 0., 0., 0., 0., 0.,
          0., 0., 0., 0., 0., 0., 0., 0., 0., 0., 0., 0., 0., 0., 0., 0.,
          0., 0., 0., 0., 0., 0., 0., 0., 0., 0., 0., 0., 0., 0.,
          4.62745100e-01, 6.82352960e-01 ]
      - [ 0., 0., 0., 1.51026361e-02, 1.32148057e-01, 6.04105443e-02,
          5.66348843e-02, 4.24761623e-02, 0., 0., 0., 2.64296122e-02,
          3.73790234e-01, 2.45417833e-01, 1.29316315e-01, 1.60465501e-02,
          0., 0., 0., 2.73735281e-02, 4.38920349e-01, 2.35034764e-01,
          3.30370143e-02, 5.66348853e-03, 0., 0., 0., 7.55131803e-03,
          2.10492983e-01, 2.01997757e-01, 3.30370143e-02, 0., 0., 0., 0.,
          5.66348853e-03, 1.85007289e-01, 7.55131766e-02, 5.66348853e-03,
          0., 0., 0., 0., 0., 1.88782951e-03, 0., 0., 0., 0., 0., 0., 0.,
          0., 0., 0., 0., 0., 0., 0., 0., 0., 0., 0., 0., 0., 0., 0., 0.,
          1.41587211e-02, 2.54856981e-02, 5.94666265e-02, 1.60465501e-02,
          0., 0., 0., 0., 0., 0., 3.77565902e-03, 0., 0., 0., 0., 0., 0.,
          0., 0., 0., 0., 0., 0., 0., 0., 0., 0., 0., 0., 0., 0., 0., 0.,
          0., 0., 0., 0., 0., 0., 0., 0., 0., 0., 0., 0., 0., 0., 0., 0.,
          0., 0., 0., 0., 0., 0., 0., 0., 0., 0., 0., 0., 0., 0.,
          7.55131803e-03, 4.81396504e-02, 2.45417822e-02, 1.03830621e-02,
          1.03830621e-02, 0., 0., 0., 2.83174426e-03, 1.32148061e-02,
          7.55131803e-03, 0., 0., 0., 0., 0., 0., 0., 0., 0., 0., 0., 0.,
          0., 0., 0., 0., 0., 0., 0., 0., 0., 0., 0., 0., 0., 0., 0., 0.,
          0., 0., 0., 0., 0., 0., 0., 0., 0., 0., 0., 0., 0., 0., 0., 0.,
          0., 0., 0., 0., 0., 0., 0., 0., 0., 7.55131803e-03,
          1.85951203e-01, 1.00998878e-01, 1.13269771e-02, 2.83174422e-02,
          0., 0., 0., 1.03830621e-02, 5.00274822e-02, 2.15212554e-01,
          9.43914754e-04, 0., 0., 0., 0., 9.43914754e-04, 1.88782951e-03,
          5.66348853e-03, 0., 0., 0., 0., 0., 0., 0., 0., 0., 0., 0., 0.,
          0., 0., 0., 0., 0., 0., 0., 0., 0., 0., 0., 0., 0., 0., 0., 0.,
          0., 0., 0., 0., 0., 0., 0., 0., 0., 0., 0., 0., 0., 0., 0., 0.,
          0., 8.49523302e-03, 2.62408286e-01, 4.05883342e-02,
          1.60465501e-02, 3.96444201e-02, 0., 0., 0., 3.77565902e-03,
          4.34200764e-02, 4.71957354e-03, 0., 0., 0., 0., 0., 0., 0., 0.,
          0., 0., 0., 0., 0., 0., 0., 0., 0., 0., 0., 0., 0., 0., 0., 0.,
          0., 0., 0., 0., 0., 0., 0., 0., 0., 0., 0., 0., 0., 0., 0., 0.,
