%YAML:1.0
---
opencv_ml_svm:
   format: 3
   svmType: C_SVC
   kernel:
      type: RBF
      gamma: 5.
   C: 5.
   term_criteria: { epsilon:1.1920928955078125e-07, iterations:1000 }
   var_count: 512
   class_count: 2
   class_labels: !!opencv-matrix
      rows: 2
      cols: 1
      dt: i
      data: [ 0, 1 ]
   sv_total: 296
   support_vectors:
      - [ 0., 0., 8.05823482e-04, 6.44658785e-03, 1.10397816e-01,
          4.06135052e-01, 9.18638781e-02, 8.94464105e-02, 0., 0.,
          8.05823482e-04, 8.05823505e-03, 3.97270977e-01, 2.98154682e-01,
          3.14271152e-02, 1.61164696e-03, 0., 0., 0., 8.05823482e-04,
          1.61970526e-01, 1.12815291e-01, 3.86795290e-02, 0., 0., 0., 0.,
          0., 9.91162881e-02, 1.14426933e-01, 2.41747051e-02, 0., 0., 0.,
          0., 0., 2.41747056e-03, 1.36989998e-02, 6.44658785e-03, 0., 0.,
          0., 0., 0., 0., 0., 0., 0., 0., 0., 0., 0., 0., 0., 0., 0., 0.,
          0., 0., 0., 0., 0., 0., 0., 0., 0., 0., 4.83494112e-03,
          1.12815285e-02, 4.83494103e-02, 5.47959991e-02, 2.73979995e-02,
          0., 0., 0., 0., 8.05823482e-04, 2.41747056e-03, 5.64076426e-03,
          0., 0., 0., 0., 0., 0., 1.61164696e-03, 0., 0., 0., 0., 0., 0.,
          0., 0., 0., 0., 0., 0., 0., 0., 0., 0., 0., 0., 0., 0., 0., 0.,
          0., 0., 0., 0., 0., 0., 0., 0., 0., 0., 0., 0., 0., 0., 0., 0.,
          0., 0., 0., 0., 0., 0., 0., 1.61164696e-03, 1.93397645e-02,
          5.07668816e-02, 4.75435853e-02, 1.53106460e-02, 0., 0., 0., 0.,
          8.05823482e-04, 8.05823482e-04, 0., 0., 0., 0., 0., 0., 0., 0.,
          0., 0., 0., 0., 0., 0., 0., 0., 0., 0., 0., 0., 0., 0., 0., 0.,
          0., 0., 0., 0., 0., 0., 0., 0., 0., 0., 0., 0., 0., 0., 0., 0.,
          0., 0., 0., 0., 0., 0., 0., 0., 0., 0., 0., 0., 0.,
          8.05823482e-04, 1.85339395e-02, 5.64076453e-02, 2.49805283e-02,
          1.36989998e-02, 0., 0., 0., 0., 4.02911752e-03, 3.22329393e-03,
          0., 0., 0., 0., 0., 0., 0., 0., 0., 0., 0., 0., 0., 0., 0., 0.,
          0., 0., 0., 0., 0., 0., 0., 0., 0., 0., 0., 0., 0., 0., 0., 0.,
          0., 0., 0., 0., 0., 0., 0., 0., 0., 0., 0., 0., 0., 0., 0., 0.,
          0., 0., 0., 0., 0., 2.41747056e-03, 7.57474080e-02,
          2.60280997e-01, 1.04757054e-02, 1.69222932e-02, 0., 0., 0.,
          4.83494112e-03, 1.69222932e-02, 2.65921745e-02, 8.05823482e-04,
          0., 0., 0., 0., 0., 0., 0., 0., 0., 0., 0., 0., 0., 0., 0., 0.,
          0., 0., 0., 0., 0., 0., 0., 0., 0., 0., 0., 0., 0., 0., 0., 0.,
          0., 0., 0., 0., 0., 0., 0., 0., 0., 0., 0., 0., 0., 0., 0., 0.,
          0., 0., 0., 0., 4.83494112e-03, 1.03145406e-01, 5.74552178e-01,
          1.36989998e-02, 2.41747051e-02, 0., 0., 0., 4.83494112e-03,
          1.54718116e-01, 1.94203466e-01, 8.86405818e-03, 0., 0., 0., 0.,
          8.05823482e-04, 6.44658785e-03, 8.05823505e-03, 2.41747056e-03,
          0., 0., 0., 0., 0., 8.05823482e-04, 0., 0., 0., 0., 0., 0., 0.,
          0., 0., 0., 0., 0., 0., 0., 0., 0., 0., 0., 0., 0., 0., 0., 0.,
          0., 0., 0., 0., 0., 0., 0., 0., 0., 0., 0., 0., 0., 0., 0., 0.,
          0., 0., 0., 0., 0., 0., 0., 0., 0., 0., 0., 0., 0., 0., 0., 0.,
          0., 0., 0., 0., 0., 0., 0., 0., 0., 0., 0., 0., 0., 0., 0., 0.,
          0., 0., 0., 0., 0., 0., 0., 0., 0., 0., 0., 0., 0., 0., 0., 0.,
          0., 0., 0., 0., 0., 0., 0., 0., 0., 0., 0., 0., 0., 0., 0., 0.,
          0., 0., 0., 0., 0., 0., 0., 0., 0., 0., 0., 0., 0., 0., 0., 0.,
          0., 0., 0., 0., 0., 0., 0., 0., 0., 0., 0., 0., 0., 0., 0., 0.,
          0., 0., 0., 0., 0., 0., 0., 0., 0., 0., 0., 0., 0., 0., 0., 0.,
          0., 0., 0., 0., 0., 0., 0., 0., 0., 0., 0., 0. ]
      - [ 0., 0., 0., 5.01935137e-03, 1.34685934e-01, 1.27993464e-01,
          2.92795505e-02, 5.85591001e-03, 0., 0., 0., 1.67311716e-03,
          1.38032168e-01, 1.20464437e-01, 2.34236401e-02, 8.36558582e-04,
          0., 0., 0., 3.34623433e-03, 9.62042361e-02, 8.44924152e-02,
          3.42989005e-02, 8.36558582e-04, 0., 0., 0., 2.50967569e-03,
          1.58946123e-02, 5.93956597e-02, 2.76064333e-02, 7.52902729e-03,
          0., 0., 0., 0., 1.67311716e-03, 1.25483787e-02, 3.09526678e-02,
          2.09139641e-02, 0., 0., 0., 0., 0., 0., 8.36558582e-04,
          2.67698746e-02, 0., 0., 0., 0., 0., 0., 0., 0., 0., 0., 0., 0.,
          0., 0., 0., 0., 0., 0., 8.36558582e-04, 8.36558582e-04,
          4.09913696e-02, 7.11074769e-02, 2.00774055e-02, 0., 0., 0., 0.,
          0., 0., 0., 0., 0., 0., 0., 0., 0., 0., 0., 0., 0., 0., 0., 0.,
          0., 0., 0., 0., 0., 0., 0., 0., 0., 0., 0., 0., 0., 0., 0., 0.,
          0., 0., 0., 0., 0., 0., 0., 0., 0., 0., 0., 0., 0., 0., 0., 0.,
          0., 0., 0., 0., 0., 0., 0., 0., 1.67311716e-03, 7.69633874e-02,
          1.12935409e-01, 2.25870814e-02, 7.94730633e-02, 0., 0., 0.,
          8.36558582e-04, 2.59333160e-02, 2.25870814e-02, 5.01935137e-03,
          6.69246865e-03, 0., 0., 0., 0., 8.36558582e-04, 0., 0., 0., 0.,
          0., 0., 0., 0., 0., 0., 0., 0., 0., 0., 0., 0., 0., 0., 0., 0.,
          0., 0., 0., 0., 0., 0., 0., 0., 0., 0., 0., 0., 0., 0., 0., 0.,
          0., 0., 0., 0., 0., 0., 0., 0., 0., 0., 8.36558547e-03,
          1.85716003e-01, 6.81795239e-01, 1.75677296e-02, 3.51354592e-02,
          0., 0., 0., 4.18279273e-03, 6.52515665e-02, 4.57597554e-01,
          7.94730633e-02, 5.01935137e-03, 0., 0., 0., 0., 8.36558582e-04,
          1.33849373e-02, 1.92408469e-02, 0., 0., 0., 0., 0., 0., 0., 0.,
          0., 0., 0., 0., 0., 0., 0., 0., 0., 0., 0., 0., 0., 0., 0., 0.,
          0., 0., 0., 0., 0., 0., 0., 0., 0., 0., 0., 0., 0., 0., 0., 0.,
          0., 0., 0., 0., 7.52902729e-03, 1.68148279e-01, 2.66862184e-01,
          5.85591001e-03, 1.75677296e-02, 0., 0., 0., 5.01935137e-03,
          6.85978010e-02, 5.10300733e-02, 0., 0., 0., 0., 0., 0.,
          6.69246865e-03, 0., 0., 0., 0., 0., 0., 0., 0., 0., 0., 0., 0.,
          0., 0., 0., 0., 0., 0., 0., 0., 0., 0., 0., 0., 0., 0., 0., 0.,
          0., 0., 0., 0., 0., 0., 0., 0., 0., 0., 0., 0., 0., 0., 0., 0.,
          0., 0., 7.52902729e-03, 1.10425733e-01, 1.23810671e-01,
          1.08752614e-02, 1.00387027e-02, 0., 0., 0., 5.01935137e-03,
          1.22137554e-01, 2.17505228e-02, 2.50967569e-03, 0., 0., 0., 0.,
          0., 8.36558547e-03, 3.34623433e-03, 0., 0., 0., 0., 0., 0., 0.,
          0., 0., 0., 0., 0., 0., 0., 0., 0., 0., 0., 0., 0., 0., 0., 0.,
          0., 0., 0., 0., 0., 0., 0., 0., 0., 0., 0., 0., 0., 0., 0., 0.,
          0., 0., 0., 0., 0., 0., 0., 0., 0., 0., 0., 0., 0., 0., 0., 0.,
          0., 0., 0., 0., 0., 0., 0., 0., 0., 0., 0., 0., 0., 0., 0., 0.,
          0., 0., 0., 0., 0., 0., 0., 0., 0., 0., 0., 0., 0., 0., 0., 0.,
          0., 0., 0., 0., 0., 0., 0., 0., 0., 0., 0., 0., 0., 0., 0., 0.,
          0., 0., 0., 0., 0., 0., 0., 0., 0., 0., 0., 0., 0., 0., 0., 0.,
          0., 0., 0., 0., 0., 0., 0., 0., 0., 0., 0., 0., 0., 0., 0., 0.,
          0., 0., 0., 0., 0., 0., 0., 0., 0., 0., 0., 0., 0., 0., 0., 0.,
          0., 0., 0., 0., 0., 0., 0., 0., 0., 0., 0., 0., 0., 0., 0., 0.,
          0., 0., 0. ]
      - [ 0., 0., 0., 0., 7.09125027e-03, 1.98554993e-02, 3.12015004e-02,
          2.05646250e-02, 0., 0., 0., 1.41825003e-03, 5.03478758e-02,
          2.48193756e-01, 1.75153881e-01, 9.92774963e-03, 0., 0., 0., 0.,
          4.89296243e-02, 5.33971131e-01, 5.67300022e-01, 7.09125027e-03,
          0., 0., 0., 9.21862479e-03, 2.05646250e-02, 3.55271637e-01,
          2.64503628e-01, 2.12737499e-03, 0., 0., 0., 0., 2.83650006e-03,
          1.12750873e-01, 4.11292501e-02, 0., 0., 0., 0., 0., 0., 0.,
          1.27642499e-02, 3.54562514e-03, 0., 0., 0., 0., 0., 0., 0., 0.,
          0., 0., 0., 0., 0., 0., 0., 0., 0., 0., 0., 0., 1.41825003e-03,
          7.09125027e-03, 2.83650006e-03, 4.25474998e-03, 0., 0., 0., 0.,
          2.83650006e-03, 1.41825003e-03, 7.09125015e-04, 0., 0., 0., 0.,
          0., 0., 0., 0., 0., 0., 0., 0., 0., 0., 0., 0., 0., 0., 0., 0.,
          0., 0., 0., 0., 0., 0., 0., 0., 0., 0., 0., 0., 0., 0., 0., 0.,
          0., 0., 0., 0., 0., 0., 0., 0., 0., 0., 0., 0., 0., 0., 0., 0.,
          0., 4.96387482e-03, 1.77281257e-02, 3.33288759e-02,
          1.48916254e-02, 0., 0., 0., 0., 2.83650006e-03, 3.54562514e-03,
          9.92774963e-03, 7.80037511e-03, 0., 0., 0., 0., 0.,
          7.09125015e-04, 1.41825003e-03, 4.96387482e-03, 0., 0., 0., 0.,
          0., 0., 0., 0., 0., 0., 0., 0., 0., 0., 0., 0., 0., 0., 0., 0.,
          0., 0., 0., 0., 0., 0., 0., 0., 0., 0., 0., 0., 0., 0., 0., 0.,
          0., 0., 0., 0., 0., 0., 0., 0., 8.50949995e-03, 1.63098760e-02,
          1.91463754e-02, 3.75836268e-02, 0., 0., 0., 0., 1.27642499e-02,
          2.41102502e-02, 2.41102502e-02, 1.70189999e-02, 0., 0., 0., 0.,
          0., 1.41825003e-03, 1.41825003e-03, 1.27642499e-02, 0., 0., 0.,
          0., 0., 0., 0., 0., 0., 0., 0., 0., 0., 0., 0., 0., 0., 0., 0.,
          0., 0., 0., 0., 0., 0., 0., 0., 0., 0., 0., 0., 0., 0., 0., 0.,
          0., 0., 0., 0., 0., 0., 0., 0., 7.09125015e-04, 1.34733748e-02,
          2.83650011e-02, 1.70189999e-02, 2.83650006e-03, 0., 0., 0., 0.,
          1.06368754e-02, 2.19828747e-02, 0., 0., 0., 0., 0., 0., 0., 0.,
          0., 0., 0., 0., 0., 0., 0., 0., 0., 0., 0., 0., 0., 0., 0., 0.,
          0., 0., 0., 0., 0., 0., 0., 0., 0., 0., 0., 0., 0., 0., 0., 0.,
          0., 0., 0., 0., 0., 0., 0., 0., 0., 0., 0., 0., 0., 0.,
          1.27642499e-02, 1.63098760e-02, 1.13460002e-02, 2.83650006e-03,
          0., 0., 0., 0., 2.97832508e-02, 2.27629125e-01, 2.34011244e-02,
          7.09125015e-04, 0., 0., 0., 7.09125015e-04, 3.40379998e-02,
          7.44581223e-02, 1.18423879e-01, 5.67300012e-03, 0., 0., 0.,
          1.41825003e-03, 2.12737499e-03, 9.92774963e-03, 1.13460002e-02,
          0., 0., 0., 0., 0., 0., 0., 2.83650006e-03, 0., 0., 0., 0., 0.,
          0., 0., 0., 0., 0., 0., 0., 0., 0., 0., 0., 0., 0., 0., 0., 0.,
          0., 0., 0., 0., 0., 0., 0., 0., 0., 0., 0., 0., 0., 0., 0., 0.,
          0., 0., 0., 0., 0., 0., 0., 0., 0., 0., 0., 0., 0., 0., 0., 0.,
          0., 0., 0., 0., 0., 0., 0., 0., 0., 0., 0., 0., 0., 0., 0., 0.,
          0., 0., 0., 0., 0., 0., 0., 0., 0., 0., 0., 0., 0., 0., 0., 0.,
          0., 0., 0., 0., 0., 0., 0., 0., 0., 0., 0., 0., 0., 0., 0., 0.,
          0., 0., 0., 0., 0., 0., 0., 0., 0., 0., 0., 0., 0., 0., 0., 0.,
          0., 0., 0., 0., 0., 0., 0., 0., 0., 0., 0., 0., 0., 0., 0., 0.,
          0., 0., 0., 0., 0., 0., 0., 0., 0., 0., 0., 0., 0., 0., 0., 0.,
          0., 0., 0., 0. ]
      - [ 0., 0., 2.45630159e-03, 4.09383606e-03, 6.87764436e-02,
          1.20358780e-01, 2.04691794e-02, 2.12879479e-02, 0., 0., 0.,
          1.88316461e-02, 1.46559328e-01, 1.59659609e-01, 3.19319218e-02,
          0., 0., 0., 0., 1.63753442e-02, 2.45630160e-01, 8.92456248e-02,
          8.18767212e-03, 0., 0., 0., 0., 1.63753435e-03, 9.41582248e-02,
          2.86568515e-02, 0., 0., 0., 0., 0., 0., 7.36890500e-03,
          1.14627406e-02, 0., 0., 0., 0., 0., 0., 0., 0., 0., 0., 0., 0.,
          0., 0., 0., 0., 0., 0., 0., 0., 0., 0., 0., 0., 0., 0., 0., 0.,
          0., 3.27506871e-03, 4.33946624e-02, 6.05887733e-02,
          3.35694551e-02, 1.88316461e-02, 0., 0., 0., 4.09383606e-03,
          8.18767212e-03, 2.37442497e-02, 8.18767212e-03, 0., 0., 0., 0.,
          0., 0., 8.18767177e-04, 0., 0., 0., 0., 0., 0., 0., 0., 0., 0.,
          0., 0., 0., 0., 0., 0., 0., 0., 0., 0., 0., 0., 0., 0., 0., 0.,
          0., 0., 0., 0., 0., 0., 0., 0., 0., 0., 0., 0., 0., 0., 0., 0.,
          0., 0., 0., 6.55013742e-03, 4.33946624e-02, 5.48574030e-02,
          3.52069885e-02, 3.84820588e-02, 0., 0., 0., 1.63753435e-03,
          1.47378100e-02, 4.91260318e-03, 9.00643878e-03, 4.91260318e-03,
          0., 0., 0., 0., 0., 3.27506871e-03, 0., 0., 0., 0., 0., 0., 0.,
          0., 0., 0., 0., 0., 0., 0., 0., 0., 0., 0., 0., 0., 0., 0., 0.,
          0., 0., 0., 0., 0., 0., 0., 0., 0., 0., 0., 0., 0., 0., 0., 0.,
          0., 0., 0., 0., 0., 8.18767177e-04, 1.55565767e-02,
          1.34277821e-01, 2.88206041e-01, 2.70193182e-02, 1.31002748e-02,
          0., 0., 0., 4.09383606e-03, 1.71941116e-01, 7.73734987e-01,
          1.53109461e-01, 5.73137030e-03, 0., 0., 0., 8.18767177e-04,
          1.47378100e-02, 1.49015635e-01, 9.57957655e-02, 0., 0., 0., 0.,
          0., 0., 3.27506871e-03, 3.27506871e-03, 0., 0., 0., 0., 0., 0.,
          0., 0., 0., 0., 0., 0., 0., 0., 0., 0., 0., 0., 0., 0., 0., 0.,
          0., 0., 0., 0., 0., 0., 0., 0., 0., 0., 0., 0., 0., 0.,
          1.47378100e-02, 1.24452613e-01, 8.43330249e-02, 6.55013742e-03,
          3.27506871e-03, 0., 0., 0., 2.45630159e-03, 5.89512400e-02,
          4.99447994e-02, 0., 0., 0., 0., 0., 0., 4.91260318e-03,
          4.91260318e-03, 0., 0., 0., 0., 0., 0., 0., 0., 0., 0., 0., 0.,
          0., 0., 0., 0., 0., 0., 0., 0., 0., 0., 0., 0., 0., 0., 0., 0.,
          0., 0., 0., 0., 0., 0., 0., 0., 0., 0., 0., 0., 0., 0., 0., 0.,
          8.18767177e-04, 4.09383606e-03, 5.97700067e-02, 5.89512400e-02,
          4.09383606e-03, 3.27506871e-03, 0., 0., 1.63753435e-03,
          1.31002748e-02, 1.17083706e-01, 3.43882218e-02, 0., 0., 0., 0.,
          0., 1.63753435e-03, 2.04691794e-02, 1.22815082e-02, 0., 0., 0.,
          0., 0., 0., 5.73137030e-03, 4.09383606e-03, 0., 0., 0., 0., 0.,
          0., 0., 0., 0., 0., 0., 0., 0., 0., 0., 0., 0., 0., 0., 0., 0.,
          0., 0., 0., 0., 0., 0., 0., 0., 0., 0., 0., 0., 0., 0., 0., 0.,
          0., 0., 0., 0., 0., 0., 0., 0., 0., 0., 0., 0., 0., 0., 0., 0.,
          0., 0., 0., 0., 0., 0., 0., 0., 0., 0., 0., 0., 0., 0., 0., 0.,
          0., 0., 0., 0., 0., 0., 0., 0., 0., 0., 0., 0., 0., 0., 0., 0.,
          0., 0., 0., 0., 0., 0., 0., 0., 0., 0., 0., 0., 0., 0., 0., 0.,
          0., 0., 0., 0., 0., 0., 0., 0., 0., 0., 0., 0., 0., 0., 0., 0.,
          0., 0., 0., 0., 0., 0., 0., 0., 0., 0., 0., 0., 0., 0., 0., 0.,
          0., 0., 0., 0., 0., 0., 0., 0., 0., 0., 0., 0., 0., 0., 0., 0.,
          0., 0., 0., 0., 0., 0., 0., 0., 0., 0., 0., 0., 0. ]
      - [ 0., 0., 0., 3.85806081e-03, 3.18290032e-02, 1.44677283e-02,
          1.15741827e-02, 1.92903040e-03, 0., 0., 1.92903040e-03,
          2.50773951e-02, 1.49499863e-01, 6.65515512e-02, 1.54322432e-02,
          1.92903040e-03, 0., 0., 0., 1.92903038e-02, 1.43712774e-01,
          1.54322430e-01, 7.71612162e-03, 0., 0., 0., 2.89354566e-03,
          8.68063699e-03, 8.29483047e-02, 1.64932102e-01, 0., 0., 0., 0.,
          9.64515191e-03, 1.92903040e-03, 2.89354566e-02, 4.82257605e-02,
          0., 0., 0., 0., 9.64515202e-04, 9.64515202e-04, 9.64515202e-04,
          2.79709417e-02, 2.89354566e-03, 0., 0., 0., 0., 0., 0., 0., 0.,
          0., 0., 0., 0., 0., 0., 0., 0., 0., 0., 0., 0., 0.,
          8.68063699e-03, 9.64515202e-04, 0., 0., 0., 0., 0., 0., 0., 0.,
          0., 0., 0., 0., 0., 0., 0., 0., 0., 0., 0., 0., 0., 0., 0., 0.,
          0., 0., 0., 0., 0., 0., 0., 0., 0., 0., 0., 0., 0., 0., 0., 0.,
          0., 0., 0., 0., 0., 0., 0., 0., 0., 0., 0., 0., 0., 0., 0., 0.,
          0., 0., 0., 0., 0., 0., 7.71612162e-03, 7.71612162e-03,
          1.15741827e-02, 1.92903040e-03, 0., 0., 0., 0., 1.92903040e-03,
          5.78709133e-03, 2.21838504e-02, 1.15741827e-02, 0., 0., 0., 0.,
          2.89354566e-03, 1.92903040e-03, 6.75160671e-03, 2.02548187e-02,
          0., 0., 0., 0., 0., 0., 0., 0., 0., 0., 0., 0., 0., 0., 0., 0.,
          0., 0., 0., 0., 0., 0., 0., 0., 0., 0., 0., 0., 0., 0., 0., 0.,
          0., 0., 0., 0., 0., 0., 0., 0., 0., 0., 0., 1.44677283e-02,
          1.83257893e-01, 8.39128271e-02, 1.54322432e-02, 2.60419101e-02,
          0., 0., 0., 1.15741827e-02, 2.63312668e-01, 4.52357620e-01,
          1.05132155e-01, 3.47225480e-02, 0., 0., 0., 9.64515202e-04,
          1.54322432e-02, 8.96999165e-02, 1.25386983e-01, 2.60419101e-02,
          0., 0., 0., 0., 0., 2.89354566e-03, 1.15741827e-02,
          9.64515202e-04, 0., 0., 0., 0., 0., 0., 0., 0., 0., 0., 0., 0.,
          0., 0., 0., 0., 0., 0., 0., 0., 0., 0., 0., 0., 0., 0., 0., 0.,
          0., 0., 0., 0., 0., 0., 0., 3.76160927e-02, 3.23112607e-01,
          4.82257605e-02, 1.92903040e-03, 9.64515202e-04, 0., 0., 0.,
          3.27935182e-02, 3.07680339e-01, 4.62967306e-02, 0., 0., 0., 0.,
          0., 0., 5.78709133e-03, 0., 0., 0., 0., 0., 0., 0., 0., 0., 0.,
          0., 0., 0., 0., 0., 0., 0., 0., 0., 0., 0., 0., 0., 0., 0., 0.,
          0., 0., 0., 0., 0., 0., 0., 0., 0., 0., 0., 0., 0., 0., 0., 0.,
          0., 0., 0., 0., 9.64515191e-03, 1.18635371e-01, 3.85806076e-02,
          1.35032134e-02, 0., 0., 0., 0., 2.89354566e-02, 4.37889904e-01,
          2.58490086e-01, 3.85806081e-03, 0., 0., 0., 9.64515202e-04,
          1.83257889e-02, 2.05441743e-01, 7.52321854e-02, 0., 0., 0., 0.,
          2.89354566e-03, 7.71612162e-03, 5.88354282e-02, 1.73612740e-02,
          0., 0., 0., 0., 7.71612162e-03, 9.64515202e-04, 3.85806081e-03,
          3.85806081e-03, 0., 0., 0., 0., 0., 0., 0., 2.89354566e-03, 0.,
          0., 0., 0., 0., 0., 0., 0., 0., 0., 0., 0., 0., 0., 0., 0., 0.,
          0., 0., 0., 0., 0., 0., 0., 0., 0., 0., 0., 0., 0., 0., 0., 0.,
          0., 0., 0., 0., 0., 0., 0., 0., 0., 0., 0., 0., 0., 0., 0., 0.,
          0., 0., 0., 0., 0., 0., 0., 0., 0., 0., 0., 0., 0., 0., 0., 0.,
          0., 0., 0., 0., 0., 0., 0., 0., 0., 0., 0., 0., 0., 0., 0., 0.,
          0., 0., 0., 0., 0., 0., 0., 0., 0., 0., 0., 0., 0., 0., 0., 0.,
          0., 0., 0., 0., 0., 0., 0., 0., 0., 0., 0., 0., 0., 0., 0., 0.,
          0., 0., 0., 0., 0., 0., 0., 0., 0., 0., 0., 0., 0., 0., 0., 0.,
          0., 0., 0., 0., 0., 0., 0., 0., 0., 0., 0., 0., 0., 0., 0., 0.,
          0. ]
      - [ 0., 0., 0., 2.98563321e-03, 7.46408338e-03, 1.79137997e-02,
          1.79137997e-02, 4.70237248e-02, 0., 0., 1.49281661e-03,
          8.95689987e-03, 4.03060503e-02, 1.14200473e-01, 4.32916842e-02,
          1.04497168e-02, 0., 0., 0., 1.04497168e-02, 6.86695650e-02,
          5.45624495e-01, 2.29893759e-01, 2.23922497e-03, 0., 0., 0.,
          5.97126642e-03, 7.31480122e-02, 6.15786850e-01, 2.53032416e-01,
          0., 0., 0., 0., 7.46408303e-04, 3.43347825e-02, 3.35883737e-01,
          8.13585073e-02, 1.49281661e-03, 0., 0., 0., 0., 3.73204169e-03,
          3.95596400e-02, 1.04497168e-02, 0., 0., 0., 0., 0., 0., 0., 0.,
          0., 0., 0., 0., 0., 0., 0., 0., 0., 0., 0., 0., 0.,
          7.46408303e-04, 4.47844993e-03, 1.49281668e-02, 2.91099250e-02,
          0., 0., 0., 0., 0., 0., 1.19425328e-02, 7.46408303e-04, 0., 0.,
          0., 0., 0., 0., 0., 0., 0., 0., 0., 0., 0., 0., 0., 0., 0., 0.,
          0., 0., 0., 0., 0., 0., 0., 0., 0., 0., 0., 0., 0., 0., 0., 0.,
          0., 0., 0., 0., 0., 0., 0., 0., 0., 0., 0., 0., 0., 0., 0., 0.,
          0., 0., 1.49281661e-03, 3.73204169e-03, 1.64209828e-02,
          4.77701314e-02, 0., 0., 0., 0., 0., 6.71767490e-03,
          2.38850657e-02, 1.94066167e-02, 0., 0., 0., 0., 0., 0., 0.,
          7.46408303e-04, 0., 0., 0., 0., 0., 0., 0., 0., 0., 0., 0., 0.,
          0., 0., 0., 0., 0., 0., 0., 0., 0., 0., 0., 0., 0., 0., 0., 0.,
          0., 0., 0., 0., 0., 0., 0., 0., 0., 0., 0., 0., 0., 0., 0., 0.,
          1.04497168e-02, 8.95689987e-03, 1.86602082e-02, 3.35883759e-02,
          0., 0., 0., 4.47844993e-03, 1.04497168e-02, 1.11961244e-02,
          1.34353498e-02, 2.01530252e-02, 0., 0., 0., 7.46408303e-04,
          2.98563321e-03, 1.49281661e-03, 1.49281661e-03, 0., 0., 0., 0.,
          0., 0., 0., 0., 0., 0., 0., 0., 0., 0., 0., 0., 0., 0., 0., 0.,
          0., 0., 0., 0., 0., 0., 0., 0., 0., 0., 0., 0., 0., 0., 0., 0.,
          0., 0., 0., 0., 0., 0., 0., 0., 3.73204169e-03, 9.70330834e-03,
          1.41817583e-02, 1.34353498e-02, 5.37413992e-02, 0., 0., 0.,
          2.23922497e-03, 4.47844993e-03, 4.47844993e-03, 7.46408303e-04,
          1.49281661e-03, 0., 0., 0., 1.49281661e-03, 0., 5.22485841e-03,
          1.49281661e-03, 0., 0., 0., 0., 0., 0., 7.46408338e-03,
          8.95689987e-03, 5.22485841e-03, 0., 0., 0., 0., 0., 0.,
          2.23922497e-03, 1.64209828e-02, 0., 0., 0., 0., 0., 0., 0., 0.,
          0., 0., 0., 0., 0., 0., 0., 0., 0., 0., 0., 0., 0., 0., 0., 0.,
          0., 0., 0., 2.23922497e-03, 9.70330834e-03, 1.64209828e-02,
          2.16458421e-02, 3.95596400e-02, 0., 0., 7.46408303e-04,
          8.95689987e-03, 2.16458421e-02, 1.31367862e-01, 1.94066167e-02,
          6.71767490e-03, 0., 0., 1.49281661e-03, 5.22485841e-03,
          4.17988673e-02, 1.17932513e-01, 5.15021756e-02, 0., 0., 0., 0.,
          1.49281661e-03, 1.49281668e-02, 5.07557653e-02, 2.91099250e-02,
          0., 0., 0., 0., 0., 7.46408303e-04, 1.49281668e-02, 0., 0., 0.,
          0., 0., 0., 0., 0., 0., 0., 0., 0., 0., 0., 0., 0., 0., 0., 0.,
          0., 0., 0., 0., 0., 0., 0., 0., 0., 0., 0., 0., 0., 0., 0., 0.,
          0., 0., 0., 0., 0., 0., 0., 0., 0., 0., 0., 0., 0., 0., 0., 0.,
          0., 0., 0., 0., 0., 0., 0., 0., 0., 0., 0., 0., 0., 0., 0., 0.,
          0., 0., 0., 0., 0., 0., 0., 0., 0., 0., 0., 0., 0., 0., 0., 0.,
          0., 0., 0., 0., 0., 0., 0., 0., 0., 0., 0., 0., 0., 0., 0., 0.,
          0., 0., 0., 0., 0., 0., 0., 0., 0., 0., 0., 0., 0., 0., 0., 0.,
          0., 0., 0., 0., 0., 0., 0., 0., 0., 0., 0., 0., 0., 0., 0., 0.,
          0., 0., 0., 0., 0., 0., 0., 0., 0., 0., 0., 0., 0., 0., 0., 0.,
          0., 0., 0., 0., 0., 0., 0. ]
      - [ 0., 0., 0., 7.82502815e-04, 2.89526042e-02, 4.85151745e-02,
          3.13001126e-02, 0., 0., 0., 1.56500563e-03, 5.47751971e-03,
          9.15528312e-02, 2.15188280e-01, 8.60753059e-02, 7.82502815e-04,
          0., 0., 7.82502815e-04, 1.01725366e-02, 3.83426361e-02,
          3.10653627e-01, 1.77628145e-01, 3.91251408e-03, 0., 0., 0.,
          3.91251408e-03, 1.95625704e-02, 1.14245407e-01, 5.32101914e-02,
          3.91251408e-03, 0., 0., 0., 0., 7.82502815e-04, 3.59951295e-02,
          2.58225929e-02, 1.33025479e-02, 0., 0., 0., 0., 0.,
          7.82502815e-03, 7.04252534e-03, 1.95625704e-02, 0., 0., 0., 0.,
          0., 7.82502815e-04, 1.56500563e-03, 1.56500563e-03, 0., 0., 0.,
          0., 0., 0., 0., 0., 0., 0., 0., 0., 0., 7.04252534e-03,
          1.09550394e-02, 0., 0., 0., 0., 0., 2.34750845e-03,
          2.34750845e-03, 0., 0., 0., 0., 0., 0., 0., 0., 0., 0., 0., 0.,
          0., 0., 0., 0., 0., 0., 0., 0., 0., 0., 0., 0., 0., 0., 0., 0.,
          0., 0., 0., 0., 0., 0., 0., 0., 0., 0., 0., 0., 0., 0., 0., 0.,
          0., 0., 0., 0., 0., 0., 0., 0., 0., 0., 0., 1.56500563e-03,
          2.58225929e-02, 1.01725366e-02, 0., 0., 0., 0., 0.,
          3.91251408e-03, 2.11275760e-02, 0., 0., 0., 0., 0., 0., 0., 0.,
          0., 0., 0., 0., 0., 0., 0., 0., 0., 0., 0., 0., 0., 0., 0., 0.,
          0., 0., 0., 0., 0., 0., 0., 0., 0., 0., 0., 0., 0., 0., 0., 0.,
          0., 0., 0., 0., 0., 0., 0., 0., 0., 0., 0., 0., 7.82502815e-04,
          3.13001126e-03, 5.08626811e-02, 1.17375422e-02, 1.25200450e-02,
          0., 0., 0., 3.91251408e-03, 3.91251408e-03, 5.24276868e-02,
          1.09550394e-02, 0., 0., 0., 0., 3.13001126e-03, 5.47751971e-03,
          0., 7.82502815e-04, 0., 0., 0., 0., 0., 0., 0., 0., 0., 0., 0.,
          0., 0., 0., 0., 0., 0., 0., 0., 0., 0., 0., 0., 0., 0., 0., 0.,
          0., 0., 0., 0., 0., 0., 0., 0., 0., 0., 0., 0., 0., 0., 0., 0.,
          0., 1.56500563e-03, 3.83426361e-02, 2.33968347e-01,
          1.64325591e-02, 1.56500563e-03, 0., 0., 7.82502815e-04,
          7.82502815e-04, 3.05176098e-02, 1.47110522e-01, 2.34750845e-03,
          0., 0., 0., 0., 0., 0., 0., 0., 0., 0., 0., 0., 0., 0., 0., 0.,
          0., 0., 0., 0., 0., 0., 0., 0., 0., 0., 0., 0., 0., 0., 0., 0.,
          0., 0., 0., 0., 0., 0., 0., 0., 0., 0., 0., 0., 0., 0., 0., 0.,
          0., 0., 0., 0., 0., 3.99076417e-02, 1.32242978e-01,
          3.91251408e-02, 0., 0., 0., 0., 1.56500563e-03, 1.09550394e-01,
          7.05817521e-01, 3.35693717e-01, 0., 0., 0., 0., 2.34750845e-03,
          4.69501689e-02, 2.16753274e-01, 6.96427524e-02, 0., 0., 0., 0.,
          7.82502815e-04, 5.47751971e-03, 3.36476192e-02, 8.60753097e-03,
          0., 0., 0., 0., 0., 7.82502815e-04, 6.26002252e-03, 0., 0., 0.,
          0., 0., 0., 0., 0., 0., 0., 0., 0., 0., 0., 0., 0., 0., 0., 0.,
          0., 0., 0., 0., 0., 0., 0., 0., 0., 0., 0., 0., 0., 0., 0., 0.,
          0., 0., 0., 0., 0., 0., 0., 0., 0., 0., 0., 0., 0., 0., 0., 0.,
          0., 0., 0., 0., 0., 0., 0., 0., 0., 0., 0., 0., 0., 0., 0., 0.,
          0., 0., 0., 0., 0., 0., 0., 0., 0., 0., 0., 0., 0., 0., 0., 0.,
          0., 0., 0., 0., 0., 0., 0., 0., 0., 0., 0., 0., 0., 0., 0., 0.,
          0., 0., 0., 0., 0., 0., 0., 0., 0., 0., 0., 0., 0., 0., 0., 0.,
          0., 0., 0., 0., 0., 0., 0., 0., 0., 0., 0., 0., 0., 0., 0., 0.,
          0., 0., 0., 0., 0., 0., 0., 0., 0., 0., 0., 0., 0., 0., 0., 0.,
          0., 0., 0., 0., 0., 0., 0. ]
      - [ 0., 0., 7.39795098e-04, 2.95918039e-03, 2.95918039e-03,
          3.92091423e-02, 2.88520101e-02, 1.47959020e-03, 0., 0., 0.,
          7.39795109e-03, 6.88009486e-02, 1.84208989e-01, 2.73724198e-02,
          2.95918039e-03, 0., 0., 5.17856609e-03, 1.03571322e-02,
          1.51657999e-01, 5.08239269e-01, 1.92346741e-02, 0., 0., 0.,
          9.61733703e-03, 7.39795109e-03, 1.73112065e-01, 4.57193375e-01,
          4.73468862e-02, 0., 0., 0., 2.95918039e-03, 0., 2.14540586e-02,
          1.30203947e-01, 9.61733703e-03, 0., 0., 0., 0., 0., 0.,
          3.40305753e-02, 2.29336489e-02, 0., 0., 0., 0., 0., 0.,
          2.95918039e-03, 3.69897555e-03, 0., 0., 0., 0., 0., 0., 0., 0.,
          0., 0., 0., 0., 7.39795098e-04, 2.21938547e-03, 1.18367216e-02,
          4.43877093e-03, 7.39795098e-04, 0., 0., 0., 0., 7.39795098e-04,
          0., 0., 0., 0., 0., 0., 0., 0., 0., 0., 0., 0., 0., 0., 0., 0.,
          0., 0., 0., 0., 0., 0., 0., 0., 0., 0., 0., 0., 0., 0., 0., 0.,
          0., 0., 0., 0., 0., 0., 0., 0., 0., 0., 0., 0., 0., 0., 0., 0.,
          0., 0., 0., 0., 0., 0., 0., 0., 8.13774671e-03, 7.39795098e-04,
          6.65815594e-03, 0., 0., 0., 0., 0., 0., 0., 0., 0., 0., 0., 0.,
          0., 0., 0., 0., 0., 0., 0., 0., 0., 0., 0., 0., 0., 0., 0., 0.,
          0., 0., 0., 0., 0., 0., 0., 0., 0., 0., 0., 0., 0., 0., 0., 0.,
          0., 0., 0., 0., 0., 0., 0., 0., 0., 0., 0., 0., 0., 0., 0., 0.,
          1.47959020e-03, 1.47959020e-03, 5.91836078e-03, 1.10969273e-02,
          0., 0., 0., 7.39795098e-04, 5.91836078e-03, 8.87754187e-03,
          7.39795098e-04, 0., 0., 0., 0., 0., 0., 0., 0., 0., 0., 0., 0.,
          0., 0., 0., 0., 0., 0., 0., 0., 0., 0., 0., 0., 0., 0., 0., 0.,
          0., 0., 0., 0., 0., 0., 0., 0., 0., 0., 0., 0., 0., 0., 0., 0.,
          0., 0., 0., 0., 0., 0., 0., 0., 0., 1.92346741e-02,
          1.40561070e-02, 2.36734431e-02, 2.95918039e-03, 0., 0., 0.,
          7.39795098e-04, 8.58162344e-02, 3.69897555e-03, 0., 0., 0., 0.,
          0., 0., 1.62754934e-02, 0., 0., 0., 0., 0., 0., 0., 0., 0., 0.,
          0., 0., 0., 0., 0., 0., 0., 0., 0., 0., 0., 0., 0., 0., 0., 0.,
          0., 0., 0., 0., 0., 0., 0., 0., 0., 0., 0., 0., 0., 0., 0., 0.,
          0., 0., 0., 0., 0., 1.10969273e-02, 6.14029951e-02,
          4.43877093e-02, 0., 0., 0., 0., 5.17856609e-03, 2.01224267e-01,
          4.02448535e-01, 4.43877093e-03, 0., 0., 0., 1.47959020e-03,
          4.43877093e-03, 1.71632469e-01, 4.06147510e-01, 1.47959020e-03,
          0., 0., 0., 7.39795098e-04, 0., 3.92091423e-02, 4.51275036e-02,
          1.47959020e-03, 0., 0., 0., 0., 0., 0., 0., 0., 0., 0., 0., 0.,
          0., 0., 0., 0., 0., 0., 0., 0., 0., 0., 0., 0., 0., 0., 0., 0.,
          0., 0., 0., 0., 0., 0., 0., 0., 0., 0., 0., 0., 0., 0., 0., 0.,
          0., 0., 0., 0., 0., 0., 0., 0., 0., 0., 0., 0., 0., 0., 0., 0.,
          0., 0., 0., 0., 0., 0., 0., 0., 0., 0., 0., 0., 0., 0., 0., 0.,
          0., 0., 0., 0., 0., 0., 0., 0., 0., 0., 0., 0., 0., 0., 0., 0.,
          0., 0., 0., 0., 0., 0., 0., 0., 0., 0., 0., 0., 0., 0., 0., 0.,
          0., 0., 0., 0., 0., 0., 0., 0., 0., 0., 0., 0., 0., 0., 0., 0.,
          0., 0., 0., 0., 0., 0., 0., 0., 0., 0., 0., 0., 0., 0., 0., 0.,
          0., 0., 0., 0., 0., 0., 0., 0., 0., 0., 0., 0., 0., 0., 0., 0.,
          0., 0., 0., 0., 0. ]
      - [ 0., 0., 2.90490640e-03, 0., 3.63113289e-03, 4.28473689e-02, 0.,
          0., 0., 0., 0., 7.26226601e-04, 3.55851017e-02, 2.58536667e-01,
          5.73718995e-02, 4.35735937e-03, 0., 0., 0., 7.26226601e-04,
          4.79309559e-02, 5.30871630e-01, 1.75020605e-01, 0., 0., 0., 0.,
          1.16196256e-02, 2.61441562e-02, 4.76404637e-01, 3.23897064e-01,
          8.71471874e-03, 0., 0., 7.26226601e-04, 5.08358609e-03,
          1.30720781e-02, 3.16634804e-01, 2.96300441e-01, 7.26226601e-04,
          0., 0., 0., 0., 1.81556642e-02, 7.55275637e-02, 1.00219272e-01,
          0., 0., 0., 0., 4.35735937e-03, 1.45245320e-03, 3.63113289e-03,
          0., 0., 0., 0., 7.26226601e-04, 7.26226601e-04, 0., 0., 0., 0.,
          0., 0., 0., 0., 7.26226601e-04, 7.26226578e-03, 2.90490640e-03,
          0., 0., 0., 0., 0., 3.63113289e-03, 2.17867969e-03, 0., 0., 0.,
          0., 0., 0., 0., 0., 0., 0., 0., 0., 0., 0., 0., 0., 0., 0., 0.,
          0., 0., 0., 0., 0., 0., 0., 0., 0., 0., 0., 0., 0., 0., 0., 0.,
          0., 0., 0., 0., 0., 0., 0., 0., 0., 0., 0., 0., 0., 0., 0., 0.,
          0., 0., 0., 0., 1.45245320e-03, 7.26226601e-04, 1.37983048e-02,
          0., 0., 0., 0., 0., 7.98849203e-03, 7.98849203e-03, 0., 0., 0.,
          0., 0., 0., 1.45245320e-03, 3.63113289e-03, 0., 0., 0., 0., 0.,
          0., 0., 0., 0., 0., 0., 0., 0., 0., 0., 0., 0., 0., 0., 0., 0.,
          0., 0., 0., 0., 0., 0., 0., 0., 0., 0., 0., 0., 0., 0., 0., 0.,
          0., 0., 0., 0., 0., 0., 2.17867969e-03, 7.26226601e-04,
          7.98849203e-03, 1.96081176e-02, 0., 3.63113289e-03, 0., 0.,
          7.26226601e-04, 1.45245320e-03, 2.90490640e-03, 2.90490631e-02,
          0., 0., 0., 0., 0., 0., 4.35735937e-03, 4.35735937e-03, 0., 0.,
          0., 0., 0., 0., 0., 0., 0., 0., 0., 0., 0., 0., 0., 0., 0., 0.,
          0., 0., 0., 0., 0., 0., 0., 0., 0., 0., 0., 0., 0., 0., 0., 0.,
          0., 0., 0., 0., 0., 0., 0., 0., 0., 0., 1.45245320e-03, 0.,
          3.63113284e-02, 3.34064215e-02, 0., 3.63113289e-03, 0., 0.,
          7.26226601e-04, 7.26226601e-04, 6.53603906e-03, 3.34064215e-02,
          0., 0., 0., 0., 0., 0., 0., 0., 0., 0., 0., 0., 0., 0., 0., 0.,
          0., 0., 0., 0., 0., 0., 0., 0., 0., 0., 0., 0., 0., 0., 0., 0.,
          0., 0., 0., 0., 0., 0., 0., 0., 0., 0., 0., 0., 0., 0., 0., 0.,
          0., 0., 0., 0., 0., 1.45245320e-03, 5.80981281e-03,
          3.48588750e-02, 7.26226601e-04, 7.26226601e-04, 0., 0., 0., 0.,
          4.21211421e-02, 2.46190816e-01, 7.98849203e-03, 0., 0., 0.,
          7.26226601e-04, 2.17867969e-03, 2.68703829e-02, 6.97177500e-02,
          9.44094546e-03, 0., 0., 0., 1.45245320e-03, 1.45245320e-03,
          7.26226601e-04, 4.35735937e-03, 6.53603906e-03, 0., 0., 0., 0.,
          0., 0., 3.63113289e-03, 0., 0., 0., 0., 0., 0., 0., 0., 0., 0.,
          0., 0., 0., 0., 0., 0., 0., 0., 0., 0., 0., 0., 0., 0., 0., 0.,
          0., 0., 0., 0., 0., 0., 0., 0., 0., 0., 0., 0., 0., 0., 0., 0.,
          0., 0., 0., 0., 0., 0., 0., 0., 0., 0., 0., 0., 0., 0., 0., 0.,
          0., 0., 0., 0., 0., 0., 0., 0., 0., 0., 0., 0., 0., 0., 0., 0.,
          0., 0., 0., 0., 0., 0., 0., 0., 0., 0., 0., 0., 0., 0., 0., 0.,
          0., 0., 0., 0., 0., 0., 0., 0., 0., 0., 0., 0., 0., 0., 0., 0.,
          0., 0., 0., 0., 0., 0., 0., 0., 0., 0., 0., 0., 0., 0., 0., 0.,
          0., 0., 0., 0., 0., 0., 0., 0., 0., 0., 0., 0., 0., 0., 0., 0.,
          0., 0., 0., 0., 0., 0., 0., 0., 0., 0., 0., 0., 0., 0., 0., 0. ]
      - [ 0., 0., 7.58725742e-04, 5.31108044e-02, 1.47192791e-01,
          8.34598299e-03, 9.86343529e-03, 9.86343529e-03, 0., 0., 0.,
          3.03490311e-02, 7.58725777e-02, 3.26252095e-02, 3.03490297e-03,
          0., 0., 0., 0., 7.58725742e-04, 1.36570642e-02, 2.12443210e-02,
          0., 0., 0., 0., 0., 0., 1.51745148e-03, 1.51745148e-03, 0., 0.,
          0., 0., 0., 0., 0., 0., 0., 0., 0., 0., 0., 0., 0., 0., 0., 0.,
          0., 0., 0., 0., 0., 0., 0., 0., 0., 0., 0., 0., 0., 0., 0., 0.,
          0., 0., 0., 7.58725777e-03, 4.17299159e-02, 9.86343529e-03,
          9.10470914e-03, 1.21396119e-02, 0., 0., 0., 3.79362889e-03,
          3.11077554e-02, 9.86343529e-03, 0., 0., 0., 0., 0., 0., 0., 0.,
          0., 0., 0., 0., 0., 0., 0., 0., 0., 0., 0., 0., 0., 0., 0., 0.,
          0., 0., 0., 0., 0., 0., 0., 0., 0., 0., 0., 0., 0., 0., 0., 0.,
          0., 0., 0., 0., 0., 0., 0., 0., 0., 0., 0., 0., 0.,
          3.03490297e-03, 8.42185616e-02, 3.71775627e-02, 2.20030472e-02,
          6.06980594e-03, 0., 0., 0., 7.58725742e-04, 6.82853209e-03,
          9.10470914e-03, 9.10470914e-03, 0., 0., 0., 0., 0.,
          3.03490297e-03, 7.58725742e-04, 0., 0., 0., 0., 0., 0., 0., 0.,
          0., 0., 0., 0., 0., 0., 0., 0., 0., 0., 0., 0., 0., 0., 0., 0.,
          0., 0., 0., 0., 0., 0., 0., 0., 0., 0., 0., 0., 0., 0., 0., 0.,
          0., 0., 0., 0., 0., 3.03490297e-03, 2.60242939e-01,
          3.08801383e-01, 1.28983380e-02, 3.03490297e-03, 0., 0., 0.,
          2.27617729e-03, 2.14719385e-01, 6.74507201e-01, 7.73900300e-02,
          1.21396119e-02, 0., 0., 7.58725742e-04, 0., 1.66919660e-02,
          3.16388637e-01, 2.42792238e-02, 2.27617729e-03, 0., 0., 0., 0.,
          0., 0., 0., 0., 0., 0., 0., 0., 0., 0., 0., 0., 0., 0., 0., 0.,
          0., 0., 0., 0., 0., 0., 0., 0., 0., 0., 0., 0., 0., 0., 0., 0.,
          0., 0., 0., 0., 0., 0., 3.79362889e-03, 6.14567883e-02,
          2.81487256e-01, 6.98027685e-02, 7.58725742e-04, 2.27617729e-03,
          0., 0., 0., 4.62822728e-02, 2.23065376e-01, 3.11077554e-02, 0.,
          0., 0., 0., 0., 2.27617729e-03, 9.86343529e-03, 9.86343529e-03,
          0., 0., 0., 0., 0., 0., 0., 0., 0., 0., 0., 0., 0., 0., 0., 0.,
          0., 0., 0., 0., 0., 0., 0., 0., 0., 0., 0., 0., 0., 0., 0., 0.,
          0., 0., 0., 0., 0., 0., 0., 0., 0., 0., 0., 0., 0.,
          2.35204995e-02, 1.16843767e-01, 8.34598299e-03, 0.,
          7.58725742e-04, 0., 0., 0., 4.85584475e-02, 1.58573687e-01,
          5.31108025e-03, 0., 0., 0., 0., 0., 7.58725777e-03,
          1.13808867e-02, 1.51745148e-03, 0., 0., 0., 0., 0., 0., 0., 0.,
          0., 0., 0., 0., 0., 0., 0., 0., 0., 0., 0., 0., 0., 0., 0., 0.,
          0., 0., 0., 0., 0., 0., 0., 0., 0., 0., 0., 0., 0., 0., 0., 0.,
          0., 0., 0., 0., 0., 0., 0., 0., 0., 0., 0., 0., 0., 0., 0., 0.,
          0., 0., 0., 0., 0., 0., 0., 0., 0., 0., 0., 0., 0., 0., 0., 0.,
          0., 0., 0., 0., 0., 0., 0., 0., 0., 0., 0., 0., 0., 0., 0., 0.,
          0., 0., 0., 0., 0., 0., 0., 0., 0., 0., 0., 0., 0., 0., 0., 0.,
          0., 0., 0., 0., 0., 0., 0., 0., 0., 0., 0., 0., 0., 0., 0., 0.,
          0., 0., 0., 0., 0., 0., 0., 0., 0., 0., 0., 0., 0., 0., 0., 0.,
          0., 0., 0., 0., 0., 0., 0., 0., 0., 0., 0., 0., 0., 0., 0., 0.,
          0., 0., 0., 0., 0., 0., 0., 0., 0., 0., 0., 0., 0., 0., 0., 0.,
          0., 0. ]
      - [ 0., 0., 0., 4.86391410e-03, 2.02663075e-02, 2.83728316e-02,
          1.13491323e-02, 5.99882714e-02, 0., 0., 0., 1.62130466e-03,
          6.40415326e-02, 1.94556564e-01, 1.18355237e-01, 7.70119727e-02,
          0., 0., 0., 8.10652319e-03, 6.48521855e-02, 3.94787669e-01,
          1.64562419e-01, 3.81006598e-02, 0., 0., 0., 7.29587069e-03,
          9.80889276e-02, 4.52344000e-01, 3.64793539e-01, 1.37810893e-02,
          0., 0., 0., 6.48521865e-03, 8.51184949e-02, 4.08568770e-01,
          3.78574640e-01, 8.10652319e-03, 0., 0., 0., 8.10652331e-04,
          2.83728316e-02, 1.82396770e-01, 1.73479602e-01, 2.43195705e-03,
          0., 0., 0., 0., 7.29587069e-03, 2.35089175e-02, 2.02663075e-02,
          0., 0., 0., 0., 0., 0., 0., 0., 0., 0., 0., 0., 0.,
          4.86391410e-03, 8.10652331e-04, 7.29587069e-03, 1.54023943e-02,
          0., 0., 0., 0., 0., 2.43195705e-03, 2.18876135e-02,
          1.37810893e-02, 0., 0., 0., 0., 0., 8.10652331e-04, 0., 0., 0.,
          0., 0., 0., 0., 0., 0., 0., 0., 0., 0., 0., 0., 0., 0., 0., 0.,
          0., 0., 0., 0., 0., 0., 0., 0., 0., 0., 0., 0., 0., 0., 0., 0.,
          0., 0., 0., 0., 0., 0., 0., 0., 0., 0., 0., 6.48521865e-03,
          5.67456614e-03, 3.24260932e-03, 5.67456614e-03, 0., 0., 0., 0.,
          3.24260932e-03, 1.62130466e-03, 8.10652331e-04, 0., 0., 0., 0.,
          0., 0., 0., 0., 0., 0., 0., 0., 0., 0., 0., 0., 0., 0., 0., 0.,
          0., 0., 0., 0., 0., 0., 0., 0., 0., 0., 0., 0., 0., 0., 0., 0.,
          0., 0., 0., 0., 0., 0., 0., 0., 0., 0., 0., 0., 0., 0., 0., 0.,
          1.62130466e-03, 1.78343505e-02, 1.13491323e-02, 2.43195705e-03,
          2.43195705e-03, 0., 0., 0., 8.10652331e-04, 5.67456614e-03,
          2.18876135e-02, 8.10652331e-04, 0., 0., 0., 0., 0., 0., 0., 0.,
          0., 0., 0., 0., 0., 0., 0., 0., 0., 0., 0., 0., 0., 0., 0., 0.,
          0., 0., 0., 0., 0., 0., 0., 0., 0., 0., 0., 0., 0., 0., 0., 0.,
          0., 0., 0., 0., 0., 0., 0., 0., 0., 0., 0., 0., 1.62130466e-03,
          2.83728316e-02, 1.70236994e-02, 1.62130466e-03, 1.70236994e-02,
          0., 0., 0., 8.10652331e-04, 3.08047887e-02, 4.62071821e-02, 0.,
          0., 0., 0., 0., 0., 0., 0., 0., 0., 0., 0., 0., 0., 0., 0., 0.,
          0., 0., 0., 0., 0., 0., 0., 0., 0., 0., 0., 0., 0., 0., 0., 0.,
          0., 0., 0., 0., 0., 0., 0., 0., 0., 0., 0., 0., 0., 0., 0., 0.,
          0., 0., 0., 0., 0., 2.67515257e-02, 1.29704373e-02,
          1.62130466e-03, 2.43195705e-02, 0., 0., 0., 8.10652331e-04,
          3.81006598e-02, 6.48521855e-02, 0., 3.24260932e-03, 0., 0., 0.,
          0., 9.72782820e-03, 1.05384802e-02, 0., 0., 0., 0., 0., 0.,
          2.43195705e-03, 1.37810893e-02, 0., 0., 0., 0., 0., 0.,
          1.62130466e-03, 3.24260932e-03, 0., 0., 0., 0., 0., 0., 0., 0.,
          0., 0., 0., 0., 0., 0., 0., 0., 0., 0., 0., 0., 0., 0., 0., 0.,
          0., 0., 0., 0., 0., 0., 0., 0., 0., 0., 0., 0., 0., 0., 0., 0.,
          0., 0., 0., 0., 0., 0., 0., 0., 0., 0., 0., 0., 0., 0., 0., 0.,
          0., 0., 0., 0., 0., 0., 0., 0., 0., 0., 0., 0., 0., 0., 0., 0.,
          0., 0., 0., 0., 0., 0., 0., 0., 0., 0., 0., 0., 0., 0., 0., 0.,
          0., 0., 0., 0., 0., 0., 0., 0., 0., 0., 0., 0., 0., 0., 0., 0.,
          0., 0., 0., 0., 0., 0., 0., 0., 0., 0., 0., 0., 0., 0., 0., 0.,
          0., 0., 0., 0., 0., 0., 0., 0., 0., 0., 0., 0., 0., 0., 0., 0.,
          0., 0., 0., 0., 0., 0., 0., 0., 0., 0., 0., 0., 0., 0., 0., 0.,
          0., 0. ]
      - [ 0., 0., 2.52571958e-03, 5.64077385e-02, 1.09447852e-01,
          3.45181674e-02, 3.19924504e-02, 1.93638504e-02, 0., 0.,
          2.52571958e-03, 1.14499293e-01, 1.86903253e-01, 7.15620592e-02,
          3.45181674e-02, 8.41906585e-04, 0., 0., 4.20953287e-03,
          7.82973096e-02, 7.15620592e-02, 3.78857963e-02, 1.85219441e-02,
          0., 0., 0., 4.20953287e-03, 2.69410107e-02, 2.60991026e-02,
          1.09447856e-02, 1.76800378e-02, 2.52571958e-03, 0., 0., 0., 0.,
          0., 0., 0., 0., 0., 0., 0., 0., 0., 0., 0., 0., 0., 0., 0., 0.,
          0., 0., 0., 0., 0., 0., 0., 0., 0., 0., 0., 0., 0., 0.,
          2.52571958e-03, 1.26285981e-02, 7.40877762e-02, 1.59962252e-02,
          2.10476648e-02, 4.20953287e-03, 0., 0., 0., 8.41906585e-04,
          5.05143916e-03, 8.41906585e-04, 6.73525268e-03, 0., 0., 0., 0.,
          0., 0., 0., 0., 0., 0., 0., 0., 0., 0., 0., 0., 0., 0., 0., 0.,
          0., 0., 0., 0., 0., 0., 0., 0., 0., 0., 0., 0., 0., 0., 0., 0.,
          0., 0., 0., 0., 0., 0., 0., 0., 0., 0., 0., 0., 0., 0., 0.,
          8.41906585e-04, 2.10476648e-02, 1.20392635e-01, 1.68381315e-02,
          4.96724881e-02, 1.43124117e-02, 0., 0., 0., 0., 1.26285981e-02,
          1.01028783e-02, 3.28343548e-02, 0., 0., 0., 0., 0., 0., 0., 0.,
          0., 0., 0., 0., 0., 0., 0., 0., 0., 0., 0., 0., 0., 0., 0., 0.,
          0., 0., 0., 0., 0., 0., 0., 0., 0., 0., 0., 0., 0., 0., 0., 0.,
          0., 0., 0., 0., 0., 0., 0., 0., 0., 0., 0., 0., 2.18895711e-02,
          4.52103823e-01, 1.44807935e-01, 1.59962252e-02, 1.34705054e-02,
          0., 0., 8.41906585e-04, 1.68381317e-03, 3.82225573e-01,
          6.04488909e-01, 2.60991026e-02, 0., 0., 0., 0., 0.,
          4.12534215e-02, 2.18053803e-01, 3.53600755e-02, 0., 0., 0., 0.,
          0., 0., 3.36762634e-03, 1.68381317e-03, 0., 0., 0., 0., 0., 0.,
          0., 0., 0., 0., 0., 0., 0., 0., 0., 0., 0., 0., 0., 0., 0., 0.,
          0., 0., 0., 0., 0., 0., 0., 0., 0., 0., 0., 0., 0., 0.,
          3.11505422e-02, 2.64358670e-01, 2.60991026e-02, 8.41906585e-04,
          3.36762634e-03, 0., 0., 8.41906585e-04, 2.10476648e-02,
          4.46210466e-02, 8.41906574e-03, 0., 0., 0., 0., 0., 0., 0., 0.,
          0., 0., 0., 0., 0., 0., 0., 0., 0., 0., 0., 0., 0., 0., 0., 0.,
          0., 0., 0., 0., 0., 0., 0., 0., 0., 0., 0., 0., 0., 0., 0., 0.,
          0., 0., 0., 0., 0., 0., 0., 0., 0., 0., 0., 0., 1.68381317e-03,
          2.77829170e-02, 9.85030681e-02, 1.43124117e-02, 3.36762634e-03,
          7.57715898e-03, 0., 0., 0., 3.87277007e-02, 1.00186877e-01,
          3.36762629e-02, 2.52571958e-03, 0., 0., 0., 0., 8.41906574e-03,
          2.60991026e-02, 5.05143916e-03, 0., 0., 0., 0., 0., 0.,
          6.73525268e-03, 0., 0., 0., 0., 0., 0., 0., 0., 0., 0., 0., 0.,
          0., 0., 0., 0., 0., 0., 0., 0., 0., 0., 0., 0., 0., 0., 0., 0.,
          0., 0., 0., 0., 0., 0., 0., 0., 0., 0., 0., 0., 0., 0., 0., 0.,
          0., 0., 0., 0., 0., 0., 0., 0., 0., 0., 0., 0., 0., 0., 0., 0.,
          0., 0., 0., 0., 0., 0., 0., 0., 0., 0., 0., 0., 0., 0., 0., 0.,
          0., 0., 0., 0., 0., 0., 0., 0., 0., 0., 0., 0., 0., 0., 0., 0.,
          0., 0., 0., 0., 0., 0., 0., 0., 0., 0., 0., 0., 0., 0., 0., 0.,
          0., 0., 0., 0., 0., 0., 0., 0., 0., 0., 0., 0., 0., 0., 0., 0.,
          0., 0., 0., 0., 0., 0., 0., 0., 0., 0., 0., 0., 0., 0., 0., 0.,
          0., 0., 0., 0., 0., 0., 0., 0., 0., 0., 0., 0., 0., 0., 0., 0.,
          0., 0., 0., 0., 0., 0., 0. ]
      - [ 0., 0., 0., 0., 0., 1.21691579e-03, 2.43383157e-03,
          3.44792828e-02, 0., 0., 0., 0., 0., 2.02819309e-03,
          9.73532628e-03, 2.55552325e-02, 0., 0., 0., 0., 0.,
          7.30149494e-03, 2.14988459e-02, 4.74597178e-02, 0., 0., 0., 0.,
          4.05638624e-04, 4.05638618e-03, 3.61018367e-02, 6.24683462e-02,
          0., 0., 0., 0., 1.62255450e-03, 4.46202466e-03, 3.16398107e-02,
          4.49853212e-01, 0., 0., 0., 0., 3.24510899e-03, 4.46202466e-03,
          4.54315245e-02, 8.60765159e-01, 0., 0., 0., 0., 1.21691579e-03,
          3.65074747e-03, 6.16570711e-02, 1.98762923e-01, 0., 0., 0.,
          4.05638624e-04, 1.62255450e-03, 1.21691579e-03, 1.09522427e-02,
          4.05638618e-03, 0., 0., 0., 0., 4.05638624e-04, 0.,
          4.05638624e-04, 3.65074747e-03, 0., 0., 0., 0., 0., 0., 0., 0.,
          0., 0., 0., 0., 0., 0., 0., 0., 0., 0., 0., 0., 0., 0., 0., 0.,
          0., 0., 0., 0., 0., 0., 0., 0., 0., 0., 0., 0., 0., 0., 0., 0.,
          0., 0., 0., 0., 0., 0., 0., 0., 0., 0., 0., 0., 0., 0., 0., 0.,
          0., 0., 0., 0., 4.05638624e-04, 1.21691579e-03, 2.02819309e-03,
          2.83947028e-03, 0., 0., 0., 0., 0., 0., 0., 0., 0., 0., 0., 0.,
          0., 0., 0., 0., 0., 0., 0., 0., 0., 0., 0., 0., 0., 0., 0., 0.,
          0., 0., 0., 0., 0., 0., 0., 0., 0., 0., 0., 0., 0., 0., 0., 0.,
          0., 0., 0., 0., 0., 0., 0., 0., 0., 0., 0., 0., 0., 0., 0., 0.,
          0., 8.11277248e-04, 8.11277248e-04, 2.02819309e-03, 0., 0., 0.,
          0., 0., 0., 4.05638624e-04, 0., 0., 0., 0., 0., 0., 0., 0., 0.,
          0., 0., 0., 0., 0., 0., 0., 0., 0., 0., 0., 0., 0., 0., 0., 0.,
          0., 0., 0., 0., 0., 0., 0., 0., 0., 0., 0., 0., 0., 0., 0., 0.,
          0., 0., 0., 0., 0., 0., 0., 0., 0., 0., 0., 0., 4.05638624e-04,
          1.21691579e-03, 8.11277248e-04, 3.65074747e-03, 0., 0., 0., 0.,
          0., 0., 0., 0., 0., 0., 0., 0., 0., 0., 0., 0., 0., 0., 0., 0.,
          0., 0., 0., 0., 0., 0., 0., 0., 0., 0., 0., 0., 0., 0., 0., 0.,
          0., 0., 0., 0., 0., 0., 0., 0., 0., 0., 0., 0., 0., 0., 0., 0.,
          0., 0., 0., 0., 0., 0., 0., 0., 0., 4.05638624e-04,
          4.05638624e-04, 1.05466042e-02, 0., 0., 0., 0., 0.,
          2.43383157e-03, 1.62255450e-03, 3.65074747e-03, 0., 0., 0., 0.,
          4.05638624e-04, 1.62255450e-03, 2.83947028e-03, 4.05638624e-04,
          0., 0., 0., 0., 4.05638624e-04, 4.05638624e-04, 1.21691579e-03,
          0., 0., 0., 0., 0., 0., 0., 0., 4.05638624e-04, 0., 0., 0., 0.,
          0., 0., 0., 0., 0., 0., 0., 0., 0., 0., 0., 0., 0., 0., 0., 0.,
          0., 0., 0., 0., 0., 0., 0., 0., 0., 0., 0., 0., 0., 0., 0., 0.,
          0., 0., 0., 0., 0., 0., 0., 0., 0., 0., 0., 0., 0., 0., 0., 0.,
          0., 0., 0., 0., 0., 0., 0., 0., 0., 0., 0., 0., 0., 0., 0., 0.,
          0., 0., 0., 0., 0., 0., 0., 0., 0., 0., 0., 0., 0., 0., 0., 0.,
          0., 0., 0., 0., 0., 0., 0., 0., 0., 0., 0., 0., 0., 0., 0., 0.,
          0., 0., 0., 0., 0., 0., 0., 0., 0., 0., 0., 0., 0., 0., 0., 0.,
          0., 0., 0., 0., 0., 0., 0., 0., 0., 0., 0., 0., 0., 0., 0., 0.,
          0., 0., 0., 0., 0., 0., 0., 0., 0., 0., 0., 0., 0., 0., 0., 0.,
          0., 0., 0., 0. ]
      - [ 0., 0., 4.91642766e-03, 5.73583227e-03, 2.37627327e-02,
          5.49001098e-02, 1.06522599e-02, 5.73583227e-03, 0., 0.,
          1.63880922e-03, 0., 7.78434351e-02, 1.95837706e-01,
          3.60538028e-02, 1.22910691e-02, 0., 0., 0., 1.63880922e-03,
          1.09800220e-01, 1.00786768e-01, 5.65389171e-02, 0., 0., 0., 0.,
          2.45821383e-03, 5.16224913e-02, 5.40807024e-02, 3.11373752e-02,
          1.55686876e-02, 0., 0., 0., 0., 3.27761844e-03, 5.73583227e-03,
          1.88463051e-02, 2.94985659e-02, 0., 0., 0., 0., 0., 0.,
          2.45821383e-03, 2.04851143e-02, 0., 0., 0., 0., 0., 0., 0., 0.,
          0., 0., 0., 0., 0., 0., 0., 0., 0., 0., 0., 2.45821383e-03,
          8.19404610e-03, 8.19404610e-03, 1.22910691e-02, 3.27761844e-03,
          0., 0., 0., 0., 6.55523688e-03, 8.19404610e-04, 4.09702305e-03,
          4.91642766e-03, 0., 0., 0., 0., 4.91642766e-03, 1.63880922e-03,
          0., 0., 0., 0., 0., 0., 8.19404610e-04, 0., 0., 0., 0., 0., 0.,
          0., 0., 0., 0., 0., 0., 0., 0., 0., 0., 0., 0., 0., 0., 0., 0.,
          0., 0., 0., 0., 0., 0., 0., 0., 0., 0., 0., 0., 0., 0., 0., 0.,
          0., 1.22910691e-02, 1.80269014e-02, 4.91642766e-03, 0., 0., 0.,
          0., 0., 8.19404610e-04, 8.19404610e-04, 3.27761844e-03, 0., 0.,
          0., 0., 0., 0., 0., 0., 0., 0., 0., 0., 0., 0., 0., 0., 0., 0.,
          0., 0., 0., 0., 0., 0., 0., 0., 0., 0., 0., 0., 0., 0., 0., 0.,
          0., 0., 0., 0., 0., 0., 0., 0., 0., 0., 0., 0., 0., 0., 0., 0.,
          0., 2.45821383e-03, 8.19404610e-04, 1.06522597e-01,
          2.85152793e-01, 1.63880922e-03, 0., 0., 0., 0., 8.19404610e-04,
          5.73583227e-03, 3.16290170e-01, 3.27761844e-02, 4.09702305e-03,
          0., 0., 0., 0., 0., 0., 3.27761844e-03, 0., 0., 0., 0., 0., 0.,
          0., 0., 0., 0., 0., 0., 0., 0., 0., 0., 0., 0., 0., 0., 0., 0.,
          0., 0., 0., 0., 0., 0., 0., 0., 0., 0., 0., 0., 0., 0., 0., 0.,
          0., 0., 0., 0., 0., 0., 0., 1.81907818e-01, 5.62930942e-01,
          6.55523688e-03, 0., 0., 0., 0., 0., 9.25927237e-02,
          2.29433283e-01, 9.83285531e-03, 0., 0., 0., 0., 0.,
          8.19404610e-04, 0., 0., 0., 0., 0., 0., 0., 0., 0., 0., 0., 0.,
          0., 0., 0., 0., 0., 0., 0., 0., 0., 0., 0., 0., 0., 0., 0., 0.,
          0., 0., 0., 0., 0., 0., 0., 0., 0., 0., 0., 0., 0., 0., 0., 0.,
          0., 0., 2.45821383e-03, 5.65389171e-02, 3.16290170e-01,
          2.78597567e-02, 0., 0., 0., 0., 7.37464149e-03, 2.00754121e-01,
          3.96591842e-01, 2.62209475e-02, 0., 0., 0., 0., 8.19404610e-04,
          8.76762941e-02, 1.72074959e-02, 0., 0., 0., 0., 0., 0., 0., 0.,
          0., 0., 0., 0., 0., 0., 0., 0., 0., 0., 0., 0., 0., 0., 0., 0.,
          0., 0., 0., 0., 0., 0., 0., 0., 0., 0., 0., 0., 0., 0., 0., 0.,
          0., 0., 0., 0., 0., 0., 0., 0., 0., 0., 0., 0., 0., 0., 0., 0.,
          0., 0., 0., 0., 0., 0., 0., 0., 0., 0., 0., 0., 0., 0., 0., 0.,
          0., 0., 0., 0., 0., 0., 0., 0., 0., 0., 0., 0., 0., 0., 0., 0.,
          0., 0., 0., 0., 0., 0., 0., 0., 0., 0., 0., 0., 0., 0., 0., 0.,
          0., 0., 0., 0., 0., 0., 0., 0., 0., 0., 0., 0., 0., 0., 0., 0.,
          0., 0., 0., 0., 0., 0., 0., 0., 0., 0., 0., 0., 0., 0., 0., 0.,
          0., 0., 0., 0., 0., 0., 0., 0., 0., 0., 0., 0., 0., 0., 0., 0.,
          0., 0., 0., 0., 0., 0., 0., 0., 0., 0., 0., 0., 0., 0., 0., 0.,
          0., 0. ]
      - [ 0., 0., 0., 3.42223002e-03, 6.07445836e-02, 2.66078383e-01,
          3.08000706e-02, 1.70255944e-01, 0., 0., 8.55557504e-04,
          4.27778764e-03, 1.89933762e-01, 6.12579167e-01, 1.58278137e-01,
          5.30445650e-02, 0., 0., 1.71111501e-03, 2.48111673e-02,
          1.39455870e-01, 5.09056747e-01, 1.26622513e-01, 5.98890241e-03,
          0., 0., 3.42223002e-03, 2.31000520e-02, 4.96223345e-02,
          1.55711472e-01, 3.59334163e-02, 4.27778764e-03, 0., 0.,
          5.98890241e-03, 4.27778764e-03, 4.27778764e-03, 9.58224386e-02,
          6.75890446e-02, 7.70001765e-03, 0., 0., 8.55557504e-04, 0.,
          8.55557504e-04, 4.02112044e-02, 8.55557546e-02, 1.11222481e-02,
          0., 0., 0., 0., 0., 2.56667263e-03, 4.53445502e-02,
          5.13334526e-03, 0., 0., 0., 0., 0., 0., 0., 0., 0., 0., 0., 0.,
          1.02666905e-02, 5.56112379e-02, 3.25111859e-02, 5.13334498e-02,
          0., 0., 0., 0., 5.98890241e-03, 9.41113289e-03, 2.56667263e-03,
          0., 0., 0., 0., 0., 0., 0., 0., 0., 0., 0., 0., 0., 0., 0., 0.,
          0., 0., 0., 0., 0., 0., 0., 0., 0., 0., 0., 0., 0., 0., 0., 0.,
          0., 0., 0., 0., 0., 0., 0., 0., 0., 0., 0., 0., 0., 0., 0., 0.,
          0., 0., 0., 0., 0., 1.79667082e-02, 7.27223903e-02,
          1.71111501e-03, 4.10667621e-02, 0., 0., 0., 0., 1.71111501e-03,
          2.73778401e-02, 5.98890241e-03, 1.71111501e-03, 0., 0., 0., 0.,
          0., 0., 0., 0., 0., 0., 0., 0., 0., 0., 0., 0., 0., 0., 0., 0.,
          0., 0., 0., 0., 0., 0., 0., 0., 0., 0., 0., 0., 0., 0., 0., 0.,
          0., 0., 0., 0., 0., 0., 0., 0., 0., 0., 0., 0., 0., 0., 0., 0.,
          2.31000520e-02, 7.95668513e-02, 1.71111505e-02, 3.33667435e-02,
          0., 0., 0., 0., 5.13334526e-03, 1.79667082e-02, 1.19778048e-02,
          3.42223002e-03, 0., 0., 0., 0., 0., 5.13334526e-03,
          2.56667263e-03, 0., 0., 0., 0., 0., 0., 0., 0., 0., 0., 0., 0.,
          0., 0., 0., 0., 0., 0., 0., 0., 0., 0., 0., 0., 0., 0., 0., 0.,
          0., 0., 0., 0., 0., 0., 0., 0., 0., 0., 0., 0., 0., 0., 0., 0.,
          8.55557504e-04, 1.02666905e-02, 7.10112751e-02, 5.98890241e-03,
          1.79667082e-02, 0., 0., 0., 0., 0., 7.70001765e-03, 0., 0., 0.,
          0., 0., 0., 0., 0., 0., 0., 0., 0., 0., 0., 0., 0., 0., 0., 0.,
          0., 0., 0., 0., 0., 0., 0., 0., 0., 0., 0., 0., 0., 0., 0., 0.,
          0., 0., 0., 0., 0., 0., 0., 0., 0., 0., 0., 0., 0., 0., 0., 0.,
          0., 0., 0., 2.82333978e-02, 1.63411483e-01, 1.19778048e-02,
          2.13889387e-02, 0., 0., 0., 0., 2.73778401e-02, 2.17311606e-01,
          3.93556468e-02, 0., 0., 0., 0., 0., 1.71111501e-03,
          1.88222658e-02, 3.42223002e-03, 0., 0., 0., 0., 0., 0.,
          8.55557504e-04, 0., 0., 0., 0., 0., 0., 0., 0., 0., 0., 0., 0.,
          0., 0., 0., 0., 0., 0., 0., 0., 0., 0., 0., 0., 0., 0., 0., 0.,
          0., 0., 0., 0., 0., 0., 0., 0., 0., 0., 0., 0., 0., 0., 0., 0.,
          0., 0., 0., 0., 0., 0., 0., 0., 0., 0., 0., 0., 0., 0., 0., 0.,
          0., 0., 0., 0., 0., 0., 0., 0., 0., 0., 0., 0., 0., 0., 0., 0.,
          0., 0., 0., 0., 0., 0., 0., 0., 0., 0., 0., 0., 0., 0., 0., 0.,
          0., 0., 0., 0., 0., 0., 0., 0., 0., 0., 0., 0., 0., 0., 0., 0.,
          0., 0., 0., 0., 0., 0., 0., 0., 0., 0., 0., 0., 0., 0., 0., 0.,
          0., 0., 0., 0., 0., 0., 0., 0., 0., 0., 0., 0., 0., 0., 0., 0.,
          0., 0., 0., 0., 0., 0., 0., 0., 0., 0., 0., 0., 0., 0., 0., 0.,
          0., 0., 0., 0., 0., 0. ]
      - [ 0., 0., 8.38560925e-04, 1.76097807e-02, 5.61835840e-02,
          3.60581204e-02, 8.38560925e-04, 2.43182667e-02, 0., 0.,
          1.67712185e-03, 3.27038765e-02, 2.59115338e-01, 5.53450212e-02,
          1.92869026e-02, 8.38560984e-03, 0., 1.67712185e-03,
          3.35424370e-03, 5.03136553e-02, 2.69178063e-01, 1.24945581e-01,
          2.51568276e-02, 4.19280492e-03, 0., 5.03136590e-03,
          6.70848740e-03, 7.29548037e-02, 2.57438213e-01, 1.61842257e-01,
          2.26411447e-02, 8.38560925e-04, 0., 8.38560984e-03,
          1.67712185e-03, 2.26411447e-02, 8.13404098e-02, 7.04391226e-02,
          1.59326587e-02, 1.09012919e-02, 0., 0., 8.38560925e-04,
          2.51568295e-03, 2.51568295e-03, 8.38560984e-03, 5.86992642e-03,
          1.50940968e-02, 0., 0., 0., 0., 2.51568295e-03, 4.19280492e-03,
          1.67712185e-03, 8.38560925e-04, 0., 0., 0., 0., 8.38560925e-04,
          0., 0., 0., 0., 0., 0., 2.51568295e-03, 2.51568295e-03,
          8.38560984e-03, 2.51568295e-03, 2.51568295e-03, 0., 0.,
          8.38560925e-04, 1.67712185e-03, 2.51568295e-03, 0., 0., 0., 0.,
          0., 0., 8.38560925e-04, 8.38560925e-04, 0., 0., 0., 0., 0.,
          1.67712185e-03, 0., 0., 0., 0., 0., 0., 0., 0., 0., 0., 0., 0.,
          0., 0., 0., 0., 0., 0., 0., 0., 0., 0., 0., 0., 0., 0., 0., 0.,
          0., 0., 0., 0., 0., 0., 0., 0., 0., 0., 0., 0., 8.38560925e-04,
          2.51568295e-03, 1.42555358e-02, 1.67712185e-03, 4.19280492e-03,
          0., 0., 0., 0., 0., 0., 0., 0., 0., 0., 0., 0., 0., 0., 0., 0.,
          0., 0., 0., 0., 0., 0., 0., 0., 0., 0., 0., 0., 0., 0., 0., 0.,
          0., 0., 0., 0., 0., 0., 0., 0., 0., 0., 0., 0., 0., 0., 0., 0.,
          0., 0., 0., 0., 0., 0., 0., 0., 0., 0., 0., 4.19280492e-03,
          1.17398528e-02, 1.34169748e-02, 0., 4.19280492e-03, 0., 0., 0.,
          0., 0., 0., 0., 0., 0., 0., 0., 0., 0., 0., 0., 0., 0., 0., 0.,
          0., 0., 0., 0., 0., 0., 0., 0., 0., 0., 0., 0., 0., 0., 0., 0.,
          0., 0., 0., 0., 0., 0., 0., 0., 0., 0., 0., 0., 0., 0., 0., 0.,
          0., 0., 0., 0., 0., 0., 0., 0., 4.19280492e-03, 8.97260234e-02,
          1.59326587e-02, 1.67712185e-03, 9.22417082e-03, 0., 0., 0.,
          2.76725106e-02, 1.35846868e-01, 1.00627318e-02, 0., 0., 0., 0.,
          0., 3.35424370e-03, 1.17398528e-02, 0., 0., 0., 0., 0., 0.,
          8.38560925e-04, 0., 0., 0., 0., 0., 0., 0., 0., 0., 0., 0., 0.,
          0., 0., 0., 0., 0., 0., 0., 0., 0., 0., 0., 0., 0., 0., 0., 0.,
          0., 0., 0., 0., 0., 0., 0., 0., 0., 0., 0., 7.54704839e-03,
          1.61003709e-01, 2.85110716e-02, 7.54704839e-03, 4.19280492e-03,
          0., 0., 8.38560925e-04, 1.09012924e-01, 6.82588637e-01,
          1.32492632e-01, 1.67712185e-03, 0., 0., 8.38560925e-04,
          2.51568295e-03, 1.53456658e-01, 3.45487118e-01, 1.06497243e-01,
          0., 0., 0., 8.38560925e-04, 0., 5.95378280e-02, 1.04820117e-01,
          2.76725106e-02, 0., 0., 0., 0., 0., 0., 2.51568295e-03, 0., 0.,
          0., 0., 0., 0., 0., 0., 0., 0., 0., 0., 0., 0., 0., 0., 0., 0.,
          0., 0., 0., 0., 0., 0., 0., 0., 0., 0., 0., 0., 0., 0., 0., 0.,
          0., 0., 0., 0., 0., 0., 0., 0., 0., 0., 0., 0., 0., 0., 0., 0.,
          0., 0., 0., 0., 0., 0., 0., 0., 0., 0., 0., 0., 0., 0., 0., 0.,
          0., 0., 0., 0., 0., 0., 0., 0., 0., 0., 0., 0., 0., 0., 0., 0.,
          0., 0., 0., 0., 0., 0., 0., 0., 0., 0., 0., 0., 0., 0., 0., 0.,
          0., 0., 0., 0., 0., 0., 0., 0., 0., 0., 0., 0., 0., 0., 0., 0.,
          0., 0., 0., 0., 0., 0., 0., 0., 0., 0., 0., 0., 0., 0., 0., 0.,
          0., 0., 0., 0., 0., 0., 0., 0., 0., 0., 0., 0., 0., 0., 0., 0.,
          0., 0., 0., 0., 0., 0., 0., 0., 0. ]
      - [ 0., 0., 7.47760583e-04, 5.23432437e-03, 6.13163672e-02,
          4.33701165e-02, 4.71089184e-02, 4.86044399e-02, 0., 0., 0.,
          5.23432437e-03, 1.11416332e-01, 5.81009984e-01, 1.03190966e-01,
          7.47760618e-03, 0., 0., 0., 1.71984937e-02, 2.14607298e-01,
          4.42674279e-01, 6.80462122e-02, 1.49552124e-02, 0., 0., 0.,
          2.99104233e-03, 1.49552122e-01, 1.75723746e-01, 1.86940152e-02,
          1.27119301e-02, 0., 0., 0., 0., 2.61716209e-02, 2.01895367e-02,
          2.99104233e-03, 5.98208467e-03, 0., 0., 0., 0., 0., 0., 0., 0.,
          0., 0., 0., 0., 0., 0., 0., 0., 0., 0., 0., 0., 0., 0., 0., 0.,
          0., 0., 0., 2.24328181e-03, 5.98208467e-03, 3.73880309e-03,
          8.97312723e-03, 6.72984542e-03, 0., 0., 0., 0., 3.73880309e-03,
          8.22536647e-03, 1.49552117e-03, 0., 0., 0., 0., 0.,
          2.24328181e-03, 7.47760583e-04, 0., 0., 0., 0., 0., 0., 0., 0.,
          0., 0., 0., 0., 0., 0., 0., 0., 0., 0., 0., 0., 0., 0., 0., 0.,
          0., 0., 0., 0., 0., 0., 0., 0., 0., 0., 0., 0., 0., 0., 0., 0.,
          0., 0., 0., 0., 0., 2.24328181e-03, 3.73880309e-03,
          1.49552117e-03, 1.34596908e-02, 1.94417760e-02, 0., 0., 0., 0.,
          0., 0., 0., 0., 0., 0., 0., 0., 0., 0., 0., 0., 0., 0., 0., 0.,
          0., 0., 0., 0., 0., 0., 0., 0., 0., 0., 0., 0., 0., 0., 0., 0.,
          0., 0., 0., 0., 0., 0., 0., 0., 0., 0., 0., 0., 0., 0., 0., 0.,
          0., 0., 0., 0., 0., 0., 0., 7.47760618e-03, 2.01895367e-02,
          1.27119301e-02, 1.34596908e-02, 2.61716209e-02, 0., 0., 0.,
          3.73880309e-03, 8.22536647e-03, 7.47760618e-03, 0., 0., 0., 0.,
          0., 0., 0., 0., 0., 0., 0., 0., 0., 0., 0., 0., 0., 0., 0., 0.,
          0., 0., 0., 0., 0., 0., 0., 0., 0., 0., 0., 0., 0., 0., 0., 0.,
          0., 0., 0., 0., 0., 0., 0., 0., 0., 0., 0., 0., 0., 0., 0., 0.,
          0., 8.97312723e-03, 3.88835520e-02, 2.76671425e-02,
          1.27119301e-02, 1.94417760e-02, 0., 0., 0., 5.23432437e-03,
          2.39283387e-02, 2.46760994e-02, 0., 0., 0., 0., 0., 0., 0., 0.,
          0., 0., 0., 0., 0., 0., 0., 0., 0., 0., 0., 0., 0., 0., 0., 0.,
          0., 0., 0., 0., 0., 0., 0., 0., 0., 0., 0., 0., 0., 0., 0., 0.,
          0., 0., 0., 0., 0., 0., 0., 0., 0., 0., 0., 0., 0.,
          3.73880309e-03, 9.49655995e-02, 4.93521988e-02, 6.72984542e-03,
          1.12164086e-02, 0., 0., 0., 1.71984937e-02, 1.85444623e-01,
          4.98756319e-01, 6.80462122e-02, 0., 0., 0., 0., 6.72984542e-03,
          1.33101389e-01, 5.38387634e-02, 0., 0., 0., 0., 0., 0.,
          2.24328181e-03, 0., 0., 0., 0., 0., 0., 0., 0., 0., 0., 0., 0.,
          0., 0., 0., 0., 0., 0., 0., 0., 0., 0., 0., 0., 0., 0., 0., 0.,
          0., 0., 0., 0., 0., 0., 0., 0., 0., 0., 0., 0., 0., 0., 0., 0.,
          0., 0., 0., 0., 0., 0., 0., 0., 0., 0., 0., 0., 0., 0., 0., 0.,
          0., 0., 0., 0., 0., 0., 0., 0., 0., 0., 0., 0., 0., 0., 0., 0.,
          0., 0., 0., 0., 0., 0., 0., 0., 0., 0., 0., 0., 0., 0., 0., 0.,
          0., 0., 0., 0., 0., 0., 0., 0., 0., 0., 0., 0., 0., 0., 0., 0.,
          0., 0., 0., 0., 0., 0., 0., 0., 0., 0., 0., 0., 0., 0., 0., 0.,
          0., 0., 0., 0., 0., 0., 0., 0., 0., 0., 0., 0., 0., 0., 0., 0.,
          0., 0., 0., 0., 0., 0., 0., 0., 0., 0., 0., 0., 0., 0., 0., 0.,
          0., 0., 0., 0., 0., 0., 0. ]
      - [ 0., 0., 0., 0., 3.28409369e-04, 3.28409369e-04, 9.85228107e-04,
          3.44829820e-02, 0., 0., 0., 3.28409369e-04, 1.97045621e-03,
          1.64204685e-03, 2.62727495e-03, 9.19546187e-03, 0., 0., 0.,
          1.97045621e-03, 2.29886547e-03, 3.94091243e-03, 7.55341537e-03,
          1.67488772e-02, 0., 0., 0., 3.28409369e-03, 9.85228107e-04,
          5.25454991e-03, 1.05090998e-02, 1.77341048e-02, 0., 0.,
          6.56818738e-04, 3.28409369e-04, 3.28409369e-04, 1.97045621e-03,
          1.77341048e-02, 3.41545716e-02, 0., 0., 0., 3.28409369e-04,
          1.31363748e-03, 5.91136841e-03, 1.87193342e-02, 1.14943273e-01,
          0., 0., 0., 3.28409369e-04, 1.64204685e-03, 7.55341537e-03,
          3.18557061e-02, 9.69136000e-01, 0., 0., 0., 6.56818738e-04,
          3.94091243e-03, 1.97045621e-03, 1.57636497e-02, 2.04927444e-01,
          0., 0., 0., 0., 0., 0., 9.85228107e-04, 1.97045621e-03, 0., 0.,
          0., 3.28409369e-04, 3.28409369e-04, 3.28409369e-04,
          1.97045621e-03, 0., 0., 0., 0., 0., 0., 0., 0., 0., 0., 0., 0.,
          0., 0., 0., 0., 0., 0., 0., 0., 0., 0., 0., 0., 0., 0., 0., 0.,
          0., 0., 0., 0., 0., 0., 0., 0., 0., 0., 0., 0., 0., 0., 0., 0.,
          0., 0., 0., 0., 0., 0., 0., 0., 0., 0., 0., 9.85228107e-04,
          7.88182486e-03, 0., 0., 0., 0., 0., 0., 0., 0., 0., 0., 0., 0.,
          0., 0., 0., 0., 0., 0., 0., 0., 0., 0., 0., 0., 0., 0., 0., 0.,
          0., 0., 0., 0., 0., 0., 0., 0., 0., 0., 0., 0., 0., 0., 0., 0.,
          0., 0., 0., 0., 0., 0., 0., 0., 0., 0., 0., 0., 0., 0., 0., 0.,
          0., 0., 6.56818738e-04, 2.62727495e-03, 0., 0., 0., 0., 0., 0.,
          0., 0., 0., 0., 0., 0., 0., 0., 0., 0., 0., 0., 0., 0., 0., 0.,
          0., 0., 0., 0., 0., 0., 0., 0., 0., 0., 0., 0., 0., 0., 0., 0.,
          0., 0., 0., 0., 0., 0., 0., 0., 0., 0., 0., 0., 0., 0., 0., 0.,
          0., 0., 0., 0., 0., 0., 3.28409369e-04, 9.85228107e-04,
          6.56818738e-04, 9.85228107e-04, 0., 0., 0., 0., 0., 0., 0., 0.,
          0., 0., 0., 0., 0., 0., 0., 0., 0., 0., 0., 0., 0., 0., 0., 0.,
          0., 0., 0., 0., 0., 0., 0., 0., 0., 0., 0., 0., 0., 0., 0., 0.,
          0., 0., 0., 0., 0., 0., 0., 0., 0., 0., 0., 0., 0., 0., 0., 0.,
          0., 0., 0., 0., 0., 1.31363748e-03, 2.29886547e-03,
          1.08375084e-02, 0., 0., 0., 0., 6.56818738e-04, 1.31363748e-03,
          1.64204685e-03, 2.95568421e-03, 0., 0., 0., 0., 9.85228107e-04,
          9.85228107e-04, 2.62727495e-03, 1.31363748e-03, 0., 0., 0., 0.,
          0., 1.97045621e-03, 9.85228107e-04, 0., 0., 0., 0., 0., 0., 0.,
          0., 9.85228107e-04, 0., 0., 0., 0., 0., 0., 0., 0., 0., 0., 0.,
          0., 0., 0., 9.85228107e-04, 0., 0., 0., 0., 0., 0., 0., 0., 0.,
          0., 0., 0., 0., 0., 0., 0., 0., 0., 0., 0., 0., 0., 0., 0., 0.,
          0., 0., 0., 0., 0., 0., 0., 0., 0., 0., 0., 0., 0., 0., 0., 0.,
          0., 0., 0., 0., 0., 0., 0., 0., 0., 0., 0., 0., 0., 0., 0., 0.,
          0., 0., 0., 0., 0., 0., 0., 0., 0., 0., 0., 0., 0., 0., 0., 0.,
          0., 0., 0., 0., 0., 0., 0., 0., 0., 0., 0., 0., 0., 0., 0., 0.,
          0., 0., 0., 0., 0., 0., 0., 0., 0., 0., 0., 0., 0., 0., 0., 0.,
          0., 0., 0., 0., 0., 0., 0., 0., 0., 0., 0., 0., 0., 0., 0., 0.,
          0., 0., 0., 0., 0., 0., 0., 0., 0., 0., 0., 0., 0., 0., 0., 0. ]
      - [ 0., 0., 0., 3.30225863e-02, 2.86775082e-01, 4.86648642e-02,
          2.52014473e-02, 3.99747118e-02, 0., 0., 0., 4.51888032e-02,
          3.22404742e-01, 1.32090345e-01, 3.56296338e-02, 0., 0., 0.,
          8.69015465e-04, 3.21535729e-02, 2.86775082e-01, 8.69015455e-02,
          0., 0., 0., 0., 2.60704639e-03, 1.82493236e-02, 1.08626932e-01,
          4.25817557e-02, 0., 0., 0., 0., 0., 1.39042474e-02,
          3.38916034e-02, 3.47606167e-02, 1.73803093e-03, 0., 0., 0., 0.,
          0., 2.60704639e-03, 1.73803093e-03, 0., 0., 0., 0., 0., 0., 0.,
          0., 0., 0., 0., 0., 0., 0., 0., 0., 0., 0., 0., 0.,
          1.73803093e-03, 8.69015465e-04, 3.21535729e-02, 2.60704639e-03,
          8.69015465e-04, 1.73803093e-03, 0., 0., 0., 0., 1.73803093e-03,
          0., 0., 0., 0., 0., 0., 0., 8.69015465e-04, 0., 0., 0., 0., 0.,
          0., 0., 0., 0., 0., 0., 0., 0., 0., 0., 0., 0., 0., 0., 0., 0.,
          0., 0., 0., 0., 0., 0., 0., 0., 0., 0., 0., 0., 0., 0., 0., 0.,
          0., 0., 0., 0., 0., 0., 0., 0., 0., 1.12972008e-02,
          4.86648642e-02, 7.82113895e-03, 5.21409279e-03, 1.12972008e-02,
          0., 0., 0., 3.47606186e-03, 1.73803093e-03, 2.60704639e-03,
          6.08310802e-03, 0., 0., 0., 0., 0., 0., 0., 0., 0., 0., 0., 0.,
          0., 0., 0., 0., 0., 0., 0., 0., 0., 0., 0., 0., 0., 0., 0., 0.,
          0., 0., 0., 0., 0., 0., 0., 0., 0., 0., 0., 0., 0., 0., 0., 0.,
          0., 0., 0., 0., 0., 0., 0., 8.69015465e-04, 1.39042474e-02,
          1.96397483e-01, 7.38663152e-02, 2.60704625e-02, 5.21409279e-03,
          0., 0., 0., 1.73803093e-03, 6.34381250e-02, 1.65112928e-01,
          5.12719117e-02, 1.56422779e-02, 0., 0., 0., 8.69015465e-04,
          8.69015465e-04, 3.82366776e-02, 5.38789555e-02, 4.34507709e-03,
          0., 0., 0., 0., 0., 0., 0., 0., 0., 0., 0., 0., 0., 0., 0., 0.,
          0., 0., 0., 0., 0., 0., 0., 0., 0., 0., 0., 0., 0., 0., 0., 0.,
          0., 0., 0., 0., 0., 0., 0., 0., 0., 0., 1.73803093e-03,
          4.43197861e-02, 6.25691116e-01, 3.73676643e-02, 8.69015418e-03,
          3.47606186e-03, 0., 0., 0., 5.99620640e-02, 9.47226807e-02,
          2.69394778e-02, 0., 0., 0., 0., 0., 0., 0., 0., 0., 0., 0., 0.,
          0., 0., 0., 0., 0., 0., 0., 0., 0., 0., 0., 0., 0., 0., 0., 0.,
          0., 0., 0., 0., 0., 0., 0., 0., 0., 0., 0., 0., 0., 0., 0., 0.,
          0., 0., 0., 0., 0., 0., 0., 0., 0., 2.69394778e-02,
          2.59835631e-01, 3.47606167e-02, 1.47732627e-02, 1.99873559e-02,
          0., 0., 1.73803093e-03, 1.73803084e-02, 2.89382130e-01,
          1.53815731e-01, 0., 0., 0., 0., 0., 3.47606186e-03,
          7.99494237e-02, 1.47732627e-02, 0., 0., 0., 0., 0., 0.,
          9.55916941e-03, 8.69015465e-04, 0., 0., 0., 0., 0., 0., 0., 0.,
          0., 0., 0., 0., 0., 0., 0., 0., 0., 0., 0., 0., 0., 0., 0., 0.,
          0., 0., 0., 0., 0., 0., 0., 0., 0., 0., 0., 0., 0., 0., 0., 0.,
          0., 0., 0., 0., 0., 0., 0., 0., 0., 0., 0., 0., 0., 0., 0., 0.,
          0., 0., 0., 0., 0., 0., 0., 0., 0., 0., 0., 0., 0., 0., 0., 0.,
          0., 0., 0., 0., 0., 0., 0., 0., 0., 0., 0., 0., 0., 0., 0., 0.,
          0., 0., 0., 0., 0., 0., 0., 0., 0., 0., 0., 0., 0., 0., 0., 0.,
          0., 0., 0., 0., 0., 0., 0., 0., 0., 0., 0., 0., 0., 0., 0., 0.,
          0., 0., 0., 0., 0., 0., 0., 0., 0., 0., 0., 0., 0., 0., 0., 0.,
          0., 0., 0., 0., 0., 0., 0., 0., 0., 0., 0., 0., 0., 0., 0., 0.,
          0., 0., 0., 0., 0., 0., 0., 0., 0., 0. ]
      - [ 0., 0., 0., 2.26560086e-02, 1.64770976e-01, 1.16369501e-01,
          2.36858279e-02, 1.54472794e-02, 0., 0., 1.02981855e-03,
          5.76698408e-02, 2.66723007e-01, 1.97725177e-01, 2.47156471e-02,
          7.20873009e-03, 0., 0., 0., 2.57454645e-02, 1.85367346e-01,
          1.58592060e-01, 2.05963720e-02, 2.05963710e-03, 0., 0., 0.,
          2.05963710e-03, 9.88625884e-02, 1.16369501e-01, 8.23854841e-03,
          5.14909299e-03, 0., 0., 0., 0., 1.85367353e-02, 2.78051030e-02,
          6.17891178e-03, 2.05963710e-03, 0., 0., 0., 0., 2.05963710e-03,
          2.05963710e-03, 0., 0., 0., 0., 0., 0., 0., 0., 0., 0., 0., 0.,
          0., 0., 0., 0., 0., 0., 0., 0., 0., 1.13280043e-02,
          2.98647396e-02, 3.29541937e-02, 2.88349204e-02, 1.64770968e-02,
          0., 0., 0., 1.02981855e-03, 1.75069161e-02, 1.44174602e-02,
          1.33876419e-02, 5.14909299e-03, 0., 0., 0., 1.02981855e-03,
          4.11927421e-03, 1.44174602e-02, 0., 0., 0., 0., 0., 0., 0., 0.,
          0., 0., 0., 0., 0., 0., 0., 0., 0., 0., 0., 0., 0., 0., 0., 0.,
          0., 0., 0., 0., 0., 0., 0., 0., 0., 0., 0., 0., 0., 0., 0., 0.,
          0., 0., 0., 0., 0., 1.13280043e-02, 1.76098987e-01,
          6.89978451e-02, 2.26560086e-02, 2.05963720e-02, 0., 0., 0., 0.,
          1.75069161e-02, 1.64770968e-02, 4.63418365e-02, 2.57454645e-02,
          0., 0., 0., 0., 0., 1.02981855e-03, 0., 0., 0., 0., 0., 0., 0.,
          0., 0., 0., 0., 0., 0., 0., 0., 0., 0., 0., 0., 0., 0., 0., 0.,
          0., 0., 0., 0., 0., 0., 0., 0., 0., 0., 0., 0., 0., 0., 0., 0.,
          0., 0., 0., 0., 0., 0., 2.16261912e-02, 2.24500462e-01,
          2.59514302e-01, 1.54472794e-02, 1.44174602e-02, 0., 0., 0., 0.,
          1.12250231e-01, 5.93175530e-01, 9.06240344e-02, 4.94312942e-02,
          0., 0., 0., 0., 3.08945589e-03, 4.53120172e-02, 5.04611097e-02,
          3.08945589e-03, 0., 0., 0., 0., 0., 0., 0., 0., 0., 0., 0., 0.,
          0., 0., 0., 0., 0., 0., 0., 0., 0., 0., 0., 0., 0., 0., 0., 0.,
          0., 0., 0., 0., 0., 0., 0., 0., 0., 0., 0., 0., 0., 0., 0.,
          5.04611097e-02, 2.29649544e-01, 1.64770976e-01, 8.23854841e-03,
          3.08945589e-03, 0., 0., 0., 3.08945589e-02, 8.85644034e-02,
          2.05963720e-02, 0., 0., 0., 0., 0., 0., 0., 0., 0., 0., 0., 0.,
          0., 0., 0., 0., 0., 0., 0., 0., 0., 0., 0., 0., 0., 0., 0., 0.,
          0., 0., 0., 0., 0., 0., 0., 0., 0., 0., 0., 0., 0., 0., 0., 0.,
          0., 0., 0., 0., 0., 0., 0., 0., 0., 1.13280043e-02,
          1.23578236e-01, 1.13280043e-01, 7.20873009e-03, 0., 0., 0., 0.,
          9.98924077e-02, 2.48186290e-01, 1.18429139e-01, 0., 0., 0., 0.,
          0., 1.02981860e-02, 9.57731307e-02, 2.98647396e-02, 0., 0., 0.,
          0., 0., 0., 4.11927421e-03, 0., 0., 0., 0., 0., 0., 0., 0., 0.,
          0., 0., 0., 0., 0., 0., 0., 0., 0., 0., 0., 0., 0., 0., 0., 0.,
          0., 0., 0., 0., 0., 0., 0., 0., 0., 0., 0., 0., 0., 0., 0., 0.,
          0., 0., 0., 0., 0., 0., 0., 0., 0., 0., 0., 0., 0., 0., 0., 0.,
          0., 0., 0., 0., 0., 0., 0., 0., 0., 0., 0., 0., 0., 0., 0., 0.,
          0., 0., 0., 0., 0., 0., 0., 0., 0., 0., 0., 0., 0., 0., 0., 0.,
          0., 0., 0., 0., 0., 0., 0., 0., 0., 0., 0., 0., 0., 0., 0., 0.,
          0., 0., 0., 0., 0., 0., 0., 0., 0., 0., 0., 0., 0., 0., 0., 0.,
          0., 0., 0., 0., 0., 0., 0., 0., 0., 0., 0., 0., 0., 0., 0., 0.,
          0., 0., 0., 0., 0., 0., 0., 0., 0., 0., 0., 0., 0., 0., 0., 0.,
          0., 0., 0., 0., 0., 0., 0., 0., 0., 0. ]
      - [ 0., 0., 0., 1.04422998e-02, 2.06947386e-01, 4.65156958e-02,
          1.89859997e-02, 4.65156958e-02, 0., 0., 9.49299952e-04,
          4.08198982e-02, 2.00302288e-01, 5.79072982e-02, 3.22761983e-02,
          0., 0., 0., 0., 3.03775985e-02, 1.59482390e-01, 1.04422994e-01,
          5.79072982e-02, 0., 0., 0., 0., 7.59439962e-03, 3.22761983e-02,
          4.65156958e-02, 2.37324983e-02, 0., 0., 0., 0., 0., 0.,
          1.89859990e-03, 5.69579983e-03, 3.79719981e-03, 0., 0., 0., 0.,
          0., 0., 0., 0., 0., 0., 0., 0., 0., 0., 0., 0., 0., 0., 0., 0.,
          0., 0., 0., 0., 0., 0., 0., 3.79719981e-03, 5.03128953e-02,
          2.37324983e-02, 2.08845995e-02, 1.42394993e-02, 0., 0., 0., 0.,
          5.69579983e-03, 1.89859990e-03, 2.84789992e-03, 0., 0., 0., 0.,
          0., 0., 0., 0., 0., 0., 0., 0., 0., 0., 0., 0., 0., 0., 0., 0.,
          0., 0., 0., 0., 0., 0., 0., 0., 0., 0., 0., 0., 0., 0., 0., 0.,
          0., 0., 0., 0., 0., 0., 0., 0., 0., 0., 0., 0., 0., 0., 0., 0.,
          1.13915997e-02, 9.87271965e-02, 5.41100986e-02, 3.22761983e-02,
          6.45523965e-02, 0., 0., 0., 1.89859990e-03, 2.08845995e-02,
          6.64509973e-03, 6.45523965e-02, 1.80366989e-02, 0., 0., 0., 0.,
          0., 0., 0., 0., 0., 0., 0., 0., 0., 0., 0., 0., 0., 0., 0., 0.,
          0., 0., 0., 0., 0., 0., 0., 0., 0., 0., 0., 0., 0., 0., 0., 0.,
          0., 0., 0., 0., 0., 0., 0., 0., 0., 0., 0., 0., 0., 0.,
          9.49299952e-04, 3.22761983e-02, 3.07573169e-01, 2.95232296e-01,
          3.32254991e-02, 5.22114970e-02, 0., 0., 9.49299952e-04,
          1.61380991e-02, 3.06623876e-01, 6.32233739e-01, 4.27184962e-02,
          5.69579983e-03, 0., 0., 0., 0., 0., 1.33851290e-01,
          1.06321596e-01, 3.79719981e-03, 0., 0., 0., 0., 0., 0.,
          1.23408996e-02, 1.32901995e-02, 0., 0., 0., 0., 0., 0., 0., 0.,
          0., 0., 0., 0., 0., 0., 0., 0., 0., 0., 0., 0., 0., 0., 0., 0.,
          0., 0., 0., 0., 0., 0., 0., 0., 0., 0., 1.89859990e-03,
          6.64509982e-02, 2.13592485e-01, 5.03128953e-02, 7.59439962e-03,
          2.65803989e-02, 0., 0., 9.49299952e-04, 1.89859997e-02,
          1.24358289e-01, 9.49299987e-03, 0., 0., 0., 0., 0., 0., 0., 0.,
          0., 0., 0., 0., 0., 0., 0., 0., 0., 0., 0., 0., 0., 0., 0., 0.,
          0., 0., 0., 0., 0., 0., 0., 0., 0., 0., 0., 0., 0., 0., 0., 0.,
          0., 0., 0., 0., 0., 0., 0., 0., 0., 0., 0., 0., 9.49299952e-04,
          5.03128953e-02, 1.62330285e-01, 6.64509973e-03, 5.69579983e-03,
          2.84789992e-03, 0., 0., 0., 9.20820981e-02, 1.22459695e-01,
          1.61380991e-02, 1.89859990e-03, 0., 0., 0., 0., 1.13915997e-02,
          2.75296979e-02, 3.79719981e-03, 0., 0., 0., 0., 0., 0., 0., 0.,
          0., 0., 0., 0., 0., 0., 0., 0., 0., 0., 0., 0., 0., 0., 0., 0.,
          0., 0., 0., 0., 0., 0., 0., 0., 0., 0., 0., 0., 0., 0., 0., 0.,
          0., 0., 0., 0., 0., 0., 0., 0., 0., 0., 0., 0., 0., 0., 0., 0.,
          0., 0., 0., 0., 0., 0., 0., 0., 0., 0., 0., 0., 0., 0., 0., 0.,
          0., 0., 0., 0., 0., 0., 0., 0., 0., 0., 0., 0., 0., 0., 0., 0.,
          0., 0., 0., 0., 0., 0., 0., 0., 0., 0., 0., 0., 0., 0., 0., 0.,
          0., 0., 0., 0., 0., 0., 0., 0., 0., 0., 0., 0., 0., 0., 0., 0.,
          0., 0., 0., 0., 0., 0., 0., 0., 0., 0., 0., 0., 0., 0., 0., 0.,
          0., 0., 0., 0., 0., 0., 0., 0., 0., 0., 0., 0., 0., 0., 0., 0.,
          0., 0., 0., 0., 0., 0., 0., 0., 0., 0., 0., 0., 0., 0., 0., 0.,
          0., 0. ]
      - [ 0., 0., 0., 0., 1.39868620e-03, 3.84638682e-02, 2.58756950e-02,
          9.09145996e-02, 0., 0., 0., 1.39868620e-03, 8.39211699e-03,
          1.00705408e-01, 1.16090953e-01, 4.47579585e-02, 0., 0., 0.,
          4.89540165e-03, 1.25881759e-02, 2.19593734e-01, 3.74148548e-01,
          2.79737227e-02, 0., 0., 0., 3.49671533e-03, 1.18888328e-02,
          2.44070739e-01, 6.72768056e-01, 7.13329911e-02, 0., 0., 0.,
          6.99343102e-04, 1.60848908e-02, 2.53162205e-01, 3.90233427e-01,
          1.14692263e-01, 0., 0., 0., 2.09802925e-03, 6.99343067e-03,
          7.34310225e-02, 1.02104090e-01, 3.84638682e-02, 0., 0., 0., 0.,
          6.99343102e-04, 0., 6.29408797e-03, 3.49671533e-03, 0., 0., 0.,
          0., 0., 0., 0., 0., 0., 0., 0., 0., 1.39868620e-03,
          6.99343067e-03, 1.67842340e-02, 4.61566448e-02, 0., 0., 0., 0.,
          0., 6.99343067e-03, 1.46862045e-02, 2.16796361e-02, 0., 0., 0.,
          0., 0., 2.79737241e-03, 2.09802925e-03, 4.19605849e-03, 0., 0.,
          0., 0., 0., 0., 0., 0., 0., 0., 0., 0., 0., 0., 0., 0., 0., 0.,
          0., 0., 0., 0., 0., 0., 0., 0., 0., 0., 0., 0., 0., 0., 0., 0.,
          0., 0., 0., 0., 0., 0., 0., 0., 0., 0., 6.99343102e-04,
          4.19605849e-03, 4.19605849e-03, 5.66467904e-02, 0., 0., 0., 0.,
          0., 0., 6.99343102e-04, 3.49671533e-03, 0., 0., 0., 0., 0., 0.,
          0., 0., 0., 0., 0., 0., 0., 0., 0., 0., 0., 0., 0., 0., 0., 0.,
          0., 0., 0., 0., 0., 0., 0., 0., 0., 0., 0., 0., 0., 0., 0., 0.,
          0., 0., 0., 0., 0., 0., 0., 0., 0., 0., 0., 0., 0., 0., 0.,
          9.79080331e-03, 1.39868613e-02, 1.46862045e-02, 0., 0., 0., 0.,
          6.99343102e-04, 3.49671533e-03, 1.46862045e-02, 0., 0., 0., 0.,
          0., 0., 0., 0., 0., 0., 0., 0., 0., 0., 0., 0., 0., 0., 0., 0.,
          0., 0., 0., 0., 0., 0., 0., 0., 0., 0., 0., 0., 0., 0., 0., 0.,
          0., 0., 0., 0., 0., 0., 0., 0., 0., 0., 0., 0., 0., 0., 0., 0.,
          0., 6.99343102e-04, 1.04901465e-02, 1.39868620e-03,
          7.69277383e-03, 0., 0., 0., 0., 0., 0., 0., 0., 0., 0., 0., 0.,
          0., 0., 0., 0., 0., 0., 0., 0., 0., 0., 0., 0., 0., 0., 0., 0.,
          0., 0., 0., 0., 0., 0., 0., 0., 0., 0., 0., 0., 0., 0., 0., 0.,
          0., 0., 0., 0., 0., 0., 0., 0., 0., 0., 0., 0., 0., 0., 0., 0.,
          6.99343102e-04, 1.39868613e-02, 2.09802925e-03, 1.32875182e-02,
          0., 0., 0., 0., 2.79737241e-03, 3.98625545e-02, 1.32875182e-02,
          2.79737241e-03, 0., 0., 0., 0., 2.09802925e-03, 1.67842340e-02,
          1.60848908e-02, 0., 0., 0., 0., 0., 1.39868620e-03, 0., 0., 0.,
          0., 0., 0., 0., 0., 0., 0., 0., 0., 0., 0., 0., 0., 0., 0., 0.,
          0., 0., 0., 0., 0., 0., 0., 0., 0., 0., 0., 0., 0., 0., 0., 0.,
          0., 0., 0., 0., 0., 0., 0., 0., 0., 0., 0., 0., 0., 0., 0., 0.,
          0., 0., 0., 0., 0., 0., 0., 0., 0., 0., 0., 0., 0., 0., 0., 0.,
          0., 0., 0., 0., 0., 0., 0., 0., 0., 0., 0., 0., 0., 0., 0., 0.,
          0., 0., 0., 0., 0., 0., 0., 0., 0., 0., 0., 0., 0., 0., 0., 0.,
          0., 0., 0., 0., 0., 0., 0., 0., 0., 0., 0., 0., 0., 0., 0., 0.,
          0., 0., 0., 0., 0., 0., 0., 0., 0., 0., 0., 0., 0., 0., 0., 0.,
          0., 0., 0., 0., 0., 0., 0., 0., 0., 0., 0., 0., 0., 0., 0., 0.,
          0., 0., 0., 0., 0., 0., 0., 0., 0., 0., 0., 0., 0., 0., 0., 0. ]
      - [ 0., 0., 0., 1.46103778e-03, 1.16883023e-02, 5.62499538e-02,
          3.21428291e-02, 6.42856583e-02, 0., 0., 0., 4.38311324e-03,
          4.89447638e-02, 3.03895861e-01, 5.44967055e-01, 6.35551438e-02,
          0., 0., 0., 0., 7.74350017e-02, 5.22320986e-01, 4.31736648e-01,
          5.47889173e-02, 0., 0., 0., 0., 9.86200497e-02, 1.95779055e-01,
          1.35145992e-01, 4.16395776e-02, 0., 0., 0., 0., 8.03570729e-03,
          1.92126468e-01, 4.38311324e-02, 3.36038694e-02, 0., 0., 0., 0.,
          1.46103778e-03, 3.36038694e-02, 7.30518892e-04, 2.33766045e-02,
          0., 0., 0., 0., 0., 0., 0., 0., 0., 0., 0., 0., 0., 0., 0., 0.,
          0., 0., 0., 0., 5.84415114e-03, 1.09577831e-02, 2.11850479e-02,
          3.14123109e-02, 0., 0., 0., 0., 2.19155662e-03, 5.84415114e-03,
          2.84902360e-02, 2.11850479e-02, 0., 0., 0., 0., 0.,
          3.65259429e-03, 2.19155662e-03, 0., 0., 0., 0., 0., 0., 0., 0.,
          0., 0., 0., 0., 0., 0., 0., 0., 0., 0., 0., 0., 0., 0., 0., 0.,
          0., 0., 0., 0., 0., 0., 0., 0., 0., 0., 0., 0., 0., 0., 0., 0.,
          0., 0., 0., 0., 7.30518892e-04, 2.19155662e-03, 8.76622647e-03,
          2.19155662e-03, 5.47889173e-02, 0., 0., 0., 0., 0.,
          2.19155662e-03, 0., 0., 0., 0., 0., 0., 0., 0., 0., 0., 0., 0.,
          0., 0., 0., 0., 0., 0., 0., 0., 0., 0., 0., 0., 0., 0., 0., 0.,
          0., 0., 0., 0., 0., 0., 0., 0., 0., 0., 0., 0., 0., 0., 0., 0.,
          0., 0., 0., 0., 0., 0., 0., 0., 0., 0., 2.19155662e-03,
          2.92207543e-02, 1.31493397e-02, 4.60226908e-02, 0., 0., 0., 0.,
          0., 5.11363195e-03, 1.46103778e-03, 0., 0., 0., 0., 0., 0., 0.,
          0., 0., 0., 0., 0., 0., 0., 0., 0., 0., 0., 0., 0., 0., 0., 0.,
          0., 0., 0., 0., 0., 0., 0., 0., 0., 0., 0., 0., 0., 0., 0., 0.,
          0., 0., 0., 0., 0., 0., 0., 0., 0., 0., 0., 0., 0., 0.,
          2.92207557e-03, 4.67532091e-02, 1.60714146e-02, 2.92207543e-02,
          0., 0., 0., 0., 2.19155662e-03, 1.46103778e-03, 0.,
          7.30518892e-04, 0., 0., 0., 0., 0., 0., 0., 0., 0., 0., 0., 0.,
          0., 0., 0., 0., 0., 0., 0., 0., 0., 0., 0., 0., 0., 0., 0., 0.,
          0., 0., 0., 0., 0., 0., 0., 0., 0., 0., 0., 0., 0., 0., 0., 0.,
          0., 0., 0., 0., 0., 0., 0., 0., 2.11850479e-02, 6.28246218e-02,
          1.97240096e-02, 1.02272639e-02, 0., 0., 0., 0., 6.57466985e-03,
          1.53408963e-02, 2.92207557e-03, 1.46103778e-03, 0., 0., 0., 0.,
          7.30518892e-04, 8.76622647e-03, 3.65259429e-03, 0., 0., 0., 0.,
          0., 0., 0., 0., 0., 0., 0., 0., 0., 0., 0., 0., 0., 0., 0., 0.,
          0., 0., 0., 0., 0., 0., 0., 0., 0., 0., 0., 0., 0., 0., 0., 0.,
          0., 0., 0., 0., 0., 0., 0., 0., 0., 0., 0., 0., 0., 0., 0., 0.,
          0., 0., 0., 0., 0., 0., 0., 0., 0., 0., 0., 0., 0., 0., 0., 0.,
          0., 0., 0., 0., 0., 0., 0., 0., 0., 0., 0., 0., 0., 0., 0., 0.,
          0., 0., 0., 0., 0., 0., 0., 0., 0., 0., 0., 0., 0., 0., 0., 0.,
          0., 0., 0., 0., 0., 0., 0., 0., 0., 0., 0., 0., 0., 0., 0., 0.,
          0., 0., 0., 0., 0., 0., 0., 0., 0., 0., 0., 0., 0., 0., 0., 0.,
          0., 0., 0., 0., 0., 0., 0., 0., 0., 0., 0., 0., 0., 0., 0., 0.,
          0., 0., 0., 0., 0., 0., 0., 0., 0., 0., 0., 0., 0., 0., 0., 0.,
          0., 0., 0., 0., 0. ]
      - [ 0., 0., 0., 5.39289322e-03, 1.19842067e-02, 6.59131398e-03,
          4.79368260e-03, 5.99210325e-04, 0., 0., 5.99210325e-04,
          1.97739415e-02, 1.73771009e-02, 2.45676246e-02, 7.19052413e-03,
          0., 0., 0., 0., 3.59526207e-03, 2.81628855e-02, 2.27699932e-02,
          1.19842067e-02, 0., 0., 0., 0., 5.99210325e-04, 7.78973429e-03,
          2.39684135e-02, 2.33692043e-02, 1.19842065e-03, 0., 0., 0., 0.,
          1.19842065e-03, 9.58736520e-03, 1.79763101e-02, 0., 0., 0., 0.,
          0., 0., 0., 0., 0., 0., 0., 0., 0., 0., 0., 0., 0., 0., 0., 0.,
          0., 0., 0., 0., 0., 0., 0., 0., 0., 3.59526207e-03,
          7.78973429e-03, 2.99605168e-03, 2.39684130e-03, 0., 0., 0., 0.,
          0., 2.39684130e-03, 0., 0., 0., 0., 0., 0., 0., 0., 0., 0., 0.,
          0., 0., 0., 0., 0., 0., 0., 0., 0., 0., 0., 0., 0., 0., 0., 0.,
          0., 0., 0., 0., 0., 0., 0., 0., 0., 0., 0., 0., 0., 0., 0., 0.,
          0., 0., 0., 0., 0., 0., 0., 0., 0., 0., 7.78973429e-03,
          1.61786787e-02, 1.49802584e-02, 5.39289322e-03, 3.05597279e-02,
          0., 0., 0., 1.79763103e-03, 1.31826280e-02, 1.07857864e-02,
          5.99210325e-04, 0., 0., 0., 0., 0., 1.79763103e-03,
          1.19842065e-03, 0., 0., 0., 0., 0., 0., 0., 0., 0., 0., 0., 0.,
          0., 0., 0., 0., 0., 0., 0., 0., 0., 0., 0., 0., 0., 0., 0., 0.,
          0., 0., 0., 0., 0., 0., 0., 0., 0., 0., 0., 0., 0., 0., 0., 0.,
          0., 6.59131398e-03, 4.61391956e-02, 2.75636762e-02,
          1.85755212e-02, 4.91352491e-02, 0., 0., 0., 3.83494608e-02,
          3.40351462e-01, 4.06863838e-01, 8.32902417e-02, 1.01865763e-02,
          0., 0., 0., 2.99605168e-03, 1.16846018e-01, 7.72981346e-01,
          2.72041500e-01, 0., 0., 0., 0., 0., 5.39289322e-03,
          4.97344583e-02, 3.05597279e-02, 0., 0., 0., 0., 0., 0., 0., 0.,
          0., 0., 0., 0., 0., 0., 0., 0., 0., 0., 0., 0., 0., 0., 0., 0.,
          0., 0., 0., 0., 0., 0., 0., 0., 0., 0., 0., 3.59526207e-03,
          2.03731526e-02, 3.41549888e-02, 8.98815505e-03, 2.39684130e-03,
          4.79368260e-03, 0., 0., 0., 5.39289303e-02, 5.21312989e-02,
          3.59526207e-03, 0., 0., 0., 0., 0., 0., 1.13849966e-02,
          2.39684130e-03, 0., 0., 0., 0., 0., 0., 0., 0., 0., 0., 0., 0.,
          0., 0., 0., 0., 0., 0., 0., 0., 0., 0., 0., 0., 0., 0., 0., 0.,
          0., 0., 0., 0., 0., 0., 0., 0., 0., 0., 0., 0., 0., 0., 0., 0.,
          1.79763103e-03, 1.13849966e-02, 8.98815505e-03, 2.39684130e-03,
          2.39684130e-03, 0., 0., 0., 0., 1.49802584e-02, 3.59526202e-02,
          3.59526207e-03, 0., 0., 0., 0., 0., 0., 4.79368260e-03, 0., 0.,
          0., 0., 0., 0., 0., 0., 0., 0., 0., 0., 0., 0., 0., 0., 0., 0.,
          0., 0., 0., 0., 0., 0., 0., 0., 0., 0., 0., 0., 0., 0., 0., 0.,
          0., 0., 0., 0., 0., 0., 0., 0., 0., 0., 0., 0., 0., 0., 0., 0.,
          0., 0., 0., 0., 0., 0., 0., 0., 0., 0., 0., 0., 0., 0., 0., 0.,
          0., 0., 0., 0., 0., 0., 0., 0., 0., 0., 0., 0., 0., 0., 0., 0.,
          0., 0., 0., 0., 0., 0., 0., 0., 0., 0., 0., 0., 0., 0., 0., 0.,
          0., 0., 0., 0., 0., 0., 0., 0., 0., 0., 0., 0., 0., 0., 0., 0.,
          0., 0., 0., 0., 0., 0., 0., 0., 0., 0., 0., 0., 0., 0., 0., 0.,
          0., 0., 0., 0., 0., 0., 0., 0., 0., 0., 0., 0., 0., 0., 0., 0.,
          0., 0., 0., 0., 0., 0., 0., 0., 0., 0., 0., 0., 0., 0., 0., 0.,
          0., 0., 0., 0., 0., 0., 0., 0., 0. ]
      - [ 0., 0., 3.30693950e-03, 7.93665498e-02, 4.87773567e-01,
          5.20842969e-02, 3.55495997e-02, 3.05891894e-02, 0., 0.,
          4.96040937e-03, 5.29110320e-02, 3.71203959e-01, 4.71238866e-02,
          3.22426595e-02, 0., 0., 0., 8.26734875e-04, 6.77922592e-02,
          1.59559831e-01, 3.88565399e-02, 1.40544930e-02, 8.26734863e-03,
          0., 0., 2.48020468e-03, 3.72030698e-02, 6.53120577e-02,
          1.90149024e-02, 5.78714395e-03, 1.57079622e-02, 0., 0.,
          8.26734875e-04, 6.61387900e-03, 2.48020468e-03, 0., 0., 0., 0.,
          0., 0., 0., 0., 0., 0., 0., 0., 0., 0., 0., 0., 0., 0., 0., 0.,
          0., 0., 0., 0., 0., 0., 0., 0., 0., 1.65346975e-03,
          9.09408368e-03, 8.43269527e-02, 1.07475528e-02, 5.78714395e-03,
          1.24010229e-02, 0., 0., 1.65346975e-03, 0., 5.78714395e-03, 0.,
          0., 0., 0., 0., 0., 0., 0., 0., 0., 0., 0., 0., 0., 0., 0., 0.,
          0., 0., 0., 0., 0., 0., 0., 0., 0., 0., 0., 0., 0., 0., 0., 0.,
          0., 0., 0., 0., 0., 0., 0., 0., 0., 0., 0., 0., 0., 0., 0., 0.,
          0., 0., 0., 0., 0., 2.48020468e-03, 8.59804228e-02,
          2.48020459e-02, 4.46436815e-02, 4.13367432e-03, 0., 0., 0.,
          8.26734875e-04, 5.78714395e-03, 8.26734875e-04, 1.07475528e-02,
          0., 0., 0., 0., 0., 0., 0., 0., 0., 0., 0., 0., 0., 0., 0., 0.,
          0., 0., 0., 0., 0., 0., 0., 0., 0., 0., 0., 0., 0., 0., 0., 0.,
          0., 0., 0., 0., 0., 0., 0., 0., 0., 0., 0., 0., 0., 0., 0., 0.,
          0., 0., 0., 2.48020468e-03, 6.61387900e-03, 2.44713515e-01,
          7.02724606e-02, 1.48812272e-02, 7.44061358e-03, 0., 0., 0.,
          3.30693950e-03, 6.77922592e-02, 1.32277578e-01, 2.81089861e-02,
          0., 0., 0., 0., 0., 8.26734875e-04, 3.72030698e-02,
          1.48812272e-02, 0., 0., 0., 0., 0., 0., 0., 0., 0., 0., 0., 0.,
          0., 0., 0., 0., 0., 0., 0., 0., 0., 0., 0., 0., 0., 0., 0., 0.,
          0., 0., 0., 0., 0., 0., 0., 0., 0., 0., 0., 0., 0., 0., 0., 0.,
          4.46436815e-02, 3.86911929e-01, 2.81089861e-02, 8.26734875e-04,
          4.13367432e-03, 0., 0., 0., 8.26734863e-03, 4.71238866e-02,
          5.78714395e-03, 0., 0., 0., 0., 0., 0., 0., 0., 0., 0., 0., 0.,
          0., 0., 0., 0., 0., 0., 0., 0., 0., 0., 0., 0., 0., 0., 0., 0.,
          0., 0., 0., 0., 0., 0., 0., 0., 0., 0., 0., 0., 0., 0., 0., 0.,
          0., 0., 0., 0., 0., 0., 0., 0., 8.26734875e-04, 6.77922592e-02,
          5.04308283e-01, 3.80298048e-02, 4.96040937e-03, 3.30693950e-03,
          0., 0., 0., 7.93665498e-02, 1.97589636e-01, 1.40544930e-02, 0.,
          0., 0., 0., 0., 1.65346975e-03, 2.56287809e-02, 0., 0., 0., 0.,
          0., 0., 0., 3.30693950e-03, 0., 0., 0., 0., 0., 0., 0., 0., 0.,
          0., 0., 0., 0., 0., 0., 0., 0., 0., 0., 0., 0., 0., 0., 0., 0.,
          0., 0., 0., 0., 0., 0., 0., 0., 0., 0., 0., 0., 0., 0., 0., 0.,
          0., 0., 0., 0., 0., 0., 0., 0., 0., 0., 0., 0., 0., 0., 0., 0.,
          0., 0., 0., 0., 0., 0., 0., 0., 0., 0., 0., 0., 0., 0., 0., 0.,
          0., 0., 0., 0., 0., 0., 0., 0., 0., 0., 0., 0., 0., 0., 0., 0.,
          0., 0., 0., 0., 0., 0., 0., 0., 0., 0., 0., 0., 0., 0., 0., 0.,
          0., 0., 0., 0., 0., 0., 0., 0., 0., 0., 0., 0., 0., 0., 0., 0.,
          0., 0., 0., 0., 0., 0., 0., 0., 0., 0., 0., 0., 0., 0., 0., 0.,
          0., 0., 0., 0., 0., 0., 0., 0., 0., 0., 0., 0., 0., 0., 0., 0.,
          0., 0., 0., 0., 0., 0., 0., 0., 0., 0. ]
      - [ 0., 0., 0., 5.96631144e-04, 5.36968000e-03, 1.49157783e-02,
          3.34113427e-02, 4.29574400e-02, 0., 0., 0., 3.57978675e-03,
          1.25292530e-02, 6.86125755e-02, 4.59405966e-02, 3.28147113e-02,
          0., 0., 1.78989337e-03, 9.54609830e-03, 3.10248174e-02,
          5.56060195e-01, 4.14658636e-01, 2.14787200e-02, 0., 0.,
          4.17641783e-03, 5.36968000e-03, 4.11675461e-02, 5.50690532e-01,
          3.30533653e-01, 3.99742834e-02, 0., 0., 1.78989337e-03,
          3.57978675e-03, 1.96888261e-02, 2.75046945e-01, 9.66542438e-02,
          2.38652457e-03, 0., 0., 0., 5.96631144e-04, 2.98315566e-03,
          3.22180800e-02, 6.56294217e-03, 0., 0., 0., 0., 0., 0., 0., 0.,
          0., 0., 0., 0., 0., 0., 0., 0., 0., 0., 0., 0., 5.96631144e-04,
          1.78989337e-03, 5.96631132e-03, 1.49157783e-02, 1.25292530e-02,
          0., 0., 0., 0., 5.96631144e-04, 5.96631144e-04, 0., 0., 0., 0.,
          0., 0., 0., 0., 0., 0., 0., 0., 0., 0., 0., 0., 0., 0., 0., 0.,
          0., 0., 0., 0., 0., 0., 0., 0., 0., 0., 0., 0., 0., 0., 0., 0.,
          0., 0., 0., 0., 0., 0., 0., 0., 0., 0., 0., 0., 0., 0., 0., 0.,
          0., 0., 5.96631144e-04, 2.98315566e-03, 1.78989340e-02,
          1.96888261e-02, 0., 0., 0., 0., 5.96631144e-04, 0., 0.,
          5.96631144e-04, 0., 0., 0., 0., 0., 0., 0., 0., 0., 0., 0., 0.,
          0., 0., 0., 0., 0., 0., 0., 0., 0., 0., 0., 0., 0., 0., 0., 0.,
          0., 0., 0., 0., 0., 0., 0., 0., 0., 0., 0., 0., 0., 0., 0., 0.,
          0., 0., 0., 0., 0., 0., 0., 0., 1.19326229e-03, 1.19326229e-03,
          3.57978675e-03, 1.37225157e-02, 0., 0., 0., 0., 2.38652457e-03,
          5.96631132e-03, 5.96631144e-04, 5.96631144e-04, 0., 0., 0., 0.,
          0., 0., 0., 0., 0., 0., 0., 0., 0., 0., 0., 0., 0., 0., 0., 0.,
          0., 0., 0., 0., 0., 0., 0., 0., 0., 0., 0., 0., 0., 0., 0., 0.,
          0., 0., 0., 0., 0., 0., 0., 0., 0., 0., 0., 0., 0., 0., 0., 0.,
          1.78989337e-03, 2.98315566e-03, 5.96631132e-03, 1.78989337e-03,
          0., 0., 0., 0., 0., 1.78989337e-03, 5.96631144e-04, 0., 0., 0.,
          0., 0., 0., 0., 0., 0., 0., 0., 0., 0., 0., 0., 0., 0., 0., 0.,
          0., 0., 0., 0., 0., 0., 0., 0., 0., 0., 0., 0., 0., 0., 0., 0.,
          0., 0., 0., 0., 0., 0., 0., 0., 0., 0., 0., 0., 0., 0., 0., 0.,
          0., 0., 2.98315566e-03, 2.38652457e-03, 1.19326229e-03,
          2.38652457e-03, 0., 0., 0., 1.19326229e-03, 1.19326229e-03,
          2.44618766e-02, 2.38652457e-03, 0., 0., 0., 0., 0.,
          5.96631144e-04, 3.93776521e-02, 8.94946698e-03, 0., 0., 0., 0.,
          0., 0., 4.17641783e-03, 0., 0., 0., 0., 0., 0., 0., 0., 0., 0.,
          0., 0., 0., 0., 0., 0., 0., 0., 0., 0., 0., 0., 0., 0., 0., 0.,
          0., 0., 0., 0., 0., 0., 0., 0., 0., 0., 0., 0., 0., 0., 0., 0.,
          0., 0., 0., 0., 0., 0., 0., 0., 0., 0., 0., 0., 0., 0., 0., 0.,
          0., 0., 0., 0., 0., 0., 0., 0., 0., 0., 0., 0., 0., 0., 0., 0.,
          0., 0., 0., 0., 0., 0., 0., 0., 0., 0., 0., 0., 0., 0., 0., 0.,
          0., 0., 0., 0., 0., 0., 0., 0., 0., 0., 0., 0., 0., 0., 0., 0.,
          0., 0., 0., 0., 0., 0., 0., 0., 0., 0., 0., 0., 0., 0., 0., 0.,
          0., 0., 0., 0., 0., 0., 0., 0., 0., 0., 0., 0., 0., 0., 0., 0.,
          0., 0., 0., 0., 0., 0., 0., 0., 0., 0., 0., 0., 0., 0., 0., 0.,
          0., 0., 0., 0., 0., 0., 0., 0. ]
      - [ 0., 0., 0., 0., 1.09577714e-03, 6.57466240e-03, 1.09577710e-02,
          6.62945136e-02, 0., 0., 0., 0., 5.47888572e-04, 1.69845447e-02,
          2.24634297e-02, 2.79423166e-02, 0., 0., 0., 0., 4.93099680e-03,
          3.01338695e-02, 5.36930785e-02, 3.94479744e-02, 0., 0., 0.,
          5.47888572e-04, 3.83521989e-03, 2.79423166e-02, 6.46508485e-02,
          7.17734024e-02, 0., 0., 0., 5.47888572e-04, 6.02677418e-03,
          3.78043093e-02, 1.63818672e-01, 7.11159348e-01, 0., 0., 0., 0.,
          2.19155429e-03, 3.67085338e-02, 3.68181109e-01, 5.30903995e-01,
          0., 0., 0., 0., 1.64366560e-03, 8.21832847e-03, 1.38067916e-01,
          3.39690894e-02, 0., 0., 0., 1.64366560e-03, 0., 0.,
          1.09577714e-03, 0., 0., 0., 0., 0., 5.47888572e-04,
          3.83521989e-03, 1.20535484e-02, 4.05437537e-02, 0., 0., 0., 0.,
          0., 3.83521989e-03, 1.91760994e-02, 3.50648686e-02, 0., 0., 0.,
          0., 0., 0., 4.93099680e-03, 2.73944275e-03, 0., 0., 0., 0., 0.,
          0., 0., 0., 0., 0., 0., 0., 0., 0., 0., 0., 0., 0., 0., 0., 0.,
          0., 0., 0., 0., 0., 0., 0., 0., 0., 0., 0., 0., 0., 0., 0., 0.,
          0., 0., 0., 0., 0., 0., 0., 1.09577714e-03, 4.38310858e-03,
          6.02677418e-03, 3.78043093e-02, 0., 0., 0., 0., 0.,
          5.47888572e-04, 1.09577714e-03, 1.09577710e-02, 0., 0., 0., 0.,
          0., 0., 0., 0., 0., 0., 0., 0., 0., 0., 0., 0., 0., 0., 0., 0.,
          0., 0., 0., 0., 0., 0., 0., 0., 0., 0., 0., 0., 0., 0., 0., 0.,
          0., 0., 0., 0., 0., 0., 0., 0., 0., 0., 0., 0., 0., 0., 0., 0.,
          0., 3.28733120e-03, 3.83521989e-03, 3.28733120e-03, 0., 0., 0.,
          0., 0., 0., 0., 0., 0., 0., 0., 0., 0., 0., 0., 0., 0., 0., 0.,
          0., 0., 0., 0., 0., 0., 0., 0., 0., 0., 0., 0., 0., 0., 0., 0.,
          0., 0., 0., 0., 0., 0., 0., 0., 0., 0., 0., 0., 0., 0., 0., 0.,
          0., 0., 0., 0., 0., 0., 0., 0., 5.47888572e-04, 0.,
          5.47888572e-04, 1.64366560e-03, 4.93099680e-03, 0., 0., 0.,
          1.09577714e-03, 0., 5.47888572e-04, 0., 0., 0., 0., 0., 0., 0.,
          0., 0., 0., 0., 0., 0., 0., 0., 0., 0., 0., 0., 0., 0., 0., 0.,
          0., 0., 0., 0., 0., 0., 0., 0., 0., 0., 0., 0., 0., 0., 0., 0.,
          0., 0., 0., 0., 0., 0., 0., 0., 0., 0., 0., 0., 0., 0., 0.,
          5.47888572e-04, 2.73944275e-03, 1.64366560e-03, 1.04098823e-02,
          0., 0., 5.47888572e-04, 0., 2.19155429e-03, 1.64366560e-03, 0.,
          5.47888572e-04, 0., 0., 0., 5.47888572e-04, 0., 2.19155429e-03,
          5.47888572e-04, 0., 0., 0., 0., 0., 0., 1.64366560e-03,
          1.64366560e-03, 0., 0., 0., 0., 0., 0., 0., 0., 0., 0., 0., 0.,
          0., 0., 0., 0., 0., 0., 0., 0., 0., 0., 0., 0., 0., 0., 0., 0.,
          0., 0., 0., 0., 0., 0., 0., 0., 0., 0., 0., 0., 0., 0., 0., 0.,
          0., 0., 0., 0., 0., 0., 0., 0., 0., 0., 0., 0., 0., 0., 0., 0.,
          0., 0., 0., 0., 0., 0., 0., 0., 0., 0., 0., 0., 0., 0., 0., 0.,
          0., 0., 0., 0., 0., 0., 0., 0., 0., 0., 0., 0., 0., 0., 0., 0.,
          0., 0., 0., 0., 0., 0., 0., 0., 0., 0., 0., 0., 0., 0., 0., 0.,
          0., 0., 0., 0., 0., 0., 0., 0., 0., 0., 0., 0., 0., 0., 0., 0.,
          0., 0., 0., 0., 0., 0., 0., 0., 0., 0., 0., 0., 0., 0., 0., 0.,
          0., 0., 0., 0., 0., 0., 0., 0., 0., 0., 0., 0., 0., 0., 0., 0.,
          0., 0., 0., 0., 0. ]
      - [ 0., 0., 0., 6.42165251e-04, 1.28433052e-02, 7.70598324e-03,
          3.21082631e-03, 4.04564105e-02, 0., 0., 0., 3.85299162e-03,
          1.60541311e-02, 2.92827368e-01, 4.36672382e-02, 2.50444449e-02,
          0., 0., 1.28433050e-03, 1.02746440e-02, 2.95396019e-02,
          6.41523063e-01, 2.69709408e-01, 3.66034210e-02, 0., 0.,
          1.92649581e-03, 1.54119665e-02, 4.49515693e-02, 4.91898596e-01,
          3.08239311e-01, 7.70598324e-03, 0., 0., 6.42165251e-04,
          7.06381770e-03, 4.49515693e-02, 1.87512249e-01, 1.20727070e-01,
          2.05492880e-02, 0., 0., 0., 5.77948708e-03, 1.34854699e-02,
          4.43094037e-02, 4.75202277e-02, 4.49515693e-03, 0., 0.,
          1.92649581e-03, 5.77948708e-03, 1.28433050e-03, 6.42165251e-04,
          0., 0., 0., 0., 6.42165251e-04, 6.42165251e-04, 0., 0., 0., 0.,
          0., 0., 0., 1.92649581e-03, 1.92649581e-03, 6.42165251e-04,
          6.42165251e-04, 6.42165262e-03, 0., 0., 0., 0., 6.42165251e-04,
          2.56866100e-03, 8.99031386e-03, 3.21082631e-03, 0., 0., 0., 0.,
          1.28433050e-03, 1.92649581e-03, 0., 0., 0., 0., 0., 0., 0., 0.,
          0., 0., 0., 0., 0., 0., 0., 0., 0., 0., 0., 0., 0., 0., 0., 0.,
          0., 0., 0., 0., 0., 0., 0., 0., 0., 0., 0., 0., 0., 0., 0., 0.,
          0., 0., 0., 0., 0., 0., 1.92649581e-03, 3.85299162e-03, 0.,
          5.13732200e-03, 0., 0., 0., 6.42165251e-04, 0., 1.28433050e-03,
          0., 0., 0., 0., 0., 0., 0., 0., 0., 0., 0., 0., 0., 0., 0., 0.,
          0., 0., 0., 0., 0., 0., 0., 0., 0., 0., 0., 0., 0., 0., 0., 0.,
          0., 0., 0., 0., 0., 0., 0., 0., 0., 0., 0., 0., 0., 0., 0., 0.,
          0., 0., 0., 0., 0., 6.42165251e-04, 6.42165251e-04,
          1.92649581e-03, 6.42165251e-04, 1.28433050e-03, 0., 0., 0.,
          6.42165251e-04, 1.28433050e-03, 0., 0., 0., 0., 0., 0., 0., 0.,
          0., 0., 0., 0., 0., 0., 0., 0., 0., 0., 0., 0., 0., 0., 0., 0.,
          0., 0., 0., 0., 0., 0., 0., 0., 0., 0., 0., 0., 0., 0., 0., 0.,
          0., 0., 0., 0., 0., 0., 0., 0., 0., 0., 0., 0., 0., 0.,
          6.42165251e-04, 5.13732200e-03, 1.02746440e-02, 0.,
          3.21082631e-03, 0., 0., 6.42165251e-04, 0., 6.42165251e-04,
          4.49515693e-03, 0., 0., 0., 0., 0., 0., 0., 0., 0., 0., 0., 0.,
          0., 0., 0., 0., 0., 0., 0., 0., 0., 0., 0., 0., 0., 0., 0., 0.,
          0., 0., 0., 0., 0., 0., 0., 0., 0., 0., 0., 0., 0., 0., 0., 0.,
          0., 0., 0., 0., 0., 0., 0., 0., 0., 6.42165251e-04,
          1.28433050e-03, 2.37601139e-02, 0., 5.77948708e-03, 0., 0., 0.,
          2.56866100e-03, 6.42165251e-04, 1.55403987e-01, 3.85299162e-03,
          6.42165251e-04, 0., 0., 0., 1.92649581e-03, 1.28433050e-03,
          3.91720794e-02, 1.54119665e-02, 0., 0., 0., 0., 0.,
          1.28433050e-03, 3.21082631e-03, 1.28433050e-03, 0., 0., 0., 0.,
          0., 0., 0., 0., 0., 0., 0., 0., 0., 0., 0., 0., 0., 0., 0., 0.,
          0., 0., 0., 0., 0., 0., 0., 0., 0., 0., 0., 0., 0., 0., 0., 0.,
          0., 0., 0., 0., 0., 0., 0., 0., 0., 0., 0., 0., 0., 0., 0., 0.,
          0., 0., 0., 0., 0., 0., 0., 0., 0., 0., 0., 0., 0., 0., 0., 0.,
          0., 0., 0., 0., 0., 0., 0., 0., 0., 0., 0., 0., 0., 0., 0., 0.,
          0., 0., 0., 0., 0., 0., 0., 0., 0., 0., 0., 0., 0., 0., 0., 0.,
          0., 0., 0., 0., 0., 0., 0., 0., 0., 0., 0., 0., 0., 0., 0., 0.,
          0., 0., 0., 0., 0., 0., 0., 0., 0., 0., 0., 0., 0., 0., 0., 0.,
          0., 0., 0., 0., 0., 0., 0., 0., 0., 0., 0., 0., 0., 0., 0., 0.,
          0., 0., 0., 0., 0., 0., 0., 0., 0., 0., 0., 0., 0. ]
      - [ 0., 0., 0., 2.11244207e-02, 1.02242202e-01, 5.83034046e-02,
          4.22488432e-03, 1.09846992e-02, 0., 0., 4.22488432e-03,
          4.56287488e-02, 1.92654729e-01, 6.75981492e-02, 2.53493059e-03,
          0., 0., 0., 5.06986119e-03, 7.18230307e-02, 1.52095839e-01,
          4.64737266e-02, 2.53493059e-03, 0., 0., 8.44976865e-04,
          3.37990746e-03, 3.37990746e-03, 6.92881048e-02, 4.05588895e-02,
          2.53493059e-02, 0., 0., 0., 1.68995373e-03, 2.53493059e-03,
          3.46440524e-02, 2.70392597e-02, 2.95741893e-02, 0., 0., 0.,
          8.44976865e-04, 0., 0., 1.35196298e-02, 1.09846992e-02, 0., 0.,
          0., 0., 0., 0., 0., 0., 0., 0., 0., 0., 0., 0., 0., 0., 0., 0.,
          0., 0., 1.68995373e-03, 7.60479178e-03, 1.35196298e-02,
          1.68995373e-03, 2.53493059e-03, 0., 0., 1.68995373e-03,
          1.68995373e-03, 2.53493059e-03, 0., 0., 0., 0., 0., 0.,
          1.68995373e-03, 0., 0., 0., 0., 0., 0., 0., 0., 0., 0., 0., 0.,
          0., 0., 0., 0., 0., 0., 0., 0., 0., 0., 0., 0., 0., 0., 0., 0.,
          0., 0., 0., 0., 0., 0., 0., 0., 0., 0., 0., 0., 0., 0., 0., 0.,
          0., 0., 0., 4.22488432e-03, 2.53493059e-02, 0., 8.44976865e-04,
          1.68995373e-03, 0., 0., 0., 0., 8.44976865e-04, 3.37990746e-03,
          0., 0., 0., 0., 0., 0., 0., 0., 0., 0., 0., 0., 0., 0., 0., 0.,
          0., 0., 0., 0., 0., 0., 0., 0., 0., 0., 0., 0., 0., 0., 0., 0.,
          0., 0., 0., 0., 0., 0., 0., 0., 0., 0., 0., 0., 0., 0., 0., 0.,
          0., 0., 0., 0., 0., 2.11244207e-02, 4.05588895e-01,
          7.35129863e-02, 8.44976865e-04, 1.09846992e-02, 0., 0., 0., 0.,
          1.44491047e-01, 2.69547611e-01, 1.77445132e-02, 0., 0., 0., 0.,
          0., 3.37990746e-03, 1.68995373e-02, 2.53493059e-03, 0., 0., 0.,
          0., 0., 0., 0., 0., 0., 0., 0., 0., 0., 0., 0., 0., 0., 0., 0.,
          0., 0., 0., 0., 0., 0., 0., 0., 0., 0., 0., 0., 0., 0., 0., 0.,
          0., 0., 0., 0., 0., 0., 0., 0., 0., 3.54890265e-02,
          4.46992755e-01, 2.87292134e-02, 5.06986119e-03, 0., 0., 0., 0.,
          2.53493059e-02, 1.86739892e-01, 3.88689339e-02, 0., 0., 0., 0.,
          0., 0., 0., 8.44976865e-04, 1.68995373e-03, 0., 0., 0., 0., 0.,
          0., 0., 0., 0., 0., 0., 0., 0., 0., 0., 0., 0., 0., 0., 0., 0.,
          0., 0., 0., 0., 0., 0., 0., 0., 0., 0., 0., 0., 0., 0., 0., 0.,
          0., 0., 0., 0., 0., 0., 0., 5.91483805e-03, 2.13779151e-01,
          3.04191671e-02, 4.22488432e-03, 4.22488432e-03, 0., 0.,
          8.44976865e-04, 6.84431270e-02, 5.29800475e-01, 1.76600158e-01,
          0., 0., 0., 1.09846992e-02, 1.68995373e-03, 4.30938192e-02,
          1.76600158e-01, 1.01397224e-02, 0., 0., 0., 1.68995373e-03, 0.,
          0., 3.37990746e-03, 0., 0., 0., 0., 0., 0., 0., 0., 0., 0., 0.,
          0., 0., 0., 0., 0., 0., 0., 0., 0., 0., 0., 0., 0., 0., 0., 0.,
          0., 0., 0., 0., 0., 0., 0., 0., 0., 0., 0., 0., 0., 0., 0., 0.,
          0., 0., 0., 0., 0., 0., 0., 0., 0., 0., 0., 0., 0., 0., 0., 0.,
